tree
version=v3
num_class=1
num_tree_per_iteration=1
label_index=0
max_feature_idx=17
objective=binary sigmoid:1
feature_names=Column_0 Column_1 Column_2 Column_3 Column_4 Column_5 Column_6 Column_7 Column_8 Column_9 Column_10 Column_11 Column_12 Column_13 Column_14 Column_15 Column_16 Column_17
feature_infos=[1.2346093662789044:1.9952932361101223] [0.077881925041574901:3.4150107712893245] [-1097.6527312392093:1786.9753826398069] [-0.47820557289860088:0.42811791383219938] [-0.57861888915942972:0.70165903149830455] [0.1940657016544588:0.43092557777262308] [-0.50441210510384615:0.24097959183673459] [0.10781690525553971:2.015115901414676] [0.36143571596895141:1.6285321476764898] [2.1653626823492496:2.2963154517607771] [10.28247361013198:10.98846101686672] [-14.742803642661976:8.9501984048142393] [0:13.715743132007686] [0:0.37497079222275531] [0:400] [0:0.0277777777777777] [0:8.1056094022998959] [0:5]
tree_sizes=1638 1672 1655 1679 1665 1668 1676 1680 1668 1669 1660 1665 1671 1678 1666 1678 1676 1663 1678

Tree=0
num_leaves=15
num_cat=0
split_feature=17 16 12 9 4 0 0 3 16 0 9 1 1 4
split_gain=166.032 65.9312 38.909 14.8739 12.8861 11.6324 10.7928 10.1777 11.8298 7.22365 6.31086 5.30796 9.34918 9.77143
threshold=1.5000000000000002 6.5679980145478085 1.7636502775414573 2.2247292091241682 0.17442400967019903 1.7135014782401623 1.4184507823078534 -0.066378309067268229 6.8329847022970549 1.7097653311245382 2.2246313133088269 0.44876239255728867 0.72674530694732853 0.060431882758083706
decision_type=2 2 2 2 2 2 2 2 2 2 2 2 2 2
left_child=1 9 3 6 7 -2 -3 -4 -9 -1 -7 -8 -13 -14
right_child=5 2 4 -5 -6 10 11 8 -10 -11 -12 12 13 -15
leaf_value=0.02729702682850571 0.76351959198878272 0.040459645071531714 0.55114800287150167 0.13039031844714 0.74561227897256899 0.068430208837960915 0.11504781511534379 0.14612621930026498 0.59987092040012069 0.48798866533440283 0.59987092040012069 0.66280468887458688 0.085911811191979215 0.45758587863176209
leaf_weight=28.363152191042904 47.907509163022041 3.5751872509717968 22.16616095602512 18.829319521784782 9.05714103579521 1.430074900388717 2.1451123505830791 6.4353370517492312 3.5751872509717941 1.4300749003887165 2.3834581673145294 5.7202996015548733 3.8135330677032462 10.963907569646834
leaf_count=119 201 15 93 79 38 6 9 27 15 6 10 24 16 46
internal_value=0.438722 0.305922 0.394496 0.266 0.534876 0.736759 0.363393 0.475557 0.308178 0.0494102 0.400581 0.414382 0.445708 0.36167
internal_weight=0 116.074 86.2812 45.0474 41.2338 51.721 26.218 32.1767 10.0105 29.7932 3.81353 22.6429 20.4977 14.7774
internal_count=704 487 362 189 173 217 110 135 42 125 16 95 86 62
is_linear=0
shrinkage=1


Tree=1
num_leaves=15
num_cat=0
split_feature=17 10 8 3 3 14 2 14 2 14 1 8 10 3
split_gain=113.583 36.6339 28.1652 10.9121 9.83985 14.1755 9.27902 8.23204 7.13009 5.97255 5.7485 10.1411 7.30977 5.71153
threshold=1.5000000000000002 10.936595011213088 0.56960194857651525 -0.015347927215658749 0.095139224113697865 56.500000000000007 -402.8205034537396 55.500000000000007 453.71100807864963 97.500000000000014 1.0449078159894725 0.84345028632632746 10.951214455997194 -0.14186482992753149
decision_type=2 2 2 2 2 2 2 2 2 2 2 2 2 2
left_child=1 2 -1 6 8 -6 9 -8 10 -4 11 12 13 -3
right_child=-2 4 3 -5 5 -7 7 -9 -10 -11 -12 -13 -14 -15
leaf_value=0.23310917998801284 0.26318759813343889 0.063169216132112488 0.049373099994995756 -0.30360978318377624 -0.44598895502609576 0.25722533385074636 -0.31168023061903893 0.022425784672689617 0.058665091784995231 -0.35961689732751428 -0.42513149289907876 -0.36044087631342214 0.049918367521271344 -0.32272201586805771
leaf_weight=14.843559831380842 47.369659841060638 1.9532884508371342 1.951586216688155 7.3876312077045432 1.7224352955818165 3.4299642443656921 3.2072818726301184 36.750510632991791 2.4784779548645011 5.3256650865077972 9.6767190396785718 15.610262259840963 5.6344046443700782 7.1506719291210201
leaf_count=65 217 8 8 30 7 15 13 155 10 22 39 63 23 29
internal_value=0 -0.103832 -0.011187 -0.0775738 -0.238877 0.0221424 -0.0422214 -0.00439182 -0.270519 -0.249935 -0.290903 -0.248104 -0.129121 -0.239928
internal_weight=0 117.122 69.4662 54.6227 47.6562 5.1524 47.235 39.9578 42.5038 7.27725 40.0253 30.3486 14.7384 9.10396
internal_count=704 487 293 228 194 22 198 168 172 30 162 123 60 37
is_linear=0
shrinkage=0.2


Tree=2
num_leaves=15
num_cat=0
split_feature=17 5 13 11 0 10 9 14 14 5 14 14 11 0
split_gain=80.2175 32.598 18.9551 11.13 10.1025 8.61619 8.40113 6.78684 5.23733 8.66151 4.20563 5.55563 5.55072 4.05693
threshold=1.5000000000000002 0.28678252567712187 0.19524701561059077 1.7781116543839761 1.7135014782401623 10.311705060919241 2.2246290500277186 55.500000000000007 95.500000000000014 0.29455669918865818 64.000000000000014 76.500000000000014 1.6460035981985388 1.6448149922499524
decision_type=2 2 2 2 2 2 2 2 2 2 2 2 2 2
left_child=1 6 3 7 -2 -6 -1 -3 -9 -10 -8 12 -12 -11
right_child=4 2 -4 -5 5 -7 10 8 9 13 11 -13 -14 -15
leaf_value=-0.057353590288812761 0.26651247300174441 -0.30618738780047855 0.18737940596488487 -0.2382078477270676 0.1964473315644418 -0.43007934227374645 -0.35434594047040724 0.12141871361224306 0.24913535474552306 -0.075551307505379084 0.2131014052105579 -0.22855593745165856 -0.25672945078747111 -0.39037127263439009
leaf_weight=14.971366941928862 39.0288075953722 2.472414672374728 19.103167802095413 10.006917878985403 1.9471876472234719 1.5990117937326429 8.8037909120321256 13.915751174092295 2.5742476731538755 5.1467641144990921 2.4196517169475547 31.63193167746067 1.7214165627956388 2.4012023210525513
leaf_count=63 201 10 88 41 9 7 36 59 11 22 10 130 7 10
internal_value=0 -0.0841433 0.0259537 -0.0584924 0.237146 -0.0860589 -0.186978 0.00934507 0.041799 -0.06766 -0.230514 -0.200038 0.0177956 -0.175704
internal_weight=0 115.169 55.6205 36.5173 42.575 3.5462 59.5482 26.5104 24.038 10.1222 44.5768 35.773 4.14107 7.54797
internal_count=704 487 241 153 217 16 246 112 102 43 183 147 17 32
is_linear=0
shrinkage=0.2


Tree=3
num_leaves=15
num_cat=0
split_feature=17 12 14 0 0 8 0 7 14 15 15 15 7 6
split_gain=58.4746 16.4174 11.4145 10.2164 7.95493 7.17499 7.43715 7.81555 4.8234 4.68237 4.77522 5.7992 3.70193 6.30631
threshold=1.5000000000000002 6.8367193877585812 55.500000000000007 1.5608655703600458 1.7135014782401623 0.53140107570575756 1.7160662528774411 1.423639319649751 160.50000000000003 0.010662468112244852 0.011979757180650001 0.01154856643744445 1.2330056764346979 -0.099495032543271883
decision_type=2 2 2 2 2 2 2 2 2 2 2 2 2 2
left_child=1 2 -1 12 -2 -5 7 8 9 -7 11 -11 -4 -14
right_child=4 -3 3 5 -6 6 -8 -9 -10 10 -12 -13 13 -15
leaf_value=-0.26127016960774146 0.24898775357256464 0.21773192799111471 -0.17383548921603409 0.22204903306429197 -0.066943219948836882 -0.30028854628590085 0.11426991658324655 0.24872786191475763 -0.35054271910333984 -0.12371690760221449 -0.088515808046632116 0.35295935288247493 -0.24364833241562103 0.07139283131930671
leaf_weight=13.516206160187719 33.959083065390587 7.4390438348054877 30.272997751832008 5.0881225019693366 3.5182307958602896 3.3594223707914415 10.958285272121428 2.7290406078100196 2.8863675445318213 1.7992512583732629 20.26653465628624 2.3599078953266144 3.9141613841056824 7.2476136535406095
leaf_count=58 201 36 128 25 16 14 49 12 12 8 88 10 16 31
internal_value=0 -0.0693311 -0.0897862 -0.0642826 0.219329 -0.00289892 -0.0287013 -0.0756083 -0.104467 -0.0789038 -0.0484553 0.146749 -0.137536 -0.0390844
internal_weight=0 111.837 104.398 90.8817 37.4773 49.4469 44.3588 33.4005 30.6715 27.7851 24.4257 4.15916 41.4348 11.1618
internal_count=704 487 451 393 217 218 193 144 132 120 106 18 175 47
is_linear=0
shrinkage=0.2


Tree=4
num_leaves=15
num_cat=0
split_feature=14 14 3 1 1 12 1 10 10 15 8 1 1 14
split_gain=14.2605 11.5278 10.7985 8.17625 7.3094 5.69041 7.72282 5.70326 5.45474 5.42898 4.70267 4.68932 5.4597 4.55471
threshold=55.500000000000007 179.50000000000003 -0.023033469989255349 1.4964139533947922 0.8967532249790241 6.8353705506193885 1.1766160768826091 10.31189034764313 10.954792798358186 0.010395998677248603 0.94903967677276702 0.72674530694732853 1.122427375210876 80.500000000000014
decision_type=2 2 2 2 2 2 2 2 2 2 2 2 2 2
left_child=-1 2 5 -3 10 6 7 9 -6 -2 -4 -11 13 -13
right_child=1 3 4 -5 8 -7 -8 -9 -10 11 -12 12 -14 -15
leaf_value=-0.19113077070356818 -0.39850486962679094 -0.21994300704922704 0.081486586771151837 0.28033873013953359 -0.25763581768165156 0.26907569138395099 -0.12002986953338056 0.12880963500048379 0.15436697561972029 0.16291636137977772 -0.17999872086886728 -0.26202145525294401 0.31845084023865877 -0.0029527633240792042
leaf_weight=13.609157070517538 1.2094182968139673 10.834463179111479 11.439196199178697 1.4859451353549946 8.9998222142457944 5.7548584789037696 8.2675547897815687 45.007915988564491 1.4995579123496998 8.1351607292890566 3.6222768276929846 3.2670391649007859 1.7889056652784336 16.050460711121559
leaf_count=65 5 48 60 8 42 32 39 248 8 39 16 14 8 72
internal_value=0 0.0242597 0.0439506 -0.159605 -0.0706963 0.0767002 0.0634775 0.0835832 -0.198792 0.0167365 0.0185995 0.0339107 -0.0158127 -0.0467673
internal_weight=0 127.363 115.042 12.3204 25.5609 89.4813 83.7265 75.4589 10.4994 30.451 15.0615 29.2416 21.1064 19.3175
internal_count=704 639 583 56 126 457 425 386 50 138 76 133 94 86
is_linear=0
shrinkage=0.2


Tree=5
num_leaves=15
num_cat=0
split_feature=17 5 13 2 8 1 4 4 3 4 7 4 4 7
split_gain=38.7562 14.6856 8.12643 7.7882 7.13246 7.32262 5.03346 4.21379 5.87687 4.60439 4.495 4.17445 6.43443 3.6242
threshold=1.5000000000000002 0.28678252567712187 0.19524701561059077 453.71100807864963 0.80719400783322992 0.98287547579309953 -0.0017671343032858997 0.025956850741372602 -0.072861745868294345 -0.023695066214470244 1.3688955094575179 0.047436050520963155 0.23254114726885303 0.97930806707449991
decision_type=2 2 2 2 2 2 2 2 2 2 2 2 2 2
left_child=1 3 7 4 5 11 -5 9 -9 -3 -11 -1 -13 -10
right_child=-2 2 -4 6 -6 -7 -8 8 13 10 -12 12 -14 -15
leaf_value=0.1550604291073856 0.19955652811704597 -0.028552705517677024 0.14123157267870107 0.3494918743529527 -0.23280897814183682 -0.20526415962188774 -0.074559628459025515 0.092938285993998171 0.051972721033422015 -0.34830164873360386 0.11315987158302937 -0.1457972221077764 0.22482913195674731 -0.31333691694501797
leaf_weight=5.1065292805433335 30.973004080355167 9.7345651090145093 15.86925072968006 2.114293560385704 22.662811055779457 11.151669368147848 2.3800983130931845 14.477082744240759 1.8041445016860986 4.3538096696138373 1.0474828183650968 8.4968140572309476 2.4037587195634833 2.7301796674728394
leaf_count=23 217 44 88 9 105 52 10 65 8 19 5 36 11 12
internal_value=0 -0.0552184 0.0229756 -0.127223 -0.149969 -0.0808429 0.124927 -0.0319814 0.0307066 -0.110721 -0.25881 0.00583764 -0.0640679 -0.167985
internal_weight=0 104.332 50.0165 54.316 49.8216 27.1588 4.49439 34.1473 19.0114 15.1359 5.40129 16.0071 10.9006 4.53432
internal_count=704 487 241 246 227 122 19 153 85 68 24 70 47 20
is_linear=0
shrinkage=0.2


Tree=6
num_leaves=15
num_cat=0
split_feature=15 16 9 9 2 6 4 2 6 2 13 9 8 15
split_gain=9.32023 6.64709 6.39456 5.94301 5.37718 5.09846 5.3942 5.08357 4.45369 4.9738 5.02434 4.10232 4.03705 3.99697
threshold=0.014662916448630652 6.5679980145478085 2.2206136016583251 2.2201855399290555 84.697726624582927 0.06520349852376206 0.023738168442916204 -187.42678910584308 -0.16072778709245963 -155.92326426209493 0.077003667846218357 2.2409793103607574 0.78559110807102672 0.015181199215797402
decision_type=2 2 2 2 2 2 2 2 2 2 2 2 2 2
left_child=1 3 -2 4 -1 6 7 11 -3 10 -10 -4 13 -8
right_child=2 8 5 -5 -6 -7 12 -9 9 -11 -12 -13 -14 -15
leaf_value=-0.14103054905316656 0.19701722083639339 -0.13990550929313575 -0.27460533792452463 -0.2047422575202513 0.28055477506913135 0.22464101850901824 -0.25162836804002126 0.04256409838091172 -0.18169512129312543 0.066444189159091865 0.037334940249468575 0.095050692116469396 0.16357650524329398 0.044166817955433979
leaf_weight=2.676996827125552 11.866697147488592 8.4803389459848386 6.1679603308439255 14.850704491138456 2.2085636034607887 4.7404895275831214 2.2417671754956272 6.0565715804696065 8.1849963739514369 29.964136436581612 8.5811676010489446 1.4911878332495687 9.5032994672656042 9.8832994103431684
leaf_count=13 92 44 31 78 16 27 11 34 40 162 48 9 49 50
internal_value=0 -0.0421736 0.0680554 -0.141794 0.0495511 0.0298774 0.00375492 -0.0943606 -0.00656214 0.0176362 -0.0695923 -0.202636 0.0659753 -0.0105219
internal_weight=0 74.9469 51.9513 19.7363 4.88556 40.0846 35.3441 13.7157 55.2106 46.7303 16.7662 7.65915 21.6284 12.1251
internal_count=704 401 303 107 29 211 184 74 294 250 88 40 110 61
is_linear=0
shrinkage=0.2


Tree=7
num_leaves=15
num_cat=0
split_feature=17 16 12 12 16 6 16 12 11 1 6 15 16 11
split_gain=26.6985 8.55701 5.33196 4.42274 3.97524 5.64471 4.09134 3.90802 4.13626 4.49452 2.95303 4.63818 4.14247 2.85301
threshold=2.5000000000000004 6.5679980145478085 1.7628471463018101 1.7712688946353483 7.4073027980851966 -0.091726825951285382 7.5109656318666245 6.8353705506193885 -4.4718644591153929 1.0788416427674976 -0.069773387230754477 0.01154856643744445 7.0263948644923531 1.6282393235071808
decision_type=2 2 2 2 2 2 2 2 2 2 2 2 2 2
left_child=1 -1 4 -4 10 13 -7 8 -5 -10 11 -3 -13 -6
right_child=-2 2 3 7 5 6 -8 -9 9 -11 -12 12 -14 -15
leaf_value=-0.14478304656906116 0.21378848980418522 -0.28354861338838239 0.26696817823241331 0.2900011588828757 0.079285364531942737 -0.00036642450694223446 0.20999667720186233 0.18210583234588396 0.023112283888329047 -0.1827469237218966 -0.2051896912172361 0.19157980903862937 -0.1384932426411104 -0.17810174480421334
leaf_weight=23.509907975792885 20.001623809337616 2.304876849055292 3.4796113818883887 1.7561745345592523 2.1977492198348063 11.802272342145445 5.3857539072632781 5.4260424599051467 16.864017114043243 5.6682009845972052 9.1184556633234006 3.5152457803487778 2.6807346343994141 7.9681674689054489
leaf_count=125 181 12 17 9 11 55 31 36 89 28 43 16 13 38
internal_value=0 -0.0389877 -0.00716833 0.0536323 -0.0520443 -0.00432221 0.0655495 0.0286503 -0.00563181 -0.0286736 -0.126133 -0.0413321 0.0487714 -0.122458
internal_weight=0 101.677 78.1673 33.194 44.9733 27.3539 17.188 29.7144 24.2884 22.5322 17.6193 8.50086 6.19598 10.1659
internal_count=704 523 398 179 219 135 86 162 126 117 84 41 29 49
is_linear=0
shrinkage=0.2


Tree=8
num_leaves=15
num_cat=0
split_feature=2 14 1 3 14 14 8 1 6 6 3 14 6 8
split_gain=5.77496 4.51867 4.21378 6.2655 4.46462 4.27478 5.19884 4.25315 3.55893 3.12656 2.95325 2.80521 2.80295 3.86616
threshold=409.00004027089727 55.500000000000007 0.8790198684446856 -0.031493737550705246 74.500000000000014 120.50000000000001 0.64105196858948499 0.82317836336426098 -0.31072059221586529 0.15506299043326302 -0.039979224376731244 66.500000000000014 0.03153759944538756 0.89456626847438059
decision_type=2 2 2 2 2 2 2 2 2 2 2 2 2 2
left_child=1 -1 5 4 -4 -3 -7 10 -6 11 -8 -2 13 -10
right_child=9 2 3 -5 8 6 7 -9 12 -11 -12 -13 -14 -15
leaf_value=-0.14376443800188957 -0.10542295109077522 0.071110396793907807 -0.24645365976546355 -0.18274449739024581 -0.37514180381275436 0.29836113005069476 -0.21630248290754117 0.33551106173325757 0.10728499234497774 -0.2278443035891653 0.034350128739210346 0.19170319876525946 -0.066723517006246957 -0.15891207698497128
leaf_weight=9.6134305596351606 1.4451276734471292 38.847502134740353 2.739666715264323 10.233314231038092 0.88021671772003429 1.3830384165048588 7.1433509588241551 0.77864149212837297 17.291710779070861 0.91398709267377931 2.5519697219133368 10.547841273248194 7.980011247098445 2.4976217523217192
leaf_count=58 9 229 14 64 4 8 39 7 99 5 16 93 43 16
internal_value=0 -0.0132714 0.000316056 -0.0468425 -0.00253662 0.0390278 -0.0660855 -0.114209 0.0207884 0.128726 -0.150327 0.1559 0.0333384 0.0736881
internal_weight=0 101.94 92.327 41.6225 31.3892 50.7045 11.857 10.474 28.6496 12.907 9.69532 11.993 27.7693 19.7893
internal_count=704 597 539 240 176 299 70 62 162 107 55 102 158 115
is_linear=0
shrinkage=0.2


Tree=9
num_leaves=15
num_cat=0
split_feature=17 0 10 5 9 14 14 16 9 0 4 9 10 10
split_gain=18.6556 5.89519 5.33866 5.17775 3.77465 2.87236 3.6369 3.76887 2.89452 3.19247 2.75965 2.37655 3.19606 5.20383
threshold=2.5000000000000004 1.7135014782401623 10.936659170757688 0.33683559809943336 2.2484480888145164 62.500000000000007 76.500000000000014 6.2765003714557031 2.237932310897405 1.4291500818606273 -0.099847617271508191 2.2383725881914676 10.935927323665927 10.935516231072564
decision_type=2 2 2 2 2 2 2 2 2 2 2 2 2 2
left_child=2 -2 4 5 11 -4 7 -7 -8 -10 -11 12 13 -1
right_child=1 -3 3 -5 -6 6 8 -9 9 10 -12 -13 -14 -15
leaf_value=-0.015265531752599738 0.22293805575148251 -0.49877684528895394 -0.2523902761314803 0.18510512593169293 -0.25675815820651804 -0.28219727229851777 -0.20184115081784226 0.16862942738102779 -0.26262637695346486 -0.29925758537011199 0.060526891089918156 0.085651086633038484 0.14620458745126183 -0.44746592695174681
leaf_weight=40.871640153229237 15.549166053533554 0.46629253029823381 5.411142066121104 2.394540809094905 2.1673416793346396 0.94232298433780926 10.234413065016271 3.4846445694565773 2.1683477908372861 0.98222689330577839 6.4698952361941338 13.545076236128805 4.7394316643476477 1.1455593109130848
leaf_count=214 179 2 37 16 12 5 61 18 13 5 31 81 25 5
internal_value=0 0.201925 -0.031497 -0.0978047 0.00256236 -0.12062 -0.0912548 0.0726666 -0.127804 -0.0490414 0.0131055 0.0118828 -0.00948741 -0.0270491
internal_weight=0 16.0155 94.5566 32.0875 62.469 29.693 24.2819 4.42697 19.8549 9.62047 7.45212 60.3017 46.7566 42.0172
internal_count=704 181 523 186 337 170 133 23 110 49 36 325 244 219
is_linear=0
shrinkage=0.2


Tree=10
num_leaves=15
num_cat=0
split_feature=3 9 2 1 9 3 0 0 0 9 9 1 9 3
split_gain=3.88355 4.99723 4.18854 4.97356 3.94486 3.26135 3.53772 4.91114 2.92323 2.38462 3.81415 6.07195 3.07096 4.60957
threshold=-0.023033469989255349 2.2456158159957131 -123.80785606987921 0.48105371694588478 2.2246332573209209 -0.11400705000327319 1.6208224776972522 1.547887936013961 1.7241399562403448 2.2381532621209224 2.2425302912926353 1.0788416427674976 2.2277421870499117 -0.10062677206934699
decision_type=2 2 2 2 2 2 2 2 2 2 2 2 2 2
left_child=2 8 9 -4 -5 -6 7 -7 -2 12 -11 -12 13 -1
right_child=1 -3 3 4 5 6 -8 -9 -10 10 11 -13 -14 -15
leaf_value=-0.077374600346908948 -0.12064266244322597 0.22124721266336073 -0.21563986299258431 0.15783303342255123 0.10821259269975458 -0.089408924176463317 -0.25056375089590271 0.23804799144332894 0.10108594905479192 0.15624066113750562 0.084129077696859803 -0.42349198053155379 -0.16883522257461842 0.12375265128636376
leaf_weight=14.932274661958219 20.128047570586212 2.1989321857690802 2.3258387744426718 16.918430935591459 10.5656047873199 5.6963668465614301 2.613090567290782 2.7005836218595505 2.6970555782318106 6.316746734082697 2.7479187399148941 1.4346593245863912 6.960023306310176 6.5606854408979443
leaf_count=76 134 17 14 153 70 40 16 15 18 40 23 7 39 42
internal_value=0 -0.0667022 0.023603 0.0683708 0.085531 0.0288357 -0.0473371 0.0159061 -0.0944428 -0.0233113 0.058151 -0.0899892 -0.0533713 -0.0159809
internal_weight=0 25.024 79.7722 40.8199 38.4941 21.5756 11.01 8.39695 22.8251 38.9523 10.4993 4.18258 28.453 21.493
internal_count=704 169 535 308 294 141 71 55 152 227 70 30 157 118
is_linear=0
shrinkage=0.2


Tree=11
num_leaves=15
num_cat=0
split_feature=12 9 3 3 3 7 16 9 9 7 2 9 4 9
split_gain=3.0106 3.43751 4.22563 3.67186 4.85609 3.41561 3.28624 3.13845 4.99822 2.9374 2.90531 5.01694 2.87941 2.75384
threshold=6.8388696697022233 2.2246332573209209 -0.11400705000327319 -0.10174780300714743 -0.015347927215658749 1.106216922854667 7.5109656318666245 2.2246242160837886 2.2246044857572227 1.6568043348203871 136.7865261802161 2.2239302464840542 0.013176398362119751 2.2440185039840905
decision_type=2 2 2 2 2 2 2 2 2 2 2 2 2 2
left_child=1 3 5 7 -5 -3 -6 8 10 13 11 -1 -7 -4
right_child=-2 2 9 4 6 12 -8 -9 -10 -11 -12 -13 -14 -15
leaf_value=-0.15918027343706342 0.1861892856145996 -0.041593748251612946 -0.098903285030864957 0.17665660700723004 -0.1454236602623277 -0.010146213471725484 0.28285118142000837 0.17130522097098563 -0.37787753526431572 0.29313775606199821 0.14705286911806678 0.10746168034076756 0.20893973880219915 0.059641130940636569
leaf_weight=7.5254173502326065 3.4289826601743689 10.004973635077478 34.733053833246231 12.445046089589598 3.7392696924507609 3.937819376587866 0.88658389449119557 3.0930861234664908 1.6556233912706364 0.86741185933351417 3.534681547433137 4.5165764838457108 6.1427698917686939 5.0149884186685076
leaf_count=37 29 60 229 113 22 24 5 19 7 5 42 25 44 43
internal_value=0 -0.0044598 -0.0338458 0.043239 0.111622 0.0411923 -0.0633412 -0.0141948 -0.0474909 -0.0709543 -0.0123745 -0.0591712 0.123357 -0.0788998
internal_weight=0 98.0973 60.701 37.3963 17.0709 20.0856 4.62585 20.3254 17.2323 40.6155 15.5767 12.042 10.0806 39.748
internal_count=704 675 405 270 140 128 27 130 111 277 104 62 68 272
is_linear=0
shrinkage=0.2


Tree=12
num_leaves=15
num_cat=0
split_feature=14 10 10 3 3 6 9 14 14 13 6 3 10 9
split_gain=2.75817 3.14098 2.89472 4.83897 4.1863 2.5793 4.73069 2.46227 2.37992 2.29219 2.42431 3.23172 2.88884 2.73483
threshold=55.500000000000007 10.955440199644547 10.944864208806072 0.017255134538209954 -0.097425989277169736 -0.038921848880618996 2.2261303087296462 95.500000000000014 34.500000000000007 0.059782366993379403 0.057988415505549458 -0.030486795029731246 10.925284826839304 2.2246651021957375
decision_type=2 2 2 2 2 2 2 2 2 2 2 2 2 2
left_child=8 2 9 4 5 -4 -7 -5 -1 10 12 -12 13 -2
right_child=1 -3 3 7 -6 6 -8 -9 -10 -11 11 -13 -14 -15
leaf_value=-0.010704029208273076 -0.027083054733715303 0.20273976510123221 -0.090679388656274867 0.19704870328871718 -0.18772043134726626 -0.22953957054775267 0.41692327110806282 -0.23446413415678724 -0.22071262977841069 0.070011544625819377 0.21684190838996684 -0.1547676751290451 0.068665832700350191 -0.1920050291077752
leaf_weight=4.7937007769942266 20.14798475056887 3.344466768205165 2.6511540152132511 3.423298828303813 10.26473106443882 0.66995853185653809 1.3968483805656431 0.62560606747865666 3.926470473408699 26.823259595781565 3.7651758529245853 1.2458315715193737 9.6570571660995466 5.0250059515237799
leaf_count=33 112 40 18 22 69 6 6 6 32 209 20 7 98 26
internal_value=0 0.0125944 0.00517355 -0.0636223 -0.116048 0.0398883 0.207371 0.130375 -0.105266 0.0248137 -0.00561612 0.124453 -0.0243292 -0.0600046
internal_weight=0 89.0404 85.6959 19.0316 14.9827 4.71796 2.06681 4.0489 8.72017 66.6643 39.8411 5.01101 34.83 25.173
internal_count=704 639 599 127 99 30 12 28 65 472 263 27 236 138
is_linear=0
shrinkage=0.2


Tree=13
num_leaves=15
num_cat=0
split_feature=15 2 13 14 14 7 13 7 14 2 15 2 2 14
split_gain=4.89487 2.89777 3.12436 3.09732 3.61381 2.72174 2.4637 3.00012 2.29762 2.38457 2.85022 2.36301 2.39606 2.3043
threshold=0.014715230104246102 -288.66740907192019 0.077042307590349107 69.500000000000014 191.00000000000003 0.88687709165315354 0.09775402510371671 1.2192323688166169 247.00000000000003 -394.65014448657365 0.018342397722978052 -5.1775994258523061 -269.09015482371018 87.500000000000014
decision_type=2 2 2 2 2 2 2 2 2 2 2 2 2 2
left_child=1 2 -1 -3 -5 -2 -4 -8 9 13 11 12 -11 -7
right_child=5 3 6 4 -6 8 7 -9 -10 10 -12 -13 -14 -15
leaf_value=-0.21820863400929494 -0.034781762255207356 -0.13190619862322783 0.33261420948800519 0.024862574148152388 -0.20747147995621937 0.14180583577626124 -0.21408328918309125 0.18747673533395859 0.43614735947925065 0.17219390758348929 0.23281256782989437 0.16110472319314612 -0.070127128364367006 -0.11925371985368878
leaf_weight=6.3013753443956357 9.1146918386220914 7.4681993909180155 0.75794063508510623 37.537864077836275 2.8836543634533873 2.0661901943385628 2.0485046729445462 1.1688516288995741 0.75298586115240951 2.2515222020447254 5.8148539774119845 6.0829305499792108 5.9339375086128747 3.9151213951408863
leaf_count=45 63 54 7 259 22 19 13 9 5 15 46 82 41 24
internal_value=0 -0.0342538 -0.130619 -0.0135747 0.00828796 0.0596351 0.0082217 -0.0681983 0.0917253 0.0817752 0.114789 0.0666899 -0.00347343 -0.029073
internal_weight=0 58.1664 10.2767 47.8897 40.4215 35.9322 3.9753 3.21736 26.8175 26.0646 20.0832 14.2684 8.18546 5.98131
internal_count=704 409 74 335 281 295 29 22 232 227 184 138 56 43
is_linear=0
shrinkage=0.2


Tree=14
num_leaves=15
num_cat=0
split_feature=17 0 0 7 15 0 8 2 2 1 13 2 1 14
split_gain=10.8676 3.96936 3.17694 2.63849 2.13976 1.84733 3.17494 2.02173 3.58796 3.07655 3.05272 2.63912 2.16795 2.13523
threshold=2.5000000000000004 1.7135014782401623 1.4055024563909397 1.4761478271047324 0.021232035721034406 1.7500954258849772 0.92942886986630036 136.7865261802161 169.61077350806787 1.122427375210876 0.19508815617592612 91.314530226690508 0.7959180180959543 112.50000000000001
decision_type=2 2 2 2 2 2 2 2 2 2 2 2 2 2
left_child=2 -2 -1 4 5 7 -7 10 -9 12 11 13 -10 -4
right_child=1 -3 3 -5 -6 6 -8 8 9 -11 -12 -13 -14 -15
leaf_value=-0.16997268236324792 0.21702877840883816 -0.38893717519436871 -0.041951811040667725 0.12123679035894369 0.29373062037764192 0.11795629769862151 -0.33216115214496 0.37513195672836669 0.012979761611651814 0.22112886282405025 0.037255650793028137 -0.36087361442130622 -0.21130108390438229 -0.14681768204906068
leaf_weight=5.5329765081405631 10.191246306523677 0.45155745744705278 27.231915317475796 5.4377912878990164 0.84064793586730857 6.0975041091442099 0.69864202290773381 1.1360158622264851 5.8003854751586896 2.0304160751402369 11.109283369034527 1.3071759641170491 2.4530279263854027 10.865606695413588
leaf_count=43 179 2 166 38 5 38 5 5 37 12 76 8 17 73
internal_value=0 0.191319 -0.0237211 -0.0129328 -0.0234198 -0.027299 0.0716843 -0.0381606 0.0378376 0.000577971 -0.0553418 -0.0814476 -0.0536796 -0.0718601
internal_weight=0 10.6428 80.5414 75.0084 69.5706 68.73 6.79615 61.9338 11.4198 10.2838 50.514 39.4047 8.25341 38.0975
internal_count=704 181 523 480 442 437 43 394 71 66 323 247 54 239
is_linear=0
shrinkage=0.2


Tree=15
num_leaves=15
num_cat=0
split_feature=17 9 10 9 5 7 4 4 4 9 8 8 4 5
split_gain=8.55723 2.43282 2.51636 2.18097 2.16148 2.10625 2.32393 4.06418 3.49761 2.72165 2.56421 4.78401 4.29358 3.92306
threshold=2.5000000000000004 2.2484480888145164 10.936659170757688 2.2064630096019013 0.33683559809943336 0.65035718604595172 -0.031052126744708749 -0.083273470231368232 -0.011796736723357947 2.2373114600475192 0.78559110807102672 0.57541066015152598 0.078330361398926962 0.36143615879143959
decision_type=2 2 2 2 2 2 2 2 2 2 2 2 2 2
left_child=1 2 5 -2 -4 -1 7 -7 9 -8 11 13 -12 -10
right_child=3 -3 4 -5 -6 6 8 -9 10 -11 12 -13 -14 -15
leaf_value=-0.26046486987414619 -0.1900039120271203 -0.23759169020859081 -0.085117741112724174 0.21374637215476647 0.14214411863587201 -0.0024678992284009743 -0.306795367913196 0.24885126412878203 0.1395361109401741 0.047742874388464605 -0.039057137835607075 -0.092055385294897818 0.18310293870271488 -0.39197001791631064
leaf_weight=1.122993379831313 0.5720166452229013 1.9923320338129986 21.962409086525444 8.3055645525455457 1.8121366947889317 6.3401177544146776 2.5497712343931123 4.3327788040041835 7.3220951259136369 1.3116238340735433 6.4288553297519666 15.392456226050852 7.5856094360351562 0.60108041018247593
leaf_count=8 4 14 168 177 16 39 13 24 64 8 39 84 42 4
internal_value=0 -0.0193989 -0.0137358 0.187731 -0.0677955 0.0105199 0.0163874 0.0995579 -0.00516247 -0.186367 0.0135812 -0.0270577 0.0811914 0.0992142
internal_weight=0 78.7543 76.7619 8.87758 23.7745 52.9874 51.8644 10.6729 41.1915 3.8614 37.3301 23.3156 14.0145 7.92318
internal_count=704 523 509 181 184 325 317 63 254 21 233 152 81 68
is_linear=0
shrinkage=0.2


Tree=16
num_leaves=15
num_cat=0
split_feature=3 1 12 1 1 14 5 14 5 12 14 6 5 10
split_gain=1.74233 2.02054 1.63368 1.89681 2.30931 2.87914 2.25902 2.06436 2.23518 1.96503 1.75188 1.6808 5.06067 2.22892
threshold=0.12826363636363633 0.76407683626118728 6.8388696697022233 0.80656589446565941 0.79205981882936205 136.50000000000003 0.23569882231463263 55.500000000000007 0.32938912626283479 6.8335611253134392 74.500000000000014 0.080622317777921518 0.30280541457397059 10.311886735490715
decision_type=2 2 2 2 2 2 2 2 2 2 2 2 2 2
left_child=2 -2 3 4 5 7 -7 8 -1 10 -5 -12 13 -13
right_child=1 -3 -4 9 -6 6 -8 -9 -10 -11 11 12 -14 -15
leaf_value=-0.19506496061363002 -0.4203454440964578 0.040527875740295538 0.16148079321318398 -0.13281065201775996 0.29634499990829649 0.14467905923622024 -0.18223308601878363 0.068430966867906423 0.089467934812383021 -0.36156309282235899 0.008216603574648677 0.30972045364540624 -0.48657906966670883 -0.087589637533632234
leaf_weight=2.6697872839868095 0.83153739571571239 0.70152042061090469 2.6086833178997031 5.0854707807302466 1.2899897210299958 1.0664616338908661 4.0809472315013409 26.447906218469143 1.8834243044257162 0.69665893912315269 32.098227875307202 0.7377938032150263 1.1380113959312437 2.4088237006217241
leaf_count=28 5 6 29 41 8 11 31 226 11 4 277 4 5 18
internal_value=0 -0.209452 0.00574078 0.000637031 0.0334007 0.0240173 -0.114502 0.047017 -0.0773687 -0.028454 -0.0228579 -0.00748903 -0.125148 0.00556847
internal_weight=0 1.53306 82.2122 79.6035 37.4385 36.1485 5.14741 31.0011 4.55321 42.165 41.4683 36.3829 4.28463 3.14662
internal_count=704 11 693 664 315 307 42 265 39 349 345 304 27 22
is_linear=0
shrinkage=0.2


Tree=17
num_leaves=15
num_cat=0
split_feature=9 9 9 9 10 9 2 7 16 10 1 0 7 1
split_gain=1.383 1.86628 1.53437 3.37171 2.16495 2.06928 2.00153 2.60659 3.27936 2.04831 2.12955 2.03584 2.01327 3.41652
threshold=2.2514195444763105 2.2440185039840905 2.2246651021957375 2.225427037693867 10.311385338696963 2.2269101260140518 -295.19480308491512 1.0148231815581552 7.5207645301283312 10.311522467870436 0.46453322805255742 1.6419120409366557 0.77416847165824076 0.98114295414453634
decision_type=2 2 2 2 2 2 2 2 2 2 2 2 2 2
left_child=1 2 6 -4 -5 -6 7 8 -1 11 -11 -8 13 -12
right_child=-2 -3 3 4 5 -7 9 -9 -10 10 12 -13 -14 -15
leaf_value=-0.14251742238783696 -0.17904120306739327 0.14345535054762121 -0.20476471526812606 0.28803036172047414 0.21319164750692443 -0.026488833386173052 0.11185794459312509 -0.17416501671590703 0.27516520178034798 -0.12969219522933537 -0.36433211690074524 -0.25015242489843231 0.10493710741831482 0.23384079129187368
leaf_weight=1.4543621074408286 1.6647942773997773 3.7204945329576722 3.8842837214469901 0.9558582678437223 1.5014781057834614 35.673770219087601 0.99835343658924403 3.9091540798544884 1.5566843971610067 1.9366472288966203 0.96601380407810455 1.6456739008426664 21.323818733915687 0.63168955221772194
leaf_count=11 14 51 33 5 12 295 5 25 10 13 5 8 211 6
internal_value=0 0.00513134 -0.00160137 -0.0272496 -0.00916674 -0.0168083 0.0297044 -0.066438 0.0734208 0.0538961 0.071697 -0.113462 0.0887125 -0.12783
internal_weight=0 80.1583 76.4378 42.0154 38.1311 37.1752 34.4224 6.9202 3.01105 27.5022 24.8582 2.64403 22.9215 1.5977
internal_count=704 690 639 345 312 307 294 46 21 248 235 13 222 11
is_linear=0
shrinkage=0.2


Tree=18
num_leaves=15
num_cat=0
split_feature=17 0 14 0 10 0 0 11 0 15 13 15 15 6
split_gain=6.46926 2.37456 2.11348 2.07633 1.79641 1.53829 2.19955 2.13727 2.93591 1.99455 1.65239 2.09271 3.08277 1.97162
threshold=2.5000000000000004 1.4184507823078534 144.50000000000003 1.7135014782401623 10.947153746950976 1.4520088420781956 1.4394697024682088 2.0388068468127996 1.4367441059682238 0.020964946374172504 0.22053338130787761 0.01154856643744445 0.011979757180650001 0.12876526167305949
decision_type=2 2 2 2 2 2 2 2 2 2 2 2 2 2
left_child=1 2 -1 -2 -4 6 7 8 -3 10 11 -7 -13 -14
right_child=3 5 4 -5 -6 9 -8 -9 -10 -11 -12 12 13 -15
leaf_value=-0.20384400595357219 0.21160021065205822 0.19442561464059971 0.16233029667461196 -0.28636072406600233 -0.21849930239640181 -0.11036997377548595 0.21702242931411317 -0.23628001690622852 -0.25092607876036643 0.29585917343848273 0.086568200131892772 0.14617947020732466 -0.021786864419816018 -0.31032944439207522
leaf_weight=4.6966233961284152 6.554222146049141 2.2892440818250175 1.4620798770338299 0.35297797620296467 0.74940374866127957 10.497353740036486 2.9040861241519451 1.1895912215113638 0.7986769527196883 0.81223564594983955 5.3114480860531321 4.4848113022744647 36.600623045116663 0.97241603583097358
leaf_count=35 179 17 13 2 10 78 18 12 4 6 43 32 249 6
internal_value=0 -0.0163808 -0.127934 0.186153 0.0332789 -0.00467995 0.0826911 -0.00850911 0.0792374 -0.0153731 -0.0197417 -0.0304858 -0.0105473 -0.0292545
internal_weight=0 72.7686 6.90811 6.9072 2.21148 65.8605 7.1816 4.27751 3.08792 58.6789 57.8667 52.5552 42.0579 37.573
internal_count=704 523 58 181 23 465 51 33 21 414 408 365 287 255
is_linear=0
shrinkage=0.2


end of trees

feature_importances:
Column_14=30
Column_9=29
Column_0=22
Column_1=21
Column_3=18
Column_2=17
Column_10=16
Column_4=14
Column_15=13
Column_6=12
Column_7=12
Column_8=11
Column_16=10
Column_17=10
Column_5=9
Column_12=9
Column_13=8
Column_11=5

parameters:
[boosting: gbdt]
[objective: binary]
[metric: binary_logloss]
[tree_learner: serial]
[device_type: cpu]
[linear_tree: 0]
[data: ]
[valid: ]
[num_iterations: 10000]
[learning_rate: 0.2]
[num_leaves: 15]
[num_threads: 0]
[deterministic: 0]
[force_col_wise: 0]
[force_row_wise: 0]
[histogram_pool_size: -1]
[max_depth: -1]
[min_data_in_leaf: 5]
[min_sum_hessian_in_leaf: 0.001]
[bagging_fraction: 0.9]
[pos_bagging_fraction: 1]
[neg_bagging_fraction: 1]
[bagging_freq: 0]
[bagging_seed: 28073]
[feature_fraction: 0.5]
[feature_fraction_bynode: 1]
[feature_fraction_seed: 8222]
[extra_trees: 0]
[extra_seed: 8505]
[early_stopping_round: 50]
[first_metric_only: 0]
[max_delta_step: 0]
[lambda_l1: 0]
[lambda_l2: 0]
[linear_lambda: 0]
[min_gain_to_split: 0]
[drop_rate: 0.1]
[max_drop: 50]
[skip_drop: 0.5]
[xgboost_dart_mode: 0]
[uniform_drop: 0]
[drop_seed: 15689]
[top_rate: 0.2]
[other_rate: 0.1]
[min_data_per_group: 100]
[max_cat_threshold: 32]
[cat_l2: 10]
[cat_smooth: 10]
[max_cat_to_onehot: 4]
[top_k: 20]
[monotone_constraints: ]
[monotone_constraints_method: basic]
[monotone_penalty: 0]
[feature_contri: ]
[forcedsplits_filename: ]
[refit_decay_rate: 0.9]
[cegb_tradeoff: 1]
[cegb_penalty_split: 0]
[cegb_penalty_feature_lazy: ]
[cegb_penalty_feature_coupled: ]
[path_smooth: 0]
[interaction_constraints: ]
[verbosity: -1]
[saved_feature_importance_type: 0]
[max_bin: 255]
[max_bin_by_feature: ]
[min_data_in_bin: 3]
[bin_construct_sample_cnt: 200000]
[data_random_seed: 20155]
[is_enable_sparse: 1]
[enable_bundle: 1]
[use_missing: 1]
[zero_as_missing: 0]
[feature_pre_filter: 1]
[pre_partition: 0]
[two_round: 0]
[header: 0]
[label_column: ]
[weight_column: ]
[group_column: ]
[ignore_column: ]
[categorical_feature: ]
[forcedbins_filename: ]
[objective_seed: 15792]
[num_class: 1]
[is_unbalance: 0]
[scale_pos_weight: 1]
[sigmoid: 1]
[boost_from_average: 1]
[reg_sqrt: 0]
[alpha: 0.9]
[fair_c: 1]
[poisson_max_delta_step: 0.7]
[tweedie_variance_power: 1.5]
[lambdarank_truncation_level: 30]
[lambdarank_norm: 1]
[label_gain: ]
[eval_at: ]
[multi_error_top_k: 1]
[auc_mu_weights: ]
[num_machines: 1]
[local_listen_port: 12400]
[time_out: 120]
[machine_list_filename: ]
[machines: ]
[gpu_platform_id: -1]
[gpu_device_id: -1]
[gpu_use_dp: 0]
[num_gpu: 1]

end of parameters

pandas_categorical:null
