tree
version=v3
num_class=1
num_tree_per_iteration=1
label_index=0
max_feature_idx=17
objective=binary sigmoid:1
feature_names=Column_0 Column_1 Column_2 Column_3 Column_4 Column_5 Column_6 Column_7 Column_8 Column_9 Column_10 Column_11 Column_12 Column_13 Column_14 Column_15 Column_16 Column_17
feature_infos=[1.2346093662789044:1.966487134882178] [0.077881925041574901:3.4150107712893245] [-1646.6776231156573:1786.9753826398069] [-0.39796363636363641:0.42811791383219938] [-0.79507032854722426:0.70165903149830455] [0.19011554804521:0.43092557777262308] [-0.50441210510384615:0.24097959183673459] [0.10781690525553971:2.015115901414676] [0.36143571596895141:1.6285321476764898] [2.1653626823492496:2.2963154517607771] [10.305552712070426:11.005539406286918] [-14.742803642661976:8.9501984048142393] [0:10.366555276495172] [0:0.43193980318729891] [0:400] [0:0.0277777777777777] [0:8.3037524155634124] [0:5]
tree_sizes=1646 1669 1667 1671 1662 1668 1677 1671 1668 1668 1664 1668 1670 1658 1678 1663 1672 1662 1664 1677 1689 1685 1677 1671 1676 1681 1698 1683

Tree=0
num_leaves=15
num_cat=0
split_feature=17 16 12 9 0 0 3 0 9 9 9 0 9 13
split_gain=167.899 71.6483 45.9952 17.487 12.9571 12.0226 17.6983 11.4458 9.14382 9.48591 7.39646 8.88855 6.35734 6.34913
threshold=1.5000000000000002 6.5679980145478085 1.7641486014639502 2.2247755076617497 1.6295652611109706 1.5488865301821901 -0.065156657337609683 1.4193416732680588 2.2246203108603266 2.224499727505969 2.2239030266535407 1.7055093438098534 2.2425303843846738 0.19576789818616505
decision_type=2 2 2 2 2 2 2 2 2 2 2 2 2 2
left_child=1 -1 3 7 -2 6 -4 -3 9 10 11 -9 13 -7
right_child=4 2 5 -5 -6 12 -8 8 -10 -11 -12 -13 -14 -15
leaf_value=-0.0056449948798142913 0.73162773207725396 0.0036554638318004873 0.54963466501589042 0.074270057753316798 0.43449619401788503 0.46246151524700202 0.080522100851506351 0.17698219436643214 0.57755952715758119 0.010588533053185412 0.6206986245350895 0.63918680912545012 0.17698219436643198 0.67541365730926528
leaf_weight=29.568434044718742 45.915210589766502 3.8463003635406521 7.6926007270812988 19.471895590424538 6.7310256361961356 8.1733882725238853 5.5290567725896818 7.211813181638723 6.490631863474845 3.6059065908193579 3.6059065908193579 2.1635439544916153 1.4423626363277424 17.789139181375504
leaf_count=123 191 16 32 81 28 34 23 30 27 15 15 9 6 74
internal_value=0.397186 0.263324 0.354714 0.218652 0.693638 0.510098 0.35346 0.323072 0.376308 0.297557 0.377271 0.283645 0.585668 0.608373
internal_weight=0 116.591 87.0225 46.396 52.6462 40.6265 13.2217 26.9241 23.0778 16.5872 12.9813 9.37536 27.4049 25.9625
internal_count=704 485 362 193 219 169 55 112 96 69 54 39 114 108
is_linear=0
shrinkage=1


Tree=1
num_leaves=15
num_cat=0
split_feature=17 10 8 1 14 14 14 3 3 2 14 1 1 1
split_gain=114.21 41.8828 27.5007 10.867 11.7972 19.2734 10.4112 9.22823 8.06266 7.38758 7.25118 11.0935 6.97433 5.76713
threshold=1.5000000000000002 10.936595803133541 0.56799942517576629 0.91505111133511063 57.500000000000007 87.500000000000014 55.500000000000007 -0.014471464592655697 0.016941825527718956 99.53435435691533 103.50000000000001 1.2061213295084063 0.49907264396655876 0.76194196834074013
decision_type=2 2 2 2 2 2 2 2 2 2 2 2 2 2
left_child=1 2 -1 4 -3 8 -4 10 9 13 11 -8 -2 -6
right_child=12 3 6 -5 5 -7 7 -9 -10 -11 -12 -13 -14 -15
leaf_value=0.23542751247719088 -0.12322393482757431 -0.39039727020706522 -0.33977460382108532 -0.37326262875592603 -0.40637179227103543 -0.27344060417845356 0.088034935016418236 -0.30131436980019849 0.29115359400958035 0.37510931438483652 -0.11266668974989656 -0.43666593125358522 0.27462845861569346 0.038173061642826606
leaf_weight=14.906653821468351 1.8315221071243275 7.6954778283834484 5.2250174582004538 17.605448350310326 2.2485518902540225 12.391878604888914 24.422090440988544 4.9572395682334891 4.6537439972162247 1.2308743298053739 17.591841027140617 1.7256726324558247 46.737991333007812 2.4275689870119095
leaf_count=65 8 31 21 71 9 50 103 20 20 5 73 7 211 10
internal_value=0 -0.105172 -0.00501448 -0.248036 -0.176101 -0.104252 -0.0714845 -0.0426978 0.0942724 -0.0608377 -0.0133874 0.0534063 0.259626 -0.17559
internal_weight=0 117.082 68.8285 48.2535 30.6481 22.9526 53.9219 48.6968 10.5607 5.907 43.7396 26.1478 48.5695 4.67612
internal_count=704 485 289 196 125 94 224 203 44 24 183 110 219 19
is_linear=0
shrinkage=0.2


Tree=2
num_leaves=15
num_cat=0
split_feature=17 5 13 0 9 14 11 14 12 9 10 14 5 12
split_gain=80.5367 32.4804 17.8813 11.0446 10.8945 10.2521 10.5106 7.63316 5.86865 5.54828 5.49084 4.73743 4.4479 4.07552
threshold=1.5000000000000002 0.28722832994634068 0.19576789818616505 1.6295652611109706 2.2246243022122374 55.500000000000007 2.9952921728710868 75.500000000000014 5.0722858027533926 2.238205997601225 10.31170512861461 103.50000000000001 0.30280541457397059 1.7641486014639502
decision_type=2 2 2 2 2 2 2 2 2 2 2 2 2 2
left_child=1 4 5 -2 -1 -3 11 -5 -6 -10 -9 13 -13 -7
right_child=3 2 -4 7 8 6 -8 10 9 -11 -12 12 -14 -15
leaf_value=-0.034683119368654869 0.27398505431012549 -0.35096385345847547 0.18638829588070285 -0.4340737485299988 -0.26438648629165035 0.052269038049150042 -0.29256276993853131 0.29841494265365093 -0.23895563966208086 0.093250959196480909 -0.12486499652707091 0.02237806284749402 -0.27608677171373808 0.31761219851642403
leaf_weight=14.708863034844397 37.572892084717751 4.1636347919702521 18.674175053834915 1.3491875231266011 38.673492550849915 14.145147472620019 4.6553444117307654 2.6523520946502686 4.1164802610874158 3.9315744191408157 2.2793278396129608 5.4765096157789213 3.1437130123376846 2.768591344356536
leaf_count=61 191 17 87 6 159 60 19 12 17 17 10 23 13 12
internal_value=0 -0.0858069 0.0288662 0.232948 -0.184793 -0.0567625 -0.0161869 -0.0125387 -0.232051 -0.0766686 0.102783 0.0342018 -0.0864692 0.0957028
internal_weight=0 114.458 53.0271 43.8538 61.4304 34.3529 30.1893 6.28087 46.7215 8.04805 4.93168 25.534 8.62022 16.9137
internal_count=704 485 231 219 254 144 127 28 193 34 22 108 36 72
is_linear=0
shrinkage=0.2


Tree=3
num_leaves=15
num_cat=0
split_feature=17 14 0 7 0 8 14 6 8 6 15 4 7 15
split_gain=58.5644 16.356 13.0183 9.76769 9.36149 8.96904 7.36421 4.59808 4.53872 4.40663 7.72484 4.56535 4.23617 4.54589
threshold=1.5000000000000002 57.500000000000007 1.5637580004891611 1.4043012380902475 1.7156288901079659 0.53169042589458837 103.50000000000001 -0.099495032543271883 1.183942922932151 0.086909450045524153 0.011688640276012652 0.087615734273162008 1.4729988888801369 0.010662468112244852
decision_type=2 2 2 2 2 2 2 2 2 2 2 2 2 2
left_child=1 -1 3 8 -2 -4 12 -5 9 11 -11 -3 13 -7
right_child=4 2 5 7 -6 6 -8 -9 -10 10 -12 -13 -14 -15
leaf_value=-0.26608537076182182 0.24425813277874442 -0.24127623115431171 0.22987980456228804 -0.08664707109770857 -0.10750041470929445 -0.16117793054716822 -0.1327097005108801 0.27414946239052618 0.14556103031620257 -0.25949497803076976 0.27166087964222013 -0.070216868651940864 0.30358424293313846 0.059868867355524817
leaf_weight=14.903368189930914 35.526253148913383 24.076391384005547 7.5125605165958396 2.4394762516021729 3.3081309646368018 4.4110118746757569 13.018373623490332 3.3575180917978278 1.8984501063823689 2.1070688515901557 2.2807280570268631 8.4245073646306974 2.3722150772809973 23.804875507950783
leaf_count=65 204 103 38 10 15 19 54 15 8 9 10 36 11 107
internal_value=0 -0.0711914 -0.0408415 -0.119827 0.214293 0.0280463 -0.0067257 0.12232 -0.156017 -0.171537 0.0165939 -0.196936 0.0468934 0.0253124
internal_weight=0 110.607 95.7032 44.5841 38.8344 51.119 43.6065 5.79699 38.7871 36.8887 4.3878 32.5009 30.5881 28.2159
internal_count=704 485 420 191 219 229 191 25 166 158 19 139 137 126
is_linear=0
shrinkage=0.2


Tree=4
num_leaves=15
num_cat=0
split_feature=14 10 10 1 10 12 15 10 3 10 9 3 1 14
split_gain=15.188 8.95847 14.3115 12.1643 11.2384 9.96412 7.84765 6.72362 5.54174 6.69385 4.9126 4.552 3.90355 3.22721
threshold=57.500000000000007 10.936796439631353 10.95479502214493 0.88982031791632721 10.925387797962049 1.7641486014639502 0.011550453514739151 10.31170512861461 0.041683663332558657 10.942764122869514 2.2239375559485377 -0.15508208147836164 0.82189337910317095 73.500000000000014
decision_type=2 2 2 2 2 2 2 2 2 2 2 2 2 2
left_child=-1 4 3 8 5 7 10 -2 9 13 -6 -5 -11 -3
right_child=1 2 -4 11 6 -7 -8 -9 -10 12 -12 -13 -14 -15
leaf_value=-0.18544905778700793 0.012788459685829062 -0.31607395665826715 0.21094428792401598 0.20369732981832353 -0.43931757166786634 0.11782254451932901 0.22170416570207507 -0.1717214930614864 0.2462245409390513 -0.14791644049083308 0.11308694880556328 -0.26632828155698468 0.20127677565174698 0.24527795647348963
leaf_weight=15.22065334022045 23.422832816839218 0.46238240599632874 7.1019492149353018 0.87599082291126151 1.2196792811155348 23.865425363183022 21.000351935625076 11.920390129089354 3.080706298351287 12.233939468860624 1.3642377853393552 13.933448344469069 1.4302283078432072 3.5922592729330063
leaf_count=74 107 2 45 5 5 120 124 53 16 55 6 64 6 22
internal_value=0 0.0261045 -0.0482909 -0.0999935 0.0644832 0.0179778 0.181236 -0.0494422 -0.00135717 -0.0444033 -0.147663 -0.238526 -0.111366 0.181263
internal_weight=0 125.504 42.7109 35.609 82.7929 59.2086 23.5843 35.3432 20.7995 17.7188 2.58392 14.8094 13.6642 4.05464
internal_count=704 630 215 170 415 280 135 160 101 85 11 69 61 24
is_linear=0
shrinkage=0.2


Tree=5
num_leaves=15
num_cat=0
split_feature=17 5 2 13 8 1 4 1 1 4 3 7 2 3
split_gain=35.9516 13.875 9.55131 8.85456 6.50806 7.83847 5.83248 6.80599 5.08766 4.99473 4.24211 4.11689 3.93975 4.05265
threshold=1.5000000000000002 0.28722832994634068 400.90954254877886 0.19576789818616505 0.80747349726110751 0.98019022748139017 0.025692826886984904 1.0431802305912983 0.88055144837756005 -0.0019282639501739997 -0.15603193773483623 1.0821995197795131 -223.7540059380961 -0.11948499235391898
decision_type=2 2 2 2 2 2 2 2 2 2 2 2 2 2
left_child=1 2 4 6 5 -1 -3 8 10 -4 -8 -5 13 -10
right_child=-2 3 9 11 -6 -7 7 -9 12 -11 -12 -13 -14 -15
leaf_value=0.019331679379365131 0.19048098682542994 -0.13670751196794861 0.40474229691419866 -0.0063663947567334025 -0.22257035174646136 -0.199967764039615 0.22205753863432187 0.2617033023228153 0.2138160453243578 -0.034380235229720613 -0.053597573254425948 0.21627645045828459 -0.37774270314852854 -0.24868286957669472
leaf_weight=14.583651602268221 31.325754716992378 13.351543813943861 1.9185926020145414 4.7937204241752616 24.044052362442017 11.790310978889464 3.8566596657037699 4.1663418412208548 1.4225519001483919 2.2525365203618994 5.3046179711818748 10.821445614099501 2.3388662338256827 1.6218539774417875
leaf_count=65 219 61 8 26 113 57 17 19 6 11 24 61 10 7
internal_value=0 -0.0544041 -0.123251 0.0244229 -0.147313 -0.0787047 -0.0357265 0.0363306 -0.0282282 0.167603 0.0624461 0.147927 -0.182538 -0.0325722
internal_weight=0 102.267 54.5891 47.6776 50.418 26.374 32.0624 18.7109 14.5445 4.17113 9.16128 15.6152 5.38327 3.04441
internal_count=704 485 254 231 235 122 144 83 64 19 41 87 23 13
is_linear=0
shrinkage=0.2


Tree=6
num_leaves=15
num_cat=0
split_feature=2 11 2 15 2 6 16 16 15 15 8 9 16 9
split_gain=9.69995 6.03128 5.2944 4.91784 4.3533 4.33643 4.79744 3.93594 3.66868 5.11516 3.18953 3.00858 3.00572 3.65512
threshold=400.90954254877886 -4.4832869041534389 -334.74515135448047 0.017969416027280454 52.745680891995747 -0.17508508918331048 7.5400788855512735 6.8895493082579975 0.014512774682241252 0.016083829365079304 1.0565488219920294 2.2400460927823604 6.8329847022970549 2.2301665060593447
decision_type=2 2 2 2 2 2 2 2 2 2 2 2 2 2
left_child=1 -1 8 5 12 7 10 11 -3 -10 -7 -4 13 -5
right_child=-2 2 3 4 -6 6 -8 -9 9 -11 -12 -13 -14 -15
leaf_value=0.27776338620327651 0.15399374110007463 -0.20178828967755275 0.12130851912941554 0.34303970361607417 -0.11535767479677013 -0.00089584864681704955 0.20571977247763346 -0.28024559151536682 0.19289187774407313 -0.10481040037890305 -0.17727775184549385 -0.1658912896560838 0.2861495858545659 -0.19486446168837204
leaf_weight=2.7003458440303794 14.990055516362188 9.8314309418201464 2.7491437643766385 0.80725637078285073 2.1867004558444023 55.348388873040676 4.2595671042799941 4.4735729321837425 2.9244141131639472 10.963926538825033 4.4290609806776038 3.1089316457509995 5.3233712464570999 1.3508960306644437
leaf_count=16 105 53 15 6 12 306 24 22 14 58 22 16 28 7
internal_value=0 -0.0174599 -0.0248581 -0.00130565 0.132879 -0.0187502 0.000648366 -0.138985 -0.108302 -0.0421244 -0.0139644 -0.0311109 0.205434 0.00633846
internal_weight=0 110.457 107.757 84.0369 9.66822 74.3687 64.037 10.3316 23.7198 13.8883 59.7774 5.85808 7.48152 2.15815
internal_count=704 599 583 458 53 405 352 53 125 72 328 31 41 13
is_linear=0
shrinkage=0.2


Tree=7
num_leaves=15
num_cat=0
split_feature=17 16 12 16 6 1 11 1 1 12 16 10 1 15
split_gain=25.8809 11.2639 6.61021 4.96483 6.38113 4.19612 3.80875 3.73203 3.89564 3.21578 3.54734 4.6123 4.66776 2.8124
threshold=2.5000000000000004 6.5679980145478085 1.7628471463018101 7.5109656318666245 -0.075151469742293586 0.56599401768089319 1.626180791761149 1.1766160768826091 1.0724123956856053 6.8353705506193885 6.7934152291061496 10.311885996051339 0.68239378173599219 0.010496202949310602
decision_type=2 2 2 2 2 2 2 2 2 2 2 2 2 2
left_child=1 -1 3 7 6 -2 -5 8 13 10 11 -4 -13 -3
right_child=5 2 9 4 -6 -7 -8 -9 -10 -11 -12 12 -14 -15
leaf_value=-0.16216777924985548 -0.13885212488928794 -0.24539113688526257 -0.55287248881655193 0.2867107263529029 0.23733417529522402 0.23049486234795544 -0.12027670743209098 -0.30429951273529704 0.14891499151169366 0.20270945649148664 0.14398823643575576 0.27572732852443504 -0.033517435506662814 -0.066656819749088755
leaf_weight=22.916839301586151 1.3141028210520769 4.1303453147411409 0.61101275682449951 1.0807071402668951 4.8123608157038671 19.311288431286812 6.17641980946064 2.9816346764564505 2.9421007037162772 5.7170648723840705 8.489689923822878 2.239706456661227 15.218667924404143 23.88705238699913
leaf_count=123 7 21 3 6 27 174 30 15 15 34 46 13 79 111
internal_value=0 -0.0388452 -0.00274503 -0.0514199 0.0587522 0.206963 -0.0596695 -0.0905972 -0.0700161 0.0666425 0.037353 -0.0127483 0.00615507 -0.093006
internal_weight=0 101.204 78.2868 46.0106 12.0695 20.6254 7.25713 33.9411 30.9595 32.2761 26.5591 18.0694 17.4584 28.0174
internal_count=704 523 400 225 63 181 36 162 147 175 141 95 92 132
is_linear=0
shrinkage=0.2


Tree=8
num_leaves=15
num_cat=0
split_feature=3 2 1 1 14 1 16 1 14 14 12 2 3 3
split_gain=7.77 5.55627 5.80333 4.35395 4.50677 4.19594 4.16422 3.90142 4.43 4.38913 3.46875 3.29927 2.94056 3.78886
threshold=-0.053080724315592694 -153.91320282447313 0.49907264396655876 0.86897207019962097 57.500000000000007 1.8734765331373382 6.5929685291165763 0.71604565772366979 74.500000000000014 55.500000000000007 5.0766316873427835 316.9955991303986 -0.10050240437610224 -0.089774175081070232
decision_type=2 2 2 2 2 2 2 2 2 2 2 2 2 2
left_child=1 10 11 4 -2 -5 -6 9 -9 -4 12 -3 -1 -14
right_child=3 2 7 5 6 -7 -8 8 -10 -11 -12 -13 13 -15
leaf_value=-0.085503691015918454 -0.16917620787847676 -0.30698720895769671 -0.19501594035881351 -0.18038783581772388 -0.079455162809227139 0.28250476185153761 0.11763689594326412 -0.094750762901327334 0.10254354667033108 0.23688300051241293 0.24494958182668017 0.11259042327192921 0.26408005674188434 -0.027361374547305573
leaf_weight=19.900726817548282 5.8146302476525333 2.2606335803866382 1.0284724757075299 14.136255189776417 7.4502432271838215 0.82925106585025865 10.102585546672342 5.5949060544371632 24.430094562470913 11.089249595999716 1.7810776457190503 1.1215573102235792 2.4563987404108047 6.5212062597274763
leaf_count=104 35 11 7 89 43 6 66 31 161 80 13 6 14 38
internal_value=0 0.0398842 0.0842089 -0.0705127 -0.0165709 -0.154739 0.0339818 0.104438 0.0657794 0.200226 -0.0259318 -0.167852 -0.0426385 0.0523811
internal_weight=0 76.1843 45.5249 38.333 23.3675 14.9655 17.5528 42.1427 30.025 12.1177 30.6594 3.38219 28.8783 8.97761
internal_count=704 465 296 239 144 95 109 279 192 87 169 17 156 52
is_linear=0
shrinkage=0.2


Tree=9
num_leaves=15
num_cat=0
split_feature=17 16 14 9 0 0 5 9 0 0 4 14 14 4
split_gain=18.3459 6.72494 6.41993 6.05299 4.74264 4.34078 3.71204 2.77348 2.55542 3.72564 3.04407 2.41777 2.09968 3.12658
threshold=2.5000000000000004 1.0000000180025095e-35 55.500000000000007 2.1918936631076105 1.6484633680599001 1.4095232628990166 0.21639104334470333 2.2471055752511742 1.7500954258849772 1.736268149262657 0.040828568448001007 144.50000000000003 72.500000000000014 0.22614110870597712
decision_type=2 2 2 2 2 2 2 2 2 2 2 2 2 2
left_child=1 4 -3 -2 -1 11 -7 8 9 12 -10 -4 -8 -14
right_child=3 2 5 -5 -6 6 7 -9 10 -11 -12 -13 13 -15
leaf_value=-0.17421578941223162 -0.31902551696954584 -0.22186361944030383 -0.25483469860540037 0.22411760667681779 0.30058199777148786 -0.23232917857567217 -0.068401535338091277 -0.26595385633288088 -0.11891669883858347 -0.31246946353073102 0.22858929534969913 0.022323536772245745 0.030840628029610042 0.20858188450651718
leaf_weight=15.44803611189127 0.86566290259361522 5.1907857432961455 3.6986671015620223 15.812514543533323 0.8899995833635338 2.2054454982280722 7.2632861435413352 1.2291189283132542 1.2627252191305149 1.2866668999195088 5.0042925849556923 1.9086696952581403 43.558060884475708 4.3544451221823683
leaf_count=96 4 34 20 177 4 12 36 6 6 7 29 12 233 28
internal_value=0 -0.0318126 -0.00707288 0.195926 -0.148352 0.00846162 0.0227804 0.0315772 0.037407 0.0239584 0.158571 -0.160493 0.0318037 0.0469943
internal_weight=0 93.3002 76.9622 16.6782 16.338 71.7714 66.164 63.9586 62.7295 56.4625 6.26702 5.60734 55.1758 47.9125
internal_count=704 523 423 181 100 389 357 345 339 304 35 32 297 261
is_linear=0
shrinkage=0.2


Tree=10
num_leaves=15
num_cat=0
split_feature=9 9 3 12 2 2 2 1 8 0 0 9 4 2
split_gain=4.6331 4.61526 4.37697 4.4786 2.97405 5.12695 3.73446 2.96246 3.12585 2.9552 2.55906 3.03229 2.47762 2.75839
threshold=2.2194172896912501 2.2109156038220168 -0.053080724315592694 5.0742920657819175 -153.91320282447313 -1.0000000180025095e-35 339.62551078837168 0.86101163007568771 0.69521992659951792 1.6254694540868164 1.7241399562403448 2.2244021749676297 0.046375670623922706 63.781048856800886
decision_type=2 2 2 2 2 2 2 2 2 2 2 2 2 2
left_child=1 -1 3 4 -2 7 12 -6 -9 -3 11 -4 -7 -14
right_child=2 9 10 -5 5 6 -8 8 -10 -11 -12 -13 13 -15
leaf_value=-0.035130319729844255 -0.048429344281477105 0.25669780544250498 0.11996480066413073 0.21665519697554758 0.21557770306654259 -0.18018681336153697 0.13492065156038721 0.17855910666378161 -0.13395482468330713 -0.04792416070684577 0.11984296990416964 -0.1141656123580231 0.14706586417132858 -0.10301798451037765
leaf_weight=5.38558605313301 25.275690637528893 6.995215740054844 2.4255738109350267 4.1904744058847418 7.9359144568443281 5.6334277540445417 4.2871042490005484 2.5307320952415466 2.5909192189574242 1.5574963018298147 2.4453660771250716 25.20777652785182 2.9196666181087494 4.4577405527234077
leaf_count=33 142 91 13 33 51 35 33 13 14 8 18 177 19 24
internal_value=0 0.1099 -0.0140253 0.0172669 0.00224776 0.0444444 -0.0269682 0.139048 0.0204659 0.201224 -0.0762605 -0.0936143 -0.080311 -0.00404534
internal_weight=0 13.9383 89.9004 59.8217 55.6312 30.3555 17.2979 13.0576 5.12165 8.55271 30.0787 27.6334 13.0108 7.37741
internal_count=704 132 572 364 331 189 111 78 27 99 208 190 78 43
is_linear=0
shrinkage=0.2


Tree=11
num_leaves=15
num_cat=0
split_feature=7 9 7 11 12 9 9 9 4 3 7 7 2 7
split_gain=4.23603 3.57316 4.50556 3.59656 3.34611 2.72851 2.9655 3.27982 4.02418 2.97503 3.23306 2.70222 4.35882 3.36994
threshold=1.4420795846561831 2.2246333006275862 1.2647650663418217 1.7490619094860167 1.0000000180025095e-35 2.2254129381800074 2.2276958146384622 2.2315181120554524 0.18446156821456036 -0.070257174193108188 0.91286627171088874 1.0513199608797772 -364.09303104049405 0.75618717344016761
decision_type=2 2 2 2 2 2 2 2 2 2 2 2 2 2
left_child=1 2 4 -4 11 -3 -7 -8 9 10 -9 13 -13 -1
right_child=-2 5 3 -5 -6 6 7 8 -10 -11 -12 12 -14 -15
leaf_value=-0.15208771761836082 0.14027908373310891 -0.17472593909454756 -0.24933266627539333 0.081275986357435659 0.1929063908836024 0.12838121893090129 -0.2626448015282668 -0.17471876856556898 0.2262647027961068 -0.097361285528102554 0.053959700606099462 -0.30292336356297717 0.019704617559808152 0.11651849698298822
leaf_weight=2.1421894356608453 8.2181687951087934 5.656269706785678 3.5964972563087931 2.075898639857769 6.5254978053271762 4.4123024120926848 2.5750951766967765 2.9803541377186731 2.3134052418172351 20.395122490823276 14.527019429951904 2.131577555090189 7.8207221664488298 14.61352641507983
leaf_count=11 56 36 19 13 64 33 18 19 21 143 101 11 63 96
internal_value=0 -0.00960195 0.0363994 -0.128341 0.0645179 -0.04346 -0.0277307 -0.0438279 -0.0298167 -0.0454468 0.0150308 0.033149 -0.0493956 0.0821777
internal_weight=0 91.7655 38.9059 5.6724 33.2335 52.8596 47.2033 42.791 40.2159 37.9025 17.5074 26.708 9.9523 16.7557
internal_count=704 648 277 32 245 371 335 302 284 263 120 181 74 107
is_linear=0
shrinkage=0.2


Tree=12
num_leaves=15
num_cat=0
split_feature=11 9 10 14 14 10 6 9 7 3 8 6 8 14
split_gain=3.04958 3.12771 3.4889 3.12557 3.16876 3.63131 3.0093 5.6305 3.22688 3.13279 2.82309 2.34843 2.3855 2.04471
threshold=-4.4832869041534389 2.2194172896912501 10.927724663212913 150.50000000000003 55.500000000000007 10.955047324460942 0.063225649050444768 2.2393327836712724 1.6685077062703115 -0.11830759829526429 1.0943131330145672 0.0096790595952989025 0.81327183469200881 118.50000000000001
decision_type=2 2 2 2 2 2 2 2 2 2 2 2 2 2
left_child=-1 2 13 4 -3 6 8 -8 10 -9 -6 12 -5 -2
right_child=1 3 -4 11 5 -7 7 9 -10 -11 -12 -13 -14 -15
leaf_value=0.23910715657590087 0.12620164466143585 -0.12685747266726102 0.20842328059713613 0.11698403112294947 -0.017119936795742221 0.21586184394317756 0.18849760145970051 -0.43993446230282524 0.30816475598114279 0.019009941418406243 -0.27110616423218237 -0.21408067930846519 -0.15720897061367961 -0.10049435830678524
leaf_weight=2.1280572041869155 2.710870359092949 7.3290344998240462 5.5598080344498158 2.4838417917489988 48.412214480340481 3.3127872683107844 7.4699210301041585 0.966986104846001 1.180934615433215 1.5462942644953726 1.8161768093705166 5.2272999361157417 2.5953631773591042 3.8542026430368423
leaf_count=20 26 62 84 16 313 39 43 5 6 8 11 33 17 21
internal_value=0 -0.00299351 0.0918429 -0.0169584 -0.00221922 0.0118983 0.000892263 0.101375 -0.0186205 -0.157569 -0.0263037 -0.119974 -0.0231226 -0.00688634
internal_weight=0 94.4657 12.1249 82.3409 72.0343 64.7053 61.3925 9.9832 51.4093 2.51328 50.2284 10.3065 5.0792 6.56507
internal_count=704 684 131 553 487 425 386 56 330 13 324 66 33 47
is_linear=0
shrinkage=0.2


Tree=13
num_leaves=15
num_cat=0
split_feature=2 15 7 16 2 2 2 10 7 7 7 16 13 12
split_gain=3.31964 2.95002 3.96654 3.60994 3.3986 3.35428 2.58228 2.5696 2.50214 2.4801 2.98048 3.68342 3.98166 2.75985
threshold=400.90954254877886 0.014714626792746053 1.2437342730578484 6.8329847022970549 13.791057917470896 96.141744738418893 241.9819433898447 10.311704379692058 0.93077325915101949 0.88687709165315354 1.091170326575593 6.5679980145478085 0.083649608902648956 1.7721530197222524
decision_type=2 2 2 2 2 2 2 2 2 2 2 2 2 2
left_child=1 2 3 -1 -4 -6 -7 -2 -5 13 -11 12 -12 -3
right_child=7 9 4 8 5 6 -8 -9 -10 10 11 -13 -14 -15
leaf_value=-0.1425100676413304 -0.16679953443931 -0.15401487671836259 0.11146285718210039 0.056799173827856611 -0.25006569206174045 0.31863698404601443 -0.14600483911899317 0.16020916106786068 -0.082322839021945468 0.16236296348276061 0.30562603846347353 -0.039936721543857689 -0.15371202670200798 0.089088497622628354
leaf_weight=16.844894427806139 1.0987589657306651 4.8221113570034495 10.333612840622662 9.6238630339503306 2.5111830979585639 1.0215075761079786 0.8999384120106696 7.6766905337572098 11.176264867186545 8.7904351353645342 2.870836671441793 11.600132916122673 1.0241272225975988 3.0490581691265106
leaf_count=119 8 33 75 64 14 6 7 97 71 66 36 74 10 24
internal_value=0 -0.00997 -0.0392292 -0.0736884 0.0486209 -0.0978801 0.101015 0.119265 -0.0179535 0.0377188 0.0693397 0.0165672 0.184849 -0.0598438
internal_weight=0 84.568 52.4113 37.645 14.7662 4.43263 1.92145 8.77545 20.8001 32.1567 24.2855 15.4951 3.89496 7.87117
internal_count=704 599 356 254 102 27 13 105 135 243 186 120 46 57
is_linear=0
shrinkage=0.2


Tree=14
num_leaves=15
num_cat=0
split_feature=17 1 0 7 0 13 8 15 14 2 2 15 15 13
split_gain=9.73046 3.99152 3.72894 3.36571 2.48409 3.01895 2.48793 2.30602 2.58311 2.57508 2.14516 2.40242 3.12974 2.08124
threshold=2.5000000000000004 0.50755500498280492 1.4095232628990166 1.4780630784264752 1.7500954258849772 0.20112224584302907 0.93192604185661754 0.021232035721034406 55.500000000000007 153.59486347263319 182.59190732884761 0.011979757180650001 0.010287603354349801 0.21127094351007297
decision_type=2 2 2 2 2 2 2 2 2 2 2 2 2 2
left_child=2 -2 -1 4 5 7 -6 8 -4 -10 -11 12 -12 -7
right_child=1 -3 3 -5 6 13 -8 -9 9 10 11 -13 -14 -15
leaf_value=-0.16566322900843927 -0.24707154950082744 0.21854762537517891 -0.23089221642319183 0.14893508353431675 0.14515022176442199 0.20083236696408335 -0.29221529906546656 0.24090074957990881 -0.071048988211850392 0.29968363703222678 -0.23631435877333973 -0.071511455627171303 0.27438051284538145 0.0095344853156376641
leaf_weight=6.6081520207226268 0.79703503847122092 9.6865182518959028 3.3000769764184943 5.0390362851321688 5.3870695531368247 3.0341805070638648 0.57585811614990223 1.0404871553182591 37.031510725617409 1.1788838803768138 0.61817222088575396 5.0681684240698814 2.1475679501891136 9.0907622613012773
leaf_count=50 5 176 34 35 34 22 4 6 224 6 5 28 11 64
internal_value=0 0.183148 -0.0217533 -0.00881689 -0.0204261 -0.0321917 0.102912 -0.0537529 -0.059966 -0.0477154 0.0481569 0.0103059 0.160235 0.0574054
internal_weight=0 10.4836 80.1199 73.5118 68.4727 62.5098 5.96293 50.3849 49.3444 46.0443 9.01279 7.83391 2.76574 12.1249
internal_count=704 181 523 473 438 400 38 314 308 274 50 44 16 86
is_linear=0
shrinkage=0.2


Tree=15
num_leaves=15
num_cat=0
split_feature=17 9 5 9 9 7 7 9 9 7 10 5 9 11
split_gain=7.62837 3.08344 2.75941 3.98361 3.47711 2.72756 2.71092 2.50397 5.32045 4.49851 3.26389 3.05654 3.07996 2.85406
threshold=2.5000000000000004 2.1918936631076105 0.28388746620813154 2.2246243022122374 2.2245351133839288 0.83114803122181491 0.93251232817708429 2.2246203108603266 2.2246332665582931 1.2334326923108607 10.311515159049586 0.37355925967714165 2.2333641562144062 1.9205671296296298
decision_type=2 2 2 2 2 2 2 2 2 2 2 2 2 2
left_child=2 -2 3 4 5 -1 -7 10 -9 13 -4 12 -11 -10
right_child=1 -3 7 -5 -6 6 -8 8 9 11 -12 -13 -14 -15
leaf_value=-0.31727480478381365 -0.2039577245850008 0.21475680888008408 -0.23798457769719286 -0.10518104514562468 0.3017275735938772 0.26258972747023274 -0.024451808434353305 0.24614911724397373 -0.013622011718202907 -0.109317800219215 0.00047855890973224062 -0.27327882068141968 0.20534420258767785 -0.23402900066353674
leaf_weight=1.0219654440879811 0.77081337571144004 8.0548803266137821 3.0697451233863822 24.120580945163965 1.7006708271801461 1.6093163937330226 7.2232441380620003 4.5860780999064472 12.678537353873255 1.497499577701088 9.1075490675866586 0.73135510832071382 7.3582384623587132 2.8847253248095504
leaf_count=6 4 177 14 182 12 10 41 28 77 11 52 6 64 20
internal_value=0 0.178187 -0.0180425 -0.0589241 0.0376336 -0.00794308 0.0278479 0.0167547 0.0480369 0.0119119 -0.059635 0.119682 0.152135 -0.0544755
internal_weight=0 8.82569 77.5895 35.6758 11.5552 9.85453 8.83256 41.9137 29.7364 25.1504 12.1773 9.58709 8.85574 15.5633
internal_count=704 181 523 251 69 57 51 272 206 178 66 81 75 97
is_linear=0
shrinkage=0.2


Tree=16
num_leaves=15
num_cat=0
split_feature=5 10 3 1 1 10 6 5 12 10 3 3 3 1
split_gain=1.69781 1.9364 2.00899 1.96095 2.44879 1.80996 1.92752 2.6341 1.66811 1.74108 4.15203 3.80109 3.2473 2.82895
threshold=0.21481290469812198 10.95479502214493 -0.020793064131304797 0.88982031791632721 0.71324220484205691 10.953351198885352 -0.089547118612622836 0.22698832281431744 6.8353705506193885 10.94492146959349 -0.10050240437610224 -0.11386744682639674 -0.10449160587082608 1.0431802305912983
decision_type=2 2 2 2 2 2 2 2 2 2 2 2 2 2
left_child=-1 2 8 4 -4 6 -6 -8 9 10 12 13 -2 -11
right_child=1 -3 3 -5 5 -7 7 -9 -10 11 -12 -13 -14 -15
leaf_value=-0.21180970870115759 -0.0067346381046048875 0.15634280038627801 -0.11843184679317934 -0.1737974081555613 0.24584115042701027 -0.19497043068066164 0.23957241527744766 -0.18989727628042918 0.1539073555223355 0.1819540359223864 0.10103423835440706 -0.18610344673679563 -0.32138838167910555 -0.26859905048383781
leaf_weight=1.4551289826631535 31.144027147442095 3.293853197246789 5.0973451398313028 4.6280069798231116 2.4283207450062028 0.85520183667540539 0.98903753235936287 1.3523438349366186 3.3135324921458951 2.6745008863508706 17.411303324624903 5.0415404103696329 1.3696459513157595 0.70421029999852169
leaf_count=15 223 54 43 45 22 8 8 10 38 20 163 41 8 6
internal_value=0 0.00617349 -0.000249596 -0.0649919 -0.0180285 0.072958 0.120997 -0.0084823 0.0158683 0.00802883 0.0222175 -0.0760977 -0.0199895 0.0880472
internal_weight=0 80.3029 77.009 15.3503 10.7222 5.6249 4.7697 2.34138 61.6588 58.3452 49.925 8.42025 32.5137 3.37871
internal_count=704 689 635 136 91 48 40 18 499 461 394 67 231 26
is_linear=0
shrinkage=0.2


Tree=17
num_leaves=15
num_cat=0
split_feature=11 1 10 2 0 9 9 7 16 11 2 10 10 5
split_gain=2.05961 2.01827 3.24457 2.23251 2.53524 2.35557 2.03088 3.59967 2.55658 1.91679 1.42885 1.43684 4.18399 2.5373
threshold=-4.4832869041534389 1.1766160768826091 10.311700909606946 -364.09303104049405 1.3992875780591623 2.2381532621209224 2.2292836315415197 1.1180072193612756 6.5423878650364466 1.68140412414966 400.90954254877886 10.311705402797312 10.311886083758985 0.3199808064136066
decision_type=2 2 2 2 2 2 2 2 2 2 2 2 2 2
left_child=-1 3 -3 5 -5 6 7 8 -2 -10 11 -6 -13 -14
right_child=1 2 -4 4 10 -7 -8 -9 9 -11 -12 12 13 -15
leaf_value=0.22998477871478232 -0.23323427810299063 0.20306622693586318 -0.16639370381867594 -0.14318428106366829 0.078592040430860419 0.1188509969682561 -0.26360119451557257 -0.20725112484823929 0.29614792800311357 -0.027612705137395718 0.13359928192962497 -0.23315976566494701 0.001327373363965363 0.16727329874822391
leaf_weight=1.5506374090909947 0.84284771233796929 1.1373677179217327 5.7958143949508667 3.4424802213907233 13.698392033576964 2.1437194868922225 2.6142558269202709 3.4244048204272985 1.750893656164408 1.2562735825777052 5.1905784681439391 2.7809178084135047 29.457931524142623 4.2125526946037999
leaf_count=20 8 9 52 36 82 23 22 22 13 10 90 17 260 40
internal_value=0 -0.00280054 -0.105785 0.00728216 0.0233484 -0.0712074 -0.112409 -0.0580745 0.074611 0.160894 0.0337076 0.0233687 0.00261584 0.0220891
internal_weight=0 77.7484 6.93318 70.8152 58.7829 12.0324 9.88868 7.27442 3.85001 3.00717 55.3404 50.1498 36.4514 33.6705
internal_count=704 684 61 623 525 98 75 53 31 23 489 399 317 300
is_linear=0
shrinkage=0.2


Tree=18
num_leaves=15
num_cat=0
split_feature=17 1 0 1 14 10 13 10 1 1 14 0 6 0
split_gain=5.34843 2.72202 2.12375 1.95404 1.65966 1.51835 1.4509 1.45134 1.42368 2.42453 1.95796 1.8826 1.8 1.79148
threshold=2.5000000000000004 0.50755500498280492 1.4095232628990166 1.8734765331373382 55.500000000000007 10.311703321282923 0.22053352339347132 10.952974752240728 0.83346208082000151 0.85038814051416578 112.50000000000001 1.5133287582144008 0.0085907225651415016 1.7609559802904087
decision_type=2 2 2 2 2 2 2 2 2 2 2 2 2 2
left_child=2 -2 3 5 -4 -1 8 -8 10 11 -6 -10 13 -12
right_child=1 -3 4 -5 6 -7 7 -9 9 -11 12 -13 -14 -15
leaf_value=0.028726121432941627 -0.21107057760820333 0.21276670074905063 -0.12573656089077825 0.23212520846491358 0.065506305319937674 -0.23986019327565439 0.17381195598127078 -0.20970034881859367 0.080847981315982975 -0.018583502441144505 -0.186406491151513 -0.34764273129163503 0.057008935095810613 0.1332145574017066
leaf_weight=1.0954042337834824 0.67271537706255813 6.121916382573545 4.2617508955299845 0.51609538868069638 18.406494194641713 3.6380309201776981 3.1727845836430784 0.45078308880329121 0.55022273957729639 27.600955268368125 3.9960111081600171 1.6109985057264564 3.5591158606112003 0.85080958902835835
leaf_count=8 5 176 46 6 128 36 34 3 3 192 28 9 26 4
internal_value=0 0.170804 -0.0150864 -0.137413 -0.00512425 -0.177704 0.00341454 0.126102 -0.0044435 -0.0345569 0.0289828 -0.238554 -0.0509926 -0.1303
internal_weight=0 6.79463 69.7095 5.24953 64.4599 4.73344 60.1982 3.62357 56.5746 29.7622 26.8124 2.16122 8.40594 4.84682
internal_count=704 181 523 50 473 44 427 37 390 204 186 12 58 32
is_linear=0
shrinkage=0.2


Tree=19
num_leaves=15
num_cat=0
split_feature=17 0 9 3 0 4 4 4 16 9 9 9 3 4
split_gain=4.22722 2.17711 1.98176 1.56811 2.82711 1.6073 5.05698 3.45358 2.02548 1.60689 1.87094 2.69548 2.37245 2.64313
threshold=2.5000000000000004 1.6587184716772236 2.246509753690209 -0.020793064131304797 1.7241399562403448 -0.031403706713128539 -0.096030890725547643 0.047951097823817408 6.5929685291165763 2.2425300812920237 2.2381745234937633 2.2246333006275862 -0.10638888888888888 0.16503886555084213
decision_type=2 2 2 2 2 2 2 2 2 2 2 2 2 2
left_child=2 -2 3 5 -5 6 8 -7 -1 10 11 -9 13 -13
right_child=1 -3 -4 4 -6 7 -8 9 -10 -11 -12 12 -14 -15
leaf_value=-0.10434264164018975 0.21069645067152845 -0.17929296375266501 -0.19951469917503384 -0.10410890440918184 0.17232507652019857 -0.098712847446589147 0.23397731450289883 0.062968691269351479 0.13237231684698364 -0.20042930890064967 0.15800729073273634 0.18955621054797989 -0.21643057320771836 -0.11988924396219316
leaf_weight=4.8797997236251831 5.0638314038515082 0.64557604491710652 2.1950328052043906 11.40625501796603 1.7004771754145611 12.210127513855694 4.7315605282783491 15.640120735391983 2.0547051467001438 1.1794113069772709 4.3710171226412049 1.9070863164961336 3.1112211272120467 2.6222535353153944
leaf_count=41 175 6 23 105 16 86 30 100 15 10 42 14 23 18
internal_value=0 0.166599 -0.012571 -0.00633608 -0.0682442 0.00905861 0.0745661 -0.00956204 -0.0342036 0.0281938 0.0379451 0.0154031 -0.081963 0.0104033
internal_weight=0 5.70941 68.0091 65.814 13.1067 52.7073 11.6661 41.0412 6.9345 28.8311 27.6517 23.2807 7.64056 4.52934
internal_count=704 181 523 500 121 379 86 293 56 207 197 155 55 32
is_linear=0
shrinkage=0.2


Tree=20
num_leaves=15
num_cat=0
split_feature=15 3 15 0 10 3 0 3 10 1 0 4 10 3
split_gain=1.29743 1.68873 1.26734 1.08061 0.979566 1.2118 1.35939 1.2218 2.54453 2.11667 1.67718 2.2172 2.61494 3.18255
threshold=0.020952223481985353 0.12826363636363633 0.0071527533427163505 1.7843112010560722 10.957908438646422 -0.020793064131304797 1.6254694540868164 -0.12167596859752049 10.941502671322011 0.72532003605331807 1.6019176498348282 0.0061544951436514504 10.31170394056689 -0.16800544880909676
decision_type=2 2 2 2 2 2 2 2 2 2 2 2 2 2
left_child=1 2 -1 4 5 6 7 9 -9 -4 11 -11 -13 -14
right_child=-2 -3 3 -5 -6 -7 -8 8 -10 10 -12 12 13 -15
leaf_value=-0.21974560071838123 0.20708281695665628 -0.26511307704434584 0.11752273357659677 0.14862179376093662 0.14660367761963025 -0.067544311406719418 -0.03774400572338104 0.11294849678445028 -0.046395297854940419 -0.1561379696656332 -0.21788729499916526 -0.17224810560857828 0.33266123534571984 0.011687570027437874
leaf_weight=1.0207230523228634 1.2048282548785199 0.96405318938195605 4.0733011094853238 2.0266251079738131 1.7817055406048883 10.035235038027173 17.423507448285818 13.3442092044279 5.7299402188509694 3.2651374852284771 1.9651019386947144 1.7968815788626669 1.7214314453303803 4.3787136720493445
leaf_count=15 11 8 40 23 47 111 120 158 60 41 12 10 11 37
internal_value=0 -0.00225128 0.0014448 0.00478754 0.000338213 -0.00375072 0.00817115 0.0302252 0.0650811 -0.00842743 -0.0475089 -0.0175137 0.0398024 0.102265
internal_weight=0 69.5266 68.5625 67.5418 65.5152 63.7335 53.6982 36.2747 19.0741 17.2006 13.1273 11.1622 7.89703 6.10015
internal_count=704 693 685 670 647 600 489 369 218 151 111 99 58 48
is_linear=0
shrinkage=0.2


Tree=21
num_leaves=15
num_cat=0
split_feature=8 4 4 15 14 4 8 10 16 14 10 15 8 15
split_gain=1.18042 1.2437 2.62585 1.95325 1.90244 1.84434 1.96484 1.93819 1.73552 1.65744 1.49723 1.47569 1.91099 1.59013
threshold=0.53091517664659083 -0.026782811790377947 -0.09516212864959088 0.014564094582430001 138.50000000000003 0.047951097823817408 0.548134313669426 10.311704778095944 6.8133956899820136 57.500000000000007 10.954995966388223 0.015651712073718304 0.57125616877586172 0.013371270576131652
decision_type=2 2 2 2 2 2 2 2 2 2 2 2 2 2
left_child=-1 2 3 -2 9 6 -3 -7 10 -4 -5 13 -13 -9
right_child=1 5 4 8 -6 7 -8 11 -10 -11 -12 12 -14 -15
leaf_value=0.097893236746608867 -0.10441953311855333 0.37565252956594408 -0.054500349377065244 -0.086117108232341519 -0.041547521162852465 0.074302130585658183 -0.09353359854581926 -0.024152920206096919 0.22322438122201055 0.20549742633767867 0.39359727073614942 -0.12856107457843755 0.22858769841155824 -0.17856489691776839
leaf_weight=4.7001688033342353 6.3095769509673136 0.36600674688815971 1.1728184148669223 2.3559566540643577 2.4405216788873076 10.283529918640854 14.546548930928109 12.802050873637205 1.7572780419141052 5.9887970602139831 0.29256303049623955 0.91720005962997619 1.7287999512627719 3.3698589177802196
leaf_count=53 59 2 15 49 24 71 159 102 16 82 3 9 33 27
internal_value=0 -0.00593235 0.0349971 -0.0330658 0.110951 -0.024826 -0.0820181 0.00448119 0.0691205 0.162919 -0.0331265 -0.0336743 0.104787 -0.0563289
internal_weight=0 64.3315 20.3175 10.7154 9.60214 44.014 14.9126 29.1014 4.4058 7.16162 2.64852 18.8179 2.646 16.1719
internal_count=704 651 248 127 121 403 161 242 68 97 52 171 42 129
is_linear=0
shrinkage=0.2


Tree=22
num_leaves=15
num_cat=0
split_feature=2 6 1 8 2 6 14 1 6 6 3 4 4 4
split_gain=1.71028 1.30838 1.95639 1.63725 1.59732 1.54712 1.45386 1.37699 1.86196 2.9067 2.0426 1.62651 2.12916 1.37251
threshold=-294.55478549282151 0.06520349852376206 1.5095960821362933 1.0943131330145672 400.90954254877886 -0.26051992856421807 55.500000000000007 0.93323078169159879 -0.093879981119661185 0.03153759944538756 -0.073033640395725186 -0.029123947097244144 -0.011796736723357947 -0.01209049404418615
decision_type=2 2 2 2 2 2 2 2 2 2 2 2 2 2
left_child=-1 3 13 4 6 -5 -2 11 -9 10 -10 -8 -13 -3
right_child=1 2 -4 5 -6 -7 7 8 9 -11 -12 12 -14 -15
leaf_value=-0.059896835724189516 -0.21023369459297428 0.19823076568891307 -0.26537779637861719 0.17424240767093649 0.15701991778301527 -0.23548940601493312 0.16225924813219966 -0.14821427483147437 0.16525824456177102 -0.20479228540011932 -0.070960211175858892 -0.24048544310736461 0.031492424648458694 0.031752394670107958
leaf_weight=14.414460660889743 1.2429247610270966 3.9917468558996916 0.57846651226282109 0.45573335140943561 2.8771265503019086 1.9285814445465792 3.5456958673894361 4.4576650317758313 3.9600559789687382 1.8930151844397185 2.3233139095827933 1.220561329275365 20.298925843089833 3.9322304157540184
leaf_count=150 20 30 4 4 82 24 45 44 30 17 25 8 175 46
internal_value=0 0.0178462 0.0896957 0.00402616 0.0132169 -0.157174 0.00259249 0.00960926 -0.0442293 0.012462 0.077915 0.0367465 0.0160661 0.115617
internal_weight=0 52.706 8.50244 44.2036 41.8193 2.38431 38.9422 37.6992 12.6341 8.17639 6.28337 25.0652 21.5195 7.92398
internal_count=704 554 80 474 446 28 364 344 116 72 55 228 183 76
is_linear=0
shrinkage=0.2


Tree=23
num_leaves=15
num_cat=0
split_feature=17 9 7 11 11 9 5 5 9 11 7 11 9 9
split_gain=2.88832 1.80073 1.52513 1.50415 1.33262 1.18423 1.04646 1.4601 1.23991 1.11903 1.55161 1.37721 2.98212 1.56436
threshold=2.5000000000000004 2.1918936631076105 1.4729988888801369 -4.4832869041534389 -4.4071411633127893 2.246509753690209 0.28722832994634068 0.28848296103796417 2.2440185039840905 1.7653375586462297 1.2334326923108607 1.6341892636684305 2.2246203108603266 2.2232959820164062
decision_type=2 2 2 2 2 2 2 2 2 2 2 2 2 2
left_child=2 -2 3 -1 -4 6 -5 -8 9 11 -11 -9 13 -13
right_child=1 -3 4 5 -6 -7 7 8 -10 10 -12 12 -14 -15
leaf_value=0.21978477505722577 -0.16846204021157937 0.20816489137499966 -0.19127597462434012 -0.047573721191151781 0.14979834347517587 -0.18244900432656797 0.27208806485052089 -0.01820934854383938 0.27417575074271805 -0.16517969684425191 0.05056331460773688 0.17552468742541161 0.25626293510255138 -0.10771809744678731
leaf_weight=1.0356001686304797 0.58630875870585342 3.7918467572890222 0.52460178360342968 25.439754629507661 3.6208192873746148 1.8134021870791901 0.81519380211830395 14.855811010114857 0.64658951386809249 3.5760897137224665 2.1262397766113281 1.1163884103298181 2.6253692433238029 2.5883297175168991
leaf_count=17 4 177 5 236 35 23 5 111 4 33 14 7 20 13
internal_value=0 0.157728 -0.0104657 -0.0190364 0.106635 -0.0234844 -0.0181253 0.00830017 0.000490486 -0.00609091 -0.0847351 0.0150767 0.0931944 -0.0223651
internal_weight=0 4.37816 60.7842 56.6388 4.14542 55.6032 53.7898 28.35 27.5348 26.8882 5.70233 21.1859 6.33009 3.70472
internal_count=704 181 523 483 40 466 443 207 202 198 47 151 40 20
is_linear=0
shrinkage=0.2


Tree=24
num_leaves=15
num_cat=0
split_feature=17 1 0 2 15 0 6 6 1 16 10 2 10 6
split_gain=2.27541 1.72221 1.28214 1.3514 1.59039 1.4958 1.38099 1.3684 1.40661 1.34847 1.26927 1.54879 1.56717 1.45118
threshold=2.5000000000000004 0.50755500498280492 1.4054533855864784 -415.87038005557309 0.018984697798750554 1.4648403974079203 -0.091726825951285382 -0.074637956258464588 1.1185804401553725 7.5207645301283312 10.935982701992428 99.53435435691533 10.936597668333031 -0.12999264409760294
decision_type=2 2 2 2 2 2 2 2 2 2 2 2 2 2
left_child=2 -2 -1 5 7 -4 -7 8 10 -9 -5 12 -12 -14
right_child=1 -3 3 4 -6 6 -8 9 -10 -11 11 -13 13 -15
leaf_value=-0.1320362784095602 -0.18891092268906562 0.20809637790579447 0.12298226989961095 -0.078795729488502955 0.16384001081061472 -0.03347859305403076 -0.22385538320157927 0.015489366371536105 -0.19899621590365102 0.16744398634746421 0.23596757704705476 0.21686687175404323 0.0049904910928059779 -0.24931834534579678
leaf_weight=3.1725652869790784 0.50666631758212988 3.1817360296845436 1.1983669959008683 7.719356454908846 2.5700767114758483 3.3032133430242538 2.8298451909795403 26.035420818254359 2.0169934891164294 2.5662679243832818 0.89818381145596493 1.5190989300608633 4.1778104584664115 1.1431354917585839
leaf_count=45 5 176 10 58 29 31 34 210 21 24 8 9 35 9
internal_value=0 0.153561 -0.00835019 -0.00134022 0.0107236 -0.0813873 -0.12132 0.00218293 -0.0419122 0.0291234 -0.0214149 0.0358259 -0.00839556 -0.0496444
internal_weight=0 3.6884 59.1503 55.9778 48.6463 7.33143 6.13306 46.0763 17.4746 28.6017 15.4576 7.73823 6.21913 5.32095
internal_count=704 181 523 478 403 75 65 374 140 234 119 61 52 44
is_linear=0
shrinkage=0.2


Tree=25
num_leaves=15
num_cat=0
split_feature=7 6 7 0 0 3 14 7 4 7 5 7 13 7
split_gain=0.943609 1.61376 1.33474 1.07394 1.20621 1.29371 1.10394 1.04898 1.36643 0.991476 0.955621 0.854396 0.832241 1.30945
threshold=1.4729988888801369 -0.085173250735762582 1.4555832262921669 1.4366038616274848 1.4517810632314294 -0.085976875898235092 108.50000000000001 1.017742098600406 0.091243217285724806 1.4420795846561831 0.22465307349774497 1.6685077062703115 0.19576789818616505 1.0821995197795131
decision_type=2 2 2 2 2 2 2 2 2 2 2 2 2 2
left_child=2 11 3 7 5 -5 -7 8 -1 12 -9 -2 -6 -14
right_child=1 -3 -4 4 9 6 -8 10 -10 -11 -12 -13 13 -15
leaf_value=-0.084296973790297047 -0.16032315031922542 0.21840937395832782 -0.35899043642625839 0.31427568873323608 -0.016733869088250683 0.17563865912754659 -0.12823957181289655 0.083677874043078151 0.20154504249452099 0.26990352120142946 -0.19450509296166854 0.11081153532492256 -0.046014161197008442 0.11252021072870513
leaf_weight=2.0530880317091937 1.0318898679688575 2.0517714102752498 0.42418550699949165 1.0147598693147304 37.343658322934061 1.0345471347682167 0.88921042438596476 0.58819751301780376 0.99226092454046 0.53597470745444198 3.082797110080719 0.84605515468865622 3.3843373912386578 5.4241000218316913
leaf_count=33 9 31 3 14 416 11 11 16 11 5 46 7 34 57
internal_value=0 0.0957939 -0.00554587 -0.00288492 0.00727311 0.131559 0.0351783 -0.0779419 0.00883845 -0.000549369 -0.149932 -0.0381711 -0.0036902 0.0516089
internal_weight=0 3.92972 56.7671 56.3429 49.6266 2.93852 1.92376 6.71634 3.04535 46.6881 3.67099 1.87795 46.1521 8.80844
internal_count=704 47 657 654 548 36 22 106 44 512 62 16 507 91
is_linear=0
shrinkage=0.2


Tree=26
num_leaves=15
num_cat=0
split_feature=17 1 14 3 12 3 3 3 13 14 14 12 15 5
split_gain=1.8616 1.34763 1.08386 1.0381 0.917551 0.882061 1.09224 2.36818 1.11663 0.991828 1.85047 1.47865 1.17745 0.966538
threshold=2.5000000000000004 0.50755500498280492 55.500000000000007 0.26567422810333968 6.8398995715129276 0.12826363636363633 0.016941825527718956 -0.020793064131304797 0.090781938552338973 81.500000000000014 75.500000000000014 1.7615617620878501 0.0095273104281394533 0.37790228906478712
decision_type=2 2 2 2 2 2 2 2 2 2 2 2 2 2
left_child=2 -2 3 -1 5 6 7 9 -8 10 11 -4 -11 -14
right_child=1 -3 4 -5 -6 -7 8 -9 -10 12 -12 -13 13 -15
leaf_value=-0.15338156728103333 -0.15824640105669005 0.20690723044864964 -0.027585116693985608 0.25745976128385911 0.22156261195432836 -0.26381955731694456 -0.025367332088692296 -0.14467117220637044 0.19889209371375979 -0.22528848903147877 0.17797913750354896 0.23851849261505051 -0.0011616402272713068 -0.27801109383961797
leaf_weight=2.9814436640590425 0.47706721723079626 2.6495961367618293 7.1731682829558761 0.26813410222530354 0.73404587525874276 0.51593685895204444 1.5329536162316793 4.6497260071337285 2.1112610753625631 1.0091455839574361 3.4652396440505973 0.94533963873982418 30.40010232292116 0.5129302591085424
leaf_count=53 5 176 45 2 14 4 18 53 24 15 29 9 254 3
internal_value=0 0.151192 -0.00735907 -0.119482 -0.000490986 -0.00360663 -0.00101486 -0.00900405 0.104556 0.00549547 0.0556252 0.00340066 -0.0126953 -0.00575532
internal_weight=0 3.12666 56.2994 3.24958 53.0498 52.3158 51.7999 48.1557 3.64421 43.5059 11.5837 8.11851 31.9222 30.913
internal_count=704 181 523 55 468 454 450 408 42 355 83 54 272 257
is_linear=0
shrinkage=0.2


Tree=27
num_leaves=15
num_cat=0
split_feature=11 1 16 9 4 1 5 1 11 5 5 1 1 1
split_gain=1.11907 0.912131 1.57995 1.68631 1.09148 1.08621 2.06797 1.07594 1.29154 0.736394 1.2743 0.99271 1.00217 2.06981
threshold=-4.4832869041534389 1.1766160768826091 7.5207645301283312 2.2425057961861037 -0.11930287806943489 1.1215494024933463 0.27722641720759061 1.1106972809804849 -4.4390067429956268 0.23294019083724701 0.22118818534108334 1.0841409503230124 0.83346208082000151 0.8380096524982007
decision_type=2 2 2 2 2 2 2 2 2 2 2 2 2 2
left_child=-1 5 3 -3 -5 7 -7 8 -2 10 -10 12 -11 -14
right_child=1 2 -4 4 -6 6 -8 -9 9 11 -12 -13 13 -15
leaf_value=0.2165596746911502 -0.26706731234104841 -0.21503831643269722 0.16834277140798976 -0.26155786722415864 0.20050509286624785 -0.17835007076964773 0.21096879001715393 -0.2074118310441404 -0.057118656908180368 0.014480740107956625 0.097849196444669564 0.19237138691959191 -0.40157490444176513 -0.037213034650450304
leaf_weight=0.94689756957813997 0.702437499538063 2.9521017186343661 0.81306047737598408 0.27716781198978424 0.77986100642010547 0.71068510739132706 2.3515472859144211 1.0008797021582712 2.9805463962256891 21.544265286065638 7.3729297602549195 0.97069207578897376 0.65406347438692947 13.401140760630367
leaf_count=20 5 39 9 2 11 19 15 8 47 242 147 11 4 125
internal_value=0 -0.00267846 -0.0858679 -0.137422 0.0793457 0.00508246 0.120615 -0.00219311 0.00211964 0.00614931 0.0532372 -0.00718187 -0.0126231 -0.0541687
internal_weight=0 56.5114 4.82219 4.00913 1.05703 51.6892 3.06223 48.627 47.6261 46.9236 10.3535 36.5702 35.5995 14.0552
internal_count=704 684 61 52 13 623 34 589 581 576 194 382 371 129
is_linear=0
shrinkage=0.2


end of trees

feature_importances:
Column_1=39
Column_9=39
Column_14=30
Column_3=29
Column_0=28
Column_10=27
Column_7=26
Column_2=25
Column_4=20
Column_15=18
Column_5=16
Column_6=16
Column_16=16
Column_11=14
Column_17=14
Column_8=13
Column_12=13
Column_13=9

parameters:
[boosting: gbdt]
[objective: binary]
[metric: binary_logloss]
[tree_learner: serial]
[device_type: cpu]
[linear_tree: 0]
[data: ]
[valid: ]
[num_iterations: 10000]
[learning_rate: 0.2]
[num_leaves: 15]
[num_threads: 0]
[deterministic: 0]
[force_col_wise: 0]
[force_row_wise: 0]
[histogram_pool_size: -1]
[max_depth: -1]
[min_data_in_leaf: 5]
[min_sum_hessian_in_leaf: 0.001]
[bagging_fraction: 0.9]
[pos_bagging_fraction: 1]
[neg_bagging_fraction: 1]
[bagging_freq: 0]
[bagging_seed: 28073]
[feature_fraction: 0.5]
[feature_fraction_bynode: 1]
[feature_fraction_seed: 8222]
[extra_trees: 0]
[extra_seed: 8505]
[early_stopping_round: 50]
[first_metric_only: 0]
[max_delta_step: 0]
[lambda_l1: 0]
[lambda_l2: 0]
[linear_lambda: 0]
[min_gain_to_split: 0]
[drop_rate: 0.1]
[max_drop: 50]
[skip_drop: 0.5]
[xgboost_dart_mode: 0]
[uniform_drop: 0]
[drop_seed: 15689]
[top_rate: 0.2]
[other_rate: 0.1]
[min_data_per_group: 100]
[max_cat_threshold: 32]
[cat_l2: 10]
[cat_smooth: 10]
[max_cat_to_onehot: 4]
[top_k: 20]
[monotone_constraints: ]
[monotone_constraints_method: basic]
[monotone_penalty: 0]
[feature_contri: ]
[forcedsplits_filename: ]
[refit_decay_rate: 0.9]
[cegb_tradeoff: 1]
[cegb_penalty_split: 0]
[cegb_penalty_feature_lazy: ]
[cegb_penalty_feature_coupled: ]
[path_smooth: 0]
[interaction_constraints: ]
[verbosity: -1]
[saved_feature_importance_type: 0]
[max_bin: 255]
[max_bin_by_feature: ]
[min_data_in_bin: 3]
[bin_construct_sample_cnt: 200000]
[data_random_seed: 20155]
[is_enable_sparse: 1]
[enable_bundle: 1]
[use_missing: 1]
[zero_as_missing: 0]
[feature_pre_filter: 1]
[pre_partition: 0]
[two_round: 0]
[header: 0]
[label_column: ]
[weight_column: ]
[group_column: ]
[ignore_column: ]
[categorical_feature: ]
[forcedbins_filename: ]
[objective_seed: 15792]
[num_class: 1]
[is_unbalance: 0]
[scale_pos_weight: 1]
[sigmoid: 1]
[boost_from_average: 1]
[reg_sqrt: 0]
[alpha: 0.9]
[fair_c: 1]
[poisson_max_delta_step: 0.7]
[tweedie_variance_power: 1.5]
[lambdarank_truncation_level: 30]
[lambdarank_norm: 1]
[label_gain: ]
[eval_at: ]
[multi_error_top_k: 1]
[auc_mu_weights: ]
[num_machines: 1]
[local_listen_port: 12400]
[time_out: 120]
[machine_list_filename: ]
[machines: ]
[gpu_platform_id: -1]
[gpu_device_id: -1]
[gpu_use_dp: 0]
[num_gpu: 1]

end of parameters

pandas_categorical:null
