tree
version=v3
num_class=1
num_tree_per_iteration=1
label_index=0
max_feature_idx=17
objective=binary sigmoid:1
feature_names=Column_0 Column_1 Column_2 Column_3 Column_4 Column_5 Column_6 Column_7 Column_8 Column_9 Column_10 Column_11 Column_12 Column_13 Column_14 Column_15 Column_16 Column_17
feature_infos=[1.2346093662789044:1.9952932361101223] [0.085429096999094095:3.4150107712893245] [-1646.6776231156573:1786.9753826398069] [-0.47820557289860088:0.42811791383219938] [-0.79507032854722426:0.70165903149830455] [0.19011554804521:0.43092557777262308] [-0.50441210510384615:0.2087977912324025] [0.10781690525553971:2.015115901414676] [0.36143571596895141:1.6285321476764898] [2.1653626823492496:2.2963154517607771] [10.28247361013198:11.005539406286918] [-14.742803642661976:8.9501984048142393] [0:13.715743132007686] [0:0.43193980318729891] [0:400] [0:0.0277777777777777] [0:8.3037524155634124] [0:5]
tree_sizes=1643 1673 1660 1670 1668 1674 1666 1672 1679 1660 1676 1666 1674 1681 1658 1672 1689 1657 1678 1667 1678 1697 1669 1676 1687 1683 1685 1689 1679 1676 1679 1678 1692 1690 1690 1687 1687 1690 1701 1691

Tree=0
num_leaves=15
num_cat=0
split_feature=17 16 12 9 0 3 0 1 9 9 9 9 9 9
split_gain=172.423 62.3478 48.6647 17.765 11.0462 11.6117 10.0583 8.6926 7.90273 6.15598 9.70978 6.35351 7.11091 6.15365
threshold=1.5000000000000002 6.5679980145478085 1.7636502775414573 2.2247686726513916 1.5488865301821901 -0.12916804087791298 1.4184507823078534 0.49907264396655876 2.2199728916017478 2.2246203027320228 2.2244981763323488 2.2239344114081048 2.2235469863720119 2.2425303843846738
decision_type=2 2 2 2 2 2 2 2 2 2 2 2 2 2
left_child=1 8 3 6 5 -4 -3 -2 -1 10 11 12 -8 -6
right_child=7 2 4 -5 13 -7 9 -9 -10 -11 -12 -13 -14 -15
leaf_value=0.32016528273582612 0.28819892414562087 0.040459645071531714 0.70775738064206295 0.10044470953447643 0.63402966199098143 0.27283048251571462 0.41580656529200422 0.75208282554766714 0.0018982853158712731 0.55114800287150167 0.040459645071531325 0.69141094727207175 -0.071422609994186148 0.20828302767010817
leaf_weight=3.5751872509717968 1.6684207171201695 3.5751872509717968 3.3368414342403403 19.782702788710594 26.933077290654186 9.295486852526663 7.388720318675043 51.244350597262383 24.549619123339653 7.3887203186750403 3.5751872509717932 2.6218039840459815 1.4300749003887174 1.4300749003887165
leaf_count=15 7 15 14 83 113 39 31 215 103 31 15 11 6 6
internal_value=0.438722 0.301131 0.38502 0.243246 0.543279 0.387717 0.351985 0.737456 0.042356 0.401697 0.328157 0.418062 0.336796 0.612563
internal_weight=0 114.883 86.7579 45.7624 40.9955 12.6323 25.9797 52.9128 28.1248 22.4045 15.0158 11.4406 8.8188 28.3632
internal_count=704 482 364 192 172 53 109 222 118 94 63 48 37 119
is_linear=0
shrinkage=1


Tree=1
num_leaves=15
num_cat=0
split_feature=17 10 8 3 2 3 14 1 14 14 10 1 2 1
split_gain=117.624 42.7728 27.0164 10.604 7.09496 6.99239 15.5713 6.41638 6.40595 6.41809 8.31596 7.99978 5.96206 5.67896
threshold=1.5000000000000002 10.936597630719215 0.56799942517576629 -0.014471464592655697 -684.70075780290051 0.099826050616608819 57.500000000000007 0.49907264396655876 55.500000000000007 103.50000000000001 10.311411949436458 0.93297200959668602 454.44341888110824 0.98231176734399051
decision_type=2 2 2 2 2 2 2 2 2 2 2 2 2 2
left_child=1 2 -1 4 -4 12 -7 -2 -6 11 -11 -10 -3 -13
right_child=7 5 3 -5 8 6 -8 -9 9 10 -12 13 -14 -15
leaf_value=0.23121599702191378 -0.11677866116583746 -0.30140823602366429 -0.47457348157247553 -0.30045335435478915 -0.29627840963616431 -0.43984720947775363 0.25827928384516791 0.27718727394116066 0.13581965932436385 0.35120713732045461 -0.15239209838787643 -0.34263802973178686 0.033793254227072411 0.0027631209428325264
leaf_weight=14.846290573477743 1.714158996939658 39.15085032582283 1.4491644054651249 7.1340854912996283 3.2383054643869391 2.2193691581487647 3.0127878487110138 46.812424287199974 17.338220894336704 1.4444470703601826 14.261296093463896 2.6244835853576642 2.2441444694995871 6.9364668130874634
leaf_count=65 7 158 6 29 13 9 13 215 74 6 60 11 9 29
internal_value=0 -0.107608 -0.00792742 -0.0731602 -0.0388729 -0.255701 -0.0378511 0.263271 -0.0250999 -0.00448819 -0.106076 0.0548266 -0.283236 -0.0920496
internal_weight=0 115.9 69.2728 54.4265 47.2924 46.6272 5.23216 48.5266 45.8432 42.6049 15.7057 26.8992 41.395 9.56095
internal_count=704 482 293 228 199 189 22 222 193 180 66 114 167 40
is_linear=0
shrinkage=0.2


Tree=2
num_leaves=15
num_cat=0
split_feature=17 5 11 9 13 0 14 14 14 11 5 5 14 10
split_gain=83.3235 30.5917 19.0879 11.4746 8.88785 8.83358 7.55394 6.10291 5.14721 5.01234 5.65602 4.86013 4.52992 3.9655
threshold=1.5000000000000002 0.28694374964492647 1.8955671296296299 2.2246203136690474 0.19576789818616505 1.6295652611109706 75.500000000000014 55.500000000000007 103.50000000000001 -2.8614082812479724 0.26163404940014684 0.28579498863388236 119.50000000000001 10.93029905062339
decision_type=2 2 2 2 2 2 2 2 2 2 2 2 2 2
left_child=1 3 4 13 7 -2 -7 -3 -9 10 -5 -8 -10 -1
right_child=5 2 -4 9 -6 6 11 8 12 -11 -12 -13 -14 -15
leaf_value=-0.17951537791524697 0.2733655360560327 -0.2866400745632775 -0.24192232124162732 -0.18216615734412867 0.17572928415918163 -0.48633452190557619 -0.15308808017464481 0.095529876779386291 -0.23296388252374944 -0.26499682978523381 0.21855036753761989 0.27145354051248127 0.078105358222888374 0.052783660372566543
leaf_weight=4.379174828529357 37.78665566444397 2.7132350802421596 9.2311775088310224 6.1730587631463996 19.475882634520531 1.0239239931106556 1.7142066955566404 15.798947006464006 4.5095021724700919 37.74626761674881 1.8256412446498869 2.9090684652328491 3.2023265659809113 8.9406933784484846
leaf_count=18 194 11 38 25 89 5 8 68 19 154 8 15 14 38
internal_value=0 -0.0870382 0.020396 -0.186953 0.0733831 0.238497 0.00518536 -0.0026267 0.0301495 -0.234521 -0.0907057 0.114043 -0.103793 -0.0235893
internal_weight=0 113.996 54.9311 59.0648 45.6999 43.4339 5.6472 26.224 23.5108 45.745 7.9987 4.62328 7.71183 13.3199
internal_count=704 482 239 243 201 222 28 112 101 187 33 23 33 56
is_linear=0
shrinkage=0.2


Tree=3
num_leaves=15
num_cat=0
split_feature=17 14 7 0 8 7 14 15 0 15 7 17 12 15
split_gain=60.7418 14.524 13.7186 12.186 8.21966 8.23427 7.60725 7.3057 7.23346 6.02974 6.05385 5.37822 5.20014 4.67547
threshold=1.5000000000000002 57.500000000000007 1.2330056764346979 1.5451105903224895 0.61592925463191717 1.2542053757050384 74.500000000000014 0.015466316142934401 1.6295652611109706 0.018544107457797904 1.4058475195315145 1.0000000180025095e-35 6.0685382888338646 0.010989465230536602
decision_type=2 2 2 2 2 2 2 2 2 2 2 2 2 2
left_child=1 -1 3 -3 -4 -6 -7 12 -2 10 -8 -9 13 -5
right_child=8 2 4 7 5 6 9 11 -10 -11 -12 -13 -14 -15
leaf_value=-0.24984960325419944 0.25596973312288879 -0.19445279410558872 0.18804271079731341 -0.347876311219109 0.30483911951233261 0.24295300355986782 -0.31204945659194128 0.12744539371935237 0.0078344416643247351 0.30000024049769225 -0.0009779684230998007 -0.31967070979406587 0.34024814893013627 -0.074800675237429101
leaf_weight=15.723056703805922 32.810647889971733 27.671815901994705 13.167334318161013 2.8921789675951066 2.5863518267869976 2.3773508965969077 6.6524211019277555 13.368892714381214 5.4848085939884177 1.0842944830656041 4.011522114276886 1.170316711068154 1.071412220597266 18.877992048859596
leaf_count=67 194 116 63 12 11 11 28 60 28 5 17 5 5 82
internal_value=0 -0.0718063 -0.042318 -0.0938446 0.0698648 -0.0232476 -0.0833193 -0.0193675 0.220431 -0.149343 -0.195032 0.0914553 -0.0899089 -0.111079
internal_weight=0 110.655 94.9319 65.0526 29.8793 16.7119 14.1256 37.3808 38.2955 11.7482 10.6639 14.5392 22.8416 21.7702
internal_count=704 482 415 280 135 72 61 164 222 50 45 65 99 94
is_linear=0
shrinkage=0.2


Tree=4
num_leaves=15
num_cat=0
split_feature=14 10 10 12 10 9 1 10 3 14 1 3 10 3
split_gain=14.4595 9.91333 16.2972 8.69091 8.0357 8.87229 7.65718 7.47349 6.8322 4.77106 4.74658 4.92694 4.5266 4.18231
threshold=57.500000000000007 10.942732969781064 10.95479502214493 1.7636502775414573 10.925891730803414 2.2194172896912501 0.95735270046267795 10.311705094422599 0.063207997359783066 108.50000000000001 0.69343689324542457 -0.069566480513563136 10.311890360148398 -0.13977120163631326
decision_type=2 2 2 2 2 2 2 2 2 2 2 2 2 2
left_child=-1 3 8 4 7 -6 -7 -2 10 -4 11 -3 13 -5
right_child=1 2 9 12 5 6 -8 -9 -10 -11 -12 -13 -14 -15
leaf_value=-0.17462519666772847 0.021972303190390646 0.23179757826801103 0.27473896317685792 0.2370806079982104 0.24151287793016074 0.087559371557948698 -0.29493304865970682 -0.17523018494024123 0.1717016201396307 -0.1659216638540385 -0.20946908821897639 -0.15091783604573819 0.20549381521080795 -0.0028811188945776964
leaf_weight=16.117943406105042 21.781404674053192 2.2041404098272324 6.1193604171276084 3.9215717017650595 10.362302631139757 7.4190155416727048 2.9165640324354172 11.879528775811194 2.6896062195301047 1.1708468198776243 19.863555371761322 3.4539544880390229 19.249397903680801 11.211037576198576
leaf_count=76 102 10 40 20 68 36 13 53 14 6 89 15 109 53
internal_value=0 0.0267192 -0.0625997 0.062452 0.0126746 0.110738 -0.0203749 -0.0476239 -0.131484 0.203966 -0.163436 -0.00182905 0.141151 0.0593043
internal_weight=0 124.242 35.5015 88.7408 54.3588 20.6979 10.3356 33.6609 28.2113 7.29021 25.5217 5.65809 34.382 15.1326
internal_count=704 628 174 454 272 117 49 155 128 46 114 25 182 73
is_linear=0
shrinkage=0.2


Tree=5
num_leaves=15
num_cat=0
split_feature=17 13 3 5 2 7 3 5 4 4 8 7 3 1
split_gain=37.5531 12.6172 8.34893 5.94432 5.83342 6.46222 5.11587 4.19876 6.21336 5.84181 5.63165 5.05414 4.7898 4.4734
threshold=1.5000000000000002 0.19576789818616505 -0.053080724315592694 0.26163404940014684 389.67635081658699 0.7724351972361102 -0.060697259058869989 0.28694374964492647 0.026282822039580152 -0.031052126744708749 0.75078284191420019 1.3688955094575179 -0.11725885518243223 0.72674530694732853
decision_type=2 2 2 2 2 2 2 2 2 2 2 2 2 2
left_child=1 2 4 -3 5 -1 7 -7 9 12 13 -11 -9 -10
right_child=-2 3 -4 -5 -6 6 -8 8 10 11 -12 -13 -14 -15
leaf_value=-0.3234477691240063 0.19804067016677082 -0.090700618511971406 -0.17889121790935436 0.13721461109838803 0.20153011480585048 -0.12772970761035685 0.2755782561762003 0.2465487251531957 0.32105610995975137 -0.37473737763184922 0.21250968083840072 0.10589625855933776 -0.15001421022436245 -0.12345443323049195
leaf_weight=3.5125011205673209 30.590874336659908 6.2799071818590191 28.549132749438286 16.883870601654053 3.6038451939821234 18.396293073892593 1.9450246393680561 2.303916871547699 1.0932154059410075 3.9807095676660555 7.0248734354972839 1.1217560172080991 2.5854836702346802 5.2766229659318924
leaf_count=16 222 28 132 91 17 84 9 11 5 17 32 6 11 23
internal_value=0 -0.0544476 -0.0923391 0.0754248 -0.0437399 -0.0624509 -0.041486 -0.0562456 -1.48728e-05 -0.119373 0.0890213 -0.269072 0.0368488 -0.0471659
internal_weight=0 102.557 79.3934 23.1638 50.8442 47.2404 43.7279 41.7829 23.3866 9.99187 13.3947 5.10247 4.8894 6.36984
internal_count=704 482 363 119 231 214 198 189 105 45 60 23 22 28
is_linear=0
shrinkage=0.2


Tree=6
num_leaves=15
num_cat=0
split_feature=2 9 13 2 4 15 9 6 16 2 15 6 8 4
split_gain=11.308 5.33203 8.83769 6.69425 5.29131 4.89914 4.30537 4.13497 3.89954 3.75665 3.42967 3.22427 3.33105 3.8816
threshold=405.11244972637968 2.2246332566945974 0.19576789818616505 -123.80785606987921 0.17442400967019903 0.019459541062801903 2.2246192232093036 -0.16160083102904027 6.5423878650364466 66.836873173346888 0.011721112055933453 -0.016080144215646946 0.92764784331221983 0.060054026829189401
decision_type=2 2 2 2 2 2 2 2 2 2 2 2 2 2
left_child=1 3 8 5 -4 6 11 9 -3 -5 -2 -1 13 -13
right_child=10 2 4 7 -6 -7 -8 -9 -10 -11 -12 12 -14 -15
leaf_value=-0.18780071422205744 -0.023947162549813564 -0.1805453624093819 0.0083122167312855728 0.17583485070400298 0.25809998649694482 0.30306923163654181 0.14413198984754041 0.16946930596103449 -0.059616836575114532 -0.26979248608682943 0.21434658948104876 -0.24691520538368694 0.29200453759972228 0.18086410686112173
leaf_weight=9.2784153148531932 3.0255724117159835 15.142318181693552 17.134476646780971 1.301855444908145 4.2295376509428015 1.5133045688271511 3.0284152925014487 15.561090439558027 36.084619291126728 1.8069645613431928 11.990246228873728 2.2405385076999695 1.2674723044037817 1.3655890971422193
leaf_count=45 15 86 89 7 27 8 15 93 192 9 92 11 8 7
internal_value=0 -0.0186988 -0.0502963 0.0426896 0.0577639 -0.0419122 -0.0722992 0.127399 -0.0953624 -0.0831807 0.166332 -0.118614 0.0131054 -0.0849213
internal_weight=0 109.955 72.591 37.3636 21.364 18.6937 17.1804 18.6699 51.2269 3.10882 15.0158 14.152 4.8736 3.60613
internal_count=704 597 394 203 116 94 86 109 278 16 107 71 26 18
is_linear=0
shrinkage=0.2


Tree=7
num_leaves=15
num_cat=0
split_feature=17 16 12 8 11 15 1 1 6 16 10 10 6 16
split_gain=25.2376 7.54773 8.32945 5.21459 3.99654 4.35334 4.19785 4.45852 3.82715 3.7558 3.72263 3.6899 3.54112 3.47009
threshold=1.5000000000000002 6.5679980145478085 1.7626490295880992 0.62813066531649608 1.7695049130763418 0.011550453514739151 0.7902426400790824 0.84970369273466451 -0.054920887210259249 7.5109656318666245 10.91978348919397 10.311705094422599 -0.032836112882525893 7.0263948644923531
decision_type=2 2 2 2 2 2 2 2 2 2 2 2 2 2
left_child=1 -1 3 -3 5 -5 -7 -8 -6 -10 11 -2 -13 -4
right_child=10 2 13 4 8 6 7 -9 9 -11 -12 12 -14 -15
leaf_value=-0.14652944601375367 0.20178375028305895 0.22878807058725431 0.027563771550837387 -0.26318604069741053 -0.27010530225715507 0.14204028387511713 -0.34954259845447505 -0.020006999479265333 -0.14037230744870657 0.23380069179561153 0.22841868350847441 -0.25671188823522184 0.14133576988323607 0.1870783471545496
leaf_weight=22.058119505643845 3.628339238464835 2.1294505298137656 26.743779696524143 3.0537651181221035 7.819115549325943 5.487645938992503 1.8943403661251057 12.34218756854534 5.1591991037130338 1.3548295795917509 18.216710306704044 2.051991499960423 1.5841488465666769 6.8528887629508963
leaf_count=118 27 10 142 14 38 27 9 56 25 6 175 10 10 37
internal_value=0 -0.0440332 -0.0129931 -0.075574 -0.0930384 -0.0409749 -0.00657143 -0.0638557 -0.175777 -0.0625494 0.180145 0.0590911 -0.0832954 0.0601008
internal_weight=0 94.8953 72.8372 39.2405 37.1111 22.7779 19.7242 14.2365 14.3331 6.51403 25.4812 7.26448 3.63614 33.5967
internal_count=704 482 364 185 175 106 92 65 69 31 222 47 20 179
is_linear=0
shrinkage=0.2


Tree=8
num_leaves=15
num_cat=0
split_feature=2 3 1 14 1 8 12 14 6 1 3 16 6 11
split_gain=6.88559 4.37626 4.40151 3.4039 3.78678 4.99342 3.66332 3.65003 4.00444 3.64554 3.64198 3.5704 3.39717 2.78514
threshold=405.11244972637968 -0.021012623385136597 0.86853715141810939 55.500000000000007 0.72674530694732853 0.7995929610328385 5.0766316873427835 153.50000000000003 -0.070079672701336845 0.49907264396655876 -0.096221440488461291 6.8133956899820136 -0.11722784028162823 1.6598083610229624
decision_type=2 2 2 2 2 2 2 2 2 2 2 2 2 2
left_child=1 3 -3 -1 5 -5 10 8 9 -7 13 -12 -11 -6
right_child=-2 2 -4 4 6 7 -8 -9 -10 12 11 -13 -14 -15
leaf_value=-0.1510939085850764 0.14531044518622072 -0.023492947524690326 -0.20274642821963693 0.21236467288694783 -0.022927623406468089 -0.3354997577461446 0.16650235037770547 -0.24583403486209293 0.15163090609168806 0.22390757749600299 -0.049175412291181921 0.14003263541131558 -0.20845640262029558 -0.15016147851740513
leaf_weight=4.9665130078792563 12.177913941442965 14.919784151017668 8.6595458164811117 8.2626756653189677 20.010703288018703 1.5751614570617665 4.3151709735393515 1.8538068830966938 6.9850983396172515 1.7158591449260709 7.5274036899209085 8.4873634055256826 1.2611988335847857 10.489053934812544
leaf_count=29 107 91 53 53 105 7 24 10 49 11 48 54 8 55
internal_value=0 -0.0138839 -0.0893241 0.00908357 0.0200588 0.0900974 -0.00977812 0.0146553 0.0565105 -0.0894459 -0.0261317 0.0510994 0.0407412 -0.0666841
internal_weight=0 101.029 23.5793 77.45 72.4835 21.6538 50.8297 13.3911 11.5373 4.55222 46.5145 16.0148 2.97706 30.4998
internal_count=704 597 144 453 424 138 286 85 75 26 262 102 19 160
is_linear=0
shrinkage=0.2


Tree=9
num_leaves=15
num_cat=0
split_feature=17 5 9 0 9 9 10 10 5 10 4 6 14 16
split_gain=18.475 5.21628 5.1632 4.26438 4.03025 3.29229 4.72874 4.32069 6.16683 5.27022 4.23792 6.38795 4.00337 3.20321
threshold=2.5000000000000004 0.28694374964492647 2.2246282045230492 1.7147524038249047 2.248467570154741 2.2376057105259295 10.311705402797312 10.311887395346767 0.30569300067700755 10.346550284620106 0.026282822039580152 0.066244754269300724 98.500000000000014 7.5400788855512735
decision_type=2 2 2 2 2 2 2 2 2 2 2 2 2 2
left_child=1 2 13 -2 5 6 10 -8 -9 -10 11 -3 -12 -1
right_child=3 4 -4 -5 -6 -7 7 8 9 -11 12 -13 -14 -15
leaf_value=-0.014415819314816797 0.21719645097597029 -0.25278379434296155 -0.12063737237638524 -0.38313283185362723 -0.27476238595809738 0.095169623357275079 -0.39203949570493396 -0.28888412597819241 0.2701184933308251 -0.1913564906957462 0.1848830218774192 0.26551834871242641 -0.044186677273849791 0.26073553932532562
leaf_weight=10.966447845101355 15.814193833619356 3.6036445051431718 33.415400095283985 0.48790228366851884 1.8351583182811726 17.543582156300545 2.0189790576696378 2.8162460848689079 2.5904316157102585 1.6021426469087598 8.4212564155459386 1.292247302830219 4.7862334698438636 2.0012352392077437
leaf_count=53 183 18 188 2 11 103 11 13 17 8 49 9 24 15
internal_value=0 -0.0316103 -0.0790686 0.199229 0.0157186 0.027651 -0.0160079 -0.134246 -0.0599852 0.0937713 0.0429551 -0.11598 0.101871 0.0280469
internal_weight=0 92.893 46.3831 16.3021 46.5099 44.6748 27.1312 9.0278 7.00882 4.19257 18.1034 4.89589 13.2075 12.9677
internal_count=704 519 256 185 263 252 149 49 38 25 100 27 73 68
is_linear=0
shrinkage=0.2


Tree=10
num_leaves=15
num_cat=0
split_feature=14 2 14 14 1 1 14 8 4 14 14 4 3 12
split_gain=4.51551 5.01684 3.07739 2.99452 2.72721 3.53577 4.64368 3.79148 2.77562 2.42606 2.40837 2.34711 2.24262 2.23568
threshold=57.500000000000007 405.11244972637968 32.500000000000007 26.500000000000004 0.80656589446565941 0.79280799424709614 123.50000000000001 0.75266763466486741 0.22185563831023444 143.50000000000003 78.500000000000014 0.19780903604947939 -0.033548120621820193 6.8268054987972731
decision_type=2 2 2 2 2 2 2 2 2 2 2 2 2 2
left_child=2 4 3 -1 5 6 -2 -8 10 -3 -6 12 13 -12
right_child=1 9 -4 -5 8 -7 7 -9 -10 -11 11 -13 -14 -15
leaf_value=-0.081378316563923372 0.077929916833998428 0.22416245351465203 -0.19533144573931649 0.30219465329905781 -0.19723777225869071 0.38952297858635127 0.20322355135062914 -0.16797972284633375 0.11635473763376536 -0.00089421425422969215 -0.011299594443424562 -0.33584561929803769 -0.10401160556313252 0.18133105593465579
leaf_weight=3.0590567067265493 23.711038704961542 6.4917325489222986 7.181423045694828 1.1093664094805715 3.7119988501071921 1.1634557396173466 1.3377299159765232 6.2100884765386581 4.8476909995079032 2.7181304432451725 27.531475301831957 0.97362072765827079 9.9302528798580223 2.6412161067128173
leaf_count=18 167 79 49 9 22 6 9 42 31 20 162 5 68 17
internal_value=0 0.0177756 -0.115989 0.0207042 0.00206656 0.0471799 0.0344379 -0.10219 -0.0274014 0.157741 -0.0429608 -0.0290192 -0.02157 0.00556265
internal_weight=0 91.2684 11.3498 4.16842 82.0586 32.4223 31.2589 7.54782 49.6363 9.20986 44.7886 41.0766 40.1029 30.1727
internal_count=704 628 76 27 529 224 218 51 305 99 274 252 247 179
is_linear=0
shrinkage=0.2


Tree=11
num_leaves=15
num_cat=0
split_feature=2 7 9 3 9 9 5 3 7 7 16 12 5 5
split_gain=3.11392 2.95561 2.67598 3.72195 3.48861 3.36476 3.30543 3.07482 3.96362 3.02065 2.85456 5.78582 2.75239 4.06784
threshold=405.11244972637968 1.4717177682452276 2.2246332566945974 -0.10246960433486164 2.2246203137717235 2.2130460023602869 0.22522517936400874 -0.11400705000327319 1.1041442256088876 1.4270481093509388 6.8329847022970549 1.7626490295880992 0.31073748312053723 0.35264559954331937
decision_type=2 2 2 2 2 2 2 2 2 2 2 2 2 2
left_child=1 2 3 4 6 -5 -1 8 -4 -10 12 -12 -9 -14
right_child=-2 -3 7 5 -6 -7 -8 10 9 -11 11 -13 13 -15
leaf_value=0.34405869733416822 0.11220719538596319 0.12353735313388828 -0.061659917879568218 -0.12619250875393384 0.19769699807739577 0.14855215588661591 -0.10186464458509592 -0.14802439441090492 0.17078453057376647 -0.19747545550593706 -0.1138704011137647 0.1577573105236042 0.20823751994041137 -0.24083665932590759
leaf_weight=0.70338299870491283 9.3815328218042833 6.2718100138008586 10.119780451059343 2.1080561727285376 2.1510529667139044 11.563884954899548 12.158798072487114 20.120441138744358 7.2085370607674104 1.016591891646385 7.6737767159938794 5.3053288944065571 2.2134054377675052 1.2696648761630056
leaf_count=4 107 42 59 10 16 93 68 132 51 6 53 42 15 6
internal_value=0 -0.00888188 -0.0188147 0.0306963 -0.0380524 0.10619 -0.0774788 -0.0446711 0.0221516 0.125269 -0.0781805 -0.00284007 -0.119609 0.0445389
internal_weight=0 89.8845 83.6127 28.6852 15.0132 13.6719 12.8622 54.9275 18.3449 8.22513 36.5826 12.9791 23.6035 3.48307
internal_count=704 597 555 191 88 103 72 364 116 57 248 95 153 21
is_linear=0
shrinkage=0.2


Tree=12
num_leaves=15
num_cat=0
split_feature=14 10 10 9 13 13 3 3 10 9 6 3 3 14
split_gain=2.90269 3.63157 3.34274 3.02927 3.84792 2.8976 2.78331 3.03048 2.70794 3.57408 3.30154 3.94295 3.872 2.55277
threshold=57.500000000000007 10.95479502214493 10.94492146959349 2.2381524651590885 0.064136810108073261 0.074697999968537973 -0.10638888888888888 0.017859138762209154 10.311890360148398 2.2425303624669977 -1.0000000180025095e-35 -0.13977120163631326 -0.061700356671268046 108.50000000000001
decision_type=2 2 2 2 2 2 2 2 2 2 2 2 2 2
left_child=-1 2 5 -4 -5 -2 -6 -8 10 -10 12 -12 -7 -3
right_child=1 13 3 4 6 8 7 -9 9 -11 11 -13 -14 -15
leaf_value=-0.09773151750247161 -0.0075565270764457963 0.27650093037450618 -0.17235228948580655 -0.22803127378468357 0.27189563801907835 0.27004210895726383 -0.10584805097822965 0.1948894989952851 0.17914868594691602 -0.14980650684267738 0.22908230909830044 -0.14069655473832132 -0.15333447570523312 -0.12987667206994577
leaf_weight=10.344038285315035 39.115698050707579 3.2710578739643088 7.1517089083790806 2.3413471356034261 1.9410801380872733 3.0565759688615799 3.9480246752500525 2.0291353762149811 11.684312075376509 1.4895739033818234 1.4250499904155729 6.0518666580319422 1.2045749425888059 0.7624419517815112
leaf_count=76 268 40 52 17 9 21 23 15 115 10 14 32 6 6
internal_value=0 0.0144425 0.00526781 -0.0724344 -0.002784 0.0263977 0.0638194 -0.00375321 0.0797111 0.141954 0.00985497 -0.0702192 0.150359 0.199684
internal_weight=0 85.4724 81.4389 17.4113 10.2596 64.0277 7.91824 5.97716 24.912 13.1739 11.7381 7.47692 4.26115 4.0335
internal_count=704 628 582 116 64 466 47 38 198 125 73 46 27 46
is_linear=0
shrinkage=0.2


Tree=13
num_leaves=15
num_cat=0
split_feature=15 2 10 10 10 15 2 3 2 7 3 10 2 12
split_gain=3.17612 3.39563 3.90538 3.05571 3.56047 2.22844 5.2234 2.31217 2.89171 3.34498 2.86021 3.35893 2.67688 2.43565
threshold=0.0068401203073821509 134.76467039190507 10.905539206540237 10.311889865341147 10.311702071185195 0.018773973333922254 -358.45041897443519 -0.015678931458365297 -135.13675237133495 0.7724351972361102 -0.10106457368827158 10.94492146959349 -117.29715793652601 5.0722884913004975
decision_type=2 2 2 2 2 2 2 2 2 2 2 2 2 2
left_child=-1 5 3 4 -3 7 -7 8 10 -10 13 -12 -11 -2
right_child=1 2 -4 -5 -6 6 -8 -9 9 12 11 -13 -14 -15
leaf_value=-0.2474833294994444 -0.1326297122379376 -0.12341925082954514 0.15591737833820488 -0.24669726161077676 0.15520651756475337 -0.11192234500141794 0.21515045475134792 -0.1141745941072297 -0.22282386530269724 0.24331045414361793 0.078689806933468665 -0.17699905689438322 0.038498745013276811 0.078451241752096557
leaf_weight=1.9929034262895573 14.920874312520029 3.1439118795096892 11.595160190016029 1.8653800711035726 4.4048213362693787 3.2483576387166977 4.8981536328792554 10.077820315957068 1.6981305256486035 3.0109308622777489 9.6574447713792271 2.6106738969683638 16.768134985119104 2.5621166899800292
leaf_count=15 84 19 142 10 25 25 37 79 12 18 68 23 127 20
internal_value=0 0.00776736 0.0782198 -0.0174787 0.0391639 -0.0135443 0.0847327 -0.0266036 -0.00937636 0.0465498 -0.0497492 0.0242788 0.0696769 -0.101696
internal_weight=0 90.4619 21.0093 9.41411 7.54873 69.4526 8.14651 61.3061 51.2283 21.4772 29.7511 12.2681 19.7791 17.483
internal_count=704 689 196 54 44 493 62 431 352 157 195 91 145 104
is_linear=0
shrinkage=0.2


Tree=14
num_leaves=15
num_cat=0
split_feature=17 0 1 0 7 2 7 7 0 0 14 0 2 2
split_gain=11.1684 3.58851 3.33702 2.92595 2.7485 2.36355 1.77518 4.93062 1.64722 2.68552 1.57643 4.04474 2.71797 2.17849
threshold=2.5000000000000004 1.4069603458795215 1.7998678414211779 1.6603087717344407 1.4780630784264752 -478.79971258372012 1.0096052474123203 0.98227414595060802 1.40922484059043 1.4204347646821751 72.500000000000014 1.7326661961943899 -43.876576058233816 -122.89624243659682
decision_type=2 2 2 2 2 2 2 2 2 2 2 2 2 2
left_child=1 2 -1 -2 5 6 7 -3 -7 -10 11 12 13 -11
right_child=3 4 -4 -5 -6 8 -8 -9 9 10 -12 -13 -14 -15
leaf_value=-0.22044227625911827 0.2198716434756606 -0.17675338479107347 0.24827506817502459 -0.18117331784841562 0.1295767833266652 0.35422620185554915 -0.24232755223132593 0.42284490137556019 -0.28523013480584286 -0.10343094817015833 0.011229614331251572 0.12937165681657367 -0.22608661178698949 0.17554923071526671
leaf_weight=5.5940280631184569 10.163009911775585 2.2078616097569461 0.68159946426749218 0.78380109369754869 5.1067725121974936 0.49082507193088432 3.2477187812328339 0.72995027899742115 1.4221980907022942 4.0615869536995879 44.979199703782797 3.2862322330474845 5.320246346294879 1.5456997677683828
leaf_count=39 179 19 6 6 36 2 24 4 8 30 284 23 36 8
internal_value=0 -0.0244547 -0.169535 0.191156 -0.0118789 -0.022614 -0.140425 -0.0277728 -0.0106885 -0.0136433 -0.00711807 -0.065179 -0.123686 -0.0265275
internal_weight=0 78.6739 6.27563 10.9468 72.3983 67.2915 6.18553 2.93781 61.106 60.6152 59.193 14.2138 10.9275 5.60729
internal_count=704 519 45 185 474 438 47 23 391 389 381 97 74 38
is_linear=0
shrinkage=0.2


Tree=15
num_leaves=15
num_cat=0
split_feature=17 9 5 11 10 5 8 8 4 7 5 9 9 10
split_gain=8.76318 2.38627 2.65803 2.58681 2.29451 2.07079 2.06737 3.12247 3.28941 1.89425 2.67718 2.12433 2.34762 2.10057
threshold=2.5000000000000004 2.248467570154741 0.28694374964492647 1.887960364701436 10.949736210343534 0.2900028864466444 0.80719400783322992 0.76803447938246472 0.047412371639259557 1.4058475195315145 0.22815541608629422 2.2404907537728218 2.2381990779266427 10.945427464549319
decision_type=2 2 2 2 2 2 2 2 2 2 2 2 2 2
left_child=1 2 6 4 5 -4 7 9 -9 11 -11 12 13 -1
right_child=-2 -3 3 -5 -6 -7 -8 8 -10 10 -12 -13 -14 -15
leaf_value=-0.028851433916665455 0.18583208245359381 -0.24047295460565274 0.29097025022361406 -0.088715276274400748 0.27569433386188485 0.022708305100632376 -0.10855767740236895 0.38485916388924274 0.0060548140959344457 0.37256504476767244 -0.02782923554363366 -0.27693622878260959 0.15800699312786634 -0.23414326999809243
leaf_weight=6.6689607463777119 9.2153748143464309 1.9256819859147061 1.1998054385185302 6.9193259924650183 1.6540273651480664 28.299617987126112 15.649595130234955 1.4722286164760583 2.4311674684286118 0.93382413685321752 2.3463615104556084 1.9403893873095501 1.8147036582231511 2.8438327237963676
leaf_count=44 185 16 6 46 14 186 120 7 14 4 12 13 11 26
internal_value=0 -0.0206706 -0.0149642 0.0219028 0.0464716 0.0336191 -0.0538447 -0.011978 0.148927 -0.0499326 0.0861576 -0.0835779 -0.0504558 -0.0902231
internal_weight=0 76.0995 74.1738 38.0728 31.1535 29.4994 36.1011 20.4515 3.9034 16.5481 3.28019 13.2679 11.3275 9.51279
internal_count=704 519 503 252 206 192 251 131 21 110 16 94 81 70
is_linear=0
shrinkage=0.2


Tree=16
num_leaves=15
num_cat=0
split_feature=3 10 1 1 5 14 14 1 10 10 1 16 12 1
split_gain=1.75136 2.15532 1.42152 1.57511 4.71159 2.1682 2.85137 1.86547 1.65507 1.71386 2.59899 1.86338 1.80242 2.09927
threshold=-0.021012623385136597 10.956918397551577 0.29858371070356987 0.72674530694732853 0.37355925967714165 64.000000000000014 114.50000000000001 0.73536420599016428 10.311411949436458 10.311460309708584 0.87827840017229064 7.5400788855512735 5.0742920657819175 1.1876005298031955
decision_type=2 2 2 2 2 2 2 2 2 2 2 2 2 2
left_child=2 -2 -1 4 5 -4 -7 -5 -9 10 -10 12 13 -11
right_child=1 -3 3 7 -6 6 -8 8 9 11 -12 -13 -14 -15
leaf_value=-0.26307857851516142 -0.075136585611946638 0.19713987669988747 -0.047339291104065005 -0.28653294589749917 -0.34863963156039679 0.18310748019426001 -0.0091047892469487118 0.17451513362285825 0.25556892756507132 0.0064015269670033154 -0.25252458785004578 0.23510174247571866 0.15167348509091169 -0.13128789509616651
leaf_weight=0.71920008212327857 15.946016155183317 1.2544077299535263 3.6400886271148982 0.89679078385233779 1.0309023000299919 10.233813704922794 4.4206045381724826 2.1852273084223262 0.49374578893184606 29.406430803239346 2.1837522648274899 1.3769927360117424 2.8298575077205887 5.2146595790982238
leaf_count=5 140 15 32 6 7 115 41 13 3 238 13 14 28 34
internal_value=0 -0.0552798 0.0165305 0.0196769 0.0673676 0.0908098 0.125125 -0.000993504 0.00486745 -0.00406436 -0.158829 0.00660793 -0.00179331 -0.0143374
internal_weight=0 17.2004 64.6321 63.9129 19.3254 18.2945 14.6544 44.5875 43.6907 41.5054 2.6775 38.8279 37.4509 34.6211
internal_count=704 155 549 544 195 188 156 349 343 330 16 314 300 272
is_linear=0
shrinkage=0.2


Tree=17
num_leaves=15
num_cat=0
split_feature=5 5 0 2 5 7 7 9 9 9 0 0 11 5
split_gain=1.55566 2.41394 1.99847 1.59456 1.94962 1.50326 1.49694 1.39959 1.2583 3.54372 2.94814 1.7965 3.28766 1.78865
threshold=0.21648755474601272 0.22570539718691476 1.4100867238257675 -511.02575826559536 0.22997226981865077 0.72894134259663634 0.92892769979621803 2.254963086733603 2.2440185039840905 2.2425303843846738 1.7098138974904482 1.4517810632314294 4.3708564787490385 0.22841096726350099
decision_type=2 2 2 2 2 2 2 2 2 2 2 2 2 2
left_child=-1 5 6 4 -4 -2 -3 8 9 11 -10 12 -5 -13
right_child=1 2 3 7 -6 -7 -8 -9 10 -11 -12 13 -14 -15
leaf_value=-0.15533507982092337 -0.19673876436331689 0.10242096753311924 0.26382832525431571 0.16747019861019988 -0.14629062258512018 0.13026453499485555 -0.16839262684141715 -0.21259164886653506 0.016791973638032535 -0.28641966356611215 0.52132183954408662 -0.20225889830620664 -0.26562577676653132 0.013783038825885325
leaf_weight=2.4539538584649554 0.6054627187550049 0.99199255928397079 0.51690922304987807 5.9771979786455622 4.4999533705413342 7.8933024257421494 4.6133852126076818 1.0750278159975994 1.5783586381003254 1.5492705702781666 0.65573744475841511 1.5871074497699726 0.79426006972789753 44.86532805301249
leaf_count=26 8 9 5 42 43 89 47 9 18 8 3 18 5 374
internal_value=0 0.00641664 -0.00602164 0.00414499 -0.104034 0.106968 -0.120466 0.013489 0.0177524 0.0117514 0.164878 0.0204307 0.11667 0.00640169
internal_weight=0 77.2033 68.7045 63.0992 5.01686 8.49877 5.60538 58.0823 57.0073 54.7732 2.2341 53.2239 6.77146 46.4524
internal_count=704 678 581 525 48 97 56 477 468 447 21 439 47 392
is_linear=0
shrinkage=0.2


Tree=18
num_leaves=15
num_cat=0
split_feature=17 1 0 15 0 10 11 14 6 11 1 11 15 15
split_gain=6.39629 3.35211 1.85482 1.67202 1.24794 1.62762 1.89012 1.45475 1.4103 2.03139 3.26514 2.98773 1.90987 3.05603
threshold=2.5000000000000004 0.5070284619585983 1.4013408280012707 0.020964946374172504 1.7500954258849772 10.311460309708584 1.887960364701436 80.500000000000014 -0.091726825951285382 1.6807369876963132 1.0874072591873019 -3.018310318778707 0.011876827485380102 0.012226228632478601
decision_type=2 2 2 2 2 2 2 2 2 2 2 2 2 2
left_child=2 -2 -1 4 8 7 -7 -6 9 10 11 -4 -10 -14
right_child=1 -3 3 -5 5 6 -8 -9 12 -11 -12 -13 13 -15
leaf_value=-0.15652064292837009 -0.2613056992137231 0.21407145094672334 -0.17256983996271211 0.21759705178991851 -0.32572481455562402 0.24615648857770209 -0.055111179185173088 0.044391000850549006 0.058316476721550325 -0.15135183335153005 -0.19777207735725139 0.082253357299623686 -0.270338976066127 -0.012873279610765259
leaf_weight=3.6622510738670817 0.64785853028297324 7.0503772618249059 2.3169421777129164 1.2629481926560391 0.62690833210945029 2.6033591702580456 1.2249437682330606 1.3175686299800871 14.090249236673115 7.1457282975316039 3.2474626861512652 8.9491313025355357 2.0122608095407513 22.063630264252424
leaf_count=35 4 181 13 9 4 24 8 7 108 54 27 58 13 159
internal_value=0 0.174065 -0.0179321 -0.0103411 -0.0147295 0.0740742 0.14976 -0.074936 -0.0232985 -0.064061 -0.0210835 0.0298473 -0.000165857 -0.0343922
internal_weight=0 7.69824 70.5234 66.8611 65.5982 5.77278 3.8283 1.94448 59.8254 21.6593 14.5135 11.2661 38.1661 24.0759
internal_count=704 185 519 484 475 43 32 11 432 152 98 71 280 172
is_linear=0
shrinkage=0.2


Tree=19
num_leaves=15
num_cat=0
split_feature=17 0 5 3 0 5 9 0 3 2 9 9 2 9
split_gain=5.05881 2.27207 1.60704 1.43259 2.93927 1.77937 1.74498 2.06814 1.8716 1.52675 2.71469 4.84635 2.33188 2.08064
threshold=2.5000000000000004 1.6603087717344407 0.21613878016502602 -0.021012623385136597 1.5654593217923367 0.22578418350043647 2.2336286422808116 1.631779242975407 0.12368068181818181 -135.13675237133495 2.2425302912926353 2.2381532601125018 -225.52670208135916 2.2276958146384622
decision_type=2 2 2 2 2 2 2 2 2 2 2 2 2 2
left_child=2 -2 -1 9 5 -5 7 -6 -8 10 11 13 -12 -4
right_child=1 -3 3 4 6 -7 8 -9 -10 -11 12 -13 -14 -15
leaf_value=-0.2391877939251178 0.21158269205066005 -0.17477971485918128 -0.017449716731884887 0.038118448102779985 0.14695538944025352 -0.23505956960843713 0.14420128715928227 -0.22713616382374657 -0.19940487745127231 0.036201172029941102 -0.012749313608009159 0.17407833812091628 -0.40249433975299909 -0.1717072903051918
leaf_weight=1.2538462802767742 5.7492054952308527 0.68093235418200482 14.663197629153734 1.2085418365895728 0.85323192179203067 4.5238726250827312 3.8880289234220982 1.9243600927293298 0.75765439867973317 27.982464987784628 1.1032122224569323 4.6085367798805228 1.3848754689097393 4.5931415967643252
leaf_count=13 179 6 97 11 6 46 32 14 7 204 8 39 7 35
internal_value=0 0.170668 -0.0148391 -0.0106711 -0.069889 -0.177467 0.0131848 -0.112221 0.0881633 0.00366667 -0.0308796 -0.0101529 -0.229682 -0.0542442
internal_weight=0 6.43014 68.745 67.4911 13.1557 5.73241 7.42328 2.77759 4.64568 54.3354 26.353 23.8649 2.48809 19.2563
internal_count=704 185 519 506 116 57 59 20 39 390 186 171 15 132
is_linear=0
shrinkage=0.2


Tree=20
num_leaves=15
num_cat=0
split_feature=15 1 0 15 3 13 12 3 0 1 0 0 0 0
split_gain=1.64327 1.14603 1.03717 0.947578 1.22303 0.984592 1.83104 1.50309 1.092 3.28664 1.66665 1.46588 2.33566 1.4582
threshold=0.0068401203073821509 1.7998678414211779 1.4013408280012707 0.020938176406926353 0.12826363636363633 0.22053352339347132 10.257585605122051 0.00092230656333215004 1.4707966682217166 1.1096286001717988 1.4386303293915044 1.5292771438341679 1.5355346760458064 1.4367441059682238
decision_type=2 2 2 2 2 2 2 2 2 2 2 2 2 2
left_child=-1 2 -2 4 5 8 7 -7 9 10 13 -10 -13 -4
right_child=1 -3 3 -5 -6 6 -8 -9 11 -11 -12 12 -14 -15
leaf_value=-0.22741846650688693 -0.10968046754775329 0.23415193965890724 0.070822011249544792 0.1852642421073763 -0.25690647215114881 0.21774413699410014 -0.23446821795514605 -0.11160196408676333 -0.10173419928084192 -0.09724282363869996 0.20095797725261089 0.23015272963545896 -0.0092451484557438939 -0.29693021453735857
leaf_weight=1.2401125375181425 3.1765050860121837 0.86094604060053725 3.6565735368058068 1.1754353018477548 0.71038421057164569 2.8790897829458113 0.56068857014179219 0.6864534243941306 6.4827695889398447 4.0479779466986647 4.7533832192420959 1.6990560190752138 40.20013618003577 0.48895983397960652
leaf_count=15 40 9 38 10 6 34 3 5 82 35 61 19 344 3
internal_value=0 0.00479874 0.00199857 0.00726653 0.00410439 0.00693714 0.101505 0.154337 0.000574594 0.0521648 0.120128 -0.0132308 0.000462686 0.0274462
internal_weight=0 71.3784 70.5174 67.3409 66.1655 65.4551 4.12623 3.56554 61.3289 12.9469 8.89892 48.382 41.8992 4.14553
internal_count=704 689 680 640 630 624 42 39 582 137 102 445 363 41
is_linear=0
shrinkage=0.2


Tree=21
num_leaves=15
num_cat=0
split_feature=15 8 9 9 3 4 3 4 4 8 8 10 8 8
split_gain=1.30645 1.14641 1.0404 1.31996 1.41941 1.43184 1.38612 1.88542 3.13924 1.83232 1.82026 2.25194 1.67945 2.21153
threshold=0.0068401203073821509 0.5011676966153501 2.2514195444763105 2.2440185039840905 -0.0051177394034536495 -0.24254762100676305 -0.021012623385136597 -0.031052126744708749 -0.063430592467291991 0.92764784331221983 0.65650895960620581 10.951214381529583 0.89202378190673126 0.75078284191420019
decision_type=2 2 2 2 2 2 2 2 2 2 2 2 2 2
left_child=-1 -2 3 6 5 -5 7 8 10 -8 -3 -12 13 -9
right_child=1 2 -4 4 -6 -7 9 12 -10 -11 11 -13 -14 -15
leaf_value=-0.22205959940275083 0.21026348981242082 0.55331435757055625 -0.17419429364542083 0.33908811557703833 0.3340191734854604 -0.058998302352268842 -0.0046345465483430652 -0.033287350460983911 0.2168485555977977 -0.1697343328056429 0.052001303085604869 -0.18719778805221443 -0.10685182203607319 0.071046823040009144
leaf_weight=1.0372469723224629 1.0620522629469622 0.23917987197637458 1.3315453194081772 0.47772608697414409 0.96667334670200844 1.4843616941943765 7.4762226296588832 20.668552553281188 4.3472721315920273 4.1990911141037941 6.4838406192138773 2.0791760347783566 6.0207479586824766 13.391810113564132
leaf_count=15 16 2 16 2 12 36 87 157 40 40 90 19 50 122
internal_value=0 0.00404961 0.000883178 0.00431982 0.135656 0.0379272 -0.00160648 0.0120816 0.0777972 -0.0640136 0.00912189 -0.00607835 -0.00947787 0.00773463
internal_weight=0 70.2283 69.1662 67.8347 2.92876 1.96209 64.9059 53.2306 13.1495 11.6753 8.8022 8.56302 40.0811 34.0604
internal_count=704 689 673 657 50 38 607 480 151 127 111 109 329 279
is_linear=0
shrinkage=0.2


Tree=22
num_leaves=15
num_cat=0
split_feature=2 2 14 4 5 14 8 4 14 4 5 2 1 2
split_gain=1.22046 1.79515 1.77679 2.9799 2.47385 1.73453 1.7345 1.50961 2.18468 1.49505 1.35518 1.95471 2.66863 1.83699
threshold=134.76467039190507 122.44018220156669 58.500000000000007 -0.027230189516760945 0.30569300067700755 169.00000000000003 0.93524624600058659 0.22185563831023444 73.500000000000014 0.20674288074830802 0.28694374964492647 -394.90725742137749 0.98231176734399051 -269.09015482371018
decision_type=2 2 2 2 2 2 2 2 2 2 2 2 2 2
left_child=1 7 -2 5 6 -4 -5 9 -9 10 -1 12 -12 -13
right_child=2 -3 3 4 -6 -7 -8 8 -10 -11 11 13 -14 -15
leaf_value=-0.049506788862066109 -0.14080071014986972 -0.35531697085012565 0.26029804943947593 0.079199407330437011 -0.23984628994157897 -0.050556146514562618 -0.26534454203210517 -0.18668753227084564 0.19868058928022964 -0.25385744689390671 -0.18085882174353113 0.16744702361581021 0.20603464637093305 0.015118004596939972
leaf_weight=22.578308534808457 1.7368988879024971 0.60796769708394904 3.8575049247592679 7.113698714412747 1.3789322450757024 0.88221224583685387 0.63676247000694264 0.7469432651996607 2.7728343699127436 1.0577354878187168 3.5671778358519104 3.837177466601136 0.89130857959389675 18.121944120153785
leaf_count=246 21 6 72 90 8 8 5 4 31 7 25 32 8 141
internal_value=0 -0.0135817 0.0498943 0.073776 0.00697828 0.202438 0.0508924 -0.00970357 0.1169 -0.0186064 -0.0135277 0.0172225 -0.103514 0.0417363
internal_weight=0 54.1814 15.606 13.8691 9.12939 4.73972 7.75046 53.5734 3.51978 50.0537 48.9959 26.4176 4.45849 21.9591
internal_count=704 500 204 183 103 80 95 494 35 459 452 206 33 173
is_linear=0
shrinkage=0.2


Tree=23
num_leaves=15
num_cat=0
split_feature=17 5 5 8 9 7 9 5 11 5 13 7 9 8
split_gain=3.84561 1.53416 1.40183 1.37553 1.23904 1.14781 0.857241 1.00262 1.25916 1.69746 1.49243 1.29764 1.58548 1.16761
threshold=1.5000000000000002 0.21693955653264999 0.21821102501446046 0.63348290878390179 2.2042629345461493 1.4717177682452276 2.248467570154741 0.28694374964492647 2.9952921728710868 0.29455669918865818 0.067660648422500816 1.34321231301941 2.2374659830373145 0.60250778483665413
decision_type=2 2 2 2 2 2 2 2 2 2 2 2 2 2
left_child=1 -1 -3 -2 -5 6 7 13 9 -9 -10 -11 -13 -4
right_child=3 2 5 4 -6 -7 -8 8 10 11 -12 12 -14 -15
leaf_value=-0.22602991737013289 -0.18382026074252467 0.33846600369704738 0.039820530000358539 -0.11315771394297158 0.16793551129346151 0.08445739328076235 -0.19172932173345936 0.17345836946987969 -0.20711346023318644 0.019644528831187155 0.15540296969976655 -0.24930866281473546 0.067169354427709382 -0.071665986673403834
leaf_weight=1.3799851331859816 0.54387104418128629 0.45128537714481254 4.6757227685302523 0.6840919852256756 7.5499923247843981 4.2608422115445128 1.1836628336459387 2.5781767815351548 2.0319684520363803 20.171546859666709 0.58504360914230336 1.6577273886650794 1.0245200395584104 19.137202175334096
leaf_count=18 11 2 40 5 206 40 13 15 18 143 4 10 11 168
internal_value=0 -0.0176281 -0.0126488 0.124235 0.144582 -0.0154139 -0.0234359 -0.0195949 0.00602756 0.0196209 -0.126071 0.00226619 -0.128426 -0.0497754
internal_weight=0 59.1377 57.7577 8.77796 8.23408 57.3064 53.0456 51.8619 28.049 25.432 2.61701 22.8538 2.68225 23.8129
internal_count=704 482 464 222 211 462 422 409 201 179 22 164 21 208
is_linear=0
shrinkage=0.2


Tree=24
num_leaves=15
num_cat=0
split_feature=17 1 16 6 13 1 6 2 6 6 13 10 13 6
split_gain=3.15658 2.02763 1.03718 2.43078 1.86858 1.64107 1.36008 1.48164 1.8324 2.19599 2.62209 2.56499 2.5968 1.83529
threshold=2.5000000000000004 0.5070284619585983 6.5423878650364466 -0.19265618490787703 0.076698559130895363 0.72532003605331807 -0.12458879510921263 -178.20421134750379 -1.0000000180025095e-35 0.064938424257625263 0.20289150346029619 10.311890398339605 0.064136810108073261 -0.070079672701336845
decision_type=2 2 2 2 2 2 2 2 2 2 2 2 2 2
left_child=2 -2 3 -1 5 -5 -4 -8 13 11 -11 -10 -13 -9
right_child=1 -3 6 4 -6 -7 7 8 9 10 -12 12 -14 -15
leaf_value=0.24444050970465364 -0.22602417172483499 0.2096167649385392 -0.050033532381801728 0.078994022089967392 -0.22970260486206642 -0.14100067336332012 -0.038454152881647552 0.022936921531822696 -0.16253303911496059 0.16248729627267333 -0.16427204431252004 -0.11205257527127428 0.26889418629619011 0.18281331938500217
leaf_weight=0.87792852520942588 0.4786454550921907 3.9882946824654937 15.360831674188374 2.6273126751184446 3.0743164550513029 2.8036936726421118 11.494368169456715 5.4726550951600075 4.7534445505589336 4.5028385948389769 1.2564061563462017 1.4416183326393368 1.4215789325535295 6.0439966134726948
leaf_count=8 4 181 130 24 37 36 89 38 29 34 10 13 16 55
internal_value=0 0.162937 -0.0112232 -0.0724011 -0.105106 -0.0345757 -0.000129992 0.0209369 0.0483613 -0.00198961 0.0912032 -0.0724564 0.0770877 0.106841
internal_weight=0 4.46694 61.131 9.38325 8.50532 5.43101 51.7477 36.3869 24.8925 13.3759 5.75924 7.61664 2.8632 11.5167
internal_count=704 185 519 105 97 60 414 284 195 102 44 58 29 93
is_linear=0
shrinkage=0.2


Tree=25
num_leaves=15
num_cat=0
split_feature=7 6 6 7 6 4 5 4 6 3 3 3 6 7
split_gain=0.835847 0.715736 1.26834 1.18679 1.17833 2.38405 2.25097 1.67128 1.11103 2.11678 1.74776 1.01777 1.92855 1.56557
threshold=0.65035718604595172 0.13335290483388362 0.066244754269300724 0.90826885362755716 0.03177527796429986 0.071114374111578019 0.30466924192154782 0.046659465374095307 0.081191890316716961 -0.099920634036235897 -0.14391683943073177 -0.052888180158941346 -0.058104402058608347 1.0508208975163222
decision_type=2 2 2 2 2 2 2 2 2 2 2 2 2 2
left_child=-1 2 4 -4 11 6 7 -6 -5 10 -10 12 13 -2
right_child=1 -3 3 8 5 -7 -8 -9 9 -11 -12 -13 -14 -15
leaf_value=-0.15609653641830765 0.036615925490509987 -0.12338349742048693 -0.19808764996642869 0.22519067370720186 -0.1568322927055017 -0.25900542311162822 0.24378898993244935 0.19860895541434875 0.23422683455700133 0.205223983014232 -0.15822531017313599 -0.03615855410370887 0.089415858156572658 -0.077808509864938147
leaf_weight=1.3296142350882281 11.464350252645085 1.7111645014956582 0.54574104212224384 2.2039633183740079 2.5779237039387222 2.0857205204665661 1.1310590691864488 0.66580881923437107 0.58907463680952799 2.02725541125983 1.9782054976094514 14.361223502550279 12.46974170906469 8.2068848391063494
leaf_count=17 125 16 8 21 30 16 10 4 8 17 14 181 145 92
internal_value=0 0.0041678 0.00778697 0.0856758 -0.00301373 -0.083049 0.000839733 -0.0838744 0.108455 0.0524572 -0.0681753 0.00810551 0.0278836 -0.0111222
internal_weight=0 62.0181 60.307 7.34424 52.9627 6.46051 4.37479 3.24373 6.7985 4.59454 2.56728 46.5022 32.141 19.6712
internal_count=704 687 671 68 603 60 44 34 60 39 22 543 362 217
is_linear=0
shrinkage=0.2


Tree=26
num_leaves=15
num_cat=0
split_feature=17 1 1 8 15 3 3 13 12 13 1 3 8 15
split_gain=2.64176 1.53847 0.966613 0.924634 0.929987 0.945006 1.55871 1.41988 1.2395 1.17887 1.2822 1.13944 1.21977 0.993829
threshold=2.5000000000000004 0.5070284619585983 1.7998678414211779 0.5011676966153501 0.020964946374172504 -0.053080724315592694 -0.041025830203449194 0.20112677636664317 6.8370305847192601 0.20854517720851318 0.79280799424709614 -0.062625610106230231 0.53301918693328465 0.014032088529856353
decision_type=2 2 2 2 2 2 2 2 2 2 2 2 2 2
left_child=2 -2 3 -1 5 11 -7 8 -8 -9 -11 12 -5 -13
right_child=1 -3 -4 4 -6 6 7 9 -10 10 -12 13 -14 -15
leaf_value=0.19436478040332747 -0.20147070858851501 0.20831439478969249 0.22821486197024043 0.13182442869554362 0.17315095723137097 -0.27588055552049412 -0.063205850742962075 0.22047866822433654 -0.3860262395370771 -0.25870550152995792 0.077835156652681814 0.237379128447544 -0.020049018913640498 -0.040446328230794491
leaf_weight=0.85160559322684903 0.41158353537321035 3.3432344957254827 0.67519756034016509 2.248760499060146 1.0252944659441698 1.242244530469178 10.28198168613017 1.289832636713981 0.49883766472339708 0.63996136933565173 1.5486797541379926 1.4147769361734384 35.643716976046562 0.80982705205678929
leaf_count=17 4 181 9 28 10 11 120 13 2 4 12 11 275 7
internal_value=0 0.163396 -0.00969129 -0.0124851 -0.015595 -0.0190744 -0.0610131 -0.0422942 -0.078143 0.068812 -0.0205697 -0.002869 -0.011036 0.136242
internal_weight=0 3.75482 58.1707 57.4955 56.6439 55.6186 15.5015 14.2593 10.7808 3.47847 2.18864 40.1171 37.8925 2.2246
internal_count=704 185 519 510 493 483 162 151 122 29 16 321 303 18
is_linear=0
shrinkage=0.2


Tree=27
num_leaves=15
num_cat=0
split_feature=1 8 4 4 16 12 4 11 5 13 8 5 5 8
split_gain=0.701315 0.624569 0.575322 2.47094 1.82987 1.66317 1.53049 1.94236 1.96109 1.46751 1.25562 1.75226 1.52732 2.23601
threshold=1.7998678414211779 0.5011676966153501 -0.027942631872512447 -0.099918264316387548 6.5929685291165763 1.7590543892714237 0.039764757317322909 -2.8253991375613361 0.23813218508645848 0.20289150346029619 0.74929647460964477 0.36870130082503999 0.28694374964492647 0.84511757149007394
decision_type=2 2 2 2 2 2 2 2 2 2 2 2 2 2
left_child=1 -1 3 4 -3 -6 7 -4 -9 -5 11 -8 13 -12
right_child=-2 2 6 9 5 -7 10 8 -10 -11 12 -13 -14 -15
leaf_value=0.18100660786821543 0.22272362414995178 -0.11259943112824611 0.13675630403631658 0.070954061695437914 -0.071662661336072395 0.22126056578696793 -0.014071947383838022 0.036496456582546015 -0.16359736480448187 0.30768854906904364 0.086319493213498147 -0.30936469160770308 0.11758027023305627 -0.15203803451712616
leaf_weight=0.74348013941198487 0.56500299647450347 5.7525259938556719 1.4636792670935381 6.985896753612904 1.5178746934980156 1.5849050339311359 16.005974357482053 2.6770115783438069 7.3073707958683372 1.2321500298567114 3.6135162496939284 0.84631215035915275 7.0127445887774229 2.7895499793812633
leaf_count=17 9 82 13 111 16 16 148 70 66 9 48 4 66 29
internal_value=0 -0.00115483 -0.00345853 0.0274678 -0.0458289 0.077963 -0.0161159 -0.0784061 -0.109948 0.106448 0.00744365 -0.0289014 0.0530985 -0.017523
internal_weight=0 59.533 58.7895 17.0734 8.85531 3.10278 41.7162 11.4481 9.98438 8.21805 30.2681 16.8523 13.4158 6.40307
internal_count=704 695 678 234 114 32 444 149 136 120 295 152 143 77
is_linear=0
shrinkage=0.2


Tree=28
num_leaves=15
num_cat=0
split_feature=17 9 14 14 10 14 2 2 9 9 11 9 13 10
split_gain=2.03379 0.879492 0.856884 1.43275 1.08241 1.49816 1.0672 2.16905 2.03915 3.91892 1.36987 2.16271 1.32967 1.27774
threshold=2.5000000000000004 2.2042629345461493 55.500000000000007 32.500000000000007 10.311411949436458 75.500000000000014 -135.13675237133495 -117.29715793652601 2.2425302912926353 2.2381532601125018 1.6778685120210264 2.2276958146384622 0.074697999968537973 10.95479502214493
decision_type=2 2 2 2 2 2 2 2 2 2 2 2 2 2
left_child=2 -2 3 -1 5 -4 8 -8 9 10 11 12 -6 -9
right_child=1 -3 4 -5 6 -7 7 13 -10 -11 -12 -13 -14 -15
leaf_value=0.017797450605296368 -0.078644231820281865 0.2060654745078094 -0.27385011558048905 -0.21950338378594947 -0.0051822646179390097 0.1962027319784139 0.20483915122101545 -0.005640151130760219 -0.23933529307979901 0.13096746857830274 -0.14756206853156326 -0.16020862190084181 0.21770621886702712 0.27265062509534066
leaf_weight=2.1182706002145997 0.52149616926908438 2.5866522251162678 0.31366695463657324 1.9588749948889015 5.9313616920262628 2.0042893774807453 2.3311077356338492 22.598182041198026 1.8563723564147938 5.1645075976848593 5.743611801415681 3.3052387908101082 1.3064040672034023 0.67979292385280032
leaf_count=22 5 180 2 35 41 14 17 204 13 62 56 34 14 5
internal_value=0 0.158296 -0.0079702 -0.0962143 -0.000947901 0.132595 -0.00727595 0.0209063 -0.0382412 -0.0208385 -0.0689764 -0.0261646 0.0350487 0.00248685
internal_weight=0 3.10815 55.3117 4.07715 51.2345 2.31796 48.9166 25.6091 23.3075 21.4511 16.2866 10.543 7.23777 23.278
internal_count=704 185 519 57 462 16 446 226 220 207 145 89 55 209
is_linear=0
shrinkage=0.2


Tree=29
num_leaves=15
num_cat=0
split_feature=17 1 0 1 2 15 4 9 2 9 13 0 9 15
split_gain=1.59784 1.22214 1.15237 1.14198 0.687968 0.711816 0.613143 0.56649 1.7792 1.37811 1.71318 1.43771 2.91822 1.28465
threshold=2.5000000000000004 0.5070284619585983 1.4069603458795215 1.7998678414211779 405.11244972637968 0.020964946374172504 -0.053795598873760293 2.2238275201226489 134.76467039190507 2.2246333006275862 0.059782366993379403 1.6295652611109706 2.2246203136690474 0.019046565385413352
decision_type=2 2 2 2 2 2 2 2 2 2 2 2 2 2
left_child=2 -2 3 -1 5 7 -6 8 13 11 -11 -9 -13 -4
right_child=1 -3 4 -5 6 -7 -8 9 -10 10 -12 12 -14 -15
leaf_value=-0.17307644413422271 -0.18991895815908497 0.20659415138196593 -0.11889046788297114 0.22042837370307639 -0.043504054947416167 0.17251991980401896 0.17036025084479284 0.1349481783796139 0.16725440967885261 -0.10466505481778542 0.0078689318280411556 -0.16639142941290333 0.13959211380816988 0.17749903490017399
leaf_weight=2.6042009014636274 0.35995489358901922 2.2830490323249251 6.6237514056265336 0.33268267102539528 0.78287738189101252 0.88762787356972594 1.7019623816013325 5.4639875618740898 1.2315114215016363 7.2638176698237684 21.216711386106908 2.4962373934686184 2.4908018130809069 0.64161005616188038
leaf_count=39 4 181 46 6 7 9 18 48 10 79 205 21 26 5
internal_value=0 0.152592 -0.00669226 -0.128501 0.000349714 -0.00492844 0.10298 -0.0082494 -0.0550367 0.00196201 -0.0208323 0.0640797 -0.0135664 -0.0927161
internal_weight=0 2.643 53.7378 2.93688 50.8009 48.3161 2.48484 47.4284 8.49687 38.9316 28.4805 10.451 4.98704 7.26536
internal_count=704 185 519 45 474 449 25 440 61 379 284 95 47 51
is_linear=0
shrinkage=0.2


Tree=30
num_leaves=15
num_cat=0
split_feature=7 7 15 14 15 14 15 7 15 14 6 7 3 5
split_gain=0.71639 0.887118 0.802282 2.2346 1.62787 1.44557 1.81471 1.64078 1.60179 1.12461 1.04181 1.18182 1.59761 1.00223
threshold=1.4717177682452276 1.7803744588294326 0.014738073671497551 243.00000000000003 0.013184277334122 193.00000000000003 0.011550453514739151 0.91653253115145872 0.011534115961199203 72.500000000000014 0.095647426049389209 1.4270481093509388 -0.11725885518243223 0.30037518502817945
decision_type=2 2 2 2 2 2 2 2 2 2 2 2 2 2
left_child=2 -2 4 -4 5 6 8 -8 9 -1 11 12 -11 -14
right_child=1 -3 3 -5 -6 -7 7 -9 -10 10 -12 -13 13 -15
leaf_value=-0.15142025896424774 0.12080100660719376 -0.19736655234242334 0.013219615939107227 0.3671532377776856 -0.094363290601612471 -0.19495216885577266 0.19944841960910492 0.024287972113422006 -0.39431465054470499 0.23166090927801708 -0.196721697843875 -0.16483795902392026 -0.034661983994731922 0.21816032522471859
leaf_weight=2.130895683541902 3.2500598666956644 0.39291075384244312 18.426635407377038 0.74227970652282138 9.4607579233124834 1.3596176262944926 3.1369633078575117 6.7249540821649134 0.48371988534927446 1.7337649799883372 0.85941696353256691 1.0108855962753294 3.8586658290587339 0.7489184159785508
leaf_count=34 42 5 283 8 114 23 32 63 2 19 7 5 57 10
internal_value=0 0.0864852 -0.00533774 0.026925 -0.0249655 0.00481324 0.0179417 0.0800045 -0.0385928 -0.0219557 0.0116399 0.0359957 0.0680109 0.00643185
internal_weight=0 3.64297 50.6775 19.1689 31.5086 22.0478 20.6882 9.86192 10.8263 10.3425 8.21165 7.35223 6.34135 4.60758
internal_count=704 47 657 291 366 252 229 95 134 132 98 91 86 67
is_linear=0
shrinkage=0.2


Tree=31
num_leaves=15
num_cat=0
split_feature=6 3 3 14 4 10 10 10 10 6 4 5 12 5
split_gain=0.529603 1.18131 2.03967 1.80564 0.883991 0.752804 2.18582 1.34452 0.660939 0.597976 1.5905 1.37437 1.08444 1.04694
threshold=0.064938424257625263 -0.14391683943073177 -0.12324385755347604 148.00000000000003 -0.3504860468648483 10.311890189888773 10.311890398339605 10.936824693798444 10.311890010846577 0.026130007311263952 0.071114374111578019 0.30320364231164665 6.8399028030918565 0.23813218508645848
decision_type=2 2 2 2 2 2 2 2 2 2 2 2 2 2
left_child=4 -2 8 5 -1 -4 -7 -8 -3 12 11 13 -6 -11
right_child=1 2 3 -5 9 6 7 -9 -10 10 -12 -13 -14 -15
leaf_value=-0.22363814549533356 0.2074337062712428 -0.039292028998907741 0.2158550703802895 -0.23420123638335003 -0.00012403193282089716 -0.28573196599178641 0.24271138922126634 -0.16909344745879995 -0.3185365914413163 0.12510321714627318 -0.20681892397281018 0.18802805561244637 0.22387182747075199 -0.15568073240536603
leaf_weight=0.7449782844632854 1.513539064209908 0.57945938594639279 1.8280765376985062 0.67094085318967689 37.760803111596033 0.59952874481678042 1.4599878469016401 0.40513931680470694 0.81716088950634003 0.76083283266052593 2.0247111590579152 1.2150140535086391 0.88479720335453649 1.7597216712310908
leaf_count=11 19 7 14 11 517 3 19 12 4 22 19 13 16 17
internal_value=0 0.04863 0.01084 0.0709171 -0.00758063 0.118606 0.0464749 0.15326 -0.202678 -0.00395593 -0.0640705 0.0133004 0.00500439 -0.0709257
internal_weight=0 7.87383 6.36029 4.96367 45.1509 4.29273 2.46466 1.86513 1.39662 44.4059 5.76028 3.73557 38.6456 2.52055
internal_count=704 89 70 59 615 48 34 31 11 604 71 52 533 39
is_linear=0
shrinkage=0.2


Tree=32
num_leaves=15
num_cat=0
split_feature=17 0 0 11 3 11 11 6 5 3 0 8 3 11
split_gain=1.30056 0.890115 0.887022 0.751032 0.533689 1.54798 0.836952 1.99883 0.707458 0.787169 1.80681 1.25082 0.760882 0.804028
threshold=2.5000000000000004 1.4069603458795215 1.6603087717344407 -3.0355713646712572 -0.11400705000327319 -4.3678494730619759 2.8469637740439508 -0.065007130211632333 0.22139881670377717 -0.10106457368827158 1.6208224776972522 0.70073158398966595 -0.087565441426068188 1.6897236298036715
decision_type=2 2 2 2 2 2 2 2 2 2 2 2 2 2
left_child=1 3 -2 -1 5 -3 -7 -8 -6 10 11 -10 -11 -14
right_child=2 4 -4 -5 8 6 7 -9 9 12 -12 -13 13 -15
leaf_value=0.16990322932795549 0.2056778608634319 0.22953458432294235 -0.1510424921283868 -0.16887662720029478 -0.15033651546119325 -0.0095533677178304532 -0.22602412428023666 0.16318540288460368 0.24906497222108401 0.13018481443878227 -0.21477826482635642 -0.0981137527166146 0.020546874302015267 -0.071709487018483384
leaf_weight=0.2998375911265615 1.8500809747492888 1.3581455657258654 0.32830972224473942 2.0604540249332777 1.5613104859367073 17.038750327192247 0.63865070417523417 3.0408099982887498 0.77078368887305548 1.7644446166232288 2.1644590869545937 0.89951626025140285 12.43611356243491 5.4279144853353491
leaf_count=6 179 24 6 39 24 145 7 31 6 20 17 9 118 73
internal_value=0 -0.00598603 0.151916 -0.12584 2.00213e-05 0.0226862 0.00912665 0.0956296 -0.0199758 -0.0113013 -0.0941802 0.0620968 0.00489056 -0.00748486
internal_weight=0 49.4612 2.17839 2.36029 47.1009 22.0764 20.7182 3.67946 25.0245 23.4632 3.83476 1.6703 19.6285 17.864
internal_count=704 519 185 45 474 207 183 38 267 243 32 15 211 191
is_linear=0
shrinkage=0.2


Tree=33
num_leaves=15
num_cat=0
split_feature=7 4 4 5 7 7 7 3 7 6 3 16 7 3
split_gain=0.586933 1.48516 1.32053 0.875693 0.801067 1.03285 0.635503 0.614878 1.03507 0.841111 0.818144 0.832348 2.32611 0.961394
threshold=1.4329704502117864 -0.099918264316387548 0.11627555630000226 0.28265579143483271 1.4098165835388374 1.4058475195315145 1.3619028579080152 -0.053080724315592694 0.75249774028249472 0.13335290483388362 0.017859138762209154 6.5929685291165763 0.72038157174046036 -0.026311907256066195
decision_type=2 2 2 2 2 2 2 2 2 2 2 2 2 2
left_child=4 -2 -3 -4 5 6 7 8 -1 -10 11 12 -9 -13
right_child=1 2 3 -5 -6 -7 -8 10 9 -11 -12 13 -14 -15
leaf_value=-0.13392519941616185 -0.24652684882522871 0.19281878476808773 -0.27395868191221673 0.079109968102124409 -0.18974499239825116 0.31855934023495419 -0.13104590773610406 0.23092329988992236 0.030513862634930156 -0.1821924754967264 0.032683896439009978 0.082588581568016101 -0.19204186874991055 -0.10853982828039546
leaf_weight=1.7480447879061056 0.51827167347073544 2.6364207452861588 0.46918506175279595 0.70054063806310296 0.9296552948653688 0.39804402086883683 1.5455127956811328 0.60313179343939349 27.235042546177286 0.76449562795460124 4.4763307794928542 2.1889616090338677 3.7776008785003796 2.0280394651927054
leaf_count=23 5 33 3 15 9 3 18 5 371 6 67 28 72 46
internal_value=0 0.0711 0.11435 -0.0625083 -0.00598957 -0.00217345 -0.00505093 -0.000503542 0.0153846 0.0247062 -0.036654 -0.0727541 -0.133809 -0.00932886
internal_weight=0 4.32442 3.80615 1.16973 45.6949 44.7652 44.3672 42.8216 29.7476 27.9995 13.0741 8.59773 4.38073 4.217
internal_count=704 56 51 18 648 639 636 618 400 377 218 151 77 74
is_linear=0
shrinkage=0.2


Tree=34
num_leaves=15
num_cat=0
split_feature=17 0 0 5 15 9 16 9 9 15 5 8 8 9
split_gain=1.05534 0.746451 0.594883 0.523944 0.547939 0.46264 0.622976 1.50619 0.773039 0.946956 0.818951 0.777295 0.782694 0.872482
threshold=2.5000000000000004 1.6603087717344407 1.4069603458795215 0.21693955653264999 0.020964946374172504 2.2001384162103297 6.5423878650364466 2.2456158159957131 2.2227698204924162 0.019046565385413352 0.29935771094121194 1.1117248372254405 1.0073248771688592 2.2425642921618327
decision_type=2 2 2 2 2 2 2 2 2 2 2 2 2 2
left_child=2 -2 -1 -4 5 -5 7 -7 9 10 -8 12 13 -10
right_child=1 -3 3 4 -6 6 8 -9 11 -11 -12 -13 -14 -15
leaf_value=-0.11034616488613661 0.20478127820892672 -0.1341033538182311 -0.14761950389006875 0.17850970385146825 0.18022335682199606 -0.10319849161591327 -0.23094205100951523 0.22479242741582584 0.023031569977737778 0.15258788759339192 -0.024548810759937562 -0.12496282754290243 0.16547263404489587 -0.14331025155229454
leaf_weight=2.068031547125428 1.5513886199332763 0.3123330920934676 0.94961609598249097 0.57134827226400275 0.6833928469568481 4.8693851362913838 1.4974271245300768 0.63281699456274498 29.295026431325827 0.58524794131517399 1.5808384642004965 1.4921572431921948 1.4658346436917771 1.3180336710065592
leaf_count=45 179 6 17 4 8 77 10 5 286 5 12 20 17 13
internal_value=0 0.147989 -0.00546485 -0.000638587 0.00253419 -0.000269703 -0.00265981 -0.0654757 0.00662259 -0.0806125 -0.124949 0.0161423 0.0227058 0.0158698
internal_weight=0 1.86372 47.0092 44.9411 43.9915 43.3081 42.7368 5.5022 37.2346 3.66351 3.07827 33.5711 32.0789 30.6131
internal_count=704 185 519 474 457 449 445 82 363 27 22 336 316 299
is_linear=0
shrinkage=0.2


Tree=35
num_leaves=15
num_cat=0
split_feature=6 11 11 6 10 0 1 1 15 15 11 0 7 11
split_gain=0.462346 0.67825 1.28466 0.991174 1.20468 0.981393 0.965787 1.37329 0.854251 1.27413 1.07778 0.820333 0.88385 0.768493
threshold=0.064938424257625263 1.7082089710884356 1.7255300444062203 1.0000000180025095e-35 10.311890010846577 1.6251990631619861 0.84436245556699607 0.79280799424709614 0.013228356818918001 0.011067447812458253 1.887960364701436 1.5812181578155624 0.93928802556418833 1.6921289210128498
decision_type=2 2 2 2 2 2 2 2 2 2 2 2 2 2
left_child=1 3 -3 13 -5 -6 7 8 9 -4 -10 12 -8 -1
right_child=-2 2 6 4 5 -7 11 -9 10 -11 -12 -13 -14 -15
leaf_value=0.022660339170532371 0.049901718113847089 -0.32585359605173386 -0.10154304583639112 -0.13035147521086607 0.12873860778953158 -0.11910077310913852 0.14328713524355285 0.21504865968935155 0.10392834114556837 0.1543186956309994 -0.15283203452835314 -0.24535732268108246 -0.14779347831068629 0.2519114445281741
leaf_weight=22.027880874695263 6.497545317746698 0.63073003641329606 1.3375530904158934 3.9172180630266658 1.8140243075322362 0.98671574983745802 0.67054775869473848 1.0722951209172604 0.84919008077122304 1.8626382047659715 2.8439905339619145 1.335103942081332 1.1046779144089667 0.6008476740680625
leaf_count=300 89 6 27 32 40 11 10 15 21 30 66 14 36 7
internal_value=0 -0.00751575 -0.0482174 0.0087206 -0.0587379 0.0414235 -0.0324072 0.00449659 -0.0282557 0.0473786 -0.0937939 -0.126919 -0.0378449 0.0287475
internal_weight=0 41.0534 11.7067 29.3467 6.71796 2.80074 11.076 7.96567 6.89337 3.20019 3.69318 3.11033 1.77523 22.6287
internal_count=704 615 225 390 83 51 219 159 144 57 87 60 46 307
is_linear=0
shrinkage=0.2


Tree=36
num_leaves=15
num_cat=0
split_feature=7 8 7 15 2 6 7 15 2 16 7 7 2 11
split_gain=0.44791 0.480112 0.629096 0.490534 1.0389 1.40415 1.10397 0.90357 1.06158 0.840976 0.795601 1.6425 1.06111 1.15614
threshold=0.65035718604595172 0.5011676966153501 0.67108033760779795 0.014738073671497551 -153.91320282447313 -0.17223212012784467 1.4809690700666656 0.0098168731778425031 -117.29715793652601 7.5400788855512735 1.0975889705788349 1.0589870618966739 -83.963040623046325 -4.4054068930296681
decision_type=2 2 2 2 2 2 2 2 2 2 2 2 2 2
left_child=-1 -2 -3 4 6 -6 9 -7 -9 -4 11 -10 -12 -14
right_child=1 2 3 -5 5 7 -8 8 10 -11 12 -13 13 -15
leaf_value=-0.13352318095959498 0.20481009921789428 0.25428253894668851 -0.10011822390683378 0.025562062224567923 -0.16591090621969454 -0.12835024297587902 0.17229612517139933 0.18545787406711456 0.012249679483393835 0.22391990757946134 -0.11469161594960904 -0.29125773975694863 -0.14581631906053194 0.15010299769501073
leaf_weight=0.98153551295399566 0.46684895874932308 0.3886759877204885 8.8134761231485701 16.915178928757086 1.628297937568276 1.3402807330712772 0.69979020394384939 1.8366066813468958 6.2808645279146678 0.33245422691106874 0.96657592244446267 0.80459328880533565 0.6007237173616885 4.3690901775262319
leaf_count=17 16 3 122 291 28 27 12 21 75 4 10 8 5 65
internal_value=0 0.00303345 0.000939046 -0.00126937 -0.0176703 0.0111286 -0.0698146 0.0289246 0.0431113 -0.0883394 0.0230347 -0.0222153 0.0770435 0.114334
internal_weight=0 45.4435 44.9766 44.5879 27.6728 17.827 9.84572 16.1987 14.8585 9.14593 13.0218 7.08546 5.93639 4.96981
internal_count=704 687 671 668 377 239 138 211 184 126 163 83 80 70
is_linear=0
shrinkage=0.2


Tree=37
num_leaves=15
num_cat=0
split_feature=17 0 14 14 10 2 10 0 2 9 2 2 2 14
split_gain=0.872068 0.612242 0.46387 0.918771 0.719918 0.938922 0.587734 1.09924 0.990991 0.797478 0.789186 0.769178 1.06944 0.983822
threshold=2.5000000000000004 1.6603087717344407 55.500000000000007 32.500000000000007 10.311411949436458 -215.7538684574323 10.311460309708584 1.7500954258849772 134.76467039190507 2.2395658565864429 52.745680891995747 -135.13675237133495 -117.29715793652601 144.50000000000003
decision_type=2 2 2 2 2 2 2 2 2 2 2 2 2 2
left_child=2 -2 3 -1 5 -4 -6 8 10 -10 11 -8 -13 -14
right_child=1 -3 4 -5 6 -7 7 -9 9 -11 -12 12 13 -15
leaf_value=0.016576708000744574 0.20397824009644175 -0.11682409013667734 0.22960282227276541 -0.21272848001717209 -0.10835771774724459 -0.075565296836903051 -0.040063419181246979 0.14945003311299151 0.090353025780499571 -0.096660617973435503 -0.12884000841768403 0.18149935911079637 0.021877349599991994 -0.2441095704429595
leaf_weight=1.6061737658455961 1.3042125585488964 0.29107004776597012 1.1709755174815653 1.2374071404337881 2.0964186098426572 0.61513763666152854 16.069698872976005 1.8809828110970546 5.7634842060506335 1.0835515391081569 2.6095270644873372 1.5879295598715542 7.3237307295203262 0.60194931505247939
leaf_count=22 179 6 10 35 18 6 188 31 64 9 24 16 88 8
internal_value=0 0.145446 -0.00510453 -0.0832073 0.000338437 0.124503 -0.0053455 0.000503679 -0.00749194 0.0607579 -0.0240674 -0.0133805 0.0316904 0.00167585
internal_weight=0 1.59528 43.647 2.84358 40.8034 1.78611 39.0173 36.9209 35.0399 6.84704 28.1928 25.5833 9.51361 7.92568
internal_count=704 185 519 57 462 16 446 428 397 73 324 300 112 96
is_linear=0
shrinkage=0.2


Tree=38
num_leaves=15
num_cat=0
split_feature=1 0 5 5 5 5 5 4 5 5 5 10 10 1
split_gain=0.423932 0.455762 0.425911 0.348418 0.666013 0.491441 0.630611 0.911385 0.443576 0.584627 0.452303 0.745826 1.21521 1.30771
threshold=1.7998678414211779 1.4069603458795215 0.28388746620813154 0.21693955653264999 0.21821102501446046 0.22139881670377717 0.22570539718691476 -0.14123443430468771 0.22684215890016177 0.22759912582657779 0.28694374964492647 10.311411949436458 10.904503129561514 1.0425316198078847
decision_type=2 2 2 2 2 2 2 2 2 2 2 2 2 2
left_child=1 2 -1 -3 -5 -6 7 -7 -8 -10 11 -11 -13 -14
right_child=-2 3 -4 4 5 6 8 -9 9 10 -12 12 13 -15
leaf_value=-0.15047648695387283 0.21583774781839782 -0.12398243256698008 0.087137663132351717 0.25730461891500833 -0.14708508277650489 -0.22225157520751676 -0.19572992841728448 0.15285248961139722 0.24573082128230414 0.21825379363025768 0.016417912175917568 -0.16621795011447449 0.017108817536344481 -0.19985616663591851
leaf_weight=1.4194467836059619 0.3619663342833509 0.85014595126267423 0.38320063054561604 0.41548881749622424 0.85659228777512808 0.29604972712695632 0.45898263505659898 2.0756220656912765 0.38982989406213064 0.46768905594944854 23.118882078211755 2.4305406287312499 9.1680067668785323 1.2644601663341735
leaf_count=58 9 25 4 7 19 4 17 51 6 4 269 27 170 34
internal_value=0 -0.00150211 -0.0999653 0.00274495 0.00537639 0.00279357 0.00602988 0.106029 -0.000328717 0.00210579 -0.000499792 -0.0298395 -0.03886 -0.00918828
internal_weight=0 43.5949 1.80265 41.7923 40.9421 40.5267 39.6701 2.37167 37.2984 36.8394 36.4496 13.3307 12.863 10.4325
internal_count=704 695 62 633 608 601 582 55 527 510 504 235 231 204
is_linear=0
shrinkage=0.2


Tree=39
num_leaves=15
num_cat=0
split_feature=17 1 3 2 2 2 2 2 8 6 13 3 1 8
split_gain=0.753202 0.591719 0.457591 0.755631 1.79433 1.53222 1.02678 0.760711 0.717717 0.677021 0.641441 0.627027 0.51316 1.76414
threshold=2.5000000000000004 0.5070284619585983 -0.053080724315592694 96.141744738418893 -96.709151619752575 264.35203795493152 -335.51261767055945 525.76422165788802 0.53301918693328465 -0.15229036433808607 0.079998251178077864 -0.062625610106230231 0.72674530694732853 0.7995929610328385
decision_type=2 2 2 2 2 2 2 2 2 2 2 2 2 2
left_child=2 -2 8 4 6 -5 -4 -7 -1 -8 -11 12 13 -10
right_child=1 -3 3 5 -6 7 9 -9 11 10 -12 -13 -14 -15
leaf_value=0.13094984266020096 -0.15891602473811098 0.20349003317119396 -0.13064099247237315 0.1690417544211486 -0.20389351110082679 -0.2159044419052088 0.15581473390198863 0.049511073651019089 0.21875071654218387 0.072165679119578427 -0.17162454181461143 0.12579455315593063 -0.022423121973755809 -0.018193740236475266
leaf_weight=1.7924714360851819 0.21380100771784682 1.1470963337924329 1.6879976028576491 1.7724825441837313 2.7423502346500737 0.94893421232700326 1.5823093503713606 0.79283052496612072 1.6807498168200314 1.1032769144512715 0.70920991897582997 1.5118176490068425 20.244919897057116 4.9841543426737189
leaf_count=43 4 181 39 20 38 12 24 11 21 18 15 17 194 67
internal_value=0 0.146555 -0.00465159 -0.0389106 -0.0735093 0.03813 -0.00316237 -0.0950905 0.00820586 0.0602239 -0.0232273 0.000464749 -0.00657639 0.0415587
internal_weight=0 1.3609 41.5535 11.3394 7.82514 3.51425 5.08279 1.74176 30.2141 3.3948 1.81249 28.4216 26.9098 6.6649
internal_count=704 185 519 177 134 43 96 23 342 57 33 299 282 88
is_linear=0
shrinkage=0.2


end of trees

feature_importances:
Column_9=46
Column_5=45
Column_3=44
Column_2=41
Column_1=39
Column_10=39
Column_14=39
Column_0=37
Column_7=36
Column_6=28
Column_8=28
Column_15=28
Column_4=25
Column_11=21
Column_17=21
Column_13=16
Column_16=14
Column_12=13

parameters:
[boosting: gbdt]
[objective: binary]
[metric: binary_logloss]
[tree_learner: serial]
[device_type: cpu]
[linear_tree: 0]
[data: ]
[valid: ]
[num_iterations: 10000]
[learning_rate: 0.2]
[num_leaves: 15]
[num_threads: 0]
[deterministic: 0]
[force_col_wise: 0]
[force_row_wise: 0]
[histogram_pool_size: -1]
[max_depth: -1]
[min_data_in_leaf: 5]
[min_sum_hessian_in_leaf: 0.001]
[bagging_fraction: 0.9]
[pos_bagging_fraction: 1]
[neg_bagging_fraction: 1]
[bagging_freq: 0]
[bagging_seed: 28073]
[feature_fraction: 0.5]
[feature_fraction_bynode: 1]
[feature_fraction_seed: 8222]
[extra_trees: 0]
[extra_seed: 8505]
[early_stopping_round: 50]
[first_metric_only: 0]
[max_delta_step: 0]
[lambda_l1: 0]
[lambda_l2: 0]
[linear_lambda: 0]
[min_gain_to_split: 0]
[drop_rate: 0.1]
[max_drop: 50]
[skip_drop: 0.5]
[xgboost_dart_mode: 0]
[uniform_drop: 0]
[drop_seed: 15689]
[top_rate: 0.2]
[other_rate: 0.1]
[min_data_per_group: 100]
[max_cat_threshold: 32]
[cat_l2: 10]
[cat_smooth: 10]
[max_cat_to_onehot: 4]
[top_k: 20]
[monotone_constraints: ]
[monotone_constraints_method: basic]
[monotone_penalty: 0]
[feature_contri: ]
[forcedsplits_filename: ]
[refit_decay_rate: 0.9]
[cegb_tradeoff: 1]
[cegb_penalty_split: 0]
[cegb_penalty_feature_lazy: ]
[cegb_penalty_feature_coupled: ]
[path_smooth: 0]
[interaction_constraints: ]
[verbosity: -1]
[saved_feature_importance_type: 0]
[max_bin: 255]
[max_bin_by_feature: ]
[min_data_in_bin: 3]
[bin_construct_sample_cnt: 200000]
[data_random_seed: 20155]
[is_enable_sparse: 1]
[enable_bundle: 1]
[use_missing: 1]
[zero_as_missing: 0]
[feature_pre_filter: 1]
[pre_partition: 0]
[two_round: 0]
[header: 0]
[label_column: ]
[weight_column: ]
[group_column: ]
[ignore_column: ]
[categorical_feature: ]
[forcedbins_filename: ]
[objective_seed: 15792]
[num_class: 1]
[is_unbalance: 0]
[scale_pos_weight: 1]
[sigmoid: 1]
[boost_from_average: 1]
[reg_sqrt: 0]
[alpha: 0.9]
[fair_c: 1]
[poisson_max_delta_step: 0.7]
[tweedie_variance_power: 1.5]
[lambdarank_truncation_level: 30]
[lambdarank_norm: 1]
[label_gain: ]
[eval_at: ]
[multi_error_top_k: 1]
[auc_mu_weights: ]
[num_machines: 1]
[local_listen_port: 12400]
[time_out: 120]
[machine_list_filename: ]
[machines: ]
[gpu_platform_id: -1]
[gpu_device_id: -1]
[gpu_use_dp: 0]
[num_gpu: 1]

end of parameters

pandas_categorical:null
