tree
version=v3
num_class=1
num_tree_per_iteration=1
label_index=0
max_feature_idx=17
objective=binary sigmoid:1
feature_names=Column_0 Column_1 Column_2 Column_3 Column_4 Column_5 Column_6 Column_7 Column_8 Column_9 Column_10 Column_11 Column_12 Column_13 Column_14 Column_15 Column_16 Column_17
feature_infos=[1.2346093662789044:1.9952932361101223] [0.077881925041574901:3.4150107712893245] [-1646.6776231156573:1786.9753826398069] [-0.47820557289860088:0.26906112161310652] [-0.79507032854722426:0.70165903149830455] [0.19011554804521:0.43092557777262308] [-0.50441210510384615:0.24097959183673459] [0.10781690525553971:2.015115901414676] [0.36143571596895141:1.4592645224811289] [2.1653626823492496:2.2963154517607771] [10.28247361013198:11.005539406286918] [-13.816170807803871:8.520269904257999] [0:13.715743132007686] [0:0.43193980318729891] [0:400] [0:0.0277777777777777] [0:8.3037524155634124] [0:5]
tree_sizes=1650 1670 1649 1657 1669 1667 1681 1673 1663 1656 1657 1670 1680 1681 1671 1675 1679 1658 1664 1666 1682 1686 1669 1667 1667 1683 1689 1679 1678 1678 1679 1682 1686 1683 1691 1679 1688 1685 1706

Tree=0
num_leaves=15
num_cat=0
split_feature=17 16 12 9 0 3 3 0 13 13 1 9 9 0
split_gain=174.72 63.5307 44.8605 18.7192 11.0802 12.5886 10.8945 10.4902 7.43104 7.1243 5.79257 5.62736 8.9446 5.58664
threshold=1.5000000000000002 6.5679980145478085 1.7636502775414573 2.2246332654313101 1.5488351100888129 -0.065156657337609683 -0.03754243463244044 1.6279701533684721 0.19541035107176608 0.10366409061604347 0.52425653980502929 2.2246203136315259 2.2244910958042694 1.6447088549143285
decision_type=2 2 2 2 2 2 2 2 2 2 2 2 2 2
left_child=1 -1 3 6 5 -4 11 -2 9 -6 -9 12 -3 -14
right_child=7 2 4 -5 8 -7 -8 10 -10 -11 -12 -13 13 -15
leaf_value=-0.0014760970190837441 0.72651858038355677 0.44275811477838573 0.50491516914904222 0.084746325075680695 0.56823042950176061 0.09336597685637249 0.042155104512262065 0.061708346680013348 0.63302964126899597 0.20713558530266352 0.54586362557281121 0.59530603425785733 0.37037024089951565 -0.10449421174587231
leaf_weight=29.121092900633812 46.208676338195801 9.8674777597189003 7.2201056778430939 24.307689115405083 5.0540739744901675 5.0540739744901639 4.091393217444419 1.2033509463071812 19.253615140914917 3.8507230281829834 5.5354143530130386 4.5727335959672919 1.6846913248300541 2.4067018926143646
leaf_count=121 192 41 30 101 21 21 17 5 80 16 23 19 7 10
internal_value=0.39128 0.254352 0.339628 0.206603 0.494033 0.335454 0.337534 0.692523 0.563157 0.412081 0.459407 0.402747 0.339668 0.0910382
internal_weight=0 116.484 87.3633 46.9307 40.4326 12.2742 22.623 52.9474 28.1584 8.9048 6.73877 18.5316 13.9589 4.09139
internal_count=704 484 363 195 168 51 94 220 117 37 28 77 58 17
is_linear=0
shrinkage=1


Tree=1
num_leaves=15
num_cat=0
split_feature=17 10 8 3 1 14 14 3 14 14 1 2 2 15
split_gain=119.049 39.0355 27.1965 14.1781 11.4325 14.6847 17.8726 8.76968 8.16789 9.12885 7.36451 6.84462 6.34252 6.17443
threshold=1.5000000000000002 10.936597110498079 0.56683751770870627 -0.014471464592655697 0.8751003290069197 57.500000000000007 89.000000000000014 0.017629791941953302 55.500000000000007 101.50000000000001 1.208171229441984 -223.84593063220231 -379.99744162060307 0.014662916448630652
decision_type=2 2 2 2 2 2 2 2 2 2 2 2 2 2
left_child=1 2 -1 8 5 -3 7 11 -4 10 -10 -7 -11 -14
right_child=-2 4 3 -5 -6 6 -8 -9 9 12 -12 -13 13 -15
leaf_value=0.23747501538315774 0.26424928443626111 -0.38846476244521183 -0.31827984005460763 -0.33526817174824997 -0.35769789504734617 -0.41035750565467455 -0.24500111291180665 0.3332722471865831 0.10117869391123911 -0.2945376787475617 -0.32756933486367529 0.096988448368497904 -0.13731974010009748 0.15667579249568633
leaf_weight=14.154650270938872 48.775168433785439 8.2183811515569705 3.7124384939670554 7.2023596018552771 20.378670543432236 1.4968886226415632 11.141542553901671 4.4427402317523956 22.733634635806087 5.5376283824443844 1.7240329235792149 3.6750903129577654 8.4863125234842283 4.3079684227704993
leaf_count=61 220 33 15 29 82 6 45 19 96 23 7 15 35 18
internal_value=0 -0.107581 -0.00915052 -0.0741526 -0.242918 -0.162191 -0.0725982 0.127182 -0.0337104 -0.009021 0.070956 -0.049849 -0.115723 -0.0383284
internal_weight=0 117.212 67.859 53.7044 49.3533 28.9746 20.7563 9.61472 46.502 42.7896 24.4577 5.17198 18.3319 12.7943
internal_count=704 484 284 223 200 118 85 40 194 179 103 21 76 53
is_linear=0
shrinkage=0.2


Tree=2
num_leaves=15
num_cat=0
split_feature=17 5 11 14 0 0 9 10 14 11 5 13 10 11
split_gain=83.8239 39.7389 17.2204 10.3706 9.54595 6.69278 6.06192 5.72793 5.5207 5.31144 6.61897 7.29375 6.45111 3.457
threshold=1.5000000000000002 0.28695318342910631 1.8955671296296299 57.500000000000007 1.7135014782401623 1.6878947172735181 2.2366437281647822 10.311705070349133 61.000000000000007 1.5803079735160852 0.36143615879143959 0.19506480548462304 10.311703146663424 -4.445114013326668
decision_type=2 2 2 2 2 2 2 2 2 2 2 2 2 2
left_child=1 5 3 -3 -2 8 9 -6 -1 10 11 12 -5 -10
right_child=4 2 -4 6 7 -7 -8 -9 13 -11 -12 -13 -14 -15
leaf_value=-0.34472574823974506 0.26150228570485723 -0.20363771244838019 -0.21843894917751433 0.2360034625769957 0.15487671098434605 0.20464579319448389 0.20206920964644973 -0.41158913163074867 0.16107734708577204 0.14761751095448533 -0.49702182183401028 0.23571323800526878 -0.24502072270160041 -0.18961191776435976
leaf_weight=9.9480768740177137 41.167302370071411 4.3852217793464652 8.7445811629295331 1.4713972359895722 1.49159288406372 1.6088088005781163 19.072147250175476 1.3696800470352171 1.1511177122592915 10.528352051973341 1.190502032637595 3.4440060406923294 4.607054814696312 48.415561661124229
leaf_count=41 207 18 36 6 7 7 87 6 5 45 5 16 19 199
internal_value=0 -0.0877343 0.0382355 0.0884498 0.236951 -0.197876 0.120223 -0.116288 -0.208757 0.046734 -0.052411 0.00317447 -0.12858 -0.181468
internal_weight=0 114.567 53.4433 44.6987 44.0286 61.1236 40.3135 2.86127 59.5148 21.2413 10.713 9.52246 6.07845 49.5667
internal_count=704 484 232 196 220 252 178 13 245 91 46 41 25 204
is_linear=0
shrinkage=0.2


Tree=3
num_leaves=15
num_cat=0
split_feature=17 8 0 7 0 4 14 14 0 0 6 0 8 7
split_gain=60.6873 15.4822 15.7269 10.6679 8.75998 8.14693 7.34125 6.55282 6.08764 6.01442 6.56444 5.40342 5.3211 5.23529
threshold=1.5000000000000002 0.5318907503296465 1.7276471533899509 1.4043012380902475 1.6279701533684721 -0.099847617271508191 57.500000000000007 118.50000000000001 1.4068688199147343 1.4520088420781956 0.010962470332476552 1.557865541476114 0.74518152648652447 1.1317992521567468
decision_type=2 2 2 2 2 2 2 2 2 2 2 2 2 2
left_child=1 11 3 6 -2 -5 -3 8 -8 -10 -11 13 -9 -1
right_child=4 2 -4 5 -6 -7 7 12 9 10 -12 -13 -14 -15
leaf_value=-0.29074524589265199 0.25717101673220144 -0.28297129887406841 0.14813514281984147 -0.35259419545755949 -0.009278716462588061 0.16833191246189827 -0.35609964263106891 -0.047791739696182139 0.17936253616135572 -0.1322988742380711 0.052891679393648 0.24030568847600745 -0.26550039987817836 0.19331473703908564
leaf_weight=1.8439159393310531 33.194272041320801 13.212686553597448 9.3990774899721128 1.4317558407783506 5.7975244224071494 7.4473744332790357 2.894441530108451 6.1368481814861324 3.9291016012430182 27.400834500789642 10.62521557509899 7.8681994080543518 16.740741610527039 1.734327971935272
leaf_count=8 192 58 43 6 28 33 12 26 16 118 47 39 70 8
internal_value=0 -0.072605 -0.0980137 -0.123772 0.217554 0.0843328 -0.146601 -0.119997 -0.0755657 -0.0562119 -0.080553 0.147638 -0.207101 -0.0561277
internal_weight=0 110.665 99.2181 89.819 38.9918 8.87913 80.9399 67.7272 44.8496 41.9552 38.0261 11.4464 22.8776 3.57824
internal_count=704 484 429 386 220 39 347 289 193 181 165 55 96 16
is_linear=0
shrinkage=0.2


Tree=4
num_leaves=15
num_cat=0
split_feature=14 15 14 9 1 8 8 10 1 14 14 3 8 11
split_gain=15.8257 11.5579 11.8841 8.85663 7.14126 9.62575 7.93162 5.31875 4.03073 4.43762 5.24352 5.71527 4.95295 4.58391
threshold=57.500000000000007 0.014545753679558201 160.50000000000003 2.2196987044337635 0.89361033736941764 1.0604623718300386 0.68064648878342326 10.311705070349133 0.72532003605331807 134.50000000000003 106.50000000000001 -0.24201343579334003 0.75159589717796838 1.6183015636810281
decision_type=2 2 2 2 2 2 2 2 2 2 2 2 2 2
left_child=-1 2 4 -3 5 -2 -6 -8 -5 10 11 -10 13 -13
right_child=1 3 -4 8 6 -7 7 -9 9 -11 -12 12 -14 -15
leaf_value=-0.18715003182889037 0.099023985812292145 0.23441232843527376 -0.21173109925304898 0.1546449369933838 0.07789678142814084 -0.25182356070932171 0.016802007078902972 -0.24048226138943282 -0.45423944054170085 0.19584030377847769 -0.23197691380342944 0.015038008896598105 0.14992528317498682 -0.3133984695632499
leaf_weight=15.549971684813498 32.934218868613243 13.925272002816198 11.521275848150252 10.548999428749083 8.6331076174974459 3.4561853706836692 4.6195495873689643 10.563102588057516 0.97612304985523479 4.3693653196096411 4.0138994753360739 8.3003602325916379 9.053827300667761 2.1375077813863745
leaf_count=76 172 89 52 53 39 15 22 48 4 22 17 39 47 9
internal_value=0 0.0267926 -0.0256333 0.0973103 0.00997903 0.0657022 -0.0751658 -0.1622 0.0488539 0.0101729 -0.022964 0.018025 0.0416755 -0.0522205
internal_weight=0 125.053 71.7274 53.3254 60.2062 36.3904 23.8158 15.1827 39.4001 28.8511 24.4817 20.4678 19.4917 10.4379
internal_count=704 628 348 280 296 187 109 70 191 138 116 99 95 48
is_linear=0
shrinkage=0.2


Tree=5
num_leaves=15
num_cat=0
split_feature=17 5 2 13 1 8 1 5 4 4 3 2 2 5
split_gain=37.553 18.4913 13.6095 7.79975 4.6567 7.93057 4.59461 4.21474 3.80494 3.3302 4.53841 3.07847 4.0415 4.94141
threshold=1.5000000000000002 0.28695318342910631 405.11244972637968 0.19508829852262335 1.0417916377072076 0.80765355923707649 0.50622308244452474 0.3310430808569656 -0.0019282639501739997 0.050777699547832601 -0.043485346003822638 -1.0000000180025095e-35 97.76318324667993 0.23154783338784926
decision_type=2 2 2 2 2 2 2 2 2 2 2 2 2 2
left_child=1 2 4 7 5 9 -2 -3 -4 11 -11 -1 -13 -14
right_child=6 3 8 -5 -6 -7 -8 -9 -10 10 -12 12 13 -15
leaf_value=0.27544497951278379 -0.12331652055116425 0.0051345816223146799 0.39440341498485287 0.14247296434985984 -0.26367990664186597 -0.21647397461708434 0.21178560085422957 -0.2039015403090835 0.016017376783822194 -0.0020267660386830487 -0.26448821538863643 -0.2854560412764548 -0.17198325035532397 0.43664281885666201
leaf_weight=2.2692482769489288 1.731516152620318 26.152152717113498 2.1588950455188751 17.223790347576141 13.757507085800169 19.073530912399292 29.870900005102158 4.5259463489055625 2.0941361337900153 7.7243141084909448 4.0000075548887226 1.4117578864097624 1.0073220729827883 1.1346146613359449
leaf_count=10 9 118 9 94 64 91 211 20 10 33 18 7 5 5
internal_value=0 -0.055938 -0.135469 0.034766 -0.164473 -0.127204 0.193425 -0.0257046 0.208091 -0.0301684 -0.0915712 0.0934643 -0.0227414 0.150415
internal_weight=0 102.533 54.6313 47.9019 50.3783 36.6208 31.6024 30.6781 4.25303 17.5473 11.7243 5.82294 3.55369 2.14194
internal_count=704 484 252 232 233 169 220 138 19 78 51 27 17 10
is_linear=0
shrinkage=0.2


Tree=6
num_leaves=15
num_cat=0
split_feature=2 15 16 9 4 15 8 9 16 8 6 4 4 6
split_gain=11.0974 6.39824 6.69845 6.35012 5.24212 5.33749 5.05181 4.42691 6.79843 4.05134 3.79725 3.81855 6.11553 4.96484
threshold=392.280726520575 0.014662916448630652 6.5679980145478085 2.2196987044337635 0.023738168442916204 0.015349123980076351 0.53430358269448675 2.2443732909104033 7.4289129131961511 0.53696946219726727 -0.19795503111987467 -0.09516212864959088 -0.030852975594771747 -0.0041962273457832487
decision_type=2 2 2 2 2 2 2 2 2 2 2 2 2 2
left_child=1 2 -1 -3 5 -5 -4 8 -7 -8 -11 -12 -13 -14
right_child=-2 3 6 4 -6 7 9 -9 -10 10 11 12 13 -15
leaf_value=-0.17551821056717487 0.16018328427132961 0.23039255517236998 0.16229083153945958 0.34157850101667053 0.068392064317345763 -0.22778540176770579 -0.54922369522646985 0.14875048669021626 0.20989652889834942 -0.20961967856633223 -0.17244121394445178 0.22824954811751863 0.038725568195779471 -0.12736879103219287
leaf_weight=15.235900178551672 15.654919669032095 6.0014211982488623 5.2084877714514723 1.0938205197453488 23.241644114255905 10.008505962789057 0.63019354641437431 2.1156009808182707 1.6541704162955273 4.6531090438365856 5.5720384791493336 4.330988921225063 18.52196525782346 11.775302149355442
leaf_count=84 108 48 33 6 120 51 3 13 8 24 27 22 98 59
internal_value=0 -0.0197855 -0.0592347 0.0391693 0.00905918 -0.0836644 -0.0242848 -0.117423 -0.165707 -0.0456502 -0.038575 -0.0187769 0.0059493 -0.0258285
internal_weight=0 110.043 65.928 44.1152 38.1137 14.8721 50.6921 13.7783 11.6627 45.4836 44.8534 40.2003 34.6283 30.2973
internal_count=704 596 350 246 198 78 266 72 59 233 230 206 179 157
is_linear=0
shrinkage=0.2


Tree=7
num_leaves=15
num_cat=0
split_feature=17 10 8 1 1 11 10 10 15 11 6 11 16 10
split_gain=24.9864 8.93506 6.4742 3.81722 3.75854 3.70523 3.73157 5.11209 3.43997 3.39948 3.89552 5.38281 3.18192 5.1525
threshold=2.5000000000000004 10.936796439631353 0.56683751770870627 0.8751003290069197 0.5483308814989164 5.0311722752372567 10.935900584894567 10.935379160499856 0.010275047519007551 -3.7937316069263898 -0.098192912633833243 1.8840393518518523 7.4289129131961511 10.311705070349133
decision_type=2 2 2 2 2 2 2 2 2 2 2 2 2 2
left_child=1 2 -1 8 -2 6 7 12 -3 -10 11 -11 -4 -14
right_child=4 3 5 -5 -6 -7 -8 -9 9 10 -12 -13 13 -15
leaf_value=0.15566804698929293 -0.12469661496471894 -0.26417876978075511 -0.051452786797861062 -0.19701830623398717 0.22905626308601823 -0.30217063867804633 0.15498198787255649 -0.41027229433435486 -0.36231144017053712 0.16569584004015586 -0.10490329607947749 -0.22875287069649763 0.11266846972269629 -0.22364094127741022
leaf_weight=9.8224351406097394 1.2836732342839265 2.9619333744049099 32.470200963318348 14.615036681294439 18.739559821784496 1.80847007036209 4.912432260811328 1.3598689734935749 1.1657456606626535 6.8403126150369697 8.54602806270122 1.7348114252090452 12.085928991436957 2.1457306891679755
leaf_count=61 7 17 155 81 176 9 24 6 5 36 45 9 63 10
internal_value=0 -0.0382911 0.00614723 -0.118342 0.206377 -0.0206616 -0.0110512 -0.0280217 -0.0642285 -0.0318425 -0.00934156 0.0858959 -0.0168912 0.0619625
internal_weight=0 100.469 64.6051 35.8639 20.0232 54.7826 52.9742 48.0617 21.2488 18.2869 17.1212 8.57512 46.7019 14.2317
internal_count=704 521 328 193 183 267 258 234 112 95 90 45 228 73
is_linear=0
shrinkage=0.2


Tree=8
num_leaves=15
num_cat=0
split_feature=3 2 1 1 14 2 14 16 12 2 14 16 14 12
split_gain=7.34036 5.32711 4.87513 4.11458 5.48417 3.56803 3.17451 3.81124 5.84009 3.87273 3.865 2.98551 2.95813 2.87071
threshold=-0.052965702461440445 -131.65185989872421 0.49535545729581121 0.7154911076164957 55.500000000000007 314.58464898257279 57.500000000000007 6.5929685291165763 1.7592293083155479 97.76318324667993 179.50000000000003 7.4910749815195485 144.50000000000003 5.0742973915745333
decision_type=2 2 2 2 2 2 2 2 2 2 2 2 2 2
left_child=1 13 5 4 -4 -3 -2 9 11 -8 -11 -9 -10 -1
right_child=6 2 3 -5 -6 -7 7 8 12 10 -12 -13 -14 -15
leaf_value=-0.03506100158440164 -0.18601516574695495 -0.29439126467592336 -0.26775292271132745 0.065084701278109211 0.25162434372123804 0.12746002498994033 -0.18261834593660978 -0.14842947686367566 0.22391354098401914 0.17758015023821133 -0.25685193310296617 0.097894237360168196 -0.1684503839986648 0.18866878140520749
leaf_weight=32.473494082689285 7.5376982539892188 2.1940928325057025 0.88363359868526359 26.438489891588688 10.204471088945864 1.2640198022127149 10.088638052344324 6.6045005917549116 5.6752354279160491 2.8053525462746616 1.1569934934377668 2.8037115707993507 0.88899317383766163 2.4684259295463553
leaf_count=174 47 11 5 176 80 7 59 39 39 22 7 18 5 15
internal_value=0 0.0381183 0.0870332 0.107972 0.210234 -0.140195 -0.0699745 -0.0408413 0.0259932 -0.116815 0.0507272 -0.0750233 0.170776 -0.0192559
internal_weight=0 75.9266 40.9847 37.5266 11.0881 3.45811 37.5611 30.0234 15.9724 14.051 3.96235 9.40821 6.56423 34.9419
internal_count=704 468 279 261 85 18 236 189 101 88 29 57 44 189
is_linear=0
shrinkage=0.2


Tree=9
num_leaves=15
num_cat=0
split_feature=17 5 0 9 9 9 9 14 9 9 9 9 14 4
split_gain=17.3764 7.10088 4.78022 4.7708 4.43088 2.67445 2.5109 4.50987 2.2909 4.39663 6.44634 6.82873 4.54271 2.75113
threshold=2.5000000000000004 0.28695318342910631 1.6595939407467835 2.2246242160837886 2.2484815741034843 2.2239671972737605 2.2443732909104033 55.500000000000007 2.2381745234937633 2.2246481018213236 2.2246203136315259 2.224375295605848 75.500000000000014 0.11253425691012837
decision_type=2 2 2 2 2 2 2 2 2 2 2 2 2 2
left_child=1 3 -2 5 6 -1 7 -3 9 10 11 -9 -11 -10
right_child=2 4 -4 -5 -6 -7 -8 8 13 12 -12 -13 -14 -15
leaf_value=-0.065735208495376299 0.22269553920738416 -0.26041101383858084 -0.24751926729370261 -0.12583456617073613 -0.25965092220177349 0.11784550574123608 0.29443373440971204 0.081360927158199925 0.052293029773018085 -0.39377240415249631 0.23077708626501284 -0.25089819321797352 -0.034760025135331746 0.24894326443241646
leaf_weight=6.9898207113146764 14.95858313515782 2.0513444244861594 0.91786296665668565 33.598653465509415 2.0981964468955985 5.814944215118885 1.4740646481513966 8.0654538199305588 9.6713207066059095 1.7363161593675593 6.2873634770512572 3.5691951513290396 7.4967354238033295 4.0320149287581435
leaf_count=36 178 12 5 198 11 32 7 39 53 8 35 18 41 31
internal_value=0 -0.0309003 0.195511 -0.0862455 0.0243513 0.0176331 0.0377772 0.0289603 0.0434886 0.00984669 0.0676089 -0.0205672 -0.102274 0.110155
internal_weight=0 92.8854 15.8764 46.4034 46.482 12.8048 44.3838 42.9097 40.8584 27.1551 17.922 11.6346 9.23305 13.7033
internal_count=704 521 183 266 255 68 244 237 225 141 92 57 49 84
is_linear=0
shrinkage=0.2


Tree=10
num_leaves=15
num_cat=0
split_feature=2 3 12 1 14 14 3 14 1 0 8 0 0 9
split_gain=5.28636 3.58273 2.68974 2.61998 6.01887 4.78932 3.7686 2.40848 2.23821 2.15467 2.1742 2.0617 3.55112 3.3284
threshold=392.280726520575 -0.052965702461440445 5.0742973915745333 0.72982885902805772 137.00000000000003 55.500000000000007 -0.060653491482784795 58.500000000000007 1.5026689893182406 1.5195211199656902 1.1238044918620902 1.7339877832328154 1.6368086455140138 2.2246203136315259
decision_type=2 2 2 2 2 2 2 2 2 2 2 2 2 2
left_child=1 2 3 4 5 -1 11 -2 -9 -7 -11 12 -5 -13
right_child=7 -3 -4 6 -6 9 -8 8 -10 10 -12 13 -14 -15
leaf_value=-0.16844189383982008 -0.13480008356015905 -0.071765235732341434 0.17692643295978278 -0.020919891185290217 -0.22672555878435863 0.26824536061163157 0.27358363618605874 0.19058545474228183 -0.18976151258888188 0.1293756030971287 -0.18398142603035061 -0.13441793593486903 -0.17978473183813218 0.28519271876120178
leaf_weight=2.1853568702936235 1.2010427191853512 28.868892222642899 3.780887506902217 27.914087016135454 2.4793132580816737 4.280894346535205 1.6078590378165234 9.2378825545310939 0.66330850124359209 9.1115121655166114 0.9810490012168892 1.2662576884031289 7.0495851784944525 1.87695837020874
leaf_count=15 9 208 28 169 16 30 10 96 3 65 5 6 33 11
internal_value=0 -0.0134879 0.013416 0.00289376 0.0638935 0.107407 -0.0263478 0.132661 0.165105 0.149348 0.0989157 -0.0390029 -0.0529512 0.116151
internal_weight=0 91.4027 62.5338 58.7529 19.0381 16.5588 39.7147 11.1022 9.90119 14.3735 10.0926 38.1069 34.9637 3.14322
internal_count=704 596 388 360 131 115 229 108 99 100 70 219 202 17
is_linear=0
shrinkage=0.2


Tree=11
num_leaves=15
num_cat=0
split_feature=2 5 5 7 5 9 5 12 4 4 2 4 4 9
split_gain=3.7464 3.35264 3.16224 4.11611 4.51003 3.4476 3.0027 3.22473 4.26357 3.99181 4.28658 2.90592 2.83736 3.96286
threshold=405.11244972637968 0.2765542205286573 0.28695318342910631 0.82481371522838931 0.23498650580354233 2.2196987044337635 0.29243806698446267 1.7636502775414573 0.045462146692810602 0.14936477532727452 -423.43034410427515 0.04164674398303491 -0.099847617271508191 2.2417755335374472
decision_type=2 2 2 2 2 2 2 2 2 2 2 2 2 2
left_child=2 -2 3 -1 5 -5 -4 8 -8 10 -10 -3 -7 -14
right_child=1 11 6 4 -6 12 7 -9 9 -11 -12 -13 13 -15
leaf_value=-0.19391810946513779 0.1938768802374938 -0.20364632927224413 0.22769332571493439 0.17966910521535301 -0.097885657036457907 -0.19887847651495341 -0.1603437758308342 0.073510481010580983 -0.18381822122308222 -0.08864631341372653 0.22129691429492007 0.23117452926313264 -0.027877546677763418 0.21402947273914863
leaf_weight=6.4817520678043357 6.9948387704789621 1.9187811687588694 2.8512446582317343 5.1724695637822178 17.896391328424215 2.5990110263228443 7.5034034475684193 19.200993359088898 1.3102040290832526 5.8633977621793747 5.1566730253398392 0.90463215857744206 11.943045500665901 3.5033484548330298
leaf_count=43 86 11 16 54 114 23 41 123 6 30 32 8 82 35
internal_value=0 0.119625 -0.0105194 -0.0457897 -0.0224369 0.0357191 0.029559 0.0150865 -0.0414737 0.0308629 0.13922 -0.0643281 -0.00554215 0.0269886
internal_weight=0 9.81825 89.4819 47.596 41.1143 23.2179 41.8859 39.0347 19.8337 12.3303 6.46688 2.82341 18.0454 15.4464
internal_count=704 105 599 351 308 194 248 232 109 68 38 19 140 117
is_linear=0
shrinkage=0.2


Tree=12
num_leaves=15
num_cat=0
split_feature=14 10 11 11 9 7 6 13 3 9 3 6 3 10
split_gain=3.17952 2.95384 2.99416 2.2971 2.62028 4.80785 3.47369 3.28769 2.7957 2.97056 2.83823 2.80596 2.58253 4.15244
threshold=57.500000000000007 10.958392058005588 5.7739924954629522 -4.4724025100795801 2.2246331824186489 1.2144326659932909 0.12710589194089991 0.20115721348091462 -0.14022076478208167 2.2381745234937633 -0.10706805942191112 0.090519773537709264 -0.10213933766224169 10.311515468568535
decision_type=2 2 2 2 2 2 2 2 2 2 2 2 2 2
left_child=-1 2 3 -2 12 6 7 -6 -7 10 -10 -11 13 -5
right_child=1 -3 -4 4 5 8 -8 -9 9 11 -12 -13 -14 -15
leaf_value=-0.10722451193024816 0.18729783063599403 0.22218674817466089 -0.25821691796303342 -0.22442496826022809 -0.088833862032120625 0.31074067678492623 -0.4891781466176377 0.083635438693036288 0.088747796334902179 0.15082531215280204 -0.21574991848145855 -0.14153785533624813 0.11701987916175133 0.04327825114880629
leaf_weight=9.5528785809874517 2.9228780530393115 2.6525292471051207 1.6588025093078602 2.7561302259564462 24.96619491651655 1.6663207113742853 0.76731789112090965 5.3724211007356635 2.1180116161704063 7.9819657951593381 2.9023007526993743 1.5716445371508596 13.646643958985804 14.569579899311064
leaf_count=76 23 38 11 13 169 10 5 34 14 54 18 8 124 107
internal_value=0 0.0144304 0.00778286 0.0132141 0.00671722 -0.0228708 -0.0689217 -0.0582927 0.0653332 0.0372743 -0.0872859 0.102729 0.0519473 0.000692699
internal_weight=0 85.5527 82.9002 81.2414 78.3185 47.3462 31.1059 30.3386 16.2402 14.5739 5.02031 9.55361 30.9724 17.3257
internal_count=704 628 590 579 556 312 208 203 104 94 32 62 244 120
is_linear=0
shrinkage=0.2


Tree=13
num_leaves=15
num_cat=0
split_feature=15 2 10 3 15 2 15 12 2 2 2 14 7 14
split_gain=3.05377 3.38934 2.50012 2.24554 2.68768 2.92962 2.61205 2.39583 1.78097 3.2799 2.49906 2.31061 2.28507 1.76035
threshold=0.0073235544217687002 392.280726520575 10.311704354997159 0.12826363636363633 0.016821148703589153 -337.55328804731784 0.016894605064247854 5.069892813457952 -135.21600591274918 -117.6792409737204 -136.87296358530779 55.500000000000007 0.78376103676459163 49.000000000000007
decision_type=2 2 2 2 2 2 2 2 2 2 2 2 2 2
left_child=-1 3 -3 4 8 6 -6 -7 10 -10 13 -11 -13 -2
right_child=1 2 -4 -5 5 7 -8 -9 9 11 -12 12 -14 -15
leaf_value=-0.23702660556419583 0.18510581620789932 -0.14900416443245468 0.17229778019847 -0.26644468369907298 0.26281133931957978 0.17876665259174934 -0.098985930066707944 -0.08298413009907521 0.2212139216483669 -0.23067591368336543 -0.41655120464294726 -0.16278359699268938 0.025992088417535933 -0.055237877737464414
leaf_weight=2.0890794545412055 1.2734235748648703 1.1191205829381923 7.2077467143535614 1.2917411550879467 0.95228075981140392 8.6424066424369794 4.9331814795732498 1.6688484549522389 2.7708817198872522 1.7278214618563712 0.74198420345783134 2.8447943776845959 26.067819491028786 28.506368830800056
leaf_count=18 9 9 96 9 6 68 38 11 19 17 3 16 195 190
internal_value=0 0.00757966 0.129115 -0.0048496 -0.000632534 0.0721406 -0.0404463 0.136403 -0.0190688 0.0128358 -0.0539938 -0.00600826 0.00741791 -0.0449605
internal_weight=0 89.7484 8.32687 81.4216 80.1298 16.1967 5.88546 10.3113 63.9331 33.4113 30.5218 30.6404 28.9126 29.7798
internal_count=704 686 105 581 572 123 44 79 449 247 202 228 211 199
is_linear=0
shrinkage=0.2


Tree=14
num_leaves=15
num_cat=0
split_feature=17 1 0 14 0 8 14 0 0 17 15 2 1 13
split_gain=8.89738 4.38346 3.92092 2.34609 2.10449 2.66175 2.43403 3.69512 3.59537 3.46102 3.11207 2.56951 3.00951 2.482
threshold=2.5000000000000004 0.50622308244452474 1.4193416732680588 144.50000000000003 1.7500954258849772 0.9321092171000801 72.500000000000014 1.736268149262657 1.736268149262657 1.5000000000000002 0.020367332539076154 -427.05108918785953 1.2938652501969756 0.088800361508558912
decision_type=2 2 2 2 2 2 2 2 2 2 2 2 2 2
left_child=2 -2 3 -1 6 -6 8 9 13 10 11 -8 -13 -4
right_child=1 -3 4 -5 5 -7 7 -9 -10 -11 -12 12 -14 -15
leaf_value=-0.23571723821194121 -0.28085347128140903 0.21614718009770742 -0.1711024380666506 0.0021071594244535248 0.16447955143277487 -0.27054078410129168 -0.11601825029267912 -0.35178360971581241 0.34514707159627045 0.2425650116550748 0.27381408487845155 0.026928480728721935 -0.17395045332865061 0.027407220809318289
leaf_weight=5.0789171122014514 0.76822147518396278 9.3413528520613891 9.2235618866980023 2.4641692861914635 4.7863821089267722 0.63755010068416584 7.6468756794929424 1.1479640081524838 0.71147738397121507 2.4588931649923316 1.5993991792201985 36.596534587442882 3.2480013072490683 3.4661925248801717
leaf_count=35 5 178 66 20 35 4 51 7 3 20 9 228 19 24
internal_value=0 0.17838 -0.0208808 -0.158025 -0.00641707 0.113346 -0.0162445 0.00310953 -0.0923505 0.0110127 -0.000585473 -0.00982661 0.0105535 -0.11688
internal_weight=0 10.1096 79.0659 7.54309 71.5228 5.42393 66.0989 52.6977 13.4012 51.5497 49.0908 47.4914 39.8445 12.6898
internal_count=704 183 521 55 466 39 427 334 93 327 307 298 247 90
is_linear=0
shrinkage=0.2


Tree=15
num_leaves=15
num_cat=0
split_feature=17 9 5 4 7 11 5 4 4 10 4 5 11 5
split_gain=6.97761 3.20464 2.86206 2.92985 3.34305 2.52446 2.61228 2.50923 2.11458 2.39038 2.26294 2.89855 1.67552 1.5497
threshold=2.5000000000000004 2.2035815470842444 0.22118818534108334 0.11253425691012837 1.4329704502117864 1.7794768833459311 0.37393074428896328 -0.099847617271508191 -0.030852975594771747 10.311411949436458 -0.083273470231368232 0.24153296121932485 2.9613252970941466 0.28695318342910631
decision_type=2 2 2 2 2 2 2 2 2 2 2 2 2 2
left_child=2 -2 -1 4 8 6 13 -6 10 -10 12 -12 -4 -5
right_child=1 -3 3 5 7 -7 -8 -9 9 -11 11 -13 -14 -15
leaf_value=-0.16251309729248944 -0.2078953509976551 0.2129538650809556 -0.015692109087505922 0.020088353236765027 -0.26801015588263155 -0.16778687662446104 -0.23962087460967046 0.18404999083089416 0.16200514532262547 -0.097388773178783472 -0.17054861769482865 0.17864434869186871 -0.23640776045634293 0.1397023333795081
leaf_weight=5.0690847411751738 0.7985987886786442 7.7216717768460512 10.063061807304623 7.0233759284019568 0.55902595818042744 1.8497960418462742 0.99025282263755698 4.0445890277624121 1.5010190233588279 26.671128258109093 1.1970176957547618 4.6235101148486137 1.5936350151896466 11.30853236466646
leaf_count=39 5 178 72 41 3 11 8 24 8 175 11 31 15 83
internal_value=0 0.173508 -0.0172967 -0.00699053 -0.0332828 0.0554157 0.0767839 0.129155 -0.0496642 -0.0835682 0.00498683 0.106831 -0.0458671 0.0938755
internal_weight=0 8.52027 76.494 71.4249 50.253 21.172 19.3222 4.60361 45.6494 28.1721 17.4772 5.82053 11.6567 18.3319
internal_count=704 183 521 482 339 143 132 27 312 183 129 42 87 124
is_linear=0
shrinkage=0.2


Tree=16
num_leaves=15
num_cat=0
split_feature=5 3 10 5 1 1 6 5 10 13 16 10 5 6
split_gain=1.91458 1.82333 2.38495 2.13694 2.68698 1.88696 1.81873 2.41439 2.033 1.95514 1.73042 1.8292 2.3734 1.91236
threshold=0.21639104334470333 -0.022081558784187546 10.955440199644547 0.23294019083724701 1.0417916377072076 0.88271495328613303 -0.091726825951285382 0.36727593343123865 10.311385338696963 0.29721654359216038 7.5207645301283312 10.311702805379513 0.32023489737733896 -0.040125333577991897
decision_type=2 2 2 2 2 2 2 2 2 2 2 2 2 2
left_child=-1 3 5 4 -2 -3 8 10 -5 -10 11 13 -13 -8
right_child=1 2 -4 6 -6 -7 7 -9 9 -11 -12 12 -14 -15
leaf_value=-0.1683559804597865 0.13831305088812904 -0.020343000198374733 0.22875211828031827 0.19601835236721885 -0.11460925614272006 -0.16469783978459043 0.12305348294344652 -0.20765337936709322 -0.090734110961939465 0.27260718011210061 0.17316526058563592 0.024295279329332682 0.23805351924202448 -0.22482477602487802
leaf_weight=2.5612246282398692 10.414700649678705 10.4675016514957 1.1429207753390063 1.2067685425281514 2.0033484902232876 5.5386351738125077 0.89969307184219394 1.6262939944863308 13.319323321804401 0.61996579170227128 3.5834406092762938 23.806689165532593 2.2763768620789042 2.1250542923808124
leaf_count=27 120 91 15 8 31 51 6 10 112 5 28 168 19 13
internal_value=0 0.00734255 -0.0503641 0.0233346 0.0975102 -0.0702944 0.00471248 0.0301903 -0.0530145 -0.0745741 0.0420223 0.0258774 0.0429508 -0.12135
internal_weight=0 79.0307 17.1491 61.8817 12.418 16.0061 49.4636 34.3175 15.1461 13.9393 32.6913 29.1078 26.0831 3.02475
internal_count=704 677 157 520 151 142 369 244 125 117 234 206 187 19
is_linear=0
shrinkage=0.2


Tree=17
num_leaves=15
num_cat=0
split_feature=11 0 9 7 10 9 9 0 0 2 5 2 11 0
split_gain=1.92469 1.97848 2.10019 3.14975 3.91415 2.7133 3.03668 2.65456 2.58014 3.27332 2.80544 2.55317 2.63225 2.53457
threshold=-4.4724025100795801 1.4193416732680588 2.2246481018213236 0.97060831482317278 10.333136508214318 2.2377367942390207 2.2278231930398258 1.7097653311245382 1.4532594522972198 -298.61487286722553 0.30086077717537124 31.014706748253257 1.3857778326104446 1.5550647156866413
decision_type=2 2 2 2 2 2 2 2 2 2 2 2 2 2
left_child=-1 -2 8 4 -4 6 13 11 -3 10 -10 -6 -13 -5
right_child=1 2 3 5 7 -7 -8 -9 9 -11 -12 12 -14 -15
leaf_value=0.173717946503951 -0.10393850518865105 0.23798891618530971 -0.26143820535060258 0.26930296144277849 -0.14833029827234029 0.06792618869911464 -0.12716421943349074 0.24681974336399712 -0.21298023887236087 0.066540929538843371 0.077468846911109057 0.31643928268158028 -0.086726771421245796 -0.073029421820717449
leaf_weight=2.5169011298567048 7.1865878459066144 2.5977783631533411 4.2215805500745764 1.7220211960375329 5.4753445573151094 16.439064869657159 7.9424601588398218 1.2116939276456822 3.5790286585688653 20.299705032259222 2.1170492433011532 1.1612437646836045 1.464948423206806 1.738475516438484
leaf_count=23 76 29 30 16 53 135 64 9 22 197 14 7 16 13
internal_value=0 -0.00400669 0.00625721 -0.0225471 -0.10169 0.0159267 -0.0590383 -0.0292784 0.047939 0.0289472 -0.10503 -0.0705726 0.0915443 0.0973229
internal_weight=0 77.157 69.9704 41.3768 13.5348 27.842 11.403 9.31323 28.5936 25.9958 5.69608 8.10154 2.62619 3.4605
internal_count=704 681 605 343 115 228 93 85 262 233 36 76 23 29
is_linear=0
shrinkage=0.2


Tree=18
num_leaves=15
num_cat=0
split_feature=17 1 0 1 14 0 0 15 6 13 0 0 11 1
split_gain=5.19873 2.93007 1.8176 1.9373 1.54705 2.52701 1.62558 1.42771 1.35455 1.28542 1.27326 2.83438 2.3609 2.05637
threshold=2.5000000000000004 0.50622308244452474 1.4100867238257675 1.7998678414211779 57.500000000000007 1.7097653311245382 1.7641657350668287 0.020964946374172504 -0.19559421017597267 0.29721654359216038 1.4520088420781956 1.4398738055625266 2.5428592471257967 1.0185823418964122
decision_type=2 2 2 2 2 2 2 2 2 2 2 2 2 2
left_child=2 -2 3 -1 5 -4 7 9 -7 10 11 12 13 -6
right_child=1 -3 4 -5 6 8 -8 -9 -10 -11 -12 -13 -14 -15
leaf_value=-0.16646849435311925 -0.2281405472509459 0.21140157141935451 -0.18796033518765487 0.23657310580332547 0.24296962182175452 -0.10295918184311043 0.14994442732896249 0.25558481792212134 0.25412960488078529 0.24296217231218456 -0.023391706990211203 0.23674287004997982 -0.25041493802168541 -0.060021634543138205
leaf_weight=4.8366550281643859 0.67305944114923377 6.148165762424469 4.1549968570470801 0.5292423628270625 1.4803925901651376 0.74889948219060898 2.9083217829465857 0.83867843449115653 0.9821985177695749 0.80871206894516845 46.844975270330906 2.55043625831604 1.3315924853086469 2.2696700654923916
leaf_count=43 5 178 47 5 9 5 27 6 6 10 320 16 11 16
internal_value=0 0.168031 -0.0148463 -0.126716 -0.00559967 -0.103375 0.0041494 -0.00340557 0.0996475 -0.00733443 -0.0110501 0.0647015 -0.0216444 0.0595886
internal_weight=0 6.82123 70.2848 5.3659 64.9189 5.88609 59.0328 56.1245 1.7311 55.2858 54.4771 7.63209 5.08166 3.75006
internal_count=704 183 521 48 473 58 415 388 11 382 372 52 36 25
is_linear=0
shrinkage=0.2


Tree=19
num_leaves=15
num_cat=0
split_feature=17 0 3 5 2 16 2 0 5 5 2 5 0 5
split_gain=4.10371 2.47747 1.74235 2.2002 1.98664 2.66664 1.61023 2.14629 2.35447 2.29681 2.65249 2.1292 1.97972 2.43253
threshold=2.5000000000000004 1.6595939407467835 -0.052965702461440445 0.29967062463058819 97.76318324667993 7.5207645301283312 337.13731449343226 1.4193416732680588 0.22118818534108334 0.23302582553098491 64.860631729951834 0.30606390395929817 1.5997616682765912 0.291283398877697
decision_type=2 2 2 2 2 2 2 2 2 2 2 2 2 2
left_child=2 -2 6 4 5 -4 7 -1 -9 -10 -11 -8 13 -12
right_child=1 -3 3 -5 -6 -7 11 8 9 10 12 -13 -14 -15
leaf_value=-0.18953998179112075 0.20950247736887487 -0.2138009035446502 -0.17763078651407044 0.059178397205779144 0.0038488947357853474 0.16909831416368074 0.21321253338151358 -0.20362408588878461 0.14405101925173167 0.023074325633479761 -0.21572143999992421 -0.24289336064648742 -0.2632708380785253 0.19287365009027321
leaf_weight=2.2946070488542309 5.1192336920648804 0.62003413587808598 9.6981371864676476 4.7227486446499816 5.3035798110067836 0.97658951207995492 2.7444829009473319 1.983734007924794 5.1673352718353263 30.258814224973321 1.1333898305892938 0.4811757206916808 2.4405175652354956 1.1997658163309095
leaf_count=17 178 5 95 42 39 9 20 15 33 213 10 4 15 9
internal_value=0 0.163771 -0.0122984 -0.060753 -0.0962014 -0.14591 0.00872842 -0.00116697 0.00907973 0.019576 0.00121577 0.145175 -0.137339 -0.00561183
internal_weight=0 5.73927 68.4049 20.7011 15.9783 10.6747 47.7038 44.4782 42.1836 40.1998 35.0325 3.22566 4.77367 2.33316
internal_count=704 183 521 185 143 104 336 312 295 280 247 24 34 19
is_linear=0
shrinkage=0.2


Tree=20
num_leaves=15
num_cat=0
split_feature=15 15 15 15 16 10 10 4 10 4 10 3 1 3
split_gain=1.47279 1.31237 1.17813 1.81083 2.45254 1.77451 2.6574 2.32459 2.38763 2.65138 2.26857 2.10405 2.43654 2.07873
threshold=0.0073235544217687002 0.0076157580240768007 0.014662916448630652 0.013279394098909351 7.4073027980851966 10.946434080305723 10.311890333844934 0.11253425691012837 10.311890140761085 0.10325797698620272 10.311887174611583 -0.15281224947891611 0.83346208082000151 -0.12167596859752049
decision_type=2 2 2 2 2 2 2 2 2 2 2 2 2 2
left_child=-1 -2 3 5 -5 6 7 8 9 10 -3 -8 -13 -9
right_child=1 2 -4 4 -6 -7 11 13 -10 -11 -12 12 -14 -15
leaf_value=-0.21923284655563013 0.27583809733796655 -0.067953951144022695 0.035360446023313848 -0.17689079459955409 0.018967173672498786 -0.08056732462809417 -0.27413572859272217 -0.11325149845005877 -0.38423781704096449 -0.39626042067532952 0.20736304930442048 0.19016695510852538 0.01166446619942493 0.25139836974803947
leaf_weight=1.1929314173758019 0.70776406675577064 6.1084635779261589 26.403279994614422 5.8339944155886752 4.5533861182630062 7.4901726385578504 0.59507942572235606 0.95937564224004779 0.95504160225391466 0.80243969708681095 1.4889493510127065 6.884722141548993 5.504135575145483 1.7959136199206103
leaf_count=18 4 48 301 70 31 78 4 6 4 4 8 68 43 17
internal_value=0 0.00487507 0.00211071 -0.0183191 -0.091035 0.00486165 0.0303608 -0.03703 -0.0845845 -0.0505147 -0.013997 0.0932165 0.110862 0.124429
internal_weight=0 70.0827 69.375 42.9717 10.3874 32.5843 25.0941 12.1102 9.35489 8.39985 7.59741 12.9839 12.3889 2.75529
internal_count=704 686 682 381 101 280 202 87 64 60 56 115 111 23
is_linear=0
shrinkage=0.2


Tree=21
num_leaves=15
num_cat=0
split_feature=9 10 3 10 9 3 9 4 13 14 3 15 3 14
split_gain=1.30636 1.50918 1.21921 1.21747 2.35622 2.07372 1.79112 1.69098 1.61437 1.44518 1.27183 1.20919 1.19948 1.69708
threshold=2.2592320313961101 10.311230653543513 0.12826363636363633 10.311515468568535 2.2246203136315259 -0.20552312901744713 2.2443732909104033 0.023738168442916204 0.076956469354432414 55.500000000000007 -0.10449160587082608 0.015349123980076351 -0.18458639457325568 79.500000000000014
decision_type=2 2 2 2 2 2 2 2 2 2 2 2 2 2
left_child=1 -1 3 4 10 7 9 8 -5 -7 -3 -9 -11 -14
right_child=-2 2 -4 5 -6 6 -8 11 -10 12 -12 -13 13 -15
leaf_value=0.22908546173109687 -0.19842426308569264 -0.33604130649150932 -0.23401265904519977 -0.1915223843237559 0.045544207715105624 -0.16666169269876036 0.16879939145579415 0.019268856406749708 0.23227307407629333 -0.13848201691802084 -0.041864595692374544 0.2797953521659356 0.086182706194201389 -0.010895070056558218
leaf_weight=1.1792120933532704 1.2892649415880431 1.589571997523308 0.87263738177716632 1.0075952569022693 2.5437362156808376 2.1764453724026742 2.4220843203365794 0.97998361103236709 0.55901728197932232 2.3948646523058335 0.93283914029598136 2.6118189319968224 8.7730236472562009 40.254481252282858
leaf_count=8 14 7 10 11 20 33 50 9 7 19 5 20 90 401
internal_value=0 0.00478897 0.000848254 0.00394203 -0.0902781 0.0117442 0.000570825 0.133088 -0.0402987 -0.00703128 -0.227249 0.208714 -0.000274942 0.00647611
internal_weight=0 68.2973 67.1181 66.2455 5.06615 61.1793 56.0209 5.15842 1.56661 53.5988 2.52241 3.5918 51.4224 49.0275
internal_count=704 690 682 672 32 640 593 47 18 543 12 29 510 491
is_linear=0
shrinkage=0.2


Tree=22
num_leaves=15
num_cat=0
split_feature=11 2 3 1 5 5 2 1 11 11 14 11 11 1
split_gain=1.31803 1.28259 1.85168 1.61426 2.72441 2.8054 1.74331 1.89773 1.64068 3.12183 1.62731 1.55768 1.48266 1.44725
threshold=-4.4724025100795801 -337.55328804731784 -0.14391683943073177 0.93323078169159879 0.3026472451117756 0.28695318342910631 251.26547008487879 1.5026689893182406 -1.5191012012294294 -2.1309429760838934 144.50000000000003 1.4729282537909734 -4.4287439142063496 0.98344862379365594
decision_type=2 2 2 2 2 2 2 2 2 2 2 2 2 2
left_child=-1 2 11 12 5 6 13 -8 9 -6 -7 -2 -3 -5
right_child=1 3 -4 4 8 10 7 -9 -10 -11 -12 -13 -14 -15
leaf_value=0.15587857575177988 0.26862439960672924 -0.24317053330876034 -0.11217265374658091 0.16188637986023532 -0.26448545875740409 0.19279558754260151 0.18637749307786136 -0.29243947514932866 -0.30269271410388721 0.24534589875756702 -0.11468595951195618 -0.022163442275545703 0.03889877903389579 -0.14860876227444209
leaf_weight=2.1262450059875837 1.005994385108351 0.76123900711536308 8.7540582679212076 0.67136599496007132 1.1454045400023458 3.5548043418675652 1.709077272564173 0.41065202653408039 2.1686442457139483 0.82748439908027638 0.85385350137948979 2.7543132249265909 35.829116187058389 5.6865704888477921
leaf_count=23 8 4 95 9 7 22 29 2 12 6 6 23 384 74
internal_value=0 -0.00409866 -0.0617511 0.00935729 -0.041513 0.00383966 -0.0634546 0.093617 -0.182627 -0.050648 0.133244 0.055631 0.0330305 -0.115822
internal_weight=0 66.1326 12.5144 53.6182 17.0279 12.8863 8.47767 2.11973 4.14153 1.97289 4.40866 3.76031 36.5904 6.35794
internal_count=704 681 126 555 167 142 114 31 25 13 28 31 388 83
is_linear=0
shrinkage=0.2


Tree=23
num_leaves=15
num_cat=0
split_feature=17 9 9 5 14 11 5 8 11 11 8 12 13 14
split_gain=3.2176 1.77353 1.30891 1.56295 1.62444 1.5803 1.892 1.67471 1.4845 1.97229 1.52254 2.33001 1.94239 1.38977
threshold=2.5000000000000004 2.19180110091509 2.2484815741034843 0.29770092220503114 61.000000000000007 1.8840393518518523 0.30101253731256955 0.98856085662938542 -4.4724025100795801 -4.1156297005489249 0.61411437231968014 1.7725024016183843 0.064136810108073261 87.500000000000014
decision_type=2 2 2 2 2 2 2 2 2 2 2 2 2 2
left_child=2 -2 3 4 -1 6 -5 -7 -6 -10 13 12 -12 -11
right_child=1 -3 -4 5 8 7 -8 -9 9 10 11 -13 -14 -15
leaf_value=-0.2145318142387582 -0.31855694763755582 0.19298864925122597 -0.19834544418153935 0.19665404622767965 0.23322259253515698 -0.17469618214911922 0.027650299327148048 0.14576131253168631 -0.21285446565807395 0.30820028452908621 -0.038591279400973247 -0.1925581945371404 0.12759815721268869 0.03430843898488764
leaf_weight=1.878731595352291 0.28907358646392722 4.3601692845113575 1.4618005286902178 3.1063048653304639 0.87782420963048835 2.5751340240240093 18.023424068465829 0.8736136108636855 2.2087525874376253 0.89372164756060257 18.876227892935283 3.359270676970481 3.305797826498746 4.3377702236175537
leaf_count=39 2 181 15 21 10 20 151 6 12 5 154 28 23 37
internal_value=0 0.161183 -0.0113461 -0.00681405 -0.0335131 0.0320074 0.0524957 -0.09352 -0.023469 -0.030301 -0.017198 -0.0373317 -0.013824 0.0810987
internal_weight=0 4.64924 61.7784 60.3166 35.7381 24.5785 21.1297 3.44875 33.8594 32.9815 30.7728 25.5413 22.182 5.23149
internal_count=704 183 521 506 308 198 172 26 269 259 247 205 177 42
is_linear=0
shrinkage=0.2


Tree=24
num_leaves=15
num_cat=0
split_feature=17 0 2 10 0 13 10 2 15 1 15 0 10 15
split_gain=2.52892 3.23706 1.78998 2.1256 1.29475 1.69357 1.50681 1.47567 1.7924 2.15417 1.56002 1.47525 1.83087 1.44941
threshold=1.5000000000000002 1.6279701533684721 95.847783825336748 10.311705070349133 1.7135014782401623 0.058773857617631355 10.311411949436458 -155.92326426209493 0.013184277334122 0.72712580589437381 0.017589952170799655 1.6236443494089141 10.94618764051277 0.011764824977610052
decision_type=2 2 2 2 2 2 2 2 2 2 2 2 2 2
left_child=4 -2 3 -3 5 6 -1 10 11 -10 -8 12 -9 -6
right_child=1 2 -4 -5 13 -7 7 8 9 -11 -12 -13 -14 -15
leaf_value=0.15675664403068629 0.21401808513285805 0.22860751317911046 -0.28711940834407279 -0.13293170968977897 -0.13572106308602699 0.0074967055447794978 -0.18821800661890489 0.13145275902048989 0.070836550448316368 -0.21075141246426732 0.007801578417901839 -0.27219749751799571 -0.11074757681630108 0.10316415276395496
leaf_weight=1.134682916104796 4.65131375659257 1.2637557387351996 0.88213083893060673 1.3404022380709646 1.2173843830823887 26.586080174893141 6.7876337468624151 4.4068615753203595 1.5765214581042526 3.4976666197180748 2.1347866244614124 0.57485252618789662 1.7419218029826877 6.1399894617497921
leaf_count=8 192 13 5 10 10 232 61 33 15 29 17 3 25 51
internal_value=0 0.104811 -0.0408901 0.0425174 -0.0145358 -0.026409 -0.0676546 -0.0799438 -0.0335279 -0.123264 -0.141318 0.0341939 0.0628385 0.0636371
internal_weight=0 8.1376 3.48629 2.60416 55.7984 48.441 21.8549 20.7202 11.7978 5.07419 8.92242 6.72364 6.14878 7.35737
internal_count=704 220 28 23 484 423 191 183 105 44 78 61 58 61
is_linear=0
shrinkage=0.2


Tree=25
num_leaves=15
num_cat=0
split_feature=3 5 7 6 12 7 4 13 0 0 6 7 6 6
split_gain=0.860397 0.807734 0.731164 0.902267 1.06691 0.773624 0.975774 1.82341 1.82309 1.64934 1.83137 1.59406 1.7596 1.34766
threshold=0.12826363636363633 0.21374157963543247 1.4686726752129653 -0.15493972171753403 5.072284968376704 1.4531178538270686 0.12466478567762497 0.19506480548462304 1.7055093438098534 1.6595939407467835 -0.018782900916190493 1.0723330893796301 -0.057112906023082242 -0.16102471695024817
decision_type=2 2 2 2 2 2 2 2 2 2 2 2 2 2
left_child=1 -1 5 4 -4 6 8 9 -3 -8 13 -10 -13 -11
right_child=-2 2 3 -5 -6 -7 7 -9 11 10 -12 12 -14 -15
leaf_value=-0.2150686197371926 -0.22407230104765788 -0.030886349600396365 0.11658057454289783 0.14626770289491156 -0.26745383225055058 -0.24066446053187646 0.072140187087158941 0.17916583575406539 0.18614218440433583 -0.14207519410662792 -0.29035753040147744 -0.16626922033866048 0.19040973809338574 0.10480945565758715
leaf_weight=0.67146063223481078 0.67442111112177272 35.196558413561434 0.62255414854735114 2.9303444311954072 0.54067595303058624 0.53119011223316093 6.8180763181298953 3.2112105311825863 3.1437445841729632 1.6292694583535192 1.2387421876192091 1.4643678609281781 0.88918712735176075 1.93450078740716
leaf_count=11 11 457 7 37 3 3 60 39 28 11 6 9 7 15
internal_value=0 0.00307541 0.00551056 0.0871089 -0.0619208 -0.00044819 0.00184986 0.0457661 -0.0141564 0.00890268 -0.0808749 0.0929573 -0.0315138 -0.00806023
internal_weight=0 60.8219 60.1504 4.09357 1.16323 56.0568 55.5257 14.8318 40.6939 11.6206 4.80251 5.4973 2.35355 3.56377
internal_count=704 693 682 47 10 635 632 131 501 92 32 44 16 26
is_linear=0
shrinkage=0.2


Tree=26
num_leaves=15
num_cat=0
split_feature=17 1 14 15 8 13 8 8 5 8 12 15 15 14
split_gain=2.19639 1.29032 0.957429 1.03787 1.02547 1.19428 1.97846 0.823755 1.09521 0.94498 0.939826 0.82117 1.87371 2.08882
threshold=2.5000000000000004 0.50622308244452474 57.500000000000007 0.020964946374172504 1.0604623718300386 0.20658676634177883 1.0930595736596767 0.53054669503001251 0.26163404940014684 0.53696946219726727 5.0703724692921979 0.014738073671497551 0.013279394098909351 191.00000000000003
decision_type=2 2 2 2 2 2 2 2 2 2 2 2 2 2
left_child=2 -2 4 7 -1 6 -6 8 10 -9 -4 12 13 -11
right_child=1 -3 3 -5 5 -7 -8 9 -10 11 -12 -13 -14 -15
leaf_value=-0.17908046406968881 -0.15080234102135082 0.20666914331124861 0.13709752294065808 0.24317890379527568 0.32155889726392006 0.3165024441081532 -0.21979950950189642 -0.18460183805954256 0.1400107741315183 0.017297977977391587 -0.26880200051265196 0.030079441774360421 -0.11699217653239431 -0.21095856410471972
leaf_weight=2.5878942860290399 0.46888899058103506 2.9140716479159892 0.38154631108045478 0.68567787855863471 0.37143635004758813 0.41243113577365864 0.98912649974226952 1.2340477630496014 3.0868428349494934 21.96760067157448 0.567645363509655 15.611257813870905 7.0219363011419764 1.7299538105726231
leaf_count=48 5 178 5 6 2 2 17 11 38 174 5 132 58 23
internal_value=0 0.157122 -0.00877203 -0.00126297 -0.0988048 0.018367 -0.0720076 -0.00451114 0.0822382 -0.0118721 -0.105643 -0.00727135 -0.0262526 0.000634939
internal_weight=0 3.38296 56.6474 52.2865 4.36089 1.77299 1.36056 51.6008 4.03603 47.5648 0.949192 46.3307 30.7195 23.6976
internal_count=704 183 521 452 69 21 19 446 48 398 10 387 255 197
is_linear=0
shrinkage=0.2


Tree=27
num_leaves=15
num_cat=0
split_feature=5 5 4 5 1 4 9 1 1 8 4 5 8 1
split_gain=0.816751 1.0115 0.916647 0.901019 0.907418 0.891544 0.848896 0.789869 3.94704 2.12279 1.64053 1.38995 1.3861 1.35491
threshold=0.36727593343123865 0.38885354011665213 -0.26380691632426306 0.32155450868864954 0.29858371070356987 0.045462146692810602 2.2350992208792468 0.83346208082000151 0.83570332715952056 0.80765355923707649 0.050777699547832601 0.26163404940014684 0.68282791758034456 0.80824790508324929
decision_type=2 2 2 2 2 2 2 2 2 2 2 2 2 2
left_child=2 -2 -1 7 -5 -3 -6 9 -9 10 -4 12 -12 -13
right_child=1 5 3 4 6 -7 -8 8 -10 -11 11 13 -14 -15
leaf_value=-0.15026036714488808 -0.27256029513310748 -0.15510968615427798 0.22490936589602861 -0.11992119658824073 -0.051207016488278502 0.21225250975698595 0.20932356117560788 -0.64390423867818247 -0.010898455370887261 -0.025033809411951925 -0.15266300387112897 0.20161320409545863 0.085497007935256567 -0.11719908461592837
leaf_weight=1.4803612809628237 0.96411158889532034 0.58785496465861775 2.9058148865588027 0.58687989413738195 0.63977684453129802 0.48002935200929642 2.2940494995564222 0.39967230521142738 27.849879572167993 12.523008469026534 1.9644436324015262 2.7710013245232408 1.9456547964364288 0.66026608645915974
leaf_count=20 6 7 38 6 8 10 27 3 324 172 16 35 27 5
internal_value=0 -0.124052 0.00502548 0.00924031 0.107097 0.0100249 0.15251 0.00248752 -0.0198542 0.0302055 0.097713 0.0473669 -0.0341552 0.140265
internal_weight=0 2.032 56.0208 54.5404 3.52071 1.06788 2.93383 51.0197 28.2496 22.7702 10.2472 7.34137 3.9101 3.43127
internal_count=704 23 681 661 41 17 35 620 327 293 121 83 43 40
is_linear=0
shrinkage=0.2


Tree=28
num_leaves=15
num_cat=0
split_feature=17 9 11 2 10 10 9 9 14 9 9 10 17 9
split_gain=1.74387 0.963468 0.830609 0.850667 1.40441 1.01181 0.95588 0.889056 1.51799 0.81677 1.52188 1.64919 1.50868 1.18274
threshold=2.5000000000000004 2.2035815470842444 5.7739924954629522 392.280726520575 10.311704354997159 10.311230653543513 2.2471055752511742 2.2443732909104033 55.500000000000007 2.223861629233356 2.2244910958042694 10.311411949436458 1.5000000000000002 2.2234884227476956
decision_type=2 2 2 2 2 2 2 2 2 2 2 2 2 2
left_child=2 -2 3 5 -5 -1 7 8 -7 13 12 -12 -11 -10
right_child=1 -3 -4 4 -6 6 -8 -9 9 10 11 -13 -14 -15
leaf_value=0.20104815116649455 -0.10634560325433831 0.205324428563641 -0.21591284854439852 -0.17394761504311751 0.16092965772637968 -0.21376459923807289 -0.18571235254605406 0.19599994719237901 -0.025907254478262989 0.24308102372212723 0.25632182227931233 -0.013838886427300655 -0.068505042936222851 -0.21777695511979314
leaf_weight=0.88574627041816612 0.47642675973474924 2.3720537330955267 0.75328907743096252 0.62218166515231077 2.5705801732838154 1.4693930521607388 1.2724788151681412 0.82297281734645267 6.0371145792305461 1.9679072573781007 0.92845550552010436 34.072760083712637 0.90857012569904316 1.6326241940259931
leaf_count=8 5 178 14 8 24 35 16 8 46 16 7 323 7 9
internal_value=0 0.153196 -0.00737074 -0.00441736 0.0956713 -0.0108088 -0.0146297 -0.0100791 -0.0136862 -0.00723157 0.00482008 -0.0066725 0.144663 -0.0667497
internal_weight=0 2.84848 53.9441 53.1908 3.19276 49.998 49.1123 47.8398 47.0168 45.5474 37.8777 35.0012 2.87648 7.66974
internal_count=704 183 521 507 32 475 467 451 443 408 353 330 23 55
is_linear=0
shrinkage=0.2


Tree=29
num_leaves=15
num_cat=0
split_feature=17 0 0 4 4 4 2 1 1 2 12 4 1 0
split_gain=1.51577 2.20875 1.09332 0.925129 0.905434 1.09255 1.28212 0.868962 2.89245 1.6221 1.12101 2.08054 1.87927 1.65612
threshold=1.5000000000000002 1.6595939407467835 1.3992875780591623 0.28361894848780161 0.20765063855362198 0.078330361398926962 1.0000000180025095e-35 0.83346208082000151 0.83915236101548973 -646.16906068971628 5.0722686147166858 0.060054026829189401 1.0417916377072076 1.6149797761476714
decision_type=2 2 2 2 2 2 2 2 2 2 2 2 2 2
left_child=2 -2 -1 7 5 6 -3 9 -9 -4 11 -10 13 -12
right_child=1 4 3 -5 -6 -7 -8 8 10 -11 12 -13 -14 -15
leaf_value=-0.16132521964812718 0.19859948708785469 0.11236234081048198 -0.22430288175730184 0.19986233758319935 -0.26913228466032257 0.22741829962633697 -0.28534331840712868 -0.40636312631183896 -0.15382169039780569 0.032306336946527868 0.22873598631444164 0.0021271903092135716 -0.033129822087686563 -0.14732194021883183
leaf_weight=1.858401990495621 3.4902546114753923 0.64068652316927932 1.0342472009360779 0.86614590883254905 0.56860706210136402 0.6584482043981551 0.65645758435130119 0.80986624956131237 5.4588215453550246 20.84504704549909 2.5376213695853935 9.1707721063867194 5.8354183100163937 0.5744686722755431
leaf_count=31 197 9 17 12 3 7 4 5 66 213 21 71 44 4
internal_value=0 0.095528 -0.0108601 -0.00492734 -0.0469908 0.017599 -0.0889082 -0.00876119 -0.034723 0.0201763 -0.0219573 -0.0560629 0.0338069 0.159318
internal_weight=0 6.01445 48.9908 47.1324 2.5242 1.95559 1.29714 46.2663 24.387 21.8793 23.5771 14.6296 8.94751 3.11209
internal_count=704 220 484 453 23 20 13 441 211 230 206 137 69 25
is_linear=0
shrinkage=0.2


Tree=30
num_leaves=15
num_cat=0
split_feature=3 9 5 6 7 9 9 15 15 5 5 5 9 12
split_gain=0.754592 1.17579 0.951503 0.909716 1.28794 0.912805 1.20445 1.09953 1.44505 1.42312 1.41666 1.13851 1.13626 1.19406
threshold=-0.021012623385136597 2.2443732909104033 0.36727593343123865 -0.12149214795182404 0.79107264126905941 2.2206423212371829 2.2209310750077749 0.014308239398819053 0.015372815792983802 0.28341307837504226 0.24552015828814586 0.24153296121932485 2.2287502713698424 1.7632709067583354
decision_type=2 2 2 2 2 2 2 2 2 2 2 2 2 2
left_child=2 -2 3 -1 -5 -6 -7 9 -9 10 11 -8 13 -10
right_child=1 -3 -4 4 5 6 7 8 12 -11 -12 -13 -14 -15
leaf_value=-0.031843468236663355 -0.071231683950260374 0.17842667576357371 -0.15686299729003464 -0.10937154765387813 0.18031767446706165 -0.29440035736110842 -0.051131670391483433 0.25470735861073929 0.055249025719133163 0.055837321494353734 -0.21021871327912123 0.19848734228835546 -0.074498374719489377 0.3207343785646844
leaf_weight=11.155064420541743 8.831437013112005 0.82506034639664072 1.2961103599518526 2.2951608197763624 1.899142386624592 0.43205560743809002 3.6447472607251319 1.9555543435271818 2.8777658417820935 12.38002830184996 1.8097980450838802 0.91419214382767666 1.8260034890845416 0.88636962324380864
leaf_count=152 142 19 14 27 71 2 49 23 27 115 18 7 30 8
internal_value=0 -0.0499006 0.011919 0.0171181 0.0347816 0.0463396 0.0368194 0.0422618 0.106729 0.0163162 -0.060508 -0.00107623 0.0549626 0.117765
internal_weight=0 9.6565 43.372 42.0759 30.9208 28.6257 26.7265 26.2945 7.54569 18.7488 6.36874 4.55894 5.59014 3.76414
internal_count=704 161 543 529 377 350 279 277 88 189 74 56 65 35
is_linear=0
shrinkage=0.2


Tree=31
num_leaves=15
num_cat=0
split_feature=5 10 10 9 4 14 10 4 4 10 6 12 6 6
split_gain=0.605941 0.523429 0.768706 1.09115 1.25609 1.68766 0.764562 2.35568 1.12731 1.05811 1.34294 1.33145 1.12182 1.05789
threshold=0.21477573398494298 10.311230653543513 10.311515468568535 2.2246175895342852 0.093242337164271258 80.500000000000014 10.311704959639806 0.040331695711046812 -0.026782811790377947 10.31188608199554 0.056649898019927356 6.8391660354320356 0.13592062593069848 0.012454517847638751
decision_type=2 2 2 2 2 2 2 2 2 2 2 2 2 2
left_child=-1 -2 3 -3 5 -5 7 8 -4 10 -8 12 -11 -9
right_child=1 2 6 4 -6 -7 9 13 -10 11 -12 -13 -14 -15
leaf_value=-0.20922934471199356 0.1549661381754599 -0.26400339489112939 0.10910300382293055 -0.2063698610258102 -0.15009863593379488 0.24710856135987763 -0.17811525713503229 0.18251255856148585 -0.19536895680627694 0.0036848874459585929 0.10295848963854862 0.21427660210710064 -0.27701021637113277 0.0036450897594754623
leaf_weight=0.54431852046400209 0.88976861350238223 1.0039008185267437 0.68302188813686404 0.47799687087535891 1.5612400881946085 1.0479947458952663 2.7080302163958545 4.2445360813289881 1.6898549124598483 32.23685091570951 0.90791077492758621 1.1877539381384838 0.57976689655333657 1.9213208798319099
leaf_count=15 10 6 9 7 11 9 24 41 14 499 12 18 9 20
internal_value=0 0.00290821 0.00021575 -0.0828741 -0.0239748 0.105062 0.0075801 0.0616086 -0.107728 -0.00468281 -0.107542 0.00625495 -0.00127412 0.126776
internal_weight=0 51.1399 50.2502 4.09113 3.08723 1.52599 46.159 8.53873 2.37288 37.6203 3.61594 34.0044 32.8166 6.16586
internal_count=704 689 679 33 27 16 646 84 23 562 36 526 508 61
is_linear=0
shrinkage=0.2


Tree=32
num_leaves=15
num_cat=0
split_feature=17 0 0 5 6 11 16 6 0 8 3 6 11 3
split_gain=1.24003 1.67279 0.773456 0.98483 0.752167 0.590205 0.588089 1.24249 1.39297 1.08118 1.27429 0.952483 1.31776 1.24554
threshold=1.5000000000000002 1.6595939407467835 1.3992875780591623 0.21639104334470333 0.12212684806683527 2.9313829322349796 1.0000000180025095e-35 -0.18968038056896347 1.5315503982393237 1.0727356974694808 0.023374232046382452 -0.16102471695024817 1.8955671296296299 -0.094719138473175826
decision_type=2 2 2 2 2 2 2 2 2 2 2 2 2 2
left_child=2 -2 4 -4 -1 -3 7 -5 9 10 -9 12 13 -8
right_child=1 5 3 6 -6 -7 11 8 -10 -11 -12 -13 -14 -15
leaf_value=-0.21725131630513161 0.19491300956681251 -0.08518202499054256 -0.2218806194718119 0.22481169925720926 0.1235219678044381 0.21214440845771937 -0.09376552873854703 -0.12620196969146927 -0.20013115416329966 0.23967577397014073 0.24575220592690503 0.0266114861029009 -0.23151442185380244 0.071467096024864799
leaf_weight=1.2582645686343301 2.8623127774335435 1.7752499617636206 0.8205876387655725 0.56184001266956318 0.32626601168885816 0.31433840468525875 3.869133498519659 1.9851474650204179 2.4391923798248172 0.61451750062406052 0.45238529890775669 28.201882433611903 1.3405588641762731 3.4538150951266235
leaf_count=27 197 17 17 5 4 6 30 32 39 5 4 265 17 39
internal_value=0 0.0955931 -0.00981549 -0.00484268 -0.147084 -0.040455 -0.000692988 -0.0584694 -0.0874535 0.00259829 -0.0571704 0.00879356 -0.0492082 -0.0158348
internal_weight=0 4.9519 45.3236 43.7391 1.58453 2.08959 42.9185 6.05308 5.49124 3.05205 2.43753 36.8654 8.66351 7.32295
internal_count=704 220 484 453 31 23 436 85 80 41 36 351 86 69
is_linear=0
shrinkage=0.2


Tree=33
num_leaves=15
num_cat=0
split_feature=2 5 2 3 6 7 12 6 16 12 5 3 2 2
split_gain=0.624098 1.80426 1.75561 1.32628 1.23325 1.4868 1.44888 1.03768 1.34592 0.995369 0.878394 1.45484 0.878758 1.82059
threshold=-135.21600591274918 0.24387932031383711 -117.6792409737204 -0.15508208147836164 -0.15364735175021046 1.0216030526965605 1.7628471463018101 -0.19042835455845644 6.4114190585543538 1.7632709067583354 0.23543663242965338 -0.021012623385136597 251.26547008487879 -14.80150502675516
decision_type=2 2 2 2 2 2 2 2 2 2 2 2 2 2
left_child=1 3 -2 9 5 -3 -7 8 -4 -1 -9 12 13 -12
right_child=2 4 7 -5 -6 6 -8 10 -10 -11 11 -13 -14 -15
leaf_value=-0.12824524763349252 0.20748654478195827 0.22672932607139018 0.19363658376936121 -0.15529254493300504 -0.020016863177987527 -0.12621037193257531 0.2102648571189937 0.088373616653068712 -0.16145026672571869 0.24454885296841222 0.092346762840526009 -0.16897996220625511 0.10969717985713621 -0.091215112089187936
leaf_weight=0.51153978984802939 1.8946090629324341 2.0529671777039811 0.51361792348325552 5.3107631020247963 12.882147302385416 1.4645833373069765 0.7869566730223595 5.919627484749074 2.5314090312458575 0.65118197351694107 3.8254411641974047 1.8456141296774067 3.2981474867556235 4.9680769350379714
leaf_count=8 21 22 29 107 127 14 13 147 28 5 45 28 55 55
internal_value=0 -0.0229435 0.0224641 -0.112934 0.0109522 0.103634 -0.00860579 0.00715776 -0.101556 0.080538 0.0238289 -0.00358541 0.0216596 -0.0113603
internal_weight=0 23.6601 24.7965 6.47348 17.1867 4.30451 2.25154 22.9019 3.04503 1.16272 19.8569 13.9373 12.0917 8.79352
internal_count=704 296 408 120 176 49 27 387 57 13 330 183 155 100
is_linear=0
shrinkage=0.2


Tree=34
num_leaves=15
num_cat=0
split_feature=17 0 0 0 16 13 0 13 5 0 0 9 9 15
split_gain=0.995251 1.33216 0.661282 0.804572 1.37983 0.783639 1.23213 0.897177 0.849325 0.837594 0.970345 0.851836 0.938058 1.06928
threshold=1.5000000000000002 1.6279701533684721 1.4193416732680588 1.4520088420781956 6.7934152291061496 0.19610342044822313 1.7276471533899509 0.20814430792694763 0.29987621505095102 1.529872007337346 1.5377235103754374 2.2203860628314138 2.2247292091241682 0.011547025966183502
decision_type=2 2 2 2 2 2 2 2 2 2 2 2 2 2
left_child=2 -2 -1 4 -4 6 9 -7 -8 -5 -11 -12 13 -13
right_child=1 -3 3 5 -6 7 8 -9 -10 10 11 12 -14 -15
leaf_value=-0.098798926237790963 0.20928651664682377 -0.011607181161258112 -0.0080575991175522964 -0.12688034527641104 0.20865633318803287 0.14384639676054065 0.23074215795952713 0.00054449970327278673 0.011066900070641303 0.21215382787785009 -0.23301600882971601 -0.1248923120465406 -0.070115325788916924 0.067560925251848009
leaf_weight=3.0495398314669719 2.038553411490283 2.3521096892654896 3.1584532423876217 4.3464676439762178 1.8715881295502184 2.3334328550845367 1.0664427485316985 6.96038339426741 2.0714187268167734 0.64393094182014721 0.85076375678181904 1.459433732554319 9.0636015962809307 5.5320358239114285
leaf_count=50 192 28 35 62 16 31 11 79 22 5 10 12 103 48
internal_value=0 0.0909522 -0.00907644 -0.00212455 0.0725778 -0.0130706 -0.0314824 0.0365238 0.0857264 -0.0482791 -0.0288123 -0.0379905 -0.0276561 0.0273873
internal_weight=0 4.39066 42.4075 39.358 5.03004 34.3279 25.0341 9.29382 3.13786 21.8962 17.5498 16.9058 16.0551 6.99147
internal_count=704 220 484 434 51 383 273 110 33 240 178 173 163 60
is_linear=0
shrinkage=0.2


Tree=35
num_leaves=15
num_cat=0
split_feature=11 15 1 1 0 15 10 11 6 11 6 10 0 6
split_gain=0.52375 1.55109 0.691125 1.0751 1.25246 1.14725 1.30336 1.1906 0.791035 0.79019 1.3486 1.15188 0.682004 0.733944
threshold=-4.4724025100795801 0.012445281159783403 0.93323078169159879 0.97289722395972922 1.7055093438098534 0.012026515151515102 10.311411949436458 -1.9131768810054244 0.10239207575411526 2.8604099442424666 0.052766399123566211 10.935710586665104 1.4068688199147343 0.063225649050444768
decision_type=2 2 2 2 2 2 2 2 2 2 2 2 2 2
left_child=1 -1 12 -4 5 7 -7 -5 -8 10 11 -9 -2 -14
right_child=2 -3 3 4 -6 6 8 9 -10 -11 -12 -13 13 -15
leaf_value=-0.26133902943773019 -0.16116681872301755 0.23146907074574097 -0.19456142177831526 0.18570364948399956 0.17220947494825084 0.23509795472921524 -0.13324480861982743 0.23151687700555645 0.22272949568457961 0.1654229685414825 -0.28292904390810197 -0.10011811350136146 0.0071709964520612034 0.10381824872412458
leaf_weight=0.33121034456416865 0.86254663311410951 1.1171931540593503 1.5910592281725247 1.443573774769902 1.223325490951537 0.44762516766786564 5.9401425926480442 0.65315660834312339 0.26065692619886238 0.65569052100181568 0.87818160653114308 1.1682606879621742 24.961764259613123 3.5957481397781512
leaf_count=5 35 18 20 11 13 4 115 8 6 10 5 16 395 43
internal_value=0 0.118777 -0.00346754 -0.0395998 -0.0201411 -0.0406969 -0.0944888 0.0338274 -0.118281 -0.0315156 -0.079349 0.0188055 0.0140479 0.0193401
internal_weight=0 1.4484 43.6817 14.2617 12.6706 11.4473 6.64842 4.79886 6.2008 3.35529 2.6996 1.82142 29.4201 28.5575
internal_count=704 23 681 208 188 175 125 50 121 39 29 24 473 438
is_linear=0
shrinkage=0.2


Tree=36
num_leaves=15
num_cat=0
split_feature=2 15 11 6 8 7 7 2 6 16 15 6 8 7
split_gain=0.532183 0.452697 0.451567 0.495533 0.477746 0.415343 0.39518 0.389542 1.30417 1.29374 1.2375 1.03448 1.06148 0.999318
threshold=405.11244972637968 0.020938176406926353 4.6084287173849701 -0.12913235382155061 0.95084331410898892 1.3657078703894758 1.4686726752129653 -155.92326426209493 -0.16102471695024817 6.8521973113595775 0.014738073671497551 -0.15256379250302968 0.55172547796135873 1.1163754031526698
decision_type=2 2 2 2 2 2 2 2 2 2 2 2 2 2
left_child=1 6 3 4 -2 -5 7 10 9 13 11 -1 -13 -9
right_child=2 -3 -4 5 -6 -7 -8 8 -10 -11 -12 12 -14 -15
leaf_value=0.067761385640092764 0.20351185510631586 0.17803622926801885 -0.17865249625724461 0.18826421268432447 -0.20520752407190207 -0.084067102423152851 0.064611474841139813 0.12116222435189689 0.029523169222014829 -0.22111383443821359 0.020683981829241291 0.18236200556813231 -0.13234068198412241 -0.23426126075388126
leaf_weight=1.4908707346767185 0.17316512367688197 0.53188476269133289 0.23744924215134222 1.7776585250394412 0.33706081239506602 0.2563114387448876 2.8142476413631803 1.1701093269512051 16.46347943646834 1.8267537020146845 8.4813707065768522 0.45521192625164797 7.3658191207796335 0.43371165404096235
leaf_count=29 33 11 8 48 7 9 41 17 250 20 119 9 98 5
internal_value=0 -0.00527618 0.0851205 0.109738 -0.0664926 0.153946 -0.00768352 -0.013082 0.00614781 -0.106032 -0.0345823 -0.0849194 -0.114024 0.0250472
internal_weight=0 41.0335 2.78165 2.5442 0.510226 2.03397 40.5016 37.6873 19.8941 3.43057 17.7933 9.3119 7.82103 1.60382
internal_count=704 599 105 97 40 57 588 547 292 42 255 136 107 22
is_linear=0
shrinkage=0.2


Tree=37
num_leaves=15
num_cat=0
split_feature=17 0 2 10 14 10 2 15 8 8 2 8 8 9
split_gain=0.770687 1.08853 0.713354 0.867216 0.680415 0.630684 0.628358 1.0245 0.890566 0.720515 0.63115 0.738906 1.58091 1.22758
threshold=1.5000000000000002 1.6279701533684721 95.847783825336748 10.311705070349133 57.500000000000007 10.311411949436458 -463.70388932934588 0.018462672767519655 0.57957878290549825 1.2039111396593771 405.11244972637968 0.82899943439277157 0.78559110807102672 2.2270129219215975
decision_type=2 2 2 2 2 2 2 2 2 2 2 2 2 2
left_child=4 -2 3 -3 -1 -6 8 10 -7 -10 11 12 -8 -14
right_child=1 2 -4 -5 5 6 7 -9 9 -11 -12 -13 13 -15
leaf_value=-0.1120993801275989 0.20789816428858626 0.21745597044608611 -0.20589242012137215 -0.064908494865111549 0.13752546073348959 0.13000848141058327 -0.018854662213275572 0.12656617170745141 -0.19782943236709424 0.14103043305951238 0.10393107648046883 -0.068953117525528351 0.21464790167424883 -0.093247047766885249
leaf_weight=2.3725610985420635 1.657504768110811 0.76459809206426177 0.53924853354692448 1.0095291808247564 1.259007779881357 0.55058803036808912 17.477139811031531 2.4164682962000361 1.9415925554931166 0.28825706988573063 1.8624530695378769 7.7254190538078538 2.1812694910913701 0.67927014455199231
leaf_count=68 192 13 5 10 15 7 184 36 32 4 25 89 17 7
internal_value=0 0.084189 -0.00444709 0.0567825 -0.00832506 -0.00155757 -0.00654318 0.0013004 -0.0977796 -0.154024 -0.00881473 -0.0162973 0.00370443 0.141534
internal_weight=0 3.97088 2.31338 1.77413 38.754 36.3815 35.1225 32.342 2.78044 2.22985 29.9256 28.0631 20.3377 2.86054
internal_count=704 220 28 23 484 416 401 358 43 36 322 297 208 24
is_linear=0
shrinkage=0.2


Tree=38
num_leaves=15
num_cat=0
split_feature=15 15 1 10 4 1 15 15 1 5 15 4 16 4
split_gain=0.474998 0.635384 0.421047 1.51695 1.19862 1.16437 0.921288 1.36977 1.22562 0.820463 1.1211 0.859727 1.22662 1.05639
threshold=0.0073235544217687002 0.0076157580240768007 1.0417916377072076 10.936597110498079 0.12466478567762497 1.0226361437180191 0.011938261363442551 0.013827039930555502 1.1394958980882088 0.23498650580354233 0.010275047519007551 -0.029986359999761149 6.5679980145478085 -0.0019282639501739997
decision_type=2 2 2 2 2 2 2 2 2 2 2 2 2 2
left_child=-1 -2 5 4 6 9 8 -8 -4 -3 -11 12 -12 -13
right_child=1 2 3 -5 -6 -7 7 -9 -10 10 11 13 -14 -15
leaf_value=-0.20768113304685235 0.23504104804394255 0.06420078170978076 0.26571834915415909 -0.19366141377871104 0.14141033594122099 0.25456924575041823 -0.19941472724825507 0.049129683969281975 -0.048086875226352965 -0.19075042983505308 -0.053960828414531238 -0.17184838742066419 0.15882481403708712 -0.0062139233084793138
leaf_weight=0.43409022642299433 0.46520157158374686 7.1687036748626332 0.76608959585428094 1.9567183456383643 1.9007786291185764 0.76855327561497588 2.2577268173918132 1.4608439779840408 1.4218271039426325 1.3418585676699901 1.7887041805079267 1.716203283052901 2.7491176594048738 15.020289700711134
leaf_count=18 4 185 7 56 25 6 19 42 13 22 59 17 33 198
internal_value=0 0.0026409 -4.06444e-05 -0.0361954 0.00326996 0.0115134 -0.0411853 -0.101774 0.0617907 0.00524168 -0.0134467 -0.00226346 0.0749496 -0.0231985
internal_weight=0 40.7826 40.3174 9.76398 7.80727 30.5534 5.90649 3.71857 2.18792 29.7849 22.6162 21.2743 4.53782 16.7365
internal_count=704 686 682 162 106 520 81 61 20 514 329 307 92 215
is_linear=0
shrinkage=0.2


end of trees

feature_importances:
Column_0=50
Column_5=44
Column_9=44
Column_2=39
Column_1=38
Column_10=37
Column_14=37
Column_15=34
Column_4=32
Column_11=29
Column_3=28
Column_6=28
Column_8=27
Column_17=21
Column_7=15
Column_13=15
Column_12=14
Column_16=14

parameters:
[boosting: gbdt]
[objective: binary]
[metric: binary_logloss]
[tree_learner: serial]
[device_type: cpu]
[linear_tree: 0]
[data: ]
[valid: ]
[num_iterations: 10000]
[learning_rate: 0.2]
[num_leaves: 15]
[num_threads: 0]
[deterministic: 0]
[force_col_wise: 0]
[force_row_wise: 0]
[histogram_pool_size: -1]
[max_depth: -1]
[min_data_in_leaf: 5]
[min_sum_hessian_in_leaf: 0.001]
[bagging_fraction: 0.9]
[pos_bagging_fraction: 1]
[neg_bagging_fraction: 1]
[bagging_freq: 0]
[bagging_seed: 28073]
[feature_fraction: 0.5]
[feature_fraction_bynode: 1]
[feature_fraction_seed: 8222]
[extra_trees: 0]
[extra_seed: 8505]
[early_stopping_round: 50]
[first_metric_only: 0]
[max_delta_step: 0]
[lambda_l1: 0]
[lambda_l2: 0]
[linear_lambda: 0]
[min_gain_to_split: 0]
[drop_rate: 0.1]
[max_drop: 50]
[skip_drop: 0.5]
[xgboost_dart_mode: 0]
[uniform_drop: 0]
[drop_seed: 15689]
[top_rate: 0.2]
[other_rate: 0.1]
[min_data_per_group: 100]
[max_cat_threshold: 32]
[cat_l2: 10]
[cat_smooth: 10]
[max_cat_to_onehot: 4]
[top_k: 20]
[monotone_constraints: ]
[monotone_constraints_method: basic]
[monotone_penalty: 0]
[feature_contri: ]
[forcedsplits_filename: ]
[refit_decay_rate: 0.9]
[cegb_tradeoff: 1]
[cegb_penalty_split: 0]
[cegb_penalty_feature_lazy: ]
[cegb_penalty_feature_coupled: ]
[path_smooth: 0]
[interaction_constraints: ]
[verbosity: -1]
[saved_feature_importance_type: 0]
[max_bin: 255]
[max_bin_by_feature: ]
[min_data_in_bin: 3]
[bin_construct_sample_cnt: 200000]
[data_random_seed: 20155]
[is_enable_sparse: 1]
[enable_bundle: 1]
[use_missing: 1]
[zero_as_missing: 0]
[feature_pre_filter: 1]
[pre_partition: 0]
[two_round: 0]
[header: 0]
[label_column: ]
[weight_column: ]
[group_column: ]
[ignore_column: ]
[categorical_feature: ]
[forcedbins_filename: ]
[objective_seed: 15792]
[num_class: 1]
[is_unbalance: 0]
[scale_pos_weight: 1]
[sigmoid: 1]
[boost_from_average: 1]
[reg_sqrt: 0]
[alpha: 0.9]
[fair_c: 1]
[poisson_max_delta_step: 0.7]
[tweedie_variance_power: 1.5]
[lambdarank_truncation_level: 30]
[lambdarank_norm: 1]
[label_gain: ]
[eval_at: ]
[multi_error_top_k: 1]
[auc_mu_weights: ]
[num_machines: 1]
[local_listen_port: 12400]
[time_out: 120]
[machine_list_filename: ]
[machines: ]
[gpu_platform_id: -1]
[gpu_device_id: -1]
[gpu_use_dp: 0]
[num_gpu: 1]

end of parameters

pandas_categorical:null
