tree
version=v4
num_class=1
num_tree_per_iteration=1
label_index=0
max_feature_idx=14
objective=binary sigmoid:1
feature_names=Column_0 Column_1 Column_2 Column_3 Column_4 Column_5 Column_6 Column_7 Column_8 Column_9 Column_10 Column_11 Column_12 Column_13 Column_14
feature_infos=[1.0256094705288057:2.008109901613675] [0.077881925041574901:3.4150107712893245] [-0.096969302809573305:0.36932132963988917] [0.19011554804521:0.43092557777262308] [-0.33806488143988589:1.2521308648311122] [0.36143571596895141:1.6285321476764898] [0:0.82887878664190429] [0:36.306637117454748] [0:0.51900878828285135] [0:0.43193980318729891] [0:350] [0:400] [0:0.040000000000000001] [0:2] [0:5]
tree_sizes=1251 1169 1255 1467 1265 1156 1275 1164 1372 1268 1168 1276 1269 1269 1373 1269 1267 1376 1381 1377 1381 1372 1272 1167 1272 1482 1269 1277 1272 1382 1277 1381 1373 1489 1168 1162 1276 1276 1386 1386 1282 1173 1493 1271

Tree=0
num_leaves=11
num_cat=0
split_feature=13 12 3 2 2 3 10 10 6 1
split_gain=93.5036 41.2644 30.7036 24.2983 17.8229 23.9683 13.9567 6.68812 5.99229 0.837425
threshold=1.0000000180025095e-35 0.020062802386699653 0.28678252567712187 0.23200378417853709 0.23812707739791067 0.29164349245849869 71.500000000000014 93.500000000000014 0.031762430609197555 0.7037401587450397
decision_type=2 2 2 2 2 2 2 2 2 2
left_child=1 2 3 8 5 -3 -4 -8 -1 -2
right_child=9 4 6 -5 -6 -7 7 -9 -10 -11
leaf_value=0.20375299316637285 0.54758428320426811 0.30545382237301771 0.31380314860857805 0.38353130554879833 0.55219080802388754 0.48760096577511081 0.48610288092423271 0.39055835821267681 0.29024612101538994 0.58098158814650946
leaf_weight=19.881844386458397 11.977014690637587 11.97701469063759 11.977014690637587 17.725981742143631 13.893337041139601 18.205062329769135 15.809659391641619 13.653796747326849 13.414256453514097 20.121384680271149
leaf_count=83 50 50 50 74 58 76 66 57 56 84
internal_value=0.414944 0.37884 0.340884 0.288951 0.458464 0.41532 0.404825 0.441826 0.238599 0.56852
internal_weight=0 136.538 92.4626 51.0221 44.0754 30.1821 41.4405 29.4635 33.2961 32.0984
internal_count=704 570 386 213 184 126 173 123 139 134
is_linear=0
shrinkage=1


Tree=1
num_leaves=10
num_cat=0
split_feature=13 10 4 6 9 4 0 7 0
split_gain=78.1272 36.1301 47.7341 40.643 26.0494 7.90719 8.93428 5.36902 0.816299
threshold=1.0000000180025095e-35 65.500000000000014 0.13683328664576258 0.021386547149095454 0.19576789818616505 -0.065162756949949344 1.4531574332914843 5.8211336379174785 1.3558090467934492
decision_type=2 2 2 2 2 2 2 2 2
left_child=1 -1 3 -3 5 6 -5 -7 -2
right_child=8 2 -4 4 -6 7 -8 -9 -10
leaf_value=-0.15762372842763339 0.15646481337834225 -0.15837523778402407 0.15035955130286754 -0.13786493203386388 0.086587196960946744 -0.041165854059755723 -0.018684468688179072 0.041960457651522995 0.1230153679495847
leaf_weight=19.679667696356773 19.141800791025165 21.521804079413414 15.821320503950117 13.300921604037287 22.882683128118515 18.707179695367817 11.933155551552771 13.289817109704016 11.789128035306929
leaf_count=81 83 88 67 55 96 78 50 55 51
internal_value=0 -0.0322264 -0.0112163 -0.0363684 -0.00359237 -0.0396488 -0.0815047 -0.00663969 0.143716
internal_weight=0 137.137 117.457 101.636 80.1138 57.2311 25.2341 31.997 30.9309
internal_count=704 570 489 422 334 238 105 133 134
is_linear=0
shrinkage=0.1


Tree=2
num_leaves=11
num_cat=0
split_feature=14 3 9 6 5 5 0 0 13 0
split_gain=126.013 52.6021 22.3591 10.8102 8.44188 7.28768 5.48287 4.52921 0.0915886 0.00051007
threshold=1.5000000000000002 0.28678252567712187 0.19576789818616505 0.031762430609197555 0.79204502731451909 0.85399587761704043 1.4058421047560354 1.3760155392978002 1.5000000000000002 1.2896627565120151
decision_type=2 2 2 2 2 2 2 2 2 2
left_child=1 3 5 7 -5 -3 8 -1 -2 -10
right_child=6 2 -4 4 -6 -7 -8 -9 9 -11
leaf_value=-0.13050733677397205 0.15878611672492013 0.0080134526938735774 0.098797862616137613 -0.01774638103287823 -0.13189577234666133 -0.081200219025639467 0.074003905600596928 -0.20593175654458659 0.1482207464159945 0.14915632779039747
leaf_weight=22.189322948455811 14.528433382511137 19.936796203255653 19.79408398270607 13.57896399497986 12.390467971563337 16.933575034141541 11.611450329422949 12.416706725955008 12.07087016105652 11.266054287552832
leaf_count=90 63 83 85 56 51 70 50 50 55 51
internal_value=0 -0.0561901 0.0130658 -0.120975 -0.072209 -0.03296 0.134119 -0.15757 0.152553 0.148672
internal_weight=0 117.24 56.6645 60.5755 25.9694 36.8704 49.4768 34.606 37.8654 23.3369
internal_count=704 485 238 247 107 153 219 140 169 106
is_linear=0
shrinkage=0.1


Tree=3
num_leaves=13
num_cat=0
split_feature=14 9 2 0 4 1 0 0 2 1 13 0
split_gain=105.699 32.8247 19.6123 12.2142 11.6011 6.01491 8.50073 5.14192 3.577 1.40203 0.0588134 0.000324826
threshold=1.5000000000000002 0.19576789818616505 0.21050908623686831 1.4287866589173663 0.035991809858587111 0.72601183298071859 1.4697676476510519 1.4058421047560354 0.11412653017871977 0.82906405319886567 1.5000000000000002 1.2896627565120151
decision_type=2 2 2 2 2 2 2 2 2 2 2 2
left_child=1 2 4 -3 8 -4 -7 10 -1 -10 -2 -12
right_child=7 3 5 -5 -6 6 -8 -9 9 -11 11 -13
leaf_value=-0.10533578133784356 0.15026283091715434 -0.01892857010206031 0.024152295128192953 0.11526812124022033 -0.03731615322267455 -0.1095040381994425 0.0045446404918681382 0.068022815075517648 -0.14719637632181004 -0.19456826168446448 0.14157843254713973 0.14234627273376729
leaf_weight=12.296982064843176 13.851894333958624 14.045697107911112 14.316004872322081 13.115623295307158 12.247431248426436 14.040362954139711 12.226667940616606 11.381468594074247 12.322907224297525 12.672593638300894 11.407557740807535 10.655883803963659
leaf_count=50 63 59 59 58 50 57 51 50 50 51 55 51
internal_value=0 -0.0504936 -0.0795364 0.0458722 -0.121759 -0.0279956 -0.0564171 0.126594 -0.149491 -0.171214 0.145156 0.141949
internal_weight=0 117.284 90.1229 27.1613 49.5399 40.583 26.267 47.2968 37.2925 24.9955 35.9153 22.0634
internal_count=704 485 368 117 201 167 108 219 151 101 169 106
is_linear=0
shrinkage=0.1


Tree=4
num_leaves=11
num_cat=0
split_feature=14 3 5 8 8 2 0 5 13 1
split_gain=89.1791 36.7088 12.3653 8.55307 7.92533 5.8502 4.91097 3.00232 0.0386374 0.000222225
threshold=1.5000000000000002 0.28678252567712187 0.85399587761704043 0.10014838324101066 0.12676286880935328 0.22232681510965266 1.4058421047560354 0.8032851712242034 1.5000000000000002 0.79893497255998358
decision_type=2 2 2 2 2 2 2 2 2 2
left_child=1 3 4 -1 -3 7 8 -5 -2 -10
right_child=6 2 -4 5 -6 -7 -8 -9 9 -11
leaf_value=-0.042814140666056821 0.14333494152774182 0.092053069023364312 -0.050280405143841071 -0.11875815890380942 -0.0018676432592057712 -0.073589179057812551 0.062562457024137375 -0.18491691022815648 0.13673720744199322 0.13608206653709862
leaf_weight=18.608047664165497 13.107514157891272 19.074889734387398 19.964692056179047 13.847864955663683 16.984361186623573 14.838444352149962 11.149771600961683 13.591898635029791 10.018244326114656 10.715327903628348
leaf_count=76 63 85 82 56 71 60 50 55 51 55
internal_value=0 -0.0455581 0.0128579 -0.099309 0.0478152 -0.124174 0.120121 -0.151529 0.139085 0.136399
internal_weight=0 116.91 56.0239 60.8863 36.0593 42.2782 44.9909 27.4398 33.8411 20.7336
internal_count=704 485 238 247 156 171 219 111 169 106
is_linear=0
shrinkage=0.1


Tree=5
num_leaves=10
num_cat=0
split_feature=14 3 9 2 8 5 0 14 0
split_gain=75.6188 29.9271 13.6711 7.27607 7.12393 5.44373 4.89437 0.02517 0.000301456
threshold=1.5000000000000002 0.28678252567712187 0.19576789818616505 0.19893606009522963 0.10014838324101066 0.8032851712242034 1.4075137806354261 4.5000000000000009 1.2907599295511687
decision_type=2 2 2 2 2 2 2 2 2
left_child=1 4 3 -3 -1 -6 7 -2 -9
right_child=6 2 -4 -5 5 -7 -8 8 -10
leaf_value=-0.038464245279039952 0.13761516463316242 -0.074803836385264569 0.082336293245773517 0.014698084604350231 -0.076277997050774732 -0.14835263589616063 0.055968778399052066 0.13147793611493269 0.1322638552467543
leaf_weight=18.63928909599781 12.327221050858499 15.726844742894171 18.357711419463158 21.500990644097328 20.697794184088707 21.226007476449013 10.716338872909544 10.37830998003483 9.2131413370370847
leaf_count=76 63 64 85 89 84 87 49 57 50
internal_value=0 -0.041271 0.0117135 -0.0231119 -0.0899007 -0.112769 0.114443 0.134075 0.131848
internal_weight=0 116.149 55.5855 37.2278 60.5631 41.9238 42.635 31.9187 19.5915
internal_count=704 485 238 153 247 171 219 170 107
is_linear=0
shrinkage=0.1


Tree=6
num_leaves=11
num_cat=0
split_feature=13 11 4 3 9 2 1 0 4 11
split_gain=39.0497 23.5154 24.1765 26.2472 13.9382 7.49867 4.86207 5.39178 1.79058 0.763439
threshold=1.0000000180025095e-35 57.500000000000007 0.13683328664576258 0.25801674787238998 0.19576789818616505 0.22232681510965266 1.0175652311923198 1.5519570392972233 -0.051347894514544544 111.50000000000001
decision_type=2 2 2 2 2 2 2 2 2 2
left_child=1 -1 3 5 6 8 7 -5 -3 -2
right_child=9 2 -4 4 -6 -7 -8 -9 -10 -11
leaf_value=-0.13127182845449889 0.13228715701092353 -0.14365078587730565 0.12503872261729004 -0.070689521083230719 0.097006911468665233 -0.025092107267084315 0.034577036082206213 0.016779086954975594 -0.090935195301023092 0.096212590228575645
leaf_weight=16.837072402238846 14.172958269715311 12.463028252124786 12.762191638350485 16.777373254299167 16.928748816251755 13.808521136641501 16.126207798719406 12.151762843132017 13.340455234050751 10.009480029344557
leaf_count=70 80 52 67 69 81 57 68 51 55 54
internal_value=0 -0.0209358 -0.00469091 -0.0209871 0.0196456 -0.0845684 -0.00942158 -0.0339481 -0.116397 0.117355
internal_weight=0 131.195 114.358 101.596 61.9841 39.612 45.0553 28.9291 25.8035 24.1824
internal_count=704 570 500 433 269 164 188 120 107 134
is_linear=0
shrinkage=0.1


Tree=7
num_leaves=10
num_cat=0
split_feature=14 3 9 4 5 2 0 3 12
split_gain=56.9552 21.3408 9.36356 7.26119 6.40352 5.84372 5.23057 0.03029 0.000582997
threshold=1.5000000000000002 0.28678252567712187 0.19576789818616505 0.045966462435290852 0.80013836741829081 0.19893606009522963 1.415237610929178 0.23268691119029047 0.019724489795918353
decision_type=2 2 2 2 2 2 2 2 2
left_child=1 3 5 4 -1 -3 7 8 -2
right_child=6 2 -4 -5 -6 -7 -8 -9 -10
leaf_value=-0.058848284549737853 0.12561904655438222 -0.064141466979769024 0.071391455808380008 -0.0091998885546609906 -0.13303641922217171 0.016075255683037772 0.04256131408193662 0.13187808919138674 0.12448962540726081
leaf_weight=24.070286005735397 9.8452559709549003 15.75347864627838 17.164080902934074 12.621470436453817 22.519541263580322 21.442940473556519 9.7005636245012266 10.257335424423216 8.5304460525512678
leaf_count=99 61 64 85 52 96 89 46 58 54
internal_value=0 -0.0349463 0.0102946 -0.0764808 -0.0947077 -0.0178982 0.106024 0.127525 0.125095
internal_weight=0 113.572 54.3605 59.2113 46.5898 37.1964 38.3336 28.633 18.3757
internal_count=704 485 238 247 195 153 219 173 115
is_linear=0
shrinkage=0.1


Tree=8
num_leaves=12
num_cat=0
split_feature=14 11 3 4 5 0 8 5 10 13 0
split_gain=48.7309 18.7164 17.4095 10.5236 8.07643 5.44295 5.26987 3.32586 2.14435 0.0212484 0.000345336
threshold=1.5000000000000002 57.500000000000007 0.29935771094121194 0.036412097064686504 0.80013836741829081 1.4160552119397221 0.17537273970380918 0.6762706607103498 85.500000000000014 1.5000000000000002 1.2921528518584442
decision_type=2 2 2 2 2 2 2 2 2 2 2
left_child=1 -1 3 4 7 9 8 -3 -4 -2 -11
right_child=5 2 6 -5 -6 -7 -8 -9 -10 10 -12
leaf_value=-0.13425744631589892 0.12780652003659251 -0.069142526264326459 0.095152095660088559 0.024318036141521032 -0.11966478405913879 0.035179080562044239 -0.014384862586648032 0.0020929644728472324 0.034686238364995105 0.1216462214434426 0.12257497771897044
leaf_weight=15.401528805494307 10.826718434691431 13.748121887445452 12.824338063597681 15.220459342002867 19.877029493451118 9.1703149825334531 11.776322945952414 12.525106340646742 10.808035954833029 8.6286304742097872 7.4688619077205649
leaf_count=65 66 57 61 63 86 44 49 52 52 59 50
internal_value=0 -0.0318667 -0.0155721 -0.0477885 -0.0715694 0.101718 0.0402656 -0.0351828 0.0674986 0.124381 0.122077
internal_weight=0 112.181 96.7794 61.3707 46.1503 36.0945 35.4087 26.2732 23.6324 26.9242 16.0975
internal_count=704 485 420 258 195 219 162 109 113 175 109
is_linear=0
shrinkage=0.1


Tree=9
num_leaves=11
num_cat=0
split_feature=13 11 4 3 5 0 1 5 12 11
split_gain=26.5388 15.7582 16.5637 16.1462 11.421 6.90941 6.8739 7.40282 4.69239 0.967854
threshold=1.0000000180025095e-35 57.500000000000007 0.13683328664576258 0.25801674787238998 0.56799942517576629 1.569926844746681 0.98019022748139017 0.8032851712242034 0.016091076182025554 112.50000000000001
decision_type=2 2 2 2 2 2 2 2 2 2
left_child=1 -1 3 6 -5 8 7 -3 -6 -2
right_child=9 2 -4 4 5 -7 -8 -9 -10 -11
leaf_value=-0.10926153846684594 0.1247666943821219 0.019269883699130585 0.11452997530944982 0.10412653796783833 -0.074413375574135673 0.0589803450734733 -0.12801382409750789 -0.088836846955118051 0.00050992433482146941 0.079792684116088503
leaf_weight=15.981615558266638 12.274828165769579 12.11855870485306 10.814187735319136 11.893912568688391 13.414280384778975 12.389733731746672 12.423013910651205 13.270499616861342 22.18159781396389 7.8421167433261862
leaf_count=70 85 50 67 58 57 55 54 60 99 49
internal_value=0 -0.0165559 -0.00290144 -0.0159008 0.0164051 -0.00533785 -0.0670607 -0.037236 -0.0277249 0.107235
internal_weight=0 124.487 108.506 97.6916 59.8795 47.9856 37.8121 25.3891 35.5959 20.1169
internal_count=704 570 500 433 269 211 164 110 156 134
is_linear=0
shrinkage=0.1


Tree=10
num_leaves=10
num_cat=0
split_feature=13 11 4 3 5 2 0 12 11
split_gain=22.9625 13.0568 13.603 14.1396 8.80624 6.17713 6.13506 3.90811 0.987669
threshold=1.0000000180025095e-35 57.500000000000007 0.099025433363718121 0.25801674787238998 0.56799942517576629 0.16983077154878912 1.569926844746681 0.016091076182025554 112.50000000000001
decision_type=2 2 2 2 2 2 2 2 2
left_child=1 -1 3 5 -5 -3 7 -6 -2
right_child=8 2 -4 4 6 -7 -8 -9 -10
leaf_value=-0.10038386971289642 0.1220696357590127 -0.10656035671797766 0.093693717821961925 0.095278910823618487 -0.068627987471167926 -0.02402514703487809 0.058383046995328064 0.00073121709300437746 0.075291160346749
leaf_weight=15.671722918748854 11.339442014694216 17.901245057582855 12.889083400368689 11.036601856350897 12.991569966077803 18.376685932278633 11.738980546593664 21.681414306163788 7.4981191456317893
leaf_count=70 85 79 79 56 55 81 53 97 49
internal_value=0 -0.0151565 -0.00262868 -0.0158747 0.0149905 -0.0647519 -0.00410183 -0.0252569 0.10345
internal_weight=0 122.287 106.616 93.7265 57.4486 36.2779 46.412 34.673 18.8376
internal_count=704 570 500 421 261 160 205 152 134
is_linear=0
shrinkage=0.1


Tree=11
num_leaves=11
num_cat=0
split_feature=14 6 5 2 9 2 2 2 3 12
split_gain=33.5689 13.8644 13.0535 7.35446 6.45083 5.82323 3.6778 3.34995 2.44224 0.00543696
threshold=1.5000000000000002 0.031762430609197555 0.56799942517576629 0.18472165252120132 0.18768464511221941 0.25211864334325101 0.10071954923383501 0.16983077154878912 0.23560766172478798 0.019398125326351653
decision_type=2 2 2 2 2 2 2 2 2 2
left_child=1 4 -3 6 7 -5 -4 -1 9 -2
right_child=8 2 3 5 -6 -7 -8 -9 -10 -11
leaf_value=-0.13628721093301588 0.11999678677830668 0.093902133113318131 -0.023144823887629049 0.065966575065259048 -0.0085772347127193518 -0.021097412273499622 -0.10347974863157008 -0.066695983650287824 0.06149867754781211 0.11641695625196524
leaf_weight=12.965375587344171 8.4205924943089538 12.457539573311804 11.485946998000147 12.127206102013586 10.963031023740767 20.959350302815437 11.310372695326803 14.828197821974753 13.757381774485109 8.5507814288139325
leaf_count=62 66 65 53 51 49 88 50 67 81 72
internal_value=0 -0.0257586 0.00133679 -0.0192981 -0.0735366 0.0108141 -0.0630029 -0.0991595 0.0928108 0.118193
internal_weight=0 107.097 68.3404 55.8829 38.7566 33.0866 22.7963 27.7936 30.7288 16.9714
internal_count=704 485 307 242 178 139 103 129 219 138
is_linear=0
shrinkage=0.1


Tree=12
num_leaves=11
num_cat=0
split_feature=14 8 0 11 10 12 5 3 3 0
split_gain=28.7924 11.8281 8.59426 7.88819 9.71777 6.55396 6.3803 2.41367 0.0508408 0.00360591
threshold=1.5000000000000002 0.10250693131731187 1.4739352711594347 71.500000000000014 92.500000000000014 0.016274565381708152 0.82396258109973852 0.28431584193061959 0.23486189143421557 1.3521851597638204
decision_type=2 2 2 2 2 2 2 2 2 2
left_child=1 5 8 -3 -5 -1 -6 -7 9 -2
right_child=2 3 -4 4 6 7 -8 -9 -10 -11
leaf_value=-0.038671734932364463 0.11398108438096993 -0.12901034706217182 -0.011489992565079772 0.015019729481502653 -0.037733661052511691 0.0076278022924572879 -0.13304231492332094 0.068447349282747469 0.12523608817071005 0.11722455826730323
leaf_weight=13.70897291600704 9.3294050544500404 10.674695983529089 6.5709314346313468 22.554980501532555 19.880183756351474 10.405902549624445 10.861264258623121 17.496727898716927 7.6111983358860007 5.4183216691017142
leaf_count=62 87 50 33 99 87 45 51 91 53 46
internal_value=0 -0.0235522 0.089051 -0.0505468 -0.0348314 0.0179476 -0.0714072 0.0457655 0.118598 0.115173
internal_weight=0 105.583 28.9299 63.9711 53.2964 41.6116 30.7414 27.9026 22.3589 14.7477
internal_count=704 485 219 287 237 198 138 136 186 133
is_linear=0
shrinkage=0.1


Tree=13
num_leaves=11
num_cat=0
split_feature=14 6 10 0 8 10 8 1 13 11
split_gain=24.7932 11.1677 10.2478 8.65327 6.38468 3.9782 3.42482 2.43057 0.0395053 0.00120246
threshold=1.5000000000000002 0.021386547149095454 65.500000000000014 1.4964743140361088 0.10438776071703601 92.500000000000014 0.078107199857568768 0.82642834998363457 1.5000000000000002 103.50000000000001
decision_type=2 2 2 2 2 2 2 2 2 2
left_child=1 7 -3 8 6 -6 -4 -1 -2 -10
right_child=3 2 4 -5 5 -7 -8 -9 9 -11
leaf_value=-0.054610718297494636 0.12175004293274785 -0.093784101821185878 0.019168945463122686 -0.016179928820285815 0.016855897285689345 -0.044699858260045064 0.090553819798183083 -0.12087656704269623 0.11206491300424121 0.11413849620567812
leaf_weight=12.459937021136286 9.4942834153771436 11.08283771574497 17.82853123545647 6.3750555366277686 20.192226618528366 21.870914533734322 10.787453413009642 9.9595085829496366 6.2075662910938263 5.0894439369440079
leaf_count=59 74 51 92 32 87 95 50 51 65 48
internal_value=0 -0.0215238 -0.00437934 0.0857433 0.00963977 -0.0151503 0.0460791 -0.0840483 0.116995 0.112999
internal_weight=0 104.181 81.762 27.1663 70.6791 42.0631 28.616 22.4194 20.7913 11.297
internal_count=704 485 375 219 324 182 142 110 187 113
is_linear=0
shrinkage=0.1


Tree=14
num_leaves=12
num_cat=0
split_feature=14 6 5 8 0 2 2 2 0 3 0
split_gain=21.3676 10.1096 9.77457 8.78681 8.07419 6.07841 4.59192 2.57654 1.41146 0.0339785 0.00191466
threshold=1.5000000000000002 0.031762430609197555 0.56799942517576629 0.10014838324101066 1.4964743140361088 0.18472165252120132 0.25211864334325101 0.10071954923383501 1.3521851597638204 0.23486189143421557 1.3521851597638204
decision_type=2 2 2 2 2 2 2 2 2 2 2
left_child=1 3 -3 -1 9 7 -7 -4 -5 10 -2
right_child=4 2 5 8 -6 6 -8 -9 -10 -11 -12
leaf_value=-0.0071413686538442326 0.11112763512391832 0.086591358159653395 -0.021507325466481458 -0.079811131404785504 -0.014456463117980198 0.06237296156533513 -0.015331843681495533 -0.089988499087709589 -0.13275206016919175 0.12091217347348776 0.11370578207346252
leaf_weight=16.128110811114311 7.8117660805583053 11.668976947665213 11.271805152297022 10.10809448361397 6.4190963655710211 11.98527806997299 20.808590084314346 10.718397200107573 10.036201849579809 6.7178124636411658 4.5632442981004715
leaf_count=74 87 65 53 51 32 51 88 50 53 54 46
internal_value=0 -0.0196859 0.00349114 -0.0621476 0.0825668 -0.0142092 0.0130672 -0.0548862 -0.106187 0.115187 0.112078
internal_weight=0 102.725 66.453 36.2724 25.5119 54.7841 32.7939 21.9902 20.1443 19.0928 12.375
internal_count=704 485 307 178 219 242 139 103 104 187 133
is_linear=0
shrinkage=0.1


Tree=15
num_leaves=11
num_cat=0
split_feature=14 11 6 8 5 10 1 7 3 3
split_gain=18.4276 8.6465 9.69963 6.8743 6.68241 5.46889 7.59026 2.67003 6.12694 0.0374007
threshold=1.5000000000000002 55.500000000000007 0.031762430609197555 0.10014838324101066 0.56799942517576629 92.500000000000014 0.89180570383295688 11.377722441055008 0.23560766172478798 0.23799551932701671
decision_type=2 2 2 2 2 2 2 2 2 2
left_child=1 -1 3 -3 -4 6 -6 8 -2 -9
right_child=7 2 4 -5 5 -7 -8 9 -10 -11
leaf_value=-0.10185967989261387 0.11309036149120376 -0.003945390818954831 0.085941293777124186 -0.099100750548936176 0.07770578464519011 -0.035792179432403086 -0.032177013341257998 0.11124997112377842 -0.022424043934442573 0.12315449078648649
leaf_weight=10.970203325152395 7.1513342186808604 14.495090126991274 11.007945463061331 15.942112937569616 14.887581139802935 22.978265762329102 10.880769163370131 5.3693514466285688 6.2541457116603851 5.1900946572422981
leaf_count=56 80 66 64 85 65 99 50 62 36 41
internal_value=0 -0.018032 -0.00783585 -0.053785 0.0155693 -0.000322108 0.0313074 0.0794923 0.0498679 0.117101
internal_weight=0 101.162 90.1918 30.4372 59.7546 48.7466 25.7684 23.9649 13.4055 10.5594
internal_count=704 485 429 151 278 214 115 219 116 103
is_linear=0
shrinkage=0.1


Tree=16
num_leaves=11
num_cat=0
split_feature=14 0 11 10 1 5 4 3 3 0
split_gain=15.8801 7.44701 7.44253 7.94318 9.42449 5.9361 2.85602 2.61823 0.0230722 0.00105138
threshold=1.5000000000000002 1.4964743140361088 57.500000000000007 92.500000000000014 0.9393175766141868 0.8032851712242034 -0.05068887429686799 0.30186764463367793 0.23486189143421557 1.3521851597638204
decision_type=2 2 2 2 2 2 2 2 2 2
left_child=2 8 -1 4 7 6 -5 -4 9 -2
right_child=1 -3 3 5 -6 -7 -8 -9 -10 -11
leaf_value=-0.088964567525251656 0.10890020277269595 -0.014994083310180298 0.020576505312819401 -0.043698387145891866 -0.049728866456336701 -0.084016265476327692 0.02398756981993487 0.077651005113106061 0.11753858798245809 0.11098973326580404
leaf_weight=12.419428907334803 6.5053208768367821 6.3912131488323203 14.805538937449453 11.492594197392465 12.822855114936827 16.62464477866888 13.624096155166624 17.582826264202595 5.8382762968540183 3.8232533484697342
leaf_count=65 87 32 65 52 60 83 65 95 54 46
internal_value=0 0.076388 -0.0165512 -0.00620839 0.0228329 -0.0376639 -0.00698336 0.0515608 0.112514 0.109674
internal_weight=0 22.5581 99.372 86.9526 45.2112 41.7413 25.1167 32.3884 16.1669 10.3286
internal_count=704 219 485 420 220 200 117 160 187 133
is_linear=0
shrinkage=0.1


Tree=17
num_leaves=12
num_cat=0
split_feature=13 10 2 3 1 10 8 4 11 12 11
split_gain=9.68696 6.51167 5.49292 7.78926 6.78493 3.2048 2.66732 2.60749 2.4829 2.05712 1.53872
threshold=1.0000000180025095e-35 71.500000000000014 0.21050908623686831 0.28341307837504226 0.72601183298071859 97.500000000000014 0.10567029678309861 -0.11606594376125129 112.50000000000001 0.016721844293272854 112.50000000000001
decision_type=2 2 2 2 2 2 2 2 2 2 2
left_child=1 6 3 8 -4 -5 -1 -6 -3 -9 -2
right_child=10 2 4 5 7 -7 -8 9 -10 -11 -12
leaf_value=-0.022501227532671298 0.11778168399583784 -0.029203431002532199 0.11582272893308032 0.053338985772978909 -0.03818723253388958 -0.017779700044843631 -0.092689467858815849 -0.010244849723514957 -0.093382507424086394 0.05536143661078298 0.045076099092991088
leaf_weight=10.758018210530283 6.7406845241785032 13.2392815053463 7.8148375749588004 13.79773946106434 7.9119035005569485 11.717000663280485 10.900361232459543 7.8673010468482998 11.066818520426748 12.176525138318537 5.1233172118663788
leaf_count=51 85 65 47 82 35 55 60 35 61 79 49
internal_value=0 -0.00884246 0.00355253 -0.0179131 0.0334496 0.0206795 -0.057826 0.0104228 -0.0584248 0.0296106 0.0863847
internal_weight=0 107.25 85.5914 49.8208 35.7706 25.5147 21.6584 27.9557 24.3061 20.0438 11.864
internal_count=704 570 459 263 196 137 111 149 126 114 134
is_linear=0
shrinkage=0.1


Tree=18
num_leaves=12
num_cat=0
split_feature=14 0 6 5 8 12 7 4 0 3 0
split_gain=12.4576 6.91672 6.3561 6.42746 6.37893 3.27846 3.19581 2.06388 1.55971 0.0211661 0.000812059
threshold=1.5000000000000002 1.4964743140361088 0.031762430609197555 0.84313342395316948 0.10014838324101066 0.016239134542705903 5.7548796260791741 -0.05068887429686799 1.3521851597638204 0.23486189143421557 1.3551015758087759
decision_type=2 2 2 2 2 2 2 2 2 2 2
left_child=2 9 4 6 -1 -5 7 -4 -6 10 -2
right_child=1 -3 3 5 8 -7 -8 -9 -10 -11 -12
leaf_value=-0.0035633282528388399 0.10731681787352131 -0.014594899324838243 -0.020815243597959734 -0.080228980869524208 -0.062152387591425773 -0.0025220810718820734 0.067096635917136424 0.033516530406915476 -0.12185080222024114 0.11608880234572397 0.10931592182322683
leaf_weight=15.737037435173987 5.5516767278313655 6.3792985975742331 13.194428868591785 10.446157194674017 8.9677410200238246 11.305330149829386 13.560134619474409 14.872248500585556 8.5479240417480451 5.2294302545487872 3.2050436548888683
leaf_count=74 88 32 64 50 51 52 65 76 53 54 45
internal_value=0 0.0716961 -0.0143634 0.00421379 -0.0497708 -0.0398408 0.0272339 0.00797461 -0.0912862 0.111055 0.108049
internal_weight=0 20.3654 96.631 63.3783 33.2527 21.7515 41.6268 28.0667 17.5157 13.9862 8.75672
internal_count=704 219 485 307 178 102 205 140 104 187 133
is_linear=0
shrinkage=0.1


Tree=19
num_leaves=12
num_cat=0
split_feature=14 11 1 6 5 10 7 3 5 5 3
split_gain=10.7321 5.58863 5.94685 7.38995 6.05741 3.24267 2.75079 5.12219 2.25941 4.51717 0.0348267
threshold=1.5000000000000002 57.500000000000007 0.72601183298071859 0.023910886614690954 0.84313342395316948 84.500000000000014 11.377722441055008 0.23560766172478798 0.74150204157744326 0.62066156408893491 0.23883914707569728
decision_type=2 2 2 2 2 2 2 2 2 2 2
left_child=1 -1 5 -4 8 -3 7 -2 9 -5 -8
right_child=6 2 3 4 -6 -7 10 -9 -10 -11 -12
leaf_value=-0.078720088966641913 0.1100477510785528 0.076031916026052151 -0.097251288812252867 0.038050681572995168 -0.072355954444700138 0.0034841059149990266 0.10752463660377161 -0.025390439520062865 0.049388731099985123 -0.045122426508091659 0.12077481501691217
leaf_weight=11.435479216277598 5.1750337667763251 11.423687919974329 10.560763739049433 13.234278716146948 10.465383462607859 13.373804323375223 4.1802763044834128 6.0648979432880878 12.028811976313589 12.889497190713881 3.7750262059271336
leaf_count=65 80 58 64 68 50 68 68 36 53 59 35
internal_value=0 -0.0131354 -0.00420434 -0.0214304 -0.00496066 0.0369054 0.0688151 0.0369673 0.0135261 -0.00298701 0.113812
internal_weight=0 95.4117 83.9762 59.1787 48.618 24.7975 19.1952 11.2399 38.1526 26.1238 7.9553
internal_count=704 485 420 294 230 126 219 116 180 127 103
is_linear=0
shrinkage=0.1


Tree=20
num_leaves=12
num_cat=0
split_feature=14 6 8 5 2 2 7 3 2 4 3
split_gain=9.23573 4.83697 5.22814 5.20456 4.05578 3.85447 2.63346 4.62605 1.79709 1.01966 0.0254895
threshold=1.5000000000000002 0.031762430609197555 0.10014838324101066 0.56799942517576629 0.18472165252120132 0.25211864334325101 11.377722441055008 0.23560766172478798 0.097832117287702511 -0.037196969801738748 0.23883914707569728
decision_type=2 2 2 2 2 2 2 2 2 2 2
left_child=1 2 -1 -3 8 -6 7 -2 -5 -4 -8
right_child=6 3 9 4 5 -7 10 -9 -10 -11 -12
leaf_value=-0.0024343618753908196 0.10910284817030413 0.070105212845103571 -0.10687323652855873 -0.013303262068858769 0.059712656547793411 -0.012577799964944503 0.10676656447121353 -0.022576445427378647 -0.072520302497980568 -0.056368825799186131 0.11861100947991757
leaf_weight=15.49043118953705 4.7210476733744162 10.027956783771513 8.7500664815306681 10.142472311854364 11.615409463644029 20.206886276602745 3.8079543597996226 6.1348230578005314 10.358974158763884 7.3601444065570822 3.4748929738998413
leaf_count=74 80 65 59 49 51 88 68 36 54 45 35
internal_value=0 -0.0120429 -0.0439149 0.00411018 -0.0085379 0.0138088 0.0658977 0.0346888 -0.0432245 -0.0837997 0.112418
internal_weight=0 93.9523 31.6006 62.3517 52.3237 31.8223 18.1387 10.8559 20.5014 16.1102 7.28285
internal_count=704 485 178 307 242 139 219 116 103 104 103
is_linear=0
shrinkage=0.1


Tree=21
num_leaves=12
num_cat=0
split_feature=14 0 0 11 6 4 5 0 0 3 0
split_gain=7.94087 6.21887 4.73956 5.98228 3.81968 4.75908 2.92351 2.69828 1.52421 0.0147579 0.000334492
threshold=1.5000000000000002 1.4964743140361088 1.5791657154430019 62.500000000000007 0.031762430609197555 -0.05068887429686799 0.77120607683120268 1.366405914064754 1.4313393781324395 0.23486189143421557 1.3551015758087759
decision_type=2 2 2 2 2 2 2 2 2 2 2
left_child=2 9 3 -1 7 6 -6 -5 -7 10 -2
right_child=1 -3 -4 4 5 8 -8 -9 -10 -11 -12
leaf_value=-0.092107152440754791 0.10529055550083979 -0.016150872927875846 0.046458092731291707 -0.015369637121903951 -0.060636094080218444 0.057612981938911824 0.010227418603086531 -0.086712207501208949 0.0073051902891708978 0.11337454795924964 0.10676733642969788
leaf_weight=10.044469706714152 4.1689647957682627 6.2852452993392935 12.419864341616629 13.184060022234918 11.993330761790274 14.48834209144116 11.313768595457075 8.8667548298835737 10.306758336722849 4.2793855145573616 2.426420833915472
leaf_count=61 88 32 64 68 59 71 52 55 55 54 45
internal_value=0 0.0630347 -0.0110256 -0.0199279 -0.0095933 0.00620536 -0.0262374 -0.0440569 0.0367012 0.108801 0.105834
internal_weight=0 17.16 92.6173 80.1975 70.153 48.1022 23.3071 22.0508 24.7951 10.8748 6.59539
internal_count=704 219 485 421 360 237 111 123 126 187 133
is_linear=0
shrinkage=0.1


Tree=22
num_leaves=11
num_cat=0
split_feature=14 0 8 8 11 8 12 5 3 0
split_gain=6.82278 5.78362 4.3305 5.95549 4.09819 4.04354 5.35093 2.73925 0.0109383 0.000246973
threshold=1.5000000000000002 1.4964743140361088 0.10438776071703601 0.15521292589662447 75.500000000000014 0.085476952644758158 0.016842918985776101 0.84102590645006303 0.23486189143421557 1.3551015758087759
decision_type=2 2 2 2 2 2 2 2 2 2
left_child=2 8 5 -4 -5 6 -1 -6 9 -2
right_child=1 -3 3 4 7 -7 -8 -9 -10 -11
leaf_value=-0.060527984250626915 0.10476220722269046 -0.014434187535708019 -0.083389570590432893 -0.065165688323188295 0.032435433506100501 0.071012718340157585 0.029994406497453104 -0.030927244112363944 0.11204671407579501 0.10609252301436521
leaf_weight=10.367374740540983 3.7902888394892233 6.3271377980709067 14.374505817890165 9.5647226423025113 19.310531467199329 9.8379016593098623 17.642423361539841 10.550570823252199 3.9156860411167145 2.2087679728865623
leaf_count=52 88 32 88 53 88 50 99 55 54 45
internal_value=0 0.0602655 -0.0100565 -0.0282885 -0.00819885 0.0158602 -0.003511 0.010048 0.107935 0.105252
internal_weight=0 16.2419 91.648 53.8003 39.4258 37.8477 28.0098 29.8611 9.91474 5.99906
internal_count=704 219 485 284 196 201 151 143 187 133
is_linear=0
shrinkage=0.1


Tree=23
num_leaves=10
num_cat=0
split_feature=14 2 9 3 2 2 1 3 11
split_gain=5.8537 4.30739 6.88035 4.54665 3.02138 4.37476 2.68038 2.41304 0.00358179
threshold=1.5000000000000002 0.30645756161703624 0.08041525039572836 0.26163404940014684 0.16478268809349886 0.25211864334325101 0.79893497255998358 0.23560766172478798 114.50000000000001
decision_type=2 2 2 2 2 2 2 2 2
left_child=1 2 4 -4 -1 -6 -5 8 -2
right_child=7 -3 3 6 5 -7 -8 -9 -10
leaf_value=-0.091953528100755522 0.10477128208262435 0.054848099036701653 -0.031667404650575603 0.073881878758324998 0.0024520025985418914 -0.073726644249005019 0.0088188132107072745 0.025601278758187979 0.10981681035560187
leaf_weight=10.359062694013117 3.851251319050788 9.4248481690883619 14.552539601922033 11.598685227334501 17.940112464129928 13.002116322517393 13.943794600665568 9.3291031159460527 2.2168631665408611
leaf_count=64 97 42 78 70 96 60 75 81 41
internal_value=0 -0.00915174 -0.0165623 0.0129457 -0.0452084 -0.0295587 0.0383636 0.057529 0.106615
internal_weight=0 90.8212 81.3963 40.095 41.3013 30.9422 25.5425 15.3972 6.06811
internal_count=704 485 443 223 220 156 145 219 138
is_linear=0
shrinkage=0.1


Tree=24
num_leaves=11
num_cat=0
split_feature=14 0 11 10 7 1 1 1 3 0
split_gain=4.97384 5.45942 3.91257 5.1723 6.63254 3.93935 6.43796 3.64277 0.00815698 0.000135606
threshold=1.5000000000000002 1.4964743140361088 57.500000000000007 92.500000000000014 5.7548796260791741 1.0175652311923198 0.72601183298071859 0.83346208082000151 0.23486189143421557 1.3551015758087759
decision_type=2 2 2 2 2 2 2 2 2 2
left_child=2 8 -1 4 7 6 -5 -4 9 -2
right_child=1 -3 3 5 -6 -7 -8 -9 -10 -11
leaf_value=-0.066946160433900156 0.10385472128250198 -0.016276596209100849 0.029447487786729249 0.008692181584993186 0.084493976479824276 0.013397700363839724 -0.097614091557589253 -0.041089117095432344 0.11056484061043859 0.10493960530858384
leaf_weight=10.109565049409865 3.1224086545407754 6.2754515632987014 16.142016209661964 9.8056187927722949 12.442089006304739 14.406778685748575 13.595258235931395 13.39888098835945 3.4964646324515343 1.8259061351418493
leaf_count=65 88 32 89 49 64 74 77 67 54 45
internal_value=0 0.0543694 -0.00833769 -0.000911932 0.0232493 -0.0277414 -0.0530688 -0.00254584 0.106868 0.104255
internal_weight=0 14.7202 89.9002 79.7906 41.983 37.8077 23.4009 29.5409 8.44478 4.94831
internal_count=704 219 485 420 220 200 126 156 187 133
is_linear=0
shrinkage=0.1


Tree=25
num_leaves=13
num_cat=0
split_feature=14 2 8 1 5 8 4 12 8 3 14 3
split_gain=4.25897 3.78147 4.02075 3.37723 3.64771 3.17768 4.2805 2.7426 2.05236 1.63537 0.14972 0.001646
threshold=1.5000000000000002 0.30645756161703624 0.10438776071703601 0.60516823839620615 0.83648323826299043 0.15521292589662447 -0.093064652389955232 0.016274565381708152 0.21885821767028818 0.28431584193061959 2.5000000000000004 0.23175222574356594
decision_type=2 2 2 2 2 2 2 2 2 2 2 2
left_child=1 2 7 -2 -5 -4 -7 -1 -8 -9 -6 -12
right_child=3 -3 5 4 10 6 8 9 -10 -11 11 -13
leaf_value=-0.028953364099338293 -0.045644859913328735 0.052588642042360349 -0.076200405206916094 -0.0014164482504348559 0.13534290877571434 -0.080227251735640756 0.03944426991788292 -0.0039079523093761143 -0.021348603328060125 0.049987957744936952 0.10436198773865497 0.10831909684818214
leaf_weight=11.970689587295054 2.8395933508872977 9.3443587347865087 13.113448940217493 3.9065197333693487 3.0410749651491642 8.0066379941999859 9.7556919679045766 9.0394566804170626 12.891556859016417 14.926490820944307 2.2226700019091368 1.9943793453276155
leaf_count=62 32 42 85 64 18 46 51 42 65 92 65 40
internal_value=0 -0.00759561 -0.0146515 0.0517296 0.0764956 -0.0350035 -0.0173799 0.0101353 0.00483897 0.0296595 0.11843 0.106233
internal_weight=0 89.0483 79.704 14.0042 11.1646 43.7673 30.6539 35.9366 22.6472 23.9659 7.25812 4.21705
internal_count=704 485 443 219 187 247 162 196 116 134 123 105
is_linear=0
shrinkage=0.1


Tree=26
num_leaves=11
num_cat=0
split_feature=13 0 10 0 10 7 1 11 1 7
split_gain=3.9333 5.49697 6.15049 2.95395 2.72985 5.63493 3.26338 5.82434 2.40028 0.111208
threshold=1.0000000180025095e-35 1.6160366336572747 71.500000000000014 1.4096386258407252 92.500000000000014 5.7548796260791741 1.0175652311923198 118.50000000000001 0.83346208082000151 5.7548796260791741
decision_type=2 2 2 2 2 2 2 2 2 2
left_child=1 2 -1 9 5 8 7 -6 -4 -2
right_child=3 -3 4 -5 6 -7 -8 -9 -10 -11
leaf_value=-0.073237919536961515 0.1359356620045884 0.065605611432421926 0.024694550181909473 -0.010962020306283106 0.0099865580837552436 0.080430473643061912 0.016053447710632603 -0.09367671419707839 -0.039576489362523122 0.10477552031942548
leaf_weight=14.226428076624869 2.264573434367775 9.8659637421369535 11.421561019495131 2.7477857880294323 10.268816160038115 10.44095480814576 14.875708771869538 11.478354442864655 11.828527539968489 2.3174202963709831
leaf_count=90 44 51 73 20 73 57 92 75 59 70
internal_value=0 -0.00502996 -0.0132732 0.0710149 -0.00114072 0.0194025 -0.0200393 -0.0447279 -0.00800347 0.120176
internal_weight=0 94.4063 84.5404 7.32978 70.3139 33.691 36.6229 21.7472 23.2501 4.58199
internal_count=704 570 519 134 429 189 240 148 132 114
is_linear=0
shrinkage=0.1


Tree=27
num_leaves=11
num_cat=0
split_feature=14 0 10 6 1 1 11 8 4 14
split_gain=3.28973 4.73171 5.36582 4.08669 3.89553 3.30649 2.88349 2.63744 2.18762 0.00196528
threshold=2.5000000000000004 1.6160366336572747 71.500000000000014 0.031762430609197555 0.72601183298071859 0.86824793372294118 127.50000000000001 0.10014838324101066 -0.073818955475719997 4.5000000000000009
decision_type=2 2 2 2 2 2 2 2 2 2
left_child=1 2 -1 7 -5 -6 9 -4 -7 -2
right_child=6 -3 3 4 5 8 -8 -9 -10 -11
leaf_value=-0.070002211389601318 0.10718237472299071 0.06086647428874379 -0.0031361595109593091 0.069603672933639268 -0.046935245222247998 -0.018523652764216053 -0.036546749731082004 -0.075826420934131389 0.038604575113849293 0.10327180420520848
leaf_weight=13.521297331899403 2.6934323832392684 9.8746445477008802 10.001870527863504 10.094611138105391 10.882469162344931 10.561401240527625 1.9848433192819355 9.9641251415014249 18.347938094288118 2.4578271396458149
leaf_count=85 60 52 47 62 56 49 35 76 94 88
internal_value=0 -0.00458848 -0.0123409 -0.00117937 0.0141227 4.79311e-05 0.0658585 -0.0394126 0.017734 0.105317
internal_weight=0 93.2484 83.3737 69.8524 49.8864 39.7918 7.1361 19.966 28.9093 5.15126
internal_count=704 521 469 384 261 199 183 123 143 148
is_linear=0
shrinkage=0.1


Tree=28
num_leaves=11
num_cat=0
split_feature=2 10 1 0 3 1 10 3 4 2
split_gain=3.03295 4.75878 6.6429 7.93492 4.38819 3.81208 2.38839 2.32958 2.50174 1.98261
threshold=0.16446135958033639 75.500000000000014 0.72601183298071859 1.4339813670786494 0.28341307837504226 0.84690372692546856 88.500000000000014 0.28744063122970454 0.0044787977248943508 0.096094894214892965
decision_type=2 2 2 2 2 2 2 2 2 2
left_child=4 -2 3 -3 6 -4 -1 8 -7 -6
right_child=1 2 5 -5 9 7 -8 -9 -10 -11
leaf_value=-0.026510400665765373 -0.036920540773623202 0.15729895384932704 -0.057632789139736844 0.0050561446703440635 0.032006065846515559 -0.040808954807999766 -0.10151598212475477 0.059687512435002449 0.050675744930451995 -0.026550467423078025
leaf_weight=9.923986619338395 13.428573919460176 7.5778699759393913 7.3813727404922274 6.2446682378649712 13.846648864448072 7.4816072937101143 7.419293073937296 10.496756054461001 4.9779842775315046 9.927738428115843
leaf_count=60 80 87 58 34 85 59 54 48 79 60
internal_value=0 0.0152085 0.0310602 0.0885196 -0.0203483 0.00488048 -0.0585971 0.024981 -0.00425805 0.00755396
internal_weight=0 57.5888 44.1603 13.8225 41.1177 30.3377 17.3433 22.9563 12.4596 23.7744
internal_count=704 445 365 121 259 244 114 186 138 145
is_linear=0
shrinkage=0.1


Tree=29
num_leaves=12
num_cat=0
split_feature=9 4 9 7 4 10 9 1 6 8 1
split_gain=2.84161 3.62757 3.25196 2.96475 3.79437 2.89083 2.45527 2.12786 2.02564 1.3743 1.03925
threshold=0.068381724683853062 -0.065980121519159177 0.10072210976413436 5.8211336379174785 -0.014682252812356298 85.500000000000014 0.19576789818616505 0.9393175766141868 0.025667703564353755 0.2325184929344469 0.83346208082000151
decision_type=2 2 2 2 2 2 2 2 2 2 2
left_child=1 9 8 4 -3 -6 -4 -5 -2 -1 -8
right_child=2 3 6 7 5 -7 10 -9 -10 -11 -12
leaf_value=-0.072373794575164171 0.01223640711074774 0.039751084964131017 -0.035463552368107838 0.091474054190352275 -0.097601515628795502 -0.0051886558645949637 0.045501008374637802 0.002907420733866399 0.088152033755649659 -0.019151925823234304 -0.0012256445267048394
leaf_weight=11.20320811122656 5.8932508658617726 7.6520889420062312 11.862494409084322 5.483431361615656 6.3414306715130806 7.2606511153280735 9.6669872552156466 5.3686321023851633 8.7088143937289697 8.5580509528517705 9.3767049983143789
leaf_count=77 60 44 77 56 48 58 66 52 65 43 58
internal_value=0 -0.0156157 0.0186228 0.00513212 -0.0165816 -0.0482725 0.000248461 0.0476592 0.0575132 -0.0493249 0.0224938
internal_weight=0 51.8675 45.5083 32.1062 21.2542 13.6021 30.9062 10.8521 14.6021 19.7613 19.0437
internal_count=704 378 326 258 150 106 201 108 125 120 124
is_linear=0
shrinkage=0.1


Tree=30
num_leaves=11
num_cat=0
split_feature=12 2 9 9 12 0 2 8 12 7
split_gain=2.94336 3.64779 6.04377 3.72452 3.13594 3.77675 3.43122 2.86659 1.8067 1.07141
threshold=0.022116319055094504 0.16446135958033639 0.064136810108073261 0.092634691905881916 0.013628117913832151 1.5359831990929098 0.22914755893257613 0.20574127063419578 0.019283284742468352 5.8175418094404625
decision_type=2 2 2 2 2 2 2 2 2 2
left_child=1 3 4 -1 -3 6 -6 -8 -5 -4
right_child=-2 2 9 8 5 -7 7 -9 -10 -11
leaf_value=-0.081317138618089813 0.050220581113854093 0.046236680704917169 0.042413770679378737 0.018160719735524525 -0.060869979766347719 -0.073691086217819418 0.076522453574296823 -0.0083244570548185563 -0.038892425971079336 0.10334384864765418
leaf_weight=10.443677252158521 10.546360870823262 8.6581463012844306 5.5099291019141656 11.688468657433988 6.5648949127644327 9.735430955886839 6.4796398077160147 10.330025613307951 10.569564919918774 6.0600891020148993
leaf_count=76 94 58 41 71 54 46 65 71 64 64
internal_value=0 -0.00575239 0.0103701 -0.0320489 -0.0073465 -0.0213583 0.000438129 0.0243816 -0.00893183 0.0743274
internal_weight=0 86.0399 53.3382 32.7017 41.7681 33.11 23.3746 16.8097 22.258 11.57
internal_count=704 610 399 211 294 236 190 136 135 105
is_linear=0
shrinkage=0.1


Tree=31
num_leaves=12
num_cat=0
split_feature=12 10 10 14 10 4 8 9 4 4 3
split_gain=2.414 2.82878 3.14169 3.5642 2.89457 2.24023 1.66346 3.52882 1.44254 0.561898 0.414389
threshold=0.021971310263235701 134.50000000000003 71.500000000000014 1.5000000000000002 85.500000000000014 -0.016393989865420445 0.20574127063419578 0.16635227468729044 -0.038002331636137247 -0.05918470860640359 0.28393053985634709
decision_type=2 2 2 2 2 2 2 2 2 2 2
left_child=1 2 8 4 -4 -2 7 -6 -1 -5 -11
right_child=5 -3 3 9 6 -7 -8 -9 -10 10 -12
leaf_value=-0.010036104269303667 -0.0022468210290074978 -0.047591912899136245 0.035143583241845598 0.037922144469701907 0.042248716992337725 0.087769104158872402 -0.04647280570390204 -0.043103643400268642 -0.071273502019595536 0.072068533854988334 0.13034505864568852
leaf_weight=8.6699598450213653 5.352615725249052 13.384433783590792 18.415274508297443 2.250950001180172 10.369556553661829 5.7184174750000221 10.861046772450207 9.0902988538146001 6.9147280137985936 2.7194113582372657 2.2132168132811785
leaf_count=57 36 99 97 29 52 66 54 55 47 97 15
internal_value=0 -0.00539885 0.00249898 0.0135648 0.00387209 0.0442483 -0.0151205 0.002378 -0.0372064 0.0793235 0.0982166
internal_weight=0 84.8889 71.5044 55.9198 48.7362 11.071 30.3209 19.4599 15.5847 7.18358 4.93263
internal_count=704 602 503 399 258 102 161 107 104 141 112
is_linear=0
shrinkage=0.1


Tree=32
num_leaves=12
num_cat=0
split_feature=2 9 5 4 0 2 11 11 8 3 8
split_gain=2.0687 6.04352 5.02126 3.06708 2.95169 2.87384 2.69455 3.16328 2.05118 1.99232 0.530005
threshold=0.16446135958033639 0.064136810108073261 0.68064648878342326 -0.063949150526427884 1.4776865795150009 0.27594670298558399 121.50000000000001 74.500000000000014 0.20574127063419578 0.26163404940014684 0.11089812228580312
decision_type=2 2 2 2 2 2 2 2 2 2 2
left_child=2 3 9 5 -4 -2 7 -5 -9 -1 -3
right_child=1 10 4 6 -6 -7 -8 8 -10 -11 -12
leaf_value=-0.027947770995706389 -0.079270674937898772 0.099022006552516542 -0.096283473184742549 -0.014598143019013163 -0.011254144722068 0.0019158891295495009 -0.040586329579178071 0.11720269378211934 0.032267072774909297 0.034000690255335378 0.057054726640053177
leaf_weight=7.8559349589049843 8.4331881813704985 5.0429916419088823 9.3314094338566083 7.6071106456220212 7.2580037564039221 9.0273682754486781 6.1290059704333535 4.9408956356346589 6.6974265929311514 15.30749214813113 7.461938351392746
leaf_count=45 58 42 71 59 46 45 50 58 49 97 84
internal_value=0 0.0128169 -0.0170864 -0.0050384 -0.0590824 -0.037296 0.0171586 0.0355483 0.0683254 0.0129907 0.0739793
internal_weight=0 55.3399 39.7528 42.835 16.5894 17.4606 25.3744 19.2454 11.6383 23.1634 12.5049
internal_count=704 445 259 319 117 103 216 166 107 142 126
is_linear=0
shrinkage=0.1


Tree=33
num_leaves=13
num_cat=0
split_feature=0 1 14 3 6 5 0 4 1 12 0 3
split_gain=2.00837 4.39129 3.31562 4.57921 2.53172 3.27606 2.17146 1.87466 1.80538 0.0111489 0.00216531 0.000227296
threshold=1.6160366336572747 0.47630691565536648 1.5000000000000002 0.29570771748239216 0.031762430609197555 0.56799942517576629 1.3760155392978002 -0.093064652389955232 0.93229731305365982 0.017394402895733803 1.3846652049999468 0.23214589909322494
decision_type=2 2 2 2 2 2 2 2 2 2 2 2
left_child=1 -1 4 9 6 -6 -3 -7 -9 -4 11 -11
right_child=-2 2 3 -5 5 7 -8 8 -10 10 -12 -13
leaf_value=-0.087821955435599675 0.043876243531453626 -0.012137464441952808 0.11389492800040718 -0.055639389711858847 0.064499776655381841 -0.042300035817822712 -0.080411064029038692 0.030332371196147269 -0.018383322119189999 0.10214775690175958 0.10792086581109342 0.10403112567967512
leaf_weight=5.8999765738844863 9.5005430169403535 14.364391475915911 2.0133817791938764 2.4005883112549782 8.2529219426214677 9.96028656885027 6.8944464251399031 16.340449895709764 14.233888529241083 1.3573977593332536 1.4031142909079788 1.2138145444914696
leaf_count=35 53 92 38 17 60 50 59 86 69 68 34 43
internal_value=0 -0.00462222 0.00163619 0.0610495 -0.00547876 0.00707085 -0.0342793 -0.00462178 0.00765277 0.107832 0.104761 0.103037
internal_weight=0 84.3347 78.4347 8.3883 70.0464 48.7875 21.2588 40.5346 30.5743 5.98771 3.97433 2.57121
internal_count=704 651 616 200 416 265 151 205 155 183 145 111
is_linear=0
shrinkage=0.1


Tree=34
num_leaves=10
num_cat=0
split_feature=7 12 11 1 12 1 5 5 8
split_gain=2.06494 3.51495 3.21665 4.12407 2.74358 3.14928 2.51708 3.29354 1.57493
threshold=6.055531070970118 0.020226667742195604 112.50000000000001 0.85637845297022019 0.014336562907991403 1.1329323207816602 0.76803447938246472 0.86946141407728639 0.11306396781771856
decision_type=2 2 2 2 2 2 2 2 2
left_child=4 2 3 -2 -1 6 8 -8 -6
right_child=1 -3 -4 -5 5 -7 7 -9 -10
leaf_value=-0.049558384790571203 0.091134864459843049 0.088605330370068569 -0.042803373575623568 -0.018093377058956174 0.012509937546247688 -0.057937839546498428 0.090296754470177903 0.0062151016481332396 -0.041070259041407653
leaf_weight=13.638021582737563 6.6363579714670831 6.280586668290197 8.9016258325427753 7.2143843108788133 12.315246336162092 7.6545606870204201 7.43409610167146 12.478345231153069 9.8928342908620817
leaf_count=86 53 95 80 54 80 45 65 88 58
internal_value=0 0.0223796 0.00409854 0.0342416 -0.00982094 0.00106684 0.0117898 0.0376061 -0.011358
internal_weight=0 29.033 22.7524 13.8507 63.4131 49.7751 42.1205 19.9124 22.2081
internal_count=704 282 187 107 422 336 291 153 138
is_linear=0
shrinkage=0.1


Tree=35
num_leaves=10
num_cat=0
split_feature=12 2 4 8 2 2 2 7 7
split_gain=1.8232 2.2978 3.09091 3.42361 3.01928 4.33676 3.64756 2.6312 1.74218
threshold=0.022116319055094504 0.16446135958033639 -0.08324103644255379 0.12933305068766551 0.24172765567765572 0.27317487768194798 0.2058186412561244 5.8175418094404625 5.592035476312966
decision_type=2 2 2 2 2 2 2 2 2
left_child=1 2 -1 -4 6 -6 7 -3 -7
right_child=-2 4 3 -5 5 8 -8 -9 -10
leaf_value=0.021555173482589583 0.041057743915496707 -0.05367164505089355 -0.076110577127952966 0.00744074079945343 -0.068773522258124414 0.047448502964813628 0.075522048985626755 0.040420054377848846 -0.01465511470339846
leaf_weight=9.4855121821165103 9.7949390215799195 5.5872053578495997 14.044465694576504 7.535802172496914 9.4617127953097242 8.5804454181343335 11.370461135171352 6.3495296388864517 9.5385496066883189
leaf_count=70 94 42 88 53 82 48 84 62 81
internal_value=0 -0.00459136 -0.0260222 -0.0469346 0.0084916 -0.0139001 0.034989 -0.00362127 0.0147547
internal_weight=0 81.9537 31.0658 21.5803 50.8879 27.5807 23.3072 11.9367 18.119
internal_count=704 610 211 141 399 211 188 104 129
is_linear=0
shrinkage=0.1


Tree=36
num_leaves=11
num_cat=0
split_feature=11 0 0 1 6 12 2 8 4 0
split_gain=1.89129 2.39063 2.69397 6.15311 3.02855 2.40484 3.15954 2.31529 1.15432 1.57176
threshold=55.500000000000007 1.6160366336572747 1.3945553729228743 0.68161248934331453 0.033677012102660907 0.019484953028830552 0.074732506988248612 0.15378093933135473 -0.095920549422037996 1.476257827991369
decision_type=2 2 2 2 2 2 2 2 2 2
left_child=-1 2 3 -2 -4 7 -7 -5 -6 -10
right_child=1 -3 4 5 8 6 -8 -9 9 -11
leaf_value=-0.048072599339812949 0.11968142812952838 0.056183959091329762 -0.070351249238570182 -0.057460524797979119 -0.036559950586491127 -0.027899261085177166 0.079455632509819796 0.0155595386333576 0.036225730104483364 -0.014750904666136664
leaf_weight=7.4383566267788401 5.231021116487681 8.0984254963695985 8.7355605224147421 8.8581002242863232 8.2519792355597001 4.5144490450620633 6.9803109783679247 8.5177903724834305 10.410136971622707 14.43600010499358
leaf_count=62 65 47 77 66 40 22 98 82 65 80
internal_value=0 0.00453622 -0.000971954 0.0198897 -0.0179778 0.00180865 0.0372931 -0.0216655 -0.00415496 0.0066075
internal_weight=0 84.0338 75.9353 34.1017 41.8337 28.8707 11.4948 17.3759 33.0981 24.8461
internal_count=704 642 595 333 262 268 120 148 185 145
is_linear=0
shrinkage=0.1


Tree=37
num_leaves=11
num_cat=0
split_feature=7 12 10 2 9 12 0 2 1 12
split_gain=1.67378 2.9974 2.70309 2.63012 2.09918 2.63055 2.06194 3.11677 1.7467 1.24465
threshold=5.8211336379174785 0.020226667742195604 85.500000000000014 0.30645756161703624 0.064136810108073261 0.019283284742468352 1.476257827991369 0.22914755893257613 1.1329323207816602 0.021634150171072151
decision_type=2 2 2 2 2 2 2 2 2 2
left_child=3 2 -2 4 6 -6 7 -1 -4 -7
right_child=1 -3 8 -5 5 9 -8 -9 -10 -11
leaf_value=-0.054886862152054794 0.048277485187181522 0.082349045819906888 -0.049865724864504461 0.044738951585924551 0.035426660279523632 -0.051583163865538628 -0.072049723961550696 0.039159151280614091 0.023216980344505467 0.0035505589152765534
leaf_weight=8.0369007680565137 8.4105122545734101 6.1099294517189255 9.0025121225044114 7.9344157008454195 12.710757369175555 8.5491605466231722 10.468035474419592 6.2754726605489841 5.1360816983506075 7.8583264164626589
leaf_count=75 56 96 95 40 90 58 48 60 38 48
internal_value=0 0.0202209 0.00338665 -0.00901478 -0.0169279 0.00127784 -0.0383205 -0.013651 -0.0233172 -0.025177
internal_weight=0 28.659 22.5491 61.8331 53.8987 29.1182 24.7804 14.3124 14.1386 16.4075
internal_count=704 285 189 419 379 196 183 135 133 106
is_linear=0
shrinkage=0.1


Tree=38
num_leaves=12
num_cat=0
split_feature=11 0 0 1 3 6 0 6 4 4 1
split_gain=1.58559 2.07776 2.12022 5.06514 4.15126 2.57045 2.44049 1.79595 1.72462 1.02809 1.45231
threshold=55.500000000000007 1.6160366336572747 1.3945553729228743 0.68161248934331453 0.28109703355096366 0.033677012102660907 1.2313090207382111 0.025667703564353755 -0.010473097834234498 -0.095920549422037996 0.93525904793201053
decision_type=2 2 2 2 2 2 2 2 2 2 2
left_child=-1 2 3 -2 6 -4 -5 8 -8 -7 -11
right_child=1 -3 5 4 -6 9 7 -9 -10 10 -12
leaf_value=-0.044608157714650355 0.10997065589440197 0.052771952006836431 -0.065204655464792427 -0.078795789090060075 0.075822899126309989 -0.034021625357845663 -0.094357756277202984 0.025391738232169832 0.006854899164881194 0.028026726232129973 -0.020955471692431019
leaf_weight=7.252422332763671 5.0523737780749789 7.9466712400317183 8.4877281561493856 5.1455709775909844 5.9166297875344744 8.2556507103145105 3.1704756570979988 10.564433526247738 3.5896650534123173 13.937415175139906 10.700517188757656
leaf_count=62 65 47 77 45 34 40 27 88 74 90 55
internal_value=0 0.0041552 -0.00100838 0.0177181 0.00129863 -0.0161407 -0.0183244 -0.00036381 -0.0406134 -0.00348046 0.00675323
internal_weight=0 82.7671 74.8205 33.4391 28.3868 41.3813 22.4701 17.3246 6.76014 32.8936 24.6379
internal_count=704 642 595 333 268 262 234 189 101 185 145
is_linear=0
shrinkage=0.1


Tree=39
num_leaves=12
num_cat=0
split_feature=7 3 4 5 12 1 4 12 3 10 4
split_gain=1.46722 2.97442 3.95322 2.80206 2.11513 2.59096 2.12027 2.97587 1.01074 0.742437 0.623328
threshold=5.8211336379174785 0.2988854832436042 0.0065803127938880513 0.80013836741829081 0.014336562907991403 1.1329323207816602 1.0000000180025095e-35 0.017273678702250102 0.23883914707569728 87.500000000000014 -0.067977222337969781
decision_type=2 2 2 2 2 2 2 2 2 2 2
left_child=4 2 3 -2 -1 6 7 -6 -4 -8 -9
right_child=1 -3 8 -5 5 -7 9 10 -10 -11 -12
leaf_value=-0.044032575010566982 0.011767750001937385 0.07478990609413988 0.094325211523665659 -0.078246085875531002 0.072997878420877876 -0.05337988540639154 -0.048511563623732379 -0.011753559985311744 0.018499191969027183 0.0011411818799903471 0.024727768976058433
leaf_weight=13.150567138567565 7.2808179035782867 7.150778690353035 3.9610151862725607 6.5869916127994657 9.1671747816726583 7.3429550882428876 6.086994541808961 11.036644073203204 3.1606729747727513 5.9600679883733392 8.1363105196505803
leaf_count=86 47 48 82 70 56 44 52 69 38 55 57
internal_value=0 0.0190891 0.000112724 -0.0309874 -0.00852241 0.00126132 0.0111959 0.0261346 0.0606729 -0.0239468 0.0037278
internal_weight=0 28.1403 20.9895 13.8678 60.8807 47.7301 40.3872 28.3401 7.12169 12.0471 19.173
internal_count=704 285 237 117 419 333 289 182 120 107 126
is_linear=0
shrinkage=0.1


Tree=40
num_leaves=11
num_cat=0
split_feature=9 2 5 4 2 5 7 4 10 3
split_gain=1.42504 3.95364 2.48984 2.1123 2.57029 2.25894 3.32876 2.82564 0.949572 0.519113
threshold=0.068381724683853062 0.16983077154878912 0.68064648878342326 -0.065980121519159177 0.27594670298558399 0.93517976991585572 5.8211336379174785 1.0000000180025095e-35 86.500000000000014 0.25012452576835525
decision_type=2 2 2 2 2 2 2 2 2 2
left_child=3 2 8 4 -1 6 7 -5 -2 -3
right_child=1 9 -4 5 -6 -7 -8 -9 -10 -11
leaf_value=-0.074243660881003634 0.040127611835679949 0.046584337587094217 -0.046579291839968569 0.044603434874593402 0.00083112470131969582 -0.045190429203112448 0.080803146571526166 -0.041641440224390702 -0.0027259289669037817 0.091544451041349423
leaf_weight=9.5230466658249515 8.758664105087524 5.5728570753708464 9.5526654943823797 6.6784892082214418 8.7507976833730918 6.8011542214080682 6.5019342228770247 8.8102625552564842 12.622676875442265 4.7628973834216595
leaf_count=75 60 82 74 43 45 56 81 78 78 32
internal_value=0 0.0137564 -0.00413463 -0.0117009 -0.0382926 0.00517651 0.0207537 -0.0044541 0.0148286 0.0673027
internal_weight=0 41.2698 30.934 47.0657 18.2738 28.7918 21.9907 15.4888 21.3813 10.3358
internal_count=704 326 212 378 120 258 202 121 138 114
is_linear=0
shrinkage=0.1


Tree=41
num_leaves=10
num_cat=0
split_feature=12 10 1 12 1 12 9 3 11
split_gain=1.35926 1.50086 3.62685 1.88158 2.40946 2.4688 2.98155 2.80816 2.00806
threshold=0.022116319055094504 134.50000000000003 0.92587262916049518 0.020795918367346903 0.93525904793201053 0.014336562907991403 0.078901681014725569 0.24709450323768573 97.500000000000014
decision_type=2 2 2 2 2 2 2 2 2
left_child=1 3 -3 4 5 -1 7 -7 -6
right_child=-2 2 -4 -5 8 6 -8 -9 -10
leaf_value=-0.014002746220595295 0.036766646536840884 -0.090706361565065924 0.01787327866163492 -0.04464134853030758 -0.048714182980229587 0.060588646210130263 0.082591971860872859 -0.021576197751490115 0.018345159720716951
leaf_weight=12.955033943988381 9.0992190502583963 6.1204526517540199 6.1851907297968864 7.6771541107445946 11.100315264426174 7.2820873167365852 9.9497620621696097 9.700678236782549 7.4706453969702116
leaf_count=99 94 57 44 66 75 85 79 52 53
internal_value=0 -0.00406359 -0.0361309 0.00190308 0.0080156 0.0218683 0.0391229 0.0136555 -0.0217378
internal_weight=0 78.4413 12.3056 66.1357 58.4585 39.8876 26.9325 16.9828 18.571
internal_count=704 610 101 509 443 315 216 137 128
is_linear=0
shrinkage=0.1


Tree=42
num_leaves=13
num_cat=0
split_feature=14 0 0 12 12 12 12 1 11 12 8 0
split_gain=1.30684 4.57222 1.90007 2.1211 1.227 2.06816 1.39934 1.31207 0.976881 0.0124102 0.000431058 7.09966e-05
threshold=1.5000000000000002 1.4964743140361088 1.5791657154430019 0.014336562907991403 0.017351140922569404 0.020062802386699653 0.015783888292158904 0.93229731305365982 92.500000000000014 0.015250850340136001 0.22273163787880013 1.3418173397826021
decision_type=2 2 2 2 2 2 2 2 2 2 2 2
left_child=2 9 3 -1 6 7 -5 -6 -7 -2 11 -11
right_child=1 -3 -4 4 5 8 -8 -9 -10 10 -12 -13
leaf_value=-0.050289105735257161 0.11421809462511814 -0.027533137263700699 0.035663624150793341 -0.0089914151537182248 -0.014052152678040246 -0.013380354971194561 0.046626740794495913 -0.069882298832547318 0.030597494954180321 0.10179373525080315 0.104954774708691 0.10297060904782307
leaf_weight=11.143179180100558 1.5571254855021814 5.5424109175801277 10.305762365460394 9.0219914801418799 9.6468913927674311 10.001234747469427 9.0728174708783609 7.4680462460964909 10.204644270241259 0.92829384934157211 1.019868873991072 1.1446930500678716
leaf_count=77 32 32 64 56 62 66 50 51 59 60 37 58
internal_value=0 0.0338151 -0.00429264 -0.0104793 -0.00247425 -0.0128354 0.0188958 -0.0384135 0.00882993 0.106937 0.103272 0.102444
internal_weight=0 10.1924 76.8646 66.5588 55.4156 37.3208 18.0948 17.1149 20.2059 4.64998 3.09286 2.07299
internal_count=704 219 485 421 344 238 106 113 125 187 155 118
is_linear=0
shrinkage=0.1


Tree=43
num_leaves=11
num_cat=0
split_feature=10 4 12 2 7 12 3 2 5 5
split_gain=1.28474 1.79775 2.53165 2.59182 2.6232 2.55008 1.99125 1.49415 1.14727 1.18361
threshold=65.500000000000014 -0.05068887429686799 0.021634150171072151 0.16446135958033639 4.7167962193022239 0.015005620363200302 0.30466924192154782 0.24172765567765572 0.77120607683120268 0.8659465031963135
decision_type=2 2 2 2 2 2 2 2 2 2
left_child=-1 6 3 -3 -5 -6 8 -7 -2 -10
right_child=1 2 -4 4 5 7 -8 -9 9 -11
leaf_value=-0.033326369019563234 -0.047991398436753881 -0.027950752840345979 0.079161302473186979 -0.024663035257156969 0.10365187891794291 0.06305194848120857 0.025473709648520162 -0.01913029624037875 0.025836848950727156 -0.032699503222947554
leaf_weight=10.106783941388128 12.434387514367701 12.203119752928613 6.0249570608139029 6.1937564369291094 5.9256901126354924 4.1249123690649849 10.56319013610482 4.7710830080322921 6.3090906832367164 7.6339407246559858
leaf_count=83 71 83 82 34 43 47 70 82 53 56
internal_value=0 0.00461831 0.0195222 0.00870529 0.0299905 0.0528294 -0.0112147 0.0189761 -0.0259071 -0.00621235
internal_weight=0 76.1841 39.2435 33.2186 21.0154 14.8217 36.9406 8.896 26.3774 13.943
internal_count=704 621 371 289 206 172 250 129 180 109
is_linear=0
shrinkage=0.1


end of trees

feature_importances:
Column_0=57
Column_3=44
Column_2=41
Column_1=36
Column_4=34
Column_12=34
Column_5=33
Column_8=28
Column_10=27
Column_11=27
Column_14=27
Column_9=18
Column_6=17
Column_7=17
Column_13=12

parameters:
[boosting: gbdt]
[objective: binary]
[metric: binary_logloss]
[tree_learner: serial]
[device_type: cpu]
[data_sample_strategy: bagging]
[data: ]
[valid: ]
[num_iterations: 10000]
[learning_rate: 0.1]
[num_leaves: 31]
[num_threads: 0]
[seed: 482668]
[deterministic: 0]
[force_col_wise: 0]
[force_row_wise: 0]
[histogram_pool_size: -1]
[max_depth: -1]
[min_data_in_leaf: 50]
[min_sum_hessian_in_leaf: 0.001]
[bagging_fraction: 0.8]
[pos_bagging_fraction: 1]
[neg_bagging_fraction: 1]
[bagging_freq: 0]
[bagging_seed: 24237]
[feature_fraction: 0.8]
[feature_fraction_bynode: 1]
[feature_fraction_seed: 9119]
[extra_trees: 0]
[extra_seed: 17531]
[early_stopping_round: 0]
[early_stopping_min_delta: 0]
[first_metric_only: 0]
[max_delta_step: 0]
[lambda_l1: 0]
[lambda_l2: 0]
[linear_lambda: 0]
[min_gain_to_split: 0]
[drop_rate: 0.1]
[max_drop: 50]
[skip_drop: 0.5]
[xgboost_dart_mode: 0]
[uniform_drop: 0]
[drop_seed: 11934]
[top_rate: 0.2]
[other_rate: 0.1]
[min_data_per_group: 100]
[max_cat_threshold: 32]
[cat_l2: 10]
[cat_smooth: 10]
[max_cat_to_onehot: 4]
[top_k: 20]
[monotone_constraints: ]
[monotone_constraints_method: basic]
[monotone_penalty: 0]
[feature_contri: ]
[forcedsplits_filename: ]
[refit_decay_rate: 0.9]
[cegb_tradeoff: 1]
[cegb_penalty_split: 0]
[cegb_penalty_feature_lazy: ]
[cegb_penalty_feature_coupled: ]
[path_smooth: 0]
[interaction_constraints: ]
[verbosity: -1]
[saved_feature_importance_type: 0]
[use_quantized_grad: 0]
[num_grad_quant_bins: 4]
[quant_train_renew_leaf: 0]
[stochastic_rounding: 1]
[linear_tree: 0]
[max_bin: 255]
[max_bin_by_feature: ]
[min_data_in_bin: 3]
[bin_construct_sample_cnt: 200000]
[data_random_seed: 3365]
[is_enable_sparse: 1]
[enable_bundle: 1]
[use_missing: 1]
[zero_as_missing: 0]
[feature_pre_filter: 1]
[pre_partition: 0]
[two_round: 0]
[header: 0]
[label_column: ]
[weight_column: ]
[group_column: ]
[ignore_column: ]
[categorical_feature: ]
[forcedbins_filename: ]
[precise_float_parser: 0]
[parser_config_file: ]
[objective_seed: 16084]
[num_class: 1]
[is_unbalance: 0]
[scale_pos_weight: 1]
[sigmoid: 1]
[boost_from_average: 1]
[reg_sqrt: 0]
[alpha: 0.9]
[fair_c: 1]
[poisson_max_delta_step: 0.7]
[tweedie_variance_power: 1.5]
[lambdarank_truncation_level: 30]
[lambdarank_norm: 1]
[label_gain: ]
[lambdarank_position_bias_regularization: 0]
[eval_at: ]
[multi_error_top_k: 1]
[auc_mu_weights: ]
[num_machines: 1]
[local_listen_port: 12400]
[time_out: 120]
[machine_list_filename: ]
[machines: ]
[gpu_platform_id: -1]
[gpu_device_id: -1]
[gpu_use_dp: 0]
[num_gpu: 1]

end of parameters

pandas_categorical:null
