tree
version=v3
num_class=1
num_tree_per_iteration=1
label_index=0
max_feature_idx=17
objective=binary sigmoid:1
feature_names=Column_0 Column_1 Column_2 Column_3 Column_4 Column_5 Column_6 Column_7 Column_8 Column_9 Column_10 Column_11 Column_12 Column_13 Column_14 Column_15 Column_16 Column_17
feature_infos=[1.2573504687136872:1.9952932361101223] [0.077881925041574901:3.4150107712893245] [-1646.6776231156573:1786.9753826398069] [-0.47820557289860088:0.42811791383219938] [-0.79507032854722426:0.70165903149830455] [0.19011554804521:0.43092557777262308] [-0.50441210510384615:0.24097959183673459] [0.10781690525553971:2.015115901414676] [0.36143571596895141:1.6285321476764898] [2.1653626823492496:2.2963154517607771] [10.28247361013198:11.005539406286918] [-14.742803642661976:8.9501984048142393] [0:13.715743132007686] [0:0.43193980318729891] [0:400] [0:0.0277777777777777] [0:8.3037524155634124] [0:5]
tree_sizes=1648 1669 1649 1666 1675 1667 1672 1676 1680 1673 1664 1674 1682 1679 1671 1667 1685 1671 1680 1668 1684

Tree=0
num_leaves=15
num_cat=0
split_feature=17 16 12 9 3 0 0 0 4 4 0 9 0 3
split_gain=167.364 60.9147 43.7755 17.5248 11.8932 10.9795 10.1758 7.13026 6.72818 6.14059 5.87014 8.91979 9.36593 5.05095
threshold=1.5000000000000002 6.5679980145478085 1.7641486014639502 2.2246332616302156 -0.11400705000327319 1.6887911682869188 1.6281188707447736 1.7290331389816775 0.12891183798888409 1.0000000180025095e-35 1.6409065369871823 2.2239302464840542 1.5500071889399105 -0.11808125290162709
decision_type=2 2 2 2 2 2 2 2 2 2 2 2 2 2
left_child=1 -1 3 7 -4 8 -2 10 9 -6 11 -3 -13 -5
right_child=6 2 4 13 5 -7 -8 -9 -10 -11 -12 12 -14 -15
leaf_value=0.046776338034584364 0.76565716161967423 0.21616779646555401 0.65033669616956602 0.27400878227125081 0.38969075388264451 0.66501384631776161 0.50537272549403822 0.61765228617568513 0.56831732769435539 0.094701726273590414 0.094701726273590359 0.32164253528770698 0.76565716161967412 0.070739032154087389
leaf_weight=28.377442717552185 45.785453796386719 6.915511250495916 19.077272415161133 6.9155112504959133 6.9155112504959124 5.9616476297378531 6.9155112504959098 4.0539203882217398 4.0539203882217398 4.7693181037902832 3.5769885778427115 4.0539203882217407 3.5769885778427124 16.692613363265991
leaf_count=119 192 29 80 29 29 25 29 17 17 20 15 17 15 70
internal_value=0.436383 0.301069 0.384432 0.25021 0.535139 0.433866 0.731502 0.377874 0.34631 0.269287 0.324239 0.380683 0.529774 0.130283
internal_weight=0 114.941 86.5631 45.7855 40.7777 21.7004 52.701 22.1773 15.7387 11.6848 18.1234 14.5464 7.63091 23.6081
internal_count=703 482 363 192 171 91 221 93 66 49 76 61 32 99
is_linear=0
shrinkage=1


Tree=1
num_leaves=15
num_cat=0
split_feature=17 10 8 8 1 14 14 3 15 15 2 10 9 2
split_gain=114.048 37.3644 25.2243 11.6152 10.5798 10.1279 18.1611 12.2617 7.4438 7.18037 5.3179 4.96463 6.82443 4.42245
threshold=1.5000000000000002 10.936597110498079 0.82995942263926015 0.55607162471016525 0.8368551546505032 57.500000000000007 115.50000000000001 0.017629791941953302 0.017510063172778603 0.015349123980076351 -364.09303104049405 10.918447554768093 2.2245004356649991 -135.04708720802117
decision_type=2 2 2 2 2 2 2 2 2 2 2 2 2 2
left_child=1 2 3 -1 5 -3 7 9 10 -7 -4 12 -2 -5
right_child=11 4 8 13 -6 6 -8 -9 -10 -11 -12 -13 -14 -15
leaf_value=0.23774129395488305 -0.092292662853933949 -0.38494107608767592 -0.42584453759790097 -0.066295586520644365 -0.34831683819807924 0.074806041286302555 -0.35234585318328882 0.33350712696984053 0.060129968671610169 -0.29661393235503597 -0.173539064254846 0.29369286477624323 0.24998263785403707 0.083062534487132716
leaf_weight=12.829195305705069 3.4482810199260694 5.9693029373884228 4.2179127633571687 15.068545028567316 21.242792934179306 4.8599438518285769 6.7442325204610816 4.1961937397718421 4.4320842474699012 3.6423413753509521 16.082645803689957 37.77170068025589 7.1856602430343628 16.73854623734951
leaf_count=56 15 24 17 63 86 20 27 18 19 15 66 174 32 71
internal_value=0 -0.105754 -0.0126749 0.0770987 -0.244149 -0.157071 -0.0871102 0.053758 -0.174694 -0.0843086 -0.225961 0.259708 0.138993 0.0123044
internal_weight=0 116.024 69.3689 44.6363 46.6548 25.412 19.4427 12.6985 24.7326 8.50229 20.3006 48.4056 10.6339 31.8071
internal_count=703 482 292 190 190 104 80 53 102 35 83 221 47 134
is_linear=0
shrinkage=0.2


Tree=2
num_leaves=15
num_cat=0
split_feature=17 5 11 14 9 0 9 9 14 11 10 9 14 9
split_gain=80.7523 30.2722 17.9799 10.7592 7.81292 7.79037 5.5939 8.0785 5.69676 4.11842 7.04727 4.00251 3.3513 3.3147
threshold=1.5000000000000002 0.28678252567712187 1.9001967592592595 55.500000000000007 2.2246203137240097 1.6281188707447736 2.2351749222928405 2.2250330806391911 91.500000000000014 1.6107475778133593 10.94492146959349 2.2228028139748566 94.500000000000014 2.2425300812920237
decision_type=2 2 2 2 2 2 2 2 2 2 2 2 2 2
left_child=1 4 3 -3 11 -2 7 8 -5 10 -6 -1 -12 -8
right_child=5 2 -4 6 9 -7 13 -9 -10 -11 12 -13 -14 -15
leaf_value=-0.16678743509493679 0.27042293392644295 -0.24255548262391149 -0.2276000737372503 0.20814709480107788 0.028325081470450209 0.033534226525760324 0.22663142833048294 -0.15740852982976741 -0.048708901789868649 -0.28325782106450847 -0.16023076889577548 0.045312510620111393 -0.35061786908915465 0.040873013510331561
leaf_weight=6.7886569648981077 36.905522167682648 3.9185467809438697 9.5657139718532544 9.3152734190225619 5.7068735957145718 6.5365502089262 15.08564315736294 6.3057550191879264 5.489129811525344 23.529382959008217 9.967369005084036 7.4803184866905212 5.8799513578414908 5.1556223034858695
leaf_count=28 192 16 39 40 24 29 69 27 23 96 41 32 24 23
internal_value=0 -0.0855978 0.0215368 0.0741803 -0.184579 0.234779 0.104195 0.0321645 0.112911 -0.225402 -0.162244 -0.0555969 -0.230872 0.179317
internal_weight=0 114.188 54.8357 45.27 59.3526 43.4421 41.3514 21.1102 14.8044 45.0836 21.5542 14.269 15.8473 20.2413
internal_count=703 482 237 198 245 221 182 90 63 185 89 60 65 92
is_linear=0
shrinkage=0.2


Tree=3
num_leaves=15
num_cat=0
split_feature=17 8 6 0 7 0 8 0 15 6 4 8 15 14
split_gain=58.4676 15.419 12.2316 8.95558 8.43234 8.13085 7.62944 6.96415 6.73447 5.33005 6.02517 5.18143 4.45787 4.24407
threshold=1.5000000000000002 0.84345028632632746 0.066244754269300724 1.563335117346262 1.4058475195315145 1.7097653311245382 0.5318907503296465 1.6603087717344407 0.016821148703589153 0.051760368910885708 0.023738168442916204 0.76681292173266036 0.011547025966183502 98.500000000000014
decision_type=2 2 2 2 2 2 2 2 2 2 2 2 2 2
left_child=1 3 5 4 11 -3 -5 -2 9 10 -8 -1 -12 -14
right_child=7 2 -4 6 -6 -7 8 -9 -10 -11 12 -13 13 -15
leaf_value=-0.19830232552609428 0.24977514963546429 -0.2429706392896161 0.1066030436743059 0.23878353898751717 0.1278095508075664 0.013484078951395709 0.2312935417863177 0.0034489048472991892 0.18446387444883222 -0.22587914656346891 -0.24896714432634304 0.013390807095107163 0.1037194991958441 -0.161677347479874
leaf_weight=17.834202915430076 33.123696759343147 32.338293626904488 5.8590614944696418 7.3018382787704459 5.6641133576631537 5.8377991765737525 3.8374776542186835 5.3296940177679053 6.859672635793685 4.9207241088151923 3.4496204257011405 6.2440706342458716 7.0141397416591627 3.671928808093071
leaf_count=77 197 137 25 36 25 26 17 24 31 21 15 26 31 15
internal_value=0 -0.0705833 -0.16246 -0.0100155 -0.0917553 -0.203754 0.0555927 0.215634 0.0106357 -0.0414483 0.00904554 -0.143405 -0.0512891 0.0125243
internal_weight=0 110.833 44.0352 66.7978 29.7424 38.1761 37.0554 38.4534 29.7536 22.8939 17.9732 24.0783 14.1357 10.6861
internal_count=703 482 188 294 128 163 166 221 130 99 78 103 61 46
is_linear=0
shrinkage=0.2


Tree=4
num_leaves=15
num_cat=0
split_feature=14 14 3 1 1 14 1 12 1 15 15 9 14 14
split_gain=15.6562 9.81781 8.96679 6.97684 6.50569 8.79728 7.76655 5.80585 7.49406 5.4896 5.07385 3.50272 5.54678 4.45244
threshold=57.500000000000007 181.50000000000003 -0.022261811526483998 0.8961288247461795 0.72674530694732853 75.500000000000014 0.50040837358209689 5.0733830852811197 1.1766160768826091 0.014512774682241252 0.010216586634653801 2.2199728916017478 103.50000000000001 125.00000000000001
decision_type=2 2 2 2 2 2 2 2 2 2 2 2 2 2
left_child=-1 2 4 -4 6 -6 -2 8 11 -3 -8 -7 -13 -14
right_child=1 9 3 -5 5 7 10 -9 -10 -11 -12 12 13 -15
leaf_value=-0.18797264501604885 -0.088967176952564189 -0.25260557152177449 0.023987441281446312 -0.20016380673113787 -0.18661177371936111 0.19410996805621525 -0.098899725125126153 0.24853105153367638 -0.14286552568208447 0.047755135657861811 0.21379327605494913 0.098602171497234228 -0.19141207735872376 0.074866766767480192
leaf_weight=15.243639186024664 4.7992565333843258 7.3929668664932233 13.539010345935823 9.4182203114032728 6.4925977736711493 7.580363765358924 2.2677097618579891 5.8168687820434561 7.7721484601497641 3.6285975873470306 24.512406155467033 22.665978953242302 5.92311744391918 4.3612659871578217
leaf_count=71 22 34 70 44 30 50 11 30 36 17 133 108 26 21
internal_value=0 0.0266108 0.0438712 -0.0679708 0.0717216 0.0333728 0.145327 0.0597637 0.0370314 -0.153719 0.187315 0.0715284 0.043328 -0.078492
internal_weight=0 126.171 115.149 22.9572 92.1917 60.6123 31.5794 54.1197 48.3029 11.0216 26.7801 40.5307 32.9504 10.2844
internal_count=703 632 581 114 467 301 166 271 241 51 144 205 155 47
is_linear=0
shrinkage=0.2


Tree=5
num_leaves=15
num_cat=0
split_feature=17 5 2 13 4 8 1 3 8 8 5 1 5 8
split_gain=38.4941 14.2809 13.3347 8.78635 8.10617 7.54238 9.00185 7.35959 4.06178 4.86898 3.38509 3.19052 4.92273 2.83694
threshold=1.5000000000000002 0.28678252567712187 417.06277785064793 0.19550689405817853 0.040878541053061705 0.81059570353551991 0.98165715817960808 -0.072807029662565928 0.92987149300643168 1.1088168703980825 0.29570771748239216 1.0029282951834457 0.30280541457397059 0.97855519347931141
decision_type=2 2 2 2 2 2 2 2 2 2 2 2 2 2
left_child=1 2 5 4 8 6 -1 11 -3 13 -2 12 -6 -10
right_child=10 3 -4 -5 7 -7 -8 -9 9 -11 -12 -13 -14 -15
leaf_value=0.017175879449569442 0.22264578593999068 -0.26839206132597931 0.22360552258941443 0.14448817885185891 -0.062364348325765796 -0.23872832620253176 -0.21660887683807714 -0.16277500701475675 -0.089730402653871597 -0.23319117077237461 0.041203952340929613 0.27997827382270513 0.24239015194223457 0.16301287206447945
leaf_weight=15.370624765753748 27.152842536568642 5.8373558074235943 4.0185561776161185 15.830429196357725 4.9599341899156553 23.158433526754379 11.530053704977034 4.3783635646104839 3.5143916606903058 4.2198581993579865 4.8471965342760077 4.2197801768779746 3.7030233591794968 3.5922245681285858
leaf_count=68 196 25 18 85 21 106 53 19 15 19 25 19 18 16
internal_value=0 -0.0555883 -0.12692 0.0211683 -0.0355408 -0.155058 -0.0830279 0.0612366 -0.132867 -0.0630207 0.195162 0.13737 0.0679044 0.0380253
internal_weight=0 104.333 54.0777 50.2554 34.4249 50.0591 26.9007 17.2611 17.1638 11.3265 32 12.8827 8.66296 7.10662
internal_count=703 482 245 237 152 227 121 77 75 50 221 58 39 31
is_linear=0
shrinkage=0.2


Tree=6
num_leaves=15
num_cat=0
split_feature=2 9 13 4 9 11 2 6 8 8 9 4 15 4
split_gain=10.9987 7.24977 8.18909 6.19917 5.46308 4.65057 3.97076 4.82071 3.46037 4.36975 5.751 3.3905 4.57128 4.04218
threshold=397.10696641187951 2.2246332616302156 0.19247578689168013 0.17559410100879944 2.2246203054892573 1.6591585332213976 -161.79409114873428 -0.069773387230754477 0.86066377265653904 0.76681292173266036 2.2380739093987323 -0.099698799033372684 0.011105543407839301 0.052255956816767556
decision_type=2 2 2 2 2 2 2 2 2 2 2 2 2 2
left_child=1 4 8 11 5 -1 -7 -8 9 10 -3 -4 -13 -14
right_child=-2 2 3 -5 -6 6 7 -9 -10 -11 -12 12 13 -15
leaf_value=0.083030007714889775 0.16479601649684911 -0.19118928315584216 -0.16385128571099425 0.25870703610044793 0.21279248543927123 -0.1837305243327203 -0.18688621929738897 0.13873076362811207 -0.16031925019822038 0.057660546306906757 0.058605904200778797 0.23357415925150149 0.10455302533029953 -0.12947344947775649
leaf_weight=18.593254722654819 14.891722798347471 11.799620412290102 4.3225115090608659 4.2599753141403189 6.8605744093656531 6.5299112722277632 2.7790322452783576 5.2628526687622061 22.478029936552048 9.2048297822475416 5.3619820848107329 3.6103748083114615 5.4027794897556287 6.5087129324674606
leaf_count=103 107 58 20 28 34 31 14 28 116 56 29 19 28 32
internal_value=0 -0.0180628 -0.0555914 0.0397977 0.050335 0.0167288 -0.06787 0.0262074 -0.102665 -0.0535136 -0.113143 -0.00719536 0.03643 -0.0233244
internal_weight=0 112.974 72.9488 24.1044 40.0256 33.1651 14.5718 8.04188 48.8445 26.3664 17.1616 19.8444 15.5219 11.9115
internal_count=703 596 386 127 210 176 73 42 259 143 87 99 79 60
is_linear=0
shrinkage=0.2


Tree=7
num_leaves=15
num_cat=0
split_feature=17 16 12 10 12 15 10 10 1 8 8 6 8 1
split_gain=25.2711 8.47568 7.35861 5.07609 4.79409 4.47721 4.47091 4.63876 4.27321 4.77228 3.8595 3.37883 3.16216 3.45937
threshold=1.5000000000000002 6.5679980145478085 1.762796712368581 10.946684053851007 1.7724403856575957 0.011547025966183502 10.918447554768093 10.311705402797312 0.72674530694732853 0.86710415261965179 0.56540051475231645 -0.21976303591995072 0.90422139566169868 1.0174278686599834
decision_type=2 2 2 2 2 2 2 2 2 2 2 2 2 2
left_child=1 -1 5 4 -4 -3 7 -2 9 -7 -6 -5 13 -10
right_child=6 2 3 11 10 8 -8 -9 12 -11 -12 -13 -14 -15
leaf_value=-0.15065281690800569 0.17893612782374896 -0.20368536443700355 0.30621889837192229 0.082487550285471459 0.16329560122185238 0.27240367970442309 0.22941455610792116 -0.12829928005192756 -0.11332084835455301 -0.02513584629075067 -0.012908738356988574 -0.17080229193646376 -0.25692411870940723 0.06410345535766139
leaf_weight=22.997390419244766 4.7312300875782984 7.9058729261159888 3.9992401450872448 3.4750813394784927 9.0453898906707781 3.2677340209484083 18.561515524983406 3.3629234284162521 12.531541794538503 6.3392104208469391 11.042336091399191 5.3497093766927701 3.5314831286668769 6.7707162499427787
leaf_count=119 29 38 20 20 57 16 174 18 56 29 53 25 17 32
internal_value=0 -0.0447291 -0.0114773 0.0587049 0.106247 -0.0687268 0.175325 0.0512873 -0.0358371 0.0760701 0.0664351 -0.0710602 -0.0829204 -0.0510851
internal_weight=0 96.2557 73.2583 32.9118 24.087 40.3466 26.6557 8.09415 32.4407 9.60694 20.0877 8.82479 22.8337 19.3023
internal_count=703 482 363 175 130 188 221 47 150 45 110 45 105 88
is_linear=0
shrinkage=0.2


Tree=8
num_leaves=15
num_cat=0
split_feature=3 2 1 1 14 11 16 12 16 3 2 6 11 3
split_gain=6.80665 5.96786 4.43917 4.40121 6.37588 4.05364 3.84884 7.10507 3.76795 2.90744 2.86773 2.63814 2.88974 2.87193
threshold=-0.053080724315592694 385.22167385836934 0.43713676342718549 0.72674530694732853 138.50000000000003 1.6684150761163334 6.8521973113595775 1.7621632932051154 7.4960473981906324 -0.084475761875575442 -334.74515135448047 0.051760368910885708 -3.285883218642395 -0.099441398635477532
decision_type=2 2 2 2 2 2 2 2 2 2 2 2 2 2
left_child=1 2 -1 4 -4 11 10 8 -8 -7 -2 12 -5 -14
right_child=6 -3 3 5 -6 9 7 -9 -10 -11 -12 -13 13 -15
leaf_value=-0.20179285629107638 -0.2374489555991211 0.20081033012169841 0.15661754802819058 0.19715270468134519 -0.19179305337900479 -0.14292101456023473 -0.16137316181465733 0.24779852189931739 0.10402071772725852 0.076550065401564393 -0.074299726557999268 -0.08778146299048728 -0.011509054201939709 0.16444437741496093
leaf_weight=3.4532157331705085 5.4038179516792324 8.0966549515724164 16.453918635845188 5.1967122331261626 2.4084932357072821 10.670955292880533 6.2374299243092519 3.987670272588729 3.2573282569646835 3.1204882562160483 21.281052850186825 5.5794540271162978 15.656430803239347 4.8631014823913636
leaf_count=17 31 79 108 30 14 57 36 28 19 18 123 29 82 32
internal_value=0 0.0385719 0.0190833 0.0310104 0.11213 -0.00292629 -0.0633324 0.0237654 -0.0703256 -0.0932629 -0.107338 0.0368834 0.063931 0.0301917
internal_weight=0 75.4994 67.4028 63.9496 18.8624 45.0871 40.1673 13.4824 9.49476 13.7914 26.6849 31.2957 25.7162 20.5195
internal_count=703 466 387 370 122 248 237 83 55 75 154 173 144 114
is_linear=0
shrinkage=0.2


Tree=9
num_leaves=15
num_cat=0
split_feature=17 14 16 9 0 0 6 16 4 4 16 9 0 4
split_gain=17.5591 5.57513 6.24704 4.9175 4.2389 3.30548 2.82515 2.77013 2.6199 4.55761 2.44843 3.03831 5.157 2.41931
threshold=2.5000000000000004 57.500000000000007 1.0000000180025095e-35 2.2064630096019013 1.7865445024961109 1.4015060295433204 -0.091115736273413142 7.4960473981906324 -0.054210006925755637 0.047054716213934401 7.1102641163278522 2.2325943804778468 1.5686840074507471 0.077997703934483464
decision_type=2 2 2 2 2 2 2 2 2 2 2 2 2 2
left_child=1 -1 8 -2 5 -4 10 -8 -3 -10 11 -7 -13 -12
right_child=3 2 4 -5 -6 6 7 -9 9 -11 13 12 -14 -15
leaf_value=-0.16595012413117924 -0.20697619212504348 -0.25728996282386141 -0.1817999890883347 0.22429043162505177 0.22839267949708375 0.12365946785033866 0.022833676515155197 0.18031267125741229 0.032302429710820674 -0.28440085867819276 -0.28093624896165054 -0.18512362155471113 0.12552332894803531 -0.058505260126189507
leaf_weight=10.708962947130201 1.1365462243557001 4.8070936352014533 3.7919101342558852 15.221306048333643 3.4027354419231406 5.5982428342103914 34.730916276574142 5.1276673451066008 5.5437485054135305 2.7041600272059441 2.7402340322732908 5.4841935932636243 3.5029224306344986 6.8341743052005768
leaf_count=62 5 30 21 178 23 28 187 30 29 15 14 26 19 36
internal_value=0 -0.030023 -0.0127491 0.194326 0.0105664 -0.000364209 0.0103825 0.0430928 -0.139931 -0.0715319 -0.0435826 0.00800258 -0.0640423 -0.122166
internal_weight=0 94.977 84.268 16.3579 71.213 67.8103 64.0184 39.8586 13.055 8.24791 24.1598 14.5854 8.98712 9.57441
internal_count=703 520 458 183 384 361 340 217 74 44 123 73 45 50
is_linear=0
shrinkage=0.2


Tree=10
num_leaves=15
num_cat=0
split_feature=2 9 1 3 0 8 2 3 0 0 9 4 8 1
split_gain=4.05212 3.47826 6.49745 4.31983 4.20663 3.91016 2.97827 3.61645 3.36756 2.43372 2.41737 4.5321 3.70045 2.20239
threshold=417.06277785064793 2.2246332665494464 0.43713676342718549 -0.067968029241614228 1.700012905780284 0.6222643574829696 -161.79409114873428 -0.10110540825761859 1.7033276287869887 1.6419120409366557 2.2381556448517355 -0.099698799033372684 0.84345028632632746 0.72674530694732853
decision_type=2 2 2 2 2 2 2 2 2 2 2 2 2 2
left_child=1 2 -1 5 -5 -3 7 8 -4 -2 -7 -12 -13 -8
right_child=9 3 6 4 -6 10 13 -9 -10 -11 11 12 -14 -15
leaf_value=-0.32810709489143353 0.17383197747328402 0.1036068972384753 -0.17532488239671612 -0.13094097694927109 0.11815331174006238 -0.10170517295802013 0.19964441220651041 0.11065623902986309 0.08280829532436039 -0.075911792089125685 -0.13417417838756115 0.2533875498701032 -0.038503857134849072 0.057587637891603961
leaf_weight=1.8184424638748158 7.9322565943002683 11.308799572288988 5.885027736425398 22.640834346413616 3.080878034234046 12.116375513374807 7.319663085043433 6.3462537713348857 3.0793494284152985 1.9431138560175893 4.3418684750795364 3.9657284095883352 3.0916694030165672 10.816429764032362
leaf_count=9 93 73 29 152 21 70 53 38 16 11 23 28 18 69
internal_value=0 -0.00986243 0.0400689 -0.038945 -0.101105 0.00696723 0.060086 -0.00486874 -0.0866537 0.124691 -0.0395073 0.0266033 0.125517 0.114921
internal_weight=0 95.8113 35.2652 60.5462 25.7217 34.8244 33.4467 15.3106 8.96438 9.87537 23.5156 11.3993 7.0574 18.1361
internal_count=703 599 214 385 173 212 205 83 45 104 139 69 46 122
is_linear=0
shrinkage=0.2


Tree=11
num_leaves=15
num_cat=0
split_feature=11 7 9 7 3 3 2 5 5 4 2 9 2 5
split_gain=3.88724 3.31489 3.59338 4.53481 4.18595 2.96386 2.74493 2.43663 3.63299 3.52567 3.46702 2.28206 2.4225 3.73403
threshold=-4.4724025100795801 1.4761478271047324 2.2246651021957375 1.2661505377467452 -0.037350592719403643 -0.10246960433486164 -334.74515135448047 0.28744063122970454 0.24240383531847451 0.046375670623922706 -123.80785606987921 2.2263768835241309 -236.67482393117476 0.28678252567712187
decision_type=2 2 2 2 2 2 2 2 2 2 2 2 2 2
left_child=-1 2 3 4 5 7 -4 8 10 -9 -2 -8 13 -13
right_child=1 -3 6 -5 -6 -7 11 9 -10 -11 -12 12 -14 -15
leaf_value=0.21780016182302409 -0.18972676263306829 0.13715960242291544 -0.13746292245163019 -0.13939045701780198 -0.087526753603735991 0.18343351692526777 -0.16647925055693241 -0.053100241820596694 -0.19087010877987268 0.19733658467287535 0.20714830963921249 -0.075972529097257477 -0.031374236294474056 0.24123006761106108
leaf_weight=3.2468261010944834 1.266338229179383 6.182724814862012 10.850439533591269 5.3058825097978106 6.2752486541867247 9.5468166545033473 4.1123735979199401 3.4455168396234495 3.4760303907096386 6.4726340845227242 2.8893943801522273 2.5845401883125296 32.600740101188421 3.4875200539827347
leaf_count=24 6 40 78 29 38 91 25 18 21 37 36 19 220 21
internal_value=0 -0.00461461 -0.01411 0.032357 0.0596635 0.0937508 -0.0476184 0.0449651 -0.0399902 0.110336 0.0862122 -0.0248335 -0.00977128 0.106214
internal_weight=0 98.4962 92.3135 38.6779 33.372 27.0967 53.6356 17.5499 7.63176 9.91815 4.15573 42.7852 38.6728 6.07206
internal_count=703 679 639 276 247 209 363 118 63 55 42 285 260 40
is_linear=0
shrinkage=0.2


Tree=12
num_leaves=15
num_cat=0
split_feature=10 10 3 9 14 13 10 3 14 3 3 6 7 9
split_gain=3.35073 4.28281 3.58303 3.01506 2.49127 2.2341 2.91492 4.5134 2.32708 2.07908 3.1717 1.84815 3.35904 4.05217
threshold=10.956103122233754 10.94492146959349 0.023836489550775306 2.2484480888145164 112.50000000000001 0.074697999968537973 10.311890360148398 -0.11400705000327319 121.50000000000001 0.017629791941953302 -0.067968029241614228 0.056649898019927356 1.0513199608797772 2.2246332665494464
decision_type=2 2 2 2 2 2 2 2 2 2 2 2 2 2
left_child=1 2 3 5 9 11 7 -7 -9 10 -3 12 13 -1
right_child=-2 4 -4 -5 -6 6 -8 8 -10 -11 -12 -13 -14 -15
leaf_value=0.11219216641827293 0.16710944374365569 0.038898817994573787 -0.16639791445444937 -0.21583100876233999 -0.19153387980590034 0.16509973333884856 0.1453551158468073 -0.20856299376563758 0.016868751805587258 0.09195296728329988 -0.173668275210629 0.10631360289822021 -0.079211679705523341 -0.082907937301058318
leaf_weight=12.438655003905298 4.7046926431357852 4.9173133447766304 4.0144044682383528 1.9702543318271626 6.1987843140959731 4.6096419617533684 13.523849997669457 3.4026308655738848 3.9672011658549309 3.5892701111733905 6.5448029860854167 6.2730294205248347 15.949016187340019 6.4748767688870421
leaf_count=94 50 32 24 12 45 37 116 18 20 27 43 36 110 39
internal_value=0 -0.00585339 0.0172547 0.0280005 -0.0848266 0.0352096 0.0817176 0.00987602 -0.0872125 -0.0408801 -0.0824758 0.00637553 -0.0116069 0.0454014
internal_weight=0 93.8737 72.6236 68.6092 21.2502 66.6389 25.5033 11.9795 7.36983 15.0514 11.4621 41.1356 34.8625 18.9135
internal_count=703 653 506 482 147 470 191 75 38 102 75 279 243 133
is_linear=0
shrinkage=0.2


Tree=13
num_leaves=15
num_cat=0
split_feature=15 7 12 2 16 7 14 15 14 3 14 14 7 2
split_gain=4.43797 3.11788 4.92773 3.09498 3.91414 3.34601 3.84553 3.43663 2.65604 2.55878 2.65074 2.49022 2.51629 3.00296
threshold=0.014662916448630652 0.88687709165315354 1.7721530197222524 397.10696641187951 7.5400788855512735 1.3280134146098346 150.50000000000003 0.013293125892332202 62.500000000000007 -0.052900898921660146 111.50000000000001 85.500000000000014 0.99697514844340929 -463.70388932934588
decision_type=2 2 2 2 2 2 2 2 2 2 2 2 2 2
left_child=3 2 -2 4 5 6 7 9 -3 -1 -11 -10 -13 -14
right_child=1 8 -4 -5 -6 -7 -8 -9 11 10 -12 12 13 -15
leaf_value=0.039445303727416794 -0.151972349234888 -0.093533305662727134 0.16975712893274336 0.111827212106895 0.17409277419777131 0.043180412981271468 -0.23268834698927152 -0.16359805014177128 0.21077997304019824 -0.17315494858657149 0.018819800315530179 0.20882446258233223 -0.16834373362312149 0.074115820963575579
leaf_weight=13.18262124806642 5.8623630963265878 2.8308175504207638 2.8203966543078423 5.4340234436094752 3.0312211439013472 10.067820142954586 6.0518855154514304 9.2766144238412362 7.1210166513919857 6.5698978975415283 5.1183402687311172 4.0552767757326391 2.5073233358562037 11.040732346475117
leaf_count=83 40 21 22 51 24 63 45 55 68 43 40 39 16 93
internal_value=0 0.0570424 -0.0474659 -0.0319587 -0.0466184 -0.0599277 -0.0857509 -0.0597095 0.0899735 -0.0209599 -0.0890882 0.110984 0.070614 0.0292441
internal_weight=0 36.2379 8.68276 58.7324 53.2984 50.2672 40.1994 34.1475 27.5552 24.8709 11.6882 24.7243 17.6033 13.5481
internal_count=703 299 62 404 353 329 266 221 237 166 83 216 148 109
is_linear=0
shrinkage=0.2


Tree=14
num_leaves=15
num_cat=0
split_feature=17 0 0 7 1 14 0 7 2 15 0 8 1 2
split_gain=11.3568 3.82189 3.54562 2.89505 2.00487 2.5308 3.17963 2.51494 2.3589 2.46271 2.34573 2.17613 1.95537 1.78781
threshold=2.5000000000000004 1.6603087717344407 1.4068688199147343 1.4761478271047324 0.93297200959668602 118.50000000000001 1.4505789266554265 1.1041442256088876 -334.74515135448047 0.018195779914529853 1.7055093438098534 0.58109972855479797 1.0199987161431676 -201.05645757337217
decision_type=2 2 2 2 2 2 2 2 2 2 2 2 2 2
left_child=2 -2 12 4 5 6 -4 -7 -8 13 11 -6 -1 -10
right_child=1 -3 3 -5 10 7 8 -9 9 -11 -12 -13 -14 -15
leaf_value=-0.27465981688420421 0.22252397269392388 -0.18860407611115085 0.22486846025008106 0.127577330032206 0.059801199982399959 -0.2328579066122162 -0.11637756551320307 -0.0089115801628937858 -0.11748107986623227 0.16037412015289537 0.11039460655763036 -0.12006741598654509 -0.043514661387361896 0.027618880129349738
leaf_weight=3.3489273339509955 10.539226416498419 0.98935126513242799 2.8804600313305846 5.4198546968400469 3.1638876460492673 3.3524080179631692 5.3126860409974972 4.9938188605010509 4.1078684553503981 4.7420209720730773 2.5362442433834067 17.98202008754015 2.600835919380188 19.61742560192944
leaf_count=22 177 6 15 37 20 22 38 35 24 32 15 111 22 127
internal_value=0 0.187242 -0.0250739 -0.0131481 -0.024252 0.000533733 0.0231628 -0.0988635 0.00596313 0.0287948 -0.071356 -0.0931552 -0.173619 0.00249584
internal_weight=0 11.5286 80.0585 74.1087 68.6888 45.0067 36.6605 8.34623 33.78 28.4673 23.6822 21.1459 5.94976 23.7253
internal_count=703 183 520 476 439 293 236 57 221 183 146 131 44 151
is_linear=0
shrinkage=0.2


Tree=15
num_leaves=15
num_cat=0
split_feature=17 11 9 9 10 4 4 10 5 8 7 7 10 10
split_gain=8.82858 2.75134 2.55338 2.44294 2.26009 3.29508 4.3726 3.1065 3.65877 3.99161 4.89166 1.5796 2.9513 2.15028
threshold=2.5000000000000004 -4.456897998167908 2.2064630096019013 2.2484480888145164 10.311705402797312 0.046375670623922706 -0.023002092827796496 10.311885734328229 0.31270399587532194 0.97855519347931141 1.2046108878850512 0.83088709941739991 10.951182000747517 10.94492146959349
decision_type=2 2 2 2 2 2 2 2 2 2 2 2 2 2
left_child=1 -1 -2 4 5 6 -3 -6 11 10 -10 12 -9 -13
right_child=2 3 -4 -5 7 -7 -8 8 9 -11 -12 13 -14 -15
leaf_value=0.15887947534420721 -0.11180915663487596 0.092824608447322807 0.21639054195275997 -0.22445801156647838 -0.26194593124847315 0.096352153842903701 -0.2100865775014964 -0.26259464511828051 -0.17029549812658606 0.28561758617903865 0.21752018923024641 -0.0023282398581374784 0.03436922876440645 -0.10350830791045547
leaf_weight=3.2635923475027075 1.0639010369777668 3.5577147267758846 8.7186706904321891 2.466358393430709 2.4962846189737311 12.795744374394415 4.1063677072525051 3.6740666553378096 3.163341172039507 2.7457915470004082 2.2097519971430302 21.63374438136816 2.1059561595320702 13.736279632896183
leaf_count=26 5 23 178 17 15 82 22 26 22 14 25 132 14 102
internal_value=0 -0.0208698 0.180697 -0.0287239 -0.0220399 0.0342353 -0.0694733 -0.0442822 -0.033254 0.0894469 -0.0108014 -0.0574628 -0.154396 -0.0416225
internal_weight=0 77.955 9.78257 74.6914 72.225 20.4598 7.66408 51.7652 49.2689 8.11888 5.37309 41.15 5.78002 35.37
internal_count=703 520 183 494 477 127 45 350 335 61 47 274 40 234
is_linear=0
shrinkage=0.2


Tree=16
num_leaves=15
num_cat=0
split_feature=5 10 3 5 5 1 6 6 16 6 14 5 16 3
split_gain=2.23519 2.56952 2.82058 2.20517 1.61559 3.85757 2.02262 2.12853 3.2811 1.5543 1.56692 1.4181 1.25858 1.85572
threshold=0.21474992592361683 10.956103122233754 -0.021012623385136597 0.22545058744895258 0.23294019083724701 1.0422424084805539 -0.12251663530002259 -0.14650925035381843 6.8521973113595775 -0.12458879510921263 104.50000000000001 0.22116357849373366 7.5207645301283312 -0.11400705000327319
decision_type=2 2 2 2 2 2 2 2 2 2 2 2 2 2
left_child=-1 2 4 -4 5 11 7 8 -6 -5 -11 -2 13 -8
right_child=1 -3 3 9 6 -7 12 -9 -10 10 -12 -13 -14 -15
leaf_value=-0.22588464844704467 -0.0078169114799388068 0.18961035139614493 0.09952647472526098 -0.030765596063335145 0.1210058754197284 -0.14016607473995465 0.056644523690753949 -0.20847867240218829 -0.11644935457649307 -0.24813957399168338 -0.067298449931805615 0.18594982634092708 0.14028056045464055 -0.035761863784865004
leaf_weight=1.6926970947533835 1.9096474647521953 2.9488378856331101 2.4753779508173492 6.1997378468513498 3.9530273526906949 2.3842586129903784 19.24875136278569 3.1397974677383891 5.6609536707401276 4.1805449686944458 3.5388647988438606 7.2335796523839235 3.5247384645044795 15.851812029257422
leaf_count=15 17 45 23 51 48 30 139 21 35 33 27 83 31 105
internal_value=0 0.00629355 -0.000523145 -0.0744085 0.0187326 0.086399 0.00355091 -0.0655065 -0.0188137 -0.105341 -0.165235 0.14548 0.0263531 0.0149128
internal_weight=0 82.2499 79.3011 16.3945 62.9066 11.5275 51.3791 12.7538 9.61398 13.9191 7.71941 9.14323 38.6253 35.1006
internal_count=703 688 643 134 509 130 379 104 83 111 60 100 275 244
is_linear=0
shrinkage=0.2


Tree=17
num_leaves=15
num_cat=0
split_feature=11 1 1 2 1 2 7 1 5 0 10 11 10 9
split_gain=2.17848 1.99994 3.20889 2.25321 2.29936 1.948 2.00898 2.00448 2.18061 3.05812 2.38142 2.88407 2.46365 1.75915
threshold=-4.4724025100795801 0.83323186274094541 0.85032203774696091 78.4074274629467 0.8790198684446856 -646.16906068971628 1.4761478271047324 0.46515420887611575 0.35967422312357566 1.7347621713636754 10.953351198885352 1.5803079735160852 10.311704038181601 2.2389064979539461
decision_type=2 2 2 2 2 2 2 2 2 2 2 2 2 2
left_child=-1 5 -3 4 -4 -2 7 13 9 10 11 -9 -13 -7
right_child=1 2 3 -5 -6 6 -8 8 -10 -11 -12 12 -14 -15
leaf_value=0.18701736957501736 -0.17182012849372486 -0.23942163671029279 0.1243310491337774 0.06667063802581219 -0.068705524596943096 -0.16686566277527703 0.19167003797143647 0.14404487625095691 -0.16463336327989836 0.30107550747750189 -0.14367546001924572 -0.20761776017380576 0.036010934677278048 0.05666604665830613
leaf_weight=2.4491525162011376 1.8826350644230831 2.8938755607232443 2.7459367699921158 8.9210648555308563 24.406515538692474 3.7255634553730479 3.0722440984100094 9.637517493218196 1.8648947812616814 1.9377531688660372 2.5307660475373259 1.9454014319926489 11.328459053300319 2.2641047760844231
leaf_count=24 22 23 22 101 183 26 26 81 14 13 34 11 106 17
internal_value=0 -0.00450332 -0.0367882 -0.0205326 -0.0491837 0.0268 0.0365614 0.0230368 0.0446254 0.0588784 0.0404319 0.0607682 0.000304999 -0.0823703
internal_weight=0 79.1567 38.9674 36.0735 27.1525 40.1893 38.3067 35.2345 29.2448 27.3799 25.4421 22.9114 13.2739 5.98967
internal_count=703 679 329 306 205 350 328 302 259 245 232 198 117 43
is_linear=0
shrinkage=0.2


Tree=18
num_leaves=15
num_cat=0
split_feature=17 1 0 14 14 14 1 14 0 0 11 15 15 11
split_gain=6.32658 3.17762 2.37323 1.78539 2.00385 1.65993 1.46329 1.95343 1.71029 1.77414 1.72495 1.57326 1.8118 1.81707
threshold=2.5000000000000004 0.52367616757925151 1.4068688199147343 55.500000000000007 32.500000000000007 125.00000000000001 0.80402890099148394 123.50000000000001 1.5133287582144008 1.5542096860069528 -2.3773694648678516 0.011273404037540851 0.014050394463340853 1.8813379078483246
decision_type=2 2 2 2 2 2 2 2 2 2 2 2 2 2
left_child=2 -2 5 4 -4 -1 7 8 -5 -10 -11 -12 -13 -14
right_child=1 -3 3 6 -6 -7 -8 -9 9 10 11 12 13 -15
leaf_value=-0.24624971383462022 -0.22077826210621862 0.21614747900125753 -0.0041904040752181277 0.21529248633215731 -0.23645591552415157 -0.0089325587280316889 -0.023103297925499741 -0.064813129583133219 -0.10619826696224954 0.23763655188800806 -0.079507582580263636 0.19951782950408448 0.095298408937005613 -0.14656610118998237
leaf_weight=2.947624795138835 0.73670774139463802 6.9180061621591449 3.2111844904720774 2.7596725746989312 2.7652329690754414 1.9647698700428007 35.865475606173277 5.5742928199470034 2.6087990067899254 2.1642438713461223 3.0865156427025715 3.4652558006346208 3.7747340314090252 1.8521014153957365
leaf_count=25 6 177 20 14 27 19 241 44 16 25 22 23 32 12
internal_value=0 0.174097 -0.0171429 -0.00732293 -0.111658 -0.151332 0.0028739 0.0397203 0.069282 0.045512 0.0731063 0.0438679 0.0857505 0.0156875
internal_weight=0 7.65471 72.0399 67.1275 5.97642 4.91239 61.1511 25.2856 19.7113 16.9516 14.3429 12.1786 9.09209 5.62684
internal_count=703 183 520 476 47 44 429 188 144 130 114 89 67 44
is_linear=0
shrinkage=0.2


Tree=19
num_leaves=15
num_cat=0
split_feature=17 0 0 9 9 3 3 2 3 4 9 9 0 9
split_gain=4.97532 2.20994 1.79964 1.59851 1.69686 2.52254 2.61461 1.98619 1.81214 1.62682 1.1857 1.82703 2.29404 2.3847
threshold=2.5000000000000004 1.6603087717344407 1.4015060295433204 2.2484480888145164 2.2435643485426646 -0.021012623385136597 0.017629791941953302 258.05998553089512 -0.066378309067268229 0.034011241886552503 2.2238275201226489 2.2246651021957375 1.6281188707447736 2.2246203054892573
decision_type=2 2 2 2 2 2 2 2 2 2 2 2 2 2
left_child=2 -2 -1 4 5 7 -7 10 -9 -8 -4 12 -12 -14
right_child=1 -3 3 -5 -6 6 9 8 -10 -11 11 -13 13 -15
leaf_value=-0.15341448626390186 0.21314935801480411 -0.14488739833885728 -0.067493831982497518 -0.19034897738726286 0.1698038634992825 -0.18297865800334162 -0.090008508559096589 0.22133139004748625 -0.02020547125645045 0.12666649570346677 0.163653701781035 -0.018039585084757923 -0.10976076814074553 0.13877647440161262
leaf_weight=3.5256248302757731 5.6565941087901583 0.78531798720359791 8.8651239052414876 1.8450243063271035 2.2318005710840216 6.0368783846497518 3.106170441955328 3.2201250493526459 2.0230470746755591 2.5029461272060871 6.1149427406489831 24.225029857829213 3.7628873735666275 2.619035804644227
leaf_count=35 177 6 49 15 12 50 26 30 11 23 45 179 21 24
internal_value=0 0.169502 -0.0141642 -0.0067875 -0.0015536 -0.0076749 -0.0916334 0.0115613 0.128136 0.00667799 -0.00184646 0.0140016 0.0761132 -0.00776519
internal_weight=0 6.44191 70.0786 66.553 64.708 62.4762 11.646 50.8302 5.24317 5.60912 45.587 36.7219 12.4969 6.38192
internal_count=703 183 520 485 470 458 99 359 41 49 318 269 90 45
is_linear=0
shrinkage=0.2


Tree=20
num_leaves=15
num_cat=0
split_feature=15 10 3 0 4 4 12 4 0 4 10 10 12 10
split_gain=1.5615 1.24052 1.61075 1.25823 2.26489 2.20808 2.11944 2.3981 1.96851 1.69784 1.50153 2.6936 1.431 1.28147
threshold=0.018773973333922254 10.956103122233754 -0.021012623385136597 1.6254694540868164 -0.10018336599242393 -0.030440189129689498 6.8369215328875574 0.0061544951436514504 1.7500954258849772 -0.00094888478460384987 10.311707054245257 10.311702531829601 5.0705279080359515 10.311890360148398
decision_type=2 2 2 2 2 2 2 2 2 2 2 2 2 2
left_child=1 2 3 4 12 -6 7 -7 9 -5 11 -11 -1 -12
right_child=-2 -3 -4 8 5 6 -8 -9 -10 10 13 -13 -14 -15
leaf_value=-0.0098781427114638335 0.092744832718411843 0.13718729225071444 -0.079755599353251522 0.03291510409725884 0.16986174647487579 -0.12945984572928135 0.23570391080288644 0.035417406745447952 0.10266733072782395 -0.22183107434121307 -0.31318146269107633 0.084230830859540889 -0.2176970363166722 -0.10836349242068276
leaf_weight=3.2210900019854263 6.7867219001054755 2.2758068898692718 11.828978400677441 4.0921092219650772 4.7352699637413016 4.2993919216096534 1.7198574692010868 19.68304848484695 3.0359479170292607 1.9402497634291629 2.1636969521641731 2.8247468918561935 2.2519258912652731 2.8071681782603264
leaf_count=44 75 40 113 25 66 43 18 170 25 12 12 20 16 24
internal_value=0 -0.00793886 -0.0130513 0.00189997 0.0230625 0.044361 0.0212394 0.00585945 -0.0431641 -0.0751816 -0.120616 -0.0403939 -0.0953873 -0.197516
internal_weight=0 66.8793 64.6035 52.7745 35.9106 30.4376 25.7023 23.9824 16.8639 13.828 9.73586 4.765 5.47302 4.97087
internal_count=703 628 588 475 357 297 231 213 118 93 68 32 60 36
is_linear=0
shrinkage=0.2


end of trees

feature_importances:
Column_0=28
Column_9=28
Column_14=25
Column_3=23
Column_1=22
Column_10=20
Column_2=19
Column_4=19
Column_8=18
Column_15=14
Column_5=13
Column_7=12
Column_11=11
Column_17=11
Column_6=10
Column_16=10
Column_12=8
Column_13=3

parameters:
[boosting: gbdt]
[objective: binary]
[metric: binary_logloss]
[tree_learner: serial]
[device_type: cpu]
[linear_tree: 0]
[data: ]
[valid: ]
[num_iterations: 10000]
[learning_rate: 0.2]
[num_leaves: 15]
[num_threads: 0]
[deterministic: 0]
[force_col_wise: 0]
[force_row_wise: 0]
[histogram_pool_size: -1]
[max_depth: -1]
[min_data_in_leaf: 15]
[min_sum_hessian_in_leaf: 0.001]
[bagging_fraction: 0.9]
[pos_bagging_fraction: 1]
[neg_bagging_fraction: 1]
[bagging_freq: 0]
[bagging_seed: 28073]
[feature_fraction: 0.5]
[feature_fraction_bynode: 1]
[feature_fraction_seed: 8222]
[extra_trees: 0]
[extra_seed: 8505]
[early_stopping_round: 50]
[first_metric_only: 0]
[max_delta_step: 0]
[lambda_l1: 0]
[lambda_l2: 0]
[linear_lambda: 0]
[min_gain_to_split: 0]
[drop_rate: 0.1]
[max_drop: 50]
[skip_drop: 0.5]
[xgboost_dart_mode: 0]
[uniform_drop: 0]
[drop_seed: 15689]
[top_rate: 0.2]
[other_rate: 0.1]
[min_data_per_group: 100]
[max_cat_threshold: 32]
[cat_l2: 10]
[cat_smooth: 10]
[max_cat_to_onehot: 4]
[top_k: 20]
[monotone_constraints: ]
[monotone_constraints_method: basic]
[monotone_penalty: 0]
[feature_contri: ]
[forcedsplits_filename: ]
[refit_decay_rate: 0.9]
[cegb_tradeoff: 1]
[cegb_penalty_split: 0]
[cegb_penalty_feature_lazy: ]
[cegb_penalty_feature_coupled: ]
[path_smooth: 0]
[interaction_constraints: ]
[verbosity: -1]
[saved_feature_importance_type: 0]
[max_bin: 255]
[max_bin_by_feature: ]
[min_data_in_bin: 3]
[bin_construct_sample_cnt: 200000]
[data_random_seed: 20155]
[is_enable_sparse: 1]
[enable_bundle: 1]
[use_missing: 1]
[zero_as_missing: 0]
[feature_pre_filter: 1]
[pre_partition: 0]
[two_round: 0]
[header: 0]
[label_column: ]
[weight_column: ]
[group_column: ]
[ignore_column: ]
[categorical_feature: ]
[forcedbins_filename: ]
[objective_seed: 15792]
[num_class: 1]
[is_unbalance: 0]
[scale_pos_weight: 1]
[sigmoid: 1]
[boost_from_average: 1]
[reg_sqrt: 0]
[alpha: 0.9]
[fair_c: 1]
[poisson_max_delta_step: 0.7]
[tweedie_variance_power: 1.5]
[lambdarank_truncation_level: 30]
[lambdarank_norm: 1]
[label_gain: ]
[eval_at: ]
[multi_error_top_k: 1]
[auc_mu_weights: ]
[num_machines: 1]
[local_listen_port: 12400]
[time_out: 120]
[machine_list_filename: ]
[machines: ]
[gpu_platform_id: -1]
[gpu_device_id: -1]
[gpu_use_dp: 0]
[num_gpu: 1]

end of parameters

pandas_categorical:null
