tree
version=v3
num_class=1
num_tree_per_iteration=1
label_index=0
max_feature_idx=17
objective=binary sigmoid:1
feature_names=Column_0 Column_1 Column_2 Column_3 Column_4 Column_5 Column_6 Column_7 Column_8 Column_9 Column_10 Column_11 Column_12 Column_13 Column_14 Column_15 Column_16 Column_17
feature_infos=[1.2346093662789044:1.966487134882178] [0.077881925041574901:3.4150107712893245] [-1646.6776231156573:1786.9753826398069] [-0.39796363636363641:0.42811791383219938] [-0.79507032854722426:0.70165903149830455] [0.19011554804521:0.43092557777262308] [-0.50441210510384615:0.24097959183673459] [0.10781690525553971:2.015115901414676] [0.36143571596895141:1.6285321476764898] [2.1653626823492496:2.2963154517607771] [10.305552712070426:11.005539406286918] [-14.742803642661976:8.9501984048142393] [0:10.366555276495172] [0:0.43193980318729891] [0:400] [0:0.0277777777777777] [0:8.3037524155634124] [0:5]
tree_sizes=1650 1668 1661 1672 1677 1669 1678 1674 1675 1677 1670 1676 1677 1674 1671

Tree=0
num_leaves=15
num_cat=0
split_feature=17 16 12 9 0 0 3 0 9 9 9 16 13 12
split_gain=167.899 71.6483 45.9952 17.487 12.9571 12.0226 17.6983 11.4458 9.14382 9.48591 7.39646 7.49038 5.88884 6.97424
threshold=1.5000000000000002 6.5679980145478085 1.7641486014639502 2.2247755076617497 1.6295652611109706 1.5488865301821901 -0.065156657337609683 1.4193416732680588 2.2246203108603266 2.224499727505969 2.2239030266535407 7.4289129131961511 0.19576789818616505 1.7809690754355987
decision_type=2 2 2 2 2 2 2 2 2 2 2 2 2 2
left_child=1 -1 3 7 -2 6 -4 -3 9 10 11 -9 13 -7
right_child=4 2 5 -5 -6 12 -8 8 -10 -11 -12 -13 -14 -15
leaf_value=-0.0056449948798142913 0.73162773207725396 0.0036554638318004873 0.54963466501589042 0.074270057753316798 0.43449619401788503 0.63374910777534399 0.080522100851506351 0.14231684825950591 0.57755952715758119 0.010588533053185412 0.6206986245350895 0.50976951699292505 0.64737777698193921 0.26942311731823565
leaf_weight=29.568434044718742 45.915210589766502 3.8463003635406521 7.6926007270812988 19.471895590424538 6.7310256361961356 4.0866941362619418 5.5290567725896818 5.7694505453109795 6.490631863474845 3.6059065908193579 3.6059065908193579 3.6059065908193588 18.991108044981956 4.3270879089832306
leaf_count=123 191 16 32 81 28 17 23 24 27 15 15 15 79 18
internal_value=0.397186 0.263324 0.354714 0.218652 0.693638 0.510098 0.35346 0.323072 0.376308 0.297557 0.377271 0.283645 0.585668 0.446381
internal_weight=0 116.591 87.0225 46.396 52.6462 40.6265 13.2217 26.9241 23.0778 16.5872 12.9813 9.37536 27.4049 8.41378
internal_count=704 485 362 193 219 169 55 112 96 69 54 39 114 35
is_linear=0
shrinkage=1


Tree=1
num_leaves=15
num_cat=0
split_feature=17 10 8 14 1 14 14 3 3 14 10 10 1 1
split_gain=114.218 41.8423 27.9148 11.0461 10.8632 12.1688 19.4485 9.2922 8.15507 6.43462 5.9738 5.98497 5.12757 4.29178
threshold=1.5000000000000002 10.936595803133541 0.56799942517576629 55.500000000000007 0.91505111133511063 57.500000000000007 87.500000000000014 -0.014471464592655697 0.016941825527718956 103.50000000000001 10.904570255334807 10.31170512861461 1.0174278686599834 1.1185804401553725
decision_type=2 2 2 2 2 2 2 2 2 2 2 2 2 2
left_child=1 2 -1 -4 5 -3 8 9 -7 13 11 -2 -11 -5
right_child=10 4 3 7 -6 6 -8 -9 -10 12 -12 -13 -14 -15
leaf_value=0.23665710840286855 0.25117193158476375 -0.39407337788566005 -0.34957633018625578 0.085010740363957601 -0.37314853714837865 -0.060370344487109678 -0.2732946995001852 -0.30222327968528301 0.29302611553908686 -0.19282605181640752 0.29706550782708729 -0.052571761052907021 0.027695965189129146 -0.13860047576681103
leaf_weight=14.957735925912855 6.4103273749351484 7.6759213954210308 5.1888822615146628 21.962179899215702 17.607457295060158 5.9110130965709704 12.393887549638746 4.9534176439046851 4.6798602789640427 10.745884880423548 37.799698948860168 4.3594871163368225 6.9424506872892371 4.0694533735513678
leaf_count=65 28 31 21 93 71 24 50 20 20 44 172 19 29 17
internal_value=0 -0.105183 -0.00505536 -0.0721797 -0.247944 -0.176043 -0.10323 -0.0426076 0.0957873 -0.0131934 0.259626 0.12822 -0.106274 0.0500542
internal_weight=0 117.088 68.82 53.8623 48.2681 30.6607 22.9848 48.6734 10.5909 43.72 48.5695 10.7698 17.6883 26.0316
internal_count=704 485 289 224 196 125 94 203 44 183 219 47 73 110
is_linear=0
shrinkage=0.2


Tree=2
num_leaves=15
num_cat=0
split_feature=17 5 11 14 9 0 9 12 9 14 9 12 5 14
split_gain=80.7075 33.3566 17.4819 12.6633 10.5486 10.1102 6.23302 5.6846 5.27544 3.44732 3.22252 3.08647 3.27808 2.76832
threshold=1.5000000000000002 0.28722832994634068 1.9205671296296298 55.500000000000007 2.2246243022122374 1.6295652611109706 2.2364589257047363 5.0722858027533926 2.238205997601225 103.50000000000001 2.2227520819045425 1.7704402315636709 0.3023824922044322 74.500000000000014
decision_type=2 2 2 2 2 2 2 2 2 2 2 2 2 2
left_child=1 4 3 -3 10 -2 9 -6 -9 11 -1 12 -5 -4
right_child=5 2 13 6 7 -7 -8 8 -10 -11 -12 -13 -14 -15
leaf_value=-0.13747302446456172 0.27335280849164428 -0.26365875309586823 -0.35567036116110096 0.15347016488318643 -0.26393263957070684 0.0014359176989426411 0.19707664007404724 -0.23737398663293563 0.086668677167224289 -0.087688900245529847 0.050702940771261043 0.24477539453791264 -0.057925519258840263 -0.1270129318000168
leaf_weight=6.8602880090475065 37.37416510283947 3.904363051056861 3.9182429462671262 5.4203065037727374 38.825425326824188 6.4071359932422629 19.001659110188484 4.1169122606515867 3.9261083900928497 6.069703832268714 7.7554126977920532 3.8723537176847449 6.3971949070692062 4.6093581020832062
leaf_count=28 191 16 16 23 159 28 87 17 17 25 33 18 27 19
internal_value=0 -0.0856398 0.0303275 0.0804259 -0.185969 0.233559 0.113384 -0.23223 -0.0791963 0.0402998 -0.0376227 0.0898129 0.0390349 -0.232076
internal_weight=0 114.677 53.1932 44.6656 61.4841 43.7813 40.7612 46.8684 8.04302 21.7596 14.6157 15.6899 11.8175 8.5276
internal_count=704 485 231 196 254 219 180 193 34 93 61 68 50 35
is_linear=0
shrinkage=0.2


Tree=3
num_leaves=15
num_cat=0
split_feature=17 14 0 7 8 0 14 12 0 6 15 6 7 4
split_gain=58.4061 16.1317 13.1859 10.0143 8.93966 8.67569 7.27774 3.98969 3.92 3.59506 3.29922 3.41445 3.3118 2.9376
threshold=1.5000000000000002 57.500000000000007 1.5637580004891611 1.4043012380902475 0.53169042589458837 1.6295652611109706 103.50000000000001 1.7641486014639502 1.6559032390832853 0.086909450045524153 0.015294088489773002 -0.074200102847068641 0.94145622063906242 0.087615734273162008
decision_type=2 2 2 2 2 2 2 2 2 2 2 2 2 2
left_child=1 -1 3 9 -4 -2 7 10 -9 13 12 -12 -6 -3
right_child=5 2 4 -5 6 -7 -8 8 -10 -11 11 -13 -14 -15
leaf_value=-0.26463988634284213 0.25585298129029183 -0.21190544036651399 0.23006838201867519 0.12638818476280747 0.02988090699009914 0.0011492470072601852 -0.13201762270666154 0.019331214626804854 0.25118418161537792 0.01335890196211402 -0.033345468145397121 0.20606876010058023 -0.20879514803512311 -0.076130055553483816
leaf_weight=14.907973751425741 32.464292407035828 26.003592118620872 7.4989002197980872 5.7282248288393012 4.4545613378286415 6.4045610427856436 12.954483419656752 5.6629723906517011 6.0152443200349808 4.3999227732419959 5.4131286442279789 4.2563145607709894 4.865327000617981 8.4436862319707853
leaf_count=65 191 111 38 25 19 28 54 27 30 19 23 18 20 36
internal_value=0 -0.0711213 -0.0409742 -0.120478 0.0283501 0.213885 -0.00632648 0.0467676 0.138755 -0.15688 -0.00980341 0.0720404 -0.0947168 -0.178624
internal_weight=0 110.604 95.6964 44.5754 51.1209 38.8689 43.622 30.6675 11.6782 38.8472 18.9893 9.66944 9.31989 34.4473
internal_count=704 485 420 191 229 219 191 137 57 166 80 41 39 147
is_linear=0
shrinkage=0.2


Tree=4
num_leaves=15
num_cat=0
split_feature=14 10 10 1 10 8 1 15 3 10 3 15 3 15
split_gain=15.0892 10.231 14.2355 11.4385 9.93316 8.91669 5.43968 4.998 4.85113 5.9016 4.75814 4.52632 6.38306 4.39076
threshold=57.500000000000007 10.936796439631353 10.95479502214493 0.88982031791632721 10.925387797962049 0.56799942517576629 0.82189337910317095 0.011720441017316003 0.016941825527718956 10.94492146959349 -0.081291940225702686 0.014512774682241252 -0.10159902810612027 0.011979757180650001
decision_type=2 2 2 2 2 2 2 2 2 2 2 2 2 2
left_child=-1 4 3 6 5 -2 8 -6 9 -3 -11 13 -13 -7
right_child=1 2 -4 -5 7 11 -8 -9 -10 10 -12 12 -14 -15
leaf_value=-0.18472945988110634 0.18563215753635473 0.10929474637256931 0.20759366426143805 -0.23825278369873773 -0.05344854411454654 0.018728329959732667 0.24205807844456084 0.21630693859137196 0.13491478148232916 -0.0020947462234820039 -0.2925667940187679 0.0079758767858472811 0.30399138352974786 -0.1372717496347744
leaf_weight=15.223814159631727 11.140455931425093 3.6113414913415971 6.9828857183456412 14.914621397852896 3.1903332322835949 13.753219321370127 2.9680403321981421 19.786882817745209 4.2840272188186637 3.4950977563858032 6.3613784164190275 16.309087499976162 3.5476248115301123 15.185164779424666
leaf_count=74 60 19 45 69 14 63 16 121 22 16 28 73 18 66
internal_value=0 0.0261131 -0.053527 -0.104696 0.0670482 0.0241865 -0.00855854 0.178852 -0.0504607 -0.109427 -0.189566 -0.0126733 0.0608624 -0.0631314
internal_weight=0 125.53 42.6174 35.6345 82.9128 59.9356 20.7199 22.9772 17.7518 13.4678 9.85648 48.7951 19.8567 28.9384
internal_count=704 630 215 170 415 280 101 135 85 63 44 220 91 129
is_linear=0
shrinkage=0.2


Tree=5
num_leaves=15
num_cat=0
split_feature=17 5 2 13 1 8 1 1 3 7 4 5 4 5
split_gain=36.056 15.132 9.36816 8.92075 5.96815 5.84808 7.77387 4.27351 3.82737 3.6478 2.87674 2.86922 2.81591 2.78519
threshold=1.5000000000000002 0.28722832994634068 400.90954254877886 0.19576789818616505 1.0431802305912983 0.80747349726110751 0.98019022748139017 0.7037401587450397 -0.11948499235391898 1.0821995197795131 0.025692826886984904 0.29570771748239216 0.16341428446329412 0.22791447495925957
decision_type=2 2 2 2 2 2 2 2 2 2 2 2 2 2
left_child=1 2 5 4 8 6 7 -1 10 -5 -3 -2 -12 -9
right_child=11 3 -4 9 -6 -7 -8 13 -10 -11 12 -13 -14 -15
leaf_value=-0.18197080898757551 0.2162681983297178 -0.11558512412786254 0.15927670661719573 0.0053719370510512988 0.14250644007934773 -0.22084711524652631 -0.20491304378565142 0.20416828689468902 -0.14947038129374987 0.21754259719801461 0.18349486436693047 0.048562166458829249 -0.057399882719398415 -0.0035930325247103111
leaf_weight=3.3971794843673733 26.604294404387478 4.9604308456182462 4.2429838776588431 4.6457582861185065 6.3356110751628867 24.281876400113106 11.800822272896765 4.1411580741405469 13.219966500997545 10.721921056509016 4.4639898985624313 4.819911077618598 3.4342375546693802 6.8507105559110641
leaf_count=16 195 22 19 26 28 113 57 18 60 61 19 24 15 31
internal_value=0 -0.0543362 -0.126149 0.0278964 -0.031606 -0.150144 -0.0845919 0.0140865 -0.0739054 0.153402 0.00378285 0.190545 0.0787511 0.0746805
internal_weight=0 102.497 54.7147 47.7819 32.4142 50.4717 26.1899 14.389 26.0786 15.3677 12.8587 31.4242 7.89823 10.9919
internal_count=704 485 254 231 144 235 122 65 116 87 56 219 34 49
is_linear=0
shrinkage=0.2


Tree=6
num_leaves=15
num_cat=0
split_feature=2 9 13 2 15 6 16 4 8 4 15 16 9 15
split_gain=8.88049 5.5707 9.83319 6.74678 6.8002 6.35866 4.64062 3.73672 3.57601 3.85821 3.53077 3.13788 3.79627 3.01746
threshold=400.90954254877886 2.2246333006275862 0.19576789818616505 -175.85966514060578 0.016821148703589153 -0.099495032543271883 1.0000000180025095e-35 0.17442400967019903 1.0565488219920294 0.14783199908010033 0.011720441017316003 6.8895493082579975 2.2381532427706747 0.015883349867724852
decision_type=2 2 2 2 2 2 2 2 2 2 2 2 2 2
left_child=1 3 6 4 -1 -5 -3 -4 9 11 -2 12 -8 -7
right_child=10 2 7 5 -6 13 8 -9 -10 -11 -12 -13 -14 -15
leaf_value=-0.1436057497893643 -0.04072908423592661 -0.19892631902733421 0.023223145264016212 -0.053341278601138464 0.12612659348954983 0.11373616482511575 -0.20525987945094754 0.24876841699297814 -0.23447784222599144 -0.16771701401521549 0.19795493143937296 0.1051552241187366 0.022869710767568597 0.29104765554548234
leaf_weight=11.884909607470037 3.1381718739867202 14.267479747533796 16.961795791983608 7.6358390748500851 5.4544837921857825 14.034350268542768 4.4015174806118109 3.5538265556097022 4.1672744899988166 6.7200928479433051 11.802799507975577 7.9805142208933821 8.655709505081175 5.2847101986408225
leaf_count=55 16 83 90 38 29 74 22 25 21 32 89 51 46 33
internal_value=0 -0.0164184 -0.0529276 0.0385653 -0.0587556 0.101169 -0.104101 0.0622933 -0.0617231 -0.0357875 0.147822 0.00635484 -0.0540315 0.16224
internal_weight=0 111.003 66.7082 44.2943 17.3394 26.9549 46.1926 20.5156 31.9251 27.7578 14.941 21.0377 13.0572 19.3191
internal_count=704 599 370 229 84 145 255 115 172 151 105 119 68 107
is_linear=0
shrinkage=0.2


Tree=7
num_leaves=15
num_cat=0
split_feature=17 16 12 10 10 16 12 15 1 10 1 10 10 8
split_gain=23.3184 8.75449 6.97791 4.53832 4.5843 4.41452 3.67066 3.65815 5.20429 3.70339 3.39868 3.89709 3.05515 2.96991
threshold=1.5000000000000002 6.5423878650364466 1.7621632932051154 10.904570255334807 10.31170512861461 7.0263948644923531 6.8388696697022233 0.011550453514739151 0.72532003605331807 10.311430362086609 1.0422424084805539 10.311889894204489 10.946045517538325 0.86192109321624744
decision_type=2 2 2 2 2 2 2 2 2 2 2 2 2 2
left_child=1 -1 7 4 -2 6 10 -3 -9 -10 11 -4 -13 -11
right_child=3 2 5 -5 -6 -7 -8 8 9 13 -12 12 -14 -15
leaf_value=-0.16057987178896338 0.18328953394574735 -0.19226446619263768 -0.17934006236473046 0.22847733716442425 -0.11255254195304731 0.19841490311085197 0.21498080542266995 0.10059836348064805 0.11423049321019435 -0.074463956151726282 -0.12145876568927204 0.16397029472153027 -0.014815705448650211 -0.25204698202273246
leaf_weight=20.051714852452278 4.6573725864291209 7.8280860036611548 2.7634324356913664 17.559480883181095 3.8083367198705673 6.7158493027091017 3.3571339771151534 7.9324339628219631 3.1706003397703197 15.298016756772997 7.4210537374019614 8.015419237315653 7.3098194301128379 4.9976989924907675
leaf_count=111 28 37 14 172 19 35 19 38 14 69 37 50 37 24
internal_value=0 -0.0432243 -0.0117687 0.170487 0.0502037 0.052365 0.0183866 -0.0699444 -0.0394486 -0.0867894 -0.0074856 0.039273 0.0786931 -0.118193
internal_weight=0 94.8613 74.8095 26.0252 8.46571 35.5827 28.8669 39.2268 31.3988 23.4663 25.5097 18.0887 15.3252 20.2957
internal_count=704 485 374 219 47 192 157 182 145 107 138 101 87 93
is_linear=0
shrinkage=0.2


Tree=8
num_leaves=15
num_cat=0
split_feature=3 2 12 1 1 2 16 12 1 16 3 6 6 6
split_gain=7.46272 5.68492 4.82684 4.33653 5.28926 4.45051 4.11737 6.92387 3.82656 3.62153 3.39641 4.10432 4.5673 2.01783
threshold=-0.053080724315592694 342.18422826104501 5.0766316873427835 0.49907264396655876 0.52564065685993622 -153.91320282447313 6.8521973113595775 1.7621632932051154 0.77228116637982047 7.4910749815195485 -0.085976875898235092 -0.074200102847068641 0.032674561765123504 -0.21773525883879852
decision_type=2 2 2 2 2 2 2 2 2 2 2 2 2 2
left_child=1 2 3 -1 -5 -6 13 9 -7 -8 11 -10 -13 -2
right_child=6 -3 -4 4 5 8 7 -9 10 -11 -12 12 -14 -15
leaf_value=-0.18723725974037375 0.018476943103790527 0.1816087718970687 0.22989882586910695 0.34167400826543143 -0.05304282922896391 0.16334293716560178 -0.16131714910782013 0.25276721658625928 -0.15273898718417001 0.098760711717184244 0.16711038743618545 0.18245564437797179 -0.10732718736192746 -0.13970942632793745
leaf_weight=4.3892891108989707 3.7945495992898932 9.7882690802216512 4.0442179888486853 1.9627852365374554 25.823450088500969 9.729176953434953 6.0672078058123571 3.7260183542966834 6.6191513910889617 3.3100297302007675 4.3106579184532192 4.9672196581959707 3.8710362985730171 21.511672042310241
leaf_count=23 21 88 28 10 140 64 35 28 33 20 27 31 21 135
internal_value=0 0.0394121 0.0182325 0.00435234 0.0190327 0.00758535 -0.068871 0.0221297 0.0606625 -0.0695134 0.0101266 -0.033652 0.0555347 -0.11599
internal_weight=0 75.5053 65.717 61.6728 57.2835 55.3207 38.4095 13.1033 29.4972 9.37724 19.7681 15.4574 8.83826 25.3062
internal_count=704 465 377 349 326 316 239 83 176 55 112 85 52 156
is_linear=0
shrinkage=0.2


Tree=9
num_leaves=15
num_cat=0
split_feature=17 14 16 9 5 0 4 6 10 4 10 6 6 0
split_gain=16.2715 6.49385 6.71664 6.08409 4.3177 4.06547 2.25757 7.19893 5.3065 5.19406 3.58611 2.86106 3.44869 2.50388
threshold=2.5000000000000004 55.500000000000007 1.0000000180025095e-35 2.1918936631076105 0.21639104334470333 1.4095232628990166 0.047951097823817408 -0.019134200536577797 10.311886735490715 0.011419640946181751 10.95121441959134 0.0022126582952302003 -0.19766648469800047 1.6026156629012587
decision_type=2 2 2 2 2 2 2 2 2 2 2 2 2 2
left_child=1 -1 -3 -2 -4 -6 7 8 -7 10 -10 12 -8 -13
right_child=3 2 4 -5 5 6 11 -9 9 -11 -12 13 -14 -15
leaf_value=-0.19466162934397258 -0.30310378710911334 -0.14492640536006121 -0.25239353628571287 0.22367676372136713 -0.14311937892109938 -0.28130665503032781 -0.017306175303319304 0.096703273098893441 0.23904189002486134 -0.24705494951991019 -0.059617894477786842 0.079706185480847236 0.14502882443669543 -0.11448356824798163
leaf_weight=8.5523064285516721 0.9328310638666143 12.891054175794123 2.3942724466323844 14.651200942695139 5.5771554857492438 4.727083787322047 7.1419357359409252 13.276458583772181 2.9771958142518979 2.8310281485319138 3.4972266405820847 5.1240562796592695 19.601753041148196 5.514063760638237
leaf_count=55 4 79 13 177 31 23 39 67 14 15 19 29 109 30
internal_value=0 -0.0284926 -0.0118816 0.192145 0.011722 0.0207213 0.0348464 -0.00886614 -0.108747 -0.021089 0.0777177 0.0667803 0.101677 -0.0209483
internal_weight=0 94.1056 85.5533 15.584 72.6622 70.268 64.6908 27.309 14.0325 9.30545 6.47442 37.3818 26.7437 10.6381
internal_count=704 523 468 181 389 376 345 138 71 48 33 207 148 59
is_linear=0
shrinkage=0.2


Tree=10
num_leaves=15
num_cat=0
split_feature=14 2 2 0 9 4 1 14 8 12 14 2 9 1
split_gain=4.55591 4.18515 2.76288 2.48059 3.29756 2.65284 5.58405 2.58819 2.35969 2.33298 2.3766 2.02217 3.01496 4.10438
threshold=57.500000000000007 400.90954254877886 -511.02575826559536 1.7500954258849772 2.2246290500277186 -0.031403706713128539 1.1355188728927474 132.50000000000003 0.81915603765667522 6.8363327462617187 160.50000000000003 -294.55478549282151 2.2246333006275862 0.43713676342718549
decision_type=2 2 2 2 2 2 2 2 2 2 2 2 2 2
left_child=-1 2 8 5 -5 6 7 -4 -2 10 11 -7 13 -13
right_child=1 -3 3 4 -6 9 -8 -9 -10 -11 -12 12 -14 -15
leaf_value=-0.12363619606151782 0.039123257307077879 0.14600848740661934 0.19060013345091636 -0.021773446374627272 0.28313110696715982 -0.10609338011697185 -0.1243260204940921 -0.02044062016575891 -0.1934572995359311 0.15735907593619083 -0.17207719475988315 -0.42463447407812849 -0.051001171906431143 0.07773495096679757
leaf_weight=10.280402071774004 2.6895702630281439 9.0351549275219423 9.628998368978495 2.6554433554410926 3.0466512963175774 8.0212294906377704 4.2881188765168181 3.0641734711825839 4.9678493738174438 2.8852029070258132 4.17602640017867 0.67400754988195188 19.651315044611692 18.667631216347218
leaf_count=74 19 95 71 13 19 46 28 18 33 22 27 3 127 109
internal_value=0 0.0166373 0.00279054 0.0142187 0.141138 0.00403375 0.0729939 0.139654 -0.111766 -0.0176218 -0.0274841 -0.0146407 0.00417205 0.0602286
internal_weight=0 93.4514 84.4162 76.7588 5.70209 71.0567 16.9813 12.6932 7.65742 54.0754 51.1902 47.0142 38.993 19.3416
internal_count=704 630 535 483 32 451 117 89 52 334 312 285 239 112
is_linear=0
shrinkage=0.2


Tree=11
num_leaves=15
num_cat=0
split_feature=11 9 9 3 5 9 7 4 16 2 11 11 7 9
split_gain=4.18613 4.0825 4.32215 3.63728 3.06972 2.78893 3.67113 3.63358 2.38581 1.93887 3.24456 1.93363 1.91491 2.58588
threshold=-4.4832869041534389 2.2194172896912501 2.2109156038220168 -0.053080724315592694 0.29967062463058819 2.2239030266535407 0.75618717344016761 0.059200287911863651 7.4910749815195485 99.53435435691533 1.3978875952403078 1.8125745622323004 1.4729988888801369 2.2246333006275862
decision_type=2 2 2 2 2 2 2 2 2 2 2 2 2 2
left_child=-1 2 -2 5 8 7 -7 -3 9 -5 -11 -6 13 -8
right_child=1 3 -4 4 11 6 12 -9 -10 10 -12 -13 -14 -15
leaf_value=0.25335403191688527 -0.036793047114350386 -0.24825786187352272 0.20361289332974231 -0.17395863882333015 0.13338979877918164 -0.1851637346527194 0.097670411352107744 0.036455127234003133 0.063231255008063939 0.11521176865044613 -0.19053682121865056 -0.099787186050460497 0.16424944996643515 -0.0077733106540147333
leaf_weight=2.5901574231684199 5.1275068148970586 3.6104436442255965 7.180368684232235 14.450174070894727 3.8892079889774314 3.0722542330622664 13.928876809775828 3.5618765279650688 2.7529361620545378 2.8271116577088824 2.7279056012630463 2.2429083809256554 4.5205332338809958 28.012952871620655
leaf_count=20 32 20 99 109 26 21 74 18 16 16 20 16 31 186
internal_value=0 -0.00424438 0.103459 -0.0197309 -0.0774913 0.00969614 0.0265736 -0.106865 -0.111332 -0.135354 -0.0349324 0.048102 0.0405744 0.0272445
internal_weight=0 97.9051 12.3079 85.5972 28.8902 56.7069 49.5346 7.17232 22.7581 20.0052 5.55502 6.13212 46.4624 41.9418
internal_count=704 684 131 553 203 350 312 38 161 145 36 42 291 260
is_linear=0
shrinkage=0.2


Tree=12
num_leaves=15
num_cat=0
split_feature=11 7 6 9 7 10 13 7 6 7 13 3 3 13
split_gain=3.2579 2.91086 2.55265 2.48384 4.71406 3.2083 2.85775 2.74073 4.5694 3.1169 2.37877 2.37208 2.46644 2.24219
threshold=-4.4832869041534389 1.4780630784264752 -0.085173250735762582 2.2246333006275862 1.2647650663418217 10.957908438646422 0.060802986294085461 1.0513199608797772 -0.064412384520398228 0.75618717344016761 0.20112224584302907 -0.10876374492225799 -0.041204672502006691 0.21127094351007297
decision_type=2 2 2 2 2 2 2 2 2 2 2 2 2 2
left_child=-1 3 -3 4 6 10 7 9 -9 -2 -5 -11 -13 -12
right_child=1 2 -4 5 -6 -7 -8 8 -10 11 13 12 -14 -15
leaf_value=0.24236797672562926 -0.15014089256935229 -0.0076604831017469044 0.25916919183629628 -0.081567560851393911 -0.13852778677123218 0.13271233826370582 0.18436634783334185 -0.23137200296482724 0.054434241794682071 0.029836948425107784 0.15111797188097542 0.28073023037572153 0.037433134029894198 -0.03458539698525389
leaf_weight=2.2065301351249209 2.0903629586100676 2.6947875283658504 3.0655321590602389 35.324640687555075 5.8212860636413088 3.9425874091684809 5.7858363427221766 3.6739507913589478 5.7231871187686902 7.1756678000092551 3.6766504421830168 4.5855101831257388 2.6184095889329804 8.8870207555592042
leaf_count=20 11 15 27 241 33 46 61 28 45 39 25 38 17 58
internal_value=0 -0.00345731 0.134341 -0.0123455 0.0268811 -0.0407068 0.0573015 0.0288802 -0.057306 0.0780547 -0.0549841 0.111228 0.192299 0.0197591
internal_weight=0 95.0654 5.76032 89.3051 37.4742 51.8309 31.6529 25.8671 9.39714 16.47 47.8883 14.3796 7.20392 12.5637
internal_count=704 684 42 642 272 370 239 178 73 105 324 94 55 83
is_linear=0
shrinkage=0.2


Tree=13
num_leaves=15
num_cat=0
split_feature=15 16 7 7 12 15 7 12 16 3 14 7 2 2
split_gain=2.66645 3.52564 2.63729 3.1738 2.65708 2.59574 3.24493 2.77921 3.36581 2.55983 2.36369 2.5799 2.31612 3.42743
threshold=0.014714626792746053 6.5679980145478085 0.88687709165315354 1.2474578835164285 1.7653210784437323 0.013167867261320952 0.93077325915101949 1.763080199061702 7.4910749815195485 -0.11386744682639674 179.50000000000003 1.0142035916371113 17.128444099349679 96.141744738418893
decision_type=2 2 2 2 2 2 2 2 2 2 2 2 2 2
left_child=1 10 4 -4 -2 6 -3 8 -8 -7 11 -1 -9 -14
right_child=2 5 3 -5 -6 9 7 12 -10 -11 -12 -13 13 -15
leaf_value=-0.19979031488586529 -0.1299986017094846 0.14806472886316208 0.11929290424684021 -0.037112784273377795 0.094008598481633343 -0.0036239061515494098 -0.13919985427968071 0.11812894900961263 0.11754852684863247 -0.18392770484935264 -0.24402937395178781 0.029183106174377582 -0.23945815677613305 0.081222813287323892
leaf_weight=3.1748175676912052 5.7444136925041658 7.402448844164609 19.380491415038708 7.087443731725215 3.3552015610039234 8.1550601758062822 8.4701646901667136 8.992015488445757 2.6913087777793399 5.1315320432186118 4.0488115325570098 5.1794175300747156 2.2097467742860308 3.3607031106948853
leaf_count=28 39 53 178 53 26 51 55 62 17 32 31 45 13 21
internal_value=0 -0.0238908 0.0454789 0.0774114 -0.0474029 0.00142228 0.0313767 -0.00220204 -0.0772914 -0.0732606 -0.118614 -0.0578325 0.0553506 -0.0459884
internal_weight=0 58.816 35.5676 26.4679 9.09962 46.413 33.1264 25.7239 11.1615 13.2866 12.403 8.35424 14.5625 5.57045
internal_count=704 408 296 231 65 304 221 168 72 83 104 73 96 34
is_linear=0
shrinkage=0.2


Tree=14
num_leaves=15
num_cat=0
split_feature=17 0 0 14 14 0 7 15 2 15 14 15 15 2
split_gain=10.6799 4.40079 3.37011 2.77602 2.4613 2.62947 2.58647 2.57624 2.19366 4.44461 1.9001 1.85144 3.0493 1.74309
threshold=2.5000000000000004 1.6587184716772236 1.4193416732680588 144.50000000000003 55.500000000000007 1.7500954258849772 1.4729988888801369 0.016155746810508655 -364.09303104049405 0.018391220575531754 26.500000000000004 0.014512774682241252 0.016155746810508655 400.90954254877886
decision_type=2 2 2 2 2 2 2 2 2 2 2 2 2 2
left_child=2 -2 3 -1 10 6 8 -7 11 13 -4 -6 -13 -10
right_child=1 -3 4 -5 5 7 -8 -9 9 -11 -12 12 -14 -15
leaf_value=-0.2298826043981432 0.22151702835316592 -0.22610152872249381 0.0042077599540116832 0.020953773226474352 -0.22419238281090217 0.28375849823598909 0.14024376710555497 0.016751299040819928 -0.032927892862359101 0.21910862180069124 -0.23764236175672393 0.12637239210528825 -0.15607564094877338 0.12739561316888731
leaf_weight=5.3559870496392241 10.360036224126812 0.9599751755595215 2.1763555258512488 2.6321272440254688 3.5621542669832618 2.4604978598654261 4.145763222128152 3.5037397928535938 40.542943999171264 3.283869966864585 3.2247588261961937 2.5307587906718254 3.8621851801872253 2.9071093797683707
leaf_count=37 175 6 16 22 28 15 31 22 244 20 29 16 25 18
internal_value=0 0.183557 -0.0239646 -0.147231 -0.0103266 0.000173617 -0.0122509 0.126903 -0.0234031 -0.00524494 -0.14019 -0.108646 -0.0442636 -0.0222011
internal_weight=0 11.32 80.1883 7.98811 72.2001 66.799 60.8348 5.96424 56.689 46.7339 5.40111 9.9551 6.39294 43.4501
internal_count=704 181 523 59 464 419 382 37 351 282 45 69 41 262
is_linear=0
shrinkage=0.2


end of trees

feature_importances:
Column_9=18
Column_14=18
Column_1=15
Column_10=15
Column_7=14
Column_15=14
Column_0=13
Column_2=13
Column_3=13
Column_12=12
Column_16=12
Column_6=11
Column_4=9
Column_17=8
Column_5=7
Column_8=7
Column_13=6
Column_11=5

parameters:
[boosting: gbdt]
[objective: binary]
[metric: binary_logloss]
[tree_learner: serial]
[device_type: cpu]
[linear_tree: 0]
[data: ]
[valid: ]
[num_iterations: 10000]
[learning_rate: 0.2]
[num_leaves: 15]
[num_threads: 0]
[deterministic: 0]
[force_col_wise: 0]
[force_row_wise: 0]
[histogram_pool_size: -1]
[max_depth: -1]
[min_data_in_leaf: 15]
[min_sum_hessian_in_leaf: 0.001]
[bagging_fraction: 0.9]
[pos_bagging_fraction: 1]
[neg_bagging_fraction: 1]
[bagging_freq: 0]
[bagging_seed: 28073]
[feature_fraction: 0.5]
[feature_fraction_bynode: 1]
[feature_fraction_seed: 8222]
[extra_trees: 0]
[extra_seed: 8505]
[early_stopping_round: 50]
[first_metric_only: 0]
[max_delta_step: 0]
[lambda_l1: 0]
[lambda_l2: 0]
[linear_lambda: 0]
[min_gain_to_split: 0]
[drop_rate: 0.1]
[max_drop: 50]
[skip_drop: 0.5]
[xgboost_dart_mode: 0]
[uniform_drop: 0]
[drop_seed: 15689]
[top_rate: 0.2]
[other_rate: 0.1]
[min_data_per_group: 100]
[max_cat_threshold: 32]
[cat_l2: 10]
[cat_smooth: 10]
[max_cat_to_onehot: 4]
[top_k: 20]
[monotone_constraints: ]
[monotone_constraints_method: basic]
[monotone_penalty: 0]
[feature_contri: ]
[forcedsplits_filename: ]
[refit_decay_rate: 0.9]
[cegb_tradeoff: 1]
[cegb_penalty_split: 0]
[cegb_penalty_feature_lazy: ]
[cegb_penalty_feature_coupled: ]
[path_smooth: 0]
[interaction_constraints: ]
[verbosity: -1]
[saved_feature_importance_type: 0]
[max_bin: 255]
[max_bin_by_feature: ]
[min_data_in_bin: 3]
[bin_construct_sample_cnt: 200000]
[data_random_seed: 20155]
[is_enable_sparse: 1]
[enable_bundle: 1]
[use_missing: 1]
[zero_as_missing: 0]
[feature_pre_filter: 1]
[pre_partition: 0]
[two_round: 0]
[header: 0]
[label_column: ]
[weight_column: ]
[group_column: ]
[ignore_column: ]
[categorical_feature: ]
[forcedbins_filename: ]
[objective_seed: 15792]
[num_class: 1]
[is_unbalance: 0]
[scale_pos_weight: 1]
[sigmoid: 1]
[boost_from_average: 1]
[reg_sqrt: 0]
[alpha: 0.9]
[fair_c: 1]
[poisson_max_delta_step: 0.7]
[tweedie_variance_power: 1.5]
[lambdarank_truncation_level: 30]
[lambdarank_norm: 1]
[label_gain: ]
[eval_at: ]
[multi_error_top_k: 1]
[auc_mu_weights: ]
[num_machines: 1]
[local_listen_port: 12400]
[time_out: 120]
[machine_list_filename: ]
[machines: ]
[gpu_platform_id: -1]
[gpu_device_id: -1]
[gpu_use_dp: 0]
[num_gpu: 1]

end of parameters

pandas_categorical:null
