tree
version=v3
num_class=1
num_tree_per_iteration=1
label_index=0
max_feature_idx=17
objective=binary sigmoid:1
feature_names=Column_0 Column_1 Column_2 Column_3 Column_4 Column_5 Column_6 Column_7 Column_8 Column_9 Column_10 Column_11 Column_12 Column_13 Column_14 Column_15 Column_16 Column_17
feature_infos=[1.2346093662789044:1.9952932361101223] [0.077881925041574901:2.8991661768799384] [-1646.6776231156573:1557.3428921142067] [-0.47820557289860088:0.42811791383219938] [-0.79507032854722426:0.70165903149830455] [0.19011554804521:0.43092557777262308] [-0.50441210510384615:0.24097959183673459] [0.10781690525553971:2.015115901414676] [0.36143571596895141:1.6285321476764898] [2.1763247835520749:2.2963154517607771] [10.28247361013198:11.005539406286918] [-14.742803642661976:8.9501984048142393] [0:13.715743132007686] [0:0.43193980318729891] [0:400] [0:0.0277777777777777] [0:8.3037524155634124] [0:5]
tree_sizes=1653 1672 1658 1663 1673 1673 1676 1684 1677 1668 1679 1668 1677 1671 1682 1668 1684 1673 1674 1677

Tree=0
num_leaves=15
num_cat=0
split_feature=17 16 12 9 0 3 0 0 9 4 4 1 0 9
split_gain=176.45 60.1973 44.2845 18.0009 14.2772 16.1682 10.8752 8.62921 6.17562 5.32518 5.2113 7.58777 4.26884 4.74512
threshold=1.5000000000000002 6.5679980145478085 1.7641486014639502 2.2247686726513916 1.5475687247060743 -0.10522234181501543 1.4184507823078534 1.6279736634584563 2.2201855399290555 0.12164096678441332 0.060054026829189401 0.72674530694732853 1.5789105869679736 2.2375504479878905
decision_type=2 2 2 2 2 2 2 2 2 2 2 2 2 2
left_child=1 8 3 6 5 -4 -3 -2 -1 12 11 -8 -6 -14
right_child=7 2 4 -5 9 -7 10 -9 -10 -11 -12 -13 13 -15
leaf_value=0.23768752618977496 0.72651858038355677 -0.00061761272969351744 0.56823042950176061 0.059656463242656721 0.67458028087546684 0.087277971053226489 0.40133966172421487 0.48029256790076286 -0.026829464817888449 0.66380063380775067 0.43996244516651217 0.04215510451226212 0.26484480697831825 0.52506093380672536
leaf_weight=4.0913932174444225 45.968006148934364 3.8507230281829861 5.0540739744901657 19.494285330176353 3.8507230281829896 6.2574249207973462 5.5354143530130404 6.4980951100587836 25.751710250973701 12.755520030856131 13.958870977163313 4.0913932174444199 4.3320634067058545 7.9421162456274033
leaf_count=17 191 16 21 81 16 26 23 27 107 53 58 17 18 33
internal_value=0.39128 0.254585 0.33856 0.206603 0.492641 0.302172 0.311012 0.696023 0.00943496 0.567241 0.361891 0.248686 0.490858 0.43322
internal_weight=0 116.966 87.1226 46.9307 40.1919 11.3115 27.4364 52.4661 29.8431 28.8804 23.5857 9.62681 16.1249 12.2742
internal_count=704 486 362 195 167 47 114 218 124 120 98 40 67 51
is_linear=0
shrinkage=1


Tree=1
num_leaves=15
num_cat=0
split_feature=17 10 8 3 14 1 14 14 3 14 2 8 10 3
split_gain=120.202 40.5839 24.7597 11.6946 9.94584 8.68812 11.993 16.8875 9.88524 8.47983 7.11012 4.4639 4.20893 3.64779
threshold=1.5000000000000002 10.936595006945884 0.56799942517576629 -0.018466564887098049 55.500000000000007 0.88778676089481334 57.500000000000007 91.500000000000014 0.017629791941953302 94.500000000000014 -379.99744162060307 0.83299811348657538 10.918672529021245 -0.084683218243322589
decision_type=2 2 2 2 2 2 2 2 2 2 2 2 2 2
left_child=1 2 -1 4 -4 6 -3 8 -8 -6 -11 13 -2 -12
right_child=12 5 3 -5 9 -7 7 -9 -10 10 11 -13 -14 -15
leaf_value=0.2219625227404706 0.15057872427133234 -0.39066383634724894 -0.36153979376718409 -0.30569314544848059 0.080458083699422742 -0.35636630994598884 -0.079683394013923353 -0.26277977389841783 0.33611972707611715 -0.28402193815987103 -0.046041592390795125 -0.19740691661178958 0.29704930914265237 0.17912627899745634
leaf_weight=14.51493941247463 9.8577552586793882 7.942331641912463 3.4721247404813758 7.3877554088830939 21.476589649915695 18.656691506505013 5.3468610197305697 11.649206057190893 3.9964354485273361 5.8762910217046729 8.3365610241889936 4.6425364762544623 38.482030928134918 4.3952061384916368
leaf_count=63 43 32 14 30 90 75 22 47 17 24 35 19 175 18
internal_value=0 -0.107409 -0.010641 -0.0713786 -0.035464 -0.249947 -0.181329 -0.102129 0.0981693 -0.0101511 -0.0938469 -0.0295264 0.26718 0.0316899
internal_weight=0 117.694 70.102 55.5871 48.1993 47.5915 28.9348 20.9925 9.3433 44.7272 23.2506 17.3743 48.3398 12.7318
internal_count=704 486 293 230 200 193 118 86 39 186 96 72 218 53
is_linear=0
shrinkage=0.2


Tree=2
num_leaves=15
num_cat=0
split_feature=17 5 11 14 9 0 9 9 9 10 13 12 9 9
split_gain=85.0076 35.1613 26.8079 9.20499 8.679 6.95588 6.00716 5.29385 5.28391 4.92936 3.76482 3.50047 5.29414 3.05527
threshold=1.5000000000000002 0.28678252567712187 1.7770203845427062 55.500000000000007 2.2246282045230492 1.703936875468927 2.2365481940026721 2.2250330806391911 2.2246203136315259 10.311703996149959 0.083649608902648956 5.0722858027533926 2.2362268238747567 2.2425303124545928
decision_type=2 2 2 2 2 2 2 2 2 2 2 2 2 2
left_child=1 4 3 -3 -1 -2 7 8 9 -5 -4 -6 -13 -8
right_child=5 2 10 6 11 -7 13 -9 -10 -11 -12 12 -14 -15
leaf_value=-0.063137247929365911 0.26487320489683913 -0.2315924214719933 -0.32966612023804909 -0.10262245135933445 -0.26340394950875046 -0.024427559998280383 0.24955667573599319 -0.087572851999619228 0.28541343667610447 0.17456702729519932 -0.079270720762872199 -0.26739587186151137 0.067046210604034956 0.05195508485487571
leaf_weight=15.213667050004004 39.84793196618557 3.1655600368976584 7.5924130380153638 5.1009601056575793 37.080657050013542 3.6269869804382315 14.501773983240129 7.2547513097524634 5.1293725818395606 5.1643892079591751 3.5133283883333206 4.1455040276050559 3.4847981780767441 3.9913245886564246
leaf_count=63 202 13 31 21 152 16 66 31 22 22 15 17 15 18
internal_value=0 -0.0874301 0.0274034 0.0970476 -0.19362 0.240738 0.122334 0.0532786 0.119655 0.0368287 -0.250453 -0.238019 -0.114654 0.206909
internal_weight=0 115.338 55.4139 44.3081 59.9246 43.4749 41.1426 22.6495 15.3947 10.2653 11.1057 44.711 7.6303 18.4931
internal_count=704 486 239 193 247 218 180 96 65 43 46 184 32 84
is_linear=0
shrinkage=0.2


Tree=3
num_leaves=15
num_cat=0
split_feature=17 8 0 14 7 0 0 12 14 8 6 7 7 7
split_gain=61.5613 15.4226 12.562 10.0603 7.67649 7.18823 6.31006 4.88695 4.85288 8.65286 5.06222 6.34143 5.37917 3.69716
threshold=1.5000000000000002 0.5318907503296465 1.7276471533899509 57.500000000000007 1.4492963300481532 1.7156288901079659 1.5569931695254768 1.7628471463018101 115.50000000000001 0.60250778483665413 -0.093666348573268041 1.0206316126837887 1.1383583045751497 1.2637327013828854
decision_type=2 2 2 2 2 2 2 2 2 2 2 2 2 2
left_child=1 6 3 -3 8 -2 -1 -4 10 -10 11 -5 -12 -14
right_child=5 2 7 4 -6 -7 -8 -9 9 -11 12 -13 13 -15
leaf_value=-0.065639689286829492 0.24688082403517222 -0.28246623739263449 -0.0049442214571955995 -0.053762302735746094 0.11144711256644285 -0.066301350263546513 0.24135146630765242 0.27724922185449274 0.11049900082593485 -0.23660993907611025 -0.10818305028067775 -0.29355316685174065 0.17283515496905066 -0.037280243321470737
leaf_weight=3.9917573928832999 35.304468169808388 13.372800186276434 5.8795793205499631 10.1106317192316 6.6196269094943991 3.1969421207904807 8.1386713683605176 4.2141431868076324 3.3462416231632259 20.298886999487877 14.06270009279252 7.826155573129653 6.7716225981712324 6.6288920193910599
leaf_count=18 204 58 25 44 29 14 40 20 15 86 60 33 29 29
internal_value=0 -0.0725343 -0.0985819 -0.122553 -0.0942907 0.220876 0.14033 0.112872 -0.114016 -0.187487 -0.0757503 -0.158388 -0.0217782 0.0688964
internal_weight=0 111.262 99.1313 89.0376 75.6648 38.5014 12.1304 10.0937 69.0451 23.6451 45.4 17.9368 27.4632 13.4005
internal_count=704 486 428 383 325 218 58 45 296 101 195 77 118 58
is_linear=0
shrinkage=0.2


Tree=4
num_leaves=15
num_cat=0
split_feature=14 10 10 12 10 10 14 9 1 10 3 9 15 15
split_gain=15.3987 9.52578 17.4099 7.84973 9.19925 9.95168 7.59375 7.44248 7.07688 5.74229 4.43343 4.2588 3.84659 4.78293
threshold=57.500000000000007 10.942764122869514 10.955047324460942 1.7641486014639502 10.925284826839304 10.311704995284177 79.500000000000014 2.2196987044337635 0.86035390540416701 10.311703996149959 -0.11386744682639674 2.2324277473021072 0.014662916448630652 0.011221152497194102
decision_type=2 2 2 2 2 2 2 2 2 2 2 2 2 2
left_child=-1 3 6 4 5 9 -3 -6 -9 -2 11 -8 13 -5
right_child=1 2 -4 12 7 -7 10 8 -10 -11 -12 -13 -14 -15
leaf_value=-0.18558473234824477 -0.036483333896411625 0.087864148148957433 0.23629068060154679 0.19711257201452981 0.22533219259433471 -0.18997447678115009 -0.21016634582172911 0.12310787561010875 -0.20495095029425975 0.18089023615516411 -0.23545493923837599 0.10748827267277615 0.23970674720338742 0.011018463315939057
leaf_weight=15.408074036240576 15.535983204841616 5.223371013998988 6.3558845072984687 9.7938891202211398 11.812118202447893 12.653396174311636 3.2086109817028072 6.8640163242816907 4.2643247544765472 7.0746654868125907 16.360507965087891 3.5629325211048126 10.307903558015822 12.672818407416342
leaf_count=74 69 26 41 52 77 56 15 32 20 32 75 16 58 61
internal_value=0 0.0262555 -0.0628829 0.0602645 0.0161809 -0.0479494 -0.129943 0.114762 -0.00260263 0.0315309 -0.179125 -0.0430284 0.138553 0.0921423
internal_weight=0 125.69 34.7113 90.9791 58.2045 35.264 28.3554 22.9405 11.1283 22.6106 23.1321 6.77154 32.7746 22.4667
internal_count=704 630 173 457 286 157 132 129 52 101 106 31 171 113
is_linear=0
shrinkage=0.2


Tree=5
num_leaves=15
num_cat=0
split_feature=17 5 2 13 8 1 3 4 3 3 8 7 4 4
split_gain=38.1006 14.3433 10.5844 9.40416 6.41562 7.03946 6.16532 4.50909 4.36489 6.1666 4.25889 2.89908 2.19494 3.30188
threshold=1.5000000000000002 0.28678252567712187 405.11244972637968 0.19576789818616505 0.80766682466195938 1.0449078159894725 -0.11948499235391898 0.025325243233069502 -0.10062677206934699 -0.053326826164124846 0.75124181529363099 1.0821995197795131 0.070199322826453914 0.21309018740511551
decision_type=2 2 2 2 2 2 2 2 2 2 2 2 2 2
left_child=1 2 4 6 5 12 7 -3 -8 -10 -9 -5 -1 -14
right_child=-2 3 -4 11 -6 -7 8 10 9 -11 -12 -13 13 -15
leaf_value=0.086831483981479191 0.19773505857654494 -0.091849475380010981 0.17842785022322472 0.019455142238087017 -0.23115933201131825 -0.22976471149971781 -0.29024781597107602 -0.058451744229798569 0.11786268370441857 -0.17242156070030301 0.21283289126769378 0.20395998855669376 -0.13110850872354404 0.10332384091065359
leaf_weight=5.9007215052843156 30.937691636383533 5.8852359205484417 4.1788025647401801 4.8966446220874813 22.709448382258415 9.0428845286369306 4.5611601322889355 3.3994843959808332 4.7398078739643106 7.6546722203493092 7.2543947100639343 11.193528756499289 8.2585615515708906 3.3895021677017203
leaf_count=27 218 26 19 25 107 43 21 15 22 35 33 62 36 15
internal_value=0 -0.0553423 -0.127184 0.022143 -0.153088 -0.086415 -0.038225 0.0486551 -0.122971 -0.0614131 0.12627 0.147811 -0.0125469 -0.0628904
internal_weight=0 103.065 53.4799 49.5849 49.3011 26.5917 33.4948 16.5391 16.9556 12.3945 10.6539 16.0902 17.5488 11.6481
internal_count=704 486 247 239 228 121 152 74 78 57 48 87 78 51
is_linear=0
shrinkage=0.2


Tree=6
num_leaves=15
num_cat=0
split_feature=2 15 4 11 13 16 6 4 8 9 16 16 16 8
split_gain=9.6357 7.56278 7.56276 6.23716 5.61624 6.29111 4.39703 4.33988 4.3191 4.04326 4.26748 5.53532 3.71409 3.04574
threshold=392.280726520575 0.014662916448630652 -0.096030890725547643 1.6183015636810281 0.22053338130787761 7.5400788855512735 0.0521278229477087 -0.031224827706212193 0.84313342395316948 2.2381573728682445 6.8329847022970549 7.4181662308428651 6.5679980145478085 0.73457917937703099
decision_type=2 2 2 2 2 2 2 2 2 2 2 2 2 2
left_child=1 2 -1 13 5 7 -5 12 9 10 -9 -12 -4 -3
right_child=-2 3 4 6 -6 -7 -8 8 -10 -11 11 -13 -14 -15
leaf_value=-0.2246130770374368 0.15172380688142198 0.03871190792214857 -0.066988022112956666 -0.072275987565454156 0.16464074298110196 0.17843002997097346 0.18802717299465022 -0.19867762160006261 -0.20331849528403839 0.077745533910719977 0.088516333614893083 -0.18128535795032716 0.22360004718853413 0.1838341692264393
leaf_weight=9.5699800997972471 15.301861859858034 10.635259337723257 3.6992338448762814 17.455731950700287 5.2493613585829726 4.3256611227989188 3.0491566732525817 9.6948736608028536 11.365122139453886 6.7485137432813636 7.4193715378642064 5.1550770848989487 3.3550285026431084 12.68372944742441
leaf_count=50 108 57 21 96 32 23 18 46 58 37 41 24 18 75
internal_value=0 -0.0176258 -0.0600927 0.0468947 -0.0324766 -0.0524666 -0.0335679 -0.0735214 -0.0988048 -0.057871 -0.0989684 -0.0220928 0.0712165 0.117647
internal_weight=0 110.406 66.5822 43.8239 57.0122 51.7629 20.5049 47.4372 40.383 29.0178 22.2693 12.5744 7.05426 23.319
internal_count=704 596 350 246 300 268 114 245 206 148 111 65 39 132
is_linear=0
shrinkage=0.2


Tree=7
num_leaves=15
num_cat=0
split_feature=17 10 8 15 10 10 6 1 15 10 11 11 12 15
split_gain=24.8023 8.34001 6.47909 4.52425 4.03474 4.02906 3.82495 3.65231 4.77692 3.34438 2.76085 2.72117 2.37193 3.82618
threshold=1.5000000000000002 10.936597814402644 0.53430358269448675 0.016821148703589153 10.935907374632732 10.918672529021245 -0.12452687803444198 0.88778676089481334 0.010164714033761601 10.311705094422599 1.6136328420256993 1.6262286233938021 1.7641486014639502 0.011221152497194102
decision_type=2 2 2 2 2 2 2 2 2 2 2 2 2 2
left_child=1 2 -1 4 6 9 -4 8 -3 -2 -10 -5 13 -8
right_child=5 7 3 11 -6 -7 12 -9 10 -11 -12 -13 -14 -15
leaf_value=0.18054918974638934 0.16769825946100703 -0.27900044991180034 -0.20738086301227188 0.18369789794971386 0.12346507652165384 0.22778102144364679 -0.30066091515967713 -0.20462632517652787 0.053638796177934094 -0.10576262505499141 -0.10196408929626506 -0.0087048894101073027 0.021512273868284981 -0.050046247038256379
leaf_weight=7.0881179198622695 4.238175421953204 3.6982658803463009 7.1274172365665391 5.8261919617652875 4.5704147070646277 18.257040612399578 2.9320772290229895 13.213777169585226 8.5024380609393138 3.0954697951674461 9.8393182009458524 5.93608658015728 12.640539139509199 14.424555048346518
leaf_count=45 26 20 34 27 20 175 14 73 42 17 52 28 65 66
internal_value=0 -0.0441537 0.000875504 -0.0229482 -0.0538514 0.177485 -0.0756808 -0.121488 -0.0716431 0.0522727 -0.0298334 0.0865977 -0.0443885 -0.0923829
internal_weight=0 95.7992 60.5454 53.4573 41.695 25.5907 37.1246 35.2538 22.04 7.33365 18.3418 11.7623 29.9972 17.3566
internal_count=704 486 299 254 199 218 179 187 114 43 94 55 145 80
is_linear=0
shrinkage=0.2


Tree=8
num_leaves=15
num_cat=0
split_feature=14 2 3 14 16 11 12 1 1 14 3 3 14 16
split_gain=6.90557 5.92806 7.8283 4.64732 4.15001 5.18794 3.16495 2.80372 4.02534 5.11219 3.51847 3.55849 2.64877 2.54061
threshold=55.500000000000007 -135.21600591274918 -0.049440805724245689 87.500000000000014 7.4910749815195485 -3.1937054466688983 1.7641486014639502 0.50858266762053583 0.77179867804888713 75.500000000000014 -0.090900253330498837 -0.10638888888888888 89.000000000000014 6.6173305871928259
decision_type=2 2 2 2 2 2 2 2 2 2 2 2 2 2
left_child=-1 3 7 6 5 -5 -2 -3 -9 -10 11 -11 -4 -14
right_child=1 2 12 4 -6 -7 -8 8 9 10 -12 -13 13 -15
leaf_value=-0.15233236079786097 -0.018711839208408545 -0.054760476003959196 -0.17520770630636034 0.093858759341847925 0.095152238015028701 -0.15317655096750413 0.15388664074412059 0.22124057894638749 -0.13131199866120594 0.11128477686999048 0.24963192891628722 -0.15038340559647401 -0.088983418359666333 0.10761697323200432
leaf_weight=10.469613216817377 11.278145879507067 3.7900625467300406 5.1367879807949057 4.0485944524407449 4.4834171906113616 21.240896336734295 6.8191179335117331 11.937608219683169 3.8701344430446651 12.287815347313877 5.9052372500300434 2.5021682903170595 5.8264817520976049 4.791358157992363
leaf_count=64 62 20 28 22 23 123 42 90 19 81 46 18 34 32
internal_value=0 0.0180829 0.0622293 -0.0336048 -0.0821889 -0.113629 0.0463239 0.108968 0.125967 0.0796692 0.119124 0.0670158 -0.0573059 -0.00026642
internal_weight=0 103.918 56.0477 47.8702 29.7729 25.2895 18.0973 40.293 36.503 24.5654 20.6952 14.79 15.7546 10.6178
internal_count=704 640 368 272 168 145 104 274 254 164 145 99 94 66
is_linear=0
shrinkage=0.2


Tree=9
num_leaves=15
num_cat=0
split_feature=17 5 9 16 14 0 14 0 0 14 9 16 4 10
split_gain=17.6763 6.10996 4.94115 3.66802 2.61236 4.86609 3.10784 3.26117 2.30495 3.05028 3.27449 3.18799 2.26953 2.24469
threshold=2.5000000000000004 0.28678252567712187 2.2246282045230492 7.5207645301283312 75.500000000000014 1.7339877832328154 98.500000000000014 1.6448149922499524 1.4398738055625266 70.500000000000014 2.237932310897405 6.5423878650364466 0.077812143730485103 10.935907374632732
decision_type=2 2 2 2 2 2 2 2 2 2 2 2 2 2
left_child=1 2 3 13 5 -3 -6 -8 -4 -10 11 -11 -13 -1
right_child=-2 4 8 -5 6 -7 7 -9 9 10 -12 12 -14 -15
leaf_value=-0.11569691677935928 0.19966516686076188 -0.11937692132716222 -0.21233345945018756 0.20283845077947343 0.11356951033147729 0.12146324246296697 0.048500236180914043 -0.15438867179414686 -0.25496916131837782 -0.25130060688061906 0.04740703509767815 0.065901572008492615 -0.1528900223500346 0.06461666419172428
leaf_weight=6.4615061134099943 15.589633546769617 11.018146961927412 8.8353297859430295 3.2384414970874777 16.483077198266987 4.8252912238240233 10.643740013241766 4.5124484300613394 3.8538978397846249 4.7434054315090197 7.1537223681807509 3.8356102108955383 3.7509998232126236 4.8228204175829887
leaf_count=29 181 57 54 19 100 26 58 22 26 31 37 20 20 24
internal_value=0 -0.0302512 -0.0816204 0.0152133 0.0202666 -0.0460264 0.0534629 -0.0119058 -0.125331 -0.0923927 -0.0602349 -0.122687 -0.0422742 -0.0386325
internal_weight=0 94.1784 46.6957 14.5228 47.4827 15.8434 31.6393 15.1562 32.173 23.3376 19.4837 12.33 7.58661 11.2843
internal_count=704 523 260 72 263 83 180 80 188 134 108 71 40 53
is_linear=0
shrinkage=0.2


Tree=10
num_leaves=15
num_cat=0
split_feature=2 1 9 1 3 9 12 4 2 8 4 0 12 4
split_gain=4.42157 3.51459 4.85316 4.27086 4.0383 3.73043 2.92853 2.49794 5.38047 4.24119 3.74664 3.35836 3.08336 2.94406
threshold=392.280726520575 0.46515420887611575 2.2388271777758937 0.72674530694732853 -0.081650708411706893 2.2244021749676297 6.8388696697022233 0.060054026829189401 -153.53165087125782 0.78254288905429203 0.23015415704765949 1.4389395197010051 5.0705006550365166 -0.013733202001481698
decision_type=2 2 2 2 2 2 2 2 2 2 2 2 2 2
left_child=1 2 -1 4 -3 -6 7 8 -5 10 -9 -10 13 -13
right_child=-2 3 -4 6 5 -7 -8 9 11 -11 -12 12 -14 -15
leaf_value=-0.28131184532601189 0.12151230727433193 0.14971087789584911 0.05318528372898168 -0.18267161754135497 0.17958410417306925 -0.090001424502850105 0.14097862163480843 -0.094050469282688648 -0.15069576919712957 0.11066686588694903 0.1041543178933811 0.089476443780935389 0.24030544712668625 -0.15952016619475376
leaf_weight=4.2983709797263137 11.078492913395165 12.486760210245849 2.9093270599842072 12.121757857501505 2.795084245502947 7.7351464405655861 3.8498943746089926 16.870295792818077 4.4221592545509365 9.5386394746601564 4.9295162558555594 4.9545334838330692 2.7221831008791915 3.0803089067339933
leaf_count=25 108 89 16 83 17 52 23 92 34 60 31 38 15 21
internal_value=0 -0.0121744 -0.146295 -0.000868779 0.0727802 -0.0184442 -0.0279963 -0.0390901 -0.0833159 -0.000562169 -0.0492311 -0.00397272 0.0563444 -0.00598112
internal_weight=0 92.714 7.2077 85.5063 23.017 10.5302 62.4893 58.6394 27.3009 31.3385 21.7998 15.1792 10.757 8.03484
internal_count=704 596 41 555 158 69 397 374 191 183 123 108 74 59
is_linear=0
shrinkage=0.2


Tree=11
num_leaves=15
num_cat=0
split_feature=11 2 7 16 5 3 7 5 5 4 2 5 5 5
split_gain=3.37062 3.62333 3.28955 2.9762 2.97059 2.19781 3.66709 3.7098 3.06253 2.99576 3.99688 3.757 2.97546 2.96596
threshold=4.2577469211727577 405.11244972637968 1.4761478271047324 7.5495979461921037 0.2775433522499014 -0.033548120621820193 0.82881442921076387 0.23302582553098491 0.30159759368468492 0.19483615715613709 -149.46561079915799 0.2879006968937185 0.3026472451117756 0.22118818534108334
decision_type=2 2 2 2 2 2 2 2 2 2 2 2 2 2
left_child=1 2 3 5 -3 6 -1 13 -7 10 -9 -12 -13 -8
right_child=-2 4 -4 -5 -6 8 7 9 -10 -11 11 12 -14 -15
leaf_value=-0.12643732419679829 -0.12575186500285462 0.19804572547581645 0.13957152579827917 0.18081460575602123 -0.06253969246279209 -0.12281976970733251 -0.048791187313747326 -0.099549755996260578 0.056354640838247261 0.14997305775886469 -0.15592972415632292 0.23437598645808971 0.02043588340119401 0.17660372778990724
leaf_weight=7.7661034762859336 7.6562438532710066 6.848037872463463 6.1876601576805106 3.0767985954880706 2.3504592999815941 14.823294326663019 3.1655024699866763 16.496900595724576 5.1386148035526267 4.0728250071406356 2.9464105106890299 4.0710391551256162 7.1979766190052032 8.9038544595241529
leaf_count=46 55 82 41 21 15 108 25 88 33 26 19 22 43 80
internal_value=0 0.0123017 -0.000770548 -0.0119526 0.131459 -0.0199049 0.0008504 0.0219483 -0.0766965 -0.0112011 -0.0325747 0.0451494 0.0977238 0.117488
internal_weight=0 93.0455 83.847 77.6593 9.1985 74.5825 54.6206 46.8545 19.9619 34.7852 30.7123 14.2154 11.269 12.0694
internal_count=704 649 552 511 97 490 349 303 141 198 172 84 65 105
is_linear=0
shrinkage=0.2


Tree=12
num_leaves=15
num_cat=0
split_feature=14 10 10 3 3 9 10 6 7 7 7 3 9 10
split_gain=3.13166 3.33517 2.80847 5.25411 3.50854 2.95992 2.34007 3.74667 3.17552 2.92245 2.88364 1.93297 1.85029 2.69455
threshold=57.500000000000007 10.955047324460942 10.944797371386857 0.017629791941953302 -0.069469370362581981 2.238152585013911 10.925284826839304 -0.097294223399723032 1.0283163766019723 0.82881442921076387 1.4761478271047324 -0.015067574077173448 2.2211695828577396 10.311704995284177
decision_type=2 2 2 2 2 2 2 2 2 2 2 2 2 2
left_child=-1 2 6 4 5 -4 7 8 -2 -8 12 -11 -9 -14
right_child=1 -3 3 -5 -6 -7 9 10 -10 11 -12 -13 13 -15
leaf_value=-0.10363646409705798 -0.0015919256130436335 0.20953613440178087 -0.15453238417980444 0.16172440713720365 -0.20691996616487718 0.11431298856363924 -0.14010325683551722 -0.13218239557169584 -0.20895895385185403 0.14002329312827713 0.20170211512155897 -0.040350581530006729 0.1051925201327641 -0.0207695427500145
leaf_weight=10.098593287169932 6.4937085844576341 3.3551276065409175 3.0276846960186967 3.3397720977663985 7.8548190295696267 3.5690523460507393 2.0865475945174721 3.1072400808334377 5.418868612498045 14.487725000828508 3.6691111139953128 2.8428212478756878 11.4475489333272 16.707468099892139
leaf_count=74 36 41 25 23 56 20 16 16 30 151 28 20 69 99
internal_value=0 0.0139964 0.00619104 -0.0643618 -0.116611 -0.00907817 0.0251347 0.000936652 -0.0959204 0.0835129 0.0339676 0.110436 0.0142814 0.0304454
internal_weight=0 87.4075 84.0524 17.7913 14.4516 6.59674 66.261 46.8439 11.9126 19.4171 34.9314 17.3305 31.2623 28.155
internal_count=704 630 589 124 101 45 465 278 66 187 212 171 184 168
is_linear=0
shrinkage=0.2


Tree=13
num_leaves=15
num_cat=0
split_feature=15 7 2 3 12 3 7 10 2 15 3 13 10 10
split_gain=4.02125 3.27623 3.25095 3.97069 3.16574 2.99681 2.94163 3.38113 2.723 3.50206 2.27438 2.35342 1.81527 2.78372
threshold=0.014662916448630652 0.88493594355901639 -149.46561079915799 -0.052900898921660146 1.765292645738002 -0.099441398635477532 1.0656968227969983 10.936824653140308 -394.65014448657365 0.018391220575531754 -0.15281224947891611 0.080104694351661815 10.311889113474921 10.944973796292436
decision_type=2 2 2 2 2 2 2 2 2 2 2 2 2 2
left_child=2 4 5 -4 -2 -1 7 -3 -8 10 -10 -12 -7 -14
right_child=1 6 3 -5 -6 12 8 -9 9 -11 11 -13 13 -15
leaf_value=-0.18169277956108942 -0.13415139518628816 0.25683994588695719 0.055274896939982415 -0.08645982608400371 0.11019951422760604 -0.13632377937188098 -0.10492117209919026 -0.0038426567824372086 -0.10252520780659709 0.2367525538099563 0.20658036638689362 -0.021115124638655225 0.1082120878346095 -0.1377763290664589
leaf_weight=8.9950163066387194 6.2076282203197461 6.5096789114177245 22.443774968385696 12.206216074526308 3.2214395888149738 4.248301960527896 4.0612069256603744 2.8666209727525711 3.8815109431743622 4.1263537593185893 3.4583497345447523 3.8228013552725315 5.4222345873713476 2.7854758203029633
leaf_count=54 39 60 164 89 23 27 29 23 23 29 47 30 40 27
internal_value=0 0.051624 -0.0325353 0.00534575 -0.0506689 -0.0937249 0.0852001 0.177141 0.0406493 0.0793171 0.02112 0.0870341 -0.0301995 0.0247302
internal_weight=0 38.1556 56.101 34.65 9.42907 21.451 28.7265 9.3763 19.3502 15.289 11.1627 7.28115 12.456 8.20771
internal_count=704 303 401 253 62 148 241 83 158 129 100 77 94 67
is_linear=0
shrinkage=0.2


Tree=14
num_leaves=15
num_cat=0
split_feature=17 0 1 14 7 14 2 0 13 7 1 14 0 2
split_gain=10.2146 3.41268 3.01566 2.69331 2.41889 2.31802 2.09045 2.00168 2.08864 2.56576 2.07843 4.23301 4.15983 3.01333
threshold=2.5000000000000004 1.4071696378893119 0.56659011236147805 55.500000000000007 1.4761478271047324 32.500000000000007 405.11244972637968 1.7843112010560722 0.22053352339347132 0.75238218981154092 0.93297200959668602 118.50000000000001 1.5126772271425823 -192.28600245161857
decision_type=2 2 2 2 2 2 2 2 2 2 2 2 2 2
left_child=1 -1 -2 5 6 -3 7 8 9 -5 11 12 -11 -14
right_child=2 3 -4 4 -6 -7 -8 -9 -10 10 -12 -13 13 -15
leaf_value=-0.17410471928432897 -0.16170982634434755 -0.00046974479710510216 0.21777435209945994 -0.19837733333973573 0.12940265051892566 -0.24308845873012858 0.14073051216955687 0.13258578950877517 0.099713265076913984 0.25889914226313737 -0.080974186740009113 -0.134970773576122 -0.091005241925461916 0.068929674416478556
leaf_weight=5.5463274382054797 0.91610026359558006 2.8235911652445784 9.7794512733817083 3.7828550785779944 5.3273410052061072 3.5626161620020866 3.4410325400531283 3.271768942475318 4.6810191422700873 3.139198534190661 18.123242050409317 6.7598456516861907 7.3398287966847411 13.162475232034923
leaf_count=43 9 19 172 24 38 30 21 23 32 16 112 46 42 77
internal_value=0 -0.022691 0.185271 -0.0115554 -5.92646e-05 -0.135817 -0.0108862 -0.0195439 -0.0282779 -0.0397318 -0.0273642 0.00459442 0.0445005 0.0116729
internal_weight=0 80.9611 10.6956 75.4148 69.0286 6.38621 63.7013 60.2602 56.9885 52.3074 48.5246 30.4013 23.6415 20.5023
internal_count=704 523 181 480 431 49 393 372 349 317 293 181 135 119
is_linear=0
shrinkage=0.2


Tree=15
num_leaves=15
num_cat=0
split_feature=17 9 5 11 9 9 9 8 12 10 7 5 4 5
split_gain=7.93561 3.37628 3.08927 3.78349 2.59059 2.28582 2.61549 2.03557 2.63535 3.77239 2.11417 1.98884 1.60402 1.57271
threshold=2.5000000000000004 2.2052462477793489 0.28678252567712187 1.7770203845427062 2.2400647020401152 2.2381529869062171 2.2246332573209209 0.75169284335718045 5.0723090022103845 10.311886083758985 1.250053419359471 0.25201091666495817 0.030869646937696903 0.31683090917839302
decision_type=2 2 2 2 2 2 2 2 2 2 2 2 2 2
left_child=2 -2 4 7 5 6 -1 8 13 -10 -9 -8 -5 -4
right_child=1 -3 3 12 -6 -7 11 10 9 -11 -12 -13 -14 -15
leaf_value=0.0011284638394595474 -0.23211696354352901 0.2143234390477966 -0.011679765686226822 -0.18710590201805388 -0.19053256605537991 0.09655485313477935 -0.085485738680087853 0.14317645305790525 -0.10096656400258237 0.25283192471263066 -0.032228642542210563 -0.27958360272978483 -0.0065619740690917808 -0.18923443591944558
leaf_weight=13.681158825755125 0.73725338280200858 8.3740448113530856 10.595541357994081 4.3594823256134978 5.2968576215207568 4.2773819640278807 11.042038321495054 11.65742279961705 1.901674274355172 3.2928960360586643 3.5966665297746649 2.6109295859932891 3.588701456785202 2.4584705159068099
leaf_count=79 4 177 61 28 45 27 91 65 13 28 24 18 26 18
internal_value=0 0.178199 -0.0190049 0.0184672 -0.0610889 -0.0393992 -0.060674 0.0478981 0.00282559 0.12331 0.101819 -0.122604 -0.105588 -0.0451188
internal_weight=0 9.1113 78.3592 41.4509 36.9084 31.6115 27.3341 33.5027 18.2486 5.19457 15.2541 13.653 7.94818 13.054
internal_count=704 181 523 263 260 215 188 209 120 41 89 109 54 79
is_linear=0
shrinkage=0.2


Tree=16
num_leaves=15
num_cat=0
split_feature=1 1 12 1 14 14 6 14 5 14 16 3 3 5
split_gain=1.66448 2.33047 1.43436 1.51346 2.0533 2.30478 1.41018 2.42234 1.39042 1.32709 1.96886 2.34386 3.65872 2.34447
threshold=0.46515420887611575 0.5220336136359407 6.8388696697022233 0.79012430527089339 150.50000000000003 62.500000000000007 -0.089547118612622836 85.500000000000014 0.32155450868864954 75.500000000000014 6.7934152291061496 -0.069194579060103692 -0.033548120621820193 0.28744063122970454
decision_type=2 2 2 2 2 2 2 2 2 2 2 2 2 2
left_child=-1 -2 3 4 5 -3 7 -7 -8 -5 -11 13 -13 -12
right_child=1 2 -4 9 -6 6 8 -9 -10 10 11 12 -14 -15
leaf_value=-0.092124393478223016 0.18860720607288756 -0.078082454166121473 0.12406018427721342 -0.10654506734955685 -0.12354102872004656 0.15710436375234271 0.14868283806028287 -0.093792219604607943 -0.051762244281419158 -0.056619291213374057 -0.12259378638884506 0.2768310644281608 -0.023000301447499146 0.056197079578897649
leaf_weight=6.9534837678074828 2.816864810883998 4.2615237738937202 3.7342387028038493 6.8584237657487384 2.9039452075958243 2.5916130878031316 11.012271370738739 3.790564700961113 1.5832673609256733 18.748865276575089 4.9572650454938429 3.3674137778580189 3.1514462549239388 7.1868484243750572
leaf_count=47 21 34 30 51 24 23 107 36 14 181 37 23 34 42
internal_value=0 0.010052 0.00326869 -0.00313724 0.0350188 0.0548323 0.0846788 0.00808944 0.123487 -0.0256698 -0.0108435 0.0351429 0.131882 -0.0167859
internal_weight=0 76.9646 74.1477 70.4134 26.1432 23.2392 18.9777 6.38218 12.5955 44.2703 37.4118 18.663 6.51886 12.1441
internal_count=704 657 636 606 238 214 180 59 121 368 317 136 57 79
is_linear=0
shrinkage=0.2


Tree=17
num_leaves=15
num_cat=0
split_feature=2 10 2 2 5 10 1 7 2 1 11 9 9 2
split_gain=1.5588 1.90662 1.74224 2.83212 2.36689 3.02435 2.75472 2.21391 2.89002 2.54701 5.49263 2.18653 2.96673 1.93281
threshold=250.7386826347882 10.311701936469413 182.59190732884761 138.36976520538465 0.3055878801489938 10.311416453552519 0.49535545729581121 0.75238218981154092 -256.6309005324382 0.85539496359548572 -3.0230354819910081 2.2233377431661565 2.2381532601125018 -135.21600591274918
decision_type=2 2 2 2 2 2 2 2 2 2 2 2 2 2
left_child=2 -2 3 4 5 -1 -7 -8 11 10 -10 -9 -13 -12
right_child=1 -3 -4 -5 -6 6 7 8 9 -11 13 12 -14 -15
leaf_value=0.18524830283250152 -0.11933769032650149 0.096255145511535301 -0.15164701707704664 0.23606360510555258 0.051908805794209749 -0.29224208945808605 -0.21325585951386411 0.06562334002360791 -0.29210085684929454 -0.049203244859806892 0.0078107704389506292 -0.19614938320033773 0.033015343857496854 0.18162387360890922
leaf_weight=2.3784739524126044 1.9223006889224041 11.204442927613853 3.3297741375863543 1.9185738563537587 17.562067247927189 1.7492378652095784 2.6432860493659964 2.699239831417791 1.4259136989712633 12.153724789619444 3.8293550852686069 8.3894483372569066 3.0926489681005469 7.7146394066512842
leaf_count=13 14 145 24 18 132 11 23 19 8 98 31 71 34 63
internal_value=0 0.0646834 -0.0105173 -0.00334894 -0.0105668 -0.0343797 -0.0463341 -0.0360798 -0.0241646 0.0165804 0.0782243 -0.0963483 -0.134425 0.123967
internal_weight=0 13.1267 68.8864 65.5566 63.638 46.076 43.6975 41.9483 39.305 25.1236 12.9699 14.1813 11.4821 11.544
internal_count=704 159 545 521 503 371 358 347 324 200 102 124 105 94
is_linear=0
shrinkage=0.2


Tree=18
num_leaves=15
num_cat=0
split_feature=17 1 0 14 14 11 1 6 14 10 10 1 14 14
split_gain=6.16552 3.47276 2.0389 1.63628 1.85758 1.28843 1.56511 1.48424 1.56783 1.28423 2.01344 1.72776 1.48022 1.26155
threshold=2.5000000000000004 0.50622308244452474 1.4071696378893119 55.500000000000007 32.500000000000007 4.2577469211727577 0.80421781839722384 0.0521278229477087 121.50000000000001 10.311889796404172 10.338020619003844 0.6468526751009559 62.500000000000007 144.50000000000003
decision_type=2 2 2 2 2 2 2 2 2 2 2 2 2 2
left_child=2 -2 13 4 -4 6 7 8 9 11 -11 -5 -12 -1
right_child=1 -3 3 5 -6 -7 -8 -9 -10 10 12 -13 -14 -15
leaf_value=-0.22818314245248872 -0.29831878571256903 0.21375122417154546 0.001842601319195474 -0.15044801817475451 -0.23308664877358207 -0.12588997181907854 -0.019797655843549131 0.14769526208433789 -0.10984635934779233 0.24236371637393736 -0.097704492111660546 0.072575966600066752 0.088598282734529826 -0.013433045768903286
leaf_weight=2.8372757211327544 0.57397589460015197 6.8761791726574302 2.7358798645436755 2.6247189268469908 2.6505531445145607 3.0376752912998191 34.546090476214886 4.6695606671273699 3.0381448902189723 2.5233306698501101 2.3119831643998605 2.9522989094257355 6.5070179365575314 1.7810873650014398
leaf_count=27 4 177 19 16 30 28 231 28 24 28 14 19 43 16
internal_value=0 0.1743 -0.0167962 -0.00801221 -0.113761 0.00114391 0.00766525 0.0461894 0.0224395 0.0461936 0.0848312 -0.0323861 0.0397573 -0.145364
internal_weight=0 7.45016 72.2156 67.5973 5.38643 62.2108 59.1731 24.6271 19.9575 16.9193 11.3423 5.57702 8.819 4.61836
internal_count=704 181 523 480 49 431 403 172 144 120 85 35 57 43
is_linear=0
shrinkage=0.2


Tree=19
num_leaves=15
num_cat=0
split_feature=17 0 4 4 4 16 13 0 0 0 3 4 5 2
split_gain=4.85544 2.28677 1.53779 2.49277 4.07962 3.85647 1.78715 3.06193 1.61905 3.3364 2.87055 2.20314 2.04181 1.82619
threshold=2.5000000000000004 1.6565617320184987 0.040442275703564706 -0.027622624341234196 -0.083273470231368232 6.5929685291165763 0.15818276772012749 1.6068546864977549 1.7523116256469524 1.6054545411131242 -0.021012623385136597 0.12164096678441332 0.29570771748239216 -135.21600591274918
decision_type=2 2 2 2 2 2 2 2 2 2 2 2 2 2
left_child=2 -2 3 4 5 -1 7 -5 9 10 12 -11 13 -4
right_child=1 -3 8 6 -6 -7 -8 -9 -10 11 -12 -13 -14 -15
leaf_value=-0.1614682453341196 0.21045534489964962 -0.18772958483739144 -0.035726638011460386 -0.23209597572046065 0.11680735462383661 0.080834753929082903 0.025218601217654974 -0.021139076092073508 0.13373384012666234 -0.18184438841633369 -0.11986894497344852 -0.015695088751272842 0.20932089883222377 0.12028566459277917
leaf_weight=7.1937009431421739 5.6358644030988208 0.6427068393677472 5.728308167308569 6.6274355724453908 7.5492572262883213 4.1392733603715897 3.1778534576296797 4.706595815718174 4.0350565593689671 4.9747035205364218 3.1967239566147354 8.9098067451268417 4.1077744401991358 6.3038003072142619
leaf_count=67 177 4 38 53 54 30 22 30 31 34 28 60 34 42
internal_value=0 0.169695 -0.0138327 -0.044999 0.00290493 -0.0729691 -0.107329 -0.144494 0.0141029 -0.000427541 0.0532802 -0.075225 0.0875748 0.0460105
internal_weight=0 6.27857 70.6503 33.3941 18.8822 11.333 14.5119 11.334 37.2562 33.2211 19.3366 13.8845 16.1399 12.0321
internal_count=704 181 523 256 151 97 105 83 267 236 142 94 114 80
is_linear=0
shrinkage=0.2


end of trees

feature_importances:
Column_14=29
Column_10=25
Column_9=24
Column_3=22
Column_0=20
Column_1=19
Column_2=18
Column_4=17
Column_5=16
Column_7=16
Column_16=12
Column_8=11
Column_12=11
Column_17=11
Column_11=9
Column_15=8
Column_6=6
Column_13=6

parameters:
[boosting: gbdt]
[objective: binary]
[metric: binary_logloss]
[tree_learner: serial]
[device_type: cpu]
[linear_tree: 0]
[data: ]
[valid: ]
[num_iterations: 10000]
[learning_rate: 0.2]
[num_leaves: 15]
[num_threads: 0]
[deterministic: 0]
[force_col_wise: 0]
[force_row_wise: 0]
[histogram_pool_size: -1]
[max_depth: -1]
[min_data_in_leaf: 15]
[min_sum_hessian_in_leaf: 0.001]
[bagging_fraction: 0.9]
[pos_bagging_fraction: 1]
[neg_bagging_fraction: 1]
[bagging_freq: 0]
[bagging_seed: 28073]
[feature_fraction: 0.5]
[feature_fraction_bynode: 1]
[feature_fraction_seed: 8222]
[extra_trees: 0]
[extra_seed: 8505]
[early_stopping_round: 50]
[first_metric_only: 0]
[max_delta_step: 0]
[lambda_l1: 0]
[lambda_l2: 0]
[linear_lambda: 0]
[min_gain_to_split: 0]
[drop_rate: 0.1]
[max_drop: 50]
[skip_drop: 0.5]
[xgboost_dart_mode: 0]
[uniform_drop: 0]
[drop_seed: 15689]
[top_rate: 0.2]
[other_rate: 0.1]
[min_data_per_group: 100]
[max_cat_threshold: 32]
[cat_l2: 10]
[cat_smooth: 10]
[max_cat_to_onehot: 4]
[top_k: 20]
[monotone_constraints: ]
[monotone_constraints_method: basic]
[monotone_penalty: 0]
[feature_contri: ]
[forcedsplits_filename: ]
[refit_decay_rate: 0.9]
[cegb_tradeoff: 1]
[cegb_penalty_split: 0]
[cegb_penalty_feature_lazy: ]
[cegb_penalty_feature_coupled: ]
[path_smooth: 0]
[interaction_constraints: ]
[verbosity: -1]
[saved_feature_importance_type: 0]
[max_bin: 255]
[max_bin_by_feature: ]
[min_data_in_bin: 3]
[bin_construct_sample_cnt: 200000]
[data_random_seed: 20155]
[is_enable_sparse: 1]
[enable_bundle: 1]
[use_missing: 1]
[zero_as_missing: 0]
[feature_pre_filter: 1]
[pre_partition: 0]
[two_round: 0]
[header: 0]
[label_column: ]
[weight_column: ]
[group_column: ]
[ignore_column: ]
[categorical_feature: ]
[forcedbins_filename: ]
[objective_seed: 15792]
[num_class: 1]
[is_unbalance: 0]
[scale_pos_weight: 1]
[sigmoid: 1]
[boost_from_average: 1]
[reg_sqrt: 0]
[alpha: 0.9]
[fair_c: 1]
[poisson_max_delta_step: 0.7]
[tweedie_variance_power: 1.5]
[lambdarank_truncation_level: 30]
[lambdarank_norm: 1]
[label_gain: ]
[eval_at: ]
[multi_error_top_k: 1]
[auc_mu_weights: ]
[num_machines: 1]
[local_listen_port: 12400]
[time_out: 120]
[machine_list_filename: ]
[machines: ]
[gpu_platform_id: -1]
[gpu_device_id: -1]
[gpu_use_dp: 0]
[num_gpu: 1]

end of parameters

pandas_categorical:null
