tree
version=v3
num_class=1
num_tree_per_iteration=1
label_index=0
max_feature_idx=17
objective=binary sigmoid:1
feature_names=Column_0 Column_1 Column_2 Column_3 Column_4 Column_5 Column_6 Column_7 Column_8 Column_9 Column_10 Column_11 Column_12 Column_13 Column_14 Column_15 Column_16 Column_17
feature_infos=[1.2346093662789044:1.9952932361101223] [0.077881925041574901:3.4150107712893245] [-1646.6776231156573:1786.9753826398069] [-0.47820557289860088:0.42811791383219938] [-0.79507032854722426:0.70165903149830455] [0.19011554804521:0.43092557777262308] [-0.49544310195112612:0.24097959183673459] [0.182543330185202:2.015115901414676] [0.36143571596895141:1.6285321476764898] [2.1653626823492496:2.2963154517607771] [10.28247361013198:11.005539406286918] [-14.742803642661976:8.9501984048142393] [0:13.715743132007686] [0:0.43193980318729891] [0:400] [0:0.0277777777777777] [0:8.3037524155634124] [0:5]
tree_sizes=1655 1677 1664 1662 1676 1666 1680 1683 1679 1671 1673 1671 1665 1683 1681 1673 1677 1676 1679 1679

Tree=0
num_leaves=15
num_cat=0
split_feature=17 16 12 9 4 0 3 3 12 1 9 9 3 0
split_gain=166.592 67.3716 40.3318 15.2301 13.1103 12.4361 12.0844 9.58137 6.47512 9.78718 5.46082 4.15984 3.71889 5.71824
threshold=1.5000000000000002 6.5679980145478085 1.7636502775414573 2.2247686726513916 0.12466478567762497 1.6271259588851759 -0.045035356642782291 -0.066378309067268229 5.0742920657819175 1.0431802305912983 2.2203860628314138 2.2387526984437969 -0.10159902810612027 1.5330071356373252
decision_type=2 2 2 2 2 2 2 2 2 2 2 2 2 2
left_child=1 10 3 6 7 -2 12 8 9 11 -1 -4 13 -3
right_child=5 2 4 -5 -6 -7 -8 -9 -10 -11 -12 -13 -14 -15
leaf_value=0.23244674813751431 0.73162773207725396 0.16238625916351615 0.40808450174594113 0.092432569715392043 0.64979478389041134 0.44474210912338052 0.084541271414628305 0.22171167321407897 0.69002931674894219 0.19084833280920249 -0.030361931880604265 0.68540727060135209 0.55647650964225748 0.42600672150190305
leaf_weight=3.6059065908193615 45.434423044323921 4.5674816817045309 4.3270879089832324 19.712289363145828 14.664020135998724 6.9714194089174262 6.490631863474845 7.4522069543600109 4.8078754544258109 4.8078754544258109 25.722133681178093 4.3270879089832306 4.5674816817045203 11.779294863343237
leaf_count=15 189 19 18 82 61 29 27 31 20 20 107 18 19 49
internal_value=0.397186 0.264288 0.352214 0.226504 0.498875 0.693464 0.322942 0.412836 0.490795 0.41964 0.00195061 0.546746 0.396928 0.352348
internal_weight=0 116.831 87.5033 47.1172 40.3862 52.4058 27.4049 25.7221 18.2699 13.4621 29.328 8.65418 20.9143 16.3468
internal_count=704 486 364 196 168 218 114 107 76 56 122 36 87 68
is_linear=0
shrinkage=1


Tree=1
num_leaves=15
num_cat=0
split_feature=17 10 8 15 3 3 10 9 2 9 10 10 1 14
split_gain=113.347 39.0903 30.3644 10.2306 9.5471 8.88176 7.75218 7.03341 7.02945 6.72537 6.28453 6.44919 5.32571 5.72025
threshold=1.5000000000000002 10.936597110498079 0.56306131323027697 0.011550453514739151 -0.013168293351929197 0.095139224113697865 10.93021039675426 2.2388271777758937 -402.8205034537396 2.224633261122015 10.916636814426454 10.311705109511317 1.0431802305912983 58.500000000000007
decision_type=2 2 2 2 2 2 2 2 2 2 2 2 2 2
left_child=1 2 -1 7 6 12 8 -4 -5 -10 11 -2 13 -3
right_child=10 5 3 4 -6 -7 -8 -9 9 -11 -12 -13 -14 -15
leaf_value=0.2552525777203043 0.25013905427868199 -0.40414201272089134 -0.41240650520015426 -0.21072611526633378 -0.2826305461663618 0.0047420963215951961 0.24657877244993054 -0.083786626970263844 0.11045573984018886 -0.082754781405139866 0.29702578909621707 -0.072320386420485591 -0.39461771610952406 -0.1901365991810732
leaf_weight=13.894058540463446 6.2023304253816587 6.2357246726751354 5.3927193880081159 7.0517588555812756 5.4525195360183778 5.1006813943386069 4.5059691071510306 5.0399367958307266 14.14748337864876 14.687980949878691 38.016904294490814 4.1348869502544403 10.963048249483107 25.130301222205162
leaf_count=61 27 25 22 29 22 21 19 21 59 61 173 18 44 102
internal_value=0 -0.104325 -0.00952752 -0.0748967 -0.0342189 -0.244579 -0.000686832 -0.253653 -0.0317333 0.0120397 0.259428 0.121155 -0.274623 -0.232682
internal_weight=0 117.602 70.1724 56.2784 45.8457 47.4298 40.3932 10.4327 35.8872 28.8355 48.3541 10.3372 42.3291 31.366
internal_count=704 486 294 233 190 192 168 43 149 120 218 45 171 127
is_linear=0
shrinkage=0.2


Tree=2
num_leaves=15
num_cat=0
split_feature=17 5 11 14 0 13 10 10 11 9 9 14 14 5
split_gain=80.0129 34.1961 21.0809 14.1204 9.65573 7.64982 7.1966 6.86603 6.85332 4.77439 4.18926 3.29371 6.35044 3.94256
threshold=1.5000000000000002 0.2874640041448126 1.8951345781368105 55.500000000000007 1.6271259588851759 0.19576789818616505 10.936597110498079 10.935907374632732 1.5985113142479215 2.2352940978085787 2.2246203108742919 64.000000000000014 76.500000000000014 0.24394775445434497
decision_type=2 2 2 2 2 2 2 2 2 2 2 2 2 2
left_child=1 6 3 -3 -2 8 7 -1 9 -5 -10 -8 -13 -14
right_child=4 2 -4 5 -6 -7 11 -9 10 -11 -12 12 13 -15
leaf_value=-0.14980240904184394 0.27327200617434261 -0.28855617762012825 -0.23283848848375396 -0.14736471986101457 0.011003231663078081 0.21944740603646157 -0.35011070733601657 0.14111960760184367 0.042584993088877116 0.12609160650501536 0.28087754232865098 0.0069449743424392953 -0.28028431565721518 -0.082374244955436118
leaf_weight=15.901808783411981 36.961710453033447 3.6731116026639929 10.055342584848402 8.1289647370576876 6.6208261251449576 17.847140982747078 8.2271235436201078 4.0769404023885718 6.3349938839673978 3.7237989455461493 5.5245712399482727 4.6842240393161765 22.578627079725269 4.9000612497329703
leaf_count=66 189 15 41 34 29 81 34 18 27 16 23 19 92 20
internal_value=0 -0.0845457 0.0290924 0.0873205 0.23343 0.120541 -0.18862 -0.0904357 0.0460993 -0.0614526 0.153589 -0.237186 -0.2083 -0.244993
internal_weight=0 115.657 55.2879 45.2326 43.5825 41.5595 60.3688 19.9787 23.7123 11.8528 11.8596 40.39 32.1629 27.4787
internal_count=704 486 237 196 218 181 249 84 100 50 50 165 131 112
is_linear=0
shrinkage=0.2


Tree=3
num_leaves=15
num_cat=0
split_feature=17 8 0 0 7 6 14 8 7 6 7 4 0 0
split_gain=57.8193 16.8276 14.3869 8.63028 8.28958 6.92972 7.27599 7.22575 5.7666 5.42976 5.32959 6.5433 4.58521 6.12813
threshold=1.5000000000000002 0.54698396102404456 1.7238849007546058 1.7135014782401623 1.4058475195315145 0.0521278229477087 150.50000000000003 0.84345028632632746 1.2559588645984523 -0.058766767957534896 1.0202784213778748 0.077645526002716264 1.6020518315254464 1.5446547680657581
decision_type=2 2 2 2 2 2 2 2 2 2 2 2 2 2
left_child=1 8 4 -2 5 7 -7 9 -1 10 11 -3 13 -11
right_child=3 2 -4 -5 -6 6 -8 -9 -10 12 -12 -13 -14 -15
leaf_value=-0.022762504925156347 0.24326193912896274 -0.29606508814751431 0.11347300473651761 -0.087858981766297237 0.077215202157091323 0.047615207247443295 -0.27817227243008363 -0.24397046072077488 0.22900150121362317 -0.083496821565114565 -0.29311338027406703 0.031564167499121658 -0.17518072416211306 0.2655304042515817
leaf_weight=6.1319357305765143 35.246491968631744 3.721311151981352 11.132757246494291 3.4574068784713736 7.2002070695161811 11.94338884949684 3.559279888868331 31.614790484309196 8.9514846354722959 4.2021291553974205 8.5017361640930158 7.0723779946565628 4.145829811692237 3.8610702008008957
leaf_count=28 203 16 48 15 31 50 15 133 45 18 36 31 18 17
internal_value=0 -0.0698628 -0.100435 0.213683 -0.128183 -0.146993 -0.0271828 -0.17642 0.126651 -0.108632 -0.174678 -0.0813917 -0.00425115 0.0836352
internal_weight=0 112.038 96.9549 38.7039 85.8221 78.6219 15.5027 63.1192 15.0834 31.5045 19.2954 10.7937 12.209 8.0632
internal_count=704 486 413 218 365 334 65 269 73 136 83 47 53 35
is_linear=0
shrinkage=0.2


Tree=4
num_leaves=15
num_cat=0
split_feature=14 14 1 9 1 10 10 14 14 8 15 3 3 14
split_gain=18.0073 10.1654 9.54903 9.70746 8.33701 7.6682 6.52929 5.62218 5.38457 3.70699 3.16624 3.16124 6.56668 4.24204
threshold=57.500000000000007 150.50000000000003 0.80402890099148394 2.2203860628314138 1.1308531620278408 10.954795009999085 10.942764078544595 74.500000000000014 112.50000000000001 0.8022008414174292 0.015389817740543101 -0.080615942028985491 0.024539101099447205 73.500000000000014
decision_type=2 2 2 2 2 2 2 2 2 2 2 2 2 2
left_child=-1 2 8 10 -3 6 7 -5 11 -10 -4 13 -13 -2
right_child=1 4 3 5 -6 -7 -8 -9 9 -11 -12 12 -14 -15
leaf_value=-0.19959514437911496 0.059175320412492322 -0.18442923028231747 -0.0082762146586397665 -0.26170016490731113 0.11767457791236527 0.25157483995910168 -0.19450253690252678 0.0087390867428976306 0.13055749991290441 -0.10950566208629919 0.24478485432130884 -0.0082708537938387342 0.29153391881418361 0.25004637263140594
leaf_weight=15.611908525228499 6.3942033499479285 14.162179261446001 2.7011568397283536 3.406485751271247 4.9244387894868842 3.3980839401483527 10.957620143890379 31.585104092955589 4.4466205239295942 6.1061393469572067 7.383642852306366 10.074072882533075 4.116443619132041 17.148200318217278
leaf_count=74 32 64 15 15 25 21 49 147 23 29 50 49 19 92
internal_value=0 0.0280401 0.0518768 -0.00179729 -0.106485 -0.0383378 -0.0597777 -0.0175886 0.117941 -0.00835015 0.177004 0.153261 0.0786978 0.198205
internal_weight=0 126.804 107.718 59.4321 19.0866 49.3473 45.9492 34.9916 48.2857 10.5528 10.0848 37.7329 14.1905 23.5424
internal_count=704 630 541 297 89 232 211 162 244 52 65 192 68 124
is_linear=0
shrinkage=0.2


Tree=5
num_leaves=15
num_cat=0
split_feature=17 5 2 13 3 8 1 4 5 5 4 1 8 1
split_gain=36.5624 14.2536 13.976 10.1453 6.98136 5.67411 4.85851 4.26557 3.127 3.11202 2.82738 2.61878 2.34668 2.30981
threshold=1.5000000000000002 0.2874640041448126 417.06277785064793 0.19576789818616505 -0.12395209423292185 0.8022008414174292 1.0422424084805539 0.047412371639259557 0.2323068453015372 0.29570771748239216 0.11244136079876486 0.95155970393582356 0.83075695492869983 0.60897852979457701
decision_type=2 2 2 2 2 2 2 2 2 2 2 2 2 2
left_child=1 2 5 4 11 6 7 -1 -9 13 -5 -3 -6 -2
right_child=9 3 -4 10 12 -7 -8 8 -10 -11 -12 -13 -14 -15
leaf_value=0.12447152485108248 0.080347183107904466 0.01600912470763554 0.21333414434673714 0.081966904794081641 -0.049780580814495566 -0.22512313081389565 -0.20571741840783384 0.013053760932959303 -0.19394774191677561 0.043043890411750628 0.25332416404830366 0.21249235831191898 -0.19349873170448456 0.24200932146436546
leaf_weight=5.1916768699884477 4.1820495501160684 12.719418182969092 4.4951399564743033 8.8554958552122098 8.9552188962698036 23.97244918346405 9.4119099676609022 5.6764190196990949 6.0092274248600006 4.8512592315673819 6.8162174969911566 3.4491541534662238 9.2270682603120786 22.85814094543457
leaf_count=23 27 56 20 42 40 110 45 25 26 25 43 15 41 166
internal_value=0 -0.0540302 -0.124535 0.0231474 -0.0376898 -0.154752 -0.0905829 -0.0263763 -0.0933947 0.190544 0.156497 0.0579238 -0.122714 0.217007
internal_weight=0 104.779 54.7568 50.0226 34.3509 50.2617 26.2892 16.8773 11.6856 31.8914 15.6717 16.1686 18.1823 27.0402
internal_count=704 486 249 237 152 229 119 74 51 218 85 71 81 193
is_linear=0
shrinkage=0.2


Tree=6
num_leaves=15
num_cat=0
split_feature=2 15 16 8 6 9 4 16 13 4 4 2 16 8
split_gain=10.557 6.32549 7.8921 5.35383 5.04331 5.62205 5.11298 4.65408 3.60914 3.7852 5.23434 3.07761 3.18526 3.11064
threshold=417.06277785064793 0.014715230104246102 6.5679980145478085 0.53206312332501482 -0.016967916722463647 2.2246332684615973 0.21677089425807419 7.5400788855512735 0.065299778123595623 0.031645921130882257 -0.099992638957510246 -251.34517024062498 6.8329847022970549 0.83075695492869983
decision_type=2 2 2 2 2 2 2 2 2 2 2 2 2 2
left_child=1 2 -1 -4 6 -6 -3 8 11 10 -10 -5 -13 -14
right_child=-2 4 3 7 5 -7 -8 -9 9 -11 -12 12 13 -15
leaf_value=-0.1764091912636141 0.1578601213332452 -0.035556774854297042 0.16836040285717954 -0.23879480227092542 0.25808151867229334 0.0090633766235984764 0.23560015799656414 0.16304308292544367 -0.13877891802790648 -0.093779560079293445 0.16610225716037957 -0.25572080984113815 0.053254671754540683 -0.13329282407806761
leaf_weight=16.49527121335268 15.497242644429205 25.953931510448459 5.5229558423161498 5.8024442195892325 7.5099156498908979 7.013240709900856 3.1154855862259856 4.1363368034362784 3.1287345588207236 8.9616872966289503 8.0426158010959643 3.0693191438913408 7.883721709251402 6.5427268892526627
leaf_count=87 107 137 37 29 46 37 18 22 15 45 40 14 38 32
internal_value=0 -0.0181504 -0.0555736 -0.0180299 0.0415875 0.137831 -0.0064958 -0.0396712 -0.0589775 0.00304331 0.0807149 -0.112572 -0.0707109 -0.0313489
internal_weight=0 113.178 69.5858 53.0905 43.5926 14.5232 29.0694 47.5676 43.4312 20.133 11.1714 23.2982 17.4958 14.4264
internal_count=704 597 359 272 238 83 155 235 213 100 55 113 84 70
is_linear=0
shrinkage=0.2


Tree=7
num_leaves=15
num_cat=0
split_feature=17 16 12 15 11 15 15 15 1 6 1 11 1 15
split_gain=25.7569 10.4091 7.09319 4.79398 4.39571 6.54348 5.09904 3.83562 5.52425 3.72533 3.8912 3.69854 3.41806 3.06442
threshold=2.5000000000000004 6.5679980145478085 1.762796712368581 0.015560425135501302 1.7781116543839761 0.013049450549450501 0.011221152497194102 0.011550453514739151 0.73906286731872506 -0.16102471695024817 0.92463715087368425 -4.4641728838810488 0.68161248934331453 0.013780751015684002
decision_type=2 2 2 2 2 2 2 2 2 2 2 2 2 2
left_child=1 12 4 9 7 6 -6 -3 -9 -4 -11 -12 13 -1
right_child=-2 2 3 -5 5 -7 -8 8 -10 10 11 -13 -14 -15
leaf_value=0.097544562686813746 0.20776515872799375 -0.18079703455743837 -0.16426489049994653 0.21389175591713655 -0.16979859503184169 -0.2480901237570024 0.13446275674814398 0.17825165039195345 -0.033594234122765389 0.13930745412007342 0.1628417186507306 -0.093876971364268938 -0.20446199191937897 -0.17894527698224313
leaf_weight=3.4038464874029186 20.479614302515984 4.2545696943998363 3.5086345523595837 6.9903330504894248 4.1399047300219554 9.3057212233543378 4.7095823138952255 6.7990062087774303 17.851369559764862 11.484346240758898 3.06186968833208 8.4119265526533109 16.559564188122749 3.0314307659864426
leaf_count=17 181 21 16 36 22 42 23 32 85 68 16 40 89 16
internal_value=0 -0.037715 -0.0038219 0.0665807 -0.0538742 -0.131001 -0.00787465 -0.00543099 0.0248366 0.0276733 0.0570067 -0.0253696 -0.156393 -0.0327
internal_weight=0 103.512 80.5173 33.4571 47.0602 18.1552 8.84949 28.9049 24.6504 26.4668 22.9581 11.4738 22.9948 6.43528
internal_count=704 523 401 176 225 87 45 138 117 140 124 56 122 33
is_linear=0
shrinkage=0.2


Tree=8
num_leaves=15
num_cat=0
split_feature=14 2 14 1 6 16 8 12 14 16 2 16 2 6
split_gain=9.00291 7.46692 3.93856 6.25294 4.79085 4.72031 4.61197 3.49725 5.87422 5.52248 3.17481 3.22756 3.15603 3.11816
threshold=57.500000000000007 417.06277785064793 136.50000000000003 0.72674530694732853 -0.08667599209590264 6.5423878650364466 0.86651539327153648 1.0000000180025095e-35 75.500000000000014 6.8133956899820136 -76.024874836688994 7.4910749815195485 -266.42262686718931 -0.19945549954874922
decision_type=2 2 2 2 2 2 2 2 2 2 2 2 2 2
left_child=-1 2 3 4 13 -4 -7 8 -5 -9 11 12 -10 -2
right_child=1 -3 5 7 -6 6 -8 9 10 -11 -12 -13 -14 -15
leaf_value=-0.15530905922736243 0.14744807160400028 0.17320791835782964 -0.24176417919535642 -0.24312313240329408 0.17735458952642069 0.070072115631415827 -0.19884262253391607 -0.020538024579009415 -0.25441043827710319 0.19050635083432063 0.083996390617036745 0.07071966252108744 -0.028347890576271136 -0.10432489084785707
leaf_weight=12.843922287225721 3.1206715703010559 11.629319250583647 5.2303054034709957 5.7934390306472805 14.855352535843847 8.1821494624018651 3.7067276462912551 17.295490898191932 4.738685578107833 6.9535832628607741 7.9787024632096299 4.3142329901456842 5.1603430286049834 5.325224384665491
leaf_count=74 16 98 31 28 97 45 20 95 25 49 50 21 26 29
internal_value=0 0.0221483 0.00318848 0.0228189 0.108975 -0.0834278 -0.0137704 -0.0156143 -0.0637865 0.0399804 -0.0169689 -0.0736463 -0.136565 -0.0112974
internal_weight=0 104.284 92.6549 75.5357 23.3012 17.1192 11.8889 52.2345 27.9854 24.2491 22.192 14.2133 9.89903 8.4459
internal_count=704 630 532 436 142 96 65 294 150 144 122 72 51 45
is_linear=0
shrinkage=0.2


Tree=9
num_leaves=15
num_cat=0
split_feature=17 14 16 0 0 5 10 9 0 4 4 6 4 9
split_gain=17.6344 6.35253 6.01408 5.25745 4.14715 3.59993 2.54143 3.0521 2.43225 2.52374 4.61657 5.33622 4.16504 4.03002
threshold=2.5000000000000004 55.500000000000007 6.2765003714557031 1.4071696378893119 1.6569637626201048 0.21639104334470333 10.951214416213979 2.2203860628314138 1.7865445024961109 -0.031052126744708749 0.048450291330749455 -0.055520686335363091 -0.096030890725547643 2.2418172960588976
decision_type=2 2 2 2 2 2 2 2 2 2 2 2 2 2
left_child=1 -1 6 -4 -2 -5 7 -3 9 12 11 -11 13 -7
right_child=4 2 3 5 -6 8 -8 -9 -10 10 -12 -13 -14 -15
leaf_value=-0.18743623047294083 0.22401796108598002 -0.010115119685708926 -0.19101098521944371 -0.23234449862581968 -0.1491333139473543 0.12595116340252077 0.019213568079976873 -0.2534653174670502 0.18157475125093098 -0.26739342976909808 0.039414745643961899 -0.0065333657156605943 0.24915463007282934 -0.16414288185513215
leaf_weight=9.2987209782004339 15.038152344524862 2.8639716506004316 4.9057610407471648 2.1343762725591651 1.293854072690009 4.930597707629202 3.1892698779702178 7.3581333458423615 4.0578005611896506 4.7900138199329367 35.611024677753448 9.0880427062511497 4.7615636438131252 3.1325133889913559
leaf_count=56 174 14 26 11 7 26 18 48 23 24 194 45 23 15
internal_value=0 -0.0303282 -0.013502 0.00899632 0.194456 0.023319 -0.136654 -0.185285 0.0315406 0.0217706 0.00128121 -0.0965693 0.100837 0.0132498
internal_weight=0 96.1218 86.8231 73.4117 16.332 68.5059 13.4114 10.2221 66.3716 62.3138 49.4891 13.8781 12.8247 8.06311
internal_count=704 523 467 387 181 361 80 62 350 327 263 69 64 41
is_linear=0
shrinkage=0.2


Tree=10
num_leaves=15
num_cat=0
split_feature=3 2 1 8 0 0 14 1 14 3 3 1 1 1
split_gain=6.12094 5.09017 5.77401 3.41703 3.50411 3.38672 5.97386 3.24184 4.93233 3.57906 4.40526 3.05004 3.39868 2.65903
threshold=-0.053080724315592694 -155.92326426209493 0.47962287053522518 0.55421292765057684 1.7343228037328153 1.4723496929664923 112.50000000000001 0.7317979652812775 75.500000000000014 -0.086356386834855678 -0.10777397958865133 0.86824793372294118 0.77459573525272762 1.1678389462012342
decision_type=2 2 2 2 2 2 2 2 2 2 2 2 2 2
left_child=1 3 -3 -1 5 6 -5 -4 -9 10 -10 12 -2 -13
right_child=11 2 7 4 -6 -7 -8 8 9 -11 -12 13 -14 -15
leaf_value=0.19750046196163232 -0.073848633224024282 -0.20595393781660729 0.18684842924052916 0.22163603493374487 0.14816835648860449 -0.11832685182298144 -0.17954383283696013 -0.11845812696966587 0.11222093137478394 0.24705676458997816 -0.12893912269638788 -0.21613731818369764 0.097440089355987747 -0.026584056831124459
leaf_weight=2.4649841710925129 15.304988607764246 2.6440792456269255 11.84503687918186 3.5556936264038148 3.2015917003154746 17.947909224778414 2.5490623787045479 4.9784300252795246 13.448774710297588 5.1988927610218516 3.9109387919306764 7.9208864495158178 6.6454158499836913 4.7266303226351738
leaf_count=20 93 16 97 26 16 97 15 29 94 38 27 56 48 32
internal_value=0 0.0353501 0.0801481 -0.027999 -0.048394 -0.074558 0.054122 0.0993567 0.0617222 0.101486 0.0578904 -0.0670669 -0.0219915 -0.145297
internal_weight=0 71.7454 42.0262 29.7192 27.2543 24.0527 6.10476 39.3821 27.537 22.5586 17.3597 34.5979 21.9504 12.6475
internal_count=704 475 301 174 154 138 41 285 188 159 121 229 141 88
is_linear=0
shrinkage=0.2


Tree=11
num_leaves=15
num_cat=0
split_feature=3 7 2 16 2 5 2 7 7 9 9 9 5 12
split_gain=4.14195 3.71494 4.03011 3.09843 2.57807 3.02602 4.10737 2.26901 2.25294 3.61188 2.67854 2.00371 1.82575 2.60666
threshold=-0.053080724315592694 0.75336013902717247 -155.92326426209493 7.4910749815195485 489.26665137274739 0.30043556008360667 -263.28159657382099 1.4768127429862878 1.2559588645984523 2.2213808216240762 2.2246290500277186 2.2191326055684812 0.29935771094121194 1.7589732268184057
decision_type=2 2 2 2 2 2 2 2 2 2 2 2 2 2
left_child=1 -1 7 4 5 11 -7 8 9 -3 -10 -2 13 -11
right_child=3 2 -4 -5 -6 6 -8 -9 10 12 -12 -13 -14 -15
leaf_value=-0.15381147873408696 0.032798326317655897 0.24717052089229488 0.084464308704995716 0.12885502102779131 0.087690690510323993 0.20532326981897447 -0.11376561945590209 0.16971479750839782 -0.31741340814385977 -0.17715030808349008 -0.043187280605996775 -0.15798207732126698 0.04963986396616879 0.028880136881365516
leaf_weight=4.1344287246465674 2.5120059736073115 2.109789468348036 37.39347492903471 3.2894756719470015 3.4355073794722548 2.7980372980237007 3.8119675144553176 2.392806462943553 2.1711495742201796 5.4976000525057334 4.1444170214235783 17.846314441412687 6.7587651610374442 4.4401337839663029
leaf_count=25 20 13 285 18 24 18 22 16 11 32 29 127 33 31
internal_value=0 0.030007 0.0417156 -0.0555318 -0.0754811 -0.0962676 0.0213058 -0.0163815 -0.0341068 0.000601505 -0.13746 -0.134442 -0.0305552 -0.0850969
internal_weight=0 69.0426 64.9081 33.6933 30.4038 26.9683 6.61 27.5147 25.1219 18.8063 6.31557 20.3583 16.6965 9.93773
internal_count=704 475 450 229 211 187 40 165 149 109 40 147 96 63
is_linear=0
shrinkage=0.2


Tree=12
num_leaves=15
num_cat=0
split_feature=14 10 9 7 3 10 9 14 8 3 3 7 14 9
split_gain=3.88488 3.29091 2.79279 3.85405 3.58277 4.22579 2.919 2.86867 2.56934 2.55734 2.27828 2.27192 2.15034 2.03739
threshold=57.500000000000007 10.957908438646422 2.2246332325643614 1.276748200713915 -0.10223690704079873 10.311515159049586 2.2128803183702175 127.50000000000001 0.53521675583948392 -0.11725885518243223 0.042647948262794853 1.3452097695107488 89.000000000000014 2.2213808216240762
decision_type=2 2 2 2 2 2 2 2 2 2 2 2 2 2
left_child=-1 2 4 10 5 -2 -6 11 -5 -10 -4 13 -11 -7
right_child=1 -3 3 8 6 7 -8 -9 9 12 -12 -13 -14 -15
leaf_value=-0.11319727731024572 -0.22070976846829671 0.22468339418550443 -0.065439191782789424 0.23776222459505184 -0.035145538764560828 0.2509823281044094 0.17158486327621555 -0.1442429664458573 0.13343107624467199 0.057106908413220539 0.11418413945744355 -0.11356360369327984 -0.19090923845400418 0.057361403374990121
leaf_weight=10.543763548135756 3.0741449296474483 2.9012221582233897 36.688961789011955 2.9400175660848609 3.5469143502414218 3.1563574932515603 11.891659036278723 2.8431418091058722 4.7759131640195838 2.8209519684314719 3.0600763261318198 2.0426770001649848 2.7727462649345398 6.9835856072604656
leaf_count=74 14 38 229 33 21 40 109 17 27 16 19 11 14 42
internal_value=0 0.0151554 0.00813569 -0.0204199 0.0533112 -0.0070604 0.12409 0.0366505 0.0727318 0.025942 -0.0516109 0.0788668 -0.0658325 0.117632
internal_weight=0 89.4984 86.5971 53.0587 33.5385 18.0999 15.4386 15.0258 13.3096 10.3696 39.749 12.1826 5.5937 10.1399
internal_count=704 630 592 338 254 124 130 110 90 57 248 93 30 82
is_linear=0
shrinkage=0.2


Tree=13
num_leaves=15
num_cat=0
split_feature=15 7 15 2 10 14 15 7 7 14 14 2 15 3
split_gain=2.86184 2.87449 2.98415 3.57547 2.38509 2.35418 2.1246 4.47344 4.01859 2.95236 2.50821 3.02979 2.96776 2.34351
threshold=0.011550453514739151 1.4420795846561831 0.011860702614379052 539.05125460886586 10.920022200898417 57.500000000000007 0.014715230104246102 0.88583864431743853 1.3452097695107488 62.500000000000007 99.500000000000014 -132.22357455365889 0.013678257761437902 -0.10159902810612027
decision_type=2 2 2 2 2 2 2 2 2 2 2 2 2 2
left_child=5 2 -2 6 -5 -1 10 -8 9 -9 12 -12 -4 -13
right_child=1 -3 3 4 -6 -7 7 8 -10 -11 11 13 -14 -15
leaf_value=-0.23971359960640212 0.15636238705996619 0.19619483074796309 0.045272716914163978 -0.072946914259705259 0.23167439194146833 -0.036586466092277968 -0.10357449157843104 -0.099798918986763463 -0.19176596728791401 0.12227393245231251 -0.21087795554109989 0.14502904345467046 -0.17338607796137587 -0.12708857205081797
leaf_weight=2.556534186005595 5.3203266337513915 3.5806344076991072 11.817046172916891 1.3729107864201058 4.0938599966466427 21.272426411509514 8.4382080249488371 2.7550669088959756 2.1844720542430869 18.303963417187333 6.8232419267296791 2.2577294111251831 3.1433201096951953 2.8818082995712739
leaf_count=22 32 29 71 9 68 150 53 18 11 148 40 14 21 18
internal_value=0 0.0214498 0.012433 0.000481481 0.155173 -0.0583793 -0.0139484 0.0211559 0.0664374 0.093221 -0.0552572 -0.123523 -0.000669647 -0.00755098
internal_weight=0 72.9726 69.392 64.0716 5.46677 23.829 58.6049 31.6817 23.2435 21.059 26.9231 11.9628 14.9604 5.13954
internal_count=704 532 503 471 77 172 394 230 177 166 164 72 92 32
is_linear=0
shrinkage=0.2


Tree=14
num_leaves=15
num_cat=0
split_feature=17 0 0 14 7 0 14 15 2 15 15 15 1 15
split_gain=9.92542 4.34407 3.94235 2.4577 2.73556 2.41957 2.38455 1.66874 1.52098 3.7185 2.62086 2.39469 2.1975 3.75275
threshold=2.5000000000000004 1.6612362795256319 1.4071696378893119 55.500000000000007 1.4420795846561831 1.7523116256469524 32.500000000000007 0.016169704413752001 -334.74515135448047 0.018391220575531754 0.013279394098909351 0.015057025794402603 0.94862501008184508 0.011550453514739151
decision_type=2 2 2 2 2 2 2 2 2 2 2 2 2 2
left_child=2 -2 -1 6 5 8 -4 -7 -5 10 12 -12 13 -10
right_child=1 -3 3 4 -6 7 -8 -9 9 -11 11 -13 -14 -15
leaf_value=-0.18382804431561517 0.22020033846161746 -0.22327067995741354 0.0058398198069667543 -0.089473618560940257 0.1310043480047221 0.22727895695042416 -0.2428189175615465 0.017551762286725864 -0.024480666575798449 0.20527811698651163 -0.14406087865860265 -0.0051971944311063134 -0.053219173763528298 0.17664032637256732
leaf_weight=5.6140575334429732 9.9516011085361207 0.96962723881006319 2.8093793839216223 11.428456909954539 5.8759844824671736 2.6551989987492552 3.4211732298135757 3.5417960658669472 7.9887144789099782 3.0537307783961287 10.266011118888857 9.624425530433653 9.7312206700444204 6.9304697550833225
leaf_count=42 175 6 19 75 42 14 29 22 53 20 57 51 53 46
internal_value=0 0.180827 -0.0220014 -0.0102525 0.000302789 -0.0114727 -0.130698 0.107413 -0.0239549 -0.00822242 -0.0228601 -0.0768686 0.0207195 0.0689469
internal_weight=0 10.9212 82.9406 77.3266 71.096 65.22 6.23055 6.197 59.023 47.5946 44.5408 19.8904 24.6504 14.9192
internal_count=704 181 523 481 433 391 48 36 355 280 260 108 152 99
is_linear=0
shrinkage=0.2


Tree=15
num_leaves=15
num_cat=0
split_feature=17 9 9 5 9 9 9 10 10 9 11 7 11 9
split_gain=7.72865 3.38669 3.38081 2.97593 3.6695 3.11607 2.81265 2.97037 3.10538 3.42834 2.72626 2.5133 1.98176 2.61439
threshold=2.5000000000000004 2.2042629345461493 2.2485837450675263 0.28265579143483271 2.2246242160837886 2.2239671972737605 2.2381870182078631 10.311705783403463 10.311572630577743 2.2246203108742919 -2.4880907913763006 1.0642073350886385 -3.0272813302985555 2.2254129381800074
decision_type=2 2 2 2 2 2 2 2 2 2 2 2 2 2
left_child=2 -2 3 4 5 -1 7 8 9 -5 -9 -8 -6 -14
right_child=1 -3 -4 6 12 -7 11 10 -10 -11 -12 -13 13 -15
leaf_value=-0.038956848163259797 -0.18943635098503658 0.21489889757215708 -0.26703212573385965 -0.22351383179104989 -0.25551629822807664 0.18657091297362671 -0.0053571046723593571 0.033344742354954937 0.092110374396803515 0.065093765133922551 -0.18079009282415995 0.16902159905263822 -0.21494235628428979 -0.041887146433469857
leaf_weight=6.6673638820648176 0.91999530792236228 8.3423124980181438 2.1262336038053027 3.2409095838666024 2.8004673346877125 3.8747127167880535 5.5518352538347235 3.8429398015141487 12.795044630765913 3.3462691642343998 6.239677928388117 8.1732657887041551 4.3727620057761696 17.334194421768188
leaf_count=38 4 177 15 15 17 26 32 26 79 19 36 65 31 124
internal_value=0 0.174738 -0.0181964 -0.011434 -0.0547331 0.0439353 0.023704 -0.0111299 0.0346704 -0.0769019 -0.0991737 0.098485 -0.0971761 -0.0767483
internal_weight=0 9.26231 80.3657 78.2394 35.0495 10.5421 43.1899 29.4648 19.3822 6.58718 10.0826 13.7251 24.5074 21.707
internal_count=704 181 523 508 236 64 272 175 113 34 62 97 172 155
is_linear=0
shrinkage=0.2


Tree=16
num_leaves=15
num_cat=0
split_feature=3 12 16 12 14 6 16 1 1 10 3 1 1 10
split_gain=1.937 2.45931 1.79537 4.11872 3.25534 2.65308 2.62143 1.74403 2.80801 2.55861 2.27866 1.88536 2.35509 1.93688
threshold=-0.053080724315592694 5.0742920657819175 6.8521973113595775 1.7621632932051154 143.50000000000003 -0.17631524910924792 7.4289129131961511 0.49535545729581121 0.72674530694732853 10.311411949436458 -0.083463152048087533 0.86225174276487304 1.1766160768826091 10.311515159049586
decision_type=2 2 2 2 2 2 2 2 2 2 2 2 2 2
left_child=1 7 4 5 -2 -4 -7 -1 -9 -10 11 -11 13 -13
right_child=2 -3 3 -5 -6 6 -8 8 9 10 -12 12 -14 -15
leaf_value=-0.11248790210912506 -0.04397180574183869 0.17534626212889765 -0.235821713557822 0.23266789833271995 -0.2847808712661381 -0.1054523620332587 0.20292746692739705 0.098416670819321692 0.18579825457930751 -0.12350987689569455 0.087125756276039468 -0.17271368781189186 -0.14818022146216048 0.052468873480119721
leaf_weight=4.1987588200718156 15.383443973958498 3.9206903539597979 2.2132320068776608 2.7873150072991848 2.6292806882411233 2.4738084990531188 1.9892753195017574 13.813411008566616 2.5436878725886336 8.7690003328025288 6.211119666695601 1.7325481176376367 3.9463640786707392 12.935025103390215
leaf_count=28 129 40 16 27 22 20 15 134 13 63 58 8 29 102
internal_value=0 0.0223869 -0.0420655 0.0284669 -0.0791222 -0.0567856 0.031998 0.011312 0.0217182 -0.00759922 -0.022243 -0.0470505 -0.0110305 0.0258701
internal_weight=0 58.0706 27.4764 9.46363 18.0127 6.67632 4.46308 54.1499 49.9512 36.1377 33.5941 27.3829 18.6139 14.6676
internal_count=704 475 229 78 151 51 35 435 407 273 260 202 139 110
is_linear=0
shrinkage=0.2


Tree=17
num_leaves=15
num_cat=0
split_feature=9 9 10 1 11 7 11 2 7 0 11 7 9 10
split_gain=2.15976 2.25726 2.19526 3.87296 3.15896 3.20728 2.37006 3.05702 2.3002 2.28751 3.76985 2.28321 1.83305 1.79663
threshold=2.2516434510319967 2.2440185039840905 10.944740110599438 1.0431802305912983 -3.0272813302985555 1.3127415844901111 1.7082089710884356 -254.64758206048387 0.7812435627290254 1.6020518315254464 1.6442599835237408 0.95300712283716971 2.2250330806391911 10.951214416213979
decision_type=2 2 2 2 2 2 2 2 2 2 2 2 2 2
left_child=1 2 6 4 -4 13 9 -8 -9 11 -11 -1 -10 -6
right_child=-2 -3 3 -5 5 -7 7 8 12 10 -12 -13 -14 -15
leaf_value=0.0049497375060465901 -0.22175492402518049 0.16784046934652869 -0.28064622767576125 -0.24304206047426793 -0.12885782232273854 0.25391971004358033 -0.20779530741216315 -0.31262916461628826 0.061375657964192858 -0.04726948705943073 0.15328131430538044 0.14287154495187659 -0.11574701558720123 0.036605238166170805
leaf_weight=7.6516113746911314 1.6986203249543894 3.3113072887063018 1.5985371954739118 3.7269191630184642 4.1357398033142072 1.9491695426404465 3.608789503574374 0.88845402002334495 9.9943105895072204 16.580370012670759 4.8446446061134329 12.887526234611867 3.0505008697509757 7.1855266056954861
leaf_count=67 16 51 9 34 39 14 27 6 103 110 28 125 22 53
internal_value=0 0.0061052 -0.000751919 -0.060733 -0.015037 0.0169578 0.0179924 -0.043742 -0.00125137 0.0437989 -0.00192075 0.0914904 0.0199559 -0.0238396
internal_weight=0 81.4134 78.1021 18.5959 14.869 13.2704 59.5062 17.5421 13.9333 41.9642 21.425 20.5391 13.0448 11.3213
internal_count=704 688 637 149 115 106 488 158 131 330 138 192 125 92
is_linear=0
shrinkage=0.2


Tree=18
num_leaves=15
num_cat=0
split_feature=17 0 1 11 6 15 15 1 14 1 14 10 11 0
split_gain=5.65828 2.97505 2.9016 1.59139 2.45641 3.34052 4.7534 1.97989 3.61147 2.4157 2.22047 2.06503 2.20141 2.27397
threshold=2.5000000000000004 1.4071696378893119 0.52242133243757227 1.7082089710884356 0.0059317297983240008 0.013049450549450501 0.011067447812458253 0.82157634446733574 89.000000000000014 0.85032203774696091 62.500000000000007 10.311704859209 -4.4506190024429442 1.6208224776972522
decision_type=2 2 2 2 2 2 2 2 2 2 2 2 2 2
left_child=1 -1 -2 7 5 6 -5 8 10 -9 -3 -11 -13 -14
right_child=2 3 -4 4 -6 -7 -8 9 -10 11 -12 12 13 -15
leaf_value=-0.17254898254969586 -0.19331661537354039 -0.0022096856975922677 0.2149585365980391 -0.2126736348444761 0.041148953970515205 -0.17824835987638896 0.16458625156803042 -0.1784457692068071 -0.05926216428435082 0.081634643500908516 0.18982818344972857 0.15586337705285258 -0.017342397292962521 -0.19466817987667331
leaf_weight=4.5338990017771712 0.78141111880540748 3.4099441319704082 6.3921274514868855 2.1658480074256685 7.6949314922094336 8.5259091444313508 3.4863810837268829 3.2622924521565464 5.8519775159656993 9.0041968859732169 8.1999559216201288 2.0868992544710681 11.156612973660225 3.905236467719079
leaf_count=42 6 23 175 21 56 61 26 20 44 54 61 15 81 19
internal_value=0 -0.0156309 0.170485 -0.00528256 -0.0498284 -0.0992047 0.020026 0.0155027 0.0688498 -0.0161659 0.133425 0.00407671 -0.0366462 -0.0633194
internal_weight=0 73.2841 7.17354 68.7502 21.8731 14.1781 5.65223 46.8771 17.4619 29.4152 11.6099 26.1529 17.1487 15.0618
internal_count=704 523 181 481 164 108 47 317 128 189 84 169 115 100
is_linear=0
shrinkage=0.2


Tree=19
num_leaves=15
num_cat=0
split_feature=17 0 0 5 2 2 4 4 4 16 9 13 9 3
split_gain=4.44724 2.21442 2.08191 1.42589 1.20062 1.13882 1.1037 3.7085 3.15444 2.91758 2.02076 2.01601 1.95674 2.05117
threshold=2.5000000000000004 1.6612362795256319 1.4071696378893119 0.22105883978859267 -687.22752979793484 -38.473221314428464 -0.031052126744708749 -0.092353209367616984 0.021594282059686502 6.5929685291165763 2.2371952200245415 0.092907170106262968 2.2425301850445893 -0.053080724315592694
decision_type=2 2 2 2 2 2 2 2 2 2 2 2 2 2
left_child=2 -2 -1 5 -5 -4 7 9 10 -6 -8 -9 13 -10
right_child=1 -3 3 4 6 -7 8 11 12 -11 -12 -13 -14 -15
leaf_value=-0.14891266370424822 0.21246031334222956 -0.14678775846203967 -0.24928663727859812 -0.13235147524665902 -0.12047377647586394 -0.029321882191785654 -0.18384811586280836 0.25928776946021831 0.059521546420418174 0.1015397977715987 0.011394015166002157 0.02057289117997934 -0.16241460298140409 -0.056321258310942701
leaf_weight=4.2376296222209922 5.2633065478876224 0.78924407064914692 1.63210890814662 2.5214518141001454 5.4327113442122918 2.224901992827653 5.792539903894065 3.9952657110989085 25.262446818873279 4.1966711580753326 3.3448975458741188 2.1912738084793091 2.2204933986067763 8.0661203712225014
leaf_count=42 175 6 15 27 41 16 37 23 182 28 22 17 17 56
internal_value=0 0.165615 -0.0129689 -0.00435543 0.00286885 -0.122401 0.00850419 0.0539099 -0.00756628 -0.023716 -0.112377 0.174735 0.0193739 0.0314855
internal_weight=0 6.05255 71.1185 66.8809 63.0239 3.85701 60.5024 15.8159 44.6865 9.62938 9.13744 6.18654 35.5491 33.3286
internal_count=704 181 523 481 450 31 423 109 314 69 59 40 255 238
is_linear=0
shrinkage=0.2


end of trees

feature_importances:
Column_9=29
Column_14=27
Column_1=25
Column_0=20
Column_3=19
Column_10=19
Column_15=19
Column_2=17
Column_7=16
Column_4=13
Column_16=13
Column_8=11
Column_11=11
Column_17=11
Column_5=10
Column_6=9
Column_12=7
Column_13=4

parameters:
[boosting: gbdt]
[objective: binary]
[metric: binary_logloss]
[tree_learner: serial]
[device_type: cpu]
[linear_tree: 0]
[data: ]
[valid: ]
[num_iterations: 10000]
[learning_rate: 0.2]
[num_leaves: 15]
[num_threads: 0]
[deterministic: 0]
[force_col_wise: 0]
[force_row_wise: 0]
[histogram_pool_size: -1]
[max_depth: -1]
[min_data_in_leaf: 15]
[min_sum_hessian_in_leaf: 0.001]
[bagging_fraction: 0.9]
[pos_bagging_fraction: 1]
[neg_bagging_fraction: 1]
[bagging_freq: 0]
[bagging_seed: 28073]
[feature_fraction: 0.5]
[feature_fraction_bynode: 1]
[feature_fraction_seed: 8222]
[extra_trees: 0]
[extra_seed: 8505]
[early_stopping_round: 50]
[first_metric_only: 0]
[max_delta_step: 0]
[lambda_l1: 0]
[lambda_l2: 0]
[linear_lambda: 0]
[min_gain_to_split: 0]
[drop_rate: 0.1]
[max_drop: 50]
[skip_drop: 0.5]
[xgboost_dart_mode: 0]
[uniform_drop: 0]
[drop_seed: 15689]
[top_rate: 0.2]
[other_rate: 0.1]
[min_data_per_group: 100]
[max_cat_threshold: 32]
[cat_l2: 10]
[cat_smooth: 10]
[max_cat_to_onehot: 4]
[top_k: 20]
[monotone_constraints: ]
[monotone_constraints_method: basic]
[monotone_penalty: 0]
[feature_contri: ]
[forcedsplits_filename: ]
[refit_decay_rate: 0.9]
[cegb_tradeoff: 1]
[cegb_penalty_split: 0]
[cegb_penalty_feature_lazy: ]
[cegb_penalty_feature_coupled: ]
[path_smooth: 0]
[interaction_constraints: ]
[verbosity: -1]
[saved_feature_importance_type: 0]
[max_bin: 255]
[max_bin_by_feature: ]
[min_data_in_bin: 3]
[bin_construct_sample_cnt: 200000]
[data_random_seed: 20155]
[is_enable_sparse: 1]
[enable_bundle: 1]
[use_missing: 1]
[zero_as_missing: 0]
[feature_pre_filter: 1]
[pre_partition: 0]
[two_round: 0]
[header: 0]
[label_column: ]
[weight_column: ]
[group_column: ]
[ignore_column: ]
[categorical_feature: ]
[forcedbins_filename: ]
[objective_seed: 15792]
[num_class: 1]
[is_unbalance: 0]
[scale_pos_weight: 1]
[sigmoid: 1]
[boost_from_average: 1]
[reg_sqrt: 0]
[alpha: 0.9]
[fair_c: 1]
[poisson_max_delta_step: 0.7]
[tweedie_variance_power: 1.5]
[lambdarank_truncation_level: 30]
[lambdarank_norm: 1]
[label_gain: ]
[eval_at: ]
[multi_error_top_k: 1]
[auc_mu_weights: ]
[num_machines: 1]
[local_listen_port: 12400]
[time_out: 120]
[machine_list_filename: ]
[machines: ]
[gpu_platform_id: -1]
[gpu_device_id: -1]
[gpu_use_dp: 0]
[num_gpu: 1]

end of parameters

pandas_categorical:null
