tree
version=v3
num_class=1
num_tree_per_iteration=1
label_index=0
max_feature_idx=17
objective=binary sigmoid:1
feature_names=Column_0 Column_1 Column_2 Column_3 Column_4 Column_5 Column_6 Column_7 Column_8 Column_9 Column_10 Column_11 Column_12 Column_13 Column_14 Column_15 Column_16 Column_17
feature_infos=[1.2346093662789044:1.9952932361101223] [0.077881925041574901:3.4150107712893245] [-1646.6776231156573:1786.9753826398069] [-0.47820557289860088:0.42811791383219938] [-0.79507032854722426:0.70165903149830455] [0.19011554804521:0.43092557777262308] [-0.50441210510384615:0.24097959183673459] [0.10781690525553971:2.015115901414676] [0.4467216627392967:1.6285321476764898] [2.1653626823492496:2.2963154517607771] [10.28247361013198:11.005539406286918] [-14.742803642661976:8.9501984048142393] [0:13.715743132007686] [0:0.43193980318729891] [0:400] [0:0.0277777777777777] [0:8.3037524155634124] [0:5]
tree_sizes=1654 1671 1670 1668 1671 1668 1682 1684 1677 1672 1673 1671 1682 1672 1674 1668 1681 1661 1667 1677 1676 1687 1687 1678 1677 1694 1689 1676 1678 1685 1692 1687 1691 1685 1687 1695 1693 1675 1700 1694 1670 1681 1700 1699 1690 1697 1691 1702 1699 1690 1697 1695 1687 1704 1691 1707

Tree=0
num_leaves=15
num_cat=0
split_feature=17 16 12 9 4 0 4 3 16 1 9 3 12 1
split_gain=159.873 62.5431 42.4456 17.8051 13.4471 12.0453 9.75363 9.38611 12.3193 7.58333 7.54088 7.11618 6.89881 6.39447
threshold=1.5000000000000002 6.5679980145478085 1.762796712368581 2.2246481067363111 0.16715688642623386 1.6269807515988588 0.10427504757049307 -0.066378309067268229 6.8329847022970549 0.7905344989927825 2.2199728916017478 -0.14401367361053488 5.0742920657819175 1.0788416427674976
decision_type=2 2 2 2 2 2 2 2 2 2 2 2 2 2
left_child=1 10 3 6 7 -2 9 12 -9 11 -1 -3 13 -4
right_child=5 2 4 -5 -6 -7 -8 8 -10 -11 -12 -13 -14 -15
leaf_value=0.31555123254026918 0.76250889574157732 0.59489977204108668 0.54918819285004372 0.098602626538335347 0.74102054654920668 0.48316035624075959 0.50178359220748081 0.12559422567971318 0.59489977204108668 0.09785202589480424 0.0050445867105139985 0.22920713851274371 0.72759032830397508 0.28362568516874698
leaf_weight=3.5797572880983379 44.866291344165802 3.5797572880983344 13.125776723027231 18.376087412238121 9.3073689490556699 7.1595145761966696 10.739271864295004 5.9662621468305606 3.5797572880983353 6.9208640903234473 24.819650530815125 5.2503106892108944 5.7276116609573355 5.0116602033376685
leaf_count=15 188 15 55 77 39 30 45 25 15 29 104 22 24 21
internal_value=0.432767 0.302101 0.385731 0.249875 0.528418 0.724066 0.354811 0.469193 0.301584 0.254602 0.0441841 0.377461 0.536237 0.475809
internal_weight=0 115.984 87.5847 44.8663 42.7184 52.0258 26.4902 33.4111 9.54602 15.7509 28.3994 8.83007 23.865 18.1374
internal_count=704 486 367 188 179 218 111 140 40 66 119 37 100 76
is_linear=0
shrinkage=1


Tree=1
num_leaves=15
num_cat=0
split_feature=17 10 8 1 14 14 3 14 14 1 2 10 10 3
split_gain=108.915 41.2665 20.6689 10.5981 11.4673 22.0671 10.3108 8.19771 9.59436 6.93524 6.61437 6.20024 6.0207 5.55239
threshold=1.5000000000000002 10.936595011213088 0.56799942517576629 0.91225591794800576 57.500000000000007 87.500000000000014 -0.014471464592655697 103.50000000000001 64.000000000000014 0.93525904793201053 89.742158731520661 10.904570255334807 10.311705094422599 0.015276451087261852
decision_type=2 2 2 2 2 2 2 2 2 2 2 2 2 2
left_child=1 2 -1 4 -3 13 7 8 -4 -10 -9 12 -2 -6
right_child=11 3 6 -5 5 -7 -8 10 9 -11 -12 -13 -14 -15
leaf_value=0.21308395669783553 0.24680200922535489 -0.39696816644258681 -0.20237619938593029 -0.37229104554847309 -0.010750962560462513 -0.2798303939946597 -0.29197635493327795 -0.19522209503910798 0.18036792038539351 -0.040226820936280216 0.081473645909654446 0.29405799256576703 -0.061321003750088567 0.28563988509456367
leaf_weight=14.072550594806669 6.1613907217979413 7.1831963360309627 5.3429362028837231 16.883839398622513 6.3424646854400653 13.323893517255781 6.6543980389833441 14.410729333758356 14.56743071973324 9.3659659177064878 4.5458871573209754 37.385228276252747 4.3118094205856323 4.2039465010166168
leaf_count=62 27 29 22 68 26 54 27 60 62 39 19 172 19 18
internal_value=0 -0.102233 -0.00315783 -0.244757 -0.175417 -0.108746 -0.0586 -0.0264025 0.0399453 0.0940416 -0.128869 0.255956 0.119948 0.107395
internal_weight=0 116.897 68.9599 47.9373 31.0535 23.8703 54.8873 48.2329 29.2763 23.9334 18.9566 47.8584 10.4732 10.5464
internal_count=704 486 291 195 127 98 229 202 123 101 79 218 46 44
is_linear=0
shrinkage=0.2


Tree=2
num_leaves=15
num_cat=0
split_feature=17 5 11 9 0 13 11 12 5 12 14 14 9 11
split_gain=76.9708 30.4979 18.207 10.2488 9.55232 7.86025 5.74745 4.26651 3.85261 4.28593 2.67282 4.72027 2.29222 2.29205
threshold=1.5000000000000002 0.28695318342910631 1.8931091151738477 2.2246203137240097 1.6269807515988588 0.19550689405817853 1.5863754251700681 5.072471287360437 0.30117655741194932 1.7636502775414573 64.000000000000014 77.000000000000014 2.2380381731591696 1.7234630177956298
decision_type=2 2 2 2 2 2 2 2 2 2 2 2 2 2
left_child=1 3 5 -1 -2 6 8 10 -3 -10 -5 -12 -13 -8
right_child=4 2 -4 7 -6 -7 13 -9 9 -11 11 12 -14 -15
leaf_value=-0.029894690359743889 0.27135902219430519 0.061472718793269543 -0.23520173157245008 -0.34582872065335118 0.012523970777965899 0.17695865452239309 0.15181967321780465 -0.014172002635285848 -0.31519408385429526 -0.038634886729140658 -0.037288996647101849 -0.29377687073781716 -0.17970299158038378 -0.03658911798864152
leaf_weight=13.79262615740299 36.306515038013458 4.9280818849802044 8.9891265183687192 8.2678296416997892 6.7661167085170737 18.459745660424232 9.8165990710258466 3.5050514936447135 3.9415552616119367 5.1966099739074707 4.8951734751462928 18.06852395832539 11.550101459026335 3.504870504140853
leaf_count=58 188 21 37 34 30 85 42 15 16 22 20 74 47 15
internal_value=0 -0.0827841 0.0250614 -0.181219 0.2307 0.0760902 0.00810327 -0.226311 -0.0810581 -0.157923 -0.243691 -0.219224 -0.249293 0.102249
internal_weight=0 114.916 54.8366 60.0793 43.0726 45.8475 27.3877 46.2867 14.0662 9.13817 42.7816 34.5138 29.6186 13.3215
internal_count=704 486 238 248 218 201 116 190 59 38 175 141 121 57
is_linear=0
shrinkage=0.2


Tree=3
num_leaves=15
num_cat=0
split_feature=17 7 0 14 4 0 14 6 14 12 6 6 4 14
split_gain=55.6551 14.72 15.7753 9.9483 9.61794 8.28929 6.66012 5.75863 8.62379 6.09244 5.75343 4.78918 4.71651 3.05858
threshold=1.5000000000000002 1.3870735925654671 1.7233814437162958 72.500000000000014 0.12237285957339482 1.6269807515988588 111.50000000000001 0.0041917901402660504 150.50000000000003 5.0766316873427835 -0.099495032543271883 -0.20229678015804162 0.070876921770066714 118.50000000000001
decision_type=2 2 2 2 2 2 2 2 2 2 2 2 2 2
left_child=1 2 3 -1 7 -2 11 9 12 13 -3 -6 -9 -5
right_child=5 10 -4 4 6 -7 -8 8 -10 -11 -12 -13 -14 -15
leaf_value=-0.25011828602373093 0.25444492585673484 -0.067694065061409292 0.13354535466376524 -0.18117121224565522 -0.073808033424530878 0.010062292170174398 -0.16563776454609508 0.079787418943103275 -0.23240482941926255 0.057590493412837146 0.20802593709818085 0.20573792052061757 -0.16585550505539118 -0.336617981032445
leaf_weight=19.420466110110283 31.486265286803246 4.3888044506311408 10.685259848833082 15.667427003383642 3.4611373841762552 6.74032899737358 4.3288230597972861 12.794713512063032 7.9821907430887213 3.3387423902750006 9.7581054121255857 8.4028484672307968 4.1377160549163809 7.4804987013339987
leaf_count=83 188 18 48 66 15 30 19 54 34 15 46 39 18 31
internal_value=0 -0.0681833 -0.0957926 -0.123955 -0.087707 0.211354 0.0467064 -0.130051 -0.0610286 -0.194976 0.122489 0.124185 0.0197606 -0.231405
internal_weight=0 111.847 97.6998 87.0146 67.5941 38.2266 16.1928 51.4013 24.9146 26.4867 14.1469 11.864 16.9324 23.1479
internal_count=704 486 422 374 291 218 73 218 106 112 64 54 72 97
is_linear=0
shrinkage=0.2


Tree=4
num_leaves=15
num_cat=0
split_feature=3 14 9 8 14 1 8 15 9 14 1 14 1 14
split_gain=15.2501 8.77891 6.42218 6.55031 5.57764 8.1329 6.78409 4.90575 4.00523 3.58877 5.19503 3.58449 6.77555 5.67585
threshold=-0.053080724315592694 179.50000000000003 2.2199728916017478 0.53430358269448675 57.500000000000007 0.88944000963113579 0.96944784310696364 0.0092348057644109516 2.2246332325643614 120.50000000000001 0.85251780232240837 55.500000000000007 0.72616214690064895 75.500000000000014
decision_type=2 2 2 2 2 2 2 2 2 2 2 2 2 2
left_child=1 2 9 -4 -2 6 7 -6 -7 -1 -11 -5 -13 -14
right_child=4 -3 3 11 5 8 -8 -9 -10 10 -12 12 13 -15
leaf_value=0.2463798888535553 -0.22594187413985015 -0.15539742912138765 0.22644788624341292 -0.1436544151512836 -0.20368986572749065 0.0084786856976520244 -0.22633009738045451 0.11610952312996287 -0.22011641519754666 -0.12838206976835051 0.26059342476331943 0.1418641628315277 -0.18887650398516034 0.021803868600783264
leaf_weight=10.943819150328638 9.5867502093315107 7.6859714835882178 6.898055061697959 4.8684127926826468 2.1886030882597032 4.1121734678745296 3.5462486445903769 15.559428393840788 12.049433663487433 3.0152333676815024 2.5223238319158554 16.889164477586746 5.964147061109542 35.924299612641335
leaf_count=71 45 36 37 24 11 22 15 81 55 15 16 82 27 167
internal_value=0 0.0494936 0.0675893 0.0413281 -0.0898181 -0.0549776 0.0262126 0.0766734 -0.161952 0.179993 0.0487939 0.0212645 0.0349243 -0.00819316
internal_weight=0 94.7114 87.0255 70.5441 47.0426 37.4559 21.2943 17.748 16.1616 16.4814 5.53756 63.646 58.7776 41.8884
internal_count=704 475 439 337 229 184 107 92 77 102 31 300 276 194
is_linear=0
shrinkage=0.2


Tree=5
num_leaves=15
num_cat=0
split_feature=17 5 2 13 3 4 13 8 1 8 4 5 2 7
split_gain=36.1429 13.3404 14.2701 8.67597 6.11962 6.82042 7.76814 5.8526 10.7248 4.45929 3.63076 3.13559 2.89118 2.38651
threshold=1.5000000000000002 0.28695318342910631 405.11244972637968 0.19550689405817853 -0.053080724315592694 0.025692826886984904 0.07687940794172636 0.80765355923707649 0.98287547579309953 0.75124181529363099 0.047054716213934401 0.29503745239024332 -135.21600591274918 1.0830916445675471
decision_type=2 2 2 2 2 2 2 2 2 2 2 2 2 2
left_child=1 2 7 4 5 6 -3 8 10 -7 -1 -2 -12 -5
right_child=11 3 -4 13 -6 9 -8 -9 -10 -11 12 -13 -14 -15
leaf_value=0.15869330115299479 0.21677938189439741 -0.24012555967514848 0.21094594068825084 0.017224479590520217 -0.18822874526672756 -0.021030718019485587 0.10732142242014955 -0.22857217903891636 -0.24040738739231002 0.19671993981355171 -0.1670152343338453 0.041417308706486806 0.040575423909895006 0.189225434404897
leaf_weight=4.8794785439968136 26.889111869037155 6.8415827602148074 4.6993474662303916 4.4615473002195385 8.0989272594451887 6.9042845517396918 4.1263827532529831 22.688982933759689 11.219803825020788 8.2654406726360303 4.7102453857660276 4.8078330159187308 6.2371504008769989 11.658500730991362
leaf_count=22 194 29 21 22 36 31 18 105 53 38 20 24 27 64
internal_value=0 -0.0535547 -0.122189 0.0206381 -0.0363256 0.0107425 -0.109409 -0.153666 -0.0908278 0.0976138 0.0152104 0.19018 -0.0487429 0.141621
internal_weight=0 104.792 54.435 50.3567 34.2366 26.1377 10.968 49.7357 27.0467 15.1697 15.8269 31.6969 10.9474 16.12
internal_count=704 486 248 238 152 116 47 227 122 69 69 218 47 86
is_linear=0
shrinkage=0.2


Tree=6
num_leaves=15
num_cat=0
split_feature=2 2 15 16 6 6 16 13 6 4 2 11 4 8
split_gain=10.5367 5.79462 6.60037 6.82316 4.92683 4.52737 4.09641 6.12245 4.14996 4.0272 3.80842 4.39175 3.94394 3.18804
threshold=392.280726520575 -646.16906068971628 0.014710653998441452 6.5679980145478085 -0.17984270818333206 -0.016661152247649549 7.5400788855512735 0.064136810108073261 0.050738116664821406 0.21677089425807419 -252.71190473486618 1.6432444175751393 0.062665096682558666 0.78559110807102672
decision_type=2 2 2 2 2 2 2 2 2 2 2 2 2 2
left_child=1 -1 3 -3 -5 9 7 10 -9 13 -6 -12 -13 -4
right_child=-2 2 5 4 6 -7 -8 8 -10 -11 11 12 -14 -15
leaf_value=-0.19503393607132796 0.15462762765611471 -0.17320288673858436 -0.10836204056348107 -0.19271742754037191 -0.27134008023623046 0.14884968457501685 0.19848627330489216 0.10535247959087282 -0.092346602232996164 0.23119978583288869 -0.25725056393624174 -0.11665803343054522 0.1136859916587856 0.043001118031793212
leaf_weight=6.9910640344023696 16.031861811876297 13.41740909218788 9.5889045298099571 5.4727797806262961 3.8875694721937206 13.997243590652941 4.1122020259499541 17.758594982326034 5.5821354091167441 2.8609613478183737 3.2071604803204528 5.5684655457735044 6.3797536268830299 13.266960889101027
leaf_count=39 113 71 47 26 19 81 22 97 27 16 15 27 31 73
internal_value=0 -0.01872 -0.00699193 -0.0460528 -0.0132249 0.0573187 0.00790224 -0.0105888 0.0580711 0.00749994 -0.0947445 -0.0494452 0.0063342 -0.0205015
internal_weight=0 112.091 105.1 65.3861 51.9687 39.7141 46.4959 42.3837 23.3407 25.7168 19.0429 15.1554 11.9482 22.8559
internal_count=704 591 552 335 264 217 238 216 124 136 92 73 58 120
is_linear=0
shrinkage=0.2


Tree=7
num_leaves=15
num_cat=0
split_feature=17 10 8 1 15 6 15 1 15 16 6 12 8 10
split_gain=25.031 9.25354 5.03 4.10398 5.70775 5.08117 4.33731 2.99369 2.75419 3.23071 3.34565 3.05005 5.89593 3.15165
threshold=2.5000000000000004 10.936659170757688 0.56799942517576629 0.98287547579309953 0.010216586634653801 -0.15312434639883019 0.016432930495430452 0.69400635733487104 0.019046565385413352 7.5109656318666245 -0.074739580399549685 1.7636502775414573 0.64542328137140659 10.311702071185195
decision_type=2 2 2 2 2 2 2 2 2 2 2 2 2 2
left_child=1 2 -1 4 -3 -6 7 -7 9 11 -11 13 -13 -4
right_child=-2 3 8 -5 5 6 -8 -9 -10 10 -12 12 -14 -15
leaf_value=0.13590969619331539 0.20588746219761653 -0.27791398226071701 -0.25155383518494928 -0.2303535908259684 0.093451686677086365 0.12674805982139953 -0.26481818320271366 -0.11130733511080373 0.14559542866872638 -0.034640585090648816 0.18091873003342626 -0.13257128104499899 0.13176911746845815 -0.064260234149801962
leaf_weight=10.222599968314169 20.258526623249054 4.7060458511114147 4.2539617419242886 9.6579670608043653 7.8706242740154293 3.2374708056449872 4.6670542657375327 6.0840113759040833 3.9052386283874503 6.2393501251935959 5.3493676185607892 5.7825483083724967 8.1067267656326276 23.157167389988899
leaf_count=62 182 25 20 55 39 15 24 30 18 31 29 28 39 107
internal_value=0 -0.0372611 0.00675997 -0.118705 -0.0781144 -0.0350997 -0.107429 -0.0286276 -0.0164861 -0.0284539 0.0648619 -0.0546379 0.0217158 -0.0933265
internal_weight=0 103.24 67.017 36.2232 26.5652 21.8592 13.9885 9.32148 56.7944 52.8891 11.5887 41.3004 13.8893 27.4111
internal_count=704 522 334 188 133 108 69 45 272 254 60 194 67 127
is_linear=0
shrinkage=0.2


Tree=8
num_leaves=15
num_cat=0
split_feature=14 2 12 14 1 2 8 2 1 8 3 3 6 14
split_gain=6.58637 8.26805 4.45945 4.4356 6.23356 4.52016 2.77922 5.55225 3.78522 2.99496 6.68729 3.1612 2.84862 2.63783
threshold=57.500000000000007 104.40536400193774 6.8363327462617187 136.50000000000003 1.1593774278489659 64.860631729951834 0.76944723658332925 -93.409917989969884 0.81558293632871415 0.96944784310696364 -0.089820361473075441 -0.17402802668259651 -0.027777431871145997 98.500000000000014
decision_type=2 2 2 2 2 2 2 2 2 2 2 2 2 2
left_child=-1 2 3 4 5 6 7 8 13 11 -11 -8 -10 -2
right_child=1 -3 -4 -5 -6 -7 9 -9 12 10 -12 -13 -14 -15
leaf_value=-0.13490908558818845 0.19502857120294084 0.11569929279746959 0.17661037503847232 -0.14034315211426626 -0.17822232122982692 -0.20788392181298559 -0.032842689102133331 0.1301961243074849 -0.2233917792166242 0.13407568300429212 -0.27040936879827776 0.15593259239730939 -0.021028712832253316 -0.091020150365981656
leaf_weight=12.484097912907599 2.7832170948386254 26.336054131388664 4.6234348639845839 11.436465881764887 7.3107742741703978 3.3162091970443717 4.5518032461404792 7.2125062122941008 7.0033906251192128 3.8027033507823944 2.8680598884820929 16.095100186765201 4.6167165860533661 2.4027523323893547
leaf_count=73 18 194 27 64 41 17 22 40 34 18 16 103 23 14
internal_value=0 0.018804 -0.0139022 -0.0259025 -0.00478038 0.0184207 0.0330395 -0.0165886 -0.0795829 0.0766741 -0.0398306 0.114315 -0.142992 0.0624971
internal_weight=0 104.359 78.0231 73.3997 61.9632 54.6525 51.3362 24.0186 16.8061 27.3177 6.67076 20.6469 11.6201 5.18597
internal_count=704 631 437 410 346 305 288 129 89 159 34 125 57 32
is_linear=0
shrinkage=0.2


Tree=9
num_leaves=15
num_cat=0
split_feature=17 10 9 5 14 6 16 9 10 14 14 4 4 0
split_gain=17.4648 5.60824 4.67139 3.66286 3.13095 4.76661 3.24913 3.19053 2.88664 2.71192 3.68048 2.66965 4.18455 3.92961
threshold=2.5000000000000004 10.936659170757688 2.2091408545645312 0.33257145579929509 75.500000000000014 -0.10563802616287864 1.0000000180025095e-35 2.2246481067363111 10.311415992003058 62.500000000000007 92.500000000000014 -0.030852975594771747 0.047951097823817408 1.6042136322587934
decision_type=2 2 2 2 2 2 2 2 2 2 2 2 2 2
left_child=1 4 -2 9 5 -1 -6 -7 -8 -3 -11 -10 -13 -14
right_child=2 3 -4 -5 6 7 8 -9 11 10 -12 12 13 -15
leaf_value=-0.27226842782571009 -0.1776974229256181 -0.25482559639636321 0.22363875813946438 0.1229003336275093 -0.1852334821219068 0.085960935062167676 0.20782470670411188 -0.13732248571677683 0.13393664029726179 -0.018787210080462576 -0.1740269733965813 -0.10695730066958226 0.1288759863233474 -0.028450023268372052
leaf_weight=3.752962037920951 1.2564022392034555 4.9123149216175106 15.13266274333 2.7319423779845229 2.7119959443807593 5.9859164059162122 3.7665537297725669 4.4724093824625015 7.4675913378596297 12.950714454054834 11.563166983425615 10.042983517050741 11.977702267467977 13.517329841852186
leaf_count=19 7 35 175 17 13 28 18 22 38 66 70 51 69 76
internal_value=0 -0.0305418 0.192872 -0.0986263 0.0038322 -0.0789105 0.027595 -0.00952422 0.0399354 -0.119193 -0.0920136 0.0252312 0.00238898 0.0454626
internal_weight=0 95.8536 16.3891 32.1581 63.6954 14.2113 49.4842 10.4583 46.7722 29.4262 24.5139 43.0056 35.538 25.495
internal_count=704 522 182 188 334 69 265 50 252 171 136 234 196 145
is_linear=0
shrinkage=0.2


Tree=10
num_leaves=15
num_cat=0
split_feature=3 2 1 1 9 9 0 3 2 2 9 2 2 9
split_gain=4.82869 4.23077 7.01805 3.9209 3.3426 5.98965 5.04677 3.24563 3.21328 2.80382 3.68459 2.76291 3.36175 2.51112
threshold=-0.053080724315592694 -153.91320282447313 0.477932390491627 0.73082713475625904 2.2381556448517355 2.2425303001690993 1.7281816185411267 -0.085976875898235092 -333.71069585297806 -261.60532863209011 2.2244021749676297 663.26734710478331 -14.80150502675516 2.2462291766812412
decision_type=2 2 2 2 2 2 2 2 2 2 2 2 2 2
left_child=1 4 -3 -4 6 -6 -1 11 -2 -10 -11 12 -5 -12
right_child=8 2 3 7 5 -7 -8 -9 9 10 13 -13 -14 -15
leaf_value=-0.10766817000339549 -0.19285722258423105 -0.23527789167456792 0.19126579736680108 0.081961373296563542 0.21023376325220405 -0.12782093691753604 0.16816724021986718 0.18950813911253173 0.13331664702409482 0.09317260345768856 -0.1222076310801834 0.22105484248716231 -0.085117237960139591 0.096653074429235666
leaf_weight=18.41757474467159 5.9842051342129698 2.7638464495539656 11.720988713204859 9.0528543777763897 5.3725374564528448 3.438054297119379 3.0997689068317404 5.5470549464225796 3.6007941961288479 5.2534064501523998 17.171220026910309 2.3884741105139247 10.295235253870485 2.3886718600988379
leaf_count=104 44 16 94 50 31 24 16 42 24 35 106 33 65 20
internal_value=0 0.0314129 0.0726967 0.0945197 -0.0254443 0.0783186 -0.0679316 0.0529577 -0.0596588 -0.0316062 -0.0555391 0.0181108 -0.00694216 -0.0954802
internal_weight=0 72.0964 41.7685 39.0046 30.3279 8.81059 21.5173 27.2836 34.3983 28.4141 24.8133 21.7366 19.3481 19.5599
internal_count=704 475 300 284 175 55 120 190 229 185 161 148 115 126
is_linear=0
shrinkage=0.2


Tree=11
num_leaves=15
num_cat=0
split_feature=2 5 3 7 16 12 16 3 9 9 12 2 2 3
split_gain=3.76772 2.92837 2.89037 3.22838 2.49447 5.33716 3.17379 2.47204 6.4779 7.35674 2.9615 2.70627 3.2307 4.23689
threshold=392.280726520575 0.2777373534472129 -0.053080724315592694 0.74402021846362476 6.8521973113595775 1.7621632932051154 7.4910749815195485 -0.10050240437610224 2.2246332561974156 2.2381578703374232 5.0859625699942415 -135.21600591274918 181.42979445790368 -0.11400705000327319
decision_type=2 2 2 2 2 2 2 2 2 2 2 2 2 2
left_child=2 -2 3 -1 -4 6 -6 10 -9 -10 11 -5 13 -13
right_child=1 -3 4 7 5 -7 -8 8 9 -11 -12 12 -14 -15
leaf_value=-0.18275535049300654 0.17371379000607354 -0.064604782798260249 -0.10709967347032306 -0.06752836807936434 -0.17059493113010227 0.23189045700210495 0.10550041178822998 0.23886193474483283 -0.15481674297568571 0.17487530184549599 0.19570509836951577 0.14952652986896536 -0.13202739413911765 -0.080306180018343512
leaf_weight=3.1979554593563071 8.1273732520639879 2.7636959552764884 18.659680746495727 20.439506150782105 4.9641186967492086 3.1658355034887791 2.5062113776803017 6.8296477906405952 6.1301072090864164 4.8485049642622471 2.798908792436122 10.399518683552742 3.6117481067776671 4.639783695340161
leaf_count=19 95 18 123 114 33 27 16 53 41 31 22 65 23 24
internal_value=0 0.113239 -0.0111503 0.0130185 -0.0630385 0.0142608 -0.0779681 0.0235059 0.0859255 -0.00921423 -0.00303023 -0.0172598 0.037829 0.0786207
internal_weight=0 10.8911 92.1915 62.8957 29.2958 10.6362 7.47033 59.6977 17.8083 10.9786 41.8895 39.0906 18.6511 15.0393
internal_count=704 113 591 392 199 76 49 373 125 72 248 226 112 89
is_linear=0
shrinkage=0.2


Tree=12
num_leaves=15
num_cat=0
split_feature=9 9 3 10 3 8 14 14 3 3 6 10 8 8
split_gain=2.72486 3.79095 4.19011 2.86392 3.51438 2.79482 2.98116 3.70358 2.54025 2.38101 3.79841 2.64899 2.11585 2.08184
threshold=2.2516434510319967 2.2462291766812412 -0.021012623385136597 10.94492146959349 -0.10050240437610224 0.53430358269448675 103.50000000000001 75.500000000000014 -0.087565441426068188 -0.11386744682639674 -0.03932957631665189 10.951847542988252 0.65936891034683132 0.68146065137801204
decision_type=2 2 2 2 2 2 2 2 2 2 2 2 2 2
left_child=1 2 3 4 5 -1 7 -7 -6 10 -5 -11 -9 -10
right_child=-2 -3 -4 9 8 6 -8 12 13 11 -12 -13 -14 -15
leaf_value=0.17585529261304675 -0.22254481434911835 0.18955162839695877 -0.08748999606584823 -0.10019668683711827 0.26945759872881592 -0.078216269770013169 -0.090601443420336991 -0.042704490741178748 -0.032569681436955288 -0.24564412930498603 0.2549533225712477 -0.012709912309167208 0.13450593748118286 0.11376789096821496
leaf_weight=3.3474154472351065 2.1139024794101706 4.3458953127264968 18.241088356822729 3.0303637646138668 3.0640704631805447 8.2100189775228518 13.23692514374852 3.5941847264766684 5.3606861755251911 4.1245856285095197 1.9993316978216169 3.7089638859033585 10.773092456161974 14.160954605787991
leaf_count=32 15 45 131 23 29 44 81 21 30 28 12 23 74 116
internal_value=0 0.00698084 -0.00156433 0.0194431 0.0373276 0.0010923 -0.0152421 0.0289406 0.100156 -0.0664076 0.0409774 -0.135356 0.0901742 0.0735833
internal_weight=0 97.1976 92.8517 74.6106 61.7473 39.1616 35.8142 22.5773 22.5857 12.8632 5.0297 7.83355 14.3673 19.5216
internal_count=704 689 644 513 427 252 220 139 175 86 35 51 95 146
is_linear=0
shrinkage=0.2


Tree=13
num_leaves=15
num_cat=0
split_feature=15 2 15 10 3 2 2 7 12 14 7 2 3 16
split_gain=3.93182 3.467 3.45323 3.20063 1.99684 2.23191 2.78548 2.13768 2.01687 1.83145 1.58553 1.66309 1.32373 2.23784
threshold=0.0073235544217687002 392.280726520575 0.018773973333922254 10.918447554768093 0.05195212744800571 114.98342521429338 181.42979445790368 0.90198887888477886 6.8363327462617187 104.50000000000001 0.94951114889807775 -379.99744162060307 -0.24201343579334003 7.5207645301283312
decision_type=2 2 2 2 2 2 2 2 2 2 2 2 2 2
left_child=-1 2 4 -3 5 8 -7 -8 12 -9 -4 -12 -2 -14
right_child=1 3 10 -5 -6 6 7 9 -10 -11 11 -13 13 -15
leaf_value=-0.25562183617919115 -0.19179409352706203 -0.036489352671390661 -0.012086116909632327 0.2121420208451236 -0.17263175126415542 0.23215716318979293 -0.15957499314584062 -0.039555830612173395 0.12736378791926953 0.18203334754412739 0.039163811762928956 0.24581220598823128 -0.044345746342403965 0.078218103725149604
leaf_weight=2.3148584477603427 2.0849144831299702 3.1802067011594755 2.9555724710226041 5.937896303832531 3.2225281298160544 3.0820122379809609 2.1986256167292577 2.9871822018176317 3.2172078676521769 2.9806773737072945 2.568868912756443 3.9579894319176674 49.159584213048227 6.7808188945054999
leaf_count=18 10 21 18 88 22 28 11 26 25 21 21 27 323 45
internal_value=0 0.00821154 -0.00433318 0.125425 -0.0185829 -0.0117348 0.0701505 0.00900957 -0.0267748 0.071118 0.109445 0.164479 -0.035321 -0.0294892
internal_weight=0 94.3141 85.196 9.1181 75.7136 72.491 11.2485 8.16649 61.2425 5.96786 9.48243 6.52686 58.0253 55.9404
internal_count=704 686 577 109 511 489 86 58 403 47 66 48 378 368
is_linear=0
shrinkage=0.2


Tree=14
num_leaves=15
num_cat=0
split_feature=17 1 0 7 0 14 2 1 14 2 2 2 8 7
split_gain=9.91935 6.22938 3.13177 3.37383 3.10556 3.89386 3.61401 4.94145 3.09632 2.99556 2.45638 2.26931 1.97811 2.92748
threshold=2.5000000000000004 0.50622308244452474 1.4071696378893119 1.4627954486302046 1.7058543173540957 71.500000000000014 -280.09292804472562 0.93525904793201053 115.50000000000001 -25.611895078581394 -243.72006209401641 -190.8801035818866 0.61703097339592905 1.2458798224326548
decision_type=2 2 2 2 2 2 2 2 2 2 2 2 2 2
left_child=2 -2 -1 4 5 9 -7 8 12 11 -6 -4 -8 -14
right_child=1 -3 3 -5 10 6 7 -9 -10 -11 -12 -13 13 -15
leaf_value=-0.16725558114794226 -0.35732190757519983 0.22181155177129278 -0.18145644552754661 0.1306045479745489 0.18976188649246584 -0.11805504566512014 0.014168290583244703 -0.078509661207743484 -0.065359287163693255 -0.29038981743376613 0.0040367950086317769 0.08684179408384507 0.21976349295744543 -0.0086249785874558931
leaf_weight=5.5298686400055876 0.80098110437393089 10.250805702060459 2.7979391478002071 6.1551065146923056 4.2433317974209777 11.717276953160754 5.7180007137358322 15.290909729897974 5.2513549476861945 4.0883416011929494 8.6655571646988374 2.2956340461969376 8.3404897972941381 3.0717380046844474
leaf_count=41 5 177 23 40 27 79 37 88 34 27 49 13 47 17
internal_value=0 0.179839 -0.0218349 -0.0114768 -0.0237112 -0.0432819 -0.0210476 0.00912461 0.0689956 -0.162881 0.0650872 -0.0605365 0.110183 0.15829
internal_weight=0 11.0518 83.1655 77.6357 71.4806 58.5717 49.3898 37.6725 22.3816 9.18191 12.9089 5.09357 17.1302 11.4122
internal_count=704 182 522 481 441 365 302 223 135 63 76 36 101 64
is_linear=0
shrinkage=0.2


Tree=15
num_leaves=15
num_cat=0
split_feature=17 12 9 9 7 9 9 5 7 4 4 5 8 4
split_gain=7.76626 2.81274 2.75132 2.26139 4.75794 3.22556 2.95244 2.36415 2.15241 3.31325 2.59879 2.10157 1.96876 1.74405
threshold=2.5000000000000004 6.8388696697022233 2.2064630096019013 2.2246481067363111 1.2334886406931107 2.2381556448517355 2.2417755335374472 0.30301175212526538 1.0184974310613075 0.078125312092312368 -0.030852975594771747 0.28388746620813154 0.77814051856264277 -0.028400839754594644
decision_type=2 2 2 2 2 2 2 2 2 2 2 2 2 2
left_child=1 3 -2 8 13 -6 -7 -8 9 11 -10 -1 -11 -5
right_child=2 -3 -4 4 5 6 7 -9 10 12 -12 -13 -14 -15
leaf_value=-0.17295669022984583 -0.12019683997965586 0.14995944446822845 0.21445912424293756 -0.031989692261525107 -0.092349251525193299 0.22586356978338384 -0.11828732560255945 0.14344373729535367 0.12084596269324284 0.030852654589836111 -0.078765931078983067 0.061890071394099716 0.21142409588955197 -0.13596959253284188
leaf_weight=2.9172971099615124 1.1159671843051899 3.7925355434417716 8.2262304667383415 9.5355481728911382 5.1603716537356368 4.3568050339817983 2.9121741503477097 2.6246122904121876 3.2807420492172268 4.1155527383089048 12.739926904439924 3.1917439550161362 5.8458027318120003 19.95587028563023
leaf_count=17 5 28 177 74 35 32 16 19 19 25 69 21 35 132
internal_value=0 -0.0181691 0.174483 -0.0264894 -0.0556496 0.0358376 0.102698 0.0057815 0.0139878 0.0657041 -0.037889 -0.0502581 0.136821 -0.102349
internal_weight=0 80.429 9.3422 76.6364 44.5454 15.054 9.89359 5.53679 32.0911 16.0704 16.0207 6.10904 9.96136 29.4914
internal_count=704 522 182 494 308 102 67 35 186 98 88 38 60 206
is_linear=0
shrinkage=0.2


Tree=16
num_leaves=15
num_cat=0
split_feature=5 5 12 1 14 14 1 10 10 5 14 6 10 10
split_gain=1.9142 2.066 1.71789 1.39204 2.17277 1.78853 1.35666 2.35162 4.45255 3.09137 2.61559 2.16089 1.52796 2.27638
threshold=0.21639104334470333 0.22570539718691476 6.8388696697022233 1.1766160768826091 111.50000000000001 191.00000000000003 1.122427375210876 10.311890320586945 10.311708028261085 0.31561379306758847 65.500000000000014 0.067397358589193365 10.311704087251842 10.311704887537145
decision_type=2 2 2 2 2 2 2 2 2 2 2 2 2 2
left_child=-1 -2 3 5 -5 6 7 8 11 10 -9 12 -3 -14
right_child=1 2 -4 4 -6 -7 -8 9 -10 -11 -12 -13 13 -15
leaf_value=-0.17211001356799871 0.096781603029759911 -0.072687840685079247 0.13081655824141078 -0.20301593103280646 0.027229337646522297 -0.13750133448050661 0.12218739108268953 -0.16128294837364709 -0.20101650359291817 0.16268477707767096 0.029360655517069231 0.17189389095899626 0.1662701085603073 -0.075685682116170369
leaf_weight=2.4511028677225104 9.1685144770890457 10.661300286650667 3.6052602138370267 3.5979837030172339 3.0117314197123051 3.6577539257705203 3.8010829742997876 3.3130285739898744 5.7704407162964335 6.1301064379513255 21.95436092838645 2.5186535120010367 3.2910238653421393 2.94916682690382
leaf_count=25 97 64 31 24 26 31 27 37 34 48 208 15 22 15
internal_value=0 0.00721072 -0.00384787 -0.0107191 -0.0981042 -0.0017009 0.00652449 -0.00124471 -0.0467623 0.0352746 0.0043637 -0.000927725 -0.0266815 0.0519198
internal_weight=0 83.4304 74.2619 70.6566 6.60972 64.0469 60.3892 56.5881 25.1906 31.3975 25.2674 19.4201 16.9015 6.24019
internal_count=704 679 582 551 50 501 470 443 150 293 245 116 101 37
is_linear=0
shrinkage=0.2


Tree=17
num_leaves=15
num_cat=0
split_feature=2 9 9 5 7 9 1 0 11 1 10 0 0 1
split_gain=1.61406 1.65852 1.72527 1.72175 1.71208 1.91497 2.9344 2.48314 1.97775 2.10108 1.65775 1.45424 1.78133 2.42143
threshold=-690.6153855682013 2.2514151412478727 2.2443732909104033 0.30089546544351142 0.68451299342654892 2.219391508053032 0.50040837358209689 1.7609559802904087 -2.4880907913763006 1.1766160768826091 10.311890169737591 1.4366717237529698 1.5570136676914885 0.80805898767750939
decision_type=2 2 2 2 2 2 2 2 2 2 2 2 2 2
left_child=-1 2 4 -4 -2 6 -6 8 11 -10 -11 -7 -13 -14
right_child=1 -3 3 -5 5 7 -8 -9 9 10 -12 12 13 -15
leaf_value=-0.15294900159216782 -0.15551795133125107 -0.18646262027365046 0.045376247530117896 0.34551782234066403 -0.14423965714812118 0.190150315809888 0.16158124172400576 0.1580312546998123 -0.017106982929327576 -0.045788833186567741 -0.28333673559050637 -0.063455357741911689 0.2504555278117665 0.01159446260989621
leaf_weight=2.6133503057062617 2.5747207775712004 1.7392461299896229 2.1606951560825105 1.1831065490841863 1.5557231195270995 2.4997218735516027 6.4925880152732134 3.7090412005782118 41.038614228367813 2.4858012795448294 2.228654533624649 5.5090276151895514 2.4397587440907937 5.580883152782917
leaf_count=30 20 17 35 8 9 19 115 28 299 17 15 34 23 35
internal_value=0 0.00673804 0.010967 0.151573 0.00478999 0.0104026 0.102467 -0.000911265 -0.0104532 -0.0316335 -0.158084 0.0500021 0.0241086 0.0842524
internal_weight=0 81.1976 79.4583 3.3438 76.1145 73.5398 8.04831 65.4915 61.7825 45.7531 4.71446 16.0294 13.5297 8.02064
internal_count=704 674 657 43 614 594 124 470 442 331 32 111 92 58
is_linear=0
shrinkage=0.2


Tree=18
num_leaves=15
num_cat=0
split_feature=17 1 0 1 0 14 0 1 0 14 11 13 10 1
split_gain=5.59434 3.74819 2.17142 1.48536 1.32407 1.57642 2.04464 1.34362 2.1305 2.90423 2.57546 2.04792 2.0093 1.89392
threshold=2.5000000000000004 0.50622308244452474 1.4071696378893119 1.020586937039617 1.7843112010560722 71.500000000000014 1.7058543173540957 0.72616214690064895 1.5133287582144008 79.500000000000014 2.9410860568855317 0.20112224584302907 10.921882933088691 1.1199897335654827
decision_type=2 2 2 2 2 2 2 2 2 2 2 2 2 2
left_child=2 -2 3 -1 5 6 -4 8 -7 -10 12 -9 -11 -13
right_child=1 -3 4 -5 -6 7 -8 11 9 10 -12 13 -14 -15
leaf_value=-0.2500453412426224 -0.25257721689457269 0.21593776054607972 -0.12933784451945127 -0.023689952859768285 0.12173450532616935 0.19088485894816754 0.099292655549935493 -0.044378153056251764 0.15877887089551532 -0.0033050108723086877 0.11344500103913253 0.10330563126167569 -0.25095666748790418 -0.081867560848918719
leaf_weight=2.543788392096757 0.7615709975361814 6.6221822584047914 8.0860876608639938 2.1310784295201302 3.098948508501052 3.4334214255213729 1.9400006309151638 30.491378016769886 3.6128474064171296 2.4312448352575302 2.3910874649882317 8.445252411067484 2.8426796197891235 2.9921187907457343
leaf_count=22 5 177 66 19 25 21 12 195 25 24 19 54 18 22
internal_value=0 0.167614 -0.0149021 -0.146859 -0.0060598 -0.0120003 -0.0850989 0.000939227 0.0529433 0.0109485 -0.0587302 -0.0173071 -0.136791 0.0548627
internal_weight=0 7.38375 74.4399 4.67487 69.7651 66.6661 10.0261 56.64 14.7113 11.2779 7.66501 41.9287 5.27392 11.4374
internal_count=704 182 522 41 481 456 78 378 107 86 61 271 42 76
is_linear=0
shrinkage=0.2


Tree=19
num_leaves=15
num_cat=0
split_feature=17 0 3 2 5 2 5 2 2 9 13 2 4 4
split_gain=4.41018 3.08615 1.61692 2.22468 3.77653 2.18956 1.89996 1.51073 1.93408 1.38715 1.56158 1.52194 1.42673 5.57268
threshold=2.5000000000000004 1.6612362795256319 -0.053080724315592694 96.483972774103378 0.29967062463058819 263.54950983623638 0.3310430808569656 -86.538871243162475 -288.66740907192019 2.2425303843846738 0.22053338130787761 317.23699884880665 0.024878523202480803 -0.029986359999761149
decision_type=2 2 2 2 2 2 2 2 2 2 2 2 2 2
left_child=2 -2 9 4 7 -5 -6 8 -4 10 11 12 13 -1
right_child=1 -3 3 5 6 -7 -8 -9 -10 -11 -12 -13 -14 -15
leaf_value=0.061727088565542355 0.21341742668318409 -0.2304744783005912 -0.22360193997823857 0.15991545534427648 0.19495212482152258 -0.064657923261501812 -0.068925865457713689 -0.26010879901023776 -0.015411504922162976 -0.11316094714619696 0.14647807855629844 0.13309036840687599 0.022443050748094925 -0.19779402367152504
leaf_weight=7.1755059994757175 5.5187112698331466 0.70673378556966771 3.1681380067020655 3.1662360168993464 2.1146275736391535 3.8460700213909149 2.2556642629206181 3.942849565297367 4.0880853980779648 3.5301718674600115 3.4435816574841729 3.4904477298259726 26.154991544783115 6.1430243626236898
leaf_count=50 176 6 36 17 16 27 19 32 31 22 35 24 171 42
internal_value=0 0.163025 -0.0123857 -0.0567959 -0.0989249 0.0367427 0.0587552 -0.160457 -0.106309 0.00769647 0.01689 0.00650341 -0.00469005 -0.0579741
internal_weight=0 6.22545 72.5194 22.5817 15.5694 7.01231 4.37029 11.1991 7.25622 49.9377 46.4076 42.964 39.4735 13.3185
internal_count=704 182 522 178 134 44 35 99 67 344 322 287 263 92
is_linear=0
shrinkage=0.2


Tree=20
num_leaves=15
num_cat=0
split_feature=15 3 10 4 4 0 0 4 4 0 13 4 10 15
split_gain=1.26865 1.5948 1.57076 1.76328 2.41151 1.50772 1.38398 1.9504 3.06015 2.33468 2.22819 1.84783 2.12417 2.26023
threshold=0.018773973333922254 0.10338494664513466 10.311638904905665 0.030532560550877202 -0.064579115597116779 1.7500954258849772 1.6042136322587934 0.035513179117433506 0.11637311120286122 1.6639005489585779 0.080443908722760665 -0.10438706029638238 10.954792798358186 0.0090954249285344017
decision_type=2 2 2 2 2 2 2 2 2 2 2 2 2 2
left_child=1 5 -2 4 -4 6 11 10 -9 -10 -8 -1 13 -13
right_child=2 -3 3 -5 -6 -7 7 8 9 -11 -12 12 -14 -15
leaf_value=-0.08724117234799722 -0.11045088732486719 -0.20701565322239943 0.16157154600387691 0.23001923615478739 -0.19668740095575954 0.12552775099560884 -0.056329833929678996 -0.23649314322335024 0.10396594051334425 -0.11307618234746888 0.15423466028127442 -0.21646921541128716 0.21192897061983587 0.027902253379927047
leaf_weight=6.4350394504144779 1.4276249110698689 1.5649898778647173 1.8548194905743001 3.0651585627347231 1.2634976375848057 3.4733042102307072 5.3708574799820799 4.3719558306038371 3.2080811075866205 5.188971659168601 3.212643925100565 1.5906272120773781 2.3756829341873518 31.40740407910198
leaf_count=69 8 15 26 28 17 26 40 28 22 34 21 21 41 308
internal_value=0 -0.00744996 0.0786397 0.122296 0.0164101 -0.00276293 -0.00981777 -0.0512443 -0.100803 -0.0301556 0.0224805 0.0113395 0.0292729 0.0161226
internal_weight=0 68.1996 7.6111 6.18348 3.11832 66.6346 63.1613 21.3525 12.769 8.39705 8.5835 41.8088 35.3737 32.998
internal_count=704 625 79 71 43 610 584 145 84 56 61 439 370 329
is_linear=0
shrinkage=0.2


Tree=21
num_leaves=15
num_cat=0
split_feature=9 9 3 15 8 3 3 4 4 14 4 8 10 8
split_gain=1.25195 1.13464 1.87587 1.69141 1.91064 1.45138 1.14048 1.08964 2.85763 2.55966 1.46506 2.99509 2.02661 1.86167
threshold=2.2516434510319967 2.2443732909104033 -0.021012623385136597 0.014705619984400351 0.9126961268151631 -0.022807739201357147 0.018086489677398756 -0.030852975594771747 -0.092868028483971479 138.50000000000003 0.021594282059686502 0.64326641376841531 10.311890590308805 0.78163171721304814
decision_type=2 2 2 2 2 2 2 2 2 2 2 2 2 2
left_child=1 2 7 -4 6 -3 -5 8 -1 -10 11 -9 -13 -12
right_child=-2 5 3 4 -6 -7 -8 10 9 -11 13 12 -14 -15
leaf_value=-0.016430029637662807 -0.17873101038653363 0.026904397707383277 -0.1289107503028081 -0.041872665998708002 -0.18573213725947729 0.33131112772290355 0.17607318240367198 0.10715862908703713 0.26736998665300188 -0.0016281231562338882 -0.015804251404020801 -0.2754022862807069 -0.049686180296587702 0.082082934086422796
leaf_weight=7.6821420984342694 1.5172692593187083 1.856904265470803 7.6643081810325366 1.6153070852160456 1.3748738560825584 0.94554330687969823 2.368765776976943 2.6844158172607475 3.8031304646283299 2.2532979156821966 21.775390204042196 2.7268462181091309 3.8202717769891024 12.084545293822883
leaf_count=86 15 36 75 15 17 12 24 18 52 20 167 16 52 99
internal_value=0 0.00482974 -0.000176362 -0.0686411 0.0175558 0.129611 0.087709 0.0155131 0.0645596 0.167289 -0.000124036 -0.0707505 -0.143696 0.0191315
internal_weight=0 72.6557 69.8533 13.0233 5.35895 2.80245 3.98407 56.83 13.7386 6.05643 43.0915 9.23153 6.54712 33.8599
internal_count=704 689 641 131 56 48 39 510 158 72 352 86 68 266
is_linear=0
shrinkage=0.2


Tree=22
num_leaves=15
num_cat=0
split_feature=5 5 11 1 4 3 6 2 6 2 5 6 11 14
split_gain=1.15038 1.12461 1.85789 2.12536 1.06152 1.00718 1.68048 1.51426 2.06842 1.89319 1.76021 1.41814 1.50759 1.31503
threshold=0.21639104334470333 0.22570539718691476 1.6224320908919123 0.91764681426288164 0.068011161498996456 -0.021012623385136597 -0.19257253172980529 -153.91320282447313 -0.074739580399549685 -107.19901435108612 0.25422091595522289 0.0052525370019061513 3.0352056432140762 97.500000000000014
decision_type=2 2 2 2 2 2 2 2 2 2 2 2 2 2
left_child=-1 2 -2 4 -4 7 -7 -3 10 -10 -9 -11 -13 -8
right_child=1 5 3 -5 -6 6 13 8 9 11 -12 12 -14 -15
leaf_value=-0.15456302358349377 0.17282340523338047 -0.030336198020976892 -0.045368056628759881 -0.20860888470127931 0.24828601290604044 0.047800756773600239 -0.1823875151487698 0.048587087810695553 0.20976799778633468 0.1234778724910896 -0.11911764992908479 -0.03979571977032529 0.15767596499711875 -0.0045043770388140765
leaf_weight=1.8542564893141378 3.9349832655861965 23.070396422408518 0.94284840114414725 1.4873549882322548 1.0306528992950914 3.8460676539689302 4.4726902386173588 4.9967840141616744 3.4975163619965324 5.9921520119533023 5.0169267188757658 7.7400541957467777 1.9325662218034265 2.6456877943128347
leaf_count=25 47 178 21 19 10 36 49 81 27 65 37 63 16 30
internal_value=0 0.00502273 0.078815 -0.0280722 0.107992 -0.00361117 -0.0587203 0.00795404 0.0382314 0.0767269 -0.035434 0.0470225 -0.000341354 -0.116274
internal_weight=0 70.6067 7.39584 3.46086 1.9735 63.2108 10.9644 52.2464 29.176 19.1623 10.0137 15.6648 9.67262 7.11838
internal_count=704 679 97 50 31 582 115 467 289 171 118 144 79 79
is_linear=0
shrinkage=0.2


Tree=23
num_leaves=15
num_cat=0
split_feature=17 9 11 5 5 11 8 12 5 9 11 5 11 7
split_gain=3.00724 2.18959 1.26077 1.25688 1.73848 1.76957 1.4547 2.14425 1.79767 1.57596 2.51211 1.21636 1.0878 1.08747
threshold=2.5000000000000004 2.1918936631076105 -4.471042264389733 0.28695318342910631 0.29270489518112869 1.8813379078483246 0.80802347738586089 5.0723090022103845 0.31683090917839302 2.2246203108603266 1.625071452191988 0.26498731448434393 3.3294999011363551 0.83023730037682475
decision_type=2 2 2 2 2 2 2 2 2 2 2 2 2 2
left_child=2 -2 -1 11 -5 6 7 8 9 -6 -11 13 -7 -4
right_child=1 -3 3 4 5 12 -8 -9 -10 10 -12 -13 -14 -15
leaf_value=0.12522557192071634 -0.17581917433786901 0.2096323185035677 -0.11690272255484452 0.14405491547357521 -0.12881820903790628 -0.17976853665923553 0.086765378110994287 0.15729864765057897 -0.20003887656795488 -0.032783587430068539 0.21581006991084825 -0.13543427722320583 0.00071960840975820398 -0.0077354938198266809
leaf_weight=2.6380567997694007 0.68879874050617118 4.0890877605415881 4.4621722958982053 3.4929985180497161 3.3483409881591895 3.3133868947625151 8.2095577195286733 2.4316575285047284 2.4961265139281741 6.0762337520718557 2.2200819551944733 5.0458922944962969 2.2378296554088593 20.053127908147871
leaf_count=23 4 178 41 22 17 24 66 27 20 40 14 36 18 174
internal_value=0 0.154064 -0.0102472 -0.0158853 0.0104422 -0.00494392 0.017919 -0.0161858 -0.0460183 -0.0130027 0.0337397 -0.0460113 -0.107009 -0.0276057
internal_weight=0 4.77789 66.0255 63.3874 33.8262 30.3332 24.782 16.5724 14.1408 11.6447 8.29632 29.5612 5.55122 24.5153
internal_count=704 182 522 499 248 226 184 118 91 71 54 251 42 215
is_linear=0
shrinkage=0.2


Tree=24
num_leaves=15
num_cat=0
split_feature=17 2 15 10 2 10 13 1 1 13 1 1 2 16
split_gain=2.3686 1.08238 1.44418 1.33483 1.27415 2.12997 2.01855 2.88638 2.58923 1.99416 1.75786 1.8061 1.69161 1.01462
threshold=4.5000000000000009 -690.6153855682013 0.018856645291594202 10.311638904905665 -135.21600591274918 10.311415992003058 0.060792155709909305 0.52425653980502929 1.0288045723270385 0.10072210976413436 0.45471774496083012 0.58806333912629971 -118.03566076301 6.8895493082579975
decision_type=2 2 2 2 2 2 2 2 2 2 2 2 2 2
left_child=1 -1 4 -4 5 -3 8 -8 -7 -9 -6 -12 -13 -5
right_child=-2 2 3 13 10 6 7 9 -10 -11 11 12 -14 -15
leaf_value=-0.15838493131721376 0.20575473798109567 0.16080468494300726 -0.085365346623960281 0.026745243658329677 -0.14473833915416037 -0.17924416872007035 0.25603429856965026 0.10458637353305056 0.020791780293728156 -0.099339117961657564 0.16730310018045322 0.18196393495022589 -0.0029096423440969645 0.22508444641501626
leaf_weight=1.8068272164091457 2.1884758700616649 1.8598961904644991 1.2637920677661885 1.685272450558841 2.5707762837409964 8.4159132018685359 1.5246791467070568 2.6921888738870603 3.737884644418954 6.6711867097765207 3.2986631887033608 2.1405753977596786 26.349666264373809 2.660156574100256
leaf_count=27 112 13 8 26 21 60 11 21 30 60 34 14 242 25
internal_value=0 -0.00570026 -0.00144757 0.0955478 -0.0106284 -0.0450763 -0.0616947 0.000847408 -0.117723 -0.0407058 0.0143373 0.0272018 0.0109806 0.148163
internal_weight=0 66.6775 64.8707 5.60922 59.2614 24.9017 23.0419 10.8881 12.1538 9.36338 34.3597 31.7889 28.4902 4.34543
internal_count=704 592 565 59 506 195 182 92 90 81 311 290 256 51
is_linear=0
shrinkage=0.2


Tree=25
num_leaves=15
num_cat=0
split_feature=5 3 14 3 12 5 6 0 4 6 7 6 4 7
split_gain=0.79374 0.740886 2.08731 1.49062 1.42079 1.15019 1.42813 1.91368 2.39448 1.46501 1.37208 1.32441 1.86763 1.40039
threshold=0.21639104334470333 -0.053080724315592694 265.00000000000006 -0.061021542968543244 5.0742920657819175 0.23294019083724701 -0.090485061303075945 1.5207849416622359 0.080613017093767558 -0.16306445168083517 0.8160795368566448 0.033541954485033255 -0.029986359999761149 1.1410089037265922
decision_type=2 2 2 2 2 2 2 2 2 2 2 2 2 2
left_child=-1 2 3 4 5 10 7 -7 9 -9 -2 -8 -13 -14
right_child=1 -3 -4 -5 -6 6 11 8 -10 -11 -12 12 13 -15
leaf_value=-0.13721949203282022 -0.16357274456086479 -0.028433444406916142 -0.21770570469498995 0.19693058844183675 0.16971209208223478 -0.25690733732581789 0.062683837764000716 0.021838103252165484 0.060565249973816265 -0.24956258149096172 0.12444378359915301 0.097924763735587464 -0.21469525597923558 -0.026191796192822948
leaf_weight=1.6206966266036023 0.75435509905218978 19.274607957806438 1.4517380297183979 1.9510741233825672 2.3379614227451375 1.7640310823917307 13.610437067691246 1.2215169048868109 5.0161090893670917 2.2815362364053722 5.3814516612328589 3.0552131459116936 2.3667024737223965 4.7209840007126331
leaf_count=25 6 216 17 19 35 17 112 30 36 22 101 19 17 32
internal_value=0 0.00447433 0.0182892 0.0259948 0.0181495 0.0093288 -0.00503978 -0.0673041 -0.0280437 -0.154925 0.0890341 0.0219154 -0.0327904 -0.0891364
internal_weight=0 65.1877 45.9131 44.4614 42.5103 40.1723 34.0365 10.2832 8.51916 3.50305 6.13581 23.7533 10.1429 7.08769
internal_count=704 679 463 446 427 392 285 105 88 52 107 180 68 49
is_linear=0
shrinkage=0.2


Tree=26
num_leaves=15
num_cat=0
split_feature=17 1 14 14 12 1 8 1 8 14 3 3 3 5
split_gain=2.17548 1.56392 1.07346 1.60847 0.926557 0.905317 2.34884 2.27058 1.94013 1.69579 1.3707 1.25759 1.79676 1.96351
threshold=2.5000000000000004 0.50622308244452474 55.500000000000007 33.000000000000007 6.8388696697022233 0.80805898767750939 0.53691110629269867 0.7811228304363379 0.56799942517576629 123.50000000000001 -0.080788113695090438 -0.031493737550705246 -0.084683218243322589 0.28695318342910631
decision_type=2 2 2 2 2 2 2 2 2 2 2 2 2 2
left_child=2 -2 3 -1 5 7 -7 9 -8 10 -4 12 13 -10
right_child=1 -3 4 -5 -6 6 8 -9 11 -11 -12 -13 -14 -15
leaf_value=0.012162904791075742 -0.17408126443110936 0.20890611505448145 0.083100297028483622 -0.23425136232597704 0.11752196836972824 -0.25467675993517186 0.14247014514648937 0.23487467734811879 -0.14897462158920236 -0.10231637046986493 -0.034045977913870477 -0.13326241245390724 0.080908374067438116 -0.0017337560170133772
leaf_weight=2.229908784851431 0.4973254501819605 2.9941764783579856 9.763306658715015 2.0189671344123781 2.5328094717115155 1.7296700384467865 2.8346353992819813 1.8765470385551442 5.1894397363066771 4.5844852942973366 6.762577771209183 4.1148696895688728 6.0032327696681049 11.999570168554781
leaf_count=22 5 177 81 31 27 14 20 17 40 44 54 49 47 76
internal_value=0 0.154354 -0.00792639 -0.104927 -0.000745051 -0.00620544 -0.0280251 0.0240476 -0.0150188 0.00530674 0.0351627 -0.0313671 -0.0132884 -0.0461864
internal_weight=0 3.4915 61.64 4.24888 57.3911 54.8583 31.8714 22.9869 30.1417 21.1104 16.5259 27.3071 23.1922 17.189
internal_count=704 182 522 53 469 442 246 196 232 179 135 212 163 116
is_linear=0
shrinkage=0.2


Tree=27
num_leaves=15
num_cat=0
split_feature=9 9 9 9 4 4 16 8 13 13 9 8 8 11
split_gain=0.818067 1.38282 1.73523 1.45749 1.77097 2.00453 1.68719 1.5349 2.43258 2.02352 1.5123 1.41374 1.40599 1.26553
threshold=2.2246481067363111 2.2255457211877325 2.2276958117224486 2.2376797356996234 -0.028400839754594644 0.16715688642623386 6.5679980145478085 0.68020639370996849 0.20854517720851318 0.19610342044822313 2.2389040534609714 0.61908951924962663 0.56455464456016868 -3.9573516723810394
decision_type=2 2 2 2 2 2 2 2 2 2 2 2 2 2
left_child=-1 -2 -3 4 6 -6 -4 10 9 -9 -5 12 13 -12
right_child=1 2 3 7 5 -7 -8 8 -10 -11 11 -13 -14 -15
leaf_value=0.028185972055259679 -0.14195164012358472 0.16418725536655437 -0.16155624181439818 0.21881611856724895 -0.18975800525842706 0.062717626113746164 0.17744325367028135 -0.038415192289665029 -0.29779265435163188 0.24348019052001729 -0.090979452857427395 0.14360933916078919 -0.13409525870110248 0.1840316635504011
leaf_weight=25.558091428130865 3.2962415702641001 2.2318153679370871 0.90008669532835517 2.0819947570562389 5.6078928178176302 1.6215899195522068 1.6896674297749994 9.1439047311432642 1.2957112938165654 1.1462567821145047 1.149207912385463 2.7970209047198296 2.6921551870182157 1.6028463221155096
leaf_count=292 36 33 24 19 51 15 16 121 9 13 11 19 21 24
internal_value=0 -0.0182752 -0.00627086 -0.0182611 -0.082291 -0.133127 0.0596217 0.0104358 -0.0395333 -0.00701389 0.0665167 0.0280411 -0.0313333 0.069192
internal_weight=0 37.2564 33.9602 31.7283 9.81924 7.22948 2.58975 21.9091 11.5859 10.2902 10.3232 8.24123 5.44421 2.75205
internal_count=704 412 376 343 106 66 40 237 143 134 94 75 56 35
is_linear=0
shrinkage=0.2


Tree=28
num_leaves=15
num_cat=0
split_feature=17 9 2 9 10 9 10 13 13 4 4 4 9 10
split_gain=1.73494 1.16938 0.809986 0.965679 0.762314 2.16359 2.07737 1.43507 1.31771 2.50284 1.82609 1.69552 1.28114 1.17295
threshold=2.5000000000000004 2.1918936631076105 392.280726520575 2.2381527004166135 10.311704887537145 2.2209310750077749 10.311886083758985 0.19550689405817853 0.21127094351007297 -0.099992638957510246 0.033513338319578902 0.12420175413214853 2.2246332676006007 10.311703804135156
decision_type=2 2 2 2 2 2 2 2 2 2 2 2 2 2
left_child=2 -2 4 -4 5 -1 12 -8 -9 -10 -11 -12 -6 -7
right_child=1 -3 3 -5 6 13 7 8 9 10 11 -13 -14 -15
leaf_value=-0.18746614110082679 -0.12937823019381786 0.20676256079037436 0.15945950982450749 -0.038525438393162775 -0.055702133002496129 0.019259246230995841 -0.039357439041076261 0.14238277611730887 -0.25491427917086329 0.21293644024552846 -0.12898402060663705 0.11900396901531868 -0.26020774780413075 0.16001955945850507
leaf_weight=1.6828027740120877 0.49793936312198583 2.4549597178120166 2.4200805127620688 1.6623182874172924 2.6777516007423392 9.6607182398438436 23.143881340511143 3.8558423053473216 1.2909212000668047 1.9303162973374126 2.5046294294297695 1.9703900879248974 2.2589993886649609 3.1368803083896628
leaf_count=10 4 178 20 15 21 79 229 36 10 17 20 25 13 27
internal_value=0 0.15008 -0.00706311 0.0788417 -0.0135439 0.025728 -0.0278925 -0.0106206 0.0469519 -0.000859184 0.0503427 -0.0197927 -0.149282 0.0537617
internal_weight=0 2.9529 58.1955 4.0824 54.1131 14.4804 39.6327 34.696 11.5521 7.69626 6.40534 4.47502 4.93675 12.7976
internal_count=704 182 522 35 487 116 371 337 108 72 62 45 34 106
is_linear=0
shrinkage=0.2


Tree=29
num_leaves=15
num_cat=0
split_feature=17 0 0 1 2 15 1 1 2 2 2 2 1 4
split_gain=1.36804 1.28142 0.91599 1.03062 0.641974 0.779895 0.888145 1.21952 1.04427 1.59502 1.44253 1.34232 0.808058 0.782774
threshold=2.5000000000000004 1.6612362795256319 1.4071696378893119 1.020586937039617 392.280726520575 0.018856645291594202 0.45471774496083012 0.54018690916593037 -135.21600591274918 -234.42398952564415 -118.03566076301 -185.14259490916029 0.84258030436100306 0.024878523202480803
decision_type=2 2 2 2 2 2 2 2 2 2 2 2 2 2
left_child=2 -2 3 -1 5 6 -4 -8 9 13 -10 -11 -7 -9
right_child=1 -3 4 -5 -6 12 7 8 10 11 -12 -13 -14 -15
leaf_value=-0.22806865412569388 0.20754173221377414 -0.18523685319192248 -0.12868141541937664 -0.0033050702758934377 0.086153737674123237 0.15053745668214344 0.14385388559963869 -0.078965100583183734 0.18008036746745731 -0.23876569021145652 8.7414592417068703e-05 -0.059495266509693501 -0.016593332732539889 0.032317940119943427
leaf_weight=1.5317989736795419 2.1037641689181323 0.3945530205965041 2.5083924885839215 1.7463724203407762 3.2910196278244248 2.4931867690756908 2.0612057298421851 3.6544515118002918 1.958309663459654 2.5203046258538961 19.6759583419189 4.95601996406912 2.1593650337308645 8.2051284196786565
leaf_count=22 176 6 27 19 31 32 21 39 14 19 165 41 22 70
internal_value=0 0.145511 -0.00570858 -0.108331 0.000581477 -0.00502934 -0.0129979 -0.00625445 -0.0138064 -0.0475811 0.0163802 -0.119928 0.0729679 -0.0019732
internal_weight=0 2.49832 56.7615 3.27817 53.4833 50.1923 45.5398 43.0314 40.9702 19.3359 21.6343 7.47632 4.65255 11.8596
internal_count=704 182 522 41 481 450 396 369 348 169 179 60 54 109
is_linear=0
shrinkage=0.2


Tree=30
num_leaves=15
num_cat=0
split_feature=15 6 9 7 6 6 12 3 15 15 7 7 7 6
split_gain=0.915668 0.734282 1.4011 1.89693 0.821685 0.772523 1.00009 2.03279 1.22883 2.17953 1.5624 2.07006 1.41281 1.11551
threshold=0.0073235544217687002 0.06520349852376206 2.2393362353590724 1.1731905306933299 0.081193175624364761 0.050738116664821406 1.762796712368581 -0.17171380747420911 0.011221152497194102 0.0132023778714384 0.88493594355901639 1.0106497597646724 0.92865892207672707 -0.012541769605786198
decision_type=2 2 2 2 2 2 2 2 2 2 2 2 2 2
left_child=-1 5 3 4 -3 6 8 -8 -2 12 -11 -12 -10 -13
right_child=1 2 -4 -5 -6 -7 7 -9 9 10 11 13 -14 -15
leaf_value=-0.21499919449354465 -0.13531737662823037 0.11336998583372476 -0.071337719866627611 0.21566859507391334 -0.080760621138803348 -0.10902719186795465 0.31002048270647148 0.019517190430664189 0.18716117675000921 -0.13108183815364932 0.13319211303324704 -0.09449498517501019 -0.0091289949290809941 0.079449975792989069
leaf_weight=0.77767413202673097 3.507239060476425 1.5305087761953458 2.5450173015706241 3.160488759400323 2.0273688973393291 2.7683070588391265 1.0196389155462409 17.499400982400402 3.1795967705547836 5.5927743045613196 3.245158103760331 6.4811699076090026 2.7226502948906273 1.9091123007237873
leaf_count=18 46 16 19 30 23 26 20 222 27 51 42 97 35 32
internal_value=0 0.00349166 0.0550387 0.102912 0.00274944 -0.00647181 -0.000184714 0.035512 -0.0250018 -0.00827475 -0.0442089 -0.00245196 0.0966144 -0.0549158
internal_weight=0 57.1884 9.26338 6.71837 3.55788 47.925 45.1567 18.519 26.6377 23.1305 17.2282 11.6354 5.90225 8.39028
internal_count=704 686 88 69 39 598 572 242 330 284 222 171 62 129
is_linear=0
shrinkage=0.2


Tree=31
num_leaves=15
num_cat=0
split_feature=9 10 10 3 14 10 12 5 10 10 14 10 3 9
split_gain=0.643334 1.19236 1.16836 1.68418 1.66839 1.53589 1.07697 1.01339 1.31073 1.00074 0.953918 1.07222 1.4754 1.36524
threshold=2.2246481067363111 10.311487010448579 10.311886083758985 -0.22347047381072868 191.00000000000003 10.311704887537145 6.8363327462617187 0.3199808064136066 10.521123007536069 10.311644932288852 71.500000000000014 10.954792798358186 -0.10744692569016888 2.2393362353590724
decision_type=2 2 2 2 2 2 2 2 2 2 2 2 2 2
left_child=1 -1 5 -4 6 -2 7 10 -9 -3 -5 12 13 -12
right_child=2 9 3 4 -6 -7 -8 8 -10 -11 11 -13 -14 -15
leaf_value=-0.088156122365599332 -0.017217282711443793 0.23848836393862266 0.30620201576786449 -0.14556026024467025 -0.21761700925154781 -0.25458566552473377 0.16989155669379016 0.25420473894325885 -0.017267323908594524 0.033637827889573001 0.12760546521035068 0.14280887401738585 -0.070294840984064688 -0.044548309133791326
leaf_weight=3.1681980974972275 2.7477921741083255 1.0035698562860513 0.69052136829123156 2.2681762361899152 1.4666053671389807 1.8076945515349505 1.4372482136823226 1.2807952947914594 1.6002979027107356 19.275500689982437 3.8798181847669353 1.7087167336139817 10.726927914656686 3.5092265047132969
leaf_count=22 27 12 8 60 27 14 23 13 21 258 32 40 123 24
internal_value=0 0.0259488 -0.0173453 -0.00234594 -0.00998854 -0.111409 0.00154099 -0.00814756 0.103416 0.0437755 -0.0226964 -0.00863932 -0.0229241 0.0458457
internal_weight=0 23.4473 33.1238 28.5683 27.8778 4.55549 26.4112 24.974 2.88109 20.2791 22.0929 19.8247 18.116 7.38904
internal_count=704 292 412 371 363 41 336 313 34 270 279 219 179 56
is_linear=0
shrinkage=0.2


Tree=32
num_leaves=15
num_cat=0
split_feature=17 0 8 3 11 0 5 8 3 11 5 0 0 11
split_gain=1.17678 0.985736 0.743884 0.716245 0.662614 0.882712 0.567982 0.720899 1.19309 1.04976 0.875772 0.947599 1.20108 0.834074
threshold=2.5000000000000004 1.6612362795256319 1.0947127348107999 -0.071686507936507882 -4.471042264389733 1.4204347646821751 0.22279318868921924 0.91384034913799173 -0.11386744682639674 1.3857778326104446 0.22762295168520094 1.7715955005865285 1.7391102164082726 2.9410860568855317
decision_type=2 2 2 2 2 2 2 2 2 2 2 2 2 2
left_child=2 -2 4 -4 -1 -6 -7 10 -9 -10 -8 12 -12 -11
right_child=1 -3 3 -5 5 6 7 8 9 13 11 -13 -14 -15
leaf_value=0.11049198728719996 0.20665613205526415 -0.16936832994879758 -0.011905166257217215 -0.19675480695803066 -0.093214089508098952 -0.087089044021946421 0.12650114707487478 0.15969982310004194 0.14024814383243575 -0.14093035038147575 -0.010450786773549801 0.11716045078930018 -0.1847060675907353 0.070670598384861172
leaf_weight=2.1129523683339348 1.7688391647534438 0.33105243928730477 1.8418717347085478 1.5390977114439 4.054885482415556 2.5568446149118236 1.9686338230967511 3.1540054604411125 1.4754979815334071 2.0374009311199193 27.247525797691203 2.1464170301333061 1.6797295352444042 1.1747633479535577
leaf_count=23 176 6 21 20 46 34 17 27 16 24 242 27 13 12
internal_value=0 0.147375 -0.00528253 -0.0960531 0.000903745 -0.00397153 0.00435861 0.0100777 0.0645933 0.000602743 -0.00286011 -0.0110556 -0.0205693 -0.063543
internal_weight=0 2.09989 52.9896 3.38097 49.6087 47.4957 43.4408 40.884 7.84167 4.68766 33.0423 31.0737 28.9273 3.21216
internal_count=704 182 522 41 481 458 412 378 79 52 299 282 255 36
is_linear=0
shrinkage=0.2


Tree=33
num_leaves=15
num_cat=0
split_feature=2 5 3 2 7 5 7 4 2 3 2 5 6 3
split_gain=0.643185 2.00501 0.943522 0.862254 1.15338 1.08791 1.22421 1.15543 1.07138 2.47345 1.36887 1.29374 1.54585 1.43807
threshold=114.98342521429338 0.30566590625282902 0.032080198629560457 -14.80150502675516 0.77164863197583522 0.2988854832436042 0.92865892207672707 -0.082166270042705186 -135.21600591274918 -0.10628350389863543 -96.588863265040985 0.24394775445434497 -0.15312434639883019 -0.19946228420159881
decision_type=2 2 2 2 2 2 2 2 2 2 2 2 2 2
left_child=3 2 -2 8 -5 6 -6 -8 11 10 -10 13 -13 -1
right_child=1 -3 -4 4 5 -7 7 -9 9 -11 -12 12 -14 -15
leaf_value=0.25647236302051324 0.096955441880129334 -0.13363702014167919 -0.14132017686797371 -0.24628055384509243 0.12362850960181318 0.10555863156101233 0.0042818016288531085 -0.22383316502622788 0.054114687485936598 -0.065568638396731549 0.24680344657169689 0.11196571899246584 -0.025591979404308098 -0.1280757163462263
leaf_weight=0.41829546913504589 9.1286577194696257 2.1486417315900317 0.7169489867519595 1.2695120917633165 0.89910620311275113 1.5917433165013788 1.4422817444428799 2.3117949450388555 3.362017332110554 3.9292393648065644 2.6270641684532166 4.2398198642767957 14.253837538417431 5.5522026035469016
leaf_count=4 187 19 10 13 14 19 16 30 28 47 30 48 128 111
internal_value=0 0.0414045 0.0796044 -0.0111221 -0.072495 -0.0371667 -0.0859897 -0.136193 0.00229121 0.0577384 0.138636 -0.0201883 0.00594423 -0.101134
internal_weight=0 11.9942 9.84561 41.8969 7.51444 6.24493 4.65318 3.75408 34.3825 9.91832 5.98908 24.4642 18.4937 5.9705
internal_count=704 216 197 488 92 79 60 46 396 105 58 291 176 115
is_linear=0
shrinkage=0.2


Tree=34
num_leaves=15
num_cat=0
split_feature=17 0 0 5 0 8 8 8 8 5 0 5 12 5
split_gain=0.969106 2.90048 0.760347 1.19989 1.12389 0.900388 1.07007 1.00573 0.912244 1.30874 0.889573 1.03116 1.08915 0.883057
threshold=1.5000000000000002 1.6612362795256319 1.7058543173540957 0.30117655741194932 1.7469210976053586 0.82907442660733921 0.7662202520322734 0.92165077180308785 0.56799942517576629 0.26261559306656379 1.6255924815914689 0.28265579143483271 5.0722884913004975 0.23294019083724701
decision_type=2 2 2 2 2 2 2 2 2 2 2 2 2 2
left_child=2 -2 5 -4 -5 6 8 -7 9 -1 11 13 -13 -10
right_child=1 -3 3 4 -6 7 -8 -9 10 -11 -12 12 -14 -15
leaf_value=-0.054596254745890631 0.20535870913440593 -0.078241147275495443 0.18250906675069609 0.10002370626755107 -0.091982799373410654 -0.13931837160961488 0.091077108641354307 -0.023724714724936632 -0.021245791854841132 0.12070931703623321 -0.14154887752839629 -0.032472853208994311 0.13857708158678586 -0.19059065284696547
leaf_weight=3.0468281144276324 3.1981360224308437 2.6277333572506905 2.0049942880868903 2.3130765073001385 2.5790682244114578 4.4476429820060721 4.4836674537509671 9.3192189172841591 3.2888095895759744 3.8633443806320429 3.0162379294633856 3.737043708562851 2.4753009229898453 1.9691817983984945
leaf_count=30 192 26 15 18 31 46 41 118 41 54 23 28 20 21
internal_value=0 0.0774422 -0.00908326 0.0522046 -0.00119936 -0.019745 0.0022371 -0.0610694 -0.0163792 0.0434137 -0.0449008 -0.0194862 0.0356818 -0.0846675
internal_weight=0 5.82587 46.5444 6.89714 4.89214 39.6473 25.8804 13.7669 21.3967 6.91017 14.4866 11.4703 6.21234 5.25799
internal_count=704 218 486 64 49 422 258 164 217 84 133 110 48 62
is_linear=0
shrinkage=0.2


Tree=35
num_leaves=15
num_cat=0
split_feature=7 6 0 1 1 6 0 10 10 10 7 10 1 11
split_gain=0.576872 1.1096 0.394434 0.600488 1.0018 0.626998 0.534112 0.8031 0.799538 1.06773 1.33597 0.826527 0.796468 1.88675
threshold=1.4627954486302046 -0.085173250735762582 1.7843112010560722 0.45471774496083012 0.52425653980502929 -0.10163433013775434 1.7469210976053586 10.311238793315995 10.311638904905665 10.311704887537145 0.92865892207672707 10.31170359768632 0.91764681426288164 -4.4105380887472094
decision_type=2 2 2 2 2 2 2 2 2 2 2 2 2 2
left_child=2 -2 3 5 -5 -1 7 -6 -9 10 -10 -12 -11 -14
right_child=1 -3 -4 4 6 -7 -8 8 9 12 11 -13 13 -15
leaf_value=-0.23075236115223269 -0.031289582893504912 0.18380521547062495 0.08570815139017933 0.15500632725202004 0.20098648931880359 -0.022427043174782717 -0.11896064289502195 -0.11494140824802822 0.17623364378771444 0.0088815589132839601 -0.097670686646843308 0.084044733743965261 0.12936043520790533 -0.09353846343636793
leaf_weight=0.96850149240344796 1.9377633617259564 1.8999208689201612 1.8250229568220664 1.534507727716117 0.74403972551226516 1.4328240081667889 1.7113201767206181 2.6443936140276483 2.8031444940716019 17.832911846227947 1.9370238203555343 2.0724701173603535 1.8011238707695145 9.6977604384301213
leaf_count=13 18 32 26 21 6 19 13 25 28 291 18 19 19 156
internal_value=0 0.0751973 -0.00544762 -0.00912981 -0.00366694 -0.106449 -0.00957045 -0.00483511 -0.00878314 -0.0010164 0.0703102 -0.00374368 -0.0175828 -0.0586248
internal_weight=0 3.83768 47.005 45.18 42.7787 2.40133 41.2442 39.5329 38.7888 36.1444 6.81264 4.00949 29.3318 11.4989
internal_count=704 50 654 628 596 32 575 562 556 531 65 37 466 175
is_linear=0
shrinkage=0.2


Tree=36
num_leaves=15
num_cat=0
split_feature=2 15 7 2 13 6 11 2 6 15 2 11 2 6
split_gain=0.558321 0.633851 0.90642 0.64385 0.739713 1.36032 0.637085 0.868864 0.844955 0.612697 0.738528 0.94807 1.50541 1.30983
threshold=-690.6153855682013 0.018773973333922254 0.94951114889807775 104.40536400193774 0.19508815617592612 -0.17245291550793876 3.6259114046749499 612.21349103549858 0.094104885638988112 0.017362218324829905 -14.80150502675516 1.625071452191988 -156.78294316183749 0.050738116664821406
decision_type=2 2 2 2 2 2 2 2 2 2 2 2 2 2
left_child=-1 3 -3 9 5 -5 7 -7 -9 10 11 13 -13 -2
right_child=1 2 -4 4 -6 6 -8 8 -10 -11 -12 12 -14 -15
leaf_value=-0.13660993943035593 0.0046024570217890618 -0.042849450161764523 0.16168883966105757 -0.17832792261750824 -0.07870821672078801 0.15546075313451713 -0.023404603358746709 0.12278548235730508 -0.20482386261086441 -0.10413740104560375 -0.069122311612267714 0.0036684807320528259 0.164637898052298 -0.14509747176704349
leaf_weight=1.157899080775677 10.96699194586836 1.3999624883290374 2.2749346935888752 0.83539799693971772 1.7306844418635581 5.063276167609728 1.5842432252829892 0.67606572923250474 0.5894818902015686 2.8819924318231633 6.2836774182505932 7.9393112927209586 3.2857454358600062 2.9713624808937302
leaf_count=30 137 23 45 31 19 91 28 27 5 34 80 93 39 22
internal_value=0 0.00391763 0.0837694 -0.00263132 0.0407609 0.0643951 0.0900199 0.118412 -0.0298123 -0.015877 -0.00778835 0.00752765 0.0507867 -0.0273104
internal_weight=0 48.4831 3.6749 44.8082 10.4791 8.74847 7.91307 6.32882 1.26555 34.3291 31.4471 25.1634 11.2251 13.9384
internal_count=704 674 68 606 201 182 151 123 32 405 371 291 132 159
is_linear=0
shrinkage=0.2


Tree=37
num_leaves=15
num_cat=0
split_feature=17 0 14 14 2 9 9 9 6 0 0 2 9 14
split_gain=0.756983 0.702192 0.695272 0.682728 0.596364 0.513427 0.8813 1.60487 1.23903 0.966797 1.14781 0.914913 0.867304 0.999103
threshold=2.5000000000000004 1.6612362795256319 55.500000000000007 33.000000000000007 392.280726520575 2.2425303843846738 2.2376797356996234 2.2274714774364059 0.084642421161181258 1.563335117346262 1.5789105869679736 -169.99442343726295 2.2390904835701035 144.50000000000003
decision_type=2 2 2 2 2 2 2 2 2 2 2 2 2 2
left_child=2 -2 3 -1 5 6 7 8 -4 12 -11 -12 13 -8
right_child=1 -3 4 -5 -6 -7 9 -9 -10 10 11 -13 -14 -15
leaf_value=-0.016754803576628546 0.20476233385252363 -0.140412441125044 -0.0047746253835759325 -0.21736439445885603 0.093908121164289482 -0.10588848521762842 0.14423636498242232 -0.10535757562558537 0.18222054980515112 0.27924650791684974 0.14918197583856091 -0.022432847360797495 -0.13025701748778559 -0.075730255980531194
leaf_weight=1.6209102314896875 1.2388514213962469 0.29114490468054999 20.595164984464652 1.1672466432210056 2.6672461079433551 1.8760063387453545 1.8097288720309719 6.4395075789652756 1.5221210606396187 1.1800154782831667 2.3874431853182614 2.5912875286303461 1.7441591359674928 1.5194100793451069
leaf_count=22 176 6 195 31 31 16 18 84 15 10 33 29 22 16
internal_value=0 0.139079 -0.00386559 -0.100739 0.00222702 -0.0036421 0.00117872 -0.0174888 0.00809446 0.0486397 0.101896 0.0598613 -0.0160104 0.0438442
internal_weight=0 1.53 47.1202 2.78816 44.3321 41.6648 39.7888 28.5568 22.1173 11.232 6.15875 4.97873 5.0733 3.32914
internal_count=704 182 522 53 469 438 422 294 210 128 72 62 56 34
is_linear=0
shrinkage=0.2


Tree=38
num_leaves=15
num_cat=0
split_feature=5 0 10 1 1 9 10 15 0 16 1 1 16 12
split_gain=0.438982 0.621903 0.720935 0.583573 0.921381 0.497386 0.474125 0.671015 0.603175 0.539161 0.434639 1.49471 1.36543 1.11539
threshold=0.38295951615732404 1.779381431657155 10.311238793315995 0.45471774496083012 0.52425653980502929 2.224633160222131 10.311638904905665 0.018773973333922254 1.631779242975407 6.5679980145478085 0.72616214690064895 0.75195537658003009 7.5400788855512735 1.7630940093370822
decision_type=2 2 2 2 2 2 2 2 2 2 2 2 2 2
left_child=1 2 -1 5 -5 -4 8 10 -6 -9 -8 -12 13 -13
right_child=-2 -3 3 4 6 -7 7 9 -10 -11 11 12 -14 -15
leaf_value=0.21450235027480713 -0.10387822804263747 0.15990830575135151 -0.21672342777223857 0.16743341541390167 0.0060649627692798518 -0.022187907244155758 0.039673824859935689 -0.043539602995998163 -0.16741575838533751 0.18957433594419079 -0.22713060739630997 -0.057543430111154238 0.20317895594822041 0.026348374370884761
leaf_weight=0.62224490568041702 1.5539075639098872 1.0036955634132017 0.90467682853341047 1.3190852007828642 1.6924941977486008 1.2550530759617684 7.7403075288166283 0.56600782665191118 1.5231442879885433 1.3280339851044116 1.2557021689135606 12.14343782869401 1.2162070684134949 13.263547338894567
leaf_count=5 20 15 13 21 16 22 152 25 14 26 17 182 15 161
internal_value=0 0.00421062 0.000724716 -0.00228431 0.00292351 -0.103676 -0.00240447 0.00391334 -0.0761073 0.119912 -0.00225483 -0.0138959 -0.00383855 -0.0137483
internal_weight=0 45.8336 44.8299 44.2077 42.048 2.15973 40.7289 37.5132 3.21564 1.89404 35.6192 27.8789 26.6232 25.407
internal_count=704 684 669 664 629 35 608 578 30 51 527 375 358 343
is_linear=0
shrinkage=0.2


Tree=39
num_leaves=15
num_cat=0
split_feature=17 8 1 7 2 1 2 7 6 7 6 6 3 6
split_gain=0.626387 1.01289 0.667592 0.817225 0.665541 0.745547 0.611022 0.852716 1.14378 1.26216 1.11333 1.31116 1.72369 1.16643
threshold=1.5000000000000002 0.63033830096453147 0.6035033103431181 0.69927754257487174 -464.26588253330766 1.2938652501969756 531.53808248758662 1.1651694523412368 0.067397358589193365 1.1775213648750376 -0.10314144883198934 -0.074739580399549685 -0.053080724315592694 0.025591642628333255
decision_type=2 2 2 2 2 2 2 2 2 2 2 2 2 2
left_child=4 -2 -3 -4 -1 6 7 10 9 -9 -6 -12 13 -13
right_child=1 2 3 -5 5 -7 -8 8 -10 -11 11 12 -14 -15
leaf_value=-0.10599358594248887 -0.25153037623067781 -0.034178698989940595 -0.23128817249837721 0.17007442073513154 0.034821066183019209 -0.10417614597196539 0.12140273492171966 0.22788601638020853 0.15765503290234897 -0.0080524757975977291 -0.22285108730779413 0.081406097951918263 -0.156789409946163 -0.080693120668301893
leaf_weight=2.5636032833717755 0.36308792023919423 1.15732239279896 0.21763665787875686 3.0011679957970046 7.4955349978990808 2.6032590596005312 1.7650583293288935 0.98847932368516822 2.6040713917464009 10.993874769657848 1.7569559235125733 4.4713713843375382 3.2960409508086892 2.9452422950416803
leaf_count=51 11 35 2 170 85 29 22 7 27 129 18 44 42 32
internal_value=0 0.0694633 0.0960962 0.142937 -0.00728838 -0.0007868 0.00662439 0.000760962 0.0375197 0.0114112 -0.0260947 -0.0627115 -0.0364474 0.0170342
internal_weight=0 4.73921 4.37613 3.2188 41.4835 38.9199 36.3166 34.5516 14.5864 11.9824 19.9651 12.4696 10.7127 7.41661
internal_count=704 218 207 172 486 435 406 384 163 136 221 136 118 76
is_linear=0
shrinkage=0.2


Tree=40
num_leaves=15
num_cat=0
split_feature=8 2 5 9 9 15 2 0 3 0 0 9 8 8
split_gain=0.547677 0.549291 1.04931 1.36734 1.3533 1.20892 0.740391 0.703757 0.646074 0.65414 0.506923 0.502322 0.493804 1.00136
threshold=1.0947127348107999 -135.21600591274918 0.23710307487404605 2.2425303224347557 2.2381556448517355 0.011978812358276601 -118.03566076301 1.7281816185411267 -0.11573261227024113 1.6016203804838842 1.5312641937415274 2.2246332665494464 0.7437510022612196 0.79204502731451909
decision_type=2 2 2 2 2 2 2 2 2 2 2 2 2 2
left_child=1 2 12 4 5 -4 -3 8 9 -7 -2 -10 -1 -14
right_child=10 6 3 -5 -6 7 -8 -9 11 -11 -12 -13 13 -15
leaf_value=-0.22031632006499532 0.02014175270618903 0.15662125566773813 -0.15756881746094686 -0.17792456573514559 0.13152244108365282 0.0099061768177152003 0.017126193347637486 0.12967725348427195 0.14939202650634606 -0.14295927992081653 -0.15281360438498764 -0.013380965229675662 0.14551196338219261 -0.1707213938637176
leaf_weight=1.2929348114412307 1.1195127228274935 1.6390989723149711 1.9179917741566921 1.5380724612623442 3.3698763726279131 2.5308788456022748 21.2967716838466 1.7854775637388227 1.4003996662795519 2.0082089751958847 1.7181921256706116 1.6541324965655801 0.6250319848768412 1.1151207401417194
leaf_count=27 18 19 18 15 52 24 376 16 14 17 25 29 13 41
internal_value=0 0.00619097 -0.0187312 0.00147655 0.0202897 -0.0128906 0.0270951 0.0166956 -0.00986962 -0.0577254 -0.0845804 0.0612449 -0.126696 -0.057136
internal_weight=0 42.174 19.2381 16.205 14.667 11.2971 22.9359 9.3791 7.59362 4.53909 2.8377 3.05453 3.03309 1.74015
internal_count=704 661 266 185 170 118 395 100 84 41 43 43 81 54
is_linear=0
shrinkage=0.2


Tree=41
num_leaves=15
num_cat=0
split_feature=7 2 5 5 8 0 10 10 0 7 14 5 0 7
split_gain=0.379335 0.341786 0.837062 1.21122 0.869988 0.772167 0.764371 1.34749 0.878716 0.795538 0.744236 0.729357 0.701735 0.694149
threshold=1.4627954486302046 -130.9864483705702 0.24709450323768573 0.28598956875107867 0.77814051856264277 1.435278154267343 10.311705783403463 10.311487010448579 1.6103156894519031 0.83480363749297359 61.000000000000007 0.22469231615434401 1.7500954258849772 1.2647650663418217
decision_type=2 2 2 2 2 2 2 2 2 2 2 2 2 2
left_child=1 12 5 4 -4 11 7 -5 -8 -9 -7 -3 13 -1
right_child=-2 2 3 6 -6 10 8 9 -10 -11 -12 -13 -14 -15
leaf_value=-0.015659352764371918 0.066441416513144599 0.12199910192578278 -0.0223807761685582 -0.076826301909977107 -0.22546347683219944 -0.12133661787848891 0.049228912929315027 0.018807218300800677 -0.10460142702119674 0.22837666611364904 0.11139826784736657 -0.1864509322142559 0.10271948120416374 -0.11407242688615021
leaf_weight=13.382395751890732 3.2115627905586726 0.47782725596334941 1.7189075874630355 1.5428780373185853 1.6573225352913139 0.60357010946609069 2.8124098903499544 1.143064556643367 3.1478072283789515 1.978879813570529 6.1465811645030044 0.85591940593440086 1.5768105639144767 3.6484627891331902
leaf_count=200 50 20 19 16 21 13 31 12 31 29 161 29 25 47
internal_value=0 -0.00495527 0.0118693 -0.0177166 -0.12207 0.063112 0.0154429 0.0760788 -0.0320145 0.151645 0.0905881 -0.0759458 -0.0249241 -0.0367421
internal_weight=0 40.6928 22.0852 14.0013 3.37623 8.0839 10.625 4.66482 5.96022 3.12194 6.75015 1.33375 18.6077 17.0309
internal_count=704 654 382 159 40 223 119 57 62 41 174 49 272 247
is_linear=0
shrinkage=0.2


Tree=42
num_leaves=15
num_cat=0
split_feature=17 1 11 6 3 15 16 3 3 1 1 1 1 15
split_gain=0.539182 0.575593 0.44331 1.25811 1.36424 1.07784 1.05724 0.718511 1.07265 0.665587 0.678729 0.52884 1.07613 0.845231
threshold=2.5000000000000004 0.50622308244452474 1.7781116543839761 -0.063578875466305376 -0.11798008748089568 0.013228356818918001 7.2240224176945604 0.019617561504373104 -0.021012623385136597 0.57714214529079322 0.62902702109367314 0.77300790494338434 0.85032203774696091 0.015364214892984703
decision_type=2 2 2 2 2 2 2 2 2 2 2 2 2 2
left_child=2 -2 7 5 -5 -4 -6 8 9 -1 -11 13 -13 -12
right_child=1 -3 3 4 6 -7 -8 -9 -10 10 11 12 -14 -15
leaf_value=0.14232529699002025 -0.14497833244848479 0.20370192142153473 -0.0047070749103052143 0.11529110498208711 -0.16264936508462358 -0.20329357555063721 0.083512296736427516 0.12631228144018408 -0.11801750952082475 -0.12576590192375856 0.16836202756642382 -0.089728561997942213 0.024813706570927109 -0.030647018274780211
leaf_weight=1.5033055297099114 0.23698583990335353 0.94260471122106537 1.8945724900113416 3.0334986187517643 1.9461638270877286 2.5847153691574931 1.0880847517400978 1.9428115526679892 2.7566432468593147 1.4863658463582421 2.0427137892693312 4.1423920430243042 15.775934325531123 1.4665577644482253
leaf_count=25 5 177 30 37 41 34 12 32 46 17 26 36 168 18
internal_value=0 0.13365 -0.00346779 -0.0389031 0.0204461 -0.119299 -0.0743755 0.00854304 0.000700298 0.0130885 0.00529037 0.0136053 0.000992479 0.0851943
internal_weight=0 1.17959 41.6638 10.547 6.06775 4.47929 3.03425 31.1167 29.1739 26.4173 24.914 23.4276 19.9183 3.50927
internal_count=704 182 522 154 90 64 53 368 336 290 265 248 204 44
is_linear=0
shrinkage=0.2


Tree=43
num_leaves=15
num_cat=0
split_feature=17 1 11 4 4 9 0 0 5 3 9 9 3 14
split_gain=0.430095 0.463845 0.392745 0.758866 0.835687 0.82769 0.776901 0.654132 0.587125 0.472064 0.45951 0.779709 0.630957 1.28614
threshold=2.5000000000000004 0.50622308244452474 -2.4880907913763006 0.033513338319578902 0.16305616643209003 2.2328938852944149 1.563335117346262 1.4071696378893119 0.30117655741194932 -0.058114333126070998 2.2246481067363111 2.2255457211877325 -0.11400705000327319 94.500000000000014
decision_type=2 2 2 2 2 2 2 2 2 2 2 2 2 2
left_child=2 -2 3 6 8 -6 -1 9 -5 -4 -9 -12 -13 -14
right_child=1 -3 7 4 5 -7 -8 10 -10 -11 11 12 13 -15
leaf_value=0.029054053318345586 -0.12575064898761953 0.20304007702497018 -0.24012619574397856 0.0015535667686220978 -0.058291135127824682 0.2274038974986739 0.22933601756042488 0.017329107773352524 -0.15034537479203541 -0.025479131222119457 -0.15006288506250498 0.042103022022601681 0.0098163182679129324 -0.16268189297384558
leaf_weight=1.8671808736398801 0.22053249552845855 0.77399501201580279 0.84960132534615695 2.7609467850998044 0.68276535533368565 0.99928783718496561 1.3240982014685867 15.254501492716374 1.6121906600892542 0.79178374540061003 1.9499855255708087 4.8762540109455577 4.9862214424647382 2.6466451492160559
leaf_count=22 5 177 11 30 9 22 15 164 17 22 31 53 90 36
internal_value=0 0.130132 -0.00299274 0.0332299 -0.00836527 0.111437 0.112153 -0.0136747 -0.0544451 -0.136583 -0.00688518 -0.0324315 -0.0140945 -0.0499963
internal_weight=0 0.994528 40.6015 9.24647 6.05519 1.68205 3.19128 31.355 4.37314 1.64139 29.7136 14.4591 12.5091 7.63287
internal_count=704 182 522 115 78 31 37 407 47 33 374 210 179 126
is_linear=0
shrinkage=0.2


Tree=44
num_leaves=15
num_cat=0
split_feature=4 4 4 3 1 3 0 3 3 4 16 1 5 2
split_gain=0.325622 1.49556 0.717286 1.29805 0.971092 0.842086 1.07288 0.82335 0.951699 1.03647 0.659006 0.90798 0.658098 0.649378
threshold=-0.030852975594771747 -0.083273470231368232 0.021594282059686502 -0.14401367361053488 1.122427375210876 -0.20147742215049902 1.6024343919553823 -0.18354579294156673 -0.15585351593573432 0.24215810994938683 6.5679980145478085 1.1394958980882088 0.30807088247618525 -43.177323905821488
decision_type=2 2 2 2 2 2 2 2 2 2 2 2 2 2
left_child=1 10 3 -2 5 6 -4 -7 -9 -10 -1 -12 13 -5
right_child=2 -3 4 12 -6 7 -8 8 9 -11 11 -13 -14 -15
leaf_value=-0.11810275255553576 -0.22701748108468067 0.131051670443247 0.22594360461019006 -0.17193410173062151 0.1048576635560899 -0.22318806760863061 -0.017114900355139285 0.1589623520339575 -0.046592543054840382 0.13271218261367704 0.081300795613536939 -0.1185315100096265 0.11495354933543818 0.0025059359927246103
leaf_weight=2.1476891293714289 1.5777683546766637 3.7694509490393084 1.2817047868738947 1.3161634627613237 3.3962039964389978 0.81697997887386975 1.6767453383654354 1.1386013372684924 14.281209874025064 1.4175355634652067 2.8743259631446563 1.3305086884647606 1.1365748215466736 2.4289765649882642
leaf_count=79 20 88 16 38 52 9 16 17 220 26 43 17 17 46
internal_value=0 0.0312511 -0.0101528 -0.0693142 0.00576428 -0.0105625 0.0881866 -0.0271106 -0.0175965 -0.030402 -0.0279684 0.0180691 -0.0183446 -0.0587979
internal_weight=0 10.122 30.4685 6.45948 24.009 20.6128 2.95845 17.6543 16.8373 15.6987 6.35252 4.20483 4.88171 3.74514
internal_count=704 227 477 121 356 304 32 272 263 246 139 60 101 84
is_linear=0
shrinkage=0.2


Tree=45
num_leaves=15
num_cat=0
split_feature=9 4 6 6 4 5 4 9 9 4 11 8 3 4
split_gain=0.403918 0.378521 1.26946 1.09252 0.832632 0.671302 0.570474 0.464294 0.6044 0.460326 1.71429 0.703146 1.46816 1.45736
threshold=2.2484815741034843 -0.030852975594771747 -0.012541769605786198 -0.19257253172980529 -0.06321274589491864 0.3023824922044322 -0.091749538373589137 2.2389051318712343 2.2324343405987723 0.021594282059686502 -2.8420005215371646 0.78163171721304814 -0.20147742215049902 0.078125312092312368
decision_type=2 2 2 2 2 2 2 2 2 2 2 2 2 2
left_child=1 2 3 -1 5 -4 -5 8 -8 10 -3 -11 -13 -14
right_child=-2 9 4 6 -6 -7 7 -9 -10 11 -12 12 13 -15
leaf_value=0.1254733288530506 -0.13333833861245906 0.15708857980152202 -0.031867253364842217 -0.15472038430601082 0.23752330053874707 0.16688181691502108 0.055713958351099359 0.16540810981753862 -0.23618505716848631 -0.021589945623230494 -0.11181076031582682 0.25245610257907986 -0.079879886111332468 0.10116911419809596
leaf_weight=1.3395029152452478 0.88696318154688825 1.1862245886586604 1.5888466898468325 2.0823633143445477 1.5142912144656273 1.1881027594208715 0.67915033455938123 0.49211726360954333 0.48734393063932657 14.792208431346809 4.7289516237797242 1.2331545802298931 3.3534668774809671 3.7864936694968492
leaf_count=41 36 14 38 53 24 15 29 8 11 201 98 16 72 48
internal_value=0 0.0031752 0.0381299 -0.0295203 0.118222 0.0531665 -0.0850177 0.00249304 -0.0662371 -0.00808959 -0.0578859 0.00462571 0.0509391 0.0161348
internal_weight=0 38.4522 9.37172 5.08048 4.29124 2.77695 3.74097 1.65861 1.16649 29.0805 5.91518 23.1653 8.37312 7.13996
internal_count=704 668 219 142 77 53 101 48 40 449 112 337 136 120
is_linear=0
shrinkage=0.2


Tree=46
num_leaves=15
num_cat=0
split_feature=5 5 8 8 4 9 4 9 1 8 9 9 7 9
split_gain=0.292972 0.415457 0.265485 0.347598 0.408208 0.986593 0.660623 0.755789 0.666377 0.532914 0.356124 1.03903 1.238 0.946398
threshold=0.21639104334470333 0.21862678323975318 1.0947127348107999 1.0168141618295126 -0.10438706029638238 2.2425303001690993 -0.030852975594771747 2.2424126747632478 1.1339204279117636 0.93182769076026239 2.2376797356996234 2.2390904835701035 1.1530615987337696 2.2246481067363111
decision_type=2 2 2 2 2 2 2 2 2 2 2 2 2 2
left_child=-1 -2 3 4 5 -3 7 8 9 -6 13 -12 -13 -8
right_child=1 2 -4 -5 6 -7 10 -9 -10 -11 11 12 -14 -15
leaf_value=-0.1135844284084236 0.19149023974835933 0.013407038078386209 -0.068561160098440876 0.090442734508873232 0.22269628780790696 -0.24413992969084142 0.012952779330778277 0.24776813595012551 -0.16542388409360798 0.0056055420401234617 0.12302326389277073 -0.11444199592020046 0.094106815544993463 -0.08154270298323428
leaf_weight=0.88255410821875457 0.46196587078156781 1.7256058208877179 2.0915368157438925 1.7978411568328727 0.72804374301631458 0.90802700049243856 12.78843386640075 0.8952769802417605 0.53024921379983414 1.1942615896114146 3.0626296512782565 2.7109180795960128 1.9630800863960756 6.341848417709115
leaf_count=25 16 52 43 25 46 11 188 11 10 29 46 45 50 107
internal_value=0 0.00300628 0.000636152 0.00481348 0.000126865 -0.0753903 0.00670923 0.0904861 0.0330721 0.0878253 -0.00373004 0.0324781 -0.0268515 -0.0183733
internal_weight=0 37.1997 36.7378 34.6462 32.8484 2.63363 30.2147 3.34783 2.45255 1.92231 26.8669 7.73663 4.674 19.1303
internal_count=704 679 663 620 595 63 532 96 85 75 436 141 95 295
is_linear=0
shrinkage=0.2


Tree=47
num_leaves=15
num_cat=0
split_feature=17 0 14 14 3 3 10 6 14 6 6 7 3 3
split_gain=0.334405 0.450286 0.315531 0.622416 0.357759 0.920687 0.628114 0.397566 0.39326 0.37558 0.434696 0.707915 0.661034 0.49256
threshold=2.5000000000000004 1.6612362795256319 55.500000000000007 33.000000000000007 0.019617561504373104 -0.021012623385136597 10.951327549982098 -0.21833170305225 112.50000000000001 -0.074739580399549685 -0.10378550384670719 1.0308269371402117 -0.10050240437610224 -0.10449160587082608
decision_type=2 2 2 2 2 2 2 2 2 2 2 2 2 2
left_child=2 -2 3 -1 5 9 -6 -7 -9 10 11 12 -4 -13
right_child=1 -3 4 -5 6 7 -8 8 -10 -11 -12 13 -14 -15
leaf_value=0.014410202635695519 0.20276510233645939 -0.13118848561187468 -0.026311492795798825 -0.21362040436074287 -0.030673052689953646 0.016803198327044962 0.17809795862491662 -0.22458044665620483 -0.04924415025282744 0.023743983208618029 -0.097651581688724315 -0.0044287640056220844 0.13460795838839817 -0.15292851405799021
leaf_weight=1.1507803415879596 0.6682034212135467 0.21297705639153719 1.981742864474654 0.8199554462917148 1.1089403838850551 0.71787762548774514 1.2004668456502257 1.2930436842143564 0.84674907103180874 18.83313331915997 2.4334432352334279 2.2280841395258908 2.1064492641016841 1.4915411639958618
leaf_count=22 176 6 26 31 20 10 18 30 14 248 27 26 31 19
internal_value=0 0.12205 -0.00264656 -0.0804655 0.00183223 -0.00366552 0.0778495 -0.111989 -0.155197 0.00698138 -0.0238442 -0.000840774 0.0566026 -0.063976
internal_weight=0 0.88118 36.2122 1.97074 34.2415 31.9321 2.30941 2.85767 2.13979 29.0744 10.2413 7.80782 4.08819 3.71963
internal_count=704 182 522 53 469 431 38 54 44 377 129 102 57 45
is_linear=0
shrinkage=0.2


Tree=48
num_leaves=15
num_cat=0
split_feature=2 15 7 11 11 4 4 7 15 15 11 4 7 7
split_gain=0.308298 0.328093 0.399682 0.350411 0.882753 0.686381 1.13537 1.31301 0.427565 0.635395 0.736642 0.858347 0.748074 0.538472
threshold=-706.99391376610538 0.018938588693052951 1.1410089037265922 -2.9184612795884677 -3.0355713646712572 0.16715688642623386 0.088054056085270907 1.0096052474123203 0.010662468112244852 0.012660998338081651 1.7727430555555557 -0.011958092431329699 0.93209305590993508 0.96684299179846966
decision_type=2 2 2 2 2 2 2 2 2 2 2 2 2 2
left_child=-1 3 -3 4 5 6 7 -2 13 10 11 -10 -13 -5
right_child=1 2 -4 8 -6 -7 -8 -9 9 -11 -12 12 -14 -15
leaf_value=-0.14286613055731409 -0.13660315723002889 0.014005983441104134 0.20110849420891605 0.096086451811579945 0.2053278889671166 0.13112158323310139 -0.16659667842857026 0.16987820759112449 0.15736691400070435 -0.021985990351187368 0.13666127061038938 0.07547899812028866 -0.13023278022885065 -0.092470811177994938
leaf_weight=0.59309771237894793 0.90679254382848817 1.2625036967656331 0.71550011943327252 0.70758363907225685 1.0756182186305512 1.3238054104731416 1.5797280432889236 1.4584275343222541 1.025486030615866 15.807266085932495 2.5293509567272849 1.1211042180657416 1.9148604345973579 4.2119348000269383
leaf_count=27 11 38 19 26 10 27 18 24 17 319 45 16 23 84
internal_value=0 0.00252442 0.0816863 -0.00212719 0.0402153 0.00650749 -0.0353092 0.0523775 -0.011961 -0.000234587 0.0519336 -0.000832265 -0.0542687 -0.0653503
internal_weight=0 35.64 1.978 33.662 6.34437 5.26875 3.94495 2.36522 27.3176 22.3981 6.5908 4.06145 3.03596 4.91952
internal_count=704 677 57 620 90 80 53 35 530 420 101 56 39 110
is_linear=0
shrinkage=0.2


Tree=49
num_leaves=15
num_cat=0
split_feature=13 13 4 4 0 7 15 15 0 13 5 11 7 4
split_gain=0.336562 0.620523 1.17201 1.12346 0.621473 0.59095 0.553588 1.04516 0.544563 0.757754 0.645438 0.566571 0.538065 0.506318
threshold=0.20112224584302907 0.21127094351007297 -0.099992638957510246 0.033513338319578902 1.6208224776972522 1.4323803675914173 0.011550453514739151 0.011979757180650001 1.5852727497383918 0.11419903074045111 0.24394775445434497 3.2086360570462755 0.93420517470446807 0.11804231080862207
decision_type=2 2 2 2 2 2 2 2 2 2 2 2 2 2
left_child=5 4 -3 -4 -2 6 8 12 9 10 11 -1 -8 -5
right_child=1 2 3 13 -6 -7 7 -9 -10 -11 -12 -13 -14 -15
leaf_value=0.046519859597264838 0.22890145496732442 -0.21984036606161031 0.20302583519071341 -0.091254239265615655 0.014193799495766105 0.11003900237642941 0.21717527187913849 -0.020972895638167288 -0.16957810286973685 -0.24529425135896973 0.16841753039962531 -0.19268941134555145 0.039837499311951859 0.062742541141402805
leaf_weight=0.96161484473851266 1.1483655743068077 0.81396034057252098 1.243962002918124 1.8166450684657323 1.0166344828903673 1.5486900587566186 1.1160775192547618 18.525628995994339 1.7058735196478663 0.52554154465906311 0.78724438755307335 0.6734149984549731 1.7692876141518352 1.6116325936163773
leaf_count=35 21 12 19 21 11 33 18 399 26 7 12 32 23 35
internal_value=0 0.0374123 0.00163254 0.0402158 0.12808 -0.0099909 -0.0171227 -0.00353406 -0.0796424 -0.0275975 0.0196344 -0.0520026 0.108433 -0.0188604
internal_weight=0 7.6512 5.4862 4.67224 2.165 27.6134 26.0647 21.411 4.65369 2.94782 2.42227 1.63503 2.88537 3.42828
internal_count=704 119 87 75 32 585 552 440 112 86 79 67 41 56
is_linear=0
shrinkage=0.2


Tree=50
num_leaves=15
num_cat=0
split_feature=11 11 11 1 1 5 5 1 5 5 1 1 13 1
split_gain=0.255501 0.468072 0.534063 0.323913 0.737404 1.1662 0.951029 0.793742 0.705218 0.897103 1.01238 0.874617 0.642752 0.605408
threshold=-4.471042264389733 -4.4287439142063496 -4.4105380887472094 0.93525904793201053 0.96159292400777796 0.28695318342910631 0.3040719467344507 1.042503944015708 0.23737029806815738 0.30186764463367793 0.86897207019962097 0.83284598494221307 0.060792155709909305 0.8790198684446856
decision_type=2 2 2 2 2 2 2 2 2 2 2 2 2 2
left_child=-1 -2 -3 8 -5 7 -7 -6 12 13 11 -11 -4 -10
right_child=1 2 3 4 5 6 -8 -9 9 10 -12 -13 -14 -15
leaf_value=0.08926318419498587 -0.15444884439024442 0.17531830912958946 0.025151432232527235 -0.18768848194789872 0.039961228633643341 0.1201239312019792 -0.080723585810475451 -0.13465771353710862 -0.041205325291051559 0.030613328979233762 0.18611728230325381 -0.17566634009132837 0.16784536449097212 -0.21547245608877363
leaf_weight=1.2452785033965472 0.79680731240659852 0.68587460648268361 3.9877683388476788 1.0875328467227507 1.5008029234304539 3.1444785362109542 1.346973644569516 3.400541090319166 6.0493824337900142 5.7094914100598526 1.4344174750149248 0.96048871427774418 1.8477400768315417 0.91847105925262429
leaf_count=24 9 9 139 17 32 35 18 97 123 106 19 12 45 19
internal_value=0 -0.00302962 0.000732058 -0.0030829 -0.0317793 -0.0137276 0.0598903 -0.081189 0.0113016 -0.0115538 0.0336892 0.000908699 0.0703337 -0.0641764
internal_weight=0 32.8708 32.074 31.3881 10.4803 9.3928 4.49145 4.90134 20.9078 15.0723 8.1044 6.66998 5.83551 6.96785
internal_count=704 680 671 662 199 182 53 129 463 279 137 118 184 142
is_linear=0
shrinkage=0.2


Tree=51
num_leaves=15
num_cat=0
split_feature=17 9 0 5 7 5 5 0 1 8 5 8 0 7
split_gain=0.300617 0.356435 0.289543 0.264946 0.328037 0.259939 0.249931 0.463515 0.548743 0.423113 0.74718 0.855569 0.422565 1.1574
threshold=2.5000000000000004 2.1918936631076105 1.4184507823078534 0.22753213318890453 0.93789288929305292 0.22119268703788184 0.38295951615732404 1.7423840287434322 0.84648026065336357 0.56799942517576629 0.29935771094121194 0.54207715665414469 1.6042136322587934 0.93209305590993508
decision_type=2 2 2 2 2 2 2 2 2 2 2 2 2 2
left_child=2 -2 3 -1 -5 -4 7 9 -9 10 11 -7 -11 -14
right_child=1 -3 5 4 -6 6 -8 8 -10 12 -12 -13 13 -15
leaf_value=0.047837059314863935 -0.12362651087815726 0.20212356851305657 -0.081686712273846704 0.0087443933889744547 -0.16606199702225971 -0.084724639817196301 -0.081964313853119933 0.20650747825791163 -0.0017246871371001231 0.015978522104730521 0.17936423930155987 0.12850828763758781 0.065566487213802732 -0.090753223579219902
leaf_weight=0.59768326580524389 0.17559543065726657 0.57216005328518804 1.3882582408259647 0.66022480046376575 1.2282515938859431 1.8092493521981041 1.2110003021080036 1.0179497373756015 1.0069607999175785 11.908921025227757 1.4156792489811776 1.2888561133295295 2.7584461658261699 6.0498146414756775
leaf_count=14 4 178 30 12 27 28 20 18 13 190 39 13 38 80
internal_value=0 0.125628 -0.002641 -0.0682182 -0.104948 0.00281988 0.00694105 0.0108912 0.102956 0.00350249 0.0589888 0.0039833 -0.00858667 -0.0417992
internal_weight=0 0.747755 32.3413 2.48616 1.88848 29.8551 28.4669 27.2559 2.02491 25.231 4.51378 3.09811 20.7172 8.80826
internal_count=704 182 522 53 39 469 439 419 31 388 80 41 308 118
is_linear=0
shrinkage=0.2


Tree=52
num_leaves=15
num_cat=0
split_feature=14 5 6 7 8 7 11 8 8 11 11 11 11 7
split_gain=0.192096 0.556848 0.582049 0.704202 0.493046 0.515553 0.628989 1.03792 0.594572 0.49288 0.598348 0.586829 0.489343 0.747172
threshold=91.500000000000014 0.36143615879143959 -0.097294223399723032 1.421437288203774 0.97182274078515951 1.2364449913525373 -4.4006991315187083 0.65098577473006902 0.61531429340431665 1.6684150761163334 -3.018310318778707 -2.9412424894521525 1.7781116543839761 1.2364449913525373
decision_type=2 2 2 2 2 2 2 2 2 2 2 2 2 2
left_child=12 2 9 4 5 6 -4 -8 -7 10 -2 -12 -1 -14
right_child=1 -3 3 -5 -6 8 7 -9 -10 -11 11 -13 13 -15
leaf_value=0.038264614746668868 -0.15382499047585257 -0.17887519051561895 0.18000891789957466 0.19933824699442065 -0.10562755311664546 0.049204218704193302 -0.12101276010342435 0.064028567008504497 -0.14915053378267223 -0.1525275974924386 0.26105762769707569 -0.012588663216038557 -0.090494047402354116 0.13870652567478844
leaf_weight=11.034246202572829 0.8238945766352116 0.78036966919898887 1.1554399104788888 0.78246139196562658 1.4541880134493119 1.0845458160620185 1.5882679707719933 5.1251287730992772 1.3655970350373534 1.7222815879504194 0.4136652536690234 1.2941417136898992 2.9448073969542743 0.70514676143648092
leaf_count=212 17 8 17 19 27 18 30 108 25 46 3 60 90 24
internal_value=0 -0.0137192 -0.006052 0.0156106 0.00339975 0.0187643 0.0437096 0.0202511 -0.0613496 -0.069989 -0.0138392 0.053694 0.0172663 -0.046214
internal_weight=0 17.59 16.8096 12.5556 11.7732 10.319 7.86884 6.7134 2.45014 4.25398 2.5317 1.70781 14.6842 3.64995
internal_count=704 378 370 244 225 198 155 138 43 126 80 63 326 114
is_linear=0
shrinkage=0.2


Tree=53
num_leaves=15
num_cat=0
split_feature=0 3 3 8 14 4 4 6 6 6 11 8 6 4
split_gain=0.249055 0.21945 0.565276 0.407571 0.487654 0.798397 0.56164 0.56089 0.879469 0.635235 0.525526 0.523388 0.405029 0.510057
threshold=1.7500954258849772 -0.052900898921660146 -0.062625610106230231 0.53430358269448675 101.50000000000001 0.071827520019826813 0.024878523202480803 -0.012541769605786198 -0.041434476151905299 -0.074739580399549685 -2.3773694648678516 0.95603401210028294 -0.10163433013775434 0.080613017093767558
decision_type=2 2 2 2 2 2 2 2 2 2 2 2 2 2
left_child=1 2 3 -1 7 6 10 8 9 12 -6 -12 13 -5
right_child=-2 -3 -4 4 5 -7 -8 -9 -10 -11 11 -13 -14 -15
leaf_value=0.11736782832720594 0.065278105675392911 -0.03350180971248818 0.13888304089902329 -0.097707036246018938 0.10174926925700641 -0.12774901486159693 0.11337644391350894 0.071113431000254343 -0.18229353959618366 0.11826623798682612 -0.18516776537539606 0.0085167984370513247 -0.1495818777670308 0.058853278971275874
leaf_weight=1.0817211614921785 2.1970598113257429 7.7053833490936077 1.2057587944727881 1.3055216249195036 0.7567350055323917 3.0394531976780854 1.3433340015471911 4.5835878646612302 1.107916271605063 1.6305305104469887 1.1489732972258928 1.0851547848433254 0.87510468647815276 2.2966577960178256
leaf_count=39 42 209 29 54 12 43 24 83 21 31 54 20 14 29
internal_value=0 -0.00454954 0.00584579 -0.0020739 -0.00881269 -0.0491613 0.0059501 0.016402 -0.0183518 0.0113861 -0.0423 -0.0910918 -0.0275374 0.00211183
internal_weight=0 29.1658 21.4604 20.2547 19.173 7.37365 4.3342 11.7993 7.21573 6.10781 2.99086 2.23413 4.47728 3.60218
internal_count=704 662 453 424 385 153 110 232 149 128 86 74 97 83
is_linear=0
shrinkage=0.2


Tree=54
num_leaves=15
num_cat=0
split_feature=15 9 15 1 0 14 0 0 7 9 9 9 0 0
split_gain=0.252627 0.286661 0.393243 0.195259 0.566908 0.438421 0.383526 0.348235 0.63806 0.53828 1.02575 0.64155 0.529785 0.523651
threshold=0.018938588693052951 2.2246203137240097 0.019705212550607254 0.57714214529079322 1.6957325992997418 55.500000000000007 1.6115259936559185 1.6639005489585779 0.93789288929305292 2.2238275201226489 2.2246242160835457 2.2233699978818979 1.464380301071132 1.439176215815738
decision_type=2 2 2 2 2 2 2 2 2 2 2 2 2 2
left_child=3 -2 -3 4 6 -5 -1 9 -9 11 12 -7 -11 -12
right_child=1 2 -4 5 -6 7 -8 8 -10 10 13 -13 -14 -15
leaf_value=0.058320631668377525 0.19495267648608477 0.14850305332885744 -0.068933761939893826 -0.15922251700035261 0.12373878744817507 -0.021512872711701266 -0.13274689921945296 0.031408087299990721 -0.10795967121708253 0.033179766186343426 -0.078512524206475004 -0.24288756114600557 0.22351344552862162 0.019880258560690908
leaf_weight=0.80918497056700933 0.53470202899188635 0.57286301092244662 0.79360281699337065 0.76873289037030446 1.6628788162488488 2.3978663806628968 0.87422307371161878 2.2345406478270879 3.1896592830307782 1.0195198990404635 2.6986877781164358 0.66994263976812352 1.372388116084039 10.911759901675394
leaf_count=31 24 16 28 35 29 109 25 32 36 14 80 5 21 219
internal_value=0 0.0708025 0.0222222 -0.0044863 0.0409123 -0.0104997 -0.0409041 -0.00583217 -0.0505461 0.00688598 0.0215982 -0.0698563 0.142386 0.000370878
internal_weight=0 1.90117 1.36647 28.6094 3.34629 25.2631 1.68341 24.4944 5.4242 19.0702 16.0024 3.06781 2.39191 13.6104
internal_count=704 68 44 636 85 551 56 516 68 448 334 114 35 299
is_linear=0
shrinkage=0.2


Tree=55
num_leaves=15
num_cat=0
split_feature=2 1 1 1 4 4 4 8 2 3 3 3 2 1
split_gain=0.363655 0.380127 0.481463 0.407894 0.413725 0.65695 0.471802 1.16321 0.531052 0.48784 0.463467 0.481565 0.485477 0.417696
threshold=392.280726520575 1.4964139533947922 1.1766160768826091 1.1423286680652689 -0.030852975594771747 -0.091749538373589137 0.021594282059686502 0.64326641376841531 64.860631729951834 -0.20147742215049902 -0.17402802668259651 -0.15018335629017437 -295.19480308491512 0.68327153721100919
decision_type=2 2 2 2 2 2 2 2 2 2 2 2 2 2
left_child=1 2 3 4 5 -1 7 -6 9 -8 -11 -12 -13 -14
right_child=-2 -3 -4 -5 6 -7 8 -9 -10 10 11 12 13 -15
leaf_value=-0.017045041749245187 0.083377374470796656 0.13281980032007953 -0.099450077207910381 0.13497085872510289 0.1461163263863488 0.13026955545303262 0.11320625464530659 -0.15278444453389048 -0.081759173259857917 -0.15224350184320495 0.14007209165120046 -0.10332063329592583 -0.060355683218173563 0.044105421626289172
leaf_weight=2.8802408211340662 1.96618364896858 0.77109071705490251 2.1914277942851177 0.84440074989106406 0.65783102996648013 2.0891971900127961 1.6557466932572555 2.4999957531108521 2.9859561590128569 0.77586105652154636 0.99816102487967562 1.6836056474130696 2.1144492870661855 5.5500961223733611
leaf_count=73 113 16 49 20 13 70 25 71 45 9 16 42 44 98
internal_value=0 -0.00563586 -0.00960073 -0.00164059 -0.00646894 0.0448874 -0.0199567 -0.0905181 -0.00582183 0.0119233 -0.00315462 0.00802543 -0.00607403 0.0152873
internal_weight=0 27.6981 26.927 24.7355 23.8911 4.96944 18.9217 3.15783 15.7639 12.7779 11.1222 10.3463 9.34815 7.66455
internal_count=704 591 575 526 506 143 363 84 279 234 209 200 184 142
is_linear=0
shrinkage=0.2


end of trees

feature_importances:
Column_1=67
Column_9=64
Column_2=63
Column_3=59
Column_0=58
Column_4=58
Column_5=54
Column_14=50
Column_8=47
Column_6=44
Column_7=42
Column_10=39
Column_11=35
Column_15=28
Column_17=24
Column_12=19
Column_13=18
Column_16=15

parameters:
[boosting: gbdt]
[objective: binary]
[metric: binary_logloss]
[tree_learner: serial]
[device_type: cpu]
[linear_tree: 0]
[data: ]
[valid: ]
[num_iterations: 10000]
[learning_rate: 0.2]
[num_leaves: 15]
[num_threads: 0]
[deterministic: 0]
[force_col_wise: 0]
[force_row_wise: 0]
[histogram_pool_size: -1]
[max_depth: -1]
[min_data_in_leaf: 15]
[min_sum_hessian_in_leaf: 0.001]
[bagging_fraction: 0.9]
[pos_bagging_fraction: 1]
[neg_bagging_fraction: 1]
[bagging_freq: 0]
[bagging_seed: 28073]
[feature_fraction: 0.5]
[feature_fraction_bynode: 1]
[feature_fraction_seed: 8222]
[extra_trees: 0]
[extra_seed: 8505]
[early_stopping_round: 50]
[first_metric_only: 0]
[max_delta_step: 0]
[lambda_l1: 0]
[lambda_l2: 0]
[linear_lambda: 0]
[min_gain_to_split: 0]
[drop_rate: 0.1]
[max_drop: 50]
[skip_drop: 0.5]
[xgboost_dart_mode: 0]
[uniform_drop: 0]
[drop_seed: 15689]
[top_rate: 0.2]
[other_rate: 0.1]
[min_data_per_group: 100]
[max_cat_threshold: 32]
[cat_l2: 10]
[cat_smooth: 10]
[max_cat_to_onehot: 4]
[top_k: 20]
[monotone_constraints: ]
[monotone_constraints_method: basic]
[monotone_penalty: 0]
[feature_contri: ]
[forcedsplits_filename: ]
[refit_decay_rate: 0.9]
[cegb_tradeoff: 1]
[cegb_penalty_split: 0]
[cegb_penalty_feature_lazy: ]
[cegb_penalty_feature_coupled: ]
[path_smooth: 0]
[interaction_constraints: ]
[verbosity: -1]
[saved_feature_importance_type: 0]
[max_bin: 255]
[max_bin_by_feature: ]
[min_data_in_bin: 3]
[bin_construct_sample_cnt: 200000]
[data_random_seed: 20155]
[is_enable_sparse: 1]
[enable_bundle: 1]
[use_missing: 1]
[zero_as_missing: 0]
[feature_pre_filter: 1]
[pre_partition: 0]
[two_round: 0]
[header: 0]
[label_column: ]
[weight_column: ]
[group_column: ]
[ignore_column: ]
[categorical_feature: ]
[forcedbins_filename: ]
[objective_seed: 15792]
[num_class: 1]
[is_unbalance: 0]
[scale_pos_weight: 1]
[sigmoid: 1]
[boost_from_average: 1]
[reg_sqrt: 0]
[alpha: 0.9]
[fair_c: 1]
[poisson_max_delta_step: 0.7]
[tweedie_variance_power: 1.5]
[lambdarank_truncation_level: 30]
[lambdarank_norm: 1]
[label_gain: ]
[eval_at: ]
[multi_error_top_k: 1]
[auc_mu_weights: ]
[num_machines: 1]
[local_listen_port: 12400]
[time_out: 120]
[machine_list_filename: ]
[machines: ]
[gpu_platform_id: -1]
[gpu_device_id: -1]
[gpu_use_dp: 0]
[num_gpu: 1]

end of parameters

pandas_categorical:null
