tree
version=v3
num_class=1
num_tree_per_iteration=1
label_index=0
max_feature_idx=17
objective=binary sigmoid:1
feature_names=Column_0 Column_1 Column_2 Column_3 Column_4 Column_5 Column_6 Column_7 Column_8 Column_9 Column_10 Column_11 Column_12 Column_13 Column_14 Column_15 Column_16 Column_17
feature_infos=[1.2346093662789044:1.9952932361101223] [0.077881925041574901:3.4150107712893245] [-1646.6776231156573:1786.9753826398069] [-0.47820557289860088:0.26906112161310652] [-0.79507032854722426:0.70165903149830455] [0.19011554804521:0.43092557777262308] [-0.50441210510384615:0.24097959183673459] [0.10781690525553971:2.015115901414676] [0.36143571596895141:1.4592645224811289] [2.1653626823492496:2.2963154517607771] [10.28247361013198:11.005539406286918] [-13.816170807803871:8.520269904257999] [0:13.715743132007686] [0:0.43193980318729891] [0:400] [0:0.0277777777777777] [0:8.3037524155634124] [0:5]
tree_sizes=1648 1678 1666 1665 1669 1679 1680 1678 1671 1677 1669 1678 1684 1686 1670 1659 1688

Tree=0
num_leaves=15
num_cat=0
split_feature=17 16 12 9 0 3 3 0 13 13 9 9 3 12
split_gain=174.72 63.5307 44.8605 18.7192 11.0802 12.5886 10.8945 10.4902 7.43104 7.1243 5.62736 8.9446 4.72061 6.0484
threshold=1.5000000000000002 6.5679980145478085 1.7636502775414573 2.2246332654313101 1.5488351100888129 -0.065156657337609683 -0.03754243463244044 1.6279701533684721 0.19541035107176608 0.10366409061604347 2.2246203136315259 2.2244910958042694 -0.11808125290162709 1.76083674800503
decision_type=2 2 2 2 2 2 2 2 2 2 2 2 2 2
left_child=1 -1 3 6 5 -4 10 -2 9 -6 11 -3 -5 -14
right_child=7 2 4 12 8 -7 -8 -9 -10 -11 -12 -13 13 -15
leaf_value=-0.0014760970190837441 0.72651858038355677 0.44275811477838573 0.50491516914904222 0.21718815940100342 0.56823042950176061 0.09336597685637249 0.042155104512262065 0.4594073257705259 0.63302964126899597 0.20713558530266352 0.59530603425785733 0.091038209931640246 -0.041776265170066385 0.23768752618977482
leaf_weight=29.121092900633812 46.208676338195801 9.8674777597189003 7.2201056778430939 7.460775867104533 5.0540739744901675 5.0540739744901639 4.091393217444419 6.7387652993202201 19.253615140914917 3.8507230281829834 4.5727335959672919 4.091393217444419 12.755520030856134 4.091393217444419
leaf_count=121 192 41 30 31 21 21 17 28 80 16 19 17 53 17
internal_value=0.39128 0.254352 0.339628 0.206603 0.494033 0.335454 0.337534 0.692523 0.563157 0.412081 0.402747 0.339668 0.0847463 0.0260935
internal_weight=0 116.484 87.3633 46.9307 40.4326 12.2742 22.623 52.9474 28.1584 8.9048 18.5316 13.9589 24.3077 16.8469
internal_count=704 484 363 195 168 51 94 220 117 37 77 58 101 70
is_linear=0
shrinkage=1


Tree=1
num_leaves=15
num_cat=0
split_feature=17 10 8 3 1 14 14 3 14 14 2 15 3 10
split_gain=118.916 38.162 27.5486 13.1597 10.9904 14.3972 17.4096 8.63267 8.33903 9.02114 6.44846 6.36993 5.37554 5.13897
threshold=1.5000000000000002 10.936597110498079 0.56683751770870627 -0.014471464592655697 0.8751003290069197 57.500000000000007 89.000000000000014 0.017629791941953302 55.500000000000007 101.50000000000001 -379.99744162060307 0.014662916448630652 -0.081650708411706893 10.904570255334807
decision_type=2 2 2 2 2 2 2 2 2 2 2 2 2 2
left_child=1 2 -1 8 5 -3 7 -7 -4 -10 -11 -12 -8 -2
right_child=13 4 3 -5 -6 6 12 -9 9 10 11 -13 -14 -15
leaf_value=0.23791604179338868 0.13845720094191802 -0.38645156332126507 -0.32476227087821824 -0.3272279151665336 -0.35398313344171806 -0.051748963786987338 -0.093792853322931774 0.32873586965982438 0.067744409057739985 -0.29821000211021442 -0.14049905757559816 0.15796258287587006 -0.3724224579998317 0.29744756220762192
leaf_weight=14.154989555478094 10.308134704828261 8.2088968604803103 3.7007330060005179 7.2054131627082816 20.380804285407066 5.1664187908172625 5.1515335440635699 4.4308809489011765 24.434893161058426 5.5358187109231975 8.4820260405540449 4.3156928271055213 5.9902809113264048 38.519411236047745
leaf_count=61 45 33 15 29 82 21 21 19 103 23 35 18 24 175
internal_value=0 -0.107625 -0.0102828 -0.0757375 -0.241475 -0.162263 -0.0735258 0.123913 -0.0367419 -0.0118196 -0.117862 -0.0398507 -0.243595 0.263883
internal_weight=0 117.158 67.8296 53.6746 49.3288 28.948 20.7391 9.5973 46.4692 42.7684 18.3335 12.7977 11.1418 48.8275
internal_count=704 484 284 223 200 118 85 40 194 179 76 53 45 220
is_linear=0
shrinkage=0.2


Tree=2
num_leaves=15
num_cat=0
split_feature=17 5 11 14 0 9 9 11 13 11 9 0 14 14
split_gain=84.0134 38.0749 18.1395 10.4209 8.39236 7.07627 6.24787 5.08916 5.93338 4.19039 3.18155 2.72249 3.48591 3.62114
threshold=1.5000000000000002 0.28695318342910631 1.8955671296296299 57.500000000000007 1.6279701533684721 2.2246242160837886 2.2366437281647822 1.5803079735160852 0.19506480548462304 -2.9162811305273877 2.2239671972737605 1.4398738055625266 70.500000000000014 122.50000000000001
decision_type=2 2 2 2 2 2 2 2 2 2 2 2 2 2
left_child=1 5 3 -3 -2 10 7 8 -5 -7 -1 -11 -13 -14
right_child=4 2 -4 6 -6 9 -8 -9 -10 11 -12 12 13 -15
leaf_value=-0.14272150816185214 0.27327410344434627 -0.20584423567927801 -0.22801880607979902 -0.16597970665099135 0.024932040672584772 -0.088555724892656229 0.20175367604006725 0.1425122328785626 0.14334225864739117 -0.33272952730537653 0.057231720958610267 -0.34315550357023378 -0.10525449562960326 -0.27437593591505738
leaf_weight=8.6335445046424848 37.625238373875618 4.3886800706386557 8.7495893985033018 6.7964001744985598 6.3636656999588004 6.9251312613487235 19.085042968392372 10.581461265683172 3.9061483889818192 12.90505990386009 5.0418964177370063 7.013740316033366 11.481233298778536 9.0606805086135846
leaf_count=36 192 18 36 28 28 29 87 45 18 53 21 29 47 37
internal_value=0 -0.0878095 0.0353571 0.0868438 0.237348 -0.195739 0.118663 0.0441571 -0.0530853 -0.232315 -0.0690022 -0.25692 -0.221417 -0.179851
internal_weight=0 114.569 53.5073 44.7577 43.9889 61.0613 40.3691 21.284 10.7025 47.3858 13.6754 40.4607 27.5557 20.5419
internal_count=704 484 232 196 220 252 178 91 46 195 57 166 113 84
is_linear=0
shrinkage=0.2


Tree=3
num_leaves=15
num_cat=0
split_feature=17 8 0 7 0 14 14 8 0 6 6 6 7 7
split_gain=60.8439 16.6536 16.2652 10.5893 8.00582 7.56033 5.14937 5.32518 5.1125 4.57818 3.90188 3.80079 5.97739 4.52154
threshold=1.5000000000000002 0.5318907503296465 1.7276471533899509 1.4043012380902475 1.7135014782401623 57.500000000000007 118.50000000000001 0.80289915488468255 1.557865541476114 -0.099427235841971634 0.015406520527492952 -0.074545995268932477 1.1378628564957645 1.1299260460283718
decision_type=2 2 2 2 2 2 2 2 2 2 2 2 2 2
left_child=1 8 3 5 -2 -3 11 10 -1 -5 -8 13 -13 -7
right_child=4 2 -4 9 -6 6 7 -9 -10 -11 -12 12 -14 -15
leaf_value=-0.044171760725194131 0.24355039338207454 -0.28657094661488108 0.1505062121331745 -0.09172765237021846 -0.098918583874155738 -0.090856955117881277 0.027106073578816531 -0.2848885801748241 0.24421280502270426 0.20021273780535687 -0.22581554968723397 -0.12806894674749747 0.069273549720840724 -0.30641236554287249
leaf_weight=3.5622283071279508 36.044716164469719 13.247036918997763 9.430860757827757 3.6230710297822952 2.9541586935520163 15.238118126988406 5.3227240890264529 12.705639064311979 7.9393504410982132 5.2798033058643323 4.5047275424003601 12.256607115268716 12.301307007670401 5.2279495894908896
leaf_count=16 207 58 43 15 13 65 23 54 39 24 19 52 54 22
internal_value=0 -0.0729135 -0.099343 -0.12561 0.217608 -0.148418 -0.121328 -0.19938 0.154895 0.0814061 -0.0888287 -0.0822658 -0.0292181 -0.145919
internal_weight=0 110.639 99.1378 89.707 38.9989 80.8041 67.5571 22.5331 11.5016 8.90287 9.82745 45.024 24.5579 20.4661
internal_count=704 484 429 386 220 347 289 96 55 39 42 193 106 87
is_linear=0
shrinkage=0.2


Tree=4
num_leaves=15
num_cat=0
split_feature=14 9 10 1 14 11 9 10 8 1 8 1 3 3
split_gain=16.7744 10.3337 9.50567 8.71015 10.7107 9.35708 5.66442 9.17023 5.51576 4.99546 4.10791 5.91499 3.83568 2.6785
threshold=57.500000000000007 2.2196987044337635 10.92280416098594 0.88055144837756005 137.00000000000003 -3.1682497432648846 2.2425303691186182 10.311889860011915 1.0604623718300386 0.72712580589437381 0.84965698422741132 0.98165715817960808 -0.08795298536468274 -0.10159902810612027
decision_type=2 2 2 2 2 2 2 2 2 2 2 2 2 2
left_child=-1 2 -2 4 8 13 7 10 9 -3 11 -7 -11 -5
right_child=1 3 -4 5 -6 6 -8 -9 -10 12 -12 -13 -14 -15
leaf_value=-0.19219554212867673 -0.06391968616236525 0.17703350887638669 0.23474508217733481 0.28042315110670396 -0.17690246319453939 -0.13502997378578149 0.099072037783377032 -0.21853541972934135 -0.13131557450702711 -0.037848586870072712 -0.18695737353902264 0.16066504114915067 0.12662803972529935 0.040710372689677594
leaf_weight=15.659990057349203 5.8560713380575207 21.845672503113747 15.665234073996542 3.2133954018354416 6.971851482987403 4.3723691999912244 5.0110374093055716 19.75134602189064 4.1876568645238867 11.531266286969187 4.0205926150083533 7.1001732498407364 11.160597175359724 4.4418629109859458
leaf_count=76 27 113 103 16 32 19 27 92 18 54 18 32 57 20
internal_value=0 0.0273692 0.153477 0.00117434 0.0549576 -0.0613496 -0.099893 -0.128182 0.0881333 0.108767 -0.0129948 0.0479709 0.0430464 0.141333
internal_weight=0 125.129 21.5213 103.608 55.697 47.9108 40.2555 35.2445 48.7252 44.5375 15.4931 11.4725 22.6919 7.65526
internal_count=704 628 130 498 274 224 188 161 242 224 69 51 111 36
is_linear=0
shrinkage=0.2


Tree=5
num_leaves=15
num_cat=0
split_feature=17 5 2 13 1 8 5 4 3 13 4 7 4 1
split_gain=37.8401 17.2225 13.9984 8.22207 5.14938 7.61721 4.71395 3.34907 4.6845 2.77987 6.55673 2.73217 2.26683 2.78935
threshold=1.5000000000000002 0.28695318342910631 405.11244972637968 0.19508829852262335 1.0417916377072076 0.80765355923707649 0.3310430808569656 0.050777699547832601 -0.043485346003822638 0.083974300022105069 0.040331695711046812 1.0166041377174342 0.20765063855362198 0.60516823839620615
decision_type=2 2 2 2 2 2 2 2 2 2 2 2 2 2
left_child=1 2 4 6 5 7 9 -1 -9 10 -3 -5 13 -2
right_child=12 3 -4 11 -6 -7 -8 8 -10 -11 -12 -13 -14 -15
leaf_value=0.09468295759323081 0.079128211379213109 -0.15868602219319253 0.21559591750044899 -0.0084094601514208261 -0.26755901019667022 -0.21157657124066029 -0.21806694215801278 7.2739049061798823e-05 -0.26710119122643416 0.12397325126982542 0.068202904348135182 0.18446999447784257 -0.00086968982075663896 0.23765225320722286
leaf_weight=5.8601290285587337 5.4442354291677537 9.1615918576717466 4.2419794499874106 3.7643479555845287 13.652804434299467 18.941353186964989 4.5693389624357215 7.7426413297653207 3.9715254157781574 5.8215400278568259 11.477081969380377 13.375825986266134 2.2264826223254195 24.067595317959785
leaf_count=27 35 41 19 20 64 91 20 33 18 26 51 74 14 171
internal_value=0 -0.0561636 -0.13327 0.0309329 -0.162769 -0.123589 -0.0304791 -0.0287569 -0.0905089 0.00191491 -0.032514 0.14211 0.193727 0.208408
internal_weight=0 102.58 54.4104 48.1697 50.1685 36.5156 31.0296 17.5743 11.7142 26.4602 20.6387 17.1402 31.7383 29.5118
internal_count=704 484 252 232 233 169 138 78 51 118 92 94 220 206
is_linear=0
shrinkage=0.2


Tree=6
num_leaves=15
num_cat=0
split_feature=2 15 16 9 8 16 4 4 2 15 4 4 8 2
split_gain=11.0097 7.15694 7.71186 7.04701 4.89555 4.31134 4.06604 5.30077 4.3713 4.05795 4.35035 8.82894 5.89496 3.48167
threshold=392.280726520575 0.014662916448630652 6.5679980145478085 2.2196987044337635 0.53430358269448675 7.5400788855512735 0.023738168442916204 -0.023695066214470244 -578.86233651088344 0.013279394098909351 -0.099847617271508191 -0.030852975594771747 0.85169844236828829 42.087525575430327
decision_type=2 2 2 2 2 2 2 2 2 2 2 2 2 2
left_child=1 2 -1 -3 -4 9 7 8 -5 10 -6 -12 13 -13
right_child=-2 3 4 6 5 -7 -8 -9 -10 -11 11 12 -14 -15
leaf_value=-0.18545163725941563 0.16095936052269677 0.24410138536859802 0.16112006192758443 -0.19649698780558372 -0.1922442945690068 0.16100737760538175 0.062746188164460356 -0.26811284538388913 0.084442485091122899 -0.18996516481640788 0.26811075884718266 0.062134433161178164 -0.20835838910248944 -0.15116786724393302
leaf_weight=15.303827747702597 15.440460622310637 6.01782202720642 5.1607142686843863 3.1345527768135062 5.6678919047117153 3.7531040310859671 23.557157561182976 3.9887855648994437 7.5546781420707694 8.0934416651725751 4.1782844215631441 13.522284835577031 6.5707068294286719 3.9565797895193091
leaf_count=84 108 48 33 17 27 21 120 20 41 37 21 75 34 18
internal_value=0 -0.0193421 -0.060963 0.0429268 -0.0235359 -0.044369 0.011264 -0.0713611 0.00205867 -0.0627261 -0.0323447 -0.000238315 -0.0468603 0.0138505
internal_weight=0 110.46 66.2068 44.253 50.903 45.7423 38.2352 14.678 10.6892 41.9892 33.8957 28.2279 24.0496 17.4789
internal_count=704 596 350 246 266 233 198 78 58 212 175 148 127 93
is_linear=0
shrinkage=0.2


Tree=7
num_leaves=15
num_cat=0
split_feature=17 10 8 10 10 1 15 1 8 16 8 11 16 6
split_gain=24.3074 7.61319 6.18845 4.73612 5.0041 4.41033 3.40216 5.25674 4.53839 4.33515 3.64611 3.06621 3.79373 2.99627
threshold=1.5000000000000002 10.936597110498079 0.56683751770870627 10.904570255334807 10.311705070349133 0.8751003290069197 0.011688640276012652 0.72712580589437381 0.90395018665374927 6.5929685291165763 1.0930595736596767 1.7761248110355254 6.5929685291165763 0.0074641727381863513
decision_type=2 2 2 2 2 2 2 2 2 2 2 2 2 2
left_child=1 2 -1 4 -2 11 9 10 13 -4 -8 12 -3 -9
right_child=3 5 6 -5 -6 -7 7 8 -10 -11 -12 -13 -14 -15
leaf_value=0.14727381198495534 0.17471976511122705 -0.091735861956096967 0.013877954657950312 0.2289589216488771 -0.15259528230897765 -0.20019483288831619 0.20788757183587997 0.048299196628773577 -0.22635751683623162 -0.24425908864466161 -0.046516552456109028 -0.13715722639776973 0.13533062913463387 -0.10317314408908365
leaf_weight=9.6396564096212369 4.6256024166941669 6.5432987362146395 4.7082819640636426 18.306226395070553 3.1343218386173248 14.713636472821234 6.7429132461547834 13.877200588583952 4.6298840194940558 5.8180623799562454 3.3844689130783081 10.70221661031246 5.3493846207857132 8.3768871128559095
leaf_count=61 28 32 25 175 17 82 31 63 23 26 16 58 28 39
internal_value=0 -0.0447008 0.00115795 0.173454 0.0425135 -0.114982 -0.0284713 6.24901e-05 -0.0461993 -0.128798 0.122868 -0.0594916 0.0103997 -0.00871805
internal_weight=0 94.4859 57.1774 26.0662 7.75992 37.3085 47.5377 37.0114 26.884 10.5263 10.1274 22.5949 11.8927 22.2541
internal_count=704 484 284 220 45 200 223 172 125 51 47 118 60 102
is_linear=0
shrinkage=0.2


Tree=8
num_leaves=15
num_cat=0
split_feature=14 2 1 3 2 14 6 1 12 3 8 8 11 6
split_gain=7.52032 7.24747 3.97481 4.58539 3.51544 3.08414 3.31757 2.84894 3.58369 2.15003 2.83391 4.90838 3.05277 2.14516
threshold=57.500000000000007 405.11244972637968 0.88055144837756005 -0.031087527971184397 -646.16906068971628 74.500000000000014 -0.27300882387089281 0.50040837358209689 1.76083674800503 -0.12873820197287422 0.98856085662938542 0.78163171721304814 3.2086360570462755 0.0052525370019061513
decision_type=2 2 2 2 2 2 2 2 2 2 2 2 2 2
left_child=-1 2 4 5 -2 -4 -7 8 -6 -9 11 13 -13 -11
right_child=1 -3 3 -5 7 6 -8 9 -10 10 -12 12 -14 -15
leaf_value=-0.14365480477413581 -0.1870950350720566 0.17402472789604884 -0.19146120922445806 -0.1666568151128355 -0.24371988415503051 -0.25324530820054031 0.033415378464064692 0.13963772229813909 0.06333988416920687 0.033217353551375541 -0.12742741504240399 0.21378052802569789 -0.037499321968413865 -0.14028529173021242
leaf_weight=12.526554852724074 2.6049851253628722 10.982042878866194 3.2441434264183071 9.4981810301542264 2.779418133199214 1.72582243382931 25.123762108385563 12.494782306253901 3.3562156111001968 10.15443838387729 3.533363312482833 9.0910393297672254 2.4564892351627341 3.9627801924943915
leaf_count=76 16 96 16 62 14 9 146 66 18 57 19 69 17 23
internal_value=0 0.0206381 0.0019267 -0.0455043 0.0391615 -0.0072661 0.0149896 0.0514846 -0.075757 0.0702098 0.0404994 0.0636186 0.160326 -0.0154858
internal_weight=0 101.007 90.0254 39.5919 50.4335 30.0937 26.8496 47.8285 6.13563 41.6929 29.1981 25.6647 11.5475 14.1172
internal_count=704 628 532 233 299 171 155 283 32 251 185 166 86 80
is_linear=0
shrinkage=0.2


Tree=9
num_leaves=15
num_cat=0
split_feature=17 0 5 14 4 0 0 6 0 10 4 0 5 16
split_gain=16.6885 7.67807 7.45568 3.6773 2.44118 2.92294 2.75737 3.77234 3.82291 3.1796 5.26286 2.31654 2.50154 3.31025
threshold=1.5000000000000002 1.6279701533684721 0.28695318342910631 64.000000000000014 0.11253425691012837 1.6447088549143285 1.736268149262657 0.047233312476537802 1.5727361209454627 10.311886220190052 -0.00094888478460384987 1.3992875780591623 0.21639104334470333 1.0000000180025095e-35
decision_type=2 2 2 2 2 2 2 2 2 2 2 2 2 2
left_child=2 -2 3 -1 6 -6 7 9 -9 -4 -11 -5 -13 -14
right_child=1 -3 4 11 5 -7 -8 8 -10 10 -12 12 13 -15
leaf_value=-0.23352217722399718 0.22545014296829075 -0.055474393848896165 -0.18827437410979142 -0.22307514334044867 0.20131308942263365 0.018868847583199878 0.14505567087755958 0.25015468615143238 -0.027852381516093452 0.13655761795132323 -0.20397850684161067 -0.28621161158327102 -0.13288889972742232 0.0014791587091835692
leaf_weight=6.4006746485829344 16.575927767902616 5.0856293439865103 7.63097688555718 3.5850842967629424 5.7056643813848487 9.1381489634513837 3.8734980672597876 3.00898429751396 5.777396596968174 4.3743004947900781 3.1031250581145278 1.7675741910934437 10.852006226778029 22.621287226676941
leaf_count=45 192 28 38 22 36 52 20 16 27 26 17 10 63 112
internal_value=0 0.159496 -0.0365057 -0.0930645 0.0235233 0.0889968 -0.0114762 -0.036851 0.0673539 -0.097452 -0.00476458 -0.0699093 -0.0543276 -0.0420828
internal_weight=0 21.6616 87.8387 45.2266 42.6121 14.8438 27.7683 23.8948 8.78638 15.1084 7.47743 38.826 35.2409 33.4733
internal_count=704 220 484 252 232 88 144 124 43 81 43 207 185 175
is_linear=0
shrinkage=0.2


Tree=10
num_leaves=15
num_cat=0
split_feature=3 2 12 9 9 0 3 3 1 4 9 3 9 14
split_gain=4.4948 3.72827 2.99702 2.94911 6.63967 5.57995 4.85092 4.32726 3.63027 3.4282 3.21951 2.79867 2.73632 3.66799
threshold=-0.052965702461440445 337.13731449343226 5.0742973915745333 2.2246481018213236 2.2381527324953887 1.4193416732680588 -0.10213933766224169 -0.12395209423292185 0.93323078169159879 -0.099847617271508191 2.2245535875248121 -0.17310779435556992 2.2443732909104033 57.500000000000007
decision_type=2 2 2 2 2 2 2 2 2 2 2 2 2 2
left_child=1 2 3 5 11 -1 7 8 10 -6 -7 -5 13 -2
right_child=12 -3 -4 4 9 6 -8 -9 -10 -11 -12 -13 -14 -15
leaf_value=-0.29350082676287748 -0.23208220895683496 0.1560875074046181 0.18236293074711396 0.045822221890243847 -0.10759558790792068 0.050071345442124139 0.20772253643344604 -0.20516848151393297 -0.091820613019489974 0.10606729388017994 0.287676610373029 -0.17774504798769999 0.12189118088937428 -0.045293315762468221
leaf_weight=1.768772274255755 5.0462907031178501 8.3899889476597291 3.9586118832230559 2.7500118836760512 4.0570651590824101 7.3742172271013313 7.6066497378051237 2.9296896234154728 4.4281663596630088 11.570062462240458 3.3026787638664246 12.070316441357138 3.0646426081657401 25.229818865656853
leaf_count=9 36 92 28 13 23 38 56 15 23 78 18 75 26 174
internal_value=0 0.0309849 0.0140054 0.00248637 -0.0403562 0.0500763 0.0737766 0.0172813 0.0604263 0.0505968 0.12357 -0.136261 -0.0581974 -0.0764265
internal_weight=0 70.2062 61.8162 57.8576 30.4475 27.4102 25.6414 18.0348 15.1051 15.6271 10.6769 14.8203 33.3408 30.2761
internal_count=704 468 376 348 189 159 150 94 79 101 56 88 236 210
is_linear=0
shrinkage=0.2


Tree=11
num_leaves=15
num_cat=0
split_feature=7 2 9 7 7 3 7 2 12 16 7 12 5 16
split_gain=3.47577 3.60005 3.31981 2.48937 2.68039 2.29729 1.76452 2.36001 2.29252 2.89096 2.13604 2.07342 1.73277 1.63631
threshold=1.4686726752129653 -332.93408402379481 2.2246332561974156 0.75336013902717247 1.2647650663418217 -0.035782365114621892 1.2522082284064329 516.09096867998903 1.0000000180025095e-35 6.7934152291061496 1.3657078703894758 1.7630606400449127 0.22997226981865077 7.5304683387428115
decision_type=2 2 2 2 2 2 2 2 2 2 2 2 2 2
left_child=1 5 3 -3 13 12 7 8 -4 -10 -8 -11 -1 -5
right_child=-2 2 6 4 -6 -7 10 -9 9 11 -12 -13 -14 -15
leaf_value=0.11220176005179659 0.13894882962684921 -0.17050564361728304 -0.12559107958454002 0.086551224405332056 -0.083968603400551733 -0.19064002135501468 0.12662836738831157 0.12808592894830328 -0.0639231264703541 -0.056598997094135989 -0.056893294017181753 0.18509239467918392 -0.075026126261476034 0.24675596301951061
leaf_weight=2.4444042891263988 6.9091524183750144 1.6552849933505083 12.220199212431906 19.288829166442163 3.3582929149270049 5.839506719261407 6.2159718088805658 3.0194082818925372 15.165595784783365 2.2134951949119559 4.2860760726034641 3.9595459625124931 10.345775924623011 2.9387388639152041
leaf_count=19 48 9 83 164 22 45 46 21 91 14 26 33 61 22
internal_value=0 -0.00808329 0.0116229 0.0671923 0.0825703 -0.0866993 -0.0205302 -0.0412769 -0.0565151 -0.0169567 0.0517299 0.098428 -0.0392439 0.107732
internal_weight=0 92.9511 74.3214 27.2411 25.5859 18.6297 47.0803 36.5782 33.5588 21.3386 10.502 6.17304 12.7902 22.2276
internal_count=704 656 531 217 208 125 314 242 221 138 72 47 80 186
is_linear=0
shrinkage=0.2


Tree=12
num_leaves=15
num_cat=0
split_feature=14 10 10 3 3 9 8 10 7 10 10 10 6 6
split_gain=3.10701 3.02559 2.71815 3.40657 3.49373 3.15545 2.68801 2.94998 3.94012 2.22748 3.42869 2.95151 4.1068 4.13125
threshold=57.500000000000007 10.958392058005588 10.94492146959349 0.017629791941953302 -0.070450002437716278 2.2381511264123581 0.53430358269448675 10.92280416098594 0.83023730037682475 10.311411949436458 10.311515468568535 10.311705070349133 -0.058766767957534896 0.080272140486772212
decision_type=2 2 2 2 2 2 2 2 2 2 2 2 2 2
left_child=-1 2 6 4 5 -4 -2 9 -9 -8 -11 -12 -13 -14
right_child=1 -3 3 -5 -6 -7 7 8 -10 10 11 12 13 -15
leaf_value=-0.10427536972436209 0.16653456499447294 0.21306782179976103 -0.13183537485892541 0.11801337815387425 -0.18694301872914626 0.12491476606786561 0.14212930541626875 -0.16523456098246808 0.12007064042809767 -0.22525233111571713 0.058271180523696592 -0.20564842205866421 0.06045658158160986 -0.17340817902533537
leaf_weight=9.903079539537428 5.0711895637214175 2.9488902725279322 3.7306333258748099 3.5852585658431044 8.3729960545897484 3.9335227087140083 3.3710351511836043 2.2172793373465565 15.273631412535904 3.2121602818369857 14.920757479965685 5.5467497371137098 10.898683227598672 4.1803358383476725
leaf_count=76 44 38 28 27 58 20 17 17 163 15 86 30 64 21
internal_value=0 0.0139358 0.0069712 -0.0582313 -0.0976325 -6.18951e-05 0.0267485 0.0148587 0.0839032 -0.0138064 -0.0273689 -0.00948721 -0.0585039 -0.00437743
internal_weight=0 87.2631 84.3142 19.6224 16.0372 7.66416 64.6918 59.6206 17.4909 42.1297 38.7587 35.5465 20.6258 15.079
internal_count=704 628 590 133 106 48 457 413 180 233 216 201 115 85
is_linear=0
shrinkage=0.2


Tree=13
num_leaves=15
num_cat=0
split_feature=15 2 14 15 14 3 10 10 3 16 14 16 12 7
split_gain=3.18179 2.72187 3.61451 2.52121 2.42936 2.26037 2.19746 1.79927 1.81827 2.79017 1.74429 1.92935 2.47073 1.61341
threshold=0.014710653998441452 -135.21600591274918 55.500000000000007 0.009653615233972351 57.500000000000007 -0.015678931458365297 10.311890333844934 10.948022677141337 -0.12998021822891606 6.8521973113595775 58.500000000000007 7.0102788767364119 5.0722884913004975 0.87715949211908406
decision_type=2 2 2 2 2 2 2 2 2 2 2 2 2 2
left_child=1 10 -3 -4 -2 6 -5 8 -8 -10 -1 12 -12 -6
right_child=4 2 3 5 13 -7 7 -9 9 -11 11 -13 -14 -15
leaf_value=0.068298355479758294 -0.10534211798135192 -0.20445508452537453 -0.14731620855776881 -0.00071750988712509806 -0.017930494341409805 -0.08202755026002069 -0.012912173188620688 0.0052376703538172453 0.28554028145768079 0.037848780055939259 -0.19776330451023305 -0.018363364007373189 0.0093186071322823045 0.089480446658358054
leaf_weight=2.7228462919592884 3.7011839896440497 2.9538682028651229 3.0174434743821612 10.360215097665789 7.1855886019766322 4.7169651128351715 1.8754470869898785 3.9050757065415374 5.6041761711239797 2.6934706754982471 9.7448557615280169 7.0386192463338366 3.0184875316917887 25.2513178139925
leaf_count=20 28 28 24 61 48 33 13 25 47 19 65 52 21 220
internal_value=0 -0.027523 0.00727634 0.026716 0.0481699 0.0447275 0.0691931 0.120641 0.16494 0.205138 -0.0817913 -0.102429 -0.148789 0.0656862
internal_weight=0 57.6515 35.1267 32.1728 36.1381 29.1553 24.4384 14.0782 10.1731 8.29765 22.5248 19.802 12.7633 32.4369
internal_count=704 408 250 222 296 198 165 104 79 66 158 138 86 268
is_linear=0
shrinkage=0.2


Tree=14
num_leaves=15
num_cat=0
split_feature=17 0 0 14 1 13 14 0 1 15 0 1 14 7
split_gain=9.92206 4.94048 3.18024 4.34496 2.94466 3.56972 3.5612 2.12169 2.11053 3.72296 2.10214 2.09071 1.96823 1.74729
threshold=2.5000000000000004 1.6595939407467835 1.6878947172735181 62.500000000000007 0.72712580589437381 0.20115721348091462 123.50000000000001 1.5126772271425823 0.57389007899268552 0.016290410840262004 1.6447088549143285 0.60516823839620615 93.500000000000014 0.93789288929305292
decision_type=2 2 2 2 2 2 2 2 2 2 2 2 2 2
left_child=2 -2 3 -1 6 10 7 -5 -4 13 -6 -9 -7 -10
right_child=1 -3 8 4 5 12 -8 11 9 -11 -12 -13 -14 -15
leaf_value=-0.19512482277798926 0.22026510556808435 -0.28115440081006715 0.15395094720179123 0.26612530587191263 -0.069665612346732145 -0.01801492776274986 -0.11256784537087534 -0.079395504585191637 0.0091825873806710787 0.1752485830318159 -0.24801164554385602 0.14265427019944579 0.15170087581903108 -0.18566986950601211
leaf_weight=6.7293861471116534 10.005438998341557 0.8530183359980591 5.6832031682133701 2.7709010243415815 28.424623005092148 7.6926021650433523 3.6892677769064894 2.692676767706871 4.2342928200960142 3.4624853208661079 2.914671763777732 4.5827597752213478 4.2397999353706837 3.2566206827759743
leaf_count=62 178 5 38 13 182 45 26 17 22 21 14 33 30 18
internal_value=0 0.180875 -0.0228127 -0.0431382 -0.025197 -0.0508067 0.0554819 0.117194 0.0550567 0.00374505 -0.0862525 0.0604725 0.0422882 -0.0755281
internal_weight=0 10.8585 80.3733 63.7367 57.0073 43.2717 13.7356 10.0463 16.6366 10.9534 31.3393 7.27544 11.9324 7.49091
internal_count=704 183 521 422 360 271 89 63 99 61 196 50 75 40
is_linear=0
shrinkage=0.2


Tree=15
num_leaves=15
num_cat=0
split_feature=17 9 5 11 9 4 8 8 9 10 7 9 9 12
split_gain=7.73945 3.25535 3.5745 3.47431 3.16673 2.04119 1.95611 3.95263 2.82058 2.04705 1.80421 1.69035 2.23213 1.51754
threshold=2.5000000000000004 2.2484815741034843 0.28695318342910631 1.8840393518518523 2.2035815470842444 0.24215810994938683 0.75159589717796838 0.72104463043582212 2.2246202973609228 10.311886220190052 1.4043012380902475 2.2272361382288799 2.2409776697348223 5.0723110314525401
decision_type=2 2 2 2 2 2 2 2 2 2 2 2 2 2
left_child=1 2 5 6 -2 10 7 9 -8 -4 -1 -10 -13 -11
right_child=4 -3 3 -5 -6 -7 8 -9 11 13 -12 12 -14 -15
leaf_value=-0.08495170103553086 -0.1658051521723084 -0.26093195108465811 -0.058641890251908149 -0.097078716288026987 0.2156647861244273 0.11497562020866547 0.008732351475384462 -0.22758764184833891 0.28353720055004106 0.059663734663140469 0.056861051802487794 -0.017813442537247644 0.26155591834971825 0.24477674993871062
leaf_weight=30.907055400311947 0.97363857924938102 2.1600144580006591 4.5619912743568483 6.9306986331939688 8.2142070569097978 2.6066192388534537 6.0934675335884085 2.3541510403156272 3.9165352582931501 7.4692912399768812 4.0599236860871306 2.599433496594429 2.043174110352993 2.322179302573204
leaf_count=225 5 15 27 43 178 16 33 12 23 52 21 16 16 22
internal_value=0 -0.0188267 -0.0119335 0.0310709 0.17524 -0.0557588 0.0593923 0.0126147 0.11273 0.052011 -0.0684862 0.186769 0.105135 0.103566
internal_weight=0 78.0245 75.8645 38.2909 9.18785 37.5736 31.3602 16.7076 14.6526 14.3535 34.967 8.55914 4.64261 9.79147
internal_count=704 521 506 244 183 262 201 113 88 101 246 55 32 74
is_linear=0
shrinkage=0.2


Tree=16
num_leaves=15
num_cat=0
split_feature=5 3 5 10 3 1 6 5 3 6 14 10 12 16
split_gain=2.15481 1.73193 2.42354 2.09738 1.98623 1.79672 2.94951 3.28348 2.55777 2.48473 2.39254 1.68688 1.60009 1.55433
threshold=0.21639104334470333 -0.021012623385136597 0.36727593343123865 10.952974709117326 0.023374232046382452 0.72712580589437381 0.048743687827755462 0.23598901869933767 -0.095239146333751981 -0.10210620416155414 112.50000000000001 10.942732969781064 5.0722935198745409 6.8521973113595775
decision_type=2 2 2 2 2 2 2 2 2 2 2 2 2 2
left_child=-1 2 5 -3 -5 6 7 -2 13 -9 -11 12 -10 -7
right_child=1 3 -4 4 -6 8 -8 9 11 10 -12 -13 -14 -15
leaf_value=-0.18910587819570687 0.19222235792021988 -0.088209332893883025 -0.18349735060026953 -0.11174383832854984 0.18325445591336376 0.01745233254547577 0.23810352334473645 -0.15345387092924964 0.16536385184830543 0.11635014753401739 -0.14928461946459834 -0.047004317780018734 -0.00043994762688660555 -0.075403815216877071
leaf_weight=2.2977223545312873 4.1632632147520807 13.040228152647616 2.2098022438585749 1.4212227147072547 2.5528310406953096 15.037660431116818 3.8208870496600857 3.5672397557646036 7.5829934496432561 5.4600958935916406 1.8045187406241892 3.3900626450777045 3.3596905898302794 13.853961933404205
leaf_count=27 61 110 14 16 27 131 32 25 74 50 14 30 20 73
internal_value=0 0.00729345 0.0223184 -0.0494446 0.0777556 0.0296493 0.0812355 0.0412642 0.00719335 -0.0167571 0.0503669 0.0762678 0.114458 -0.0270736
internal_weight=0 81.2645 64.2502 17.0143 3.97405 62.0404 18.816 14.9951 43.2244 10.8319 7.26461 14.3327 10.9427 28.8916
internal_count=704 677 524 153 43 510 182 150 328 89 64 124 94 204
is_linear=0
shrinkage=0.2


end of trees

feature_importances:
Column_3=23
Column_14=23
Column_9=20
Column_10=19
Column_0=17
Column_8=16
Column_1=15
Column_7=13
Column_2=11
Column_4=11
Column_6=11
Column_16=11
Column_5=10
Column_12=9
Column_17=9
Column_11=7
Column_15=7
Column_13=6

parameters:
[boosting: gbdt]
[objective: binary]
[metric: binary_logloss]
[tree_learner: serial]
[device_type: cpu]
[linear_tree: 0]
[data: ]
[valid: ]
[num_iterations: 10000]
[learning_rate: 0.2]
[num_leaves: 15]
[num_threads: 0]
[deterministic: 0]
[force_col_wise: 0]
[force_row_wise: 0]
[histogram_pool_size: -1]
[max_depth: -1]
[min_data_in_leaf: 15]
[min_sum_hessian_in_leaf: 0.001]
[bagging_fraction: 0.9]
[pos_bagging_fraction: 1]
[neg_bagging_fraction: 1]
[bagging_freq: 0]
[bagging_seed: 28073]
[feature_fraction: 0.5]
[feature_fraction_bynode: 1]
[feature_fraction_seed: 8222]
[extra_trees: 0]
[extra_seed: 8505]
[early_stopping_round: 50]
[first_metric_only: 0]
[max_delta_step: 0]
[lambda_l1: 0]
[lambda_l2: 0]
[linear_lambda: 0]
[min_gain_to_split: 0]
[drop_rate: 0.1]
[max_drop: 50]
[skip_drop: 0.5]
[xgboost_dart_mode: 0]
[uniform_drop: 0]
[drop_seed: 15689]
[top_rate: 0.2]
[other_rate: 0.1]
[min_data_per_group: 100]
[max_cat_threshold: 32]
[cat_l2: 10]
[cat_smooth: 10]
[max_cat_to_onehot: 4]
[top_k: 20]
[monotone_constraints: ]
[monotone_constraints_method: basic]
[monotone_penalty: 0]
[feature_contri: ]
[forcedsplits_filename: ]
[refit_decay_rate: 0.9]
[cegb_tradeoff: 1]
[cegb_penalty_split: 0]
[cegb_penalty_feature_lazy: ]
[cegb_penalty_feature_coupled: ]
[path_smooth: 0]
[interaction_constraints: ]
[verbosity: -1]
[saved_feature_importance_type: 0]
[max_bin: 255]
[max_bin_by_feature: ]
[min_data_in_bin: 3]
[bin_construct_sample_cnt: 200000]
[data_random_seed: 20155]
[is_enable_sparse: 1]
[enable_bundle: 1]
[use_missing: 1]
[zero_as_missing: 0]
[feature_pre_filter: 1]
[pre_partition: 0]
[two_round: 0]
[header: 0]
[label_column: ]
[weight_column: ]
[group_column: ]
[ignore_column: ]
[categorical_feature: ]
[forcedbins_filename: ]
[objective_seed: 15792]
[num_class: 1]
[is_unbalance: 0]
[scale_pos_weight: 1]
[sigmoid: 1]
[boost_from_average: 1]
[reg_sqrt: 0]
[alpha: 0.9]
[fair_c: 1]
[poisson_max_delta_step: 0.7]
[tweedie_variance_power: 1.5]
[lambdarank_truncation_level: 30]
[lambdarank_norm: 1]
[label_gain: ]
[eval_at: ]
[multi_error_top_k: 1]
[auc_mu_weights: ]
[num_machines: 1]
[local_listen_port: 12400]
[time_out: 120]
[machine_list_filename: ]
[machines: ]
[gpu_platform_id: -1]
[gpu_device_id: -1]
[gpu_use_dp: 0]
[num_gpu: 1]

end of parameters

pandas_categorical:null
