tree
version=v4
num_class=1
num_tree_per_iteration=1
label_index=0
max_feature_idx=14
objective=binary sigmoid:1
feature_names=Column_0 Column_1 Column_2 Column_3 Column_4 Column_5 Column_6 Column_7 Column_8 Column_9 Column_10 Column_11 Column_12 Column_13 Column_14
feature_infos=[1.0256094705288057:2.008109901613675] [0.077881925041574901:3.4150107712893245] [-0.12962858908804861:0.36248641522207758] [0.19011554804521:0.43092557777262308] [-0.33806488143988589:1.2521308648311122] [0.36143571596895141:1.6285321476764898] [0:0.82887878664190429] [0:36.306637117454748] [0:0.51900878828285135] [0:0.43193980318729891] [0:350] [0:400] [0:0.040000000000000001] [0:2] [0:5]
tree_sizes=1149 1159 1365 1368 1261 1264 1370 1271 1263 1271 1165 1271 1374 1478 1374 1172 1377 1163 1380 1273 1269 1272 1272 1383 1378 1276 1267 1483 1483 1382 1270 1285 1480 1599 1283 1265 1389 1383 1175

Tree=0
num_leaves=10
num_cat=0
split_feature=13 4 3 9 2 7 2 9 1
split_gain=91.2869 38.5938 66.5595 32.6965 22.7241 9.57624 5.87094 2.8838 0.461318
threshold=1.0000000180025095e-35 0.18153742578678758 0.26061039817886605 0.19524701561059077 0.23051432694289839 5.8211336379174785 0.21356643569857189 0.062900712762692421 0.7154911076164957
decision_type=2 2 2 2 2 2 2 2 2
left_child=1 2 4 5 7 6 -4 -1 -2
right_child=8 -3 3 -5 -6 -7 -8 -9 -10
leaf_value=0.20195340559992778 0.56696671941482402 0.53313341011495696 0.31706503862800012 0.53419940140062994 0.37979606175041208 0.45730667604952491 0.40026595707177925 0.26141323777937786 0.59207645767570116
leaf_weight=14.098115891218184 11.947555840015413 16.965529292821884 16.726578176021576 22.461404979228973 16.487627059221268 14.098115891218184 17.204480409622192 19.355040460824966 18.87713822722435
leaf_count=59 50 71 70 94 69 59 72 81 79
internal_value=0.426818 0.391926 0.372034 0.434609 0.283711 0.388034 0.359251 0.236355 0.582344
internal_weight=0 137.397 120.431 70.4906 49.9408 48.0292 33.9311 33.4532 30.8247
internal_count=704 575 504 295 209 201 142 140 129
is_linear=0
shrinkage=1


Tree=1
num_leaves=10
num_cat=0
split_feature=13 10 4 6 5 8 4 7 11
split_gain=76.3882 35.0777 45.0186 41.3269 22.6096 19.7735 14.19 8.71086 0.470716
threshold=1.0000000180025095e-35 65.500000000000014 0.14337208559335571 0.030356391274719705 0.56484890472332128 0.10623695295204806 -0.065965436238056882 5.54007610465663 112.50000000000001
decision_type=2 2 2 2 2 2 2 2 2
left_child=1 -1 3 5 -5 -3 -6 -8 -2
right_child=8 2 -4 4 6 -7 7 -9 -10
leaf_value=-0.15618508887312552 0.1559333316627301 -0.036067415715916151 0.14707912036270163 0.12562728424076794 -0.082238410249605265 -0.18789767249765776 -0.041419137752404481 0.063685666006097694 0.1301657785944855
leaf_weight=19.294962808489799 17.941536724567417 14.977064266800879 15.674610838294027 13.666350170969961 21.163739010691643 20.074900984764099 12.94701002538204 20.169020295143127 11.720854982733725
leaf_count=80 78 62 67 58 88 82 54 84 51
internal_value=0 -0.0311361 -0.0108044 -0.0348317 0.0106646 -0.123023 -0.0182803 0.022594 0.145751
internal_weight=0 137.968 118.673 102.998 67.9461 35.052 54.2798 33.116 29.6624
internal_count=704 575 495 428 284 144 226 138 129
is_linear=0
shrinkage=0.1


Tree=2
num_leaves=12
num_cat=0
split_feature=14 3 9 6 4 10 5 0 0 13 1
split_gain=131.946 48.599 20.8214 17.7646 12.697 6.62927 6.03641 4.05768 2.49556 0.0773013 0.000141172
threshold=1.5000000000000002 0.29863455676611733 0.19610342044822313 0.030356391274719705 -0.065162756949949344 75.500000000000014 0.75387677488690052 1.3780137009072277 1.4025828357771983 1.5000000000000002 0.82450547054497847
decision_type=2 2 2 2 2 2 2 2 2 2 2
left_child=1 3 5 7 -5 -3 -6 -1 9 -2 -11
right_child=8 2 -4 4 6 -7 -8 -9 -10 10 -12
leaf_value=-0.1343044205982494 0.1574463534679835 -0.089069010505660934 0.10116015140488821 -0.14296882445448747 0.032170886531405755 0.011102391957316406 -0.067569864652035946 -0.20550952846144541 0.098901834999126914 0.1483326335723385 0.14782762508307676
leaf_weight=22.488795131444931 14.650610506534575 12.157897457480432 19.604236260056496 12.226859182119368 12.061386466026308 14.469144299626349 12.210844710469244 12.424555122852324 11.76500181853771 11.20247331261635 10.942232012748716
leaf_count=91 64 50 85 50 51 60 51 50 51 51 50
internal_value=0 -0.0569339 0.0229481 -0.108648 -0.0598678 -0.0346358 -0.0180066 -0.159644 0.138993 0.151811 0.148083
internal_weight=0 117.644 46.2313 71.4124 36.4991 26.627 24.2722 34.9134 48.5603 36.7953 22.1447
internal_count=704 488 195 293 152 110 102 141 216 165 101
is_linear=0
shrinkage=0.1


Tree=3
num_leaves=12
num_cat=0
split_feature=14 9 2 0 4 1 5 5 0 13 1
split_gain=110.924 31.7251 16.2215 15.6759 7.86746 7.57336 7.06789 2.90238 2.40295 0.0500723 8.98478e-05
threshold=1.5000000000000002 0.19524701561059077 0.21356643569857189 1.4272602638909049 0.030899096938832051 0.87728969887307884 0.85517375383890737 0.79261009215998157 1.4025828357771983 1.5000000000000002 0.82450547054497847
decision_type=2 2 2 2 2 2 2 2 2 2 2
left_child=1 2 4 -3 7 6 -4 -1 9 -2 -11
right_child=8 3 5 -5 -6 -7 -8 -9 -10 10 -12
leaf_value=-0.11067410089256975 0.14919978491866018 -0.027980373544542626 0.048206981701769153 0.1206922765114842 -0.0505076753534002 -0.091497597557539889 -0.055694152249978951 -0.16823162710673201 0.091732258015163784 0.14167001748113037 0.14125556039097412
leaf_weight=15.270795434713362 13.950221136212347 15.388459116220476 13.504952028393747 13.154465615749357 12.126859888434408 14.874887630343435 12.707697734236715 20.551250129938126 11.43356631696224 10.587962791323664 10.337288677692412
leaf_count=62 64 65 56 59 50 61 52 83 51 51 50
internal_value=0 -0.0512047 -0.0806151 0.0405378 -0.120127 -0.0345051 -0.00216352 -0.143695 0.131516 0.144559 0.141465
internal_weight=0 117.579 89.0364 28.5429 47.9489 41.0875 26.2126 35.822 46.309 34.8755 20.9253
internal_count=704 488 364 124 195 169 108 145 216 165 101
is_linear=0
shrinkage=0.1


Tree=4
num_leaves=11
num_cat=0
split_feature=14 3 10 5 3 10 0 0 13 1
split_gain=93.7707 35.037 15.4032 10.2953 8.12223 6.38791 5.35608 2.36004 0.0331585 5.8405e-05
threshold=1.5000000000000002 0.29932036923698108 71.500000000000014 0.80719400783322992 0.24387932031383711 87.500000000000014 1.3969760386208152 1.4025828357771983 1.5000000000000002 0.82450547054497847
decision_type=2 2 2 2 2 2 2 2 2 2
left_child=1 3 -3 4 -1 -4 -5 8 -2 -10
right_child=7 2 5 6 -6 -7 -8 -9 9 -11
leaf_value=-0.090440578200271363 0.14247757283370766 -0.068052117903535034 0.10375477706366601 -0.0914220692534643 0.0033491323018148091 0.014141388164951006 -0.17173564817205444 0.085246286136577767 0.13616596501587566 0.13582118229847737
leaf_weight=24.057428434491158 13.186803653836249 13.122201040387152 16.548868849873546 17.216575145721436 14.984762340784071 15.31679095327854 16.03969831764698 11.091278150677679 9.9473058581352252 9.7081688046455366
leaf_count=98 64 54 73 70 62 66 65 51 51 50
internal_value=0 -0.0461564 0.0231314 -0.0892708 -0.0544432 0.0606805 -0.130158 0.125129 0.138598 0.135996
internal_weight=0 117.286 44.9879 72.2985 39.0422 31.8657 33.2563 43.9336 32.8423 19.6555
internal_count=704 488 193 295 160 139 135 216 165 101
is_linear=0
shrinkage=0.1


Tree=5
num_leaves=11
num_cat=0
split_feature=14 3 9 8 5 1 10 0 14 1
split_gain=79.6791 28.4858 13.1759 8.58746 5.56244 4.90355 4.16534 2.35017 0.0223487 3.86325e-05
threshold=1.5000000000000002 0.29863455676611733 0.19610342044822313 0.10521610993611817 0.80719400783322992 0.99187238598156557 75.500000000000014 1.4025828357771983 4.5000000000000009 0.82450547054497847
decision_type=2 2 2 2 2 2 2 2 2 2
left_child=1 3 6 -1 5 -5 -3 8 -2 -10
right_child=7 2 -4 4 -6 -7 -8 -9 9 -11
leaf_value=-0.028823821451182858 0.13691440434883906 -0.066698528971605928 0.086251179402032196 -0.02665693461327813 -0.1406940301723619 -0.11200976311371032 0.012413121941861376 0.079312088277713133 0.13156214800861485 0.13127210584342544
leaf_weight=21.944851040840149 12.391284167766573 12.332585945725443 18.202910780906677 12.268718734383585 22.512957647442818 14.912074476480482 14.457268759608267 10.7473037391901 9.2991924583911914 9.0728127956390363
leaf_count=90 64 50 85 50 92 61 60 51 51 50
internal_value=0 -0.0417589 0.0206015 -0.0809245 -0.103932 -0.0734837 -0.0240056 0.119569 0.133632 0.131419
internal_weight=0 116.631 44.9928 71.6386 49.6938 27.1808 26.7899 41.5106 30.7633 18.372
internal_count=704 488 195 293 203 111 110 216 165 101
is_linear=0
shrinkage=0.1


Tree=6
num_leaves=12
num_cat=0
split_feature=13 11 4 3 5 1 5 0 12 4 5
split_gain=37.8919 22.1433 19.8373 24.5495 13.32 10.5807 9.86024 5.38035 6.2894 0.980106 0.476171
threshold=1.0000000180025095e-35 55.500000000000007 0.14337208559335571 0.26061039817886605 0.56306131323027697 0.98312077142428533 0.81449628582320088 1.569926844746681 0.016210598807424152 -0.057680615700292141 0.87155769184223464
decision_type=2 2 2 2 2 2 2 2 2 2 2
left_child=1 -1 3 5 -5 6 -3 8 -6 -10 -2
right_child=10 2 -4 4 7 -7 -8 -9 9 -11 -12
leaf_value=-0.13581978119283347 0.130862750385867 0.017696151727918861 0.11062603806979587 0.11457123301586863 -0.08133835513261907 -0.15084776660631236 -0.10100774851122413 0.048286442126633536 -0.013333083597208674 0.02775877947229204 0.10139159267633789
leaf_weight=14.672119423747061 13.889703884720804 13.470245227217676 13.068501949310301 11.968268901109694 12.385253012180327 13.833567187190054 14.563325956463812 14.604767903685568 11.787140235304824 11.435979306697854 9.0574030429124814
leaf_count=61 79 55 69 57 52 57 61 63 50 50 50
internal_value=0 -0.0200102 -0.00550183 -0.0200875 0.01977 -0.0792841 -0.04397 -0.00282583 -0.0237895 0.00690217 0.11923
internal_weight=0 131.789 117.117 104.049 62.1814 41.8671 28.0336 50.2131 35.6084 23.2231 22.9471
internal_count=704 575 514 445 272 173 116 215 152 100 129
is_linear=0
shrinkage=0.1


Tree=7
num_leaves=11
num_cat=0
split_feature=14 3 9 4 2 11 2 0 13 5
split_gain=61.2626 20.6535 11.7545 5.75233 5.19742 4.69887 4.77125 2.54403 0.0351253 0.000209699
threshold=1.5000000000000002 0.28744063122970454 0.19524701561059077 0.038078937141927206 0.18472165252120132 118.50000000000001 0.17303773667410027 1.4030381896000741 1.5000000000000002 0.84776279844153102
decision_type=2 2 2 2 2 2 2 2 2 2
left_child=1 3 4 5 -3 6 -1 8 -2 -10
right_child=7 2 -4 -5 -6 -7 -8 -9 9 -11
leaf_value=-0.1092984154702434 0.13182969216391582 -0.074679963193806528 0.073070047616621572 -0.020576160471709216 0.0045539489633285198 -0.13661051900753374 -0.028730180067809748 0.068118628355633704 0.12420752356175427 0.12492524882151985
leaf_weight=14.926288560032846 11.221151798963549 13.159737929701803 18.740563005208969 14.186154022812842 22.320620968937874 16.262271389365196 14.48157426714897 9.7684337943792325 8.3155901581048983 7.9747464954853049
leaf_count=63 64 54 92 59 92 68 60 49 53 50
internal_value=0 -0.0357014 0.00900486 -0.0761987 -0.0248341 -0.0934763 -0.0696235 0.111958 0.127524 0.124559
internal_weight=0 114.077 54.2209 59.8563 35.4804 45.6701 29.4079 37.2799 27.5115 16.2903
internal_count=704 488 238 250 146 191 123 216 167 103
is_linear=0
shrinkage=0.1


Tree=8
num_leaves=11
num_cat=0
split_feature=14 11 3 4 2 9 0 5 13 0
split_gain=52.5446 18.3327 20.5826 9.85581 7.591 4.6696 2.99215 2.82251 0.0251028 0.000289662
threshold=1.5000000000000002 55.500000000000007 0.29932036923698108 -0.077027561316210635 0.18657463120095982 0.19610342044822313 1.415237610929178 0.68064648878342326 1.5000000000000002 1.2903790562952804
decision_type=2 2 2 2 2 2 2 2 2 2
left_child=1 -1 3 -3 7 -4 8 -5 -2 -10
right_child=6 2 5 4 -6 -7 -8 -9 9 -11
leaf_value=-0.14259654635457886 0.12816010563226829 -0.11186797722599102 0.011700166964443967 -0.028766008360949277 0.021556999523904451 0.084064932861108166 0.056522346419321391 -0.096696986708376731 0.12146048183558011 0.12232282212679713
leaf_weight=13.338289916515349 10.807625412940979 19.36993682384491 21.521867915987968 12.196192324161531 18.887124419212341 15.225478351116179 8.5950566828250867 12.269872173666952 7.8536730110645294 7.7283002138137817
leaf_count=56 66 82 89 51 79 79 44 52 54 52
internal_value=0 -0.0325088 -0.0177468 -0.0525647 -0.0260683 0.041683 0.107767 -0.0628338 0.124457 0.121888
internal_weight=0 112.809 99.4705 62.7231 43.3532 36.7473 34.9847 24.4661 26.3896 15.582
internal_count=704 488 432 264 182 168 216 103 172 106
is_linear=0
shrinkage=0.1


Tree=9
num_leaves=11
num_cat=0
split_feature=13 11 4 6 5 4 7 11 1 5
split_gain=26.0302 15.1775 13.2352 17.172 10.247 7.34022 8.14544 6.15535 5.31576 0.572173
threshold=1.0000000180025095e-35 55.500000000000007 0.14337208559335571 0.030356391274719705 0.56484890472332128 -0.065965436238056882 5.54007610465663 112.50000000000001 0.80824790508324929 0.87739566724872475
decision_type=2 2 2 2 2 2 2 2 2 2
left_child=1 -1 3 7 -5 -6 -7 8 -3 -2
right_child=9 2 -4 4 5 6 -8 -9 -10 -11
leaf_value=-0.1141272462760848 0.12342926697950712 0.0057650748327423102 0.099613742251038112 0.10225805187187886 -0.047737848608564705 -0.034531692730603129 0.06818324137579071 -0.13188247719096624 -0.090046630199395336 0.087680764066496317
leaf_weight=13.960995346307753 11.753992959856989 11.542129382491114 11.192968338727949 11.189981773495672 21.775241225957863 12.803075283765798 19.44825267791748 11.468915313482283 11.620778888463972 7.2320259511470786
leaf_count=61 82 51 69 58 92 55 87 51 51 47
internal_value=0 -0.0158563 -0.00350095 -0.0150601 0.0151602 -0.00287951 0.0274076 -0.0719691 -0.0423034 0.109812
internal_weight=0 125.002 111.041 99.8484 65.2166 54.0266 32.2513 34.6318 23.1629 18.986
internal_count=704 575 514 445 292 234 142 153 102 129
is_linear=0
shrinkage=0.1


Tree=10
num_leaves=10
num_cat=0
split_feature=13 11 4 3 5 2 8 8 5
split_gain=22.5985 12.5821 11.2868 13.2764 9.14653 6.83451 6.05203 7.61023 0.624171
threshold=1.0000000180025095e-35 55.500000000000007 0.14337208559335571 0.26061039817886605 0.56306131323027697 0.17153051600578792 0.10623695295204806 0.23728062525780177 0.87828236738075838
decision_type=2 2 2 2 2 2 2 2 2
left_child=1 -1 3 5 -5 -3 -6 -8 -2
right_child=8 2 -4 4 6 -7 7 -9 -10
leaf_value=-0.1048974978266054 0.1207697867316955 -0.1045390823182174 0.094784348967787008 0.10115681822147793 0.043936792321668909 -0.020827737293109508 -0.073068560823918688 0.027241514835444409 0.081971617728257257
leaf_weight=13.684879571199415 11.105062857270243 17.827949225902557 10.617185458540915 10.436618953943251 18.064867153763771 21.532790929079056 17.219212412834171 13.487347111105917 6.6173217147588721
leaf_count=61 84 79 69 57 83 94 73 59 45
internal_value=0 -0.0145086 -0.00317965 -0.0137317 0.0161917 -0.0587437 -0.00199 -0.029009 0.106283
internal_weight=0 122.871 109.186 98.5688 59.208 39.3607 48.7714 30.7066 17.7224
internal_count=704 575 514 445 272 173 215 132 129
is_linear=0
shrinkage=0.1


Tree=11
num_leaves=11
num_cat=0
split_feature=14 6 10 5 10 5 5 2 3 3
split_gain=36.934 13.2355 12.1449 8.64697 6.5168 5.88085 4.08741 2.13379 1.70083 0.0124299
threshold=1.5000000000000002 0.021386547149095454 65.500000000000014 0.53430358269448675 92.500000000000014 0.79736852401839797 0.78559110807102672 0.16318582312569188 0.23737029806815738 0.23015154003913893
decision_type=2 2 2 2 2 2 2 2 2 2
left_child=1 7 -3 -4 6 -6 -5 -1 9 -2
right_child=8 2 3 4 5 -7 -8 -9 -10 -11
leaf_value=-0.12154610108938724 0.11756844487948226 -0.10408166315577549 0.099962033389445468 -0.010238145568612781 -0.0039002634743537609 -0.093795864641848969 0.059474031799967277 -0.060940688989086111 0.070594286851133226 0.1231798942164514
leaf_weight=12.391761064529421 11.644964747130876 11.385488003492354 8.7935296744108182 16.845598459243774 18.50098438560963 11.995489850640295 16.797167554497719 10.936470225453375 11.948742792010306 5.9718407839536658
leaf_count=58 96 50 49 78 79 51 73 50 75 45
internal_value=0 -0.02647 -0.00802626 0.00696889 -0.00578052 -0.0392598 0.0245678 -0.0931338 0.0997176 0.119471
internal_weight=0 107.646 84.3183 72.9328 64.1392 30.4965 33.6428 23.3282 29.5655 17.6168
internal_count=704 488 380 330 281 130 151 108 216 141
is_linear=0
shrinkage=0.1


Tree=12
num_leaves=12
num_cat=0
split_feature=14 3 12 4 5 0 0 9 1 14 0
split_gain=31.8364 10.8037 6.70566 5.63162 6.34969 6.32217 4.5213 3.58189 5.23156 0.0387184 0.000687362
threshold=1.5000000000000002 0.29863455676611733 0.014417755043447151 -0.077027561316210635 0.86461290488185494 1.3730135397220762 1.452492226875729 0.080104694351661815 0.82906405319886567 4.5000000000000009 1.2971987849955944
decision_type=2 2 2 2 2 2 2 2 2 2 2
left_child=1 3 -3 -1 5 -5 9 -4 -9 -2 -11
right_child=6 2 7 4 -6 -7 -8 8 -10 10 -12
leaf_value=-0.093766450227630443 0.12263888727984243 -0.059052649154096963 -0.0080217890907657539 -0.040531448380542456 -0.080908827995917532 0.05401968048658462 0.021057531808499456 0.11207161504418857 0.011244704070946476 0.11338046806422748 0.114907058159328
leaf_weight=19.92962534725666 9.6428754776716268 9.1888633519411069 11.017570003867151 17.557497456669811 15.889069616794584 11.841320812702177 6.2105802595615378 10.492794692516329 10.09913983941078 6.2379079610109329 5.5948323085904121
leaf_count=92 72 40 47 78 72 51 34 57 51 60 50
internal_value=0 -0.0242206 0.0161403 -0.0494693 -0.0299756 -0.00244794 0.0962037 0.0379989 0.0626219 0.117935 0.114102
internal_weight=0 106.016 40.7984 65.2175 45.2879 29.3988 27.6862 31.6095 20.5919 21.4756 11.8327
internal_count=704 488 195 293 201 129 216 155 108 182 110
is_linear=0
shrinkage=0.1


Tree=13
num_leaves=13
num_cat=0
split_feature=14 6 10 8 1 0 6 12 1 1 13 0
split_gain=27.497 10.4675 10.1898 7.35728 4.98406 4.8945 2.97511 2.88031 2.45794 1.30392 0.032735 0.00049014
threshold=1.5000000000000002 0.021386547149095454 65.500000000000014 0.10623695295204806 0.87728969887307884 1.4627295730733472 0.10330589206423151 0.016274565381708152 0.82642834998363457 0.81730573909474302 1.5000000000000002 1.2971987849955944
decision_type=2 2 2 2 2 2 2 2 2 2 2 2
left_child=1 8 -3 7 -5 10 -6 -4 -1 -9 -2 -12
right_child=5 2 3 4 6 -7 -8 9 -10 -11 11 -13
leaf_value=-0.053367525754946445 0.12067788185754796 -0.095161303421835305 0.0016826451423928778 0.023204103505059172 -0.079164684745752417 0.011855594000052689 -0.01087953392057182 0.096388454242615301 -0.12047269616350501 0.044336686011762966 0.11194665796173707 0.11329322511812739
leaf_weight=12.270229175686838 9.2665384933352506 11.037981599569319 9.3007114976644534 17.38764189183712 13.21700654923916 5.7734469920396796 12.335189208388327 9.2961400747299212 9.8320424854755384 9.9784287661313993 5.712871253490448 5.1308183521032333
leaf_count=58 74 50 42 77 59 32 51 50 50 51 60 50
internal_value=0 -0.0220979 -0.00573382 0.00806884 -0.0180964 0.0930137 -0.0462004 0.0473871 -0.0832188 0.0694413 0.116313 0.112584
internal_weight=0 104.655 82.5531 71.5151 42.9398 25.8837 25.5522 28.5753 22.1023 19.2746 20.1102 10.8437
internal_count=704 488 380 330 187 216 110 143 108 101 184 110
is_linear=0
shrinkage=0.1


Tree=14
num_leaves=12
num_cat=0
split_feature=14 6 5 8 4 7 0 0 8 14 0
split_gain=23.7886 9.16128 7.88098 7.45793 4.87302 4.94608 4.72023 2.62011 0.986101 0.0238298 0.000351002
threshold=1.5000000000000002 0.030356391274719705 0.55421292765057684 0.10033126451422947 -0.065965436238056882 5.54007610465663 1.4627295730733472 1.4590648599632619 0.16660960854018511 4.5000000000000009 1.2971987849955944
decision_type=2 2 2 2 2 2 2 2 2 2 2
left_child=1 3 -3 -1 7 -6 9 -4 -5 -2 -11
right_child=6 2 4 8 5 -7 -8 -9 -10 10 -12
leaf_value=-0.011025177554687363 0.11845236811826587 0.086075105891630976 -0.082458414116659107 -0.12589048274388556 -0.026441616640110622 0.049185766404549344 0.010738323206439179 -0.01493458854893847 -0.081047883669464929 0.11068175990365454 0.11187289279065088
leaf_weight=16.359914273023605 8.5341271683573758 9.4861548840999586 11.250961869955065 9.3678513169288653 17.271385550498962 17.319646045565605 5.7386525869369498 11.745748892426489 10.291029423475264 5.2252637445926666 4.6984710469841957
leaf_count=75 74 58 50 50 77 76 32 50 52 60 50
internal_value=0 -0.0202264 0.00161857 -0.060906 -0.0122935 0.0114248 0.0899503 -0.0479701 -0.102416 0.114578 0.111246
internal_weight=0 103.093 67.0739 36.0188 57.5877 34.591 24.1965 22.9967 19.6589 18.4579 9.92373
internal_count=704 488 311 177 253 153 216 100 102 184 110
is_linear=0
shrinkage=0.1


Tree=15
num_leaves=10
num_cat=0
split_feature=14 11 6 10 5 1 10 3 8
split_gain=20.5884 8.89855 8.86887 6.71688 6.13106 5.03463 10.5142 1.89626 0.00562549
threshold=1.5000000000000002 55.500000000000007 0.030356391274719705 86.500000000000014 0.56484890472332128 0.93896025512990533 95.500000000000014 0.23737029806815738 0.17926380424859234
decision_type=2 2 2 2 2 2 2 2 2
left_child=1 -1 3 -3 -4 6 -6 8 -2
right_child=7 2 4 -5 5 -7 -8 -9 -10
leaf_value=-0.10255021936694564 0.11116869236559118 -0.00093477149089188621 0.086078532117145765 -0.095536774796042528 0.074746084394675824 -0.038545686944994495 -0.045917966398739705 0.054553386133031505 0.11552056647653695
leaf_weight=11.208020597696303 7.7857014760375041 13.833527848124506 9.8947334885597211 16.406523525714874 17.868043869733814 20.263357698917389 12.119518399238585 10.03482762724161 4.8026077449321747
leaf_count=56 91 66 63 85 78 88 52 75 50
internal_value=0 -0.0185053 -0.00808353 -0.0522604 0.0141277 -3.98473e-05 0.0259795 0.08698 0.112829
internal_weight=0 101.594 90.3857 30.2401 60.1457 50.2509 29.9876 22.6231 12.5883
internal_count=704 488 432 151 281 218 130 216 141
is_linear=0
shrinkage=0.1


Tree=16
num_leaves=12
num_cat=0
split_feature=14 11 3 0 4 2 11 1 1 3 0
split_gain=17.7736 7.60762 7.68755 5.75304 5.54174 4.70194 2.90692 2.68532 2.0874 0.0177535 0.000798179
threshold=1.5000000000000002 55.500000000000007 0.29863455676611733 1.4948988083148786 -0.080720675732688499 0.21011373621597498 97.500000000000014 0.78575707842468157 0.91192284849215588 0.23273511930352284 1.3213390655898543
decision_type=2 2 2 2 2 2 2 2 2 2 2
left_child=1 -1 4 9 -3 8 7 -4 -6 10 -2
right_child=3 2 6 -5 5 -7 -8 -9 -10 -11 -12
leaf_value=-0.096438654110664421 0.10859720647332259 -0.081246744815652999 0.084729343969402904 -0.010917582704194502 -0.066477166060487258 0.032843101073201222 -0.010053525985996797 0.014815406837076212 -0.0082311960484456239 0.11605763010533952 0.11050979896234306
leaf_weight=10.75058378279209 5.0226467251777702 15.415619954466818 11.604087062180044 4.9228331595659247 12.464971497654917 15.316300526261328 11.694395445287226 10.433124050498007 12.150335043668745 7.409769468009471 3.8580804169178009
leaf_count=56 69 77 62 28 58 68 58 50 59 72 47
internal_value=0 -0.0169754 -0.0073853 0.083816 -0.0303192 -0.0106585 0.0302449 0.0516298 -0.0377264 0.112444 0.109428
internal_weight=0 99.8294 89.0788 21.2133 55.3472 39.9316 33.7316 22.0372 24.6153 16.2905 8.88073
internal_count=704 488 432 216 262 185 170 112 117 188 116
is_linear=0
shrinkage=0.1


Tree=17
num_leaves=10
num_cat=0
split_feature=13 10 11 1 1 7 3 8 11
split_gain=9.89995 7.07782 5.76951 10.2775 7.566 5.37318 3.31311 3.19291 1.03487
threshold=1.0000000180025095e-35 71.500000000000014 115.50000000000001 0.93896025512990533 1.0226361437180191 5.8175418094404625 0.30086077717537124 0.10321368227270201 112.50000000000001
decision_type=2 2 2 2 2 2 2 2 2
left_child=1 7 3 5 -4 6 -3 -1 -2
right_child=8 2 4 -5 -6 -7 -8 -9 -10
leaf_value=-0.01736178960586723 0.11798418932079711 -0.0056114414882328864 -0.073651926708980298 -0.035370217753442582 0.03133429585443992 0.11348063239345391 0.066497871000795683 -0.092149017245920339 0.055733839767338027
leaf_weight=10.570764496922495 6.2552538216114026 13.013342864811422 17.163375727832321 19.324917703866959 11.43956798315048 10.937371373176573 12.48431859910488 12.411112748086451 4.6601056680083275
leaf_count=51 78 67 90 99 63 70 71 64 51
internal_value=0 -0.00855239 0.00484983 0.0235798 -0.0316633 0.0548466 0.0296952 -0.0577498 0.0914076
internal_weight=0 107.345 84.3629 55.76 28.6029 36.435 25.4977 22.9819 10.9154
internal_count=704 575 460 307 153 208 138 115 129
is_linear=0
shrinkage=0.1


Tree=18
num_leaves=12
num_cat=0
split_feature=14 8 6 12 0 5 7 1 9 13 0
split_gain=14.1239 6.6359 6.95264 6.37232 5.49025 2.99587 4.19029 1.57714 0.81315 0.0158425 0.000285368
threshold=1.5000000000000002 0.10521610993611817 0.030356391274719705 0.016274565381708152 1.4948988083148786 0.86461290488185494 1.0000000180025095e-35 0.81730573909474302 0.060799996119306907 1.5000000000000002 1.3077642403495318
decision_type=2 2 2 2 2 2 2 2 2 2 2
left_child=1 3 8 -1 9 6 -4 -5 -3 -2 -11
right_child=4 2 5 7 -6 -7 -8 -9 -10 10 -12
leaf_value=-0.037301115810589029 0.11427992219960358 -0.068014234829135295 -0.038574018003400108 0.070115227659658733 -0.012168531632168401 -0.060000481745232426 0.035522752117081634 0.019570705155782672 -0.11156078454931247 0.10701523060734019 0.10828053352227428
leaf_weight=13.763827450573443 6.9860099218785781 8.6661190018057841 13.971332915127279 13.767258509993555 4.8719941452145568 10.478396102786062 16.820880360901356 11.19193424284458 8.4880644083023054 3.9088467583060265 3.276566818356514
leaf_count=66 76 51 63 75 28 50 74 59 50 64 48
internal_value=0 -0.0147769 -0.0360544 0.0173262 0.0794065 -0.0138141 0.00190287 0.0474506 -0.0895615 0.110889 0.107592
internal_weight=0 97.1478 58.4248 38.723 19.0434 41.2706 30.7922 24.9592 17.1542 14.1714 7.18541
internal_count=704 488 288 200 216 187 137 134 101 188 112
is_linear=0
shrinkage=0.1


Tree=19
num_leaves=11
num_cat=0
split_feature=14 11 8 6 12 4 1 6 11 13
split_gain=12.2249 5.82581 5.83603 6.04641 4.22442 2.88337 2.5753 2.0638 0.836984 0.0149287
threshold=1.5000000000000002 56.500000000000007 0.10623695295204806 0.030356391274719705 0.016274565381708152 -0.065162756949949344 0.81730573909474302 0.11462509973773537 127.50000000000001 1.5000000000000002
decision_type=2 2 2 2 2 2 2 2 2 2
left_child=1 -1 4 -4 -3 -5 -6 8 9 -2
right_child=7 2 3 5 6 -7 -8 -9 -10 -11
leaf_value=-0.080761119548265273 0.11451846893728145 -0.020347972306877252 -0.082604318442902086 -0.03654512534347485 0.089679129128050372 0.019065847071101719 0.020482523952030589 0.017278552189549816 0.054355177585040208 0.10670812618382641
leaf_weight=11.350543588399885 5.4797295220196265 11.601994939148424 13.639170214533804 16.428377926349636 10.583251975476744 21.558463126420978 10.936396755278109 4.4102026186883441 3.5363415405154219 4.4222634062170982
leaf_count=63 64 55 83 74 60 95 58 29 46 77
internal_value=0 -0.0134827 -0.00447182 -0.025491 0.0282904 -0.00498454 0.0545131 0.0766361 0.0961161 0.11103
internal_weight=0 96.0982 84.7477 51.626 33.1216 37.9868 21.5196 17.8485 13.4383 9.90199
internal_count=704 488 425 252 173 169 118 216 187 141
is_linear=0
shrinkage=0.1


Tree=20
num_leaves=11
num_cat=0
split_feature=14 3 1 2 12 8 3 4 5 8
split_gain=10.5392 5.06828 5.02454 5.65101 3.35091 2.59857 2.06991 1.56799 0.346168 0.00386928
threshold=1.5000000000000002 0.28673451217561602 0.8751003290069197 0.16983077154878912 0.014356339026838751 0.10623695295204806 0.23737029806815738 -0.00073301690320354989 0.63817347076232656 0.17926380424859234
decision_type=2 2 2 2 2 2 2 2 2 2
left_child=1 2 3 -1 -3 8 9 -4 -6 -2
right_child=6 4 7 -5 5 -7 -8 -9 -10 -11
leaf_value=-0.063034071650774487 0.10686550214220991 -0.040303887698588177 -0.096434061724543885 0.031907162542543659 0.068339647517793908 -0.00059729722052389732 0.038370495179785878 -0.041565631843803498 0.040144573207972725 0.11125731429624
leaf_weight=10.480123780667784 5.1387647055089491 10.1421712487936 11.64771891385317 15.60310512781143 7.5868663936853435 19.630122199654579 8.3673285953700525 9.4208861365914327 10.220774143934248 3.2906461395323277
leaf_count=55 91 46 65 78 55 91 75 49 49 50
internal_value=0 -0.012343 -0.0355782 -0.0062398 0.010683 0.0244958 0.073605 -0.0718995 0.052157 0.10858
internal_weight=0 94.7318 47.1518 26.0832 47.5799 37.4378 16.7967 21.0686 17.8076 8.42941
internal_count=704 488 247 133 241 195 216 114 104 141
is_linear=0
shrinkage=0.1


Tree=21
num_leaves=11
num_cat=0
split_feature=14 0 11 6 11 5 4 2 3 0
split_gain=9.06293 5.36367 4.9924 4.62993 4.70598 4.21436 3.72349 2.22387 0.00806513 0.000210175
threshold=1.5000000000000002 1.4948988083148786 56.500000000000007 0.030356391274719705 112.50000000000001 0.56484890472332128 -0.065965436238056882 0.1763745832542141 0.23273511930352284 1.3263556949782054
decision_type=2 2 2 2 2 2 2 2 2 2
left_child=2 8 -1 4 -4 -5 -7 -8 9 -2
right_child=1 -3 3 5 -6 6 7 -9 -10 -11
leaf_value=-0.075024129743955267 0.10524261612067652 -0.018955315625641782 -0.0089322628603175774 0.077583410960254007 -0.099860796860391787 -0.031831650178026347 -0.0081502575808185245 0.048859455277611145 0.11115122946392436 0.10646328123918924
leaf_weight=10.855955399572847 3.2966487258672696 4.7081218957900992 18.18300881236792 8.637780658900736 8.2853618785738927 19.56300471723079 11.773288592696199 16.337671235203743 5.3711661659181118 2.4654501900076866
leaf_count=63 70 28 97 63 51 88 55 71 72 46
internal_value=0 0.0705239 -0.0112621 -0.00290019 -0.0373955 0.0133137 0.00166908 0.0249829 0.108364 0.105765
internal_weight=0 15.8414 93.6361 82.7801 26.4684 56.3117 47.674 28.111 11.1333 5.7621
internal_count=704 216 488 425 148 277 214 126 188 116
is_linear=0
shrinkage=0.1


Tree=22
num_leaves=11
num_cat=0
split_feature=14 0 10 10 1 5 12 3 3 0
split_gain=7.83351 5.01237 4.34833 4.92581 8.51034 5.70815 1.9559 1.33077 0.00593045 0.000154713
threshold=1.5000000000000002 1.4948988083148786 65.500000000000014 92.500000000000014 0.94266152528770952 0.80719400783322992 0.017534776731205255 0.28109703355096366 0.23273511930352284 1.3263556949782054
decision_type=2 2 2 2 2 2 2 2 2 2
left_child=2 8 -1 4 6 7 -4 -5 9 -2
right_child=1 -3 3 5 -6 -7 -8 -9 -10 -11
leaf_value=-0.064138407944518444 0.10471916665508946 -0.016874939951875292 0.078974922309200724 -0.024883611342985126 -0.045179485739027372 -0.075605221660454844 0.02549993315580253 0.022517124588822435 0.11002675285799235 0.10581722908043378
leaf_weight=12.906755842268465 2.9970805309712869 4.7569503337144843 14.788626983761789 10.069684050977232 12.530645437538622 14.849918484687803 12.725381076335905 14.382527358829973 4.9071592278778553 2.2437560670077801
leaf_count=74 70 28 70 55 62 81 78 68 72 46
internal_value=0 0.0678248 -0.0103082 -0.00155204 0.0231317 -0.0267021 0.0542424 0.00299699 0.107528 0.105189
internal_weight=0 14.9049 92.2535 79.3468 40.0447 39.3021 27.514 24.4522 10.148 5.24084
internal_count=704 216 488 414 210 204 148 123 188 116
is_linear=0
shrinkage=0.1


Tree=23
num_leaves=12
num_cat=0
split_feature=14 12 3 1 12 12 4 3 12 14 11
split_gain=6.76369 4.18105 4.6654 6.83053 2.43625 3.40423 2.61451 2.04887 1.45083 0.00646771 2.51362e-05
threshold=1.5000000000000002 0.014317126562024452 0.24387932031383711 0.98312077142428533 0.017407767339740053 0.021225907029478405 -0.07673807631090683 0.23737029806815738 0.013082504796790451 4.5000000000000009 102.50000000000001
decision_type=2 2 2 2 2 2 2 2 2 2 2
left_child=1 8 3 -3 -4 6 -6 9 -1 -2 -11
right_child=7 2 4 -5 5 -7 -8 -9 -10 10 -12
leaf_value=-0.022922807184905102 0.11101747227296273 0.0039597237206177574 0.053452617571152355 -0.10937217508860311 0.022058152880271638 0.048913010447696997 -0.04944313055763401 0.03007734850499777 -0.076822401867419024 0.10415103885703539 0.10464435392257099
leaf_weight=9.9998262077569979 2.2863432914018613 15.824050277471544 14.988485731184481 8.0099385529756528 8.8634579032659477 11.294004321098326 12.089252442121511 7.6214839406311512 9.9760063812136632 2.1345403082668781 2.0012764595448971
leaf_count=54 37 85 74 51 47 66 63 75 48 56 48
internal_value=0 -0.00941987 0.00194139 -0.034128 0.0201413 0.00465799 -0.0191965 0.0651394 -0.0498405 0.106749 0.10439
internal_weight=0 91.045 71.0692 23.834 47.2352 32.2467 20.9527 14.0436 19.9758 6.42216 4.13582
internal_count=704 488 386 136 250 176 110 216 102 141 104
is_linear=0
shrinkage=0.1


Tree=24
num_leaves=12
num_cat=0
split_feature=14 0 10 10 7 4 1 12 0 5 3
split_gain=5.88755 5.22303 7.29217 4.31587 4.7786 4.72616 4.50052 3.3042 1.71289 1.29705 0.00157178
threshold=2.5000000000000004 1.6333612348648283 71.500000000000014 92.500000000000014 5.7548796260791741 0.029698914758269752 0.83346208082000151 0.016210598807424152 1.4105771744467097 0.92065003719743921 0.23273511930352284
decision_type=2 2 2 2 2 2 2 2 2 2 2
left_child=1 2 -1 4 6 7 -4 -5 -9 10 -2
right_child=9 -3 3 5 -6 -7 -8 8 -10 -11 -12
leaf_value=-0.075902503599258486 0.10403408426299461 0.065564506244360291 0.045688504772767848 -0.091425288851834222 0.085513185451834214 0.040396164158916337 -0.042785815381421018 0.0091246545890344803 -0.049798241413337774 0.014086164165380104 0.10728627916431742
leaf_weight=15.617678001523016 3.4732684418559057 9.1073170676827413 11.525991387665274 9.4321642741560954 9.6127295047044736 8.9323692396283132 11.472023040056227 10.162520602345468 9.5884318947792035 2.0899045988917351 2.5973811782896519
leaf_count=87 95 48 69 52 52 46 60 58 52 37 48
internal_value=0 -0.00646179 -0.0140589 -0.000402706 0.0263036 -0.023252 0.00155515 -0.0427335 -0.0194805 0.0820337 0.105426
internal_weight=0 95.4512 86.3439 70.7262 32.6107 38.1155 22.998 29.1831 19.751 8.16055 6.07065
internal_count=704 524 476 389 181 208 129 162 110 180 143
is_linear=0
shrinkage=0.1


Tree=25
num_leaves=11
num_cat=0
split_feature=14 10 6 10 4 2 4 7 11 3
split_gain=5.15847 3.82171 4.74041 4.44418 4.01593 2.81348 2.49002 2.29662 1.33279 0.00263956
threshold=2.5000000000000004 71.500000000000014 0.030356391274719705 86.500000000000014 -0.077027561316210635 0.14475746700409084 -0.023091871838024743 5.7028064988095819 121.50000000000001 0.23273511930352284
decision_type=2 2 2 2 2 2 2 2 2 2
left_child=1 6 3 -3 -4 -6 -1 -7 9 -2
right_child=8 2 4 -5 5 7 -8 -9 -10 -11
leaf_value=-0.011296216294729312 0.10357820221491981 0.021599887054329893 -0.020501506537793278 -0.072179762063055916 0.0066416914095210836 0.03079055071299315 -0.082015034008408552 0.096777224319443272 0.011946279096552603 0.10796504092231865
leaf_weight=10.530585773289205 2.8244966045022002 8.3076069951057452 16.50078971683979 12.900047816336153 15.566716384142635 10.916747659444811 9.4441185519099218 10.204984068870543 2.0942267328500748 2.6664600912481546
leaf_count=57 86 45 82 85 95 50 53 57 44 50
internal_value=0 -0.00589535 0.00453194 -0.0354438 0.0204711 0.0388987 -0.0447324 0.0626721 0.0798213 0.105708
internal_weight=0 94.3716 74.3969 21.2077 53.1892 36.6884 19.9747 21.1217 7.58518 5.49096
internal_count=704 524 414 130 284 202 110 107 180 136
is_linear=0
shrinkage=0.1


Tree=26
num_leaves=11
num_cat=0
split_feature=14 0 8 8 8 7 11 10 14 0
split_gain=4.26729 4.91276 3.50271 4.53807 3.34719 3.0714 2.79447 2.47154 0.00334749 4.95886e-05
threshold=1.5000000000000002 1.4948988083148786 0.10521610993611817 0.15521292589662447 0.085491134769668561 4.7167962193022239 74.500000000000014 88.500000000000014 4.5000000000000009 1.3077642403495318
decision_type=2 2 2 2 2 2 2 2 2 2
left_child=2 8 4 -4 5 -1 -5 -8 -2 -10
right_child=1 -3 3 6 -6 -7 7 -9 9 -11
leaf_value=0.030445801573107535 0.10779653517075319 -0.026232785727322041 -0.071973846911027983 -0.052649310502206219 0.068423708405926362 -0.038028549729456629 0.04623384593632715 -0.01367008283458003 0.1032257617949613 0.1039713946266031
leaf_weight=14.167790561914446 3.9404468480497581 4.5072447434067726 14.150781214237211 9.5497952178120595 9.3518017306923849 12.183947347104548 11.304817453026773 17.626070939004421 1.9131601694971325 1.6709372587502
leaf_count=82 76 28 90 53 49 69 57 88 64 48
internal_value=0 0.0563296 -0.00715078 -0.0235517 0.0170262 -0.00121389 -0.00574508 0.00973753 0.105785 0.103573
internal_weight=0 12.0318 88.335 52.6315 35.7035 26.3517 38.4807 28.9309 7.52454 3.5841
internal_count=704 216 488 288 200 151 198 145 188 112
is_linear=0
shrinkage=0.1


Tree=27
num_leaves=13
num_cat=0
split_feature=0 10 14 10 5 1 0 6 4 4 14 11
split_gain=4.06398 4.93205 3.53464 3.24989 4.79707 3.61337 2.45785 1.82201 1.57403 1.48595 0.000540824 2.60765e-05
threshold=1.6389148694420863 71.500000000000014 1.5000000000000002 92.500000000000014 0.80719400783322992 0.94862501008184508 1.452492226875729 0.033677012102660907 0.0051398927904783009 -0.06141712509216319 4.5000000000000009 104.50000000000001
decision_type=2 2 2 2 2 2 2 2 2 2 2 2
left_child=1 8 3 5 9 7 10 -3 -1 -5 -4 -12
right_child=-2 2 6 4 -6 -7 -8 -9 -10 -11 11 -13
leaf_value=-0.028065713937735062 0.068622398471802473 0.01035887544270022 0.10509421032044475 -0.02573245771791239 -0.071284358858906979 -0.02509272531212909 -0.024412091776081182 0.071266196483691688 -0.091055766785825276 0.025669299287854171 0.10283038400515275 0.1034222919197311
leaf_weight=9.0140433739870804 8.0347440391778928 8.2929467633366638 2.6074414663016787 9.5076696872711146 12.934982530772684 10.821748085319994 2.0312711894512177 12.045156911015509 7.0853135250508776 13.768508926033977 1.5116409640759232 1.4662062283605335
leaf_count=56 42 42 65 49 78 56 16 78 46 72 57 47
internal_value=0 -0.00556768 0.00521422 -0.00208574 -0.0224596 0.021591 0.0697848 0.046431 -0.0557876 0.00467312 0.104043 0.103122
internal_weight=0 91.0869 74.9876 67.371 36.2112 31.1599 7.61656 20.3381 16.0994 23.2762 5.58529 2.97785
internal_count=704 662 560 375 199 176 185 120 102 121 169 104
is_linear=0
shrinkage=0.1


Tree=28
num_leaves=13
num_cat=0
split_feature=0 10 14 1 3 4 0 1 4 0 3 0
split_gain=3.35917 4.06434 3.0976 3.00391 3.61945 3.09228 2.30092 2.23987 1.71901 0.529293 0.000406669 7.208e-05
threshold=1.6389148694420863 71.500000000000014 1.5000000000000002 0.72674530694732853 0.24153296121932485 -0.03522976120718619 1.452492226875729 0.85067737518028907 -0.0041917994472132989 1.4201085896673429 0.23616342464539958 1.3481675015153158
decision_type=2 2 2 2 2 2 2 2 2 2 2 2
left_child=1 8 3 -3 5 -5 10 -6 -1 -9 11 -4
right_child=-2 2 6 4 7 -7 -8 9 -10 -11 -12 -13
leaf_value=-0.020647248600972379 0.063013349572226263 0.035599235621921015 0.10264154016975879 -0.095120552649180623 -0.037792765290471597 -0.0093015054187930088 -0.02161671749912393 0.038696600987077327 -0.08668468440688977 0.008710940692593927 0.10492405404320806 0.10358048898391761
leaf_weight=8.5831070840358716 7.8831415548920623 16.16598754003644 2.0338427498936649 8.3255565539002436 8.9536827355623227 8.4703447148203832 2.0627739802002907 9.7682426273822802 7.2896010391414157 14.814120367169378 1.6710909772664306 1.3671654053032396
leaf_count=54 42 99 82 54 52 49 16 49 48 72 42 45
internal_value=0 -0.00507859 0.00481514 -0.00190327 -0.0139486 -0.0518411 0.0674316 0.00502916 -0.0509752 0.0206263 0.103647 0.103019
internal_weight=0 89.5055 73.6328 66.4979 50.3319 16.7959 7.13487 33.536 15.8727 24.5824 5.0721 3.40101
internal_count=704 662 560 375 276 103 185 173 102 121 169 127
is_linear=0
shrinkage=0.1


Tree=29
num_leaves=12
num_cat=0
split_feature=14 1 11 3 4 6 9 7 6 14 3
split_gain=2.79172 2.77296 2.65606 2.47142 2.65542 3.85212 2.0338 1.31114 0.934076 0.0531862 0.000309967
threshold=1.5000000000000002 0.60516823839620615 80.500000000000014 0.29863455676611733 -0.077027561316210635 0.030356391274719705 0.19610342044822313 1.0000000180025095e-35 0.077801747983091862 2.5000000000000004 0.23273511930352284
decision_type=2 2 2 2 2 2 2 2 2 2 2
left_child=3 -2 -3 4 -1 -6 7 -5 -7 -4 -11
right_child=1 2 9 6 5 8 -8 -9 -10 10 -12
leaf_value=-0.055779859027750435 -0.044722711735832622 -0.018100085271084542 0.1226462976592711 -0.024994766394453773 -0.046198084202691364 0.041685694958003616 0.049197759360021479 0.022622317620048821 0.00080226748871323271 0.10260551858449558 0.10455088749316173
leaf_weight=14.496462751179932 2.417402444407343 2.1368158515542728 2.6191802024841309 12.030163675546648 14.059249781072138 10.833417385816576 11.594222649931906 11.13493377715349 11.542660549283026 1.70875845476985 1.5730578191578386
leaf_count=92 33 44 22 56 90 58 85 54 53 71 46
internal_value=0 0.0491846 0.0774276 -0.0055507 -0.0195803 -0.00517771 0.0150065 -0.00210632 0.0205961 0.112019 0.103538
internal_weight=0 10.4552 8.03781 85.6911 50.9318 36.4353 34.7593 23.1651 22.3761 5.901 3.28182
internal_count=704 216 183 488 293 201 195 110 111 139 117
is_linear=0
shrinkage=0.1


Tree=30
num_leaves=11
num_cat=0
split_feature=0 12 2 9 0 5 7 7 5 9
split_gain=2.57521 3.85724 3.61077 4.63745 3.56021 2.45669 2.2956 2.28965 1.45416 1.25837
threshold=1.6389148694420863 0.014317126562024452 0.21356643569857189 0.068381724683853062 1.3638525661898699 0.88232076240784674 5.6672817477256459 5.7548796260791741 0.82193743329450419 0.19524701561059077
decision_type=2 2 2 2 2 2 2 2 2 2
left_child=1 6 3 -3 8 -6 -1 9 -4 -5
right_child=-2 2 4 7 5 -7 -8 -9 -10 -11
leaf_value=-0.086258180698723499 0.056071178723743058 -0.079031699765185426 0.045444005277948153 -0.046800897402026594 0.035607635710596761 -0.035639451134663006 -0.014895923027858105 0.04140202209680989 0.12854219137031805 0.0049514839878262926
leaf_weight=7.8070497512817409 7.6364419236779204 8.4821685552597028 4.1447176523506659 7.8610513117164436 13.960415005683901 7.4077358040958634 10.666477071121333 10.860609753057359 4.2809426914900541 11.67813294008374
leaf_count=44 42 63 46 45 87 61 79 80 75 82
internal_value=0 -0.00449085 0.00642053 -0.0136513 0.032615 0.0109083 -0.0450541 0.00459118 0.0876649 -0.0158697
internal_weight=0 87.1493 68.6758 38.882 29.7938 21.3682 18.4735 30.3998 8.42566 19.5392
internal_count=704 662 539 270 269 148 123 207 121 127
is_linear=0
shrinkage=0.1


Tree=31
num_leaves=11
num_cat=0
split_feature=12 10 10 1 4 7 4 11 1 4
split_gain=2.41102 2.65697 2.72837 3.24327 2.19317 1.81154 1.80251 1.77317 3.45368 1.58116
threshold=0.021971310263235701 134.50000000000003 71.500000000000014 0.72674530694732853 -0.012992209654477499 5.7028064988095819 -0.030055061884848647 103.50000000000001 0.93896025512990533 -0.040777569112760842
decision_type=2 2 2 2 2 2 2 2 2 2
left_child=1 2 4 5 -1 -4 -2 8 -5 -3
right_child=6 9 3 7 -6 -7 -8 -9 -10 -11
leaf_value=-0.0016377496193247148 -0.0016066391983117568 -0.081501162940477767 0.021931682868061492 0.046141212576769217 -0.073964765697786955 0.092526766897058063 0.079719393433190067 -0.034335076810135132 -0.027094685839169071 -0.012757923437166117
leaf_weight=9.9165785927325505 4.8419002760201693 6.5326180644333363 8.1179179828613979 14.090722996741535 7.2631751261651507 6.5822854805737725 6.2344509512186033 11.615955848246811 11.858236502856014 6.859063968062399
leaf_count=61 35 44 62 95 47 61 71 95 75 58
internal_value=0 -0.00550811 0.00235655 0.0137206 -0.0322158 0.0535419 0.0441686 -0.00186256 0.0126736 -0.0462917
internal_weight=0 82.8366 69.4449 52.2651 17.1798 14.7002 11.0764 37.5649 25.949 13.3917
internal_count=704 598 496 388 108 123 106 265 170 102
is_linear=0
shrinkage=0.1


Tree=32
num_leaves=13
num_cat=0
split_feature=14 0 10 1 0 3 10 12 8 11 3 0
split_gain=2.16947 4.41621 2.28785 2.4709 5.38567 3.58714 2.42893 1.7587 2.00852 0.0040533 0.000636267 0.000120913
threshold=1.5000000000000002 1.4948988083148786 65.500000000000014 0.72674530694732853 1.4318252617885474 0.24153296121932485 90.500000000000014 0.015635779564350954 0.15631196510435502 74.500000000000014 0.24093215070095794 1.3551015758087759
decision_type=2 2 2 2 2 2 2 2 2 2 2 2
left_child=2 9 -1 4 -4 6 -5 -7 -9 -2 11 -11
right_child=1 -3 3 5 -6 7 -8 8 -10 10 -12 -13
leaf_value=-0.047502445118379033 0.10967346856010476 -0.030410963202930553 0.087861388363059956 -0.010796930941314654 -0.016400209235129026 -0.030876693397064559 -0.086572363083087953 -0.0021964284022905249 0.053235558684853218 0.10207837185453519 0.10537523195562004 0.1034518910588042
leaf_weight=10.94596893712878 1.4953567963093499 4.3153518587350845 9.1666037403047103 8.680485315620901 10.78176526352763 8.7104473412036878 8.2511004246771318 15.744046904146673 11.17728930711746 1.5142296226695187 1.2852502241730688 1.1112938076257703
leaf_count=74 37 28 49 47 71 40 61 93 53 77 34 40
internal_value=0 0.0450277 -0.00488791 0.00154494 0.0315097 -0.00982702 -0.0477238 0.00818086 0.020818 0.105245 0.103552 0.10266
internal_weight=0 9.72148 83.4577 72.5117 19.9484 52.5634 16.9316 35.6318 26.9213 5.40613 3.91077 2.62552
internal_count=704 216 488 414 120 294 108 186 146 188 151 117
is_linear=0
shrinkage=0.1


Tree=33
num_leaves=14
num_cat=0
split_feature=0 1 14 10 6 8 4 4 0 8 0 10 0
split_gain=2.29285 3.34265 3.39754 3.02695 2.78853 1.91911 2.95683 4.21939 1.71286 1.54564 0.0449294 0.000267785 5.26282e-05
threshold=1.6389148694420863 0.50040837358209689 1.5000000000000002 77.500000000000014 1.0000000180025095e-35 0.10521610993611817 -0.065162756949949344 -0.0083218623218485974 1.3692361570215836 0.078874138531803709 1.4627295730733472 121.50000000000001 1.3530104426347986
decision_type=2 2 2 2 2 2 2 2 2 2 2 2 2
left_child=1 -1 4 -4 8 9 -7 -8 -3 -6 11 12 -5
right_child=-2 2 3 10 5 6 7 -9 -10 -11 -12 -13 -14
leaf_value=-0.074827686416223865 0.053350392358939396 -0.011388334702766264 -0.046553233311731008 0.10185496558848793 0.003956288995947287 -0.041483276639322116 0.062670687913608622 -0.022480692776030865 -0.084562947183420417 0.061150448445365893 0.12385610634371971 0.10411700330873935 0.10280065219519621
leaf_weight=6.2407802771776906 7.4848923757672301 6.4949901998043043 1.6763652628287662 1.4477808531373746 10.297635160386564 16.102671559900042 10.185273654758928 13.575361274182802 6.3035215139389038 8.7314122542738897 1.4240236431360243 1.1030142735689876 0.99146172869950522
leaf_count=36 42 50 25 82 73 89 51 69 50 48 11 36 42
internal_value=0 -0.00439399 0.00121742 0.0696353 -0.00512197 0.00407206 -0.00840013 0.0140204 -0.0474283 0.0301996 0.108855 0.102824 0.102239
internal_weight=0 84.5743 78.3335 6.64265 71.6909 58.8924 39.8633 23.7606 12.7985 19.029 4.96628 3.54226 2.43924
internal_count=704 662 626 196 430 330 209 120 100 121 171 160 124
is_linear=0
shrinkage=0.1


Tree=34
num_leaves=11
num_cat=0
split_feature=12 4 5 7 4 9 4 4 1 1
split_gain=1.85978 1.91188 1.59695 3.17527 3.68384 3.00499 3.42334 2.06454 1.88068 1.25606
threshold=0.021971310263235701 -0.033174549661065644 0.93182769076026239 1.0000000180025095e-35 -0.033773332011938044 0.11040735121532866 0.030320887124643554 -0.072616682825015974 0.93896025512990533 0.76634308577330168
decision_type=2 2 2 2 2 2 2 2 2 2
left_child=2 -2 3 4 -1 6 8 -4 9 -5
right_child=1 -3 7 5 -6 -7 -8 -9 -10 -11
leaf_value=0.0070865137026067757 -0.010597943794708336 0.075142850151132881 0.010643872633342171 0.0070229975120434541 -0.07050517394387705 -0.030978181697655219 0.099099378778444547 -0.055779289074593397 -0.021522589707499838 0.070957314377023545
leaf_weight=15.429520931094887 4.4559114007279277 6.2462575249373895 7.699570692144337 5.6675944048911386 10.140106642618774 8.0374890323728305 6.9584819311276069 11.929226214066146 7.594830520451068 6.7119475016370416
leaf_count=91 32 74 51 50 58 63 84 87 58 56
internal_value=0 0.0394442 -0.00493758 0.00309896 -0.0236839 0.0226821 0.0386957 -0.0297242 0.0176529 0.0416869
internal_weight=0 10.7022 80.1688 60.54 25.5696 34.9703 26.9329 19.6288 19.9744 12.3795
internal_count=704 106 598 460 149 311 248 138 164 106
is_linear=0
shrinkage=0.1


Tree=35
num_leaves=11
num_cat=0
split_feature=5 2 0 1 0 11 5 2 2 8
split_gain=1.92387 3.2419 2.50036 6.35957 2.95414 2.94333 3.47791 2.75545 1.88586 1.9713
threshold=0.5318907503296465 0.16318582312569188 1.3623301795259597 0.72674530694732853 1.5755470637480811 75.500000000000014 0.86531429813515881 0.23051432694289839 0.11167107465184385 0.076902593525689469
decision_type=2 2 2 2 2 2 2 2 2 2
left_child=-1 8 3 -3 5 -4 -7 -5 9 -2
right_child=1 2 4 7 -6 6 -8 -9 -10 -11
leaf_value=0.053672145330299285 0.022454313796285732 0.126934633043018 -0.067405072529603705 -0.068913072536482683 0.049145278189933125 0.032320971026048875 -0.051908904061182676 0.049437489921717967 -0.065217915826480219 -0.038295237909202168
leaf_weight=6.2786134351044884 9.2676082029938751 5.874118482694028 8.2349025625735539 3.9903646074235439 8.8866556957364065 14.02291478123516 7.5369034437462679 3.8800402022898197 9.8692327458411437 12.608806844800709
leaf_count=54 54 75 50 52 49 87 70 63 75 75
internal_value=0 -0.0037101 0.0115616 0.0481981 -0.00145639 -0.016549 0.0028758 -0.0105673 -0.0289303 -0.0125596
internal_weight=0 84.1715 52.4259 13.7445 38.6814 29.7947 21.5598 7.8704 31.7456 21.8764
internal_count=704 650 446 190 256 207 157 115 204 129
is_linear=0
shrinkage=0.1


Tree=36
num_leaves=12
num_cat=0
split_feature=0 1 12 2 9 6 1 8 11 4 4
split_gain=1.70145 2.6032 2.2197 2.38246 3.53336 2.42224 2.10815 2.37768 1.99609 1.11702 0.627995
threshold=1.6389148694420863 0.45403307279189092 0.021971310263235701 0.16946391352939935 0.060799996119306907 0.021386547149095454 0.72674530694732853 0.22404344572038853 85.500000000000014 -0.042831984224470744 -0.030055061884848647
decision_type=2 2 2 2 2 2 2 2 2 2 2
left_child=1 -1 3 5 6 -3 -5 -8 -9 -7 -4
right_child=-2 2 10 4 -6 9 7 8 -10 -11 -12
leaf_value=-0.071865834778303994 0.04680390602136273 -0.079738916561897161 0.016662822815236816 0.038109256584223879 0.06840386065081594 0.013172977176436668 -0.065652517929955509 -0.033797205088276681 0.033155403344387629 -0.036165234248735925 0.068477050139998497
leaf_weight=5.2644523214548817 7.2178716585040084 7.0163038186728981 4.1299194693565369 8.4817303828895074 8.0952011160552484 9.4953752122819459 7.7526827128604081 8.6461594505235571 9.1816283902153355 8.8801726885139907 5.3946141628548485
leaf_count=31 42 60 32 77 91 67 68 51 60 56 69
internal_value=0 -0.00383124 0.000815798 -0.00555664 0.00901851 -0.0297554 -0.00509498 -0.0194202 0.000684581 -0.0106702 0.04601
internal_weight=0 82.3382 77.0738 67.5493 42.1574 25.3919 34.0622 25.5805 17.8278 18.3755 9.52453
internal_count=704 662 631 530 347 183 256 179 111 123 101
is_linear=0
shrinkage=0.1


Tree=37
num_leaves=12
num_cat=0
split_feature=5 2 9 9 12 0 2 10 12 7 11
split_gain=1.61097 2.43929 3.13842 3.07642 2.02717 3.33589 3.84675 2.02636 1.86648 1.74906 1.39351
threshold=0.5318907503296465 0.16318582312569188 0.092634691905881916 0.060799996119306907 0.01365795440983405 1.5354953716079129 0.21730946575923096 78.500000000000014 0.019283284742468352 5.8175418094404625 103.50000000000001
decision_type=2 2 2 2 2 2 2 2 2 2 2
left_child=-1 2 -2 4 -3 6 -6 -8 -4 -5 -9
right_child=1 3 8 9 5 -7 7 10 -10 -11 -12
leaf_value=0.04992741091069116 -0.075583024061230908 0.038682460169579672 0.029151805875182651 0.013356021126048879 -0.077129351064123997 -0.067949537194186865 -0.024035619322058627 0.087290828810226734 -0.029808880030704327 0.094243546037401343 0.020126937886059945
leaf_weight=6.0725572519004336 8.9393260069191474 9.1937497947365028 9.1689485311508196 4.9086801987141353 4.5627520428970518 8.5673959925770742 5.7313393587246564 5.2164162863045913 12.955229176208375 5.8701416989788413 7.5750326588749886
leaf_count=54 70 64 58 44 36 42 45 68 76 80 67
internal_value=0 -0.00343639 -0.0255783 0.00988656 -0.00265345 -0.0146597 0.00511702 0.0253769 -0.00537373 0.0574073 0.0475167
internal_weight=0 82.689 31.0635 51.6255 40.8467 31.6529 23.0855 18.5228 22.1242 10.7788 12.7914
internal_count=704 650 204 446 322 258 216 180 134 124 135
is_linear=0
shrinkage=0.1


Tree=38
num_leaves=10
num_cat=0
split_feature=12 12 2 3 2 12 8 0 8
split_gain=1.51109 2.17844 1.8988 2.62421 2.55007 2.35967 1.61311 1.59394 1.28192
threshold=0.014317126562024452 0.013287414965986353 0.21356643569857189 0.28341307837504226 0.25143001078607147 0.018855813404952154 0.16357011886159697 1.2751621362373051 0.076902593525689469
decision_type=2 2 2 2 2 2 2 2 2
left_child=1 -1 3 7 -4 -6 -7 -2 -5
right_child=2 -3 4 8 5 6 -8 -9 -10
leaf_value=0.003672549566864085 -0.075564489517102415 -0.062083687651285913 0.070823973872722754 0.047648532321578077 -0.016746356309007976 0.11892112393871604 0.015606783160387451 -0.012922589479558206 -0.0031096351982931938
leaf_weight=12.256421977654101 6.343978093937042 8.554641464725135 9.0547972526401299 8.2341330982744712 13.527247441932561 2.5406276844441882 3.7300671096891165 11.292670012451707 12.573426920920609
leaf_count=91 51 55 83 64 84 55 54 93 74
internal_value=0 -0.0233574 0.00747506 -0.00707686 0.0268645 0.00675911 0.0574655 -0.0354552 0.0169768
internal_weight=0 20.8111 67.2969 38.4442 28.8527 19.7979 6.27069 17.6366 20.8076
internal_count=704 146 558 282 276 193 109 144 138
is_linear=0
shrinkage=0.1


end of trees

feature_importances:
Column_0=51
Column_4=38
Column_1=37
Column_5=33
Column_14=33
Column_3=32
Column_10=28
Column_11=26
Column_8=23
Column_12=22
Column_2=21
Column_6=18
Column_9=16
Column_7=15
Column_13=14

parameters:
[boosting: gbdt]
[objective: binary]
[metric: binary_logloss]
[tree_learner: serial]
[device_type: cpu]
[data_sample_strategy: bagging]
[data: ]
[valid: ]
[num_iterations: 10000]
[learning_rate: 0.1]
[num_leaves: 31]
[num_threads: 0]
[seed: 482668]
[deterministic: 0]
[force_col_wise: 0]
[force_row_wise: 0]
[histogram_pool_size: -1]
[max_depth: -1]
[min_data_in_leaf: 50]
[min_sum_hessian_in_leaf: 0.001]
[bagging_fraction: 0.8]
[pos_bagging_fraction: 1]
[neg_bagging_fraction: 1]
[bagging_freq: 0]
[bagging_seed: 24237]
[feature_fraction: 0.8]
[feature_fraction_bynode: 1]
[feature_fraction_seed: 9119]
[extra_trees: 0]
[extra_seed: 17531]
[early_stopping_round: 0]
[early_stopping_min_delta: 0]
[first_metric_only: 0]
[max_delta_step: 0]
[lambda_l1: 0]
[lambda_l2: 0]
[linear_lambda: 0]
[min_gain_to_split: 0]
[drop_rate: 0.1]
[max_drop: 50]
[skip_drop: 0.5]
[xgboost_dart_mode: 0]
[uniform_drop: 0]
[drop_seed: 11934]
[top_rate: 0.2]
[other_rate: 0.1]
[min_data_per_group: 100]
[max_cat_threshold: 32]
[cat_l2: 10]
[cat_smooth: 10]
[max_cat_to_onehot: 4]
[top_k: 20]
[monotone_constraints: ]
[monotone_constraints_method: basic]
[monotone_penalty: 0]
[feature_contri: ]
[forcedsplits_filename: ]
[refit_decay_rate: 0.9]
[cegb_tradeoff: 1]
[cegb_penalty_split: 0]
[cegb_penalty_feature_lazy: ]
[cegb_penalty_feature_coupled: ]
[path_smooth: 0]
[interaction_constraints: ]
[verbosity: -1]
[saved_feature_importance_type: 0]
[use_quantized_grad: 0]
[num_grad_quant_bins: 4]
[quant_train_renew_leaf: 0]
[stochastic_rounding: 1]
[linear_tree: 0]
[max_bin: 255]
[max_bin_by_feature: ]
[min_data_in_bin: 3]
[bin_construct_sample_cnt: 200000]
[data_random_seed: 3365]
[is_enable_sparse: 1]
[enable_bundle: 1]
[use_missing: 1]
[zero_as_missing: 0]
[feature_pre_filter: 1]
[pre_partition: 0]
[two_round: 0]
[header: 0]
[label_column: ]
[weight_column: ]
[group_column: ]
[ignore_column: ]
[categorical_feature: ]
[forcedbins_filename: ]
[precise_float_parser: 0]
[parser_config_file: ]
[objective_seed: 16084]
[num_class: 1]
[is_unbalance: 0]
[scale_pos_weight: 1]
[sigmoid: 1]
[boost_from_average: 1]
[reg_sqrt: 0]
[alpha: 0.9]
[fair_c: 1]
[poisson_max_delta_step: 0.7]
[tweedie_variance_power: 1.5]
[lambdarank_truncation_level: 30]
[lambdarank_norm: 1]
[label_gain: ]
[lambdarank_position_bias_regularization: 0]
[eval_at: ]
[multi_error_top_k: 1]
[auc_mu_weights: ]
[num_machines: 1]
[local_listen_port: 12400]
[time_out: 120]
[machine_list_filename: ]
[machines: ]
[gpu_platform_id: -1]
[gpu_device_id: -1]
[gpu_use_dp: 0]
[num_gpu: 1]

end of parameters

pandas_categorical:null
