{"learner":{"attributes":{"best_iteration":"58","best_score":"0.3052689804477452"},"feature_names":[],"feature_types":[],"gradient_booster":{"model":{"gbtree_model_param":{"num_parallel_tree":"1","num_trees":"109"},"iteration_indptr":[0,1,2,3,4,5,6,7,8,9,10,11,12,13,14,15,16,17,18,19,20,21,22,23,24,25,26,27,28,29,30,31,32,33,34,35,36,37,38,39,40,41,42,43,44,45,46,47,48,49,50,51,52,53,54,55,56,57,58,59,60,61,62,63,64,65,66,67,68,69,70,71,72,73,74,75,76,77,78,79,80,81,82,83,84,85,86,87,88,89,90,91,92,93,94,95,96,97,98,99,100,101,102,103,104,105,106,107,108,109],"tree_info":[0,0,0,0,0,0,0,0,0,0,0,0,0,0,0,0,0,0,0,0,0,0,0,0,0,0,0,0,0,0,0,0,0,0,0,0,0,0,0,0,0,0,0,0,0,0,0,0,0,0,0,0,0,0,0,0,0,0,0,0,0,0,0,0,0,0,0,0,0,0,0,0,0,0,0,0,0,0,0,0,0,0,0,0,0,0,0,0,0,0,0,0,0,0,0,0,0,0,0,0,0,0,0,0,0,0,0,0,0],"trees":[{"base_weights":[-1.2285018E-3,-6.842569E-1,1.4857869E0,-1.4891671E0,2.3383594E-1,2.3946463E-1,1.0730547E-1,-1.7458992E0,-5.793409E-2,1.0443754E0,-4.150104E-1,-1.9574505E0,-1.4462811E-1,1.9250229E-1,8.361837E-2,1.937611E-2,-8.328165E-1,-1.6673332E-1,-3.1877956E-1,-1.9880877E-1,-3.1080965E-2],"categories":[],"categories_nodes":[],"categories_segments":[],"categories_sizes":[],"default_left":[0,0,0,0,0,0,0,0,0,0,0,0,0,0,0,0,0,0,0,0,0],"id":0,"left_children":[1,3,5,7,9,-1,-1,11,-1,13,15,17,-1,-1,-1,-1,19,-1,-1,-1,-1],"loss_changes":[1.0815559E2,5.427052E1,1.7150345E0,1.0373589E1,1.8815138E1,0E0,0E0,3.299614E0,0E0,1.1258869E0,4.6839046E0,1.0026779E0,0E0,0E0,0E0,0E0,3.2754622E0,0E0,0E0,0E0,0E0],"parents":[2147483647,0,0,1,1,2,2,3,3,4,4,7,7,9,9,10,10,11,11,16,16],"right_children":[2,4,6,8,10,-1,-1,12,-1,14,16,18,-1,-1,-1,-1,20,-1,-1,-1,-1],"split_conditions":[2E0,2.871144E-1,1.4252297E0,4.6049193E-2,6.8111455E-1,2.3946463E-1,1.0730547E-1,2.3877068E-1,-5.793409E-2,7.716334E-2,1.0358511E-1,6.151172E-1,-1.4462811E-1,1.9250229E-1,8.361837E-2,1.937611E-2,8.2E1,-1.6673332E-1,-3.1877956E-1,-1.9880877E-1,-3.1080965E-2],"split_indices":[14,3,0,4,5,0,0,2,0,8,8,5,0,0,0,0,11,0,0,0,0],"split_type":[0,0,0,0,0,0,0,0,0,0,0,0,0,0,0,0,0,0,0,0,0],"sum_hessian":[1.04485565E2,7.1968315E1,3.2517246E1,3.8016487E1,3.395183E1,2.74962E1,5.021045E0,3.036537E1,7.651117E0,1.48240385E1,1.9127792E1,2.2714252E1,7.651117E0,8.846603E0,5.977435E0,8.607507E0,1.0520286E1,5.021045E0,1.7693207E1,5.260143E0,5.260143E0],"tree_param":{"num_deleted":"0","num_feature":"15","num_nodes":"21","size_leaf_vector":"1"}},{"base_weights":[-1.1673968E-2,-5.798744E-1,1.2928817E0,-9.5354354E-1,7.0773566E-1,1.0804759E-1,2.1396664E-1,-2.5022605E-1,-5.069489E-1,1.641178E-2,9.921633E-1,-2.2575985E-1,-2.861973E-1,1.9803101E-1,7.745133E-2,5.921447E-2,-9.402074E-2],"categories":[],"categories_nodes":[],"categories_segments":[],"categories_sizes":[],"default_left":[0,0,0,0,0,0,0,0,0,0,0,0,0,0,0,0,0],"id":1,"left_children":[1,3,5,7,9,-1,-1,-1,11,-1,13,-1,15,-1,-1,-1,-1],"loss_changes":[7.757293E1,3.5743134E1,1.4008675E0,1.7319614E1,2.77907E0,0E0,0E0,0E0,7.603655E0,0E0,1.0941439E0,0E0,7.4596267E0,0E0,0E0,0E0,0E0],"parents":[2147483647,0,0,1,1,2,2,3,3,4,4,8,8,10,10,12,12],"right_children":[2,4,6,8,10,-1,-1,-1,12,-1,14,-1,16,-1,-1,-1,-1],"split_conditions":[2E0,1.9508837E-1,5.58302E0,3.227486E-2,2.795085E-2,1.0804759E-1,2.1396664E-1,-2.5022605E-1,6.3E1,1.641178E-2,3.1132394E-1,-2.2575985E-1,8.8E1,1.9803101E-1,7.745133E-2,5.921447E-2,-9.402074E-2],"split_indices":[14,9,7,6,6,0,0,0,11,0,3,0,11,0,0,0,0],"split_type":[0,0,0,0,0,0,0,0,0,0,0,0,0,0,0,0,0],"sum_hessian":[1.0264022E2,7.1885796E1,3.0754425E1,5.591772E1,1.5968079E1,7.0263786E0,2.3728046E1,2.0453382E1,3.5464336E1,5.5911574E0,1.0376921E1,5.3693204E0,3.0095016E1,5.0918694E0,5.285052E0,9.981162E0,2.0113855E1],"tree_param":{"num_deleted":"0","num_feature":"15","num_nodes":"17","size_leaf_vector":"1"}},{"base_weights":[8.558381E-3,-4.4453365E-1,1.1729126E0,-1.000457E0,1.9098617E-1,2.048641E-1,3.8181283E-2,-4.779061E-2,-1.2109113E0,-1.1053206E-1,4.101121E-1,-1.0899157E-1,-1.4138432E0,7.147925E-1,-3.3923592E-2,-2.617134E-1,-1.54683E-1,1.8344888E-1,3.319896E-2],"categories":[],"categories_nodes":[],"categories_segments":[],"categories_sizes":[],"default_left":[0,0,0,0,0,0,0,0,0,0,0,0,0,0,0,0,0,0,0],"id":2,"left_children":[1,3,5,7,9,-1,-1,-1,11,-1,13,-1,15,17,-1,-1,-1,-1,-1],"loss_changes":[5.250639E1,2.5508698E1,4.58976E0,5.12228E0,7.271223E0,0E0,0E0,0E0,1.8202591E0,0E0,5.661501E0,0E0,6.521721E-1,4.6005516E0,0E0,0E0,0E0,0E0,0E0],"parents":[2147483647,0,0,1,1,2,2,3,3,4,4,8,8,10,10,12,12,13,13],"right_children":[2,4,6,8,10,-1,-1,-1,12,-1,14,-1,16,18,-1,-1,-1,-1,-1],"split_conditions":[2E0,2.871144E-1,1.4524451E0,6.785533E-1,6.3E1,2.048641E-1,3.8181283E-2,-4.779061E-2,8.5E1,-1.1053206E-1,1.04E2,-1.0899157E-1,1.4508192E-1,7.903553E-1,-3.3923592E-2,-2.617134E-1,-1.54683E-1,1.8344888E-1,3.319896E-2],"split_indices":[14,3,0,1,11,0,0,0,10,0,11,0,8,1,0,0,0,0,0],"split_type":[0,0,0,0,0,0,0,0,0,0,0,0,0,0,0,0,0,0,0],"sum_hessian":[9.7538605E1,7.066035E1,2.6878262E1,3.7384167E1,3.327618E1,2.1811026E1,5.067236E0,9.410113E0,2.7974054E1,5.90581E0,2.7370369E1,9.613006E0,1.8361048E1,1.8424368E1,8.946002E0,7.9368544E0,1.0424193E1,8.348366E0,1.0076003E1],"tree_param":{"num_deleted":"0","num_feature":"15","num_nodes":"19","size_leaf_vector":"1"}},{"base_weights":[7.9004236E-2,-3.2679075E-1,1.1133245E0,-1.0565668E0,1.0673807E-1,1.936384E-1,3.96958E-2,-1.352272E0,-6.8539016E-2,7.350273E-1,-2.5954464E-1,-2.3069087E-1,-1.1796167E-1,1.4990924E-1,2.3566488E-2,-1.5714532E-1,1.570698E-1,1.2563813E-1,-5.6600004E-2],"categories":[],"categories_nodes":[],"categories_segments":[],"categories_sizes":[],"default_left":[0,0,0,0,0,0,0,0,0,0,0,0,0,0,0,0,0,0,0],"id":3,"left_children":[1,3,5,7,9,-1,-1,11,-1,13,15,-1,-1,-1,-1,-1,17,-1,-1],"loss_changes":[4.2623524E1,2.3235994E1,3.968792E0,4.2280235E0,1.0951254E1,0E0,0E0,6.5989304E-1,0E0,2.5137901E0,1.0105368E1,0E0,0E0,0E0,0E0,0E0,7.835336E0,0E0,0E0],"parents":[2147483647,0,0,1,1,2,2,3,3,4,4,7,7,9,9,10,10,16,16],"right_children":[2,4,6,8,10,-1,-1,12,-1,14,16,-1,-1,-1,-1,-1,18,-1,-1],"split_conditions":[2E0,3.227486E-2,1.4547851E0,2.4395892E-1,6.8111455E-1,1.936384E-1,3.96958E-2,1.676146E-1,-6.8539016E-2,1.0525911E-1,1.9645809E-1,-2.3069087E-1,-1.1796167E-1,1.4990924E-1,2.3566488E-2,-1.5714532E-1,1.9759154E-1,1.2563813E-1,-5.6600004E-2],"split_indices":[14,6,0,3,5,0,0,8,0,8,2,0,0,0,0,0,8,0,0],"split_type":[0,0,0,0,0,0,0,0,0,0,0,0,0,0,0,0,0,0,0],"sum_hessian":[9.968498E1,7.20871E1,2.7597887E1,2.6329123E1,4.5757973E1,2.2391169E1,5.206718E0,1.679281E1,9.536312E0,1.648107E1,2.9276903E1,1.1350633E1,5.4421782E0,1.0807766E1,5.6733036E0,9.6008215E0,1.967608E1,8.405301E0,1.127078E1],"tree_param":{"num_deleted":"0","num_feature":"15","num_nodes":"19","size_leaf_vector":"1"}},{"base_weights":[-4.3278113E-2,-3.2091582E-1,1.8670847E-1,-7.258216E-1,2.4658392E-1,-9.3380773E-1,6.19413E-2,-1.6667217E-1,8.682015E-1,-1.2100126E0,-5.34266E-1,-1.8620224E-1,2.7540323E-1,5.2939534E-2,1.8631436E-1,-2.07674E-1,-1.0094897E-1,9.776365E-4,-1.15618564E-1,1.343734E-1,-2.6589932E-2],"categories":[],"categories_nodes":[],"categories_segments":[],"categories_sizes":[],"default_left":[0,0,0,0,0,0,0,0,0,0,0,0,0,0,0,0,0,0,0,0,0],"id":4,"left_children":[1,3,-1,5,7,9,-1,11,13,15,17,-1,19,-1,-1,-1,-1,-1,-1,-1,-1],"loss_changes":[3.272012E1,1.7447247E1,0E0,1.0833271E1,8.375012E0,3.503521E0,0E0,9.883329E0,2.0575027E0,1.0775452E0,2.2001371E0,0E0,4.385065E0,0E0,0E0,0E0,0E0,0E0,0E0,0E0,0E0],"parents":[2147483647,0,0,1,1,3,3,4,4,5,5,7,7,8,8,9,9,10,10,12,12],"right_children":[2,4,-1,6,8,10,-1,12,14,16,18,-1,20,-1,-1,-1,-1,-1,-1,-1,-1],"split_conditions":[1E0,1.899241E-2,1.8670847E-1,1.6018474E0,2.805084E-2,1.6208952E-2,6.19413E-2,2.236068E-2,9.8E1,5.8244047E0,1.7453838E-2,-1.8620224E-1,5.6400305E-1,5.2939534E-2,1.8631436E-1,-2.07674E-1,-1.0094897E-1,9.776365E-4,-1.15618564E-1,1.343734E-1,-2.6589932E-2],"split_indices":[13,12,0,0,4,12,0,6,10,7,12,0,5,0,0,0,0,0,0,0,0],"split_type":[0,0,0,0,0,0,0,0,0,0,0,0,0,0,0,0,0,0,0,0,0],"sum_hessian":[8.938277E1,7.415004E1,1.5232721E1,4.3111446E1,3.1038597E1,3.660569E1,6.5057573E0,1.9083569E1,1.1955029E1,2.04441E1,1.6161589E1,5.0351715E0,1.4048397E1,5.8445144E0,6.110514E0,1.4239499E1,6.204601E0,5.213657E0,1.0947931E1,5.513175E0,8.535222E0],"tree_param":{"num_deleted":"0","num_feature":"15","num_nodes":"21","size_leaf_vector":"1"}},{"base_weights":[2.7752666E-2,-3.2072553E-1,9.811968E-1,-7.083815E-1,2.591905E-1,1.7741933E-1,2.97093E-2,-1.3788071E-1,-9.9390525E-1,2.869684E-2,1.4185552E-1,-8.636403E-2,7.93173E-2,-2.2839755E-1,-6.205871E-1,-6.829563E-2,3.4309474E-1,-6.0648397E-3,-1.7119408E-1,1.0824678E-1,2.9728238E-3],"categories":[],"categories_nodes":[],"categories_segments":[],"categories_sizes":[],"default_left":[0,0,0,0,0,0,0,0,0,0,0,0,0,0,0,0,0,0,0,0,0],"id":5,"left_children":[1,3,5,7,9,-1,-1,11,13,15,-1,-1,-1,-1,17,-1,19,-1,-1,-1,-1],"loss_changes":[2.9613493E1,1.4870828E1,3.531065E0,6.2849464E0,4.2306037E0,0E0,0E0,4.48212E0,4.209671E0,3.3784497E0,0E0,0E0,0E0,0E0,5.087761E0,0E0,1.6264092E0,0E0,0E0,0E0,0E0],"parents":[2147483647,0,0,1,1,2,2,3,3,4,4,7,7,8,8,9,9,14,14,16,16],"right_children":[2,4,6,8,10,-1,-1,12,14,16,-1,-1,-1,-1,18,-1,20,-1,-1,-1,-1],"split_conditions":[2E0,2.9864308E-1,1.4153091E0,1.0525911E-1,5.760247E0,1.7741933E-1,2.97093E-2,1.9263157E-1,1.5792513E-1,1.5840363E-2,1.4185552E-1,-8.636403E-2,7.93173E-2,-2.2839755E-1,7.9554087E-1,-6.829563E-2,7.716334E-2,-6.0648397E-3,-1.7119408E-1,1.0824678E-1,2.9728238E-3],"split_indices":[14,3,0,8,7,0,0,2,8,12,0,0,0,0,5,0,8,0,0,0,0],"split_type":[0,0,0,0,0,0,0,0,0,0,0,0,0,0,0,0,0,0,0,0,0],"sum_hessian":[8.718179E1,6.433233E1,2.284947E1,3.8424927E1,2.5907398E1,1.7765776E1,5.0836945E0,1.3311108E1,2.511382E1,2.0175398E1,5.732E0,8.116414E0,5.1946936E0,9.11922E0,1.59946E1,7.768293E0,1.2407105E1,8.075161E0,7.9194393E0,5.1473546E0,7.2597513E0],"tree_param":{"num_deleted":"0","num_feature":"15","num_nodes":"21","size_leaf_vector":"1"}},{"base_weights":[-4.7302987E-2,-3.2479966E-1,1.6285172E-1,-1.832194E-1,-8.495632E-2,-3.0814445E-1,6.301752E-1,-1.7062151E-1,-1.5059641E-1,1.4611666E-1,1.5941113E-2,3.5608377E-2,-6.362495E-2],"categories":[],"categories_nodes":[],"categories_segments":[],"categories_sizes":[],"default_left":[0,0,0,0,0,0,0,0,0,0,0,0,0],"id":6,"left_children":[1,3,-1,-1,5,7,9,-1,11,-1,-1,-1,-1],"loss_changes":[2.7409374E1,1.4928254E1,0E0,0E0,9.167597E0,5.515022E0,2.3652658E0,0E0,4.1048727E0,0E0,0E0,0E0,0E0],"parents":[2147483647,0,0,1,1,4,4,5,5,6,6,8,8],"right_children":[2,4,-1,-1,6,8,10,-1,12,-1,-1,-1,-1],"split_conditions":[3E0,2.236068E-2,1.6285172E-1,-1.832194E-1,1.9508837E-1,5.9E1,8.2201684E-1,-1.7062151E-1,8.8E1,1.4611666E-1,1.5941113E-2,3.5608377E-2,-6.362495E-2],"split_indices":[14,6,0,0,9,11,1,0,11,0,0,0,0],"split_type":[0,0,0,0,0,0,0,0,0,0,0,0,0],"sum_hessian":[8.505877E1,6.889733E1,1.6161434E1,1.3676076E1,5.5221256E1,4.2520103E1,1.2701155E1,5.79506E0,3.6725044E1,7.148738E0,5.5524163E0,1.5241424E1,2.148362E1],"tree_param":{"num_deleted":"0","num_feature":"15","num_nodes":"13","size_leaf_vector":"1"}},{"base_weights":[3.3502053E-3,-1.4766385E-1,1.484696E-1,1.6559262E-2,-9.2034787E-1,-9.8529E-2,1.599771E-1,-1.845594E-1,-5.212825E-2,-2.2871655E-1,1.1415922E-1,-1.2321973E-1,7.7841696E-3],"categories":[],"categories_nodes":[],"categories_segments":[],"categories_sizes":[],"default_left":[0,0,0,0,0,0,0,0,0,0,0,0,0],"id":7,"left_children":[1,3,-1,5,7,9,-1,-1,-1,11,-1,-1,-1],"loss_changes":[1.2973379E1,9.601439E0,0E0,7.752434E0,1.9273462E0,6.659134E0,0E0,0E0,0E0,8.541619E0,0E0,0E0,0E0],"parents":[2147483647,0,0,1,1,3,3,4,4,5,5,9,9],"right_children":[2,4,-1,6,8,10,-1,-1,-1,12,-1,-1,-1],"split_conditions":[1E0,9.6903294E-1,1.484696E-1,1.6148512E0,1.805466E-2,1.6049983E-1,1.599771E-1,-1.845594E-1,-5.212825E-2,3.227486E-2,1.1415922E-1,-1.2321973E-1,7.7841696E-3],"split_indices":[13,5,0,0,12,4,0,0,0,6,0,0,0],"split_type":[0,0,0,0,0,0,0,0,0,0,0,0,0],"sum_hessian":[8.51076E1,7.454578E1,1.056182E1,6.2286274E1,1.22595005E1,5.6949993E1,5.336279E0,7.209399E0,5.0501018E0,5.0096634E1,6.8533616E0,1.5476807E1,3.4619827E1],"tree_param":{"num_deleted":"0","num_feature":"15","num_nodes":"13","size_leaf_vector":"1"}},{"base_weights":[7.6617877E-4,-2.4264286E-1,8.879244E-1,-5.845169E-1,8.329311E-2,1.6150585E-1,4.979066E-2,-2.3116465E-1,-1.0685692E0,-6.8303716E-1,4.50233E-1,-5.6413984E-1,5.646597E-2,-2.0023303E-1,-9.637815E-2,-2.7431456E-2,-1.5711254E-1,1.6545713E-1,2.1433644E-1,-1.3716282E-1,-2.7633196E-4,-2.3865808E-2,9.570707E-2],"categories":[],"categories_nodes":[],"categories_segments":[],"categories_sizes":[],"default_left":[0,0,0,0,0,0,0,0,0,0,0,0,0,0,0,0,0,0,0,0,0,0,0],"id":8,"left_children":[1,3,5,7,9,-1,-1,11,13,15,17,19,-1,-1,-1,-1,-1,-1,21,-1,-1,-1,-1],"loss_changes":[1.81683E1,7.4056053E0,1.5438356E0,5.2859087E0,1.0057983E1,0E0,0E0,4.2536016E0,6.597519E-1,1.9270158E0,3.4672308E0,2.6186247E0,0E0,0E0,0E0,0E0,0E0,0E0,3.0932877E0,0E0,0E0,0E0,0E0],"parents":[2147483647,0,0,1,1,2,2,3,3,4,4,7,7,8,8,9,9,10,10,11,11,18,18],"right_children":[2,4,6,8,10,-1,-1,12,14,16,18,20,-1,-1,-1,-1,-1,-1,22,-1,-1,-1,-1],"split_conditions":[2E0,6.733439E-2,1.4076895E0,8.608053E-1,1.5840363E-2,1.6150585E-1,4.979066E-2,2.1379441E-1,1.3455267E0,8.4223795E-1,6.0094178E-2,1.0420183E-1,5.646597E-2,-2.0023303E-1,-9.637815E-2,-2.7431456E-2,-1.5711254E-1,1.6545713E-1,2.0782548E-1,-1.3716282E-1,-2.7633196E-4,-2.3865808E-2,9.570707E-2],"split_indices":[14,6,0,1,12,0,0,2,0,1,8,9,0,0,0,0,0,0,2,0,0,0,0],"split_type":[0,0,0,0,0,0,0,0,0,0,0,0,0,0,0,0,0,0,0,0,0,0,0],"sum_hessian":[8.213726E1,6.5023346E1,1.711392E1,3.1348536E1,3.367481E1,1.2076773E1,5.0371475E0,1.8974756E1,1.2373779E1,1.0624592E1,2.3050217E1,1.23037E1,6.671055E0,6.3015633E0,6.072216E0,5.1109715E0,5.513621E0,5.1426344E0,1.7907581E1,7.195255E0,5.108446E0,9.85036E0,8.057222E0],"tree_param":{"num_deleted":"0","num_feature":"15","num_nodes":"23","size_leaf_vector":"1"}},{"base_weights":[7.8371815E-2,-7.2044946E-2,1.3540328E-1,-2.6352772E-1,5.209388E-1,-8.484054E-1,3.808519E-2,-5.016306E-2,1.3797846E-1,-1.7915158E-1,-7.061125E-2,-1.1056746E-1,2.678524E-1,4.052474E-3,1.7427827E-1],"categories":[],"categories_nodes":[],"categories_segments":[],"categories_sizes":[],"default_left":[0,0,0,0,0,0,0,0,0,0,0,0,0,0,0],"id":9,"left_children":[1,3,-1,5,7,9,11,-1,-1,-1,-1,-1,13,-1,-1],"loss_changes":[1.0324806E1,8.188062E0,0E0,9.604179E0,6.327688E0,1.8553E0,6.7442975E0,0E0,0E0,0E0,0E0,0E0,6.231067E0,0E0,0E0],"parents":[2147483647,0,0,1,1,3,3,4,4,5,5,6,6,12,12],"right_children":[2,4,-1,6,8,10,12,-1,-1,-1,-1,-1,14,-1,-1],"split_conditions":[3E0,1.8997848E-1,1.3540328E-1,1.6970137E-1,2.724294E-1,7.335219E-2,7.2E1,-5.016306E-2,1.3797846E-1,-1.7915158E-1,-7.061125E-2,-1.1056746E-1,5.877098E-2,4.052474E-3,1.7427827E-1],"split_indices":[14,9,0,2,3,6,10,0,0,0,0,0,9,0,0],"split_type":[0,0,0,0,0,0,0,0,0,0,0,0,0,0,0],"sum_hessian":[8.174607E1,6.990313E1,1.1842938E1,5.3260242E1,1.664289E1,1.750406E1,3.5756184E1,5.3446255E0,1.1298265E1,8.007119E0,9.496941E0,7.670138E0,2.8086044E1,2.2937199E1,5.148845E0],"tree_param":{"num_deleted":"0","num_feature":"15","num_nodes":"15","size_leaf_vector":"1"}},{"base_weights":[-1.032299E-2,-1.7967889E-1,7.270076E-1,8.638629E-2,-5.113306E-1,1.5273112E-1,1.5175488E-2,-3.961652E-1,3.6063856E-1,-1.6025558E-1,-1.860263E-1,-1.3061127E-1,4.7516245E-2,-5.645463E-2,6.078247E-1,-1.3126443E-1,1.4122698E-1,1.3286698E-1,2.2599718E-2,9.91794E-2,-9.771205E-2],"categories":[],"categories_nodes":[],"categories_segments":[],"categories_sizes":[],"default_left":[0,0,0,0,0,0,0,0,0,0,0,0,0,0,0,0,0,0,0,0,0],"id":10,"left_children":[1,3,5,7,9,-1,-1,11,13,15,-1,-1,-1,-1,17,-1,19,-1,-1,-1,-1],"loss_changes":[1.0311457E1,5.9654675E0,2.7084446E0,5.1835904E0,7.4814115E0,0E0,0E0,5.1071453E0,4.7485046E0,4.7367415E0,0E0,0E0,0E0,0E0,2.275907E0,0E0,6.990817E0,0E0,0E0,0E0,0E0],"parents":[2147483647,0,0,1,1,2,2,3,3,4,4,7,7,8,8,9,9,14,14,16,16],"right_children":[2,4,6,8,10,-1,-1,12,14,16,-1,-1,-1,-1,18,-1,20,-1,-1,-1,-1],"split_conditions":[2E0,8.0793303E-1,1.396911E0,-6.506268E-2,1.14E2,1.5273112E-1,1.5175488E-2,1.4339005E0,2.795085E-2,5.7E1,-1.860263E-1,-1.3061127E-1,4.7516245E-2,-5.645463E-2,9.3326014E-1,-1.3126443E-1,8.8275313E-1,1.3286698E-1,2.2599718E-2,9.91794E-2,-9.771205E-2],"split_indices":[14,5,0,4,11,0,0,0,6,11,0,0,0,0,1,0,1,0,0,0,0],"split_type":[0,0,0,0,0,0,0,0,0,0,0,0,0,0,0,0,0,0,0,0,0],"sum_hessian":[8.053058E1,6.610368E1,1.4426902E1,3.7088905E1,2.9014774E1,9.417858E0,5.009043E0,1.3279274E1,2.3809633E1,2.040556E1,8.609216E0,7.839491E0,5.439783E0,5.848707E0,1.7960924E1,5.4887133E0,1.4916845E1,1.0586637E1,7.3742886E0,9.107919E0,5.8089266E0],"tree_param":{"num_deleted":"0","num_feature":"15","num_nodes":"21","size_leaf_vector":"1"}},{"base_weights":[5.529861E-2,-1.1137975E-1,1.6434203E-1,-6.719752E-2,5.214417E-1,-1.693885E-1,1.5128058E-1,2.5450739E-3,8.213675E-1,-5.3418046E-1,5.584485E-1,7.081593E-2,1.6174534E-1,-1.19060464E-1,-3.7208285E-2,1.3550277E-1,-3.359643E-2],"categories":[],"categories_nodes":[],"categories_segments":[],"categories_sizes":[],"default_left":[0,0,0,0,0,0,0,0,0,0,0,0,0,0,0,0,0],"id":11,"left_children":[1,-1,3,5,7,-1,9,-1,11,13,15,-1,-1,-1,-1,-1,-1],"loss_changes":[6.4538956E0,0E0,5.3969355E0,9.504908E0,3.8628535E0,0E0,9.856107E0,0E0,9.3101406E-1,7.888074E-1,6.131901E0,0E0,0E0,0E0,0E0,0E0,0E0],"parents":[2147483647,0,0,2,2,3,3,4,4,6,6,8,8,9,9,10,10],"right_children":[2,-1,4,6,8,-1,10,-1,12,14,16,-1,-1,-1,-1,-1,-1],"split_conditions":[5.8E1,-1.1137975E-1,8.0414474E-2,1.6454546E-1,2.6497576E-1,-1.693885E-1,-6.401699E-2,2.5450739E-3,5.917851E-1,8.2381165E-1,9.3326014E-1,7.081593E-2,1.6174534E-1,-1.19060464E-1,-3.7208285E-2,1.3550277E-1,-3.359643E-2],"split_indices":[11,0,9,2,3,0,4,0,5,1,1,0,0,0,0,0,0],"split_type":[0,0,0,0,0,0,0,0,0,0,0,0,0,0,0,0,0],"sum_hessian":[7.178163E1,7.9325557E0,6.384908E1,3.9226723E1,2.4622358E1,5.9813967E0,3.3245327E1,9.5745535E0,1.5047804E1,1.2272618E1,2.0972708E1,7.580623E0,7.4671803E0,5.5048532E0,6.7677646E0,1.4448891E1,6.523817E0],"tree_param":{"num_deleted":"0","num_feature":"15","num_nodes":"17","size_leaf_vector":"1"}},{"base_weights":[4.170082E-2,-1.1001524E-1,1.5052512E-1,2.8409576E-1,-3.7242955E-1,-2.2110589E-2,4.9419475E-1,-1.5631789E-1,-1.6916661E-1,1.4958061E-1,1.4930704E-1,-5.890154E-1,6.070001E-2,-3.821861E-2,9.2332795E-2,-1.4032355E-1,-1.4466162E-2,-5.7131935E-2,4.9045537E-2],"categories":[],"categories_nodes":[],"categories_segments":[],"categories_sizes":[],"default_left":[0,0,0,0,0,0,0,0,0,0,0,0,0,0,0,0,0,0,0],"id":12,"left_children":[1,3,-1,5,7,-1,9,-1,11,13,-1,15,17,-1,-1,-1,-1,-1,-1],"loss_changes":[1.1689271E1,7.287343E0,0E0,2.6405132E0,5.5568857E0,0E0,3.1806917E0,0E0,3.2692463E0,2.5310135E0,0E0,1.948741E0,2.7768142E0,0E0,0E0,0E0,0E0,0E0,0E0],"parents":[2147483647,0,0,1,1,3,3,4,4,6,6,8,8,9,9,11,11,12,12],"right_children":[2,4,-1,6,8,-1,10,-1,12,14,-1,16,18,-1,-1,-1,-1,-1,-1],"split_conditions":[3E0,1.0525911E-1,1.5052512E-1,1.5920257E-2,7.2E1,-2.2110589E-2,7.121615E-1,-1.5631789E-1,2.3886174E-1,2.153439E-2,1.4930704E-1,-3.2954894E-2,-9.101303E-2,-3.821861E-2,9.2332795E-2,-1.4032355E-1,-1.4466162E-2,-5.7131935E-2,4.9045537E-2],"split_indices":[14,8,0,12,10,0,5,0,3,12,0,4,4,0,0,0,0,0,0],"split_type":[0,0,0,0,0,0,0,0,0,0,0,0,0,0,0,0,0,0,0],"sum_hessian":[7.835054E1,6.844026E1,9.910275E0,2.7322668E1,4.1117596E1,9.044844E0,1.8277822E1,8.613098E0,3.2504498E1,1.1600083E1,6.6777396E0,1.0947177E1,2.155732E1,6.4531903E0,5.146893E0,5.898799E0,5.0483785E0,7.947255E0,1.3610064E1],"tree_param":{"num_deleted":"0","num_feature":"15","num_nodes":"19","size_leaf_vector":"1"}},{"base_weights":[-2.6007103E-2,4.2080283E-1,-2.5848266E-1,4.9450867E-2,1.6002461E-1,-1.4428726E-1,-1.4972322E-1,-5.090825E-2,8.382658E-2,-3.774176E-1,3.0496857E-1,4.3339238E-2,-5.767532E-1,-7.021239E-3,1.19398005E-1,-1.4263065E-1,-6.612186E-3],"categories":[],"categories_nodes":[],"categories_segments":[],"categories_sizes":[],"default_left":[0,0,0,0,0,0,0,0,0,0,0,0,0,0,0,0,0],"id":13,"left_children":[1,3,5,7,-1,9,-1,-1,-1,11,13,-1,15,-1,-1,-1,-1],"loss_changes":[7.659334E0,6.006703E0,3.946967E0,3.5741506E0,0E0,4.6317525E0,0E0,0E0,0E0,3.997138E0,2.6776147E0,0E0,4.4482427E0,0E0,0E0,0E0,0E0],"parents":[2147483647,0,0,1,1,2,2,3,3,5,5,9,9,10,10,12,12],"right_children":[2,4,6,8,-1,10,-1,-1,-1,12,14,-1,16,-1,-1,-1,-1],"split_conditions":[1.3653859E0,2.2693194E-1,1.1087279E0,1.03E2,1.6002461E-1,5.8172207E0,-1.4972322E-1,-5.090825E-2,8.382658E-2,5.6569475E-1,-8.1936065E-3,4.3339238E-2,1.5051783E0,-7.021239E-3,1.19398005E-1,-1.4263065E-1,-6.612186E-3],"split_indices":[0,2,5,10,0,7,0,0,0,5,4,0,0,0,0,0,0],"split_type":[0,0,0,0,0,0,0,0,0,0,0,0,0,0,0,0,0],"sum_hessian":[7.1690765E1,2.4257877E1,4.7432888E1,1.6087152E1,8.170726E0,4.2124504E1,5.308387E0,9.312389E0,6.774763E0,2.7838367E1,1.4286136E1,6.3066907E0,2.1531677E1,8.850267E0,5.435868E0,1.2187083E1,9.344593E0],"tree_param":{"num_deleted":"0","num_feature":"15","num_nodes":"17","size_leaf_vector":"1"}},{"base_weights":[9.324922E-3,-1.2925616E-1,1.4495574E-1,-8.1983024E-1,4.091512E-2,-5.3908933E-2,-1.6563869E-1,-2.0781991E-1,5.4835653E-1,-1.1487115E-1,-2.853242E-2,1.3093588E-1,1.0413771E-2,-3.7262395E-2,6.760048E-2],"categories":[],"categories_nodes":[],"categories_segments":[],"categories_sizes":[],"default_left":[0,0,0,0,0,0,0,0,0,0,0,0,0,0,0],"id":14,"left_children":[1,3,-1,5,7,-1,-1,9,11,-1,13,-1,-1,-1,-1],"loss_changes":[9.157337E0,7.128111E0,0E0,1.1724501E0,6.347649E0,0E0,0E0,3.3662767E0,2.5072842E0,0E0,2.9221954E0,0E0,0E0,0E0,0E0],"parents":[2147483647,0,0,1,1,3,3,4,4,7,7,8,8,10,10],"right_children":[2,4,-1,6,8,-1,-1,10,12,-1,14,-1,-1,-1,-1],"split_conditions":[3E0,2.236068E-2,1.4495574E-1,1.1686317E-1,5.8172207E0,-5.3908933E-2,-1.6563869E-1,7.2E1,1.1436898E1,-1.1487115E-1,1.5043757E0,1.3093588E-1,1.0413771E-2,-3.7262395E-2,6.760048E-2],"split_indices":[14,6,0,8,7,0,0,10,7,0,0,0,0,0,0],"split_type":[0,0,0,0,0,0,0,0,0,0,0,0,0,0,0],"sum_hessian":[6.710319E1,5.9371143E1,7.7320437E0,1.0983045E1,4.8388096E1,5.058234E0,5.92481E0,3.2867653E1,1.5520443E1,7.197094E0,2.567056E1,8.760948E0,6.759495E0,1.7926521E1,7.744038E0],"tree_param":{"num_deleted":"0","num_feature":"15","num_nodes":"15","size_leaf_vector":"1"}},{"base_weights":[-5.173772E-2,-1.011956E-1,5.818086E-2,3.6451375E-1,-1.7510214E-1,6.677513E-1,2.3896186E-2,7.140216E-2,-1.2519482E-1,1.977911E-2,1.5310208E-1,-9.852387E-2,9.484446E-2,9.2204556E-2,-1.6384095E-1,-1.04387805E-1,1.6757559E-2],"categories":[],"categories_nodes":[],"categories_segments":[],"categories_sizes":[],"default_left":[0,0,0,0,0,0,0,0,0,0,0,0,0,0,0,0,0],"id":15,"left_children":[1,-1,3,5,7,9,11,13,-1,-1,-1,-1,-1,-1,15,-1,-1],"loss_changes":[4.9481163E0,0E0,4.4846396E0,2.7798781E0,5.878853E0,2.566739E0,6.1246057E0,3.5484989E0,0E0,0E0,0E0,0E0,0E0,0E0,2.9536526E0,0E0,0E0],"parents":[2147483647,0,0,2,2,3,3,4,4,5,5,6,6,7,7,14,14],"right_children":[2,-1,4,6,8,10,12,14,-1,-1,-1,-1,-1,-1,16,-1,-1],"split_conditions":[6.8E1,-1.011956E-1,1.3939743E0,8.9034754E-1,1.08E2,8.561317E-2,1.03E2,7.325358E-1,-1.2519482E-1,1.977911E-2,1.5310208E-1,-9.852387E-2,9.484446E-2,9.2204556E-2,1.5074506E-2,-1.04387805E-1,1.6757559E-2],"split_indices":[10,0,0,1,11,8,10,1,0,0,0,0,0,0,12,0,0],"split_type":[0,0,0,0,0,0,0,0,0,0,0,0,0,0,0,0,0],"sum_hessian":[7.069551E1,9.833314E0,6.0862198E1,2.606833E1,3.4793865E1,1.3282798E1,1.2785533E1,2.5976639E1,8.817227E0,5.8197145E0,7.4630833E0,5.996557E0,6.7889752E0,7.36171E0,1.8614927E1,5.8307624E0,1.2784166E1],"tree_param":{"num_deleted":"0","num_feature":"15","num_nodes":"17","size_leaf_vector":"1"}},{"base_weights":[-6.81855E-2,-2.1291067E-1,6.088218E-1,-5.1911306E-1,2.1993807E-1,1.3792166E-1,2.4191422E-2,-8.504577E-1,-3.1305867E-1,-8.687308E-2,5.400969E-1,-3.4112006E-2,-1.9425441E-1,3.614607E-3,-1.5912408E-1,1.5729648E-1,2.11789E-2,6.173029E-2,-8.690057E-2],"categories":[],"categories_nodes":[],"categories_segments":[],"categories_sizes":[],"default_left":[0,0,0,0,0,0,0,0,0,0,0,0,0,0,0,0,0,0,0],"id":16,"left_children":[1,3,5,7,9,-1,-1,11,13,-1,15,-1,-1,17,-1,-1,-1,-1,-1],"loss_changes":[6.583431E0,7.404975E0,1.5006394E0,1.9537277E0,6.3232822E0,0E0,0E0,2.9974098E0,5.125883E0,0E0,3.3595462E0,0E0,0E0,4.088829E0,0E0,0E0,0E0,0E0,0E0],"parents":[2147483647,0,0,1,1,2,2,3,3,4,4,7,7,8,8,10,10,13,13],"right_children":[2,4,6,8,10,-1,-1,12,14,-1,16,-1,-1,18,-1,-1,-1,-1,-1],"split_conditions":[2E0,8.0414474E-2,1.3946733E0,3.786415E0,2.6497576E-1,1.3792166E-1,2.4191422E-2,-5.56396E-2,9.5205504E-1,-8.687308E-2,-7.205105E-2,-3.4112006E-2,-1.9425441E-1,9.9E1,-1.5912408E-1,1.5729648E-1,2.11789E-2,6.173029E-2,-8.690057E-2],"split_indices":[14,9,0,7,3,0,0,4,5,0,4,0,0,10,0,0,0,0,0],"split_type":[0,0,0,0,0,0,0,0,0,0,0,0,0,0,0,0,0,0,0],"sum_hessian":[6.486861E1,5.40086E1,1.0860011E1,3.1515123E1,2.2493473E1,5.7879314E0,5.0720797E0,1.08847E1,2.0630424E1,6.2028E0,1.6290672E1,5.1619816E0,5.7227182E0,1.5191939E1,5.4384847E0,6.4451776E0,9.845495E0,9.1107435E0,6.0811963E0],"tree_param":{"num_deleted":"0","num_feature":"15","num_nodes":"19","size_leaf_vector":"1"}},{"base_weights":[-2.912842E-3,-8.288931E-2,1.0441945E-1,-1.02790736E-1,-3.0983058E-3,-7.146857E-2,8.2235E-2,-5.1700467E-1,1.4018692E-1,-1.4393604E-1,1.1673238E-2,1.0113945E-1,3.5114512E-3],"categories":[],"categories_nodes":[],"categories_segments":[],"categories_sizes":[],"default_left":[0,0,0,0,0,0,0,0,0,0,0,0,0],"id":17,"left_children":[1,3,-1,-1,5,7,-1,9,11,-1,-1,-1,-1],"loss_changes":[3.7352867E0,2.877953E0,0E0,0E0,2.071554E0,4.6793094E0,0E0,4.27272E0,2.0988603E0,0E0,0E0,0E0,0E0],"parents":[2147483647,0,0,1,1,4,4,5,5,7,7,8,8],"right_children":[2,4,-1,-1,6,8,-1,10,12,-1,-1,-1,-1],"split_conditions":[1E0,5.6E1,1.0441945E-1,-1.02790736E-1,8.973635E-2,3.227486E-2,8.2235E-2,1.9508772E-1,6.666667E-2,-1.4393604E-1,1.1673238E-2,1.0113945E-1,3.5114512E-3],"split_indices":[13,11,0,0,4,6,0,9,6,0,0,0,0],"split_type":[0,0,0,0,0,0,0,0,0,0,0,0,0],"sum_hessian":[6.4780464E1,5.8920837E1,5.8596253E0,6.0041523E0,5.2916687E1,4.7852856E1,5.0638294E0,1.494689E1,3.2905968E1,8.218716E0,6.7281747E0,5.047501E0,2.7858465E1],"tree_param":{"num_deleted":"0","num_feature":"15","num_nodes":"13","size_leaf_vector":"1"}},{"base_weights":[3.414066E-2,-5.406779E-2,1.15520455E-1,-9.559978E-2,7.201093E-2,-2.2647105E-1,4.1924697E-1,6.938313E-2,-4.1270578E-1,1.0599813E-2,6.849486E-1,-9.929785E-2,3.4009447E-4,1.5416679E-1,4.496493E-2],"categories":[],"categories_nodes":[],"categories_segments":[],"categories_sizes":[],"default_left":[0,0,0,0,0,0,0,0,0,0,0,0,0,0,0],"id":18,"left_children":[1,3,-1,-1,5,7,9,-1,11,-1,13,-1,-1,-1,-1],"loss_changes":[4.0669327E0,4.1861553E0,0E0,0E0,4.986207E0,3.5307465E0,2.004548E0,0E0,2.175682E0,0E0,1.3376822E0,0E0,0E0,0E0,0E0],"parents":[2147483647,0,0,1,1,4,4,5,5,6,6,8,8,10,10],"right_children":[2,4,-1,-1,6,8,10,-1,12,-1,14,-1,-1,-1,-1],"split_conditions":[1.6148512E0,7.3E1,1.15520455E-1,-9.559978E-2,-3.2954894E-2,7.276092E-1,1.7353126E-1,6.938313E-2,7.751432E-1,1.0599813E-2,1.3774996E0,-9.929785E-2,3.4009447E-4,1.5416679E-1,4.496493E-2],"split_indices":[0,10,0,0,4,1,2,0,5,0,0,0,0,0,0],"split_type":[0,0,0,0,0,0,0,0,0,0,0,0,0,0,0],"sum_hessian":[6.100291E1,5.5301598E1,5.7013116E0,9.108575E0,4.6193024E1,2.5027409E1,2.1165617E1,5.009544E0,2.0017864E1,9.702538E0,1.14630785E1,1.2133724E1,7.88414E0,5.1823025E0,6.2807755E0],"tree_param":{"num_deleted":"0","num_feature":"15","num_nodes":"15","size_leaf_vector":"1"}},{"base_weights":[-5.1695194E-2,-3.7813905E-1,1.4177239E-1,1.07664876E-1,-7.5910205E-1,-2.8617194E-1,3.2852307E-1,-6.3130975E-2,9.297595E-2,-1.525115E-1,-5.8696732E-2,1.5709633E-2,-8.5571E-2,-3.8850114E-2,5.428367E-1,6.182418E-3,8.07321E-1,1.5218186E-1,6.2958844E-2],"categories":[],"categories_nodes":[],"categories_segments":[],"categories_sizes":[],"default_left":[0,0,0,0,0,0,0,0,0,0,0,0,0,0,0,0,0,0,0],"id":19,"left_children":[1,3,5,7,9,11,13,-1,-1,-1,-1,-1,-1,-1,15,-1,17,-1,-1],"loss_changes":[4.128412E0,4.5755663E0,3.3897042E0,3.386958E0,9.0348625E-1,1.5114878E0,3.8141444E0,0E0,0E0,0E0,0E0,0E0,0E0,0E0,2.8457007E0,0E0,7.1107197E-1,0E0,0E0],"parents":[2147483647,0,0,1,1,2,2,3,3,4,4,5,5,6,6,14,14,16,16],"right_children":[2,4,6,8,10,12,14,-1,-1,-1,-1,-1,-1,-1,16,-1,18,-1,-1],"split_conditions":[3.786415E0,9.992852E-2,1.6454546E-1,3.0507854E-1,1.7808013E-2,9.560048E-2,-8.217558E-2,-6.3130975E-2,9.297595E-2,-1.525115E-1,-5.8696732E-2,1.5709633E-2,-8.5571E-2,-3.8850114E-2,2.9462783E-2,6.182418E-3,2.5875E-1,1.5218186E-1,6.2958844E-2],"split_indices":[7,8,2,3,12,2,4,0,0,0,0,0,0,0,6,0,2,0,0],"split_type":[0,0,0,0,0,0,0,0,0,0,0,0,0,0,0,0,0,0,0],"sum_hessian":[6.3519325E1,2.3281385E1,4.0237938E1,1.0547985E1,1.27334E1,1.206296E1,2.817498E1,5.278799E0,5.269186E0,6.4503775E0,6.283023E0,5.3451777E0,6.717782E0,7.4748263E0,2.0700153E1,7.545397E0,1.3154757E1,7.517858E0,5.6368985E0],"tree_param":{"num_deleted":"0","num_feature":"15","num_nodes":"19","size_leaf_vector":"1"}},{"base_weights":[5.6659516E-2,-4.4482222E-1,1.8591294E-1,-1.0718156E-1,-1.8509809E-2,-8.056912E-2,4.355609E-1,1.4299193E-1,-9.967955E-2,-1.7265563E-3,5.8349043E-1,-3.5498038E-2,7.83197E-2,1.1624836E-1,5.1785525E-2],"categories":[],"categories_nodes":[],"categories_segments":[],"categories_sizes":[],"default_left":[0,0,0,0,0,0,0,0,0,0,0,0,0,0,0],"id":20,"left_children":[1,3,5,-1,-1,7,9,11,-1,-1,13,-1,-1,-1,-1],"loss_changes":[4.163356E0,1.0558422E0,3.4119554E0,0E0,0E0,3.4104784E0,1.7502766E0,2.8854566E0,0E0,0E0,6.371231E-1,0E0,0E0,0E0,0E0],"parents":[2147483647,0,0,1,1,2,2,5,5,6,6,7,7,10,10],"right_children":[2,4,6,-1,-1,8,10,12,-1,-1,14,-1,-1,-1,-1],"split_conditions":[7.3E1,5.15311E0,-5.020805E-2,-1.0718156E-1,-1.8509809E-2,1.5351751E0,1.3154498E0,2.8232762E-1,-9.967955E-2,-1.7265563E-3,1.4306039E0,-3.5498038E-2,7.83197E-2,1.1624836E-1,5.1785525E-2],"split_indices":[10,7,4,0,0,0,0,3,0,0,0,0,0,0,0],"split_type":[0,0,0,0,0,0,0,0,0,0,0,0,0,0,0],"sum_hessian":[6.1955402E1,1.2195893E1,4.975951E1,5.966263E0,6.22963E0,2.4395868E1,2.5363642E1,1.8187994E1,6.207874E0,6.535201E0,1.882844E1,9.275713E0,8.912281E0,9.189499E0,9.638941E0],"tree_param":{"num_deleted":"0","num_feature":"15","num_nodes":"15","size_leaf_vector":"1"}},{"base_weights":[3.4473497E-2,-7.468763E-2,1.0792652E-1,-1.6337158E-1,7.772906E-2,9.220037E-2,-4.0885144E-1,5.058436E-1,-3.2141492E-1,-6.5730464E-1,8.60621E-3,-1.3533714E-2,1.47524E-1,2.4033714E-2,-1.02141775E-1,-3.6857575E-2,-1.6036785E-1],"categories":[],"categories_nodes":[],"categories_segments":[],"categories_sizes":[],"default_left":[0,0,0,0,0,0,0,0,0,0,0,0,0,0,0,0,0],"id":21,"left_children":[1,3,-1,5,-1,7,9,11,13,15,-1,-1,-1,-1,-1,-1,-1],"loss_changes":[4.5930095E0,2.885268E0,0E0,2.9922898E0,0E0,4.2497125E0,2.8415623E0,3.5999622E0,2.2834053E0,2.4273758E0,0E0,0E0,0E0,0E0,0E0,0E0,0E0],"parents":[2147483647,0,0,1,1,3,3,5,5,6,6,7,7,8,8,9,9],"right_children":[2,4,-1,6,-1,8,10,12,14,16,-1,-1,-1,-1,-1,-1,-1],"split_conditions":[2E0,2.1972788E-2,1.0792652E-1,1.7174134E-2,7.772906E-2,8.5357887E-1,1.06E2,1.4203175E0,2.9462783E-2,-5.255056E-2,8.60621E-3,-1.3533714E-2,1.47524E-1,2.4033714E-2,-1.02141775E-1,-3.6857575E-2,-1.6036785E-1],"split_indices":[14,12,0,12,0,5,10,0,6,4,0,0,0,0,0,0,0],"split_type":[0,0,0,0,0,0,0,0,0,0,0,0,0,0,0,0,0],"sum_hessian":[5.970219E1,5.2264736E1,7.437454E0,4.609433E1,6.1704044E0,2.288887E1,2.3205462E1,1.1332562E1,1.1556309E1,1.4870885E1,8.334576E0,5.4021816E0,5.9303803E0,5.1762996E0,6.3800087E0,8.236045E0,6.6348395E0],"tree_param":{"num_deleted":"0","num_feature":"15","num_nodes":"17","size_leaf_vector":"1"}},{"base_weights":[4.3870065E-2,-2.557874E-1,3.7324634E-1,1.5180987E-1,-4.732357E-1,5.1377688E-2,7.714168E-1,1.0565146E-1,-5.819842E-2,-7.2335756E-1,1.32829035E-2,-6.5085724E-2,3.132803E-1,5.756626E-2,1.5881732E-1,-1.4025211E-1,-4.670463E-2,8.938938E-2,-8.330799E-4],"categories":[],"categories_nodes":[],"categories_segments":[],"categories_sizes":[],"default_left":[0,0,0,0,0,0,0,0,0,0,0,0,0,0,0,0,0,0,0],"id":22,"left_children":[1,3,5,7,9,11,13,-1,-1,15,-1,-1,17,-1,-1,-1,-1,-1,-1],"loss_changes":[5.8046203E0,2.808909E0,3.5439281E0,3.7033947E0,2.9278946E0,2.237335E0,9.780879E-1,0E0,0E0,9.4811296E-1,0E0,0E0,1.0233699E0,0E0,0E0,0E0,0E0,0E0,0E0],"parents":[2147483647,0,0,1,1,2,2,3,3,4,4,5,5,6,6,9,9,12,12],"right_children":[2,4,6,8,10,12,14,-1,-1,16,-1,-1,18,-1,-1,-1,-1,-1,-1],"split_conditions":[6.5299764E-2,7.2568184E-1,5.8172207E0,1.4352757E0,9.855637E0,2.551552E-2,1.5207747E-1,1.0565146E-1,-5.819842E-2,2.9800332E-1,1.32829035E-2,-6.5085724E-2,9.7E1,5.756626E-2,1.5881732E-1,-1.4025211E-1,-4.670463E-2,8.938938E-2,-8.330799E-4],"split_indices":[9,1,7,0,7,6,2,0,0,2,0,0,11,0,0,0,0,0,0],"split_type":[0,0,0,0,0,0,0,0,0,0,0,0,0,0,0,0,0,0,0],"sum_hessian":[5.6843414E1,2.9881485E1,2.6961931E1,1.0500541E1,1.9380943E1,1.5533869E1,1.1428063E1,5.03843E0,5.4621105E0,1.3211337E1,6.169606E0,5.214717E0,1.0319152E1,5.8594484E0,5.5686145E0,7.8889823E0,5.3223543E0,5.009291E0,5.3098607E0],"tree_param":{"num_deleted":"0","num_feature":"15","num_nodes":"19","size_leaf_vector":"1"}},{"base_weights":[1.4416064E-2,8.6382814E-2,-1.0369515E-1,2.4421379E-2,-1.236386E-1,-6.524574E-2,1.7675564E-1,1.3047399E-1,-4.221146E-2,2.5977502E-2,-7.9333656E-2],"categories":[],"categories_nodes":[],"categories_segments":[],"categories_sizes":[],"default_left":[0,0,0,0,0,0,0,0,0,0,0],"id":23,"left_children":[1,-1,3,5,-1,-1,7,-1,9,-1,-1],"loss_changes":[3.9199424E0,0E0,4.538096E0,3.0527315E0,0E0,0E0,4.990944E0,0E0,2.7921052E0,0E0,0E0],"parents":[2147483647,0,0,2,2,3,3,6,6,8,8],"right_children":[2,-1,4,6,-1,-1,8,-1,10,-1,-1],"split_conditions":[5.6569475E-1,8.6382814E-2,1.37E2,7.2E1,-1.236386E-1,-6.524574E-2,8.2E1,1.3047399E-1,1.0886542E0,2.5977502E-2,-7.9333656E-2],"split_indices":[5,0,10,10,0,0,11,0,1,0,0],"split_type":[0,0,0,0,0,0,0,0,0,0,0],"sum_hessian":[5.7209724E1,9.269446E0,4.794028E1,4.152348E1,6.4168E0,9.878277E0,3.1645203E1,6.883922E0,2.476128E1,1.7611105E1,7.1501756E0],"tree_param":{"num_deleted":"0","num_feature":"15","num_nodes":"11","size_leaf_vector":"1"}},{"base_weights":[6.4119855E-3,-7.592744E-2,8.077382E-2,-3.714215E-1,1.417726E-1,-8.506168E-2,-1.1126579E-1,-6.7553304E-2,3.152346E-1,3.7533816E-2,-8.160271E-2,1.216703E-1,1.4040895E-1,8.3319396E-2,-3.2420542E-2],"categories":[],"categories_nodes":[],"categories_segments":[],"categories_sizes":[],"default_left":[0,0,0,0,0,0,0,0,0,0,0,0,0,0,0],"id":24,"left_children":[1,3,-1,5,7,9,-1,-1,11,-1,-1,-1,13,-1,-1],"loss_changes":[2.597903E0,3.3604186E0,0E0,2.2794838E0,3.2572873E0,2.2268295E0,0E0,0E0,1.9708779E0,0E0,0E0,0E0,2.9300582E0,0E0,0E0],"parents":[2147483647,0,0,1,1,3,3,4,4,5,5,8,8,12,12],"right_children":[2,4,-1,6,8,10,-1,-1,12,-1,-1,-1,14,-1,-1],"split_conditions":[2E0,2.6497576E-1,8.077382E-2,8.0793303E-1,1.4970305E-2,1.6362724E-1,-1.1126579E-1,-6.7553304E-2,1.3935403E0,3.7533816E-2,-8.160271E-2,1.216703E-1,-7.205105E-2,8.3319396E-2,-3.2420542E-2],"split_indices":[14,3,0,5,12,9,0,0,0,0,0,0,4,0,0],"split_type":[0,0,0,0,0,0,0,0,0,0,0,0,0,0,0],"sum_hessian":[5.7364487E1,5.0419388E1,6.9451013E0,2.108867E1,2.9330715E1,1.258639E1,8.502282E0,6.283875E0,2.304684E1,7.5358934E0,5.0504956E0,5.0585003E0,1.798834E1,8.054376E0,9.933966E0],"tree_param":{"num_deleted":"0","num_feature":"15","num_nodes":"15","size_leaf_vector":"1"}},{"base_weights":[-3.4007706E-2,-2.7241454E-1,2.7331948E-1,-4.6897668E-1,7.7818364E-2,-1.8557774E-2,4.538107E-1,-7.331269E-1,-8.52178E-3,-5.561646E-2,7.491313E-2,6.02126E-1,2.0060731E-2,-1.5228692E-1,-5.8524776E-2,3.396709E-2,1.315893E-1],"categories":[],"categories_nodes":[],"categories_segments":[],"categories_sizes":[],"default_left":[0,0,0,0,0,0,0,0,0,0,0,0,0,0,0,0,0],"id":25,"left_children":[1,3,5,7,9,-1,11,13,-1,-1,-1,15,-1,-1,-1,-1,-1],"loss_changes":[4.4510245E0,2.3867185E0,1.9619085E0,2.3545542E0,2.6684387E0,0E0,7.9754925E-1,8.9354277E-1,0E0,0E0,0E0,1.0783205E0,0E0,0E0,0E0,0E0,0E0],"parents":[2147483647,0,0,1,1,2,2,3,3,4,4,6,6,7,7,11,11],"right_children":[2,4,6,8,10,-1,12,14,-1,-1,-1,16,-1,-1,-1,-1,-1],"split_conditions":[2.1099725E-1,5.8172207E0,3.786415E0,1.9508837E-1,2.4137898E-1,-1.8557774E-2,9.1283643E-1,7.663952E-1,-8.52178E-3,-5.561646E-2,7.491313E-2,1.4352757E0,2.0060731E-2,-1.5228692E-1,-5.8524776E-2,3.396709E-2,1.315893E-1],"split_indices":[2,7,7,9,3,0,5,5,0,0,0,0,0,0,0,0,0],"split_type":[0,0,0,0,0,0,0,0,0,0,0,0,0,0,0,0,0],"sum_hessian":[5.8732956E1,3.3139122E1,2.5593834E1,2.1009092E1,1.2130031E1,8.096968E0,1.7496866E1,1.2328939E1,8.680153E0,5.935295E0,6.194736E0,1.1354293E1,6.142574E0,5.688976E0,6.639963E0,5.570798E0,5.783495E0],"tree_param":{"num_deleted":"0","num_feature":"15","num_nodes":"17","size_leaf_vector":"1"}},{"base_weights":[-7.383991E-2,1.8883798E-1,-1.995059E-1,5.4727525E-1,-5.213813E-2,-7.922797E-2,-1.2121478E-1,9.347216E-3,1.4545707E-1,-3.7798765E-1,1.2346968E-1,-9.640104E-2,-6.2666135E-4,-4.7436602E-2,3.2749307E-1,1.0442332E-1,3.759748E-3],"categories":[],"categories_nodes":[],"categories_segments":[],"categories_sizes":[],"default_left":[0,0,0,0,0,0,0,0,0,0,0,0,0,0,0,0,0],"id":26,"left_children":[1,3,5,7,-1,9,-1,-1,-1,11,13,-1,-1,-1,15,-1,-1],"loss_changes":[1.8678294E0,3.738618E0,2.7167218E0,2.2855234E0,0E0,2.0346708E0,0E0,0E0,0E0,1.3346088E0,1.9258132E0,0E0,0E0,0E0,1.5842489E0,0E0,0E0],"parents":[2147483647,0,0,1,1,2,2,3,3,5,5,9,9,10,10,14,14],"right_children":[2,4,6,8,-1,10,-1,-1,-1,12,14,-1,-1,-1,16,-1,-1],"split_conditions":[8.2E1,2.517361E-1,1.533552E0,6.9E1,-5.213813E-2,1.3502067E0,-1.2121478E-1,9.347216E-3,1.4545707E-1,1.9332096E-2,-7.760378E-2,-9.640104E-2,-6.2666135E-4,-4.7436602E-2,1.4252297E0,1.0442332E-1,3.759748E-3],"split_indices":[11,2,0,10,0,0,0,0,0,12,4,0,0,0,0,0,0],"split_type":[0,0,0,0,0,0,0,0,0,0,0,0,0,0,0,0,0],"sum_hessian":[5.444299E1,1.7454788E1,3.69882E1,1.0451149E1,7.0036397E0,3.1828104E1,5.160099E0,5.399743E0,5.051406E0,1.2515903E1,1.93122E1,6.906396E0,5.609508E0,5.9464025E0,1.3365797E1,5.4366226E0,7.9291744E0],"tree_param":{"num_deleted":"0","num_feature":"15","num_nodes":"17","size_leaf_vector":"1"}},{"base_weights":[-2.1717787E-2,-3.0192155E-1,1.1479285E-1,5.3118207E-2,-8.0983007E-1,2.3009627E-1,-6.71358E-2,-1.4762996E-1,-7.507161E-2,-1.6019358E-1,4.199111E-1,4.5185313E-2,-8.187297E-2,-1.863374E-2,6.287026E-1,1.2939373E-1,4.0066272E-2],"categories":[],"categories_nodes":[],"categories_segments":[],"categories_sizes":[],"default_left":[0,0,0,0,0,0,0,0,0,0,0,0,0,0,0,0,0],"id":27,"left_children":[1,3,5,-1,7,9,-1,-1,-1,11,13,-1,-1,-1,15,-1,-1],"loss_changes":[2.2850296E0,6.8004084E0,2.715096E0,0E0,1.18171215E-1,2.592761E0,0E0,0E0,0E0,2.278055E0,2.715207E0,0E0,0E0,0E0,1.2024508E0,0E0,0E0],"parents":[2147483647,0,0,1,1,2,2,4,4,5,5,9,9,10,10,14,14],"right_children":[2,4,6,-1,8,10,-1,-1,-1,12,14,-1,-1,-1,16,-1,-1],"split_conditions":[7.121615E-1,5.6569475E-1,1.38E2,5.3118207E-2,9.560048E-2,7.3E1,-6.71358E-2,-1.4762996E-1,-7.507161E-2,6.3E1,-9.729963E-2,4.5185313E-2,-8.187297E-2,-1.863374E-2,9.4E1,1.2939373E-1,4.0066272E-2],"split_indices":[5,5,10,0,2,10,0,0,0,10,4,0,0,0,10,0,0],"split_type":[0,0,0,0,0,0,0,0,0,0,0,0,0,0,0,0,0],"sum_hessian":[5.7832016E1,1.8548134E1,3.9283882E1,8.225896E0,1.0322238E1,3.3090145E1,6.193734E0,5.206221E0,5.116017E0,1.0878418E1,2.2211727E1,5.0520835E0,5.826335E0,6.271768E0,1.593996E1,8.837316E0,7.1026444E0],"tree_param":{"num_deleted":"0","num_feature":"15","num_nodes":"17","size_leaf_vector":"1"}},{"base_weights":[9.6223986E-4,1.176372E-1,-8.269469E-2,-2.934768E-1,3.0123657E-1,-1.1096225E-1,5.0544012E-2,-1.0982572E-1,6.099808E-1,-7.320296E-2,5.149387E-2,1.373796E-1,3.6254797E-2],"categories":[],"categories_nodes":[],"categories_segments":[],"categories_sizes":[],"default_left":[0,0,0,0,0,0,0,0,0,0,0,0,0],"id":28,"left_children":[1,3,-1,5,7,-1,-1,9,11,-1,-1,-1,-1],"loss_changes":[3.5726595E0,3.543015E0,0E0,4.367072E0,4.144999E0,0E0,0E0,2.6745949E0,1.8629632E0,0E0,0E0,0E0,0E0],"parents":[2147483647,0,0,1,1,3,3,4,4,7,7,8,8],"right_children":[2,4,-1,6,8,-1,-1,10,12,-1,-1,-1,-1],"split_conditions":[1.37E2,7.6E1,-8.269469E-2,3.140159E-1,1.6970137E-1,-1.1096225E-1,5.0544012E-2,2.1134524E-1,2.0573708E-1,-7.320296E-2,5.149387E-2,1.373796E-1,3.6254797E-2],"split_indices":[10,10,0,3,2,0,0,9,8,0,0,0,0],"split_type":[0,0,0,0,0,0,0,0,0,0,0,0,0],"sum_hessian":[5.3439514E1,4.476837E1,8.671141E0,1.3636094E1,3.1132278E1,7.8827147E0,5.7533793E0,1.3629816E1,1.7502462E1,7.3871355E0,6.2426805E0,8.748986E0,8.753476E0],"tree_param":{"num_deleted":"0","num_feature":"15","num_nodes":"13","size_leaf_vector":"1"}},{"base_weights":[-1.1653374E-2,-2.3028545E-1,3.9819178E-1,-3.6608106E-1,6.462892E-2,6.3441926E-1,-3.566824E-2,-5.7851132E-2,-9.4632894E-1,1.3696069E-1,5.0087977E-2,-6.2674746E-2,2.5131384E-1,-8.809136E-2,-1.7258659E-1,1.14616655E-1,-5.792534E-2],"categories":[],"categories_nodes":[],"categories_segments":[],"categories_sizes":[],"default_left":[0,0,0,0,0,0,0,0,0,0,0,0,0,0,0,0,0],"id":29,"left_children":[1,3,5,7,-1,9,-1,11,13,-1,-1,-1,15,-1,-1,-1,-1],"loss_changes":[5.302934E0,3.6196337E0,3.2454288E0,5.7632074E0,0E0,9.755745E-1,0E0,2.5879314E0,1.4713192E-1,0E0,0E0,0E0,4.422638E0,0E0,0E0,0E0,0E0],"parents":[2147483647,0,0,1,1,2,2,3,3,5,5,7,7,8,8,12,12],"right_children":[2,4,6,8,-1,10,-1,12,14,-1,-1,-1,16,-1,-1,-1,-1],"split_conditions":[5.8172207E0,1.5795342E0,1.43E2,1.4598123E0,6.462892E-2,1.4254515E-1,-3.566824E-2,1.4508192E-1,7.744453E-1,1.3696069E-1,5.0087977E-2,-6.2674746E-2,2.0102067E-1,-8.809136E-2,-1.7258659E-1,1.14616655E-1,-5.792534E-2],"split_indices":[7,0,10,0,0,8,0,8,1,0,0,0,8,0,0,0,0],"split_type":[0,0,0,0,0,0,0,0,0,0,0,0,0,0,0,0,0],"sum_hessian":[5.715768E1,3.755961E1,1.9598072E1,3.152984E1,6.0297675E0,1.4291947E1,5.306125E0,2.130973E1,1.0220111E1,6.3578377E0,7.9341097E0,9.683329E0,1.1626401E1,5.1108756E0,5.1092353E0,6.333243E0,5.2931585E0],"tree_param":{"num_deleted":"0","num_feature":"15","num_nodes":"17","size_leaf_vector":"1"}},{"base_weights":[-3.1082436E-2,9.787916E-2,-3.1127384E-1,-2.2514132E-1,2.6359746E-1,2.8332695E-2,-6.3177043E-1,1.5970765E-2,-9.898267E-2,6.860358E-2,1.1276531E-1,-1.6435115E-1,-1.0986416E-2,9.1608964E-2,-3.2404825E-1,-1.098815E-1,2.718748E-2],"categories":[],"categories_nodes":[],"categories_segments":[],"categories_sizes":[],"default_left":[0,0,0,0,0,0,0,0,0,0,0,0,0,0,0,0,0],"id":30,"left_children":[1,3,5,7,9,-1,11,-1,-1,13,-1,-1,-1,-1,15,-1,-1],"loss_changes":[2.1146648E0,2.2145014E0,3.0719461E0,2.1160634E0,2.5252123E0,0E0,2.8880625E0,0E0,0E0,4.54968E0,0E0,0E0,0E0,0E0,2.7149258E0,0E0,0E0],"parents":[2147483647,0,0,1,1,2,2,3,3,4,4,6,6,9,9,14,14],"right_children":[2,4,6,8,10,-1,12,-1,-1,14,-1,-1,-1,-1,16,-1,-1],"split_conditions":[8.8069046E-1,2.4382205E-1,1.4031211E0,2.3115903E-1,2.6953378E-1,2.8332695E-2,3.0498922E-1,1.5970765E-2,-9.898267E-2,1.4063056E0,1.1276531E-1,-1.6435115E-1,-1.0986416E-2,9.1608964E-2,3.081278E-1,-1.098815E-1,2.718748E-2],"split_indices":[5,3,0,3,2,0,3,0,0,0,0,0,0,0,3,0,0],"split_type":[0,0,0,0,0,0,0,0,0,0,0,0,0,0,0,0,0],"sum_hessian":[5.6679794E1,3.9260384E1,1.741941E1,1.3190565E1,2.6069817E1,6.9633074E0,1.0456103E1,7.9111767E0,5.279389E0,1.9443777E1,6.6260405E0,5.186534E0,5.2695694E0,7.9340615E0,1.1509715E1,6.1158175E0,5.393898E0],"tree_param":{"num_deleted":"0","num_feature":"15","num_nodes":"17","size_leaf_vector":"1"}},{"base_weights":[-9.021026E-3,-7.85365E-2,7.138912E-2,-7.7283554E-2,2.1306705E-2,2.5590515E-1,-1.7027393E-1,5.086196E-1,-1.6537912E-2,-4.4030738E-1,4.17616E-2,1.4064133E-1,1.3595254E-3,-1.2514096E-1,2.341593E-2],"categories":[],"categories_nodes":[],"categories_segments":[],"categories_sizes":[],"default_left":[0,0,0,0,0,0,0,0,0,0,0,0,0,0,0],"id":31,"left_children":[1,3,-1,-1,5,7,9,11,-1,13,-1,-1,-1,-1,-1],"loss_changes":[1.9077176E0,2.1641054E0,0E0,0E0,1.8932155E0,1.8049089E0,2.9400864E0,2.426017E0,0E0,3.6323497E0,0E0,0E0,0E0,0E0,0E0],"parents":[2147483647,0,0,1,1,4,4,5,5,6,6,7,7,9,9],"right_children":[2,4,-1,-1,6,8,10,12,-1,14,-1,-1,-1,-1,-1],"split_conditions":[1.5992173E0,1.3704033E-2,7.138912E-2,-7.7283554E-2,1.8231293E-2,2.5537783E-1,1.8635613E-1,5.7495117E0,-1.6537912E-2,2.153439E-2,4.17616E-2,1.4064133E-1,1.3595254E-3,-1.2514096E-1,2.341593E-2],"split_indices":[0,12,0,0,12,2,2,7,0,12,0,0,0,0,0],"split_type":[0,0,0,0,0,0,0,0,0,0,0,0,0,0,0],"sum_hessian":[5.448089E1,4.8383373E1,6.097517E0,8.229488E0,4.0153885E1,1.7899475E1,2.2254408E1,1.0360089E1,7.539386E0,1.3904739E1,8.3496685E0,5.1019506E0,5.258138E0,8.133365E0,5.7713747E0],"tree_param":{"num_deleted":"0","num_feature":"15","num_nodes":"15","size_leaf_vector":"1"}},{"base_weights":[-1.7609239E-2,-3.6530426E-1,1.386571E-1,-5.138699E-3,-1.13779165E-1,-1.3366613E-1,3.9003766E-1,2.1652393E-1,-1.2822124E-1,1.1740432E-1,1.4967526E-1,-4.3907907E-2,8.0805205E-2,-2.9757045E-2,7.266889E-2],"categories":[],"categories_nodes":[],"categories_segments":[],"categories_sizes":[],"default_left":[0,0,0,0,0,0,0,0,0,0,0,0,0,0,0],"id":32,"left_children":[1,3,5,-1,-1,7,9,11,-1,-1,13,-1,-1,-1,-1],"loss_changes":[3.0468774E0,2.2357368E0,2.70628E0,0E0,0E0,5.072963E0,1.8097162E0,2.4261284E0,0E0,0E0,1.715823E0,0E0,0E0,0E0,0E0],"parents":[2147483647,0,0,1,1,2,2,5,5,6,6,7,7,10,10],"right_children":[2,4,6,-1,-1,8,10,12,-1,-1,14,-1,-1,-1,-1],"split_conditions":[1.56215215E-2,8.4223795E-1,8.00624E-2,-5.138699E-3,-1.13779165E-1,1.5033307E0,1.9274376E-2,1.7808013E-2,-1.2822124E-1,1.1740432E-1,9.3326014E-1,-4.3907907E-2,8.0805205E-2,-2.9757045E-2,7.266889E-2],"split_indices":[12,1,9,0,0,0,12,12,0,0,1,0,0,0,0],"split_type":[0,0,0,0,0,0,0,0,0,0,0,0,0,0,0],"sum_hessian":[5.414557E1,1.6374454E1,3.777112E1,9.4803095E0,6.894144E0,1.8355108E1,1.941601E1,1.2826329E1,5.528778E0,6.515662E0,1.2900347E1,5.0056624E0,7.820667E0,6.524568E0,6.3757787E0],"tree_param":{"num_deleted":"0","num_feature":"15","num_nodes":"15","size_leaf_vector":"1"}},{"base_weights":[1.4892636E-3,1.13858454E-1,-9.278456E-2,-2.2164755E-1,3.6483732E-1,-9.585761E-2,7.013732E-2,1.3969266E-1,1.6549474E-1,9.24926E-2,-6.917332E-2,-2.383977E-2,4.4222313E-1,1.12161405E-1,1.0236475E-2],"categories":[],"categories_nodes":[],"categories_segments":[],"categories_sizes":[],"default_left":[0,0,0,0,0,0,0,0,0,0,0,0,0,0,0],"id":33,"left_children":[1,3,-1,5,7,-1,9,-1,11,-1,-1,-1,13,-1,-1],"loss_changes":[3.8287044E0,3.9971664E0,0E0,2.5446124E0,2.8928382E0,0E0,4.053403E0,0E0,1.97142E0,0E0,0E0,0E0,1.2849302E0,0E0,0E0],"parents":[2147483647,0,0,1,1,3,3,4,4,6,6,8,8,12,12],"right_children":[2,4,-1,6,8,-1,10,-1,12,-1,-1,-1,14,-1,-1],"split_conditions":[1.4E2,1.7353126E-1,-9.278456E-2,2.838654E-1,9.992852E-2,-9.585761E-2,3.1132394E-1,1.3969266E-1,-6.401699E-2,9.24926E-2,-6.917332E-2,-2.383977E-2,2.517361E-1,1.12161405E-1,1.0236475E-2],"split_indices":[10,2,0,3,8,0,3,0,4,0,0,0,2,0,0],"split_type":[0,0,0,0,0,0,0,0,0,0,0,0,0,0,0],"sum_hessian":[5.2940205E1,4.5509174E1,7.4310336E0,1.9525095E1,2.598408E1,7.5436425E0,1.1981452E1,5.8081117E0,2.0175968E1,5.8271413E0,6.15431E0,9.483511E0,1.0692456E1,5.3348117E0,5.3576446E0],"tree_param":{"num_deleted":"0","num_feature":"15","num_nodes":"15","size_leaf_vector":"1"}},{"base_weights":[3.348103E-2,2.8786775E-1,-1.6315483E-1,5.6927145E-1,-5.345104E-2,-3.1665006E-1,4.3799005E-2,3.809096E-2,1.2946275E-1,-6.2462453E-2,4.6279717E-2,-1.2265431E-1,-1.1442566E-1,-3.6472976E-1,6.381748E-2,-1.001545E-1,1.0131918E-2],"categories":[],"categories_nodes":[],"categories_segments":[],"categories_sizes":[],"default_left":[0,0,0,0,0,0,0,0,0,0,0,0,0,0,0,0,0],"id":34,"left_children":[1,3,5,7,9,11,-1,-1,-1,-1,-1,-1,13,15,-1,-1,-1],"loss_changes":[2.8976607E0,2.4515986E0,2.3826756E0,1.0688701E0,1.7452474E0,2.4389153E0,0E0,0E0,0E0,0E0,0E0,0E0,2.718608E0,1.8130157E0,0E0,0E0,0E0],"parents":[2147483647,0,0,1,1,2,2,3,3,4,4,5,5,12,12,13,13],"right_children":[2,4,6,8,10,12,-1,-1,-1,-1,-1,-1,14,16,-1,-1,-1],"split_conditions":[1.7174134E-2,8.329916E-1,1.0074018E-1,7.663952E-1,9.2073786E-1,1.8979592E-2,4.3799005E-2,3.809096E-2,1.2946275E-1,-6.2462453E-2,4.6279717E-2,-1.2265431E-1,5.760247E0,6.458443E-1,6.381748E-2,-1.001545E-1,1.0131918E-2],"split_indices":[12,5,6,5,5,12,0,0,0,0,0,0,7,5,0,0,0],"split_type":[0,0,0,0,0,0,0,0,0,0,0,0,0,0,0,0,0],"sum_hessian":[5.5989307E1,2.420782E1,3.1781488E1,1.2902427E1,1.1305393E1,2.399399E1,7.7874975E0,7.1225376E0,5.779889E0,5.569947E0,5.735447E0,6.0242887E0,1.7969702E1,1.2499118E1,5.4705844E0,7.02849E0,5.4706273E0],"tree_param":{"num_deleted":"0","num_feature":"15","num_nodes":"17","size_leaf_vector":"1"}},{"base_weights":[-5.6978162E-2,-2.312169E-1,2.5359133E-1,4.121043E-2,-4.2990735E-1,-6.1983064E-2,1.036768E-1,3.3953828E-1,-7.6870784E-2,-6.169117E-1,1.3158009E-2,5.1356196E-2,-5.599282E-2,1.0507741E-2,8.403759E-2,-1.5179898E-1,-1.2062418E-2],"categories":[],"categories_nodes":[],"categories_segments":[],"categories_sizes":[],"default_left":[0,0,0,0,0,0,0,0,0,0,0,0,0,0,0,0,0],"id":35,"left_children":[1,3,5,7,9,11,-1,13,-1,15,-1,-1,-1,-1,-1,-1,-1],"loss_changes":[3.1047075E0,1.9979113E0,2.90239E0,2.8732188E0,2.1103015E0,1.7577741E0,0E0,6.281593E-1,0E0,3.2525177E0,0E0,0E0,0E0,0E0,0E0,0E0,0E0],"parents":[2147483647,0,0,1,1,2,2,3,3,4,4,5,5,7,7,9,9],"right_children":[2,4,6,8,10,12,-1,14,-1,16,-1,-1,-1,-1,-1,-1,-1],"split_conditions":[8.0414474E-2,2.3946905E-1,1.4339005E0,8.92405E-1,1.0174105E0,5.6569475E-1,1.036768E-1,2.4190769E-1,-7.6870784E-2,3.0175367E-1,1.3158009E-2,5.1356196E-2,-5.599282E-2,1.0507741E-2,8.403759E-2,-1.5179898E-1,-1.2062418E-2],"split_indices":[9,3,0,1,1,5,0,2,0,3,0,0,0,0,0,0,0],"split_type":[0,0,0,0,0,0,0,0,0,0,0,0,0,0,0,0,0],"sum_hessian":[5.529072E1,3.558307E1,1.9707655E1,1.53411665E1,2.0241901E1,1.1948861E1,7.758794E0,1.022086E1,5.120307E0,1.472894E1,5.512962E0,5.1541743E0,6.794687E0,5.1951013E0,5.0257587E0,7.97198E0,6.75696E0],"tree_param":{"num_deleted":"0","num_feature":"15","num_nodes":"17","size_leaf_vector":"1"}},{"base_weights":[3.9278284E-2,-6.006354E-2,9.346362E-2,1.5984865E-1,-3.733101E-1,4.559621E-1,-1.855931E-2,1.675744E-2,-6.229513E-1,9.724145E-2,2.7922893E-2,-2.988525E-1,6.6003464E-2,-4.4018693E-2,-1.2206852E-1,3.5338236E-3,-8.630966E-2],"categories":[],"categories_nodes":[],"categories_segments":[],"categories_sizes":[],"default_left":[0,0,0,0,0,0,0,0,0,0,0,0,0,0,0,0,0],"id":36,"left_children":[1,3,-1,5,7,9,11,-1,13,-1,-1,15,-1,-1,-1,-1,-1],"loss_changes":[3.3521647E0,3.4871082E0,0E0,1.5897672E0,2.590791E0,4.6529365E-1,2.6559198E0,0E0,6.351447E-1,0E0,0E0,1.1534644E0,0E0,0E0,0E0,0E0,0E0],"parents":[2147483647,0,0,1,1,3,3,4,4,5,5,6,6,8,8,11,11],"right_children":[2,4,-1,6,8,10,12,-1,14,-1,-1,16,-1,-1,-1,-1,-1],"split_conditions":[2E0,8.0795956E-1,9.346362E-2,8.2880366E-1,8.974713E-2,6.022571E-2,1.06E2,1.675744E-2,1.670257E-2,9.724145E-2,2.7922893E-2,9.504062E-1,6.6003464E-2,-4.4018693E-2,-1.2206852E-1,3.5338236E-3,-8.630966E-2],"split_indices":[14,5,0,1,8,6,10,0,12,0,0,1,0,0,0,0,0],"split_type":[0,0,0,0,0,0,0,0,0,0,0,0,0,0,0,0,0],"sum_hessian":[5.6153645E1,4.8754646E1,7.398996E0,2.8932514E1,1.9822132E1,1.02929735E1,1.8639542E1,6.9233303E0,1.2898802E1,5.1905484E0,5.102425E0,1.1784792E1,6.854749E0,5.661554E0,7.237248E0,5.8635535E0,5.921238E0],"tree_param":{"num_deleted":"0","num_feature":"15","num_nodes":"17","size_leaf_vector":"1"}},{"base_weights":[-3.521875E-2,-1.9118303E-1,3.3977926E-1,-2.9352006E-1,4.7169257E-2,-1.4325196E-3,7.818764E-2,-1.1109146E-1,-1.02839395E-1,1.4524288E-1,-3.5418555E-1,-2.9779652E-2,6.625715E-2,-8.788897E-2,-1.1595317E-2],"categories":[],"categories_nodes":[],"categories_segments":[],"categories_sizes":[],"default_left":[0,0,0,0,0,0,0,0,0,0,0,0,0,0,0],"id":37,"left_children":[1,3,5,7,-1,-1,-1,9,-1,11,13,-1,-1,-1,-1],"loss_changes":[3.0402217E0,1.9845654E0,9.750798E-1,2.1361432E0,0E0,0E0,0E0,1.4411526E0,0E0,1.2663413E0,7.0784056E-1,0E0,0E0,0E0,0E0],"parents":[2147483647,0,0,1,1,2,2,3,3,7,7,9,9,10,10],"right_children":[2,4,6,8,-1,-1,-1,10,-1,12,14,-1,-1,-1,-1],"split_conditions":[2.0194534E-2,3.0382544E-1,2.6132265E-1,2.4190769E-1,4.7169257E-2,-1.4325196E-3,7.818764E-2,9.3E1,-1.02839395E-1,7E1,1.3E2,-2.9779652E-2,6.625715E-2,-8.788897E-2,-1.1595317E-2],"split_indices":[12,2,3,2,0,0,0,10,0,10,11,0,0,0,0],"split_type":[0,0,0,0,0,0,0,0,0,0,0,0,0,0,0],"sum_hessian":[4.9871086E1,3.55682E1,1.4302886E1,2.993017E1,5.6380286E0,5.2137985E0,9.0890875E0,2.130195E1,8.628221E0,1.0564536E1,1.0737414E1,5.0449777E0,5.5195584E0,5.2375965E0,5.4998174E0],"tree_param":{"num_deleted":"0","num_feature":"15","num_nodes":"15","size_leaf_vector":"1"}},{"base_weights":[2.1634886E-2,-7.320963E-2,9.2647396E-2,-2.2222761E-2,3.0606386E-1,2.1451701E-1,-2.6380333E-1,7.600208E-2,4.6970323E-3,-1.880639E-1,1.3540927E-1,-9.410109E-2,1.7713437E-2,-6.0786087E-2,7.610119E-3],"categories":[],"categories_nodes":[],"categories_segments":[],"categories_sizes":[],"default_left":[0,0,0,0,0,0,0,0,0,0,0,0,0,0,0],"id":38,"left_children":[1,-1,3,5,7,9,11,-1,-1,13,-1,-1,-1,-1,-1],"loss_changes":[1.9817473E0,0E0,1.1786405E0,1.8871288E0,9.0978265E-1,4.8013973E0,2.3356664E0,0E0,0E0,6.1047304E-1,0E0,0E0,0E0,0E0,0E0],"parents":[2147483647,0,0,2,2,3,3,4,4,5,5,6,6,9,9],"right_children":[2,-1,4,6,8,10,12,-1,-1,14,-1,-1,-1,-1,-1],"split_conditions":[6.6E1,-7.320963E-2,3.0036026E-1,1.3653859E0,9.2E1,1.304074E0,6.733439E-2,7.600208E-2,4.6970323E-3,1.17683604E-1,1.3540927E-1,-9.410109E-2,1.7713437E-2,-6.0786087E-2,7.610119E-3],"split_indices":[10,0,3,0,11,0,6,0,0,8,0,0,0,0,0],"split_type":[0,0,0,0,0,0,0,0,0,0,0,0,0,0,0],"sum_hessian":[5.250267E1,5.702133E0,4.6800537E1,3.1007048E1,1.57934885E1,1.5717007E1,1.5290041E1,8.640347E0,7.1531415E0,1.0374817E1,5.34219E0,7.504003E0,7.786038E0,5.068359E0,5.3064585E0],"tree_param":{"num_deleted":"0","num_feature":"15","num_nodes":"15","size_leaf_vector":"1"}},{"base_weights":[-4.7608744E-2,2.3114088E-1,-3.274282E-1,4.3963137E-1,-6.86766E-2,-1.11498415E-1,-1.12827525E-1,1.2347466E-1,2.773146E-1,-1.0110428E-1,2.7294827E-1,-5.340906E-3,9.755045E-2,-4.244707E-2,1.0462526E-1],"categories":[],"categories_nodes":[],"categories_segments":[],"categories_sizes":[],"default_left":[0,0,0,0,0,0,0,0,0,0,0,0,0,0,0],"id":39,"left_children":[1,3,5,7,-1,-1,9,-1,11,-1,13,-1,-1,-1,-1],"loss_changes":[4.3462257E0,4.225412E0,2.3916776E0,1.1423249E0,0E0,0E0,4.400274E0,0E0,2.0048716E0,0E0,3.0893817E0,0E0,0E0,0E0,0E0],"parents":[2147483647,0,0,1,1,2,2,3,3,6,6,8,8,10,10],"right_children":[2,4,6,8,-1,-1,10,-1,12,-1,14,-1,-1,-1,-1],"split_conditions":[8.3340025E-1,1.19E2,1.6208952E-2,2.3946905E-1,-6.86766E-2,-1.11498415E-1,1.4813872E-1,1.2347466E-1,1.5051783E0,-1.0110428E-1,2.871144E-1,-5.340906E-3,9.755045E-2,-4.244707E-2,1.0462526E-1],"split_indices":[1,11,12,3,0,0,8,0,0,0,3,0,0,0,0],"split_type":[0,0,0,0,0,0,0,0,0,0,0,0,0,0,0],"sum_hessian":[5.3750866E1,2.7014055E1,2.6736809E1,2.101632E1,5.9977355E0,8.261784E0,1.8475025E1,5.0388465E0,1.5977473E1,7.221893E0,1.1253133E1,9.180596E0,6.796877E0,5.017051E0,6.2360816E0],"tree_param":{"num_deleted":"0","num_feature":"15","num_nodes":"15","size_leaf_vector":"1"}},{"base_weights":[1.4707164E-1,-7.4901305E-2,2.3001666E-1,5.729574E-1,7.781392E-2,2.8830312E-2,1.18606955E-1,-1.2291569E-1,3.7936282E-1,-3.9970163E-1,4.7253422E-2,-3.0883176E-2,1.1515429E-1,-1.4113211E-2,-1.0169793E-1],"categories":[],"categories_nodes":[],"categories_segments":[],"categories_sizes":[],"default_left":[0,0,0,0,0,0,0,0,0,0,0,0,0,0,0],"id":40,"left_children":[1,-1,3,5,7,-1,-1,9,11,13,-1,-1,-1,-1,-1],"loss_changes":[2.8226414E0,0E0,2.3274271E0,9.9318933E-1,2.0218365E0,0E0,0E0,2.592194E0,3.1775231E0,1.0339766E0,0E0,0E0,0E0,0E0,0E0],"parents":[2147483647,0,0,2,2,3,3,4,4,7,7,8,8,9,9],"right_children":[2,-1,4,6,8,-1,-1,10,12,14,-1,-1,-1,-1,-1],"split_conditions":[5.8E1,-7.4901305E-2,8.2E1,8.0094445E-1,-2.06178E-2,2.8830312E-2,1.18606955E-1,2.2240588E-1,7.744453E-1,6.172512E-1,4.7253422E-2,-3.0883176E-2,1.1515429E-1,-1.4113211E-2,-1.0169793E-1],"split_indices":[11,0,11,5,4,0,0,2,1,5,0,0,0,0,0],"split_type":[0,0,0,0,0,0,0,0,0,0,0,0,0,0,0],"sum_hessian":[4.9502544E1,5.0586805E0,4.4443863E1,1.2811889E1,3.1631973E1,5.346299E0,7.465589E0,1.934628E1,1.2285695E1,1.190769E1,7.4385886E0,5.087782E0,7.1979136E0,6.3129134E0,5.594776E0],"tree_param":{"num_deleted":"0","num_feature":"15","num_nodes":"15","size_leaf_vector":"1"}},{"base_weights":[-7.4359275E-2,8.7136924E-2,-3.5734665E-1,-6.1852604E-2,2.5485528E-1,-1.429474E-1,-2.7840065E-3,7.102486E-2,8.343391E-2,-4.5434132E-2,3.5096575E-2,-1.532782E-1,6.341431E-2,-8.906454E-2,4.7225755E-2],"categories":[],"categories_nodes":[],"categories_segments":[],"categories_sizes":[],"default_left":[0,0,0,0,0,0,0,0,0,0,0,0,0,0,0],"id":41,"left_children":[1,3,5,-1,7,-1,9,11,-1,-1,-1,13,-1,-1,-1],"loss_changes":[2.3861573E0,2.9208512E0,3.9928298E0,0E0,1.3887689E0,0E0,9.847943E-1,1.4186018E0,0E0,0E0,0E0,2.498762E0,0E0,0E0,0E0],"parents":[2147483647,0,0,1,1,2,2,4,4,6,6,7,7,11,11],"right_children":[2,4,6,-1,8,-1,10,12,-1,-1,-1,14,-1,-1,-1],"split_conditions":[1.8554497E-1,6.8409264E-2,8.6575985E-1,-6.1852604E-2,2.1099725E-1,-1.429474E-1,8.9E1,5.8172207E0,8.343391E-2,-4.5434132E-2,3.5096575E-2,8.4188676E-1,6.341431E-2,-8.906454E-2,4.7225755E-2],"split_indices":[8,8,1,0,2,0,10,7,0,0,0,1,0,0,0],"split_type":[0,0,0,0,0,0,0,0,0,0,0,0,0,0,0],"sum_hessian":[5.0530582E1,3.2611706E1,1.7918877E1,7.831089E0,2.4780615E1,6.0565696E0,1.1862308E1,1.6159376E1,8.621239E0,5.108115E0,6.7541924E0,1.0211636E1,5.9477415E0,5.1228027E0,5.0888324E0],"tree_param":{"num_deleted":"0","num_feature":"15","num_nodes":"15","size_leaf_vector":"1"}},{"base_weights":[2.182141E-2,-2.6813316E-1,2.2270623E-1,3.2807123E-2,-5.62181E-1,-2.0109726E-1,5.359819E-1,-3.05735E-2,-1.2224649E-1,-9.604018E-2,2.888756E-2,1.308614E-1,1.7621543E-2],"categories":[],"categories_nodes":[],"categories_segments":[],"categories_sizes":[],"default_left":[0,0,0,0,0,0,0,0,0,0,0,0,0],"id":42,"left_children":[1,3,5,-1,7,9,11,-1,-1,-1,-1,-1,-1],"loss_changes":[2.9999855E0,3.1454368E0,4.1393704E0,0E0,1.0517087E0,2.480415E0,2.3941817E0,0E0,0E0,0E0,0E0,0E0,0E0],"parents":[2147483647,0,0,1,1,2,2,4,4,5,5,6,6],"right_children":[2,4,6,-1,8,10,12,-1,-1,-1,-1,-1,-1],"split_conditions":[-6.580353E-2,-1.3210607E-1,1.6454546E-1,3.2807123E-2,2.887757E-1,8.4188676E-1,1.69161E-2,-3.05735E-2,-1.2224649E-1,-9.604018E-2,2.888756E-2,1.308614E-1,1.7621543E-2],"split_indices":[4,4,2,0,3,1,12,0,0,0,0,0,0],"split_type":[0,0,0,0,0,0,0,0,0,0,0,0,0],"sum_hessian":[4.9478935E1,2.0113134E1,2.9365803E1,7.6701174E0,1.2443018E1,1.2633338E1,1.6732464E1,5.8940353E0,6.548982E0,5.675583E0,6.957755E0,8.674572E0,8.057892E0],"tree_param":{"num_deleted":"0","num_feature":"15","num_nodes":"13","size_leaf_vector":"1"}},{"base_weights":[-3.4259432E-3,-7.430082E-2,1.1820197E-1,3.6175616E-2,8.412435E-2,-2.0363942E-1,2.3830545E-1,1.4542212E-1,-1.2121357E-1,9.309797E-2,-6.0449462E-2,5.9847537E-2,-2.0313475E-2,3.1135635E-2,-4.208948E-2],"categories":[],"categories_nodes":[],"categories_segments":[],"categories_sizes":[],"default_left":[0,0,0,0,0,0,0,0,0,0,0,0,0,0,0],"id":43,"left_children":[1,-1,3,5,-1,7,9,11,-1,-1,13,-1,-1,-1,-1],"loss_changes":[3.1944282E0,0E0,1.5347409E0,1.8518819E0,0E0,3.8213263E0,2.396134E0,9.068307E-1,0E0,0E0,7.9593873E-1,0E0,0E0,0E0,0E0],"parents":[2147483647,0,0,2,2,3,3,5,5,6,6,7,7,10,10],"right_children":[2,-1,4,6,-1,8,10,12,-1,-1,14,-1,-1,-1,-1],"split_conditions":[6.036971E-1,-7.430082E-2,1E0,2.871144E-1,8.412435E-2,1.9583179E-1,3.0267572E-1,7.961891E-1,-1.2121357E-1,9.309797E-2,-5.523331E-2,5.9847537E-2,-2.0313475E-2,3.1135635E-2,-4.208948E-2],"split_indices":[1,0,14,3,0,8,3,1,0,0,4,0,0,0,0],"split_type":[0,0,0,0,0,0,0,0,0,0,0,0,0,0,0],"sum_hessian":[5.1412853E1,9.582945E0,4.182991E1,3.6202667E1,5.627243E0,1.6554394E1,1.9648273E1,1.0975575E1,5.578818E0,8.145792E0,1.15024805E1,5.5468993E0,5.428676E0,5.212993E0,6.2894874E0],"tree_param":{"num_deleted":"0","num_feature":"15","num_nodes":"15","size_leaf_vector":"1"}},{"base_weights":[1.4030246E-1,8.594448E-2,7.523703E-2,-5.621318E-2,1.7923167E-1,3.2258278E-1,-3.42426E-2,5.0705945E-1,3.2068137E-2,1.218599E-1,3.8170133E-2,-2.3533156E-2,3.5560176E-2],"categories":[],"categories_nodes":[],"categories_segments":[],"categories_sizes":[],"default_left":[0,0,0,0,0,0,0,0,0,0,0,0,0],"id":44,"left_children":[1,-1,3,-1,5,7,-1,9,11,-1,-1,-1,-1],"loss_changes":[1.3559504E0,0E0,2.1427093E0,0E0,2.2177453E0,1.4610996E0,0E0,1.088419E0,4.9325562E-1,0E0,0E0,0E0,0E0],"parents":[2147483647,0,0,2,2,4,4,5,5,7,7,8,8],"right_children":[2,-1,4,-1,6,8,-1,10,12,-1,-1,-1,-1],"split_conditions":[1.3102041E-2,8.594448E-2,7.2E1,-5.621318E-2,1.29E2,-3.6545392E-2,-3.42426E-2,1.3681853E-1,4.368563E-2,1.218599E-1,3.8170133E-2,-2.3533156E-2,3.5560176E-2],"split_indices":[12,0,10,0,11,4,0,8,4,0,0,0,0],"split_type":[0,0,0,0,0,0,0,0,0,0,0,0,0],"sum_hessian":[4.869791E1,5.3456154E0,4.3352295E1,7.649372E0,3.5702923E1,2.6566195E1,9.136729E0,1.5792547E1,1.0773646E1,6.146384E0,9.646164E0,5.728327E0,5.045319E0],"tree_param":{"num_deleted":"0","num_feature":"15","num_nodes":"13","size_leaf_vector":"1"}},{"base_weights":[-4.5026824E-2,6.863312E-2,-3.5384324E-1,-2.0525737E-1,4.043608E-1,-9.80716E-2,1.4334199E-2,5.8525596E-2,-5.077399E-1,-2.443492E-3,9.6636355E-2,-1.252401E-1,-3.2351434E-2],"categories":[],"categories_nodes":[],"categories_segments":[],"categories_sizes":[],"default_left":[0,0,0,0,0,0,0,0,0,0,0,0,0],"id":45,"left_children":[1,3,5,7,9,-1,-1,-1,11,-1,-1,-1,-1],"loss_changes":[1.7045472E0,3.3776064E0,1.8205229E0,3.8714151E0,1.6688113E0,0E0,0E0,0E0,1.1538794E0,0E0,0E0,0E0,0E0],"parents":[2147483647,0,0,1,1,2,2,3,3,4,4,8,8],"right_children":[2,4,6,8,10,-1,-1,-1,12,-1,-1,-1,-1],"split_conditions":[2.805084E-2,-6.506268E-2,9.978605E-2,3.4020692E-2,1.2696196E-1,-9.80716E-2,1.4334199E-2,5.8525596E-2,1.4339005E0,-2.443492E-3,9.6636355E-2,-1.252401E-1,-3.2351434E-2],"split_indices":[4,4,4,6,8,0,0,0,0,0,0,0,0],"split_type":[0,0,0,0,0,0,0,0,0,0,0,0,0],"sum_hessian":[4.6870636E1,3.4829414E1,1.2041219E1,1.9395205E1,1.5434211E1,6.9484487E0,5.09277E0,6.436078E0,1.2959126E1,5.943652E0,9.490559E0,5.235332E0,7.7237945E0],"tree_param":{"num_deleted":"0","num_feature":"15","num_nodes":"13","size_leaf_vector":"1"}},{"base_weights":[1.03549734E-1,-2.3373261E-1,2.4165827E-1,1.8852102E-2,-8.485137E-2,4.3984446E-1,-1.2743731E-1,1.0912238E-1,6.6550493E-1,2.414658E-2,-7.667651E-2,7.207142E-2,-4.139289E-2,3.8863182E-2,1.601087E-1],"categories":[],"categories_nodes":[],"categories_segments":[],"categories_sizes":[],"default_left":[0,0,0,0,0,0,0,0,0,0,0,0,0,0,0],"id":46,"left_children":[1,3,5,-1,-1,7,9,11,13,-1,-1,-1,-1,-1,-1],"loss_changes":[2.5054984E0,1.9539788E0,2.82057E0,0E0,0E0,1.7792697E0,1.6293865E0,1.7428026E0,2.1005564E0,0E0,0E0,0E0,0E0,0E0,0E0],"parents":[2147483647,0,0,1,1,2,2,5,5,6,6,7,7,8,8],"right_children":[2,4,6,-1,-1,8,10,12,14,-1,-1,-1,-1,-1,-1],"split_conditions":[3.227486E-2,8.5E1,1.1410887E-1,1.8852102E-2,-8.485137E-2,3.786415E0,-3.7078463E-2,1.0903539E-1,9.5E1,2.414658E-2,-7.667651E-2,7.207142E-2,-4.139289E-2,3.8863182E-2,1.601087E-1],"split_indices":[6,10,6,0,0,7,4,8,10,0,0,0,0,0,0],"split_type":[0,0,0,0,0,0,0,0,0,0,0,0,0,0,0],"sum_hessian":[5.157476E1,1.4782133E1,3.679263E1,7.3957376E0,7.3863955E0,2.3814001E1,1.2978628E1,1.0260318E1,1.3553683E1,7.7410445E0,5.237584E0,5.097097E0,5.1632204E0,7.5565867E0,5.9970965E0],"tree_param":{"num_deleted":"0","num_feature":"15","num_nodes":"15","size_leaf_vector":"1"}},{"base_weights":[1.6513187E-2,1.3343057E-1,-3.0234784E-1,-1.6375929E-1,2.5921547E-1,-1.1805129E-1,1.38259055E-2,2.5124975E-2,-7.1160436E-2,-3.6370184E-2,4.02164E-1,6.222374E-1,-1.9378975E-2,1.6439545E-1,3.3248886E-2],"categories":[],"categories_nodes":[],"categories_segments":[],"categories_sizes":[],"default_left":[0,0,0,0,0,0,0,0,0,0,0,0,0,0,0],"id":47,"left_children":[1,3,5,7,9,-1,-1,-1,-1,-1,11,13,-1,-1,-1],"loss_changes":[1.8349887E0,1.3851144E0,2.600644E0,1.2416573E0,1.9350921E0,0E0,0E0,0E0,0E0,0E0,2.4562683E0,2.516086E0,0E0,0E0,0E0],"parents":[2147483647,0,0,1,1,2,2,3,3,4,4,10,10,11,11],"right_children":[2,4,6,8,10,-1,-1,-1,-1,-1,12,14,-1,-1,-1],"split_conditions":[1.5351751E0,1.6208952E-2,1.5896996E0,2.3733601E-1,5.630512E-1,-1.1805129E-1,1.38259055E-2,2.5124975E-2,-7.1160436E-2,-3.6370184E-2,2.8316936E-1,1.8979592E-2,-1.9378975E-2,1.6439545E-1,3.3248886E-2],"split_indices":[0,12,0,3,5,0,0,0,0,0,2,12,0,0,0],"split_type":[0,0,0,0,0,0,0,0,0,0,0,0,0,0,0],"sum_hessian":[4.7139137E1,3.4917435E1,1.2221703E1,1.0294022E1,2.4623413E1,5.037897E0,7.1838055E0,5.2047076E0,5.0893145E0,5.3059144E0,1.93175E1,1.353899E1,5.778508E0,5.4077272E0,8.131263E0],"tree_param":{"num_deleted":"0","num_feature":"15","num_nodes":"15","size_leaf_vector":"1"}},{"base_weights":[-6.2147915E-2,4.093031E-2,-4.10602E-1,-6.6329144E-2,1.3254936E-1,-8.491576E-2,-2.8547758E-2,-3.794856E-2,2.1714516E-1,-4.3936413E-2,3.6995703E-1,8.729404E-2,-2.2796672E-2],"categories":[],"categories_nodes":[],"categories_segments":[],"categories_sizes":[],"default_left":[0,0,0,0,0,0,0,0,0,0,0,0,0],"id":48,"left_children":[1,3,5,-1,7,-1,-1,-1,9,-1,11,-1,-1],"loss_changes":[1.9341586E0,1.9223025E0,3.127997E-1,0E0,1.2343633E0,0E0,0E0,0E0,2.4616957E0,0E0,2.7080839E0,0E0,0E0],"parents":[2147483647,0,0,1,1,2,2,4,4,8,8,10,10],"right_children":[2,4,6,-1,8,-1,-1,-1,10,-1,12,-1,-1],"split_conditions":[1.5351751E0,1.238666E0,1.6018474E0,-6.6329144E-2,7.4E1,-8.491576E-2,-2.8547758E-2,-3.794856E-2,2.5819888E-2,-4.3936413E-2,1.078565E0,8.729404E-2,-2.2796672E-2],"split_indices":[0,0,0,0,10,0,0,0,6,0,1,0,0],"split_type":[0,0,0,0,0,0,0,0,0,0,0,0,0],"sum_hessian":[5.2381344E1,4.1104515E1,1.1276828E1,5.942444E0,3.516207E1,5.6901417E0,5.586686E0,5.9688506E0,2.9193222E1,6.518618E0,2.2674604E1,1.6043098E1,6.631506E0],"tree_param":{"num_deleted":"0","num_feature":"15","num_nodes":"13","size_leaf_vector":"1"}},{"base_weights":[8.7467775E-2,-1.8265304E-1,2.1151908E-1,-6.582941E-2,2.6322706E-2,-1.2405528E-1,3.6875373E-1,-6.913615E-2,4.055356E-2,1.003197E-1,1.4001766E-1,-4.9840856E-2,6.325963E-2],"categories":[],"categories_nodes":[],"categories_segments":[],"categories_sizes":[],"default_left":[0,0,0,0,0,0,0,0,0,0,0,0,0],"id":49,"left_children":[1,3,5,-1,-1,7,9,-1,-1,-1,11,-1,-1],"loss_changes":[1.7518E0,1.6026423E0,1.9188218E0,0E0,0E0,1.728821E0,1.5826409E0,0E0,0E0,0E0,2.1523805E0,0E0,0E0],"parents":[2147483647,0,0,1,1,2,2,5,5,6,6,10,10],"right_children":[2,4,6,-1,-1,8,10,-1,-1,-1,12,-1,-1],"split_conditions":[-8.217558E-2,6.780776E-2,1.3489524E0,-6.582941E-2,2.6322706E-2,1.5486903E-1,1.4598123E0,-6.913615E-2,4.055356E-2,1.003197E-1,1.5137469E0,-4.9840856E-2,6.325963E-2],"split_indices":[4,9,0,0,0,8,0,0,0,0,0,0,0],"split_type":[0,0,0,0,0,0,0,0,0,0,0,0,0],"sum_hessian":[5.0125774E1,1.5626589E1,3.4499184E1,8.97822E0,6.648369E0,1.1074567E1,2.3424618E1,5.882207E0,5.1923594E0,9.300635E0,1.4123982E1,5.209995E0,8.913987E0],"tree_param":{"num_deleted":"0","num_feature":"15","num_nodes":"13","size_leaf_vector":"1"}},{"base_weights":[7.4385E-2,-9.862799E-2,4.0170723E-1,-2.313319E-1,5.6734886E-2,6.585415E-1,-2.5714042E-2,2.9868564E-2,-4.0676194E-1,3.6515523E-2,1.5183778E-1,-6.0834795E-1,8.709795E-3,-1.3210927E-1,-3.368739E-2],"categories":[],"categories_nodes":[],"categories_segments":[],"categories_sizes":[],"default_left":[0,0,0,0,0,0,0,0,0,0,0,0,0,0,0],"id":50,"left_children":[1,3,5,7,-1,9,-1,-1,11,-1,-1,13,-1,-1,-1],"loss_changes":[2.9466105E0,2.2634022E0,2.7547688E0,2.1591287E0,0E0,1.6036229E0,0E0,0E0,1.8981409E0,0E0,0E0,1.260777E0,0E0,0E0,0E0],"parents":[2147483647,0,0,1,1,2,2,3,3,5,5,8,8,11,11],"right_children":[2,4,6,8,-1,10,-1,-1,12,-1,-1,14,-1,-1,-1],"split_conditions":[5.8172207E0,2.9413554E-1,2.3523012E-1,7.56579E-2,5.6734886E-2,8.4188676E-1,-2.5714042E-2,2.9868564E-2,5.5634513E0,3.6515523E-2,1.5183778E-1,1.4871566E-1,8.709795E-3,-1.3210927E-1,-3.368739E-2],"split_indices":[7,2,2,2,0,1,0,0,7,0,0,8,0,0,0],"split_type":[0,0,0,0,0,0,0,0,0,0,0,0,0,0,0],"sum_hessian":[5.0332146E1,3.3384666E1,1.694748E1,2.6519524E1,6.865143E0,1.1600167E1,5.347312E0,7.6394396E0,1.8880085E1,6.1136246E0,5.4865427E0,1.29536085E1,5.926475E0,6.818886E0,6.134723E0],"tree_param":{"num_deleted":"0","num_feature":"15","num_nodes":"15","size_leaf_vector":"1"}},{"base_weights":[9.036707E-2,2.143376E-1,-2.4290971E-1,3.3315158E-1,-2.8994227E-2,-8.982384E-2,1.8765684E-2,1.5922636E-1,1.07521996E-1,-3.0525949E-2,3.5239896E-1,1.1800314E-2,9.550429E-2],"categories":[],"categories_nodes":[],"categories_segments":[],"categories_sizes":[],"default_left":[0,0,0,0,0,0,0,0,0,0,0,0,0],"id":51,"left_children":[1,3,5,7,-1,-1,-1,9,-1,-1,11,-1,-1],"loss_changes":[2.0705562E0,1.8147461E0,1.8712476E0,1.7776654E0,0E0,0E0,0E0,1.5286816E0,0E0,0E0,1.0342382E0,0E0,0E0],"parents":[2147483647,0,0,1,1,2,2,3,3,7,7,10,10],"right_children":[2,4,6,8,-1,-1,-1,10,-1,-1,12,-1,-1],"split_conditions":[1.0413685E0,1.13E2,1.03E2,5.760247E0,-2.8994227E-2,-8.982384E-2,1.8765684E-2,7.6E1,1.07521996E-1,-3.0525949E-2,7.494467E-1,1.1800314E-2,9.550429E-2],"split_indices":[1,11,10,7,0,0,0,10,0,0,5,0,0],"split_type":[0,0,0,0,0,0,0,0,0,0,0,0,0],"sum_hessian":[4.7854366E1,3.5140038E1,1.2714327E1,2.7350744E1,7.789295E0,6.144574E0,6.569753E0,1.9793005E1,7.5577383E0,6.8593206E0,1.2933684E1,7.2397346E0,5.6939497E0],"tree_param":{"num_deleted":"0","num_feature":"15","num_nodes":"13","size_leaf_vector":"1"}},{"base_weights":[-1.0364702E-2,-2.9808962E-1,3.4476468E-1,-9.919091E-2,-7.352971E-2,1.7245068E-1,1.1494167E-1,2.5824552E-2,-4.661628E-2,-2.0537496E-2,9.353107E-2],"categories":[],"categories_nodes":[],"categories_segments":[],"categories_sizes":[],"default_left":[0,0,0,0,0,0,0,0,0,0,0],"id":52,"left_children":[1,3,5,-1,7,9,-1,-1,-1,-1,-1],"loss_changes":[4.961497E0,2.1374645E0,1.4473403E0,0E0,1.0845573E0,2.4195848E0,0E0,0E0,0E0,0E0,0E0],"parents":[2147483647,0,0,1,1,2,2,4,4,5,5],"right_children":[2,4,6,-1,8,10,-1,-1,-1,-1,-1],"split_conditions":[2.1496598E-1,6.895211E-2,1.8308042E-2,-9.919091E-2,2.0673016E-2,1.1514133E-1,1.1494167E-1,2.5824552E-2,-4.661628E-2,-2.0537496E-2,9.353107E-2],"split_indices":[2,9,12,0,12,6,0,0,0,0,0],"split_type":[0,0,0,0,0,0,0,0,0,0,0],"sum_hessian":[4.6550854E1,2.5804626E1,2.0746227E1,9.116182E0,1.6688444E1,1.5726413E1,5.019814E0,8.333021E0,8.355423E0,9.741769E0,5.984644E0],"tree_param":{"num_deleted":"0","num_feature":"15","num_nodes":"11","size_leaf_vector":"1"}},{"base_weights":[-4.587241E-2,1.2094765E-1,-3.999012E-1,-3.460108E-2,4.269924E-1,-1.1086101E-1,-3.2035587E-3,2.4700376E-1,-7.502704E-2,-3.710295E-3,1.20155804E-1,-6.9680316E-3,1.0045824E-1],"categories":[],"categories_nodes":[],"categories_segments":[],"categories_sizes":[],"default_left":[0,0,0,0,0,0,0,0,0,0,0,0,0],"id":53,"left_children":[1,3,5,7,9,-1,-1,11,-1,-1,-1,-1,-1],"loss_changes":[2.9261577E0,1.6280305E0,2.0177896E0,3.1906786E0,1.9620504E0,0E0,0E0,1.9224102E0,0E0,0E0,0E0,0E0,0E0],"parents":[2147483647,0,0,1,1,2,2,3,3,4,4,7,7],"right_children":[2,4,6,8,10,-1,-1,12,-1,-1,-1,-1,-1],"split_conditions":[8.6940426E-1,7.663952E-1,-5.523331E-2,6.840947E-1,2.2267333E-1,-1.1086101E-1,-3.2035587E-3,1.07E2,-7.502704E-2,-3.710295E-3,1.20155804E-1,-6.9680316E-3,1.0045824E-1],"split_indices":[5,5,4,5,8,0,0,10,0,0,0,0,0],"split_type":[0,0,0,0,0,0,0,0,0,0,0,0,0],"sum_hessian":[4.77273E1,3.2888466E1,1.4838834E1,2.2393698E1,1.0494765E1,7.324097E0,7.5147367E0,1.4246309E1,8.147389E0,5.1767664E0,5.317999E0,8.934175E0,5.312135E0],"tree_param":{"num_deleted":"0","num_feature":"15","num_nodes":"13","size_leaf_vector":"1"}},{"base_weights":[3.3700127E-2,-5.552771E-2,1.0175874E-1,-2.1610339E-1,2.788314E-1,1.03901014E-1,-5.246684E-1,-1.2939197E-2,7.665668E-2,6.636524E-2,-3.8009137E-2,-3.4002878E-3,-1.2352552E-1],"categories":[],"categories_nodes":[],"categories_segments":[],"categories_sizes":[],"default_left":[0,0,0,0,0,0,0,0,0,0,0,0,0],"id":54,"left_children":[1,3,-1,5,7,9,11,-1,-1,-1,-1,-1,-1],"loss_changes":[2.8468828E0,2.41307E0,0E0,3.0333676E0,1.2864591E0,2.0043778E0,2.3101397E0,0E0,0E0,0E0,0E0,0E0,0E0],"parents":[2147483647,0,0,1,1,3,3,4,4,5,5,6,6],"right_children":[2,4,-1,6,8,10,12,-1,-1,-1,-1,-1,-1],"split_conditions":[2.1972788E-2,1.5051783E0,1.0175874E-1,1.3858289E0,6.680386E-1,8.3340025E-1,7.219594E-1,-1.2939197E-2,7.665668E-2,6.636524E-2,-3.8009137E-2,-3.4002878E-3,-1.2352552E-1],"split_indices":[12,0,0,0,1,1,5,0,0,0,0,0,0],"split_type":[0,0,0,0,0,0,0,0,0,0,0,0,0],"sum_hessian":[4.7835136E1,4.282224E1,5.012897E0,2.9168007E1,1.3654231E1,1.4644191E1,1.4523816E1,5.5526724E0,8.10156E0,7.397161E0,7.24703E0,5.8210855E0,8.70273E0],"tree_param":{"num_deleted":"0","num_feature":"15","num_nodes":"13","size_leaf_vector":"1"}},{"base_weights":[4.8491534E-2,4.7305247E-1,-1.0511864E-1,1.4938956E-2,1.2647958E-1,-3.5925752E-1,1.7003809E-1,5.380717E-3,-6.128343E-1,5.6092557E-2,-2.0687966E-2,-3.5443958E-2,-1.3382031E-1],"categories":[],"categories_nodes":[],"categories_segments":[],"categories_sizes":[],"default_left":[0,0,0,0,0,0,0,0,0,0,0,0,0],"id":55,"left_children":[1,3,5,-1,-1,7,9,-1,11,-1,-1,-1,-1],"loss_changes":[3.1149516E0,1.6673152E0,2.5317457E0,0E0,0E0,1.894484E0,1.1594907E0,0E0,9.9216413E-1,0E0,0E0,0E0,0E0],"parents":[2147483647,0,0,1,1,2,2,5,5,6,6,8,8],"right_children":[2,4,6,-1,-1,8,10,-1,12,-1,-1,-1,-1],"split_conditions":[8.397563E-2,1.8949755E-2,2.2693194E-1,1.4938956E-2,1.2647958E-1,3.786415E0,9.3326014E-1,5.380717E-3,1.8161753E-2,5.6092557E-2,-2.0687966E-2,-3.5443958E-2,-1.3382031E-1],"split_indices":[8,12,2,0,0,7,1,0,12,0,0,0,0],"split_type":[0,0,0,0,0,0,0,0,0,0,0,0,0],"sum_hessian":[4.6000484E1,1.1669037E1,3.4331448E1,6.4402137E0,5.2288227E0,1.7688467E1,1.664298E1,7.2499585E0,1.0438509E1,9.884038E0,6.7589417E0,5.2315645E0,5.2069445E0],"tree_param":{"num_deleted":"0","num_feature":"15","num_nodes":"13","size_leaf_vector":"1"}},{"base_weights":[6.88964E-2,3.2062352E-1,-3.7043905E-1,6.919295E-2,5.521784E-1,-8.834593E-2,-9.857559E-4,3.982245E-2,-3.6979258E-2,1.3730836E-1,4.023409E-2],"categories":[],"categories_nodes":[],"categories_segments":[],"categories_sizes":[],"default_left":[0,0,0,0,0,0,0,0,0,0,0],"id":56,"left_children":[1,3,5,7,9,-1,-1,-1,-1,-1,-1],"loss_changes":[5.0200205E0,1.6333325E0,1.3166964E0,9.8933506E-1,1.2811465E0,0E0,0E0,0E0,0E0,0E0,0E0],"parents":[2147483647,0,0,1,1,2,2,3,3,4,4],"right_children":[2,4,6,8,10,-1,-1,-1,-1,-1,-1],"split_conditions":[2.4190769E-1,5.59017E-2,1.787755E-2,1.3780419E0,1.4186935E0,-8.834593E-2,-9.857559E-4,3.982245E-2,-3.6979258E-2,1.3730836E-1,4.023409E-2],"split_indices":[2,6,12,0,0,0,0,0,0,0,0],"split_type":[0,0,0,0,0,0,0,0,0,0,0],"sum_hessian":[4.3318035E1,2.7710749E1,1.5607287E1,1.3907887E1,1.3802861E1,9.364468E0,6.2428203E0,8.674133E0,5.2337537E0,5.0804925E0,8.722369E0],"tree_param":{"num_deleted":"0","num_feature":"15","num_nodes":"11","size_leaf_vector":"1"}},{"base_weights":[-4.0223382E-2,-1.2258079E-1,5.6921445E-2,1.4743863E-1,-3.3144912E-1,8.0411E-2,-8.83129E-2,9.944463E-3,-6.384911E-1,-6.624263E-2,3.3498675E-2,-3.7288595E-2,4.472844E-2,-1.25966E-1,-4.566027E-2],"categories":[],"categories_nodes":[],"categories_segments":[],"categories_sizes":[],"default_left":[0,0,0,0,0,0,0,0,0,0,0,0,0,0,0],"id":57,"left_children":[1,3,-1,5,7,-1,9,11,13,-1,-1,-1,-1,-1,-1],"loss_changes":[1.7473938E0,2.4114804E0,0E0,1.7847717E0,2.514556E0,0E0,1.4927197E0,9.918559E-1,5.9256506E-1,0E0,0E0,0E0,0E0,0E0,0E0],"parents":[2147483647,0,0,1,1,3,3,4,4,6,6,7,7,8,8],"right_children":[2,4,-1,6,8,-1,10,12,14,-1,-1,-1,-1,-1,-1],"split_conditions":[2.5701916E-1,5.02596E0,5.6921445E-2,-6.661681E-2,8.067548E-1,8.0411E-2,1.9063625E-2,5.877098E-2,1E2,-6.624263E-2,3.3498675E-2,-3.7288595E-2,4.472844E-2,-1.25966E-1,-4.566027E-2],"split_indices":[8,7,0,4,1,0,12,9,10,0,0,0,0,0,0],"split_type":[0,0,0,0,0,0,0,0,0,0,0,0,0,0,0],"sum_hessian":[4.8207546E1,4.0891388E1,7.3161597E0,1.7963177E1,2.2928211E1,6.3014283E0,1.1661749E1,1.1314957E1,1.1613254E1,5.270019E0,6.39173E0,6.037409E0,5.2775483E0,6.3025017E0,5.310752E0],"tree_param":{"num_deleted":"0","num_feature":"15","num_nodes":"15","size_leaf_vector":"1"}},{"base_weights":[2.0961756E-2,-5.5674598E-2,1.0430374E-1,7.660284E-2,2.5133137E-2,-1.4304672E-1,3.1946075E-1,-7.8814775E-2,9.306971E-2,8.818164E-2,3.6866681E-3,-3.1426176E-2,6.676426E-2],"categories":[],"categories_nodes":[],"categories_segments":[],"categories_sizes":[],"default_left":[0,0,0,0,0,0,0,0,0,0,0,0,0],"id":58,"left_children":[1,-1,3,-1,5,7,9,-1,11,-1,-1,-1,-1],"loss_changes":[1.6006986E0,0E0,1.2804875E0,0E0,1.763134E0,2.1047592E0,1.0086286E0,0E0,1.6832038E0,0E0,0E0,0E0,0E0],"parents":[2147483647,0,0,2,2,4,4,5,5,6,6,8,8],"right_children":[2,-1,4,-1,6,8,10,-1,12,-1,-1,-1,-1],"split_conditions":[2.0412415E-2,-5.5674598E-2,5.6569475E-1,7.660284E-2,5.8172207E0,7.3562557E-1,8.0034864E-1,-7.8814775E-2,1.6098153E-2,8.818164E-2,3.6866681E-3,-3.1426176E-2,6.676426E-2],"split_indices":[6,0,5,0,7,5,5,0,12,0,0,0,0],"split_type":[0,0,0,0,0,0,0,0,0,0,0,0,0],"sum_hessian":[4.679557E1,7.59718E0,3.919839E1,5.5026917E0,3.3695698E1,2.1770147E1,1.1925551E1,7.8431077E0,1.3927039E1,5.7227917E0,6.20276E0,7.70725E0,6.219789E0],"tree_param":{"num_deleted":"0","num_feature":"15","num_nodes":"13","size_leaf_vector":"1"}},{"base_weights":[-9.550294E-3,-9.6371934E-2,8.046615E-2,4.875085E-3,-8.457836E-2,-1.9124645E-1,3.440316E-1,4.2927135E-3,-1.0334084E-1,1.06012E-1,-1.2540073E-2,4.9963724E-2,-2.5821103E-2],"categories":[],"categories_nodes":[],"categories_segments":[],"categories_sizes":[],"default_left":[0,0,0,0,0,0,0,0,0,0,0,0,0],"id":59,"left_children":[1,3,-1,5,-1,7,9,11,-1,-1,-1,-1,-1],"loss_changes":[2.1685328E0,1.8664839E0,0E0,2.2846248E0,0E0,2.1224096E0,2.010249E0,1.0220221E0,0E0,0E0,0E0,0E0,0E0],"parents":[2147483647,0,0,1,1,3,3,5,5,6,6,7,7],"right_children":[2,4,-1,6,-1,8,10,12,-1,-1,-1,-1,-1],"split_conditions":[2.1972788E-2,2.0673016E-2,8.046615E-2,5.8777653E-2,-8.457836E-2,1.13E2,1.7693553E-2,7.7724993E-1,-1.0334084E-1,1.06012E-1,-1.2540073E-2,4.9963724E-2,-2.5821103E-2],"split_indices":[12,12,0,9,0,11,12,5,0,0,0,0,0],"split_type":[0,0,0,0,0,0,0,0,0,0,0,0,0],"sum_hessian":[4.365533E1,3.8376347E1,5.278982E0,3.235789E1,6.018458E0,2.0778545E1,1.1579345E1,1.5629301E1,5.1492453E0,5.9120665E0,5.6672783E0,5.147876E0,1.0481424E1],"tree_param":{"num_deleted":"0","num_feature":"15","num_nodes":"13","size_leaf_vector":"1"}},{"base_weights":[-3.7581455E-2,-2.775638E-1,1.4325269E-1,-5.4210603E-1,3.1463306E-2,-5.4953214E-2,3.0466884E-1,-2.9029036E-2,-1.1004235E-1,8.3701484E-2,9.9410005E-2,6.6229574E-2,-4.2263668E-2],"categories":[],"categories_nodes":[],"categories_segments":[],"categories_sizes":[],"default_left":[0,0,0,0,0,0,0,0,0,0,0,0,0],"id":60,"left_children":[1,3,5,7,-1,-1,9,-1,-1,11,-1,-1,-1],"loss_changes":[2.0326116E0,2.701559E0,2.3200645E0,7.4520564E-1,0E0,0E0,1.600938E0,0E0,0E0,1.9670594E0,0E0,0E0,0E0],"parents":[2147483647,0,0,1,1,2,2,3,3,6,6,9,9],"right_children":[2,4,6,8,-1,-1,10,-1,-1,12,-1,-1,-1],"split_conditions":[-6.580353E-2,3.0175367E-1,9.809558E-2,9.3E1,3.1463306E-2,-5.4953214E-2,2.921398E-1,-2.9029036E-2,-1.1004235E-1,2.3533869E-1,9.9410005E-2,6.6229574E-2,-4.2263668E-2],"split_indices":[4,3,2,10,0,0,3,0,0,3,0,0,0],"split_type":[0,0,0,0,0,0,0,0,0,0,0,0,0],"sum_hessian":[4.492137E1,1.9073843E1,2.5847527E1,1.2289848E1,6.7839947E0,5.9122667E0,1.993526E1,5.0707603E0,7.219088E0,1.30906E1,6.8446608E0,6.5091753E0,6.5814247E0],"tree_param":{"num_deleted":"0","num_feature":"15","num_nodes":"13","size_leaf_vector":"1"}},{"base_weights":[-2.1375319E-2,6.405806E-2,-1.2394025E-1,-2.2787824E-1,5.414036E-2,-9.307711E-2,-7.170304E-2,1.1549414E-1,-7.699232E-2,7.159733E-2,-1.0912935E-2],"categories":[],"categories_nodes":[],"categories_segments":[],"categories_sizes":[],"default_left":[0,0,0,0,0,0,0,0,0,0,0],"id":61,"left_children":[1,-1,3,5,-1,-1,7,9,-1,-1,-1],"loss_changes":[2.2244442E0,0E0,2.0578308E0,1.9725454E0,0E0,0E0,2.0980453E0,1.2700878E0,0E0,0E0,0E0],"parents":[2147483647,0,0,2,2,3,3,6,6,7,7],"right_children":[2,-1,4,6,-1,-1,8,10,-1,-1,-1],"split_conditions":[2.2869012E-1,6.405806E-2,9.5609015E-1,2.5086525E-1,5.414036E-2,-9.307711E-2,3.1132394E-1,8.26047E-1,-7.699232E-2,7.159733E-2,-1.0912935E-2],"split_indices":[3,0,5,3,0,0,3,1,0,0,0],"split_type":[0,0,0,0,0,0,0,0,0,0,0],"sum_hessian":[4.6213943E1,8.013593E0,3.820035E1,3.1893656E1,6.3066945E0,8.229898E0,2.3663757E1,1.7137264E1,6.5264926E0,5.339283E0,1.1797981E1],"tree_param":{"num_deleted":"0","num_feature":"15","num_nodes":"11","size_leaf_vector":"1"}},{"base_weights":[2.422542E-2,6.56174E-2,-5.066882E-2,-3.5353857E-1,1.650808E-1,-1.0145248E-1,1.2835613E-2,8.473987E-2,-3.8696688E-2,-3.4486884E-1,7.091614E-2,9.277916E-4,-9.5833756E-2],"categories":[],"categories_nodes":[],"categories_segments":[],"categories_sizes":[],"default_left":[0,0,0,0,0,0,0,0,0,0,0,0,0],"id":62,"left_children":[1,-1,3,5,7,-1,-1,-1,9,11,-1,-1,-1],"loss_changes":[1.4356834E0,0E0,2.6435091E0,2.4359267E0,1.959934E0,0E0,0E0,0E0,2.776952E0,1.1413786E0,0E0,0E0,0E0],"parents":[2147483647,0,0,2,2,3,3,4,4,8,8,9,9],"right_children":[2,-1,4,6,8,-1,-1,-1,10,12,-1,-1,-1],"split_conditions":[-1.3181444E-1,6.56174E-2,-5.132391E-2,1.6753696E-1,2.5442766E-3,-1.0145248E-1,1.2835613E-2,8.473987E-2,5.760247E0,1.0903539E-1,7.091614E-2,9.277916E-4,-9.5833756E-2],"split_indices":[4,0,4,8,4,0,0,0,7,8,0,0,0],"split_type":[0,0,0,0,0,0,0,0,0,0,0,0,0],"sum_hessian":[4.4673847E1,6.1117563E0,3.856209E1,1.5776442E1,2.278565E1,8.780891E0,6.9955497E0,7.093838E0,1.56918125E1,1.0019663E1,5.672149E0,5.013119E0,5.006544E0],"tree_param":{"num_deleted":"0","num_feature":"15","num_nodes":"13","size_leaf_vector":"1"}},{"base_weights":[-7.541525E-2,-1.4169183E-1,5.3316895E-2,2.4307499E-2,-4.1010588E-1,-1.479877E-1,2.2477107E-1,-2.2232026E-2,-1.0994774E-1,2.3070239E-2,-7.3765196E-2,8.277875E-2,-2.5057763E-2],"categories":[],"categories_nodes":[],"categories_segments":[],"categories_sizes":[],"default_left":[0,0,0,0,0,0,0,0,0,0,0,0,0],"id":63,"left_children":[1,3,-1,5,7,9,11,-1,-1,-1,-1,-1,-1],"loss_changes":[1.4021031E0,1.8697902E0,0E0,9.566494E-1,1.2448244E0,1.6298451E0,1.7267711E0,0E0,0E0,0E0,0E0,0E0,0E0],"parents":[2147483647,0,0,1,1,3,3,4,4,5,5,6,6],"right_children":[2,4,-1,6,8,10,12,-1,-1,-1,-1,-1,-1],"split_conditions":[2.1654489E-2,1.8037518E-2,5.3316895E-2,1.4637307E0,1.6318715E-1,1.5283447E-2,8.329916E-1,-2.2232026E-2,-1.0994774E-1,2.3070239E-2,-7.3765196E-2,8.277875E-2,-2.5057763E-2],"split_indices":[12,12,0,0,9,12,5,0,0,0,0,0,0],"split_type":[0,0,0,0,0,0,0,0,0,0,0,0,0],"sum_hessian":[4.633643E1,4.0740696E1,5.595733E0,2.5734663E1,1.5006034E1,1.3980458E1,1.1754206E1,9.091118E0,5.9149156E0,7.739188E0,6.24127E0,6.1837087E0,5.5704966E0],"tree_param":{"num_deleted":"0","num_feature":"15","num_nodes":"13","size_leaf_vector":"1"}},{"base_weights":[3.3367597E-2,7.695443E-2,-6.116429E-2,2.5565508E-1,-2.295705E-1,9.166597E-2,-1.9559633E-2,-7.934669E-2,-3.334454E-2,1.472133E-1,-5.2632235E-2,-1.832329E-2,5.6527495E-2],"categories":[],"categories_nodes":[],"categories_segments":[],"categories_sizes":[],"default_left":[0,0,0,0,0,0,0,0,0,0,0,0,0],"id":64,"left_children":[1,-1,3,5,7,-1,-1,-1,9,11,-1,-1,-1],"loss_changes":[2.12418E0,0E0,2.163488E0,2.0234141E0,1.5266248E0,0E0,0E0,0E0,1.0232095E0,7.578409E-1,0E0,0E0,0E0],"parents":[2147483647,0,0,2,2,3,3,4,4,8,8,9,9],"right_children":[2,-1,4,6,8,-1,-1,-1,10,12,-1,-1,-1],"split_conditions":[5.6569475E-1,7.695443E-2,3.4020692E-2,1.3858289E0,1.0454971E-1,9.166597E-2,-1.9559633E-2,-7.934669E-2,9.9E1,1.4460641E-2,-5.2632235E-2,-1.832329E-2,5.6527495E-2],"split_indices":[5,0,6,0,6,0,0,0,10,12,0,0,0],"split_type":[0,0,0,0,0,0,0,0,0,0,0,0,0],"sum_hessian":[4.5154537E1,6.7051334E0,3.8449406E1,1.31647415E1,2.5284662E1,6.55051E0,6.6142316E0,9.339071E0,1.5945591E1,1.0507315E1,5.438277E0,5.0507407E0,5.456574E0],"tree_param":{"num_deleted":"0","num_feature":"15","num_nodes":"13","size_leaf_vector":"1"}},{"base_weights":[1.390839E-2,1.1942644E-1,-5.7744995E-2,-6.551747E-2,2.1441145E-1,6.860143E-2,9.44253E-2,-1.9089739E-1,2.700829E-1,-6.889504E-2,1.0586904E-2,-6.7904755E-3,7.674607E-2],"categories":[],"categories_nodes":[],"categories_segments":[],"categories_sizes":[],"default_left":[0,0,0,0,0,0,0,0,0,0,0,0,0],"id":65,"left_children":[1,3,-1,-1,5,7,-1,9,11,-1,-1,-1,-1],"loss_changes":[2.1324592E0,2.2051296E0,0E0,0E0,2.06351E0,1.4570234E0,0E0,8.980961E-1,1.2074168E0,0E0,0E0,0E0,0E0],"parents":[2147483647,0,0,1,1,4,4,5,5,7,7,8,8],"right_children":[2,4,-1,-1,6,8,-1,10,12,-1,-1,-1,-1],"split_conditions":[3.1132394E-1,7.4E1,-5.7744995E-2,-6.551747E-2,2.0222634E-2,2.2240588E-1,9.44253E-2,1.14E2,7.778568E-1,-6.889504E-2,1.0586904E-2,-6.7904755E-3,7.674607E-2],"split_indices":[3,11,0,0,12,2,0,10,5,0,0,0,0],"split_type":[0,0,0,0,0,0,0,0,0,0,0,0,0],"sum_hessian":[4.8573715E1,3.8966217E1,9.607497E0,5.1588407E0,3.3807377E1,2.5881262E1,7.9261165E0,1.13349285E1,1.4546333E1,5.220047E0,6.1148815E0,6.661871E0,7.8844624E0],"tree_param":{"num_deleted":"0","num_feature":"15","num_nodes":"13","size_leaf_vector":"1"}},{"base_weights":[-4.5183543E-2,-1.8360773E-1,6.9700845E-2,3.770408E-2,-3.4181353E-1,-4.9183604E-1,-1.3716011E-1,-2.6171641E-2,-1.3055885E-1,-5.592106E-2,1.0476263E-2],"categories":[],"categories_nodes":[],"categories_segments":[],"categories_sizes":[],"default_left":[0,0,0,0,0,0,0,0,0,0,0],"id":66,"left_children":[1,3,-1,-1,5,7,9,-1,-1,-1,-1],"loss_changes":[3.2017426E0,2.5250459E0,0E0,0E0,7.4355483E-1,1.6328142E0,6.38703E-1,0E0,0E0,0E0,0E0],"parents":[2147483647,0,0,1,1,4,4,5,5,6,6],"right_children":[2,4,-1,-1,6,8,10,-1,-1,-1,-1],"split_conditions":[1.9508837E-1,2.3489864E-1,6.9700845E-2,3.770408E-2,8.501445E-1,7.161276E-1,2.9628816E-1,-2.6171641E-2,-1.3055885E-1,-5.592106E-2,1.0476263E-2],"split_indices":[9,3,0,0,1,1,3,0,0,0,0],"split_type":[0,0,0,0,0,0,0,0,0,0,0],"sum_hessian":[4.3156776E1,3.4444965E1,8.711811E0,9.029792E0,2.5415173E1,1.3855237E1,1.1559935E1,8.331511E0,5.523727E0,5.0313535E0,6.528581E0],"tree_param":{"num_deleted":"0","num_feature":"15","num_nodes":"11","size_leaf_vector":"1"}},{"base_weights":[-4.8559826E-2,2.913718E-1,-2.1024507E-1,-1.0189567E-2,8.722712E-2,1.04549654E-1,-3.8469633E-1,7.652279E-2,-3.969032E-2,-6.347263E-1,2.6052492E-3,-1.3853143E-1,-4.489743E-2],"categories":[],"categories_nodes":[],"categories_segments":[],"categories_sizes":[],"default_left":[0,0,0,0,0,0,0,0,0,0,0,0,0],"id":67,"left_children":[1,3,5,-1,-1,7,9,-1,-1,11,-1,-1,-1],"loss_changes":[2.6146798E0,1.6442928E0,1.8010647E0,0E0,0E0,1.9645935E0,2.106501E0,0E0,0E0,9.711747E-1,0E0,0E0,0E0],"parents":[2147483647,0,0,1,1,2,2,5,5,6,6,9,9],"right_children":[2,4,6,-1,-1,8,10,-1,-1,12,-1,-1,-1],"split_conditions":[7.2568184E-1,7.7E1,1.1111111E-1,-1.0189567E-2,8.722712E-2,2.0289247E-1,5.8172207E0,7.652279E-2,-3.969032E-2,2.5537783E-1,2.6052492E-3,-1.3853143E-1,-4.489743E-2],"split_indices":[1,10,2,0,0,9,7,0,0,2,0,0,0],"split_type":[0,0,0,0,0,0,0,0,0,0,0,0,0],"sum_hessian":[4.5457985E1,1.4393851E1,3.1064133E1,6.7726765E0,7.6211753E0,1.1219467E1,1.9844666E1,5.163814E0,6.0556526E0,1.1878916E1,7.9657497E0,5.4406133E0,6.438303E0],"tree_param":{"num_deleted":"0","num_feature":"15","num_nodes":"13","size_leaf_vector":"1"}},{"base_weights":[-3.1076442E-2,2.4487017E-1,-2.6329336E-1,8.976936E-2,-1.9421756E-2,-1.0333962E-2,-4.6209523E-1,4.088043E-2,-4.4247236E-2,-1.283462E-1,-1.6484505E-2],"categories":[],"categories_nodes":[],"categories_segments":[],"categories_sizes":[],"default_left":[0,0,0,0,0,0,0,0,0,0,0],"id":68,"left_children":[1,3,5,-1,-1,7,9,-1,-1,-1,-1],"loss_changes":[2.881509E0,2.8052201E0,1.2199693E0,0E0,0E0,1.0256928E0,1.7929602E0,0E0,0E0,0E0,0E0],"parents":[2147483647,0,0,1,1,2,2,5,5,6,6],"right_children":[2,4,6,-1,-1,8,10,-1,-1,-1,-1],"split_conditions":[5.0076237E0,-4.5115296E-2,1.4063056E0,8.976936E-2,-1.9421756E-2,8.92405E-1,5.8172207E0,4.088043E-2,-4.4247236E-2,-1.283462E-1,-1.6484505E-2],"split_indices":[7,4,0,0,0,1,7,0,0,0,0],"split_type":[0,0,0,0,0,0,0,0,0,0,0],"sum_hessian":[4.29616E1,1.9607384E1,2.3354218E1,9.775358E0,9.8320265E0,1.0740182E1,1.2614037E1,5.408251E0,5.331931E0,5.28224E0,7.331796E0],"tree_param":{"num_deleted":"0","num_feature":"15","num_nodes":"11","size_leaf_vector":"1"}},{"base_weights":[6.8997994E-2,1.4844303E-1,-5.7297867E-2,-5.2156433E-2,4.1030204E-1,2.1575923E-1,-2.755164E-1,1.2819456E-3,5.867599E-1,5.8205314E-2,-1.0733065E-3,-1.045656E-1,3.4934275E-2,1.2940943E-1,2.7637301E-2],"categories":[],"categories_nodes":[],"categories_segments":[],"categories_sizes":[],"default_left":[0,0,0,0,0,0,0,0,0,0,0,0,0,0,0],"id":69,"left_children":[1,3,-1,5,7,9,11,-1,13,-1,-1,-1,-1,-1,-1],"loss_changes":[1.7711173E0,2.1963003E0,0E0,1.5154818E0,1.2761974E0,4.491411E-1,3.100587E0,0E0,1.2342625E0,0E0,0E0,0E0,0E0,0E0,0E0],"parents":[2147483647,0,0,1,1,3,3,4,4,5,5,6,6,8,8],"right_children":[2,4,-1,6,8,10,12,-1,14,-1,-1,-1,-1,-1,-1],"split_conditions":[3.0230668E-1,1.7692967E-1,-5.7297867E-2,7.84626E-2,3.227486E-2,2.1134588E-1,1.1686317E-1,1.2819456E-3,8.142989E-1,5.8205314E-2,-1.0733065E-3,-1.045656E-1,3.4934275E-2,1.2940943E-1,2.7637301E-2],"split_indices":[2,2,0,2,6,9,8,0,5,0,0,0,0,0,0],"split_type":[0,0,0,0,0,0,0,0,0,0,0,0,0,0,0],"sum_hessian":[4.6850677E1,4.040398E1,6.446696E0,2.33315E1,1.7072483E1,1.0623208E1,1.270829E1,5.5300984E0,1.1542383E1,5.57439E0,5.0488186E0,6.7444673E0,5.9638224E0,6.169255E0,5.373129E0],"tree_param":{"num_deleted":"0","num_feature":"15","num_nodes":"15","size_leaf_vector":"1"}},{"base_weights":[-6.4132184E-2,-2.2720324E-1,2.8416756E-1,-4.047892E-1,5.050178E-2,-7.782672E-3,1.0041026E-1,-1.6349822E-1,-6.227718E-1,-5.6638334E-2,1.1674733E-2,-5.7027325E-2,-1.1228472E-1],"categories":[],"categories_nodes":[],"categories_segments":[],"categories_sizes":[],"default_left":[0,0,0,0,0,0,0,0,0,0,0,0,0],"id":70,"left_children":[1,3,5,7,-1,-1,-1,9,11,-1,-1,-1,-1],"loss_changes":[2.5984154E0,3.2346716E0,1.9339699E0,1.1597104E0,0E0,0E0,0E0,6.8760645E-1,8.907938E-2,0E0,0E0,0E0,0E0],"parents":[2147483647,0,0,1,1,2,2,3,3,7,7,8,8],"right_children":[2,4,6,8,-1,-1,-1,10,12,-1,-1,-1,-1],"split_conditions":[5.8244047E0,1.11E2,3.72678E-2,1.7989418E-2,5.050178E-2,-7.782672E-3,1.0041026E-1,7.6E1,7.936376E-1,-5.6638334E-2,1.1674733E-2,-5.7027325E-2,-1.1228472E-1],"split_indices":[7,10,6,12,0,0,0,10,1,0,0,0,0],"split_type":[0,0,0,0,0,0,0,0,0,0,0,0,0],"sum_hessian":[4.3611946E1,2.9941338E1,1.3670608E1,2.2984772E1,6.9565654E0,7.7635407E0,5.907067E0,1.1739759E1,1.1245013E1,5.9217687E0,5.817991E0,5.213381E0,6.031632E0],"tree_param":{"num_deleted":"0","num_feature":"15","num_nodes":"13","size_leaf_vector":"1"}},{"base_weights":[-2.5163458E-3,-9.936259E-2,3.05101E-1,-6.2448657E-3,-8.515676E-2,1.632962E-2,6.849637E-2,1.5781525E-1,-2.920561E-1,2.8849125E-1,-2.5241448E-2,1.843444E-2,-9.422172E-2,-8.520321E-3,7.987837E-2],"categories":[],"categories_nodes":[],"categories_segments":[],"categories_sizes":[],"default_left":[0,0,0,0,0,0,0,0,0,0,0,0,0,0,0],"id":71,"left_children":[1,3,5,7,-1,-1,-1,9,11,13,-1,-1,-1,-1,-1],"loss_changes":[1.422732E0,1.5796285E0,2.903993E-1,1.5133919E0,0E0,0E0,0E0,9.2336583E-1,1.7176083E0,1.2962738E0,0E0,0E0,0E0,0E0,0E0],"parents":[2147483647,0,0,1,1,2,2,3,3,7,7,8,8,9,9],"right_children":[2,4,6,8,-1,-1,-1,10,12,14,-1,-1,-1,-1,-1],"split_conditions":[2.733279E-1,2.3898892E-1,2.971169E-1,2.0204082E-2,-8.515676E-2,1.632962E-2,6.849637E-2,1.19E2,9.375242E-2,1.6454546E-1,-2.5241448E-2,1.843444E-2,-9.422172E-2,-8.520321E-3,7.987837E-2],"split_indices":[2,2,3,12,0,0,0,10,8,2,0,0,0,0,0],"split_type":[0,0,0,0,0,0,0,0,0,0,0,0,0,0,0],"sum_hessian":[4.5738583E1,3.530166E1,1.0436923E1,3.0292253E1,5.009407E0,5.2965693E0,5.1403537E0,1.9529722E1,1.0762531E1,1.4024809E1,5.5049133E0,5.100063E0,5.662468E0,6.1251807E0,7.899628E0],"tree_param":{"num_deleted":"0","num_feature":"15","num_nodes":"15","size_leaf_vector":"1"}},{"base_weights":[-8.261679E-2,1.5638702E-2,-5.7642315E-2,-1.04425356E-1,7.598616E-2,-3.820393E-1,1.3809265E-1,1.7127207E-2,-1.2674509E-1,5.1758103E-2,-3.211488E-2],"categories":[],"categories_nodes":[],"categories_segments":[],"categories_sizes":[],"default_left":[0,0,0,0,0,0,0,0,0,0,0],"id":72,"left_children":[1,3,-1,5,-1,7,9,-1,-1,-1,-1],"loss_changes":[1.3189853E0,2.0790722E0,0E0,1.9681263E0,0E0,3.2045622E0,1.2341995E0,0E0,0E0,0E0,0E0],"parents":[2147483647,0,0,1,1,3,3,5,5,6,6],"right_children":[2,4,-1,6,-1,8,10,-1,-1,-1,-1],"split_conditions":[1.29E2,1.06E2,-5.7642315E-2,1.7692967E-1,7.598616E-2,-5.3513087E-2,9.3215156E-1,1.7127207E-2,-1.2674509E-1,5.1758103E-2,-3.211488E-2],"split_indices":[11,11,0,2,0,4,1,0,0,0,0],"split_type":[0,0,0,0,0,0,0,0,0,0,0],"sum_hessian":[4.3297024E1,3.33747E1,9.922325E0,2.7449017E1,5.925684E0,1.2530203E1,1.4918813E1,6.4112353E0,6.1189675E0,9.409625E0,5.5091877E0],"tree_param":{"num_deleted":"0","num_feature":"15","num_nodes":"11","size_leaf_vector":"1"}},{"base_weights":[-4.2718135E-2,4.5487516E-2,-8.337291E-2,-3.9979566E-2,8.366728E-2,1.8154728E-1,-2.5678152E-1,-4.412738E-2,4.4259608E-1,-5.552997E-2,-9.89181E-2,2.0174466E-2,1.10606715E-1,-4.4392902E-2,3.0609567E-2],"categories":[],"categories_nodes":[],"categories_segments":[],"categories_sizes":[],"default_left":[0,0,0,0,0,0,0,0,0,0,0,0,0,0,0],"id":73,"left_children":[1,3,-1,5,-1,7,9,-1,11,13,-1,-1,-1,-1,-1],"loss_changes":[2.1802235E0,1.8417109E0,0E0,1.8018174E0,0E0,2.447779E0,1.4937129E0,0E0,1.031467E0,9.1438395E-1,0E0,0E0,0E0,0E0,0E0],"parents":[2147483647,0,0,1,1,3,3,5,5,6,6,8,8,9,9],"right_children":[2,4,-1,6,-1,8,10,-1,12,14,-1,-1,-1,-1,-1],"split_conditions":[2.0867553E-1,1.6148512E0,-8.337291E-2,1.4252297E0,8.366728E-2,1.2716666E0,1.01E2,-4.412738E-2,2.4137898E-1,1.6420722E-2,-9.89181E-2,2.0174466E-2,1.10606715E-1,-4.4392902E-2,3.0609567E-2],"split_indices":[9,0,0,0,0,0,11,0,3,12,0,0,0,0,0],"split_type":[0,0,0,0,0,0,0,0,0,0,0,0,0,0,0],"sum_hessian":[4.661412E1,4.0553963E1,6.060158E0,3.5545753E1,5.008209E0,1.7661726E1,1.7884027E1,6.2127733E0,1.1448953E1,1.2683065E1,5.2009616E0,6.3100667E0,5.1388855E0,6.5119567E0,6.1711087E0],"tree_param":{"num_deleted":"0","num_feature":"15","num_nodes":"15","size_leaf_vector":"1"}},{"base_weights":[6.889825E-2,8.278009E-2,-7.1013994E-3,9.658618E-2,-7.107872E-2,8.5378036E-2,-5.3970315E-2,-7.034032E-2,9.915307E-2,-3.9270643E-2,3.988757E-2],"categories":[],"categories_nodes":[],"categories_segments":[],"categories_sizes":[],"default_left":[0,0,0,0,0,0,0,0,0,0,0],"id":74,"left_children":[1,-1,3,5,-1,-1,7,-1,9,-1,-1],"loss_changes":[1.6249468E0,0E0,1.9403028E0,2.3688884E0,0E0,0E0,1.6880847E0,0E0,1.255272E0,0E0,0E0],"parents":[2147483647,0,0,2,2,3,3,6,6,8,8],"right_children":[2,-1,4,6,-1,-1,8,-1,10,-1,-1],"split_conditions":[1.2700522E-2,8.278009E-2,1.5724093E0,-1.0729142E-1,-7.107872E-2,8.5378036E-2,1.2900512E0,-7.034032E-2,8.1E1,-3.9270643E-2,3.988757E-2],"split_indices":[12,0,0,4,0,0,0,0,10,0,0],"split_type":[0,0,0,0,0,0,0,0,0,0,0],"sum_hessian":[4.316311E1,5.017301E0,3.814581E1,3.18611E1,6.2847085E0,7.02594E0,2.483516E1,6.1381836E0,1.8696976E1,5.728294E0,1.2968682E1],"tree_param":{"num_deleted":"0","num_feature":"15","num_nodes":"11","size_leaf_vector":"1"}},{"base_weights":[-1.15010634E-1,3.7682205E-3,-8.83722E-2,1.7256059E-1,-2.3312558E-1,-2.9994836E-2,3.6035448E-1,-9.762563E-2,2.9817175E-2,-1.940162E-2,9.020782E-2],"categories":[],"categories_nodes":[],"categories_segments":[],"categories_sizes":[],"default_left":[0,0,0,0,0,0,0,0,0,0,0],"id":75,"left_children":[1,3,-1,5,7,-1,9,-1,-1,-1,-1],"loss_changes":[2.7173405E0,1.6215297E0,0E0,1.7277702E0,3.1746168E0,0E0,1.9771533E0,0E0,0E0,0E0,0E0],"parents":[2147483647,0,0,1,1,3,3,4,4,6,6],"right_children":[2,4,-1,6,8,-1,10,-1,-1,-1,-1],"split_conditions":[1.1069132E0,9.4E1,-8.83722E-2,8.561317E-2,-5.132391E-2,-2.9994836E-2,7.2E1,-9.762563E-2,2.9817175E-2,-1.940162E-2,9.020782E-2],"split_indices":[1,10,0,8,4,0,10,0,0,0,0],"split_type":[0,0,0,0,0,0,0,0,0,0,0],"sum_hessian":[4.721096E1,3.8546505E1,8.664453E0,2.2667181E1,1.5879326E1,7.575289E0,1.5091892E1,7.8146324E0,8.064693E0,5.1309004E0,9.960991E0],"tree_param":{"num_deleted":"0","num_feature":"15","num_nodes":"11","size_leaf_vector":"1"}},{"base_weights":[-8.934318E-2,-1.51134E-1,5.132612E-2,-2.5512537E-1,9.1608405E-2,1.7161077E-2,-5.291356E-1,5.56942E-2,-3.3955142E-2,3.779781E-2,-5.853308E-2,-1.2098261E-1,-4.2362355E-2],"categories":[],"categories_nodes":[],"categories_segments":[],"categories_sizes":[],"default_left":[0,0,0,0,0,0,0,0,0,0,0,0,0],"id":76,"left_children":[1,3,-1,5,7,9,11,-1,-1,-1,-1,-1,-1],"loss_changes":[1.2768795E0,1.0554826E0,0E0,2.1644206E0,1.2400471E0,1.5771236E0,7.598634E-1,0E0,0E0,0E0,0E0,0E0,0E0],"parents":[2147483647,0,0,1,1,3,3,4,4,5,5,6,6],"right_children":[2,4,-1,6,8,10,12,-1,-1,-1,-1,-1,-1],"split_conditions":[8.973635E-2,9.6816975E-1,5.132612E-2,7.905694E-2,1.1009238E-1,1.13129635E1,3.0175367E-1,5.56942E-2,-3.3955142E-2,3.779781E-2,-5.853308E-2,-1.2098261E-1,-4.2362355E-2],"split_indices":[4,1,0,6,9,7,3,0,0,0,0,0,0],"split_type":[0,0,0,0,0,0,0,0,0,0,0,0,0],"sum_hessian":[4.494863E1,3.9886826E1,5.0618043E0,2.7888372E1,1.1998453E1,1.4458349E1,1.3430023E1,6.29436E0,5.7040925E0,9.413588E0,5.0447617E0,5.253653E0,8.176371E0],"tree_param":{"num_deleted":"0","num_feature":"15","num_nodes":"13","size_leaf_vector":"1"}},{"base_weights":[1.4053702E-1,-4.4678465E-2,2.2392891E-1,3.1573984E-1,-1.9950693E-2,4.2558298E-1,2.2185347E-3,3.524132E-2,7.293259E-1,-2.2283245E-2,3.1820383E-2,6.223716E-2,1.4104277E-1],"categories":[],"categories_nodes":[],"categories_segments":[],"categories_sizes":[],"default_left":[0,0,0,0,0,0,0,0,0,0,0,0,0],"id":77,"left_children":[1,-1,3,5,-1,7,-1,9,11,-1,-1,-1,-1],"loss_changes":[1.7814757E0,0E0,1.3521402E0,1.0547206E0,0E0,2.7579284E0,0E0,3.9972267E-1,4.8226452E-1,0E0,0E0,0E0,0E0],"parents":[2147483647,0,0,2,2,3,3,5,5,7,7,8,8],"right_children":[2,-1,4,6,-1,8,-1,10,12,-1,-1,-1,-1],"split_conditions":[6.8E1,-4.4678465E-2,1.1410887E-1,2.0932427E-2,-1.9950693E-2,2.4382205E-1,2.2185347E-3,6.041841E0,8.1900275E-1,-2.2283245E-2,3.1820383E-2,6.223716E-2,1.4104277E-1],"split_indices":[10,0,6,12,0,3,0,7,1,0,0,0,0],"split_type":[0,0,0,0,0,0,0,0,0,0,0,0,0],"sum_hessian":[4.590507E1,6.925541E0,3.897953E1,3.1096306E1,7.8832254E0,2.2477974E1,8.618333E0,1.0325125E1,1.2152849E1,5.1423483E0,5.182776E0,6.071197E0,6.081652E0],"tree_param":{"num_deleted":"0","num_feature":"15","num_nodes":"13","size_leaf_vector":"1"}},{"base_weights":[-2.1135265E-2,-1.3627926E-1,8.813995E-2,-2.7982E-1,4.6757825E-2,5.7879787E-2,-4.741009E-1,-1.3301021E-1,-1.357827E-1,-8.344662E-2,3.2381736E-2],"categories":[],"categories_nodes":[],"categories_segments":[],"categories_sizes":[],"default_left":[0,0,0,0,0,0,0,0,0,0,0],"id":78,"left_children":[1,3,-1,5,-1,-1,7,-1,9,-1,-1],"loss_changes":[3.211707E0,2.555523E0,0E0,4.01066E0,0E0,0E0,3.140534E0,0E0,2.19284E0,0E0,0E0],"parents":[2147483647,0,0,1,1,3,3,6,6,8,8],"right_children":[2,4,-1,6,-1,-1,8,-1,10,-1,-1],"split_conditions":[1.5896996E0,2.733279E-1,8.813995E-2,3.8302574E-2,4.6757825E-2,5.7879787E-2,1.273789E-1,-1.3301021E-1,8.3E1,-8.344662E-2,3.2381736E-2],"split_indices":[0,2,0,2,0,0,8,0,10,0,0],"split_type":[0,0,0,0,0,0,0,0,0,0,0],"sum_hessian":[4.367874E1,3.7383644E1,6.2950983E0,2.8596565E1,8.787078E0,6.2376666E0,2.23589E1,9.342814E0,1.3016086E1,5.662602E0,7.353483E0],"tree_param":{"num_deleted":"0","num_feature":"15","num_nodes":"11","size_leaf_vector":"1"}},{"base_weights":[1.4946541E-2,2.2767615E-1,-1.3708743E-1,7.564063E-2,-2.120403E-3,-6.962309E-2,1.7386256E-2,-5.3417705E-2,5.3336974E-2,6.0511343E-2,-2.2565567E-1,1.5793988E-2,-6.930063E-2],"categories":[],"categories_nodes":[],"categories_segments":[],"categories_sizes":[],"default_left":[0,0,0,0,0,0,0,0,0,0,0,0,0],"id":79,"left_children":[1,3,5,-1,7,-1,9,-1,-1,-1,11,-1,-1],"loss_changes":[1.5041507E0,1.2314721E0,1.3815148E0,0E0,1.5915895E0,0E0,1.9137444E0,0E0,0E0,0E0,1.0313212E0,0E0,0E0],"parents":[2147483647,0,0,1,1,2,2,4,4,6,6,10,10],"right_children":[2,4,6,-1,8,-1,10,-1,-1,-1,12,-1,-1],"split_conditions":[1.0525911E-1,9.658931E-2,3.786415E0,7.564063E-2,1.7692967E-1,-6.962309E-2,1.5149502E-2,-5.3417705E-2,5.3336974E-2,6.0511343E-2,8.026237E-1,1.5793988E-2,-6.930063E-2],"split_indices":[8,2,7,0,2,0,12,0,0,0,5,0,0],"split_type":[0,0,0,0,0,0,0,0,0,0,0,0,0],"sum_hessian":[4.4542435E1,1.8357977E1,2.618446E1,7.788691E0,1.0569285E1,7.7566314E0,1.8427828E1,5.3143587E0,5.254926E0,6.864744E0,1.1563083E1,5.04845E0,6.514633E0],"tree_param":{"num_deleted":"0","num_feature":"15","num_nodes":"13","size_leaf_vector":"1"}},{"base_weights":[-1.0670602E-2,-2.2706667E-1,2.0846772E-1,-7.349998E-2,-2.87749E-2,4.5827854E-1,-1.5287701E-2,3.1201528E-2,-4.7816314E-2,1.07072614E-1,1.1851438E-2],"categories":[],"categories_nodes":[],"categories_segments":[],"categories_sizes":[],"default_left":[0,0,0,0,0,0,0,0,0,0,0],"id":80,"left_children":[1,3,5,-1,7,9,-1,-1,-1,-1,-1],"loss_changes":[2.098371E0,1.1454782E0,1.7534007E0,0E0,1.0098944E0,1.1432095E0,0E0,0E0,0E0,0E0,0E0],"parents":[2147483647,0,0,1,1,2,2,4,4,5,5],"right_children":[2,4,6,-1,8,10,-1,-1,-1,-1,-1],"split_conditions":[6.078708E-2,-6.640246E-2,