{"learner":{"attributes":{"best_iteration":"41","best_score":"0.39998600501805925"},"feature_names":[],"feature_types":[],"gradient_booster":{"model":{"gbtree_model_param":{"num_parallel_tree":"1","num_trees":"92"},"iteration_indptr":[0,1,2,3,4,5,6,7,8,9,10,11,12,13,14,15,16,17,18,19,20,21,22,23,24,25,26,27,28,29,30,31,32,33,34,35,36,37,38,39,40,41,42,43,44,45,46,47,48,49,50,51,52,53,54,55,56,57,58,59,60,61,62,63,64,65,66,67,68,69,70,71,72,73,74,75,76,77,78,79,80,81,82,83,84,85,86,87,88,89,90,91,92],"tree_info":[0,0,0,0,0,0,0,0,0,0,0,0,0,0,0,0,0,0,0,0,0,0,0,0,0,0,0,0,0,0,0,0,0,0,0,0,0,0,0,0,0,0,0,0,0,0,0,0,0,0,0,0,0,0,0,0,0,0,0,0,0,0,0,0,0,0,0,0,0,0,0,0,0,0,0,0,0,0,0,0,0,0,0,0,0,0,0,0,0,0,0,0],"trees":[{"base_weights":[2.482723E-2,-6.3179517E-1,1.4582796E0,-1.2489008E0,2.658877E-1,2.3979738E-1,8.277425E-2,-1.6060922E0,-8.455069E-2,8.6049235E-1,-7.3004895E-1,-3.0442622E-1,-7.852547E-1,-1.6620317E-1,1.369985E-1,2.1520075E-1,4.7087392E-1,-1.8181756E-1,-2.035809E-2,-2.048832E-1,-2.6077865E-2,8.081022E-3,1.0807405E-1],"categories":[],"categories_nodes":[],"categories_segments":[],"categories_sizes":[],"default_left":[0,0,0,0,0,0,0,0,0,0,0,0,0,0,0,0,0,0,0,0,0,0,0],"id":0,"left_children":[1,3,5,7,9,-1,-1,11,13,15,17,-1,19,-1,-1,-1,21,-1,-1,-1,-1,-1,-1],"loss_changes":[1.00503914E2,4.0915085E1,3.3854523E0,1.7993034E1,1.8790222E1,0E0,0E0,9.980354E0,1.254092E1,3.7232676E0,3.275394E0,0E0,4.3645625E0,0E0,0E0,0E0,1.3354735E0,0E0,0E0,0E0,0E0,0E0,0E0],"parents":[2147483647,0,0,1,1,2,2,3,3,4,4,7,7,8,8,9,9,10,10,12,12,16,16],"right_children":[2,4,6,8,10,-1,-1,12,14,16,18,-1,20,-1,-1,-1,22,-1,-1,-1,-1,-1,-1],"split_conditions":[2E0,2.9862604E-1,1.4629192E0,3.7661355E-2,8.2912713E-1,2.3979738E-1,8.277425E-2,2.129017E-1,6.25E-2,5.6363666E-1,1.5622782E0,-3.0442622E-1,-8.2167625E-2,-1.6620317E-1,1.369985E-1,2.1520075E-1,4.986213E-2,-1.8181756E-1,-2.035809E-2,-2.048832E-1,-2.6077865E-2,8.081022E-3,1.0807405E-1],"split_indices":[14,3,0,4,5,0,0,2,6,5,0,0,4,0,0,0,2,0,0,0,0,0,0],"split_type":[0,0,0,0,0,0,0,0,0,0,0,0,0,0,0,0,0,0,0,0,0,0,0],"sum_hessian":[1.0479969E2,7.225915E1,3.2540543E1,4.258983E1,2.966932E1,2.7515902E1,5.024643E0,3.2301273E1,1.0288554E1,1.8662958E1,1.100636E1,2.033784E1,1.1963435E1,5.024643E0,5.2639117E0,6.460255E0,1.2202704E1,5.50318E0,5.50318E0,5.50318E0,6.460255E0,5.024643E0,7.178061E0],"tree_param":{"num_deleted":"0","num_feature":"15","num_nodes":"23","size_leaf_vector":"1"}},{"base_weights":[-5.730571E-2,-6.312077E-1,1.345166E0,-9.908123E-1,4.125982E-1,2.1817252E-1,1.24548845E-1,-1.6102408E0,-5.7674974E-1,9.309866E-1,-6.254011E-2,-1.407304E-1,-1.7635956E0,-2.5371647E-1,-3.1684342E-1,8.7024875E-2,1.7933106E-1,-1.577522E-1,-3.0536085E-1,-1.298782E-1,3.385163E-2],"categories":[],"categories_nodes":[],"categories_segments":[],"categories_sizes":[],"default_left":[0,0,0,0,0,0,0,0,0,0,0,0,0,0,0,0,0,0,0,0,0],"id":1,"left_children":[1,3,5,7,9,-1,-1,11,13,15,-1,-1,17,-1,19,-1,-1,-1,-1,-1,-1],"loss_changes":[8.4097466E1,2.8213802E1,5.006218E-1,1.3277607E1,8.8539505E0,0E0,0E0,5.7492065E-1,9.533382E0,4.595642E-1,0E0,0E0,1.0513954E0,0E0,8.956591E0,0E0,0E0,0E0,0E0,0E0,0E0],"parents":[2147483647,0,0,1,1,2,2,3,3,4,4,7,7,8,8,9,9,12,12,14,14],"right_children":[2,4,6,8,10,-1,-1,12,14,16,-1,-1,18,-1,20,-1,-1,-1,-1,-1,-1],"split_conditions":[2E0,1.9508837E-1,2.4240819E-1,3.227486E-2,6.0033953E-1,2.1817252E-1,1.24548845E-1,5.692072E-1,5.8E1,8.361285E-1,-6.254011E-2,-1.407304E-1,8.5E1,-2.5371647E-1,-5.5238355E-2,8.7024875E-2,1.7933106E-1,-1.577522E-1,-3.0536085E-1,-1.298782E-1,3.385163E-2],"split_indices":[14,9,3,6,5,0,0,1,11,1,0,0,10,0,4,0,0,0,0,0,0],"split_type":[0,0,0,0,0,0,0,0,0,0,0,0,0,0,0,0,0,0,0,0,0],"sum_hessian":[1.02429405E2,7.307606E1,2.9353344E1,5.4389088E1,1.8686974E1,2.2706827E1,6.646516E0,2.0633278E1,3.375581E1,1.1424999E1,7.261975E0,5.156052E0,1.5477226E1,5.341054E0,2.8414755E1,6.2843785E0,5.140621E0,5.6255336E0,9.851692E0,1.3826681E1,1.4588074E1],"tree_param":{"num_deleted":"0","num_feature":"15","num_nodes":"21","size_leaf_vector":"1"}},{"base_weights":[2.606986E-2,-4.4778574E-1,1.2122116E0,-2.5661975E-1,-1.5225887E-1,2.0411105E-1,6.754896E-2,-6.640682E-1,6.444449E-1,-1.4473699E-1,-9.291837E-1,1.0520004E0,-3.4534086E-2,-1.17132924E-1,8.091468E-2,-1.7877106E-1,4.2515774E-3,8.063576E-2,1.8993126E-1],"categories":[],"categories_nodes":[],"categories_segments":[],"categories_sizes":[],"default_left":[0,0,0,0,0,0,0,0,0,0,0,0,0,0,0,0,0,0,0],"id":2,"left_children":[1,3,5,-1,7,-1,-1,9,11,13,15,17,-1,-1,-1,-1,-1,-1,-1],"loss_changes":[5.6024837E1,2.6339216E1,2.606411E0,0E0,2.4424257E1,0E0,0E0,4.866623E0,8.628547E0,6.2797117E0,6.0345554E0,1.1075096E0,0E0,0E0,0E0,0E0,0E0,0E0,0E0],"parents":[2147483647,0,0,1,1,2,2,4,4,7,7,8,8,9,9,10,10,11,11],"right_children":[2,4,6,-1,8,-1,-1,10,12,14,16,18,-1,-1,-1,-1,-1,-1,-1],"split_conditions":[2E0,6.8E1,1.4286898E0,-2.5661975E-1,2.9930404E-1,2.0411105E-1,6.754896E-2,1.0525911E-1,9.388359E-1,7.108078E-2,2.5701916E-1,1.5920257E-2,-3.4534086E-2,-1.17132924E-1,8.091468E-2,-1.7877106E-1,4.2515774E-3,8.063576E-2,1.8993126E-1],"split_indices":[14,10,0,0,3,0,0,8,1,8,8,12,0,0,0,0,0,0,0],"split_type":[0,0,0,0,0,0,0,0,0,0,0,0,0,0,0,0,0,0,0],"sum_hessian":[9.7711945E1,7.026431E1,2.744763E1,1.2415291E1,5.7849022E1,2.2311928E1,5.135703E0,3.532343E1,2.2525595E1,1.2460555E1,2.2862873E1,1.5227546E1,7.2980485E0,6.383615E0,6.07694E0,1.7749897E1,5.1129756E0,5.5084257E0,9.71912E0],"tree_param":{"num_deleted":"0","num_feature":"15","num_nodes":"19","size_leaf_vector":"1"}},{"base_weights":[1.1490638E-2,-3.332973E-1,1.1478177E0,-1.0135335E0,8.654951E-2,1.9092305E-1,8.7442756E-2,-2.2235723E-1,-1.5203781E0,-1.7192027E-1,2.8019878E-1,-1.1020756E-1,7.254473E-2,-1.4034364E-1,-2.541065E-1,1.3945073E-1,7.382622E-2,7.939342E-2,-6.8820186E-2],"categories":[],"categories_nodes":[],"categories_segments":[],"categories_sizes":[],"default_left":[0,0,0,0,0,0,0,0,0,0,0,0,0,0,0,0,0,0,0],"id":3,"left_children":[1,3,5,7,9,-1,-1,11,13,-1,15,-1,-1,-1,-1,-1,17,-1,-1],"loss_changes":[4.0209427E1,2.258241E1,9.44788E-1,1.174781E1,1.2167106E1,0E0,0E0,5.035942E0,2.6316833E-1,0E0,5.787456E0,0E0,0E0,0E0,0E0,0E0,8.549716E0,0E0,0E0],"parents":[2147483647,0,0,1,1,2,2,3,3,4,4,7,7,8,8,10,10,16,16],"right_children":[2,4,6,8,10,-1,-1,12,14,-1,16,-1,-1,-1,-1,-1,18,-1,-1],"split_conditions":[2E0,3.227486E-2,1.40885E0,1.0284226E-1,5.8E1,1.9092305E-1,8.7442756E-2,2.6132265E-1,1.50226755E-2,-1.7192027E-1,5.693381E-1,-1.1020756E-1,7.254473E-2,-1.4034364E-1,-2.541065E-1,1.3945073E-1,9.3E1,7.939342E-2,-6.8820186E-2],"split_indices":[14,6,0,8,11,0,0,3,12,0,5,0,0,0,0,0,10,0,0],"split_type":[0,0,0,0,0,0,0,0,0,0,0,0,0,0,0,0,0,0,0],"sum_hessian":[1.0065311E2,7.7764305E1,2.2888803E1,2.9139084E1,4.862522E1,1.7715189E1,5.173614E0,1.1939861E1,1.7199223E1,5.9339213E0,4.26913E1,6.8951364E0,5.044725E0,5.4009657E0,1.1798256E1,9.449154E0,3.324215E1,1.7922464E1,1.5319684E1],"tree_param":{"num_deleted":"0","num_feature":"15","num_nodes":"19","size_leaf_vector":"1"}},{"base_weights":[9.156428E-2,-1.218774E-1,1.6439342E-1,-1.832272E-1,3.9874703E-2,-6.7722745E-2,1.5578695E-1,-4.17742E-1,4.3217406E-1,-1.2454536E-1,-6.1844946E-3,-6.0605316E-6,1.4908344E-1],"categories":[],"categories_nodes":[],"categories_segments":[],"categories_sizes":[],"default_left":[0,0,0,0,0,0,0,0,0,0,0,0,0],"id":4,"left_children":[1,3,-1,-1,5,7,-1,9,11,-1,-1,-1,-1],"loss_changes":[1.9512949E1,1.3469644E1,0E0,0E0,7.2428255E0,1.0887855E1,0E0,5.635618E0,6.2378E0,0E0,0E0,0E0,0E0],"parents":[2147483647,0,0,1,1,4,4,5,5,7,7,8,8],"right_children":[2,4,-1,-1,6,8,-1,10,12,-1,-1,-1,-1],"split_conditions":[1E0,5.8E1,1.6439342E-1,-1.832272E-1,1.4444385E-1,2.9862604E-1,1.5578695E-1,3.227486E-2,1.9508837E-1,-1.2454536E-1,-6.1844946E-3,-6.0605316E-6,1.4908344E-1],"split_indices":[13,11,0,0,4,3,0,6,9,0,0,0,0],"split_type":[0,0,0,0,0,0,0,0,0,0,0,0,0],"sum_hessian":[8.93977E1,7.445421E1,1.4943488E1,8.707355E0,6.574686E1,6.0193935E1,5.552923E0,3.550105E1,2.4692886E1,1.6364508E1,1.913654E1,1.452019E1,1.0172696E1],"tree_param":{"num_deleted":"0","num_feature":"15","num_nodes":"13","size_leaf_vector":"1"}},{"base_weights":[-2.2841506E-2,-3.3470842E-1,1.7098433E-1,-8.5070777E-1,6.0670536E-2,-5.003328E-1,-1.9432299E-1,-2.2585054E-1,8.076532E-1,1.575276E-2,-1.5530592E-1,-5.284723E-1,7.1340196E-2,1.7974964E-1,4.0161222E-2,-1.1245548E-1,1.6538654E-2],"categories":[],"categories_nodes":[],"categories_segments":[],"categories_sizes":[],"default_left":[0,0,0,0,0,0,0,0,0,0,0,0,0,0,0,0,0],"id":5,"left_children":[1,3,-1,5,7,9,-1,11,13,-1,-1,15,-1,-1,-1,-1,-1],"loss_changes":[3.2430595E1,1.4427151E1,0E0,4.1260014E0,8.920636E0,6.1866064E0,0E0,6.6812444E0,2.1127448E0,0E0,0E0,3.139803E0,0E0,0E0,0E0,0E0,0E0],"parents":[2147483647,0,0,1,1,3,3,4,4,5,5,7,7,8,8,11,11],"right_children":[2,4,-1,6,8,10,-1,12,14,-1,-1,16,-1,-1,-1,-1,-1],"split_conditions":[3E0,2.6132265E-1,1.7098433E-1,8.735646E-1,1.959363E-1,2.3482668E-1,-1.9432299E-1,5.8244047E0,5.0076237E0,1.575276E-2,-1.5530592E-1,2.602339E-1,7.1340196E-2,1.7974964E-1,4.0161222E-2,-1.1245548E-1,1.6538654E-2],"split_indices":[14,3,0,1,9,3,0,7,7,0,0,2,0,0,0,0,0],"split_type":[0,0,0,0,0,0,0,0,0,0,0,0,0,0,0,0,0],"sum_hessian":[8.738215E1,6.946305E1,1.79191E1,2.9635225E1,3.9827827E1,1.7765408E1,1.1869817E1,2.929049E1,1.053734E1,8.712119E0,9.0532875E0,2.0634789E1,8.6557E0,5.4060516E0,5.131288E0,1.5197302E1,5.437486E0],"tree_param":{"num_deleted":"0","num_feature":"15","num_nodes":"17","size_leaf_vector":"1"}},{"base_weights":[3.0332774E-2,-3.4203577E-1,1.0382348E0,-6.7980134E-1,1.6740559E-1,7.883264E-2,1.7472592E-1,-2.9463655E-1,-8.8419205E-1,-1.656015E-1,1.2223552E-1,6.514304E-2,-1.484455E-1,-1.1523275E0,-6.684878E-2,6.0401037E-2,-8.914685E-2,-7.803679E-2,-2.1556817E-1],"categories":[],"categories_nodes":[],"categories_segments":[],"categories_sizes":[],"default_left":[0,0,0,0,0,0,0,0,0,0,0,0,0,0,0,0,0,0,0],"id":6,"left_children":[1,3,5,7,9,-1,-1,11,13,15,-1,-1,-1,17,-1,-1,-1,-1,-1],"loss_changes":[3.227769E1,1.093059E1,8.9331627E-1,2.7308254E0,5.711854E0,0E0,0E0,7.863183E0,2.3467083E0,4.6029396E0,0E0,0E0,0E0,1.8561192E0,0E0,0E0,0E0,0E0,0E0],"parents":[2147483647,0,0,1,1,2,2,3,3,4,4,7,7,8,8,9,9,13,13],"right_children":[2,4,6,8,10,-1,-1,12,14,16,-1,-1,-1,18,-1,-1,-1,-1,-1],"split_conditions":[2E0,8.012163E-2,1.4588057E-2,8.0795956E-1,1.480641E0,7.883264E-2,1.7472592E-1,8.735646E-1,6.733439E-2,5.8351207E-1,1.2223552E-1,6.514304E-2,-1.484455E-1,1.3506777E0,-6.684878E-2,6.0401037E-2,-8.914685E-2,-7.803679E-2,-2.1556817E-1],"split_indices":[14,9,12,5,0,0,0,1,6,5,0,0,0,0,0,0,0,0,0],"split_type":[0,0,0,0,0,0,0,0,0,0,0,0,0,0,0,0,0,0,0],"sum_hessian":[8.4056335E1,6.1862087E1,2.219425E1,3.6997746E1,2.4864342E1,5.4154725E0,1.6778776E1,1.3673054E1,2.3324692E1,1.6911188E1,7.953153E0,6.856749E0,6.816304E0,1.3464389E1,9.860302E0,7.2980433E0,9.613145E0,5.0602374E0,8.404152E0],"tree_param":{"num_deleted":"0","num_feature":"15","num_nodes":"19","size_leaf_vector":"1"}},{"base_weights":[-5.6303386E-2,-9.453806E-1,1.16442055E-1,-1.7611746E-1,-6.985679E-2,2.8291127E-1,-1.3589983E-1,-1.8111981E-1,5.4121494E-1,-5.866684E-1,5.595776E-2,6.6868174E-1,-4.5501497E-2,-2.47737E-2,-1.2626839E-1,2.027933E-2,1.3767439E-1],"categories":[],"categories_nodes":[],"categories_segments":[],"categories_sizes":[],"default_left":[0,0,0,0,0,0,0,0,0,0,0,0,0,0,0,0,0],"id":7,"left_children":[1,3,5,-1,-1,7,-1,9,11,13,-1,15,-1,-1,-1,-1,-1],"loss_changes":[1.3207385E1,9.874115E-1,1.2561188E1,0E0,0E0,7.6413474E0,0E0,5.4450774E0,4.5821466E0,1.3467298E0,0E0,4.615368E0,0E0,0E0,0E0,0E0,0E0],"parents":[2147483647,0,0,1,1,2,2,5,5,7,7,8,8,9,9,11,11],"right_children":[2,4,6,-1,-1,8,-1,10,12,14,-1,16,-1,-1,-1,-1,-1],"split_conditions":[6.8E1,1.4745812E0,1.5E2,-1.7611746E-1,-6.985679E-2,-6.442152E-2,-1.3589983E-1,2.9709798E-1,9.4678766E-1,1.3389117E0,5.595776E-2,1.4543393E-1,-4.5501497E-2,-2.47737E-2,-1.2626839E-1,2.027933E-2,1.3767439E-1],"split_indices":[10,0,10,0,0,4,0,3,5,0,0,2,0,0,0,0,0],"split_type":[0,0,0,0,0,0,0,0,0,0,0,0,0,0,0,0,0],"sum_hessian":[8.4277756E1,1.2983301E1,7.129446E1,7.8108416E0,5.172459E0,6.193395E1,9.360509E0,2.2254158E1,3.967979E1,1.2816366E1,9.437792E0,3.465731E1,5.0224833E0,5.4534883E0,7.3628774E0,1.1524071E1,2.3133238E1],"tree_param":{"num_deleted":"0","num_feature":"15","num_nodes":"17","size_leaf_vector":"1"}},{"base_weights":[-4.2676614E-3,-2.4593161E-1,8.6985177E-1,-7.08369E-1,4.400687E-2,1.6234323E-1,4.275471E-2,-3.488473E-1,-1.8579242E-1,6.115118E-1,-3.6948326E-1,-1.3669556E-1,-1.5065202E-2,1.3994995E-1,1.7512033E-2,-6.934177E-1,5.138352E-2,4.7659934E-2,-5.2084282E-2,-1.5900028E-1,-5.5667296E-2],"categories":[],"categories_nodes":[],"categories_segments":[],"categories_sizes":[],"default_left":[0,0,0,0,0,0,0,0,0,0,0,0,0,0,0,0,0,0,0,0,0],"id":8,"left_children":[1,3,5,7,9,-1,-1,11,-1,13,15,-1,17,-1,-1,19,-1,-1,-1,-1,-1],"loss_changes":[1.7570948E1,8.766327E0,1.9298325E0,4.3652086E0,9.843344E0,0E0,0E0,3.063054E0,0E0,2.6987815E0,5.850055E0,0E0,1.3596809E0,0E0,0E0,1.6216946E0,0E0,0E0,0E0,0E0,0E0],"parents":[2147483647,0,0,1,1,2,2,3,3,4,4,7,7,9,9,10,10,12,12,15,15],"right_children":[2,4,6,8,10,-1,-1,12,-1,14,16,-1,18,-1,-1,20,-1,-1,-1,-1,-1],"split_conditions":[2E0,1.6068744E-2,1.3983289E0,9.6E1,1.0284226E-1,1.6234323E-1,4.275471E-2,5.8E1,-1.8579242E-1,5.0076237E0,1.0141762E-1,-1.3669556E-1,7.7842444E-1,1.3994995E-1,1.7512033E-2,-6.6490225E-2,5.138352E-2,4.7659934E-2,-5.2084282E-2,-1.5900028E-1,-5.5667296E-2],"split_indices":[14,12,0,11,8,0,0,11,0,7,6,0,1,0,0,4,0,0,0,0,0],"split_type":[0,0,0,0,0,0,0,0,0,0,0,0,0,0,0,0,0,0,0,0,0],"sum_hessian":[8.116609E1,6.414959E1,1.7016502E1,2.4164787E1,3.9984806E1,1.1858325E1,5.1581774E0,1.538872E1,8.776069E0,1.6651766E1,2.3333038E1,5.086768E0,1.0301951E1,9.556446E0,7.0953193E0,1.6055107E1,7.277932E0,5.16776E0,5.1341915E0,6.440683E0,9.614424E0],"tree_param":{"num_deleted":"0","num_feature":"15","num_nodes":"21","size_leaf_vector":"1"}},{"base_weights":[5.331647E-2,-1.7486754E-1,8.528003E-1,-6.942093E-1,1.1848067E-1,1.5906465E-1,3.9066944E-2,-1.8455629E-1,-1.7075153E-1,6.124972E-1,-1.5378432E-1,-1.0146173E-1,4.0485896E-2,1.194911E-2,1.4928204E-1,4.100587E-2,-1.2696746E-1,4.8437938E-2,-6.8242215E-2],"categories":[],"categories_nodes":[],"categories_segments":[],"categories_sizes":[],"default_left":[0,0,0,0,0,0,0,0,0,0,0,0,0,0,0,0,0,0,0],"id":9,"left_children":[1,3,5,7,9,-1,-1,11,-1,13,15,-1,-1,-1,-1,17,-1,-1,-1],"loss_changes":[1.4901831E1,9.793195E0,1.9531641E0,5.030924E0,5.6878986E0,0E0,0E0,2.85939E0,0E0,2.9749346E0,3.7600684E0,0E0,0E0,0E0,0E0,3.293357E0,0E0,0E0,0E0],"parents":[2147483647,0,0,1,1,2,2,3,3,4,4,7,7,9,9,10,10,15,15],"right_children":[2,4,6,8,10,-1,-1,12,-1,14,16,-1,-1,-1,-1,18,-1,-1,-1],"split_conditions":[2E0,3.227486E-2,1.4034405E0,8.5E1,1.0284226E-1,1.5906465E-1,3.9066944E-2,6.8E1,-1.7075153E-1,-4.109678E-2,4.9576413E-2,-1.0146173E-1,4.0485896E-2,1.194911E-2,1.4928204E-1,8.420149E-1,-1.2696746E-1,4.8437938E-2,-6.8242215E-2],"split_indices":[14,6,0,10,8,0,0,10,0,4,4,0,0,0,0,5,0,0,0],"split_type":[0,0,0,0,0,0,0,0,0,0,0,0,0,0,0,0,0,0,0],"sum_hessian":[7.9868004E1,6.274186E1,1.7126143E1,2.2154022E1,4.0587837E1,1.2096059E1,5.0300837E0,1.0975245E1,1.1178777E1,1.3977128E1,2.661071E1,5.0362434E0,5.939002E0,6.3476973E0,7.6294312E0,2.1504148E1,5.106561E0,1.3933093E1,7.571057E0],"tree_param":{"num_deleted":"0","num_feature":"15","num_nodes":"19","size_leaf_vector":"1"}},{"base_weights":[4.4051446E-2,-1.62459E-1,8.6099815E-1,3.1747055E-1,-4.6315938E-1,1.5397833E-1,6.1592188E-2,-4.7743198E-2,6.650742E-1,-1.5535071E-1,-2.0494823E-1,5.039136E-2,1.297823E-1,-4.5769507E-1,1.14797495E-1,-1.5876816E-1,-2.4623493E-2],"categories":[],"categories_nodes":[],"categories_segments":[],"categories_sizes":[],"default_left":[0,0,0,0,0,0,0,0,0,0,0,0,0,0,0,0,0],"id":10,"left_children":[1,3,5,7,9,-1,-1,-1,11,-1,13,-1,-1,15,-1,-1,-1],"loss_changes":[1.3614899E1,9.469325E0,7.9178905E-1,5.841709E0,5.7187347E0,0E0,0E0,0E0,8.156314E-1,0E0,7.436679E0,0E0,0E0,3.9793272E0,0E0,0E0,0E0],"parents":[2147483647,0,0,1,1,2,2,3,3,4,4,8,8,10,10,13,13],"right_children":[2,4,6,8,10,-1,-1,-1,12,-1,14,-1,-1,16,-1,-1,-1],"split_conditions":[2E0,1.0284226E-1,1.396911E0,1.5984813E-2,3.227486E-2,1.5397833E-1,6.1592188E-2,-4.7743198E-2,5.8076215E-1,-1.5535071E-1,1.1333921E1,5.039136E-2,1.297823E-1,7.5E1,1.14797495E-1,-1.5876816E-1,-2.4623493E-2],"split_indices":[14,8,0,12,6,0,0,0,5,0,7,0,0,11,0,0,0],"split_type":[0,0,0,0,0,0,0,0,0,0,0,0,0,0,0,0,0],"sum_hessian":[7.887185E1,6.359679E1,1.52750635E1,2.4476141E1,3.9120647E1,1.02344885E1,5.040575E0,8.681758E0,1.5794384E1,1.1223869E1,2.7896778E1,6.9854107E0,8.808973E0,2.255075E1,5.3460264E0,6.546585E0,1.6004166E1],"tree_param":{"num_deleted":"0","num_feature":"15","num_nodes":"17","size_leaf_vector":"1"}},{"base_weights":[1.2970149E-2,-1.3856755E-1,1.5187421E-1,2.7411765E-1,-1.0845059E-1,-3.3964438E-3,7.083513E-1,-1.020006E-1,1.7383263E-1,1.0045813E0,2.1130664E-2,1.1584931E-1,-4.663821E-3,1.8537343E-1,9.8667406E-2],"categories":[],"categories_nodes":[],"categories_segments":[],"categories_sizes":[],"default_left":[0,0,0,0,0,0,0,0,0,0,0,0,0,0,0],"id":11,"left_children":[1,-1,3,5,-1,7,9,-1,11,13,-1,-1,-1,-1,-1],"loss_changes":[9.543756E0,0E0,7.020911E0,6.834949E0,0E0,4.3855906E0,3.5756016E0,0E0,3.5803487E0,3.3908844E-1,0E0,0E0,0E0,0E0,0E0],"parents":[2147483647,0,0,2,2,3,3,5,5,6,6,8,8,9,9],"right_children":[2,-1,4,6,-1,8,10,-1,12,14,-1,-1,-1,-1,-1],"split_conditions":[5.8E1,-1.3856755E-1,1.55E2,5.8172207E0,-1.0845059E-1,1.4346183E-2,9.8870534E-1,-1.020006E-1,8E1,9.4E1,2.1130664E-2,1.1584931E-1,-4.663821E-3,1.8537343E-1,9.8667406E-2],"split_indices":[11,0,10,7,0,12,1,0,11,10,0,0,0,0,0],"split_type":[0,0,0,0,0,0,0,0,0,0,0,0,0,0,0],"sum_hessian":[7.126818E1,8.473476E0,6.279471E1,5.5698803E1,7.0959044E0,3.4586876E1,2.1111925E1,6.5902834E0,2.7996593E1,1.3365012E1,7.746912E0,6.4347243E0,2.156187E1,6.480423E0,6.884589E0],"tree_param":{"num_deleted":"0","num_feature":"15","num_nodes":"15","size_leaf_vector":"1"}},{"base_weights":[-3.4140084E-2,-1.9787523E-1,7.304724E-1,-5.5359006E-1,1.271685E-1,1.4813074E-1,3.2429602E-2,-1.441924E-1,-9.021648E-1,-1.9620037E-1,3.9637294E-1,-9.191612E-2,2.7575921E-2,-7.901215E-2,-1.525539E-1,3.385352E-2,-8.246964E-2,1.3429905E-1,1.0666425E-1,-3.350948E-2,6.568944E-2],"categories":[],"categories_nodes":[],"categories_segments":[],"categories_sizes":[],"default_left":[0,0,0,0,0,0,0,0,0,0,0,0,0,0,0,0,0,0,0,0,0],"id":12,"left_children":[1,3,5,7,9,-1,-1,11,13,15,17,-1,-1,-1,-1,-1,-1,-1,19,-1,-1],"loss_changes":[1.01314945E1,7.758064E0,1.6747088E0,4.4270144E0,3.1729643E0,0E0,0E0,2.5529125E0,1.9983006E-1,2.6335335E0,2.7570577E0,0E0,0E0,0E0,0E0,0E0,0E0,0E0,1.587016E0,0E0,0E0],"parents":[2147483647,0,0,1,1,2,2,3,3,4,4,7,7,8,8,9,9,10,10,18,18],"right_children":[2,4,6,8,10,-1,-1,12,14,16,18,-1,-1,-1,-1,-1,-1,-1,20,-1,-1],"split_conditions":[2E0,6.078708E-2,1.3815998E0,8.3133984E-1,2.8133607E-1,1.4813074E-1,3.2429602E-2,8.4E1,1.3683186E0,1.1010285E-1,5.7311463E-1,-9.191612E-2,2.7575921E-2,-7.901215E-2,-1.525539E-1,3.385352E-2,-8.246964E-2,1.3429905E-1,1.959363E-1,-3.350948E-2,6.568944E-2],"split_indices":[14,9,0,5,3,0,0,10,0,9,5,0,0,0,0,0,0,0,9,0,0],"split_type":[0,0,0,0,0,0,0,0,0,0,0,0,0,0,0,0,0,0,0,0,0],"sum_hessian":[7.877185E1,6.548913E1,1.3282722E1,3.0933558E1,3.4555573E1,8.242412E0,5.040311E0,1.48757715E1,1.6057787E1,1.5821701E1,1.873387E1,5.768148E0,9.107624E0,5.070637E0,1.0987149E1,7.3791203E0,8.442581E0,6.1138263E0,1.2620044E1,6.4846244E0,6.1354194E0],"tree_param":{"num_deleted":"0","num_feature":"15","num_nodes":"21","size_leaf_vector":"1"}},{"base_weights":[3.7932485E-2,-8.465569E-2,1.3110359E-1,-4.632827E-1,1.8850558E-1,-7.094921E-1,-8.951772E-2,1.269468E-1,3.004233E-2,-2.3540132E-2,-1.4677693E-1,3.9477244E-2,-6.463793E-2,-3.4738505E-1,2.6316038E-1,2.3616154E-2,-1.1204225E-1,1.2735204E-1,-3.5976443E-2],"categories":[],"categories_nodes":[],"categories_segments":[],"categories_sizes":[],"default_left":[0,0,0,0,0,0,0,0,0,0,0,0,0,0,0,0,0,0,0],"id":13,"left_children":[1,3,-1,5,7,9,11,-1,13,-1,-1,-1,-1,15,17,-1,-1,-1,-1],"loss_changes":[7.323633E0,6.5616913E0,0E0,2.3773503E0,3.8391776E0,2.201971E0,1.5195652E0,0E0,2.8114078E0,0E0,0E0,0E0,0E0,2.5854535E0,6.0029154E0,0E0,0E0,0E0,0E0],"parents":[2147483647,0,0,1,1,3,3,4,4,5,5,6,6,8,8,13,13,14,14],"right_children":[2,4,-1,6,8,10,12,-1,14,-1,-1,-1,-1,16,18,-1,-1,-1,-1],"split_conditions":[3E0,5.920085E-2,1.3110359E-1,1.693528E-1,5.6363666E-1,-1.2373215E-1,1.3830917E0,1.269468E-1,-6.9097735E-2,-2.3540132E-2,-1.4677693E-1,3.9477244E-2,-6.463793E-2,5.647177E0,-6.1418056E-3,2.3616154E-2,-1.1204225E-1,1.2735204E-1,-3.5976443E-2],"split_indices":[14,6,0,2,5,4,0,0,4,0,0,0,0,7,4,0,0,0,0],"split_type":[0,0,0,0,0,0,0,0,0,0,0,0,0,0,0,0,0,0,0],"sum_hessian":[6.973172E1,6.159882E1,8.132903E0,2.5524069E1,3.607475E1,1.4846221E1,1.0677848E1,6.1605535E0,2.9914196E1,5.3797607E0,9.46646E0,5.364717E0,5.313131E0,1.1234662E1,1.8679533E1,5.2312427E0,6.0034194E0,8.31134E0,1.0368194E1],"tree_param":{"num_deleted":"0","num_feature":"15","num_nodes":"19","size_leaf_vector":"1"}},{"base_weights":[1.7993303E-1,3.497672E-2,1.3078627E-1,-6.066114E-1,2.4371202E-1,-1.4621386E-1,5.1556975E-3,7.142771E-1,-4.1101366E-2,1.5192279E-1,2.0531224E-2,-1.0491083E-1,2.1232258E-1,-5.655861E-2,6.803479E-2],"categories":[],"categories_nodes":[],"categories_segments":[],"categories_sizes":[],"default_left":[0,0,0,0,0,0,0,0,0,0,0,0,0,0,0],"id":14,"left_children":[1,3,-1,5,7,-1,-1,9,11,-1,-1,-1,13,-1,-1],"loss_changes":[6.7260227E0,7.7457995E0,0E0,3.3875723E0,5.86213E0,0E0,0E0,2.6993666E0,4.8292284E0,0E0,0E0,0E0,3.1604733E0,0E0,0E0],"parents":[2147483647,0,0,1,1,3,3,4,4,7,7,8,8,12,12],"right_children":[2,4,-1,6,8,-1,-1,10,12,-1,-1,-1,14,-1,-1],"split_conditions":[2E0,1.3154498E0,1.3078627E-1,1.2E2,1.0284226E-1,-1.4621386E-1,5.1556975E-3,9.258298E-1,3.227486E-2,1.5192279E-1,2.0531224E-2,-1.0491083E-1,7.9E1,-5.655861E-2,6.803479E-2],"split_indices":[14,0,0,10,8,0,0,5,6,0,0,0,10,0,0],"split_type":[0,0,0,0,0,0,0,0,0,0,0,0,0,0,0],"sum_hessian":[6.635895E1,5.5734196E1,1.0624757E1,1.3213582E1,4.2520615E1,8.062289E0,5.151292E0,1.546374E1,2.7056871E1,9.696264E0,5.7674766E0,7.031568E0,2.0025305E1,5.652559E0,1.43727455E1],"tree_param":{"num_deleted":"0","num_feature":"15","num_nodes":"15","size_leaf_vector":"1"}},{"base_weights":[2.650884E-2,-1.4189993E-1,1.3268873E-1,-6.841832E-1,-1.2220661E-2,-1.3243166E-1,-5.3955305E-2,4.105557E-1,-2.554143E-1,7.3940563E-1,-5.3424567E-2,-4.3256065E-1,8.674255E-2,1.5657073E-1,6.080156E-2,-3.1022903E-2,-1.23023845E-1],"categories":[],"categories_nodes":[],"categories_segments":[],"categories_sizes":[],"default_left":[0,0,0,0,0,0,0,0,0,0,0,0,0,0,0,0,0],"id":15,"left_children":[1,3,-1,5,7,-1,-1,9,11,13,-1,15,-1,-1,-1,-1,-1],"loss_changes":[1.0409506E1,4.2357235E0,0E0,4.3216467E-1,5.2171683E0,0E0,0E0,4.9381547E0,5.0029593E0,9.2941856E-1,0E0,2.2027793E0,0E0,0E0,0E0,0E0,0E0],"parents":[2147483647,0,0,1,1,3,3,4,4,7,7,8,8,9,9,11,11],"right_children":[2,4,-1,6,8,-1,-1,10,12,14,-1,16,-1,-1,-1,-1,-1],"split_conditions":[2E0,7.2E1,1.3268873E-1,1.44868E0,8.7E1,-1.3243166E-1,-5.3955305E-2,9.7919667E-1,2.1265306E-2,8.2E1,-5.3424567E-2,1.35E2,8.674255E-2,1.5657073E-1,6.080156E-2,-3.1022903E-2,-1.23023845E-1],"split_indices":[14,10,0,0,10,0,0,1,12,11,0,10,0,0,0,0,0],"split_type":[0,0,0,0,0,0,0,0,0,0,0,0,0,0,0,0,0],"sum_hessian":[7.016517E1,5.9351395E1,1.0813774E1,1.0628779E1,4.8722614E1,5.524802E0,5.1039777E0,1.7540833E1,3.1181782E1,1.2300646E1,5.2401867E0,2.6114136E1,5.0676455E0,5.3244195E0,6.976227E0,1.7471907E1,8.642229E0],"tree_param":{"num_deleted":"0","num_feature":"15","num_nodes":"17","size_leaf_vector":"1"}},{"base_weights":[6.600328E-4,-9.511922E-2,1.2145088E-1,-1.7685571E-1,9.227664E-2,-1.0546346E-1,-4.048731E-2,-1.6400114E-1,6.467928E-2,4.2260446E-2,-5.3452823E-2],"categories":[],"categories_nodes":[],"categories_segments":[],"categories_sizes":[],"default_left":[0,0,0,0,0,0,0,0,0,0,0],"id":16,"left_children":[1,3,-1,5,-1,-1,7,9,-1,-1,-1],"loss_changes":[4.9383864E0,3.4175775E0,0E0,3.6950326E0,0E0,0E0,2.5333018E0,3.0345414E0,0E0,0E0,0E0],"parents":[2147483647,0,0,1,1,3,3,6,6,7,7],"right_children":[2,4,-1,6,-1,-1,8,10,-1,-1,-1],"split_conditions":[1E0,1.6117804E0,1.2145088E-1,7.2E1,9.227664E-2,-1.0546346E-1,2.1188997E-2,8.8E1,6.467928E-2,4.2260446E-2,-5.3452823E-2],"split_indices":[13,0,0,10,0,0,12,10,0,0,0],"split_type":[0,0,0,0,0,0,0,0,0,0,0],"sum_hessian":[6.173821E1,5.5991753E1,5.746457E0,5.088701E1,5.104746E0,9.617621E0,4.1269386E1,3.3222195E1,8.047191E0,9.874708E0,2.3347486E1],"tree_param":{"num_deleted":"0","num_feature":"15","num_nodes":"11","size_leaf_vector":"1"}},{"base_weights":[-2.1013664E-2,-3.6479452E-1,1.5192291E-1,1.935881E-2,-6.6488904E-1,2.6611048E-1,-5.612504E-2,-1.2610789E-1,-4.4902667E-2,4.2372048E-1,-4.7449227E-2,-3.7417037E-3,6.374104E-1,3.4507275E-2,1.2752908E-1],"categories":[],"categories_nodes":[],"categories_segments":[],"categories_sizes":[],"default_left":[0,0,0,0,0,0,0,0,0,0,0,0,0,0,0],"id":17,"left_children":[1,3,5,-1,7,9,-1,-1,-1,11,-1,-1,13,-1,-1],"loss_changes":[3.8770401E0,3.317753E0,2.7111115E0,0E0,6.3062334E-1,3.4666984E0,0E0,0E0,0E0,2.7962713E0,0E0,0E0,1.5104108E0,0E0,0E0],"parents":[2147483647,0,0,1,1,2,2,4,4,5,5,9,9,12,12],"right_children":[2,4,6,-1,8,10,-1,-1,-1,12,-1,-1,14,-1,-1],"split_conditions":[-7.691603E-2,1.0284226E-1,3.0963448E-1,1.935881E-2,2.2139128E-1,9.335941E-1,-5.612504E-2,-1.2610789E-1,-4.4902667E-2,1.5113072E-1,-4.7449227E-2,-3.7417037E-3,7.587039E-1,3.4507275E-2,1.2752908E-1],"split_indices":[4,8,3,0,8,5,0,0,0,2,0,0,5,0,0],"split_type":[0,0,0,0,0,0,0,0,0,0,0,0,0,0,0],"sum_hessian":[6.3280457E1,2.0807596E1,4.247286E1,8.080231E0,1.2727365E1,3.530426E1,7.1686006E0,7.7159214E0,5.011443E0,2.7999893E1,7.304366E0,9.318325E0,1.8681568E1,7.1240726E0,1.1557495E1],"tree_param":{"num_deleted":"0","num_feature":"15","num_nodes":"15","size_leaf_vector":"1"}},{"base_weights":[-5.486616E-2,-1.5677838E-1,1.314319E-1,-2.756487E-2,-1.0635314E-1,-1.3792431E-1,1.0171483E-1,-1.2723587E-1,-1.4584545E-2,-3.0445592E-2,8.446738E-2],"categories":[],"categories_nodes":[],"categories_segments":[],"categories_sizes":[],"default_left":[0,0,0,0,0,0,0,0,0,0,0],"id":18,"left_children":[1,3,-1,5,-1,7,-1,-1,9,-1,-1],"loss_changes":[6.105001E0,4.085967E0,0E0,3.8055732E0,0E0,3.671664E0,0E0,0E0,4.124324E0,0E0,0E0],"parents":[2147483647,0,0,1,1,3,3,5,5,8,8],"right_children":[2,4,-1,6,-1,8,-1,-1,10,-1,-1],"split_conditions":[1E0,9.5185024E-1,1.314319E-1,1.5795342E0,-1.0635314E-1,7.2E1,1.0171483E-1,-1.2723587E-1,3.606352E-2,-3.0445592E-2,8.446738E-2],"split_indices":[13,5,0,0,0,10,0,0,4,0,0],"split_type":[0,0,0,0,0,0,0,0,0,0,0],"sum_hessian":[6.1891087E1,5.6534645E1,5.356443E0,4.666573E1,9.8689165E0,4.1050365E1,5.6153607E0,5.203886E0,3.584648E1,2.7520727E1,8.325755E0],"tree_param":{"num_deleted":"0","num_feature":"15","num_nodes":"11","size_leaf_vector":"1"}},{"base_weights":[-8.443131E-2,-1.9735038E-1,9.731647E-2,-1.092653E-1,-8.728263E-2,-3.8720825E-1,1.399362E-1,-1.3686125E-1,8.1852086E-2,3.1647244E-1,-5.577148E-2,-3.443161E-2,5.9406977E-2,-5.4362705E-3,1.3999952E-1],"categories":[],"categories_nodes":[],"categories_segments":[],"categories_sizes":[],"default_left":[0,0,0,0,0,0,0,0,0,0,0,0,0,0,0],"id":19,"left_children":[1,3,-1,-1,5,7,9,-1,11,13,-1,-1,-1,-1,-1],"loss_changes":[5.4082236E0,3.2117488E0,0E0,0E0,3.2945518E0,5.1890683E0,2.6280692E0,0E0,1.2536367E0,4.646576E0,0E0,0E0,0E0,0E0,0E0],"parents":[2147483647,0,0,1,1,4,4,5,5,6,6,8,8,9,9],"right_children":[2,4,-1,-1,6,8,10,-1,12,14,-1,-1,-1,-1,-1],"split_conditions":[2E0,2.0412415E-2,9.731647E-2,-1.092653E-1,-6.442152E-2,2.9862604E-1,2.3500586E-1,-1.3686125E-1,3.1182855E-1,2.0688775E-1,-5.577148E-2,-3.443161E-2,5.9406977E-2,-5.4362705E-3,1.3999952E-1],"split_indices":[14,6,0,0,4,3,8,0,3,2,0,0,0,0,0],"split_type":[0,0,0,0,0,0,0,0,0,0,0,0,0,0,0],"sum_hessian":[6.2775665E1,5.5031303E1,7.744362E0,8.482854E0,4.654845E1,1.9760607E1,2.6787842E1,8.876517E0,1.088409E1,2.020079E1,6.587052E0,5.6017003E0,5.2823906E0,1.3450913E1,6.7498765E0],"tree_param":{"num_deleted":"0","num_feature":"15","num_nodes":"15","size_leaf_vector":"1"}},{"base_weights":[4.410264E-2,-2.8719357E-1,2.7618122E-1,-5.8468014E-1,5.7189945E-2,5.150231E-1,-1.6693945E-1,-1.46901775E-2,-7.671087E-1,8.516825E-1,4.6802433E-3,-9.5941566E-2,5.0436623E-2,-1.5729058E-1,-4.3486696E-2,1.5631548E-1,7.064764E-2],"categories":[],"categories_nodes":[],"categories_segments":[],"categories_sizes":[],"default_left":[0,0,0,0,0,0,0,0,0,0,0,0,0,0,0,0,0],"id":20,"left_children":[1,3,5,7,-1,9,11,-1,13,15,-1,-1,-1,-1,-1,-1,-1],"loss_changes":[4.7323427E0,5.2779226E0,3.9064093E0,1.521975E0,0E0,3.8337722E0,3.4015574E0,0E0,1.4337349E0,5.195513E-1,0E0,0E0,0E0,0E0,0E0,0E0,0E0],"parents":[2147483647,0,0,1,1,2,2,3,3,5,5,6,6,8,8,9,9],"right_children":[2,4,6,8,-1,10,12,-1,14,16,-1,-1,-1,-1,-1,-1,-1],"split_conditions":[5.5634513E0,1.8997848E-1,9.8870534E-1,1.3683186E0,5.7189945E-2,1.4500782E0,1.01E2,-1.46901775E-2,8.484374E-1,6.766044E-2,4.6802433E-3,-9.5941566E-2,5.0436623E-2,-1.5729058E-1,-4.3486696E-2,1.5631548E-1,7.064764E-2],"split_indices":[7,9,1,0,0,0,10,0,1,9,0,0,0,0,0,0,0],"split_type":[0,0,0,0,0,0,0,0,0,0,0,0,0,0,0,0,0],"sum_hessian":[5.951791E1,2.4420187E1,3.5097725E1,1.6986132E1,7.4340544E0,2.270011E1,1.2397615E1,5.0496845E0,1.1936448E1,1.2937462E1,9.762647E0,6.252827E0,6.144788E0,6.7545614E0,5.1818867E0,7.465807E0,5.471655E0],"tree_param":{"num_deleted":"0","num_feature":"15","num_nodes":"17","size_leaf_vector":"1"}},{"base_weights":[8.8247195E-2,-2.1069066E-1,2.8881195E-1,1.6534747E-1,-1.2483906E-1,-1.5393862E-1,5.901065E-1,-5.3625483E-2,6.764375E-2,1.6316293E-2,-5.839956E-2,2.1507122E-2,7.5522035E-1,3.956949E-2,1.5094593E-1],"categories":[],"categories_nodes":[],"categories_segments":[],"categories_sizes":[],"default_left":[0,0,0,0,0,0,0,0,0,0,0,0,0,0,0],"id":21,"left_children":[1,3,5,7,-1,9,11,-1,-1,-1,-1,-1,13,-1,-1],"loss_changes":[3.4782338E0,5.622055E0,4.6975307E0,2.468998E0,0E0,9.561744E-1,1.4227104E0,0E0,0E0,0E0,0E0,0E0,1.5755796E0,0E0,0E0],"parents":[2147483647,0,0,1,1,2,2,3,3,5,5,6,6,12,12],"right_children":[2,4,6,8,-1,10,12,-1,-1,-1,-1,-1,14,-1,-1],"split_conditions":[1.6416596E-1,1.04479045E-1,-6.152237E-2,2.8424573E-1,-1.2483906E-1,1.6708994E-2,3.786415E0,-5.3625483E-2,6.764375E-2,1.6316293E-2,-5.839956E-2,2.1507122E-2,2.5819888E-2,3.956949E-2,1.5094593E-1],"split_indices":[2,2,4,3,0,12,7,0,0,0,0,0,6,0,0],"split_type":[0,0,0,0,0,0,0,0,0,0,0,0,0,0,0],"sum_hessian":[5.5997818E1,2.2464472E1,3.3533344E1,1.4454034E1,8.010438E0,1.37770815E1,1.9756264E1,5.017352E0,9.436682E0,6.7648864E0,7.0121956E0,5.8357253E0,1.3920538E1,5.400781E0,8.519756E0],"tree_param":{"num_deleted":"0","num_feature":"15","num_nodes":"15","size_leaf_vector":"1"}},{"base_weights":[-2.7344E-2,-1.5593855E-1,3.9765015E-1,7.049661E-2,-3.021163E-1,-3.128161E-2,1.2081838E-1,1.4471027E-1,-5.583797E-1,7.63501E-2,-5.176642E-2,-3.20244E-1,-1.3525343E-1,-8.165724E-2,1.6942864E-2],"categories":[],"categories_nodes":[],"categories_segments":[],"categories_sizes":[],"default_left":[0,0,0,0,0,0,0,0,0,0,0,0,0,0,0],"id":22,"left_children":[1,3,5,-1,7,-1,-1,9,11,-1,-1,13,-1,-1,-1],"loss_changes":[3.2283778E0,4.277284E0,3.5646365E0,0E0,4.345978E0,0E0,0E0,2.7399106E0,1.663372E0,0E0,0E0,1.580974E0,0E0,0E0,0E0],"parents":[2147483647,0,0,1,1,2,2,4,4,7,7,8,8,11,11],"right_children":[2,4,6,-1,8,-1,-1,10,12,-1,-1,14,-1,-1,-1],"split_conditions":[1.1387856E1,5.783093E-2,3.227486E-2,7.049661E-2,1.3949429E0,-3.128161E-2,1.2081838E-1,9.812384E-1,1.8302085E-2,7.63501E-2,-5.176642E-2,1.5074506E-2,-1.3525343E-1,-8.165724E-2,1.6942864E-2],"split_indices":[7,8,6,0,0,0,0,1,12,0,0,12,0,0,0],"split_type":[0,0,0,0,0,0,0,0,0,0,0,0,0,0,0],"sum_hessian":[5.6936996E1,4.4196976E1,1.2740023E1,7.9482775E0,3.62487E1,5.3202324E0,7.41979E0,1.3370647E1,2.287805E1,7.645415E0,5.7252326E0,1.4649373E1,8.228678E0,9.485089E0,5.1642838E0],"tree_param":{"num_deleted":"0","num_feature":"15","num_nodes":"15","size_leaf_vector":"1"}},{"base_weights":[-9.948036E-2,-2.858002E-1,3.7526196E-1,-1.4181073E-1,-1.22749984E-1,9.70876E-2,1.2003603E-1,-5.0835645E-1,8.382459E-2,7.121385E-2,-4.3899305E-2,-1.4578535E-2,-1.3937576E-1,-8.368244E-2,3.5347036E-1,1.2672333E-1,5.4187346E-3],"categories":[],"categories_nodes":[],"categories_segments":[],"categories_sizes":[],"default_left":[0,0,0,0,0,0,0,0,0,0,0,0,0,0,0,0,0],"id":23,"left_children":[1,3,5,7,-1,9,-1,11,13,-1,-1,-1,-1,-1,15,-1,-1],"loss_changes":[5.208907E0,3.1035278E0,1.8951571E0,2.876167E0,0E0,1.7911263E0,0E0,2.192882E0,4.015184E0,0E0,0E0,0E0,0E0,0E0,2.4875178E0,0E0,0E0],"parents":[2147483647,0,0,1,1,2,2,3,3,5,5,7,7,8,8,14,14],"right_children":[2,4,6,8,-1,10,-1,12,14,-1,-1,-1,-1,-1,16,-1,-1],"split_conditions":[2.0203095E-2,1.29E2,7.042295E-1,7.6E1,-1.22749984E-1,5.7311463E-1,1.2003603E-1,2.2240588E-1,1.5890625E-1,7.121385E-2,-4.3899305E-2,-1.4578535E-2,-1.3937576E-1,-8.368244E-2,7.395287E-1,1.2672333E-1,5.4187346E-3],"split_indices":[12,11,5,10,0,5,0,2,2,0,0,0,0,0,1,0,0],"split_type":[0,0,0,0,0,0,0,0,0,0,0,0,0,0,0,0,0],"sum_hessian":[5.667588E1,4.0987644E1,1.5688234E1,3.326071E1,7.7269354E0,1.0224272E1,5.463962E0,1.2195713E1,2.1064997E1,5.081822E0,5.1424503E0,6.791194E0,5.4045186E0,5.9163117E0,1.5148685E1,5.292326E0,9.8563595E0],"tree_param":{"num_deleted":"0","num_feature":"15","num_nodes":"17","size_leaf_vector":"1"}},{"base_weights":[-1.9885346E-3,3.8345468E-1,-3.0003896E-1,1.4058122E-2,7.5717264E-1,-8.917704E-2,-6.906803E-1,-6.908445E-2,5.934206E-2,4.1881617E-2,1.6503689E-1,2.1643505E-1,-7.666442E-2,-1.5085712E-1,-4.1679684E-2,-4.678092E-2,1.1299357E-1],"categories":[],"categories_nodes":[],"categories_segments":[],"categories_sizes":[],"default_left":[0,0,0,0,0,0,0,0,0,0,0,0,0,0,0,0,0],"id":24,"left_children":[1,3,5,7,9,11,13,-1,-1,-1,-1,15,-1,-1,-1,-1,-1],"loss_changes":[6.6978354E0,3.49942E0,2.6463351E0,2.6823668E0,1.7622013E0,3.0116441E0,1.2000346E0,0E0,0E0,0E0,0E0,4.134793E0,0E0,0E0,0E0,0E0,0E0],"parents":[2147483647,0,0,1,1,2,2,3,3,4,4,5,5,6,6,11,11],"right_children":[2,4,6,8,10,12,14,-1,-1,-1,-1,16,-1,-1,-1,-1,-1],"split_conditions":[1.3939265E0,7.6723063E-1,1.04E2,1.8694354E-2,2.0688775E-1,8.905223E-1,1.23E2,-6.908445E-2,5.934206E-2,4.1881617E-2,1.6503689E-1,1.4603873E0,-7.666442E-2,-1.5085712E-1,-4.1679684E-2,-4.678092E-2,1.1299357E-1],"split_indices":[0,5,11,12,2,5,10,0,0,0,0,0,0,0,0,0,0],"split_type":[0,0,0,0,0,0,0,0,0,0,0,0,0,0,0,0,0],"sum_hessian":[5.6300632E1,2.4426012E1,3.187462E1,1.2805853E1,1.1620158E1,2.1498407E1,1.0376213E1,5.6146555E0,7.1911974E0,5.6134615E0,6.0066967E0,1.275007E1,8.748339E0,5.070507E0,5.305706E0,6.6374106E0,6.112659E0],"tree_param":{"num_deleted":"0","num_feature":"15","num_nodes":"17","size_leaf_vector":"1"}},{"base_weights":[-3.8368996E-2,-1.2522735E-1,3.4676185E-1,-7.2181004E-1,5.8708157E-2,7.758155E-2,1.7237784E-2,-4.5875303E-2,-1.4855908E-1,-5.7034407E-2,2.2125132E-1,4.6991223E-1,-4.686844E-2,-2.4480877E-2,1.0723813E-1],"categories":[],"categories_nodes":[],"categories_segments":[],"categories_sizes":[],"default_left":[0,0,0,0,0,0,0,0,0,0,0,0,0,0,0],"id":25,"left_children":[1,3,5,7,9,-1,-1,-1,-1,-1,11,13,-1,-1,-1],"loss_changes":[2.0232766E0,5.422379E0,3.8145542E-1,9.96356E-1,2.8237612E0,0E0,0E0,0E0,0E0,0E0,3.9496107E0,3.2107658E0,0E0,0E0,0E0],"parents":[2147483647,0,0,1,1,2,2,3,3,4,4,10,10,11,11],"right_children":[2,4,6,8,10,-1,-1,-1,-1,-1,12,14,-1,-1,-1],"split_conditions":[2.0115268E-1,1.4419644E-1,6.1634713E-1,9.721048E-2,3.786415E0,7.758155E-2,1.7237784E-2,-4.5875303E-2,-1.4855908E-1,-5.7034407E-2,9.335941E-1,1.6018584E-1,-4.686844E-2,-2.4480877E-2,1.0723813E-1],"split_indices":[9,2,5,2,7,0,0,0,0,0,5,8,0,0,0],"split_type":[0,0,0,0,0,0,0,0,0,0,0,0,0,0,0],"sum_hessian":[5.8185184E1,4.8028244E1,1.0156939E1,1.0629125E1,3.739912E1,5.144155E0,5.0127835E0,5.009403E0,5.619721E0,9.7447605E0,2.765436E1,1.894649E1,8.70787E0,5.379469E0,1.356702E1],"tree_param":{"num_deleted":"0","num_feature":"15","num_nodes":"15","size_leaf_vector":"1"}},{"base_weights":[-7.934916E-2,-2.9066604E-1,2.651505E-1,-6.8560675E-2,-7.2269106E-1,-6.579957E-2,5.7549244E-1,-7.613301E-2,2.7983198E-1,-3.1486824E-2,-1.7582461E-1,4.0144727E-2,1.4906864E-1,9.622554E-2,-1.8503495E-2],"categories":[],"categories_nodes":[],"categories_segments":[],"categories_sizes":[],"default_left":[0,0,0,0,0,0,0,0,0,0,0,0,0,0,0],"id":26,"left_children":[1,3,5,7,9,-1,11,-1,13,-1,-1,-1,-1,-1,-1],"loss_changes":[4.1058187E0,3.2875655E0,4.9623394E0,3.823967E0,2.4514356E0,0E0,1.7168422E0,0E0,2.1303654E0,0E0,0E0,0E0,0E0,0E0,0E0],"parents":[2147483647,0,0,1,1,2,2,3,3,4,4,6,6,8,8],"right_children":[2,4,6,8,10,-1,12,-1,14,-1,-1,-1,-1,-1,-1],"split_conditions":[8.021221E-2,1.480641E0,1.3252649E0,2.0880681E-1,8.7E1,-6.579957E-2,-3.7617806E-2,-7.613301E-2,7.950628E-1,-3.1486824E-2,-1.7582461E-1,4.0144727E-2,1.4906864E-1,9.622554E-2,-1.8503495E-2],"split_indices":[9,0,0,2,11,0,4,0,1,0,0,0,0,0,0],"split_type":[0,0,0,0,0,0,0,0,0,0,0,0,0,0,0],"sum_hessian":[5.434103E1,3.3777874E1,2.056316E1,2.3074104E1,1.0703769E1,6.1660023E0,1.4397157E1,1.0007409E1,1.3066695E1,5.6850395E0,5.018729E0,9.237969E0,5.1591873E0,6.5764008E0,6.490294E0],"tree_param":{"num_deleted":"0","num_feature":"15","num_nodes":"15","size_leaf_vector":"1"}},{"base_weights":[2.8202955E-2,-1.4529018E-1,2.5614452E-1,-3.6603636E-1,5.6293607E-2,5.230681E-1,-3.453428E-2,-6.4001393E-1,1.2635914E-2,1.3787073E-1,7.609741E-4,6.581891E-2,-6.0938854E-2,-6.5278284E-2,-1.2871066E-1],"categories":[],"categories_nodes":[],"categories_segments":[],"categories_sizes":[],"default_left":[0,0,0,0,0,0,0,0,0,0,0,0,0,0,0],"id":27,"left_children":[1,3,5,7,-1,9,11,13,-1,-1,-1,-1,-1,-1,-1],"loss_changes":[2.253098E0,3.8669035E0,1.9250664E0,2.9279127E0,0E0,2.636722E0,2.4134367E0,2.786684E-1,0E0,0E0,0E0,0E0,0E0,0E0,0E0],"parents":[2147483647,0,0,1,1,2,2,3,3,5,5,6,6,7,7],"right_children":[2,4,6,8,-1,10,12,14,-1,-1,-1,-1,-1,-1,-1],"split_conditions":[2.129017E-1,1.1194077E-2,-3.678353E-2,1.959363E-1,5.6293607E-2,5.7495117E0,2.3489864E-1,8.436836E-2,1.2635914E-2,1.3787073E-1,7.609741E-4,6.581891E-2,-6.0938854E-2,-6.5278284E-2,-1.2871066E-1],"split_indices":[2,4,4,9,0,7,3,9,0,0,0,0,0,0,0],"split_type":[0,0,0,0,0,0,0,0,0,0,0,0,0,0,0],"sum_hessian":[5.5032623E1,3.1454367E1,2.3578259E1,2.2296618E1,9.157748E0,1.1874611E1,1.1703647E1,1.36000595E1,8.696558E0,6.2904105E0,5.5842004E0,5.0688815E0,6.6347656E0,8.557543E0,5.042517E0],"tree_param":{"num_deleted":"0","num_feature":"15","num_nodes":"15","size_leaf_vector":"1"}},{"base_weights":[1.874092E-2,-2.083844E-1,4.2854857E-1,-3.6137864E-1,9.176228E-2,7.4753E-1,-4.4192467E-2,-7.573717E-1,-9.056905E-3,1.3854063E-1,7.4314065E-2,-4.98571E-2,-1.5874024E-1,-5.1941004E-2,3.5308834E-2],"categories":[],"categories_nodes":[],"categories_segments":[],"categories_sizes":[],"default_left":[0,0,0,0,0,0,0,0,0,0,0,0,0,0,0],"id":28,"left_children":[1,3,5,7,-1,9,-1,11,13,-1,-1,-1,-1,-1,-1],"loss_changes":[5.2540336E0,4.785185E0,4.860031E0,4.357841E0,0E0,1.7452288E-1,0E0,1.5302639E0,1.5296105E0,0E0,0E0,0E0,0E0,0E0,0E0],"parents":[2147483647,0,0,1,1,2,2,3,3,5,5,7,7,8,8],"right_children":[2,4,6,8,-1,10,-1,12,14,-1,-1,-1,-1,-1,-1],"split_conditions":[5.8172207E0,1.27E2,1.29E2,7.6723063E-1,9.176228E-2,1.3815095E-1,-4.4192467E-2,7.84626E-2,1.8643518E-1,1.3854063E-1,7.4314065E-2,-4.98571E-2,-1.5874024E-1,-5.1941004E-2,3.5308834E-2],"split_indices":[7,10,10,5,0,8,0,2,2,0,0,0,0,0,0],"split_type":[0,0,0,0,0,0,0,0,0,0,0,0,0,0,0],"sum_hessian":[5.4488384E1,3.5374493E1,1.9113892E1,3.0284367E1,5.0901256E0,1.3240109E1,5.8737826E0,1.3717209E1,1.6567158E1,6.2272577E0,7.012852E0,6.558505E0,7.158704E0,6.787411E0,9.779747E0],"tree_param":{"num_deleted":"0","num_feature":"15","num_nodes":"15","size_leaf_vector":"1"}},{"base_weights":[-1.0230829E-1,-2.1531418E-1,9.3641214E-2,-8.76883E-3,-4.4654378E-1,-7.3213845E-2,2.8802714E-1,-1.2066255E-1,-1.8407288E-1,1.1497362E-1,-1.173325E-2,8.810346E-3,-6.964374E-2],"categories":[],"categories_nodes":[],"categories_segments":[],"categories_sizes":[],"default_left":[0,0,0,0,0,0,0,0,0,0,0,0,0],"id":29,"left_children":[1,3,-1,5,7,-1,9,-1,11,-1,-1,-1,-1],"loss_changes":[4.8221893E0,2.3913007E0,0E0,4.054166E0,2.0726442E0,0E0,3.1473947E0,0E0,1.0434825E0,0E0,0E0,0E0,0E0],"parents":[2147483647,0,0,1,1,3,3,4,4,6,6,8,8],"right_children":[2,4,-1,6,8,-1,10,-1,12,-1,-1,-1,-1],"split_conditions":[2E0,-4.014512E-2,9.3641214E-2,1.6227324E-2,5.001082E0,-7.3213845E-2,1.9280855E-2,-1.2066255E-1,9.332014E-1,1.1497362E-1,-1.173325E-2,8.810346E-3,-6.964374E-2],"split_indices":[14,4,0,12,7,0,12,0,1,0,0,0,0],"split_type":[0,0,0,0,0,0,0,0,0,0,0,0,0],"sum_hessian":[5.6092667E1,4.915173E1,6.9409356E0,2.6509817E1,2.2641914E1,9.891146E0,1.6618671E1,8.706293E0,1.3935621E1,6.7316713E0,9.887E0,7.889656E0,6.045965E0],"tree_param":{"num_deleted":"0","num_feature":"15","num_nodes":"13","size_leaf_vector":"1"}},{"base_weights":[2.8427046E-2,-2.5472003E-1,1.9231796E-1,-5.730413E-1,2.8718203E-2,1.6138284E-2,8.73282E-2,-4.6207573E-2,-1.0717887E-1,-1.3735342E-1,5.879711E-2,4.8822764E-2,-4.2725477E-1,-7.862251E-3,-1.0693743E-1],"categories":[],"categories_nodes":[],"categories_segments":[],"categories_sizes":[],"default_left":[0,0,0,0,0,0,0,0,0,0,0,0,0,0,0],"id":30,"left_children":[1,3,5,7,-1,9,-1,-1,-1,11,-1,-1,13,-1,-1],"loss_changes":[2.600128E0,3.0333319E0,2.4214644E0,2.397008E-1,0E0,1.5193512E0,0E0,0E0,0E0,2.6586418E0,0E0,0E0,1.2452488E0,0E0,0E0],"parents":[2147483647,0,0,1,1,2,2,3,3,5,5,9,9,12,12],"right_children":[2,4,6,8,-1,10,-1,-1,-1,12,-1,-1,14,-1,-1],"split_conditions":[2.439366E-1,2.2811791E-1,5.760247E0,6.952628E-1,2.8718203E-2,1.5691626E0,8.73282E-2,-4.6207573E-2,-1.0717887E-1,1.4066138E0,5.879711E-2,4.8822764E-2,3.0334666E-1,-7.862251E-3,-1.0693743E-1],"split_indices":[3,2,7,5,0,0,0,0,0,0,0,0,3,0,0],"split_type":[0,0,0,0,0,0,0,0,0,0,0,0,0,0,0],"sum_hessian":[5.397528E1,1.9584976E1,3.43903E1,1.1264225E1,8.320751E0,2.4403788E1,9.986515E0,5.0267453E0,6.2374797E0,1.7777935E1,6.6258526E0,6.799512E0,1.0978423E1,5.2599273E0,5.718496E0],"tree_param":{"num_deleted":"0","num_feature":"15","num_nodes":"15","size_leaf_vector":"1"}},{"base_weights":[-6.3388094E-2,-3.0160743E-1,1.2008492E-1,-1.3291177E-1,5.9756324E-2,3.3459485E-1,-1.7948924E-1,5.808859E-2,-5.590863E-2,-3.7802625E-2,6.135178E-1,-6.314164E-2,2.8113814E-2,1.4302896E-1,3.597293E-2],"categories":[],"categories_nodes":[],"categories_segments":[],"categories_sizes":[],"default_left":[0,0,0,0,0,0,0,0,0,0,0,0,0,0,0],"id":31,"left_children":[1,3,5,-1,7,9,11,-1,-1,-1,13,-1,-1,-1,-1],"loss_changes":[2.4170692E0,5.1188188E0,2.0835156E0,0E0,2.3763237E0,3.2140057E0,1.3005685E0,0E0,0E0,0E0,1.4185085E0,0E0,0E0,0E0,0E0],"parents":[2147483647,0,0,1,1,2,2,4,4,5,5,6,6,10,10],"right_children":[2,4,6,-1,8,10,12,-1,-1,-1,14,-1,-1,-1,-1],"split_conditions":[1.6416596E-1,2.8133607E-1,1.6875068E-2,-1.3291177E-1,3.786415E0,3.786415E0,5.4546646E-3,5.808859E-2,-5.590863E-2,-3.7802625E-2,7.686351E-1,-6.314164E-2,2.8113814E-2,1.4302896E-1,3.597293E-2],"split_indices":[2,3,12,0,7,7,4,0,0,0,1,0,0,0,0],"split_type":[0,0,0,0,0,0,0,0,0,0,0,0,0,0,0],"sum_hessian":[5.347321E1,2.2985374E1,3.0487833E1,8.226983E0,1.4758392E1,1.7698168E1,1.2789666E1,8.458023E0,6.3003693E0,5.7344065E0,1.1963761E1,7.624783E0,5.1648827E0,5.4518323E0,6.5119295E0],"tree_param":{"num_deleted":"0","num_feature":"15","num_nodes":"15","size_leaf_vector":"1"}},{"base_weights":[-3.91649E-2,-3.935508E-1,1.706469E-1,-1.509043E-1,-1.12070866E-1,-5.9857123E-2,3.6969107E-1,-9.18341E-2,3.7278276E-2,7.009343E-2,5.900146E-1,-5.7643097E-2,8.381012E-2,1.4069725E-2,1.6345513E-1],"categories":[],"categories_nodes":[],"categories_segments":[],"categories_sizes":[],"default_left":[0,0,0,0,0,0,0,0,0,0,0,0,0,0,0],"id":32,"left_children":[1,3,5,7,-1,-1,9,-1,-1,11,13,-1,-1,-1,-1],"loss_changes":[3.8534982E0,1.5379434E0,3.8536403E0,2.4854543E0,0E0,0E0,1.5916941E0,0E0,0E0,2.7944086E0,3.399199E0,0E0,0E0,0E0,0E0],"parents":[2147483647,0,0,1,1,2,2,3,3,6,6,9,9,10,10],"right_children":[2,4,6,8,-1,-1,10,-1,-1,12,14,-1,-1,-1,-1],"split_conditions":[2.4395892E-1,8.9840347E-1,1.4424289E-2,2.551552E-2,-1.12070866E-1,-5.9857123E-2,8.00624E-2,-9.18341E-2,3.7278276E-2,2.6696083E-1,1.4314482E0,-5.7643097E-2,8.381012E-2,1.4069725E-2,1.6345513E-1],"split_indices":[3,1,12,6,0,0,9,0,0,2,0,0,0,0,0],"split_type":[0,0,0,0,0,0,0,0,0,0,0,0,0,0,0],"sum_hessian":[4.9922916E1,1.823949E1,3.1683428E1,1.1662792E1,6.576698E0,7.943401E0,2.3740026E1,5.1648293E0,6.497963E0,1.0618731E1,1.3121296E1,5.612913E0,5.0058174E0,7.1794324E0,5.9418635E0],"tree_param":{"num_deleted":"0","num_feature":"15","num_nodes":"15","size_leaf_vector":"1"}},{"base_weights":[7.4188314E-2,3.3329168E-1,-9.211844E-2,-7.035378E-3,6.317125E-1,1.1173504E-1,-3.6503574E-1,2.586391E-2,1.5694025E-1,-6.8466835E-2,3.591192E-1,-1.5873376E-2,-1.06957905E-1,-1.9511862E-2,1.0354635E-1],"categories":[],"categories_nodes":[],"categories_segments":[],"categories_sizes":[],"default_left":[0,0,0,0,0,0,0,0,0,0,0,0,0,0,0],"id":33,"left_children":[1,3,5,-1,7,9,11,-1,-1,-1,13,-1,-1,-1,-1],"loss_changes":[2.3670287E0,2.4590433E0,1.9216114E0,0E0,2.1168585E0,2.9915977E0,1.2496468E0,0E0,0E0,0E0,2.451181E0,0E0,0E0,0E0,0E0],"parents":[2147483647,0,0,1,1,2,2,4,4,5,5,6,6,10,10],"right_children":[2,4,6,-1,8,10,12,-1,-1,-1,14,-1,-1,-1,-1],"split_conditions":[1.0525911E-1,7.0822835E-2,2.5436047E-1,-7.035378E-3,8.1E1,2.795085E-2,5.760247E0,2.586391E-2,1.5694025E-1,-6.8466835E-2,5.601051E0,-1.5873376E-2,-1.06957905E-1,-1.9511862E-2,1.0354635E-1],"split_indices":[8,8,2,0,10,6,7,0,0,0,7,0,0,0,0],"split_type":[0,0,0,0,0,0,0,0,0,0,0,0,0,0,0],"sum_hessian":[5.3218887E1,2.041248E1,3.2806408E1,9.347019E0,1.1065461E1,1.9117401E1,1.3689006E1,5.921244E0,5.1442165E0,5.5425167E0,1.3574884E1,8.592862E0,5.0961437E0,5.725307E0,7.849577E0],"tree_param":{"num_deleted":"0","num_feature":"15","num_nodes":"15","size_leaf_vector":"1"}},{"base_weights":[9.933882E-2,-2.8525433E-1,2.0355177E-1,8.950107E-3,-8.844539E-2,3.6231384E-1,-1.6479382E-1,7.012674E-2,6.6100276E-1,5.318578E-2,-7.853014E-2,-4.7722854E-2,4.990663E-2,1.5056169E-1,3.6145948E-2],"categories":[],"categories_nodes":[],"categories_segments":[],"categories_sizes":[],"default_left":[0,0,0,0,0,0,0,0,0,0,0,0,0,0,0],"id":34,"left_children":[1,3,5,-1,-1,7,9,11,13,-1,-1,-1,-1,-1,-1],"loss_changes":[2.2113085E0,1.2814267E0,2.5657706E0,0E0,0E0,2.5944524E0,2.7185636E0,1.7794315E0,1.8951511E0,0E0,0E0,0E0,0E0,0E0,0E0],"parents":[2147483647,0,0,1,1,2,2,5,5,6,6,7,7,8,8],"right_children":[2,4,6,-1,-1,8,10,12,14,-1,-1,-1,-1,-1,-1],"split_conditions":[7.2E1,-2.6615875E-2,1.18E2,8.950107E-3,-8.844539E-2,7.751432E-1,7.539628E-1,-6.9097735E-2,8.921016E-1,5.318578E-2,-7.853014E-2,-4.7722854E-2,4.990663E-2,1.5056169E-1,3.6145948E-2],"split_indices":[10,4,10,0,0,5,5,4,5,0,0,0,0,0,0],"split_type":[0,0,0,0,0,0,0,0,0,0,0,0,0,0,0],"sum_hessian":[5.272422E1,1.0870374E1,4.1853848E1,5.472721E0,5.3976526E0,2.9259129E1,1.2594717E1,1.5414728E1,1.38444E1,5.150178E0,7.4445395E0,6.1335387E0,9.28119E0,6.858339E0,6.9860616E0],"tree_param":{"num_deleted":"0","num_feature":"15","num_nodes":"15","size_leaf_vector":"1"}},{"base_weights":[-8.782363E-2,-1.9426617E-1,2.6864225E-1,-4.6250752E-1,2.0042583E-2,-8.910906E-3,7.592053E-2,-6.852218E-1,-2.081908E-2,7.5226955E-2,-2.1668372E-1,-6.158328E-2,-1.2700671E-1,2.1841088E-2,-6.9889344E-2],"categories":[],"categories_nodes":[],"categories_segments":[],"categories_sizes":[],"default_left":[0,0,0,0,0,0,0,0,0,0,0,0,0,0,0],"id":35,"left_children":[1,3,5,7,9,-1,-1,11,-1,-1,13,-1,-1,-1,-1],"loss_changes":[2.135251E0,2.472919E0,1.046278E0,1.280098E0,2.9331803E0,0E0,0E0,1.4234066E-1,0E0,0E0,1.6310585E0,0E0,0E0,0E0,0E0],"parents":[2147483647,0,0,1,1,2,2,3,3,4,4,7,7,10,10],"right_children":[2,4,6,8,10,-1,-1,12,-1,-1,14,-1,-1,-1,-1],"split_conditions":[1.9508809E-1,2.0688775E-1,1.3715502E0,2.8610244E-1,2.5537783E-1,-8.910906E-3,7.592053E-2,8.603999E-1,-2.081908E-2,7.5226955E-2,1.44868E0,-6.158328E-2,-1.2700671E-1,2.1841088E-2,-6.9889344E-2],"split_indices":[9,2,0,3,2,0,0,5,0,0,0,0,0,0,0],"split_type":[0,0,0,0,0,0,0,0,0,0,0,0,0,0,0],"sum_hessian":[5.3899605E1,4.1856163E1,1.2043444E1,1.807469E1,2.3781471E1,5.372433E0,6.671011E0,1.0046184E1,8.028505E0,7.469977E0,1.6311495E1,5.031223E0,5.0149612E0,6.8175855E0,9.49391E0],"tree_param":{"num_deleted":"0","num_feature":"15","num_nodes":"15","size_leaf_vector":"1"}},{"base_weights":[-2.7667746E-2,1.7264526E-1,-2.2334881E-1,5.588621E-1,-9.671965E-2,-4.74337E-1,3.3628855E-2,1.18391484E-1,3.8654074E-2,3.0643502E-2,-4.7215674E-2,-6.28197E-3,-7.312646E-1,-1.4162427E-1,-6.0243927E-2],"categories":[],"categories_nodes":[],"categories_segments":[],"categories_sizes":[],"default_left":[0,0,0,0,0,0,0,0,0,0,0,0,0,0,0],"id":36,"left_children":[1,3,5,7,9,11,-1,-1,-1,-1,-1,-1,13,-1,-1],"loss_changes":[2.1803086E0,2.9216728E0,3.2599986E0,5.9277344E-1,1.1860998E0,2.003655E0,0E0,0E0,0E0,0E0,0E0,0E0,4.2255783E-1,0E0,0E0],"parents":[2147483647,0,0,1,1,2,2,3,3,4,4,5,5,12,12],"right_children":[2,4,6,8,10,12,-1,-1,-1,-1,-1,-1,14,-1,-1],"split_conditions":[8.2880366E-1,8.0795956E-1,1.03E2,7.2568184E-1,2.551552E-2,9.388359E-1,3.3628855E-2,1.18391484E-1,3.8654074E-2,3.0643502E-2,-4.7215674E-2,-6.28197E-3,7.491463E-1,-1.4162427E-1,-6.0243927E-2],"split_indices":[1,5,10,1,6,1,0,0,0,0,0,0,5,0,0],"split_type":[0,0,0,0,0,0,0,0,0,0,0,0,0,0,0],"sum_hessian":[5.363998E1,2.656445E1,2.7075531E1,1.0473191E1,1.6091257E1,1.7308676E1,9.766855E0,5.0153713E0,5.4578204E0,6.7862606E0,9.304997E0,6.88423E0,1.0424446E1,5.2010865E0,5.2233596E0],"tree_param":{"num_deleted":"0","num_feature":"15","num_nodes":"15","size_leaf_vector":"1"}},{"base_weights":[-3.5168123E-2,-3.1172916E-1,2.9102013E-1,-4.4634122E-2,-5.55106E-1,8.349442E-2,1.0862243E-1,5.4993335E-2,-8.164801E-2,-1.2687628E-1,-4.0027115E-2,3.5560212E-1,-6.795875E-2,1.47091625E-2,8.548082E-2],"categories":[],"categories_nodes":[],"categories_segments":[],"categories_sizes":[],"default_left":[0,0,0,0,0,0,0,0,0,0,0,0,0,0,0],"id":37,"left_children":[1,3,5,7,9,11,-1,-1,-1,-1,-1,13,-1,-1,-1],"loss_changes":[4.77316E0,1.8325622E0,2.12673E0,3.2224164E0,1.0198746E0,2.727976E0,0E0,0E0,0E0,0E0,0E0,6.187651E-1,0E0,0E0,0E0],"parents":[2147483647,0,0,1,1,2,2,3,3,4,4,5,5,11,11],"right_children":[2,4,6,8,10,12,-1,-1,-1,-1,-1,14,-1,-1,-1],"split_conditions":[1.799728E-2,2.199857E-1,5.8244047E0,8.921016E-1,1.4970305E-2,5.0076237E0,1.0862243E-1,5.4993335E-2,-8.164801E-2,-1.2687628E-1,-4.0027115E-2,9.901738E-2,-6.795875E-2,1.47091625E-2,8.548082E-2],"split_indices":[12,2,7,5,12,7,0,0,0,0,0,2,0,0,0],"split_type":[0,0,0,0,0,0,0,0,0,0,0,0,0,0,0],"sum_hessian":[5.0905457E1,2.7572361E1,2.3333096E1,1.3709835E1,1.3862525E1,1.6581266E1,6.751828E0,7.6664305E0,6.043405E0,5.938587E0,7.9239383E0,1.1225571E1,5.355696E0,5.7600045E0,5.465566E0],"tree_param":{"num_deleted":"0","num_feature":"15","num_nodes":"15","size_leaf_vector":"1"}},{"base_weights":[1.0379289E-1,-8.748114E-2,2.0884754E-1,5.242331E-1,-1.7874276E-2,7.178642E-1,3.978016E-5,-5.6048054E-2,1.9564238E-1,3.697595E-2,1.4881533E-1,-5.7628315E-2,4.5196193E-1,2.5657566E-2,1.0357744E-1],"categories":[],"categories_nodes":[],"categories_segments":[],"categories_sizes":[],"default_left":[0,0,0,0,0,0,0,0,0,0,0,0,0,0,0],"id":38,"left_children":[1,-1,3,5,7,9,-1,-1,11,-1,-1,-1,13,-1,-1],"loss_changes":[3.8893738E0,0E0,3.2996423E0,1.9556246E0,2.1801634E0,1.574882E0,0E0,0E0,2.8474498E0,0E0,0E0,0E0,7.4870634E-1,0E0,0E0],"parents":[2147483647,0,0,2,2,3,3,4,4,5,5,8,8,12,12],"right_children":[2,-1,4,6,8,10,-1,-1,12,-1,-1,-1,14,-1,-1],"split_conditions":[6.6E1,-8.748114E-2,8.09741E-1,1.16E2,1.4813872E-1,3.786415E0,3.978016E-5,-5.6048054E-2,8.4E1,3.697595E-2,1.4881533E-1,-5.7628315E-2,2.8440905E-1,2.5657566E-2,1.0357744E-1],"split_indices":[10,0,1,11,8,7,0,0,10,0,0,0,3,0,0],"split_type":[0,0,0,0,0,0,0,0,0,0,0,0,0,0,0],"sum_hessian":[5.1202255E1,6.187551E0,4.50147E1,1.8277382E1,2.6737322E1,1.307536E1,5.2020216E0,9.746645E0,1.6990677E1,5.5076823E0,7.567678E0,5.0555162E0,1.1935161E1,6.269496E0,5.665664E0],"tree_param":{"num_deleted":"0","num_feature":"15","num_nodes":"15","size_leaf_vector":"1"}},{"base_weights":[9.7335964E-2,-3.6134234E-1,2.5232863E-1,-9.036804E-2,1.6938857E-3,5.984416E-1,7.605922E-2,4.9768012E-2,1.2508804E-1,-6.7638E-2,2.6071915E-1,7.435315E-2,8.892766E-2,5.694651E-2,-3.900098E-2],"categories":[],"categories_nodes":[],"categories_segments":[],"categories_sizes":[],"default_left":[0,0,0,0,0,0,0,0,0,0,0,0,0,0,0],"id":39,"left_children":[1,3,5,-1,-1,7,9,-1,-1,-1,11,13,-1,-1,-1],"loss_changes":[3.8826327E0,1.2539634E0,2.4223542E0,0E0,0E0,5.712447E-1,2.8371377E0,0E0,0E0,0E0,1.2761302E0,1.6100457E0,0E0,0E0,0E0],"parents":[2147483647,0,0,1,1,2,2,5,5,6,6,10,10,11,11],"right_children":[2,4,6,-1,-1,8,10,-1,-1,-1,12,14,-1,-1,-1],"split_conditions":[1.4346183E-2,5.711685E0,1.7225314E-2,-9.036804E-2,1.6938857E-3,1.6227324E-2,1.8694354E-2,4.9768012E-2,1.2508804E-1,-6.7638E-2,1.5486903E-1,8.468435E-2,8.892766E-2,5.694651E-2,-3.900098E-2],"split_indices":[12,7,12,0,0,12,12,0,0,0,8,8,0,0,0],"split_type":[0,0,0,0,0,0,0,0,0,0,0,0,0,0,0],"sum_hessian":[5.2331856E1,1.2881013E1,3.9450844E1,7.446232E0,5.434781E0,1.2503875E1,2.6946968E1,6.993479E0,5.510396E0,6.6181927E0,2.0328775E1,1.380588E1,6.522896E0,7.1458554E0,6.660024E0],"tree_param":{"num_deleted":"0","num_feature":"15","num_nodes":"15","size_leaf_vector":"1"}},{"base_weights":[-3.8026247E-2,2.623475E-1,-3.217848E-1,4.5333079E-1,-4.2048734E-2,-5.499197E-1,1.509087E-2,1.0088925E-2,6.107731E-1,-1.13643646E-1,-2.2781845E-2,1.3045704E-1,4.678136E-2],"categories":[],"categories_nodes":[],"categories_segments":[],"categories_sizes":[],"default_left":[0,0,0,0,0,0,0,0,0,0,0,0,0],"id":40,"left_children":[1,3,5,7,-1,9,-1,-1,11,-1,-1,-1,-1],"loss_changes":[4.1725373E0,2.5989861E0,2.475276E0,1.0544865E0,0E0,1.2458243E0,0E0,0E0,7.1007776E-1,0E0,0E0,0E0,0E0],"parents":[2147483647,0,0,1,1,2,2,3,3,5,5,8,8],"right_children":[2,4,6,8,-1,10,-1,-1,12,-1,-1,-1,-1],"split_conditions":[8.335239E-1,9.128709E-2,1.15E2,1.5283447E-2,-4.2048734E-2,7.8316414E-1,1.509087E-2,1.0088925E-2,9.2E1,-1.13643646E-1,-2.2781845E-2,1.3045704E-1,4.678136E-2],"split_indices":[1,6,11,12,0,5,0,0,11,0,0,0,0],"split_type":[0,0,0,0,0,0,0,0,0,0,0,0,0],"sum_hessian":[4.6963684E1,2.2850574E1,2.4113111E1,1.7023949E1,5.826625E0,1.5460764E1,8.652348E0,5.344837E0,1.16791115E1,9.565788E0,5.894976E0,5.2345676E0,6.4445443E0],"tree_param":{"num_deleted":"0","num_feature":"15","num_nodes":"13","size_leaf_vector":"1"}},{"base_weights":[1.0338674E-1,1.721888E-2,9.82834E-2,4.5870638E-1,-1.4797033E-1,1.1171024E-1,1.0610601E-2,-2.7383938E-1,7.073737E-2,-5.5421674E-1,-1.2643373E-2,-3.5587553E-2,-1.3702022E-1,5.3829372E-2,-3.6202088E-2],"categories":[],"categories_nodes":[],"categories_segments":[],"categories_sizes":[],"default_left":[0,0,0,0,0,0,0,0,0,0,0,0,0,0,0],"id":41,"left_children":[1,3,-1,5,7,-1,-1,9,-1,11,13,-1,-1,-1,-1],"loss_changes":[2.5191395E0,3.4995646E0,0E0,1.3961861E0,2.8584383E0,0E0,0E0,2.169618E0,0E0,1.4129024E0,1.4809304E0,0E0,0E0,0E0,0E0],"parents":[2147483647,0,0,1,1,3,3,4,4,7,7,9,9,10,10],"right_children":[2,4,-1,6,8,-1,-1,10,-1,12,14,-1,-1,-1,-1],"split_conditions":[1E0,6.793152E-1,9.82834E-2,1.0525911E-1,6.0052674E-2,1.1171024E-1,1.0610601E-2,2.8758577E-1,7.073737E-2,8.764268E-1,3.0334666E-1,-3.5587553E-2,-1.3702022E-1,5.3829372E-2,-3.6202088E-2],"split_indices":[14,5,0,8,4,0,0,3,0,1,3,0,0,0,0],"split_type":[0,0,0,0,0,0,0,0,0,0,0,0,0,0,0],"sum_hessian":[5.2215443E1,4.605523E1,6.1602106E0,1.2056355E1,3.3998875E1,6.4105964E0,5.645759E0,2.8721739E1,5.2771363E0,1.3311185E1,1.5410554E1,7.9538918E0,5.3572927E0,5.655182E0,9.755372E0],"tree_param":{"num_deleted":"0","num_feature":"15","num_nodes":"15","size_leaf_vector":"1"}},{"base_weights":[-5.0761215E-2,-5.5445915E-1,1.1284137E-1,-1.2572491E-1,-2.3655886E-2,-1.9262263E-1,3.9016908E-1,9.681285E-3,-7.159624E-2,1.06768265E-1,2.4588935E-3],"categories":[],"categories_nodes":[],"categories_segments":[],"categories_sizes":[],"default_left":[0,0,0,0,0,0,0,0,0,0,0],"id":42,"left_children":[1,3,5,-1,-1,7,9,-1,-1,-1,-1],"loss_changes":[4.1402225E0,1.2524064E0,3.309659E0,0E0,0E0,1.410001E0,2.4338398E0,0E0,0E0,0E0,0E0],"parents":[2147483647,0,0,1,1,2,2,5,5,6,6],"right_children":[2,4,6,-1,-1,8,10,-1,-1,-1,-1],"split_conditions":[6.6082746E-1,5.663567E-2,-5.9850723E-2,-1.2572491E-1,-2.3655886E-2,9.2E1,8.656751E-1,9.681285E-3,-7.159624E-2,1.06768265E-1,2.4588935E-3],"split_indices":[5,2,4,0,0,10,5,0,0,0,0],"split_type":[0,0,0,0,0,0,0,0,0,0,0],"sum_hessian":[4.8482346E1,1.1300726E1,3.7181618E1,5.940373E0,5.360353E0,1.7838617E1,1.9343E1,9.778611E0,8.060007E0,9.910826E0,9.432175E0],"tree_param":{"num_deleted":"0","num_feature":"15","num_nodes":"11","size_leaf_vector":"1"}},{"base_weights":[-3.44136E-2,-2.2341496E-1,2.1750203E-1,4.5919605E-2,-3.4589115E-1,4.1275728E-3,8.3098434E-2,-1.9926408E-2,-7.3534894E-1,-4.6817534E-2,3.3376392E-2,3.3759788E-2,-5.3595845E-2,-5.0032113E-2,-1.5211482E-1],"categories":[],"categories_nodes":[],"categories_segments":[],"categories_sizes":[],"default_left":[0,0,0,0,0,0,0,0,0,0,0,0,0,0,0],"id":43,"left_children":[1,3,5,-1,7,9,-1,11,13,-1,-1,-1,-1,-1,-1],"loss_changes":[2.4471664E0,2.004632E0,1.5845245E0,0E0,3.063399E0,1.0730755E0,0E0,1.256343E0,8.9594173E-1,0E0,0E0,0E0,0E0,0E0,0E0],"parents":[2147483647,0,0,1,1,2,2,4,4,5,5,7,7,8,8],"right_children":[2,4,6,-1,8,10,-1,12,14,-1,-1,-1,-1,-1,-1],"split_conditions":[8.503372E-1,2.3242067E-1,8.8388346E-2,4.5919605E-2,8.8E1,8.012163E-2,8.3098434E-2,-4.0773474E-2,8.5509434E-2,-4.6817534E-2,3.3376392E-2,3.3759788E-2,-5.3595845E-2,-5.0032113E-2,-1.5211482E-1],"split_indices":[1,3,6,0,11,9,0,4,8,0,0,0,0,0,0],"split_type":[0,0,0,0,0,0,0,0,0,0,0,0,0,0,0],"sum_hessian":[4.9377075E1,2.8275974E1,2.11011E1,5.029708E0,2.3246267E1,1.3532254E1,7.568846E0,1.3226903E1,1.0019364E1,5.352266E0,8.179988E0,7.8554688E0,5.371434E0,5.0035806E0,5.0157843E0],"tree_param":{"num_deleted":"0","num_feature":"15","num_nodes":"15","size_leaf_vector":"1"}},{"base_weights":[2.7729077E-2,7.034394E-2,-7.824235E-2,-3.5003132E-1,1.2048767E-1,-1.0591271E-1,1.5861914E-2,-6.570268E-2,9.1447E-2,-7.4258044E-2,1.3958691E-1,6.521118E-2,-1.9129317E-2],"categories":[],"categories_nodes":[],"categories_segments":[],"categories_sizes":[],"default_left":[0,0,0,0,0,0,0,0,0,0,0,0,0],"id":44,"left_children":[1,-1,3,5,7,-1,-1,9,-1,-1,11,-1,-1],"loss_changes":[2.266491E0,0E0,2.165407E0,2.8105862E0,2.1758745E0,0E0,0E0,1.6457945E0,0E0,0E0,1.071056E0,0E0,0E0],"parents":[2147483647,0,0,2,2,3,3,4,4,7,7,10,10],"right_children":[2,-1,4,6,8,-1,-1,10,-1,-1,12,-1,-1],"split_conditions":[2.2762707E-1,7.034394E-2,-6.6490225E-2,3.04868E-1,2.1055367E-2,-1.0591271E-1,1.5861914E-2,1.4543393E-1,9.1447E-2,-7.4258044E-2,2.5176194E-2,6.521118E-2,-1.9129317E-2],"split_indices":[3,0,4,3,12,0,0,2,0,0,4,0,0],"split_type":[0,0,0,0,0,0,0,0,0,0,0,0,0],"sum_hessian":[4.668824E1,8.378316E0,3.8309925E1,1.5859148E1,2.2450777E1,8.595306E0,7.263841E0,1.6888231E1,5.562545E0,5.006321E0,1.188191E1,5.3465767E0,6.535334E0],"tree_param":{"num_deleted":"0","num_feature":"15","num_nodes":"13","size_leaf_vector":"1"}},{"base_weights":[8.3971985E-2,-1.54077E-1,2.9094356E-1,4.6292357E-2,-3.6610156E-1,-2.9482368E-2,5.0812113E-1,-9.164694E-2,1.6699754E-2,3.035256E-2,1.0531891E-1],"categories":[],"categories_nodes":[],"categories_segments":[],"categories_sizes":[],"default_left":[0,0,0,0,0,0,0,0,0,0,0],"id":45,"left_children":[1,3,5,-1,7,-1,9,-1,-1,-1,-1],"loss_changes":[2.3347957E0,2.2977366E0,2.7687438E0,0E0,1.9069843E0,0E0,9.0898275E-1,0E0,0E0,0E0,0E0],"parents":[2147483647,0,0,1,1,2,2,4,4,6,6],"right_children":[2,4,6,-1,8,-1,10,-1,-1,-1,-1],"split_conditions":[2.8384218E-1,2.2575657E-1,1.4970305E-2,4.6292357E-2,4.7920115E-2,-2.9482368E-2,9.3E1,-9.164694E-2,1.6699754E-2,3.035256E-2,1.0531891E-1],"split_indices":[3,3,12,0,4,0,11,0,0,0,0],"split_type":[0,0,0,0,0,0,0,0,0,0,0],"sum_hessian":[4.5478535E1,2.127016E1,2.4208374E1,6.5408216E0,1.4729339E1,7.490232E0,1.6718142E1,9.550909E0,5.178429E0,7.2827816E0,9.43536E0],"tree_param":{"num_deleted":"0","num_feature":"15","num_nodes":"11","size_leaf_vector":"1"}},{"base_weights":[-6.7708413E-3,-8.210237E-2,8.396646E-2,1.12300426E-1,-3.329465E-1,-5.388229E-2,2.4702758E-1,-1.1325915E-1,3.0769888E-2,-2.3542259E-2,5.9590274E-1,2.8836343E-2,-2.3914224E-2,1.309572E-1,3.1756386E-2],"categories":[],"categories_nodes":[],"categories_segments":[],"categories_sizes":[],"default_left":[0,0,0,0,0,0,0,0,0,0,0,0,0,0,0],"id":46,"left_children":[1,3,-1,5,7,-1,9,-1,11,-1,13,-1,-1,-1,-1],"loss_changes":[2.2566106E0,2.3093634E0,0E0,1.8036826E0,3.1850967E0,0E0,3.1362362E0,0E0,3.999049E-1,0E0,1.0708642E0,0E0,0E0,0E0,0E0],"parents":[2147483647,0,0,1,1,3,3,4,4,6,6,8,8,10,10],"right_children":[2,4,-1,6,8,-1,10,-1,12,-1,14,-1,-1,-1,-1],"split_conditions":[2.1972788E-2,-2.3871768E-2,8.396646E-2,6.462071E-1,5.5634513E0,-5.388229E-2,7.6566434E-1,-1.1325915E-1,8.656751E-1,-2.3542259E-2,8.503372E-1,2.8836343E-2,-2.3914224E-2,1.309572E-1,3.1756386E-2],"split_indices":[12,4,0,1,7,0,5,0,5,0,1,0,0,0,0],"split_type":[0,0,0,0,0,0,0,0,0,0,0,0,0,0,0],"sum_hessian":[5.0797333E1,4.5590435E1,5.2068963E0,2.5995995E1,1.959444E1,5.406873E0,2.0589123E1,8.571151E0,1.1023291E1,9.796041E0,1.0793081E1,5.9560423E0,5.067248E0,5.5308685E0,5.2622128E0],"tree_param":{"num_deleted":"0","num_feature":"15","num_nodes":"15","size_leaf_vector":"1"}},{"base_weights":[-2.572692E-1,6.414031E-2,-3.515832E-1,-1.3016643E-1,-1.6560085E-1,-2.8751487E-1,3.9972715E-2,-2.6968831E-2,-5.60467E-1,-5.2163005E-2,3.2304112E-2,-3.6530335E-2,-1.1524757E-1],"categories":[],"categories_nodes":[],"categories_segments":[],"categories_sizes":[],"default_left":[0,0,0,0,0,0,0,0,0,0,0,0,0],"id":47,"left_children":[1,-1,3,-1,5,7,-1,9,11,-1,-1,-1,-1],"loss_changes":[3.1876018E0,0E0,3.8767762E0,0E0,1.7634697E0,1.7952645E0,0E0,1.1690038E0,6.285231E-1,0E0,0E0,0E0,0E0],"parents":[2147483647,0,0,2,2,4,4,5,5,7,7,8,8],"right_children":[2,-1,4,-1,6,8,-1,10,12,-1,-1,-1,-1],"split_conditions":[5.679803E-1,6.414031E-2,7.139935E-1,-1.3016643E-1,1.9538088E-2,1.9583179E-1,3.9972715E-2,6.1118597E-1,9.325716E-1,-5.2163005E-2,3.2304112E-2,-3.6530335E-2,-1.1524757E-1],"split_indices":[5,0,5,0,12,8,0,1,1,0,0,0,0],"split_type":[0,0,0,0,0,0,0,0,0,0,0,0,0],"sum_hessian":[4.6021595E1,5.142799E0,4.0878796E1,9.856428E0,3.1022367E1,2.4456497E1,6.5658712E0,1.3074785E1,1.1381711E1,5.439366E0,7.63542E0,5.3680916E0,6.0136194E0],"tree_param":{"num_deleted":"0","num_feature":"15","num_nodes":"13","size_leaf_vector":"1"}},{"base_weights":[-1.6151415E-1,2.7349098E-2,-3.295163E-1,-1.6348518E-1,9.8773725E-2,-5.0924736E-1,-4.6063107E-2,-9.16709E-2,2.5677875E-2,-2.6716667E-1,-1.3009883E-1,-4.120677E-2,2.9616194E-2,-5.0918695E-2,4.1805793E-2,-8.033038E-3,-6.4505495E-2],"categories":[],"categories_nodes":[],"categories_segments":[],"categories_sizes":[],"default_left":[0,0,0,0,0,0,0,0,0,0,0,0,0,0,0,0,0],"id":48,"left_children":[1,3,5,7,-1,9,11,-1,13,15,-1,-1,-1,-1,-1,-1,-1],"loss_changes":[1.6427925E0,3.1384814E0,1.3687327E0,1.7196845E0,0E0,1.2092972E0,7.0584327E-1,0E0,1.4901608E0,3.7232238E-1,0E0,0E0,0E0,0E0,0E0,0E0,0E0],"parents":[2147483647,0,0,1,1,2,2,3,3,5,5,6,6,8,8,9,9],"right_children":[2,4,6,8,-1,10,12,-1,14,16,-1,-1,-1,-1,-1,-1,-1],"split_conditions":[1.7225314E-2,1.5984813E-2,9.2829835E-1,-8.164371E-2,9.8773725E-2,8.201702E-1,-3.2954894E-2,-9.16709E-2,5.920085E-2,-4.6854597E-2,-1.3009883E-1,-4.120677E-2,2.9616194E-2,-5.0918695E-2,4.1805793E-2,-8.033038E-3,-6.4505495E-2],"split_indices":[12,12,1,4,0,1,4,0,6,4,0,0,0,0,0,0,0],"split_type":[0,0,0,0,0,0,0,0,0,0,0,0,0,0,0,0,0],"sum_hessian":[5.0491005E1,2.4163874E1,2.6327131E1,1.9122808E1,5.0410657E0,1.56238365E1,1.0703295E1,5.0176926E0,1.4105116E1,1.0363588E1,5.260248E0,5.4539347E0,5.2493606E0,5.6337066E0,8.471409E0,5.058238E0,5.3053503E0],"tree_param":{"num_deleted":"0","num_feature":"15","num_nodes":"17","size_leaf_vector":"1"}},{"base_weights":[5.1987566E-2,-1.1052978E-1,3.1268078E-1,4.5858294E-2,-2.8703576E-1,-1.0824897E-2,5.140907E-1,-1.10314175E-1,-1.03490494E-1,3.2023154E-2,1.0747787E-1,-9.559935E-2,2.2643317E-1,7.8393266E-2,-1.6715592E-2],"categories":[],"categories_nodes":[],"categories_segments":[],"categories_sizes":[],"default_left":[0,0,0,0,0,0,0,0,0,0,0,0,0,0,0],"id":49,"left_children":[1,3,5,-1,7,-1,9,-1,11,-1,-1,-1,13,-1,-1],"loss_changes":[2.1106899E0,2.3597915E0,1.5159458E0,0E0,1.7535655E0,0E0,6.166351E-1,0E0,3.1275895E0,0E0,0E0,0E0,1.1797004E0,0E0,0E0],"parents":[2147483647,0,0,1,1,2,2,4,4,6,6,8,8,12,12],"right_children":[2,4,6,-1,8,-1,10,-1,12,-1,-1,-1,14,-1,-1],"split_conditions":[3.0054596E-1,8.5E1,7.2E1,4.5858294E-2,-7.691603E-2,-1.0824897E-2,3.786415E0,-1.10314175E-1,3.227486E-2,3.2023154E-2,1.0747787E-1,-9.559935E-2,2.775649E-1,7.8393266E-2,-1.6715592E-2],"split_indices":[3,10,10,0,4,0,7,0,6,0,0,0,3,0,0],"split_type":[0,0,0,0,0,0,0,0,0,0,0,0,0,0,0],"sum_hessian":[4.8003258E1,2.9924316E1,1.8078941E1,8.692599E0,2.1231718E1,6.4315214E0,1.164742E1,5.2934036E0,1.5938314E1,5.513939E0,6.133481E0,5.731927E0,1.02063875E1,5.1472893E0,5.059098E0],"tree_param":{"num_deleted":"0","num_feature":"15","num_nodes":"15","size_leaf_vector":"1"}},{"base_weights":[-7.668618E-2,6.076509E-2,-1.4857128E-1,-5.0123096E-2,-7.9331905E-2,7.77356E-2,-8.097492E-2,8.540922E-2,-6.597371E-2,-6.378452E-2,2.597831E-2],"categories":[],"categories_nodes":[],"categories_segments":[],"categories_sizes":[],"default_left":[0,0,0,0,0,0,0,0,0,0,0],"id":50,"left_children":[1,-1,3,5,-1,7,-1,-1,9,-1,-1],"loss_changes":[1.7125757E0,0E0,1.55529E0,2.212482E0,0E0,2.041541E0,0E0,0E0,2.0363739E0,0E0,0E0],"parents":[2147483647,0,0,2,2,3,3,5,5,8,8],"right_children":[2,-1,4,6,-1,8,-1,-1,10,-1,-1],"split_conditions":[1.3185521E-2,6.076509E-2,1.31E2,1.0791183E0,-7.9331905E-2,1.3111222E0,-8.097492E-2,8.540922E-2,1.6970137E-1,-6.378452E-2,2.597831E-2],"split_indices":[12,0,10,1,0,0,0,0,2,0,0],"split_type":[0,0,0,0,0,0,0,0,0,0,0],"sum_hessian":[4.671101E1,5.462821E0,4.1248188E1,3.3665253E1,7.5829377E0,2.7362434E1,6.302818E0,5.518925E0,2.184351E1,8.418985E0,1.3424523E1],"tree_param":{"num_deleted":"0","num_feature":"15","num_nodes":"11","size_leaf_vector":"1"}},{"base_weights":[8.152482E-2,-6.512826E-2,1.5311271E-1,2.4508879E-1,-3.939093E-2,3.4706616E-1,-3.5746068E-2,5.337321E-1,7.436719E-2,2.2540713E-2,1.1170192E-1,-3.6221877E-2,5.06607E-2],"categories":[],"categories_nodes":[],"categories_segments":[],"categories_sizes":[],"default_left":[0,0,0,0,0,0,0,0,0,0,0,0,0],"id":51,"left_children":[1,-1,3,5,-1,7,-1,9,11,-1,-1,-1,-1],"loss_changes":[1.8326986E0,0E0,1.6989007E0,1.8337436E0,0E0,1.4741926E0,0E0,1.3031201E0,1.1835064E0,0E0,0E0,0E0,0E0],"parents":[2147483647,0,0,2,2,3,3,5,5,7,7,8,8],"right_children":[2,-1,4,6,-1,8,-1,10,12,-1,-1,-1,-1],"split_conditions":[2.780331E-2,-6.512826E-2,9.682451E-1,1.36E2,-3.939093E-2,2.004311E-1,-3.5746068E-2,7.121615E-1,8.3E1,2.2540713E-2,1.1170192E-1,-3.6221877E-2,5.06607E-2],"split_indices":[2,0,5,10,0,8,0,5,10,0,0,0,0],"split_type":[0,0,0,0,0,0,0,0,0,0,0,0,0],"sum_hessian":[4.6840614E1,5.0921416E0,4.1748474E1,3.452124E1,7.227236E0,2.8740217E1,5.7810216E0,1.6493193E1,1.2247024E1,6.460906E0,1.0032288E1,5.606532E0,6.640491E0],"tree_param":{"num_deleted":"0","num_feature":"15","num_nodes":"13","size_leaf_vector":"1"}},{"base_weights":[-7.492455E-2,2.6917878E-1,-2.0995407E-1,6.941467E-3,7.143246E-2,-3.2210317E-1,5.8387946E-2,-8.30966E-2,-1.13712095E-1,-7.962289E-2,1.03154145E-1,-3.702294E-2,8.563736E-2],"categories":[],"categories_nodes":[],"categories_segments":[],"categories_sizes":[],"default_left":[0,0,0,0,0,0,0,0,0,0,0,0,0],"id":52,"left_children":[1,3,5,-1,-1,7,-1,9,-1,-1,11,-1,-1],"loss_changes":[2.317627E0,6.310934E-1,2.5117385E0,0E0,0E0,3.1109529E0,0E0,1.7890133E0,0E0,0E0,2.682368E0,0E0,0E0],"parents":[2147483647,0,0,1,1,2,2,5,5,7,7,10,10],"right_children":[2,4,6,-1,-1,8,-1,10,-1,-1,12,-1,-1],"split_conditions":[6.58171E-1,5.59017E-2,1.2322159E0,6.941467E-3,7.143246E-2,1.04E2,5.8387946E-2,1.4346183E-2,-1.13712095E-1,-7.962289E-2,2.129017E-1,-3.702294E-2,8.563736E-2],"split_indices":[1,6,1,0,0,11,0,12,0,0,2,0,0],"split_type":[0,0,0,0,0,0,0,0,0,0,0,0,0],"sum_hessian":[4.766362E1,1.3152607E1,3.451101E1,6.9228234E0,6.229784E0,2.9459707E1,5.0513034E0,1.9797272E1,9.6624365E0,5.2725997E0,1.4524672E1,8.578601E0,5.94607E0],"tree_param":{"num_deleted":"0","num_feature":"15","num_nodes":"13","size_leaf_vector":"1"}},{"base_weights":[-8.654874E-2,-1.8579692E-1,4.6309806E-2,-3.0634046E-1,5.876935E-2,-1.1600598E-1,-1.4497422E-1,1.08839184E-1,-4.3578437E-1,-4.365269E-2,6.338968E-2,-1.0779012E-1,-1.9136922E-2],"categories":[],"categories_nodes":[],"categories_segments":[],"categories_sizes":[],"default_left":[0,0,0,0,0,0,0,0,0,0,0,0,0],"id":53,"left_children":[1,3,-1,5,-1,-1,7,9,11,-1,-1,-1,-1],"loss_changes":[1.9274607E0,2.8163586E0,0E0,2.3448021E0,0E0,0E0,1.9266806E0,1.9289584E0,9.5998406E-1,0E0,0E0,0E0,0E0],"parents":[2147483647,0,0,1,1,3,3,6,6,7,7,8,8],"right_children":[2,4,-1,6,-1,-1,8,10,12,-1,-1,-1,-1],"split_conditions":[2.0115268E-1,2.6053625E-1,4.6309806E-2,-9.729963E-2,5.876935E-2,-1.1600598E-1,1.4370286E0,2.3576741E-1,1.5432332E0,-4.365269E-2,6.338968E-2,-1.0779012E-1,-1.9136922E-2],"split_indices":[9,8,0,4,0,0,0,3,0,0,0,0,0],"split_type":[0,0,0,0,0,0,0,0,0,0,0,0,0],"sum_hessian":[4.6669037E1,3.772652E1,8.942516E0,3.1601017E1,6.125505E0,7.1408935E0,2.4460123E1,1.3394983E1,1.1065141E1,5.9212995E0,7.4736834E0,5.0758486E0,5.989292E0],"tree_param":{"num_deleted":"0","num_feature":"15","num_nodes":"13","size_leaf_vector":"1"}},{"base_weights":[-6.985345E-2,-1.701918E-1,4.8412424E-2,-5.154293E-2,-1.0511136E-1,-1.8627825E-1,8.392401E-2,2.803084E-2,-3.7489706E-1,1.8582813E-2,-9.284842E-2],"categories":[],"categories_nodes":[],"categories_segments":[],"categories_sizes":[],"default_left":[0,0,0,0,0,0,0,0,0,0,0],"id":54,"left_children":[1,3,-1,5,-1,7,-1,-1,9,-1,-1],"loss_changes":[1.885029E0,2.3342772E0,0E0,2.7266247E0,0E0,1.9597425E0,0E0,0E0,2.2884438E0,0E0,0E0],"parents":[2147483647,0,0,1,1,3,3,5,5,8,8],"right_children":[2,4,-1,6,-1,8,-1,-1,10,-1,-1],"split_conditions":[1.9508837E-1,8.3972976E-2,4.8412424E-2,1.9280855E-2,-1.0511136E-1,7.778568E-1,8.392401E-2,2.803084E-2,1.3780419E0,1.8582813E-2,-9.284842E-2],"split_indices":[9,9,0,12,0,5,0,0,0,0,0],"split_type":[0,0,0,0,0,0,0,0,0,0,0],"sum_hessian":[4.5457333E1,3.6655674E1,8.801662E0,3.0853048E1,5.8026237E0,2.5848516E1,5.0045314E0,8.681968E0,1.716655E1,5.802365E0,1.1364184E1],"tree_param":{"num_deleted":"0","num_feature":"15","num_nodes":"11","size_leaf_vector":"1"}},{"base_weights":[3.6478028E-2,1.9481063E-1,-1.1073751E-1,4.487141E-1,-1.1429401E-1,1.0752387E-1,-6.1476216E-2,1.0032526E-2,1.0756189E-1,-7.52524E-2,4.4078138E-2,5.7381757E-2,-2.7447488E-2],"categories":[],"categories_nodes":[],"categories_segments":[],"categories_sizes":[],"default_left":[0,0,0,0,0,0,0,0,0,0,0,0,0],"id":55,"left_children":[1,3,5,7,9,11,-1,-1,-1,-1,-1,-1,-1],"loss_changes":[1.1232878E0,1.8670123E0,1.6846406E0,1.2744005E0,1.9230988E0,1.2940551E0,0E0,0E0,0E0,0E0,0E0,0E0,0E0],"parents":[2147483647,0,0,1,1,2,2,3,3,4,4,5,5],"right_children":[2,4,6,8,10,12,-1,-1,-1,-1,-1,-1,-1],"split_conditions":[7.905694E-2,1.2995644E-1,7.773752E-1,1.4345005E-1,-2.6218458E-3,9.325716E-1,-6.1476216E-2,1.0032526E-2,1.0756189E-1,-7.52524E-2,4.4078138E-2,5.7381757E-2,-2.7447488E-2],"split_indices":[6,8,5,2,4,1,0,0,0,0,0,0,0],"split_type":[0,0,0,0,0,0,0,0,0,0,0,0,0],"sum_hessian":[4.6265602E1,2.2135366E1,2.4130236E1,1.1904864E1,1.0230502E1,1.4320689E1,9.8095455E0,5.429287E0,6.475578E0,5.1311603E0,5.0993423E0,7.1936707E0,7.1270185E0],"tree_param":{"num_deleted":"0","num_feature":"15","num_nodes":"13","size_leaf_vector":"1"}},{"base_weights":[-8.4949695E-2,-1.7965598E-1,5.4988936E-2,5.066217E-2,-4.4894004E-1,-7.822419E-2,2.651985E-1,-6.964066E-1,1.2507482E-2,-3.424269E-2,8.135073E-2,-4.8963573E-2,-1.4907269E-1],"categories":[],"categories_nodes":[],"categories_segments":[],"categories_sizes":[],"default_left":[0,0,0,0,0,0,0,0,0,0,0,0,0],"id":56,"left_children":[1,3,-1,5,7,-1,9,11,-1,-1,-1,-1,-1],"loss_changes":[1.9911618E0,2.3725393E0,0E0,2.7552478E0,2.3722692E0,0E0,2.335074E0,1.0069723E0,0E0,0E0,0E0,0E0,0E0],"parents":[2147483647,0,0,1,1,3,3,4,4,6,6,7,7],"right_children":[2,4,-1,6,8,-1,10,12,-1,-1,-1,-1,-1],"split_conditions":[1.5691626E0,1.4066138E0,5.4988936E-2,7.9E1,5.8172207E0,-7.822419E-2,1.8161753E-2,3.0334666E-1,1.2507482E-2,-3.424269E-2,8.135073E-2,-4.8963573E-2,-1.4907269E-1],"split_indices":[0,0,0,10,7,0,12,3,0,0,0,0,0],"split_type":[0,0,0,0,0,0,0,0,0,0,0,0,0],"sum_hessian":[4.4021626E1,3.688708E1,7.134547E0,2.0319614E1,1.6567465E1,5.151103E0,1.5168511E1,1.1099355E1,5.4681106E0,5.518461E0,9.65005E0,5.8809457E0,5.2184086E0],"tree_param":{"num_deleted":"0","num_feature":"15","num_nodes":"13","size_leaf_vector":"1"}},{"base_weights":[-2.0777754E-2,5.4107975E-2,-8.8986054E-2,-1.7585666E-1,3.622088E-2,-4.2041343E-1,4.8663627E-2,-1.188837E-1,-2.3237282E-2,6.872309E-2,-4.4238467E-2],"categories":[],"categories_nodes":[],"categories_segments":[],"categories_sizes":[],"default_left":[0,0,0,0,0,0,0,0,0,0,0],"id":57,"left_children":[1,-1,3,5,-1,7,9,-1,-1,-1,-1],"loss_changes":[1.2277488E0,0E0,1.1844859E0,1.7818782E0,0E0,1.4045637E0,2.6143332E0,0E0,0E0,0E0,0E0],"parents":[2147483647,0,0,2,2,3,3,5,5,6,6],"right_children":[2,-1,4,6,-1,8,10,-1,-1,-1,-1],"split_conditions":[-1.3318561E-1,5.4107975E-2,2.6953378E-1,6.282804E-2,3.622088E-2,1.6137366E-1,1.9508801E-1,-1.188837E-1,-2.3237282E-2,6.872309E-2,-4.4238467E-2],"split_indices":[4,0,2,9,0,8,9,0,0,0,0],"split_type":[0,0,0,0,0,0,0,0,0,0,0],"sum_hessian":[4.494888E1,6.1670866E0,3.878179E1,3.1079489E1,7.702304E0,1.4458355E1,1.6621134E1,5.1935163E0,9.264839E0,7.431157E0,9.189977E0],"tree_param":{"num_deleted":"0","num_feature":"15","num_nodes":"11","size_leaf_vector":"1"}},{"base_weights":[6.728346E-3,-6.44197E-2,1.3798842E-1,-3.908733E-2,2.5854456E-1,4.9566934E-1,-1.2477891E-1,2.7730433E-2,1.17253564E-1,4.1656103E-2,-7.414472E-2],"categories":[],"categories_nodes":[],"categories_segments":[],"categories_sizes":[],"default_left":[0,0,0,0,0,0,0,0,0,0,0],"id":58,"left_children":[1,-1,3,-1,5,7,9,-1,-1,-1,-1],"loss_changes":[2.731273E0,0E0,1.8274721E0,0E0,2.663806E0,1.4455252E0,1.8831966E0,0E0,0E0,0E0,0E0],"parents":[2147483647,0,0,2,2,4,4,5,5,6,6],"right_children":[2,-1,4,-1,6,8,10,-1,-1,-1,-1],"split_conditions":[7.3E1,-6.44197E-2,2.5819888E-2,-3.908733E-2,1.008161E0,5.601051E0,5.58302E0,2.7730433E-2,1.17253564E-1,4.1656103E-2,-7.414472E-2],"split_indices":[10,0,6,0,1,7,7,0,0,0,0],"split_type":[0,0,0,0,0,0,0,0,0,0,0],"sum_hessian":[4.5668842E1,1.0038347E1,3.5630493E1,8.00469E0,2.7625803E1,1.6886618E1,1.0739184E1,8.881759E0,8.004859E0,5.25922E0,5.4799643E0],"tree_param":{"num_deleted":"0","num_feature":"15","num_nodes":"11","size_leaf_vector":"1"}},{"base_weights":[-7.020142E-2,-3.512457E-1,1.10315435E-1,2.306126E-2,-5.8423084E-1,-1.3811912E-1,3.8790953E-1,-1.2448184E-1,-2.8304875E-2,-8.539198E-2,1.9008875E-2,1.1054574E-1,5.6744055E-3],"categories":[],"categories_nodes":[],"categories_segments":[],"categories_sizes":[],"default_left":[0,0,0,0,0,0,0,0,0,0,0,0,0],"id":59,"left_children":[1,3,5,-1,7,9,11,-1,-1,-1,-1,-1,-1],"loss_changes":[2.3617656E0,2.2249064E0,2.028831E0,0E0,1.0701833E0,1.8823166E0,1.6572084E0,0E0,0E0,0E0,0E0,0E0,0E0],"parents":[2147483647,0,0,1,1,2,2,4,4,5,5,6,6],"right_children":[2,4,6,-1,8,10,12,-1,-1,-1,-1,-1,-1],"split_conditions":[4.1666668E-2,7.7E1,1E2,2.306126E-2,8.021221E-2,1.4693878E-2,7.051475E-2,-1.2448184E-1,-2.8304875E-2,-8.539198E-2,1.9008875E-2,1.1054574E-1,5.6744055E-3],"split_indices":[6,11,11,0,9,12,9,0,0,0,0,0,0],"split_type":[0,0,0,0,0,0,0,0,0,0,0,0,0],"sum_hessian":[4.4788883E1,1.7147068E1,2.7641817E1,5.520877E0,1.162619E1,1.4852196E1,1.2789621E1,6.494559E0,5.131632E0,5.214173E0,9.638023E0,5.8507433E0,6.938878E0],"tree_param":{"num_deleted":"0","num_feature":"15","num_nodes":"13","size_leaf_vector":"1"}},{"base_weights":[1.8230962E-2,-1.0686169E-1,7.89679E-2,2.520627E-1,-2.6376596E-1,-2.275224E-3,7.257756E-2,-8.140763E-2,-1.4216346E-1,-3.2875302E-1,4.273125E-2,-1.94722E-2,-8.2094364E-2],"categories":[],"categories_nodes":[],"categories_segments":[],"categories_sizes":[],"default_left":[0,0,0,0,0,0,0,0,0,0,0,0,0],"id":60,"left_children":[1,3,-1,5,7,-1,-1,-1,9,11,-1,-1,-1],"loss_changes":[2.820214E0,2.078097E0,0E0,7.1200854E-1,7.8251386E-1,0E0,0E0,0E0,1.6079266E0,5.24135E-1,0E0,0E0,0E0],"parents":[2147483647,0,0,1,1,3,3,4,4,8,8,9,9],"right_children":[2,4,-1,6,8,-1,-1,-1,10,12,-1,-1,-1],"split_conditions":[7.59081E-2,7.7E1,7.89679E-2,6.6E1,7.2651595E-2,-2.275224E-3,7.257756E-2,-8.140763E-2,7.6481186E-2,2.7817422E-1,4.273125E-2,-1.94722E-2,-8.2094364E-2],"split_indices":[4,10,0,10,2,0,0,0,9,2,0,0,0],"split_type":[0,0,0,0,0,0,0,0,0,0,0,0,0],"sum_hessian":[4.2475662E1,3.4719585E1,7.756074E0,1.0376493E1,2.4343094E1,5.2538385E0,5.122655E0,6.3388844E0,1.800421E1,1.2689732E1,5.3144774E0,7.477239E0,5.2124925E0],"tree_param":{"num_deleted":"0","num_feature":"15","num_nodes":"13","size_leaf_vector":"1"}},{"base_weights":[7.0303276E-2,3.725652E-1,-1.08232096E-1,6.925247E-4,8.847204E-2,-1.01736404E-1,3.7878424E-2,2.8962332E-1,-2.3299204E-1,1.0205998E-1,-9.108418E-3,1.9652437E-2,-7.961485E-2],"categories":[],"categories_nodes":[],"categories_segments":[],"categories_sizes":[],"default_left":[0,0,0,0,0,0,0,0,0,0,0,0,0],"id":61,"left_children":[1,3,5,-1,-1,-1,7,9,11,-1,-1,-1,-1],"loss_changes":[2.5379412E0,1.3890724E0,2.5135098E0,0E0,0E0,0E0,1.7533996E0,1.856716E0,1.4205015E0,0E0,0E0,0E0,0E0],"parents":[2147483647,0,0,1,1,2,2,6,6,7,7,8,8],"right_children":[2,4,6,-1,-1,-1,8,10,12,-1,-1,-1,-1],"split_conditions":[1.0284226E-1,6.7587875E-2,-1.1573382E-1,6.925247E-4,8.847204E-2,-1.01736404E-1,-2.3871768E-2,1.6952813E-2,2.7594444E-1,1.0205998E-1,-9.108418E-3,1.9652437E-2,-7.961485E-2],"split_indices":[8,8,4,0,0,0,4,12,3,0,0,0,0],"split_type":[0,0,0,0,0,0,0,0,0,0,0,0,0],"sum_hessian":[4.5282646E1,1.6411331E1,2.8871315E1,6.47167E0,9.939662E0,5.1475515E0,2.3723763E1,1.2260095E1,1.1463668E1,5.350292E0,6.909803E0,5.4101434E0,6.0535245E0],"tree_param":{"num_deleted":"0","num_feature":"15","num_nodes":"13","size_leaf_vector":"1"}},{"base_weights":[1.9595463E-2,-1.582477E-1,2.788494E-1,-6.13137E-2,-3.6655337E-2,-3.138628E-2,5.711402E-1,-4.5501407E-2,1.5556449E-1,1.423501E-1,9.245465E-3,-1.4668734E-2,5.977669E-2],"categories":[],"categories_nodes":[],"categories_segments":[],"categories_sizes":[],"default_left":[0,0,0,0,0,0,0,0,0,0,0,0,0],"id":62,"left_children":[1,3,5,-1,7,-1,9,-1,11,-1,-1,-1,-1],"loss_changes":[2.0645657E0,7.9615235E-1,2.7148142E0,0E0,1.022522E0,0E0,2.1836379E0,0E0,7.6022637E-1,0E0,0E0,0E0,0E0],"parents":[2147483647,0,0,1,1,2,2,4,4,6,6,8,8],"right_children":[2,4,6,-1,8,-1,10,-1,12,-1,-1,-1,-1],"split_conditions":[2.9930404E-1,8.3E1,8.978122E-2,-6.13137E-2,1.273789E-1,-3.138628E-2,8.5E1,-4.5501407E-2,-3.553333E-2,1.423501E-1,9.245465E-3,-1.4668734E-2,5.977669E-2],"split_indices":[3,10,8,0,8,0,10,0,4,0,0,0,0],"split_type":[0,0,0,0,0,0,0,0,0,0,0,0,0],"sum_hessian":[4.2821087E1,2.5629414E1,1.7191675E1,7.6032114E0,1.8026201E1,6.5455346E0,1.064614E1,7.3083854E0,1.0717817E1,5.6174808E0,5.028659E0,5.5389857E0,5.178831E0],"tree_param":{"num_deleted":"0","num_feature":"15","num_nodes":"13","size_leaf_vector":"1"}},{"base_weights":[-3.802558E-2,-2.5291014E-1,2.3918113E-1,-8.582286E-2,-6.0440063E-2,2.6002236E-2,9.67352E-2,4.56737E-2,-4.867256E-2,-2.6913757E-2,4.6776563E-2],"categories":[],"categories_nodes":[],"categories_segments":[],"categories_sizes":[],"default_left":[0,0,0,0,0,0,0,0,0,0,0],"id":63,"left_children":[1,3,5,-1,7,9,-1,-1,-1,-1,-1],"loss_changes":[2.7352333E0,1.5495113E0,1.723595E0,0E0,1.7563512E0,8.917072E-1,0E0,0E0,0E0,0E0,0E0],"parents":[2147483647,0,0,1,1,2,2,4,4,5,5],"right_children":[2,4,6,-1,8,10,-1,-1,-1,-1,-1],"split_conditions":[6.5299764E-2,1.7153679E-1,9.405511E-1,-8.582286E-2,2.3932524E-1,5.760247E0,9.67352E-2,4.56737E-2,-4.867256E-2,-2.6913757E-2,4.6776563E-2],"split_indices":[9,8,1,0,8,7,0,0,0,0,0],"split_type":[0,0,0,0,0,0,0,0,0,0,0],"sum_hessian":[4.390275E1,2.4780836E1,1.9121914E1,8.578819E0,1.6202017E1,1.3232964E1,5.88895E0,6.737298E0,9.46472E0,7.9161286E0,5.316835E0],"tree_param":{"num_deleted":"0","num_feature":"15","num_nodes":"11","size_leaf_vector":"1"}},{"base_weights":[3.7104834E-2,4.9644879E-1,-1.5372767E-1,6.0692704E-3,1.281864E-1,-4.0311E-1,5.621328E-2,-6.1091954E-1,-1.8489545E-2,-2.8948603E-2,-1.3262531E-1],"categories":[],"categories_nodes":[],"categories_segments":[],"categories_sizes":[],"default_left":[0,0,0,0,0,0,0,0,0,0,0],"id":64,"left_children":[1,3,5,-1,-1,7,-1,9,-1,-1,-1],"loss_changes":[4.037405E0,2.1699162E0,4.459232E0,0E0,0E0,1.2442517E0,0E0,1.2874951E0,0E0,0E0,0E0],"parents":[2147483647,0,0,1,1,2,2,5,5,7,7],"right_children":[2,4,6,-1,-1,8,-1,10,-1,-1,-1],"split_conditions":[1.3636893E0,1.2715807E0,8.012163E-2,6.0692704E-3,1.281864E-1,2.9930404E-1,5.621328E-2,2.3489864E-1,-1.8489545E-2,-2.8948603E-2,-1.3262531E-1],"split_indices":[0,0,9,0,0,3,0,3,0,0,0],"split_type":[0,0,0,0,0,0,0,0,0,0,0],"sum_hessian":[4.4188095E1,1.2499543E1,3.1688553E1,5.9881225E0,6.5114202E0,2.1690428E1,9.998124E0,1.1768369E1,9.92206E0,5.327045E0,6.4413238E0],"tree_param":{"num_deleted":"0","num_feature":"15","num_nodes":"11","size_leaf_vector":"1"}},{"base_weights":[1.0033613E-1,-1.8863691E-1,2.8848526E-1,-4.3218017E-1,2.810107E-2,-1.455649E-2,4.164669E-1,-1.0772513E-1,-9.348665E-3,2.0057976E-1,1.02088E-1,6.663829E-2,-2.0987755E-2],"categories":[],"categories_nodes":[],"categories_segments":[],"categories_sizes":[],"default_left":[0,0,0,0,0,0,0,0,0,0,0,0,0],"id":65,"left_children":[1,3,5,7,-1,-1,9,-1,-1,11,-1,-1,-1],"loss_changes":[2.516685E0,1.771586E0,1.4132643E0,1.1724312E0,0E0,0E0,1.0653784E0,0E0,0E0,1.1421165E0,0E0,0E0,0E0],"parents":[2147483647,0,0,1,1,2,2,3,3,6,6,9,9],"right_children":[2,4,6,8,-1,-1,10,-1,-1,12,-1,-1,-1],"split_conditions":[2.8133607E-1,2.3004535E-1,1.4244898E-2,5.8172207E0,2.810107E-2,-1.455649E-2,7.6566434E-1,-1.0772513E-1,-9.348665E-3,1.4598123E0,1.02088E-1,6.663829E-2,-2.0987755E-2],"split_indices":[3,2,12,7,0,0,5,0,0,0,0,0,0],"split_type":[0,0,0,0,0,0,0,0,0,0,0,0,0],"sum_hessian":[4.4287193E1,1.7463263E1,2.6823933E1,1.0507461E1,6.9558015E0,6.745552E0,2.007838E1,5.394481E0,5.1129794E0,1.201607E1,8.062311E0,6.8262105E0,5.1898594E0],"tree_param":{"num_deleted":"0","num_feature":"15","num_nodes":"13","size_leaf_vector":"1"}},{"base_weights":[-3.3666357E-2,6.668765E-2,-1.4518243E-1,6.329694E-2,-5.661684E-1,3.1984714E-1,-5.9431408E-2,-1.3758074E-1,-1.2719894E-2,-1.5030818E-2,1.1877457E-1],"categories":[],"categories_nodes":[],"categories_segments":[],"categories_sizes":[],"default_left":[0,0,0,0,0,0,0,0,0,0,0],"id":66,"left_children":[1,-1,3,5,7,9,-1,-1,-1,-1,-1],"loss_changes":[2.397006E0,0E0,3.2146258E0,3.0883143E0,1.9662089E0,3.3852558E0,0E0,0E0,0E0,0E0,0E0],"parents":[2147483647,0,0,2,2,3,3,4,4,5,5],"right_children":[2,-1,4,6,8,10,-1,-1,-1,-1,-1],"split_conditions":[5.8351207E-1,6.668765E-2,9.332014E-1,9.6E1,9.8E1,1.6137366E-1,-5.9431408E-2,-1.3758074E-1,-1.2719894E-2,-1.5030818E-2,1.1877457E-1],"split_indices":[5,0,1,10,10,8,0,0,0,0,0],"split_type":[0,0,0,0,0,0,0,0,0,0,0],"sum_hessian":[4.2734196E1,7.5156517E0,3.5218544E1,2.4122381E1,1.1096165E1,1.5674804E1,8.4475765E0,5.893179E0,5.2029853E0,8.710438E0,6.964366E0],"tree_param":{"num_deleted":"0","num_feature":"15","num_nodes":"11","size_leaf_vector":"1"}},{"base_weights":[8.619511E-2,1.872668E-1,-1.850171E-1,-1.2255199E-2,2.9329738E-1,-7.9133324E-2,3.2196607E-2,4.3356872E-1,-1.6332477E-2,1.2312543E-1,1.6785337E-1,-1.5458354E-2,5.9804592E-2],"categories":[],"categories_nodes":[],"categories_segments":[],"categories_sizes":[],"default_left":[0,0,0,0,0,0,0,0,0,0,0,0,0],"id":67,"left_children":[1,3,5,-1,7,-1,-1,9,-1,-1,11,-1,-1],"loss_changes":[1.2313628E0,9.451606E-1,1.8046886E0,0E0,1.3665187E0,0E0,0E0,1.667078E0,0E0,0E0,7.7023065E-1,0E0,0E0],"parents":[2147483647,0,0,1,1,2,2,4,4,7,7,10,10],"right_children":[2,4,6,-1,8,-1,-1,10,-1,-1,12,-1,-1],"split_conditions":[1.1410887E-1,7.8927346E-2,8.614546E-1,-1.2255199E-2,4.0658604E-2,-7.9133324E-2,3.2196607E-2,4.877147E0,-1.6332477E-2,1.2312543E-1,3.3333335E-2,-1.5458354E-2,5.9804592E-2],"split_indices":[6,8,1,0,4,0,0,7,0,0,6,0,0],"split_type":[0,0,0,0,0,0,0,0,0,0,0,0,0],"sum_hessian":[4.2656822E1,3.130137E1,1.1355451E1,8.915317E0,2.2386055E1,5.942389E0,5.4130616E0,1.6539434E1,5.8466196E0,5.880187E0,1.0659248E1,5.158735E0,5.500513E0],"tree_param":{"num_deleted":"0","num_feature":"15","num_nodes":"13","size_leaf_vector":"1"}},{"base_weights":[-3.0349016E-2,-1.2562251E-1,7.3161714E-2,2.1649714E-1,-3.1487122E-1,-2.7160054E-2,8.565084E-2,-8.099551E-2,-5.2771944E-1,6.461609E-2,-7.083999E-2,-3.0825451E-2,-1.2416208E-1],"categories":[],"categories_nodes":[],"categories_segments":[],"categories_sizes":[],"default_left":[0,0,0,0,0,0,0,0,0,0,0,0,0],"id":68,"left_children":[1,3,-1,5,7,-1,-1,9,11,-1,-1,-1,-1],"loss_changes":[2.1900246E0,2.4781952E0,0E0,2.0553582E0,1.1705606E0,0E0,0E0,2.7653842E0,1.045953E0,0E0,0E0,0E0,0E0],"parents":[2147483647,0,0,1,1,3,3,4,4,7,7,8,8],"right_children":[2,4,-1,6,8,-1,-1,10,12,-1,-1,-1,-1],"split_conditions":[1.5795342E0,1.3636893E0,7.3161714E-2,1.2738045E0,-4.2648647E-2,-2.7160054E-2,8.565084E-2,3.786415E0,1.4637307E0,6.461609E-2,-7.083999E-2,-3.0825451E-2,-1.2416208E-1],"split_indices":[0,0,0,0,4,0,0,7,0,0,0,0,0],"split_type":[0,0,0,0,0,0,0,0,0,0,0,0,0],"sum_hessian":[4.212655E1,3.6222954E1,5.903596E0,1.2849651E1,2.33733E1,6.2876263E0,6.5620255E0,1.1794329E1,1.1578972E1,5.0665245E0,6.7278047E0,6.39547E0,5.183502E0],"tree_param":{"num_deleted":"0","num_feature":"15","num_nodes":"13","size_leaf_vector":"1"}},{"base_weights":[1.05296284E-1,8.179329E-2,-4.4106008E-3,5.8784362E-2,-1.2660362E-1,-7.795222E-2,7.228364E-2,-3.9385844E-2,2.3614314E-1,8.360414E-2,-1.8723723E-2],"categories":[],"categories_nodes":[],"categories_segments":[],"categories_sizes":[],"default_left":[0,0,0,0,0,0,0,0,0,0,0],"id":69,"left_children":[1,-1,3,-1,5,-1,7,-1,9,-1,-1],"loss_changes":[2.1527119E0,0E0,1.8243603E0,0E0,2.2865667E0,0E0,1.1583072E0,0E0,1.6861343E0,0E0,0E0],"parents":[2147483647,0,0,2,2,4,4,6,6,8,8],"right_children":[2,-1,4,-1,6,-1,8,-1,10,-1,-1],"split_conditions":[7.721607E-2,8.179329E-2,1.3650794E-2,5.8784362E-2,1.6227324E-2,-7.795222E-2,2.3609176E-1,-3.9385844E-2,1.8979592E-2,8.360414E-2,-1.8723723E-2],"split_indices":[2,0,12,0,12,0,3,0,12,0,0],"split_type":[0,0,0,0,0,0,0,0,0,0,0],"sum_hessian":[4.3547306E1,7.8986063E0,3.56487E1,7.88105E0,2.776765E1,8.787405E0,1.8980244E1,6.0382743E0,1.294197E1,6.560154E0,6.381816E0],"tree_param":{"num_deleted":"0","num_feature":"15","num_nodes":"11","size_leaf_vector":"1"}},{"base_weights":[-2.835592E-2,-1.3496673E-1,7.799287E-2,-2.5994638E-1,5.1351637E-2,-5.3562796E-1,1.0161224E-1,-1.9227043E-2,-7.2615546E-1,-1.26886275E-2,5.3067338E-2,-6.319344E-2,-1.4127578E-1],"categories":[],"categories_nodes":[],"categories_segments":[],"categories_sizes":[],"default_left":[0,0,0,0,0,0,0,0,0,0,0,0,0],"id":70,"left_children":[1,3,-1,5,-1,7,9,-1,11,-1,-1,-1,-1],"loss_changes":[2.6431632E0,2.3346632E0,0E0,3.0847158E0,0E0,1.258368E0,6.86959E-1,0E0,3.6909723E-1,0E0,0E0,0E0,0E0],"parents":[2147483647,0,0,1,1,3,3,5,5,6,6,8,8],"right_children":[2,4,-1,6,-1,8,10,-1,12,-1,-1,-1,-1],"split_conditions":[7.59081E-2,1.27E2,7.799287E-2,1.4525393E0,5.1351637E-2,6.724067E-1,5.711685E0,-1.9227043E-2,3.849002E-2,-1.26886275E-2,5.3067338E-2,-6.319344E-2,-1.4127578E-1],"split_indices":[4,10,0,0,0,5,7,0,6,0,0,0,0],"split_type":[0,0,0,0,0,0,0,0,0,0,0,0,0],"sum_hessian":[4.3016087E1,3.664486E1,6.371226E0,2.9401684E1,7.243176E0,1.6408825E1,1.2992859E1,5.761176E0,1.0647649E1,7.856295E0,5.1365633E0,5.635378E0,5.012271E0],"tree_param":{"num_deleted":"0","num_feature":"15","num_nodes":"13","size_leaf_vector":"1"}},{"base_weights":[-5.9936512E-2,-4.608583E-1,8.920508E-2,-1.1553055E-1,-8.371386E-3,-1.4695561E-1,2.8677112E-1,5.6770504E-2,-6.982185E-2,8.58599E-2,-7.663388E-3],"categories":[],"categories_nodes":[],"categories_segments":[],"categories_sizes":[],"default_left":[0,0,0,0,0,0,0,0,0,0,0],"id":71,"left_children":[1,3,5,-1,-1,7,9,-1,-1,-1,-1],"loss_changes":[2.737573E0,1.5093861E0,1.6148002E0,0E0,0E0,2.8564098E0,1.8330444E0,0E0,0E0,0E0,0E0],"parents":[2147483647,0,0,1,1,2,2,5,5,6,6],"right_children":[2,4,6,-1,-1,8,10,-1,-1,-1,-1],"split_conditions":[9.901738E-2,3.0637637E-1,1.617782E-2,-1.1553055E-1,-8.371386E-3,2.4179581E-1,5.7495117E0,5.6770504E-2,-6.982185E-2,8.58599E-2,-7.663388E-3],"split_indices":[2,3,12,0,0,3,7,0,0,0,0],"split_type":[0,0,0,0,0,0,0,0,0,0,0],"sum_hessian":[4.4095776E1,1.1389229E1,3.2706547E1,5.946354E0,5.442875E0,1.5014785E1,1.7691763E1,5.595852E0,9.418934E0,9.210765E0,8.480998E0],"tree_param":{"num_deleted":"0","num_feature":"15","num_nodes":"11","size_leaf_vector":"1"}},{"base_weights":[7.633235E-2,-3.9234295E-1,2.4211673E-1,-2.0626485E-2,-8.9139394E-2,8.8480376E-2,1.32183E-1,-1.0323093E-1,3.68127E-1,1.4209227E-1,-7.964501E-2,8.85643E-2,1.4546398E-2,-3.96325E-2,7.447867E-2],"categories":[],"categories_nodes":[],"categories_segments":[],"categories_sizes":[],"default_left":[0,0,0,0,0,0,0,0,0,0,0,0,0,0,0],"id":72,"left_children":[1,3,5,-1,-1,7,-1,9,11,13,-1,-1,-1,-1,-1],"loss_changes":[3.4658332E0,5.212252E-1,3.1294503E0,0E0,0E0,1.5094479E0,0E0,1.8660754E0,6.288239E-1,1.8065175E0,0E0,0E0,0E0,0E0,0E0],"parents":[2147483647,0,0,1,1,2,2,5,5,7,7,8,8,9,9],"right_children":[2,4,6,-1,-1,8,-1,10,12,14,-1,-1,-1,-1,-1],"split_conditions":[7.4E1,1.3704033E-2,6.0052674E-2,-2.0626485E-2,-8.9139394E-2,5.817863E0,1.32183E-1,1.835033E-1,1.1511791E1,2.8758577E-1,-7.964501E-2,8.85643E-2,1.4546398E-2,-3.96325E-2,7.447867E-2],"split_indices":[10,12,4,0,0,7,0,8,7,3,0,0,0,0,0],"split_type":[0,0,0,0,0,0,0,0,0,0,0,0,0,0,0],"sum_hessian":[4.2383297E1,1.071767E1,3.1665627E1,5.481167E0,5.2365036E0,2.6446499E1,5.219126E0,1.6064417E1,1.0382083E1,1.0633494E1,5.4309216E0,5.057901E0,5.3241825E0,5.072775E0,5.56072E0],"tree_param":{"num_deleted":"0","num_feature":"15","num_nodes":"15","size_leaf_vector":"1"}},{"base_weights":[-1.4064278E-1,-2.574664E-1,1.4988653E-1,-1.06021084E-1,-9.649794E-2,-1.6518695E-2,7.016971E-2,1.8065207E-1,-3.5778522E-1,-3.3196323E-2,8.959162E-2,-1.0196472E-1,-3.7422553E-3],"categories":[],"categories_nodes":[],"categories_segments":[],"categories_sizes":[],"default_left":[0,0,0,0,0,0,0,0,0,0,0,0,0],"id":73,"left_children":[1,3,5,7,-1,-1,-1,9,11,-1,-1,-1,-1],"loss_changes":[1.5162854E0,1.7678134E0,1.1358626E0,1.7795452E0,0E0,0E0,0E0,2.1040447E0,1.3747234E0,0E0,0E0,0E0,0E0],"parents":[2147483647,0,0,1,1,2,2,3,3,7,7,8,8],"right_children":[2,4,6,8,-1,-1,-1,10,12,-1,-1,-1,-1],"split_conditions":[2.0090703E-2,1.15E2,1.1320751E-1,7.7164286E-1,-9.649794E-2,-1.6518695E-2,7.016971E-2,7.1E1,2.4533962E-1,-3.3196323E-2,8.959162E-2,-1.0196472E-1,-3.7422553E-3],"split_indices":[12,10,8,1,0,0,0,10,8,0,0,0,0],"split_type":[0,0,0,0,0,0,0,0,0,0,0,0,0],"sum_hessian":[4.2537556E1,3.041949E1,1.2118065E1,2.2760777E1,7.658715E0,7.02561E0,5.092455E0,1.0774624E1,1.1986153E1,5.722425E0,5.052199E0,5.5626364E0,6.423516E0],"tree_param":{"num_deleted":"0","num_feature":"15","num_nodes":"13","size_leaf_vector":"1"}},{"base_weights":[7.122569E-2,3.262872E-1,-1.3863467E-1,1.2949084E-1,9.532219E-2,-6.60206E-2,4.983509E-2,6.301885E-2,-2.9133711E-2,-5.3871762E-2,5.9958696E-2],"categories":[],"categories_nodes":[],"categories_segments":[],"categories_sizes":[],"default_left":[0,0,0,0,0,0,0,0,0,0,0],"id":74,"left_children":[1,3,5,7,-1,-1,9,-1,-1,-1,-1],"loss_changes":[2.376203E0,1.1319337E0,1.4193733E0,1.3469882E0,0E0,0E0,2.4375753E0,0E0,0E0,0E0,0E0],"parents":[2147483647,0,0,1,1,2,2,3,3,6,6],"right_children":[2,4,6,8,-1,-1,10,-1,-1,-1,-1],"split_conditions":[1.6981859E-2,1.50226755E-2,7.921412E-1,1.3265306E-2,9.532219E-2,-6.60206E-2,1.1320751E-1,6.301885E-2,-2.9133711E-2,-5.3871762E-2,5.9958696E-2],"split_indices":[12,12,1,12,0,0,8,0,0,0,0],"split_type":[0,0,0,0,0,0,0,0,0,0,0],"sum_hessian":[4.2547276E1,1.8954926E1,2.359235E1,1.2449711E1,6.505214E0,8.561251E0,1.5031099E1,6.403113E0,6.046598E0,6.9181423E0,8.112957E0],"tree_param":{"num_deleted":"0","num_feature":"15","num_nodes":"11","size_leaf_vector":"1"}},{"base_weights":[-1.0877355E-1,-5.293968E-1,4.3455817E-2,-3.1581037E-2,-1.2136036E-1,2.2770779E-1,-2.3575763E-1,-1.03398986E-1,8.2952514E-2,2.6468081E-2,-1.1770672E-1,6.6540395E-3,-3.5828587E-2],"categories":[],"categories_nodes":[],"categories_segments":[],"categories_sizes":[],"default_left":[0,0,0,0,0,0,0,0,0,0,0,0,0],"id":75,"left_children":[1,3,5,-1,-1,7,9,11,-1,-1,-1,-1,-1],"loss_changes":[2.8953314E0,8.9944553E-1,1.7957243E0,0E0,0E0,2.3092902E0,3.295857E0,2.3485516E-1,0E0,0E0,0E0,0E0,0E0],"parents":[2147483647,0,0,1,1,2,2,5,5,6,6,7,7],"right_children":[2,4,6,-1,-1,8,10,12,-1,-1,-1,-1,-1],"split_conditions":[1.3265731E0,1.1E2,8.641417E-1,-3.1581037E-2,-1.2136036E-1,3.786415E0,2.3391813E-1,9.3E1,8.2952514E-2,2.6468081E-2,-1.1770672E-1,6.6540395E-3,-3.5828587E-2],"split_indices":[0,10,5,0,0,7,2,10,0,0,0,0,0],"split_type":[0,0,0,0,0,0,0,0,0,0,0,0,0],"sum_hessian":[4.385822E1,1.0996444E1,3.2861774E1,5.957295E0,5.039149E0,1.9908615E1,1.2953158E1,1.0204449E1,9.704167E0,7.7855344E0,5.167624E0,5.202273E0,5.002176E0],"tree_param":{"num_deleted":"0","num_feature":"15","num_nodes":"13","size_leaf_vector":"1"}},{"base_weights":[-1.0284992E-1,1.721986E-1,-2.5839972E-1,1.0075567E-1,-1.8908799E-2,-3.7978655E-1,2.4732927E-2,-1.4963368E-1,-1.0939992E-1,-6.978621E-2,5.096912E-2],"categories":[],"categories_nodes":[],"categories_segments":[],"categories_sizes":[],"default_left":[0,0,0,0,0,0,0,0,0,0,0],"id":76,"left_children":[1,3,5,-1,-1,7,-1,9,-1,-1,-1],"loss_changes":[1.8486947E0,2.4435985E0,1.4672067E0,0E0,0E0,1.6242993E0,0E0,2.3593175E0,0E0,0E0,0E0],"parents":[2147483647,0,0,1,1,2,2,5,5,7,7],"right_children":[2,4,6,-1,-1,8,-1,10,-1,-1,-1],"split_conditions":[1.3949429E0,2.6352314E-2,1.0647242E0,1.0075567E-1,-1.8908799E-2,8.2230324E-1,2.4732927E-2,6.473178E-1,-1.0939992E-1,-6.978621E-2,5.096912E-2],"split_indices":[0,6,1,0,0,1,0,1,0,0,0],"split_type":[0,0,0,0,0,0,0,0,0,0,0],"sum_hessian":[4.117019E1,1.48337E1,2.6336489E1,5.077712E0,9.755988E0,2.0546951E1,5.789538E0,1.3250477E1,7.296475E0,8.085777E0,5.1646996E0],"tree_param":{"num_deleted":"0","num_feature":"15","num_nodes":"11","size_leaf_vector":"1"}},{"base_weights":[1.374694E-2,-2.6686916E-1,1.22264E-1,-8.402621E-2,1.955206E-2,-4.4183053E-2,2.691974E-1,4.60501E-1,-5.567567E-3,1.517623E-2,1.0399173E-1],"categories":[],"categories_nodes":[],"categories_segments":[],"categories_sizes":[],"default_left":[0,0,0,0,0,0,0,0,0,0,0],"id":77,"left_children":[1,3,5,-1,-1,-1,7,9,-1,-1,-1],"loss_changes":[1.3961526E0,1.564409E0,2.0988712E0,0E0,0E0,0E0,1.4764174E0,1.2183146E0,0E0,0E0,0E0],"parents":[2147483647,0,0,1,1,2,2,6,6,7,7],"right_children":[2,4,6,-1,-1,-1,8,10,-1,-1,-1],"split_conditions":[1.3271482E0,7.067138E-1,7.4E1,-8.402621E-2,1.955206E-2,-4.4183053E-2,1.8370586E-2,2.8610244E-1,-5.567567E-3,1.517623E-2,1.0399173E-1],"split_indices":[0,5,10,0,0,0,12,3,0,0,0],"split_type":[0,0,0,0,0,0,0,0,0,0,0],"sum_hessian":[4.377672E1,1.1801021E1,3.1975697E1,6.552434E0,5.2485867E0,8.072141E0,2.3903555E1,1.4404259E1,9.499297E0,6.2268443E0,8.177415E0],"tree_param":{"num_deleted":"0","num_feature":"15","num_nodes":"11","size_leaf_vector":"1"}},{"base_weights":[5.741843E-2,8.284114E-2,-2.7753184E-2,-7.162242E-2,1.3015315E-1,6.103125E-2,-5.1302716E-2,3.7347283E-2,-5.5651013E-2],"categories":[],"categories_nodes":[],"categories_segments":[],"categories_sizes":[],"default_left":[0,0,0,0,0,0,0,0,0],"id":78,"left_children":[1,-1,3,-1,5,-1,7,-1,-1],"loss_changes":[1.7525395E0,0E0,2.627004E0,0E0,1.4025854E0,0E0,1.7731149E0,0E0,0E0],"parents":[2147483647,0,0,2,2,4,4,6,6],"right_children":[2,-1,4,-1,6,-1,8,-1,-1],"split_conditions":[-1.3183331E-1,8.284114E-2,9.982724E-2,-7.162242E-2,1.3391264E-1,6.103125E-2,5.7495117E0,3.7347283E-2,-5.5651013E-2],"split_indices":[4,0,2,0,8,0,7,0,0],"split_type":[0,0,0,0,0,0,0,0,0],"sum_hessian":[4.0217274E1,5.1002197E0,3.5117054E1,8.599935E0,2.651712E1,1.0009802E1,1.6507318E1,8.626252E0,7.881066E0],"tree_param":{"num_deleted":"0","num_feature":"15","num_nodes":"9","size_leaf_vector":"1"}},{"base_weights":[5.730422E-2,-9.64172E-2,3.1261417E-1,1.26892E-1,-3.804186E-1,1.1167331E-1,4.284168E-2,-1.0816318E-1,8.1853904E-2,-1.9968506E-3,-9.6425295E-2,-3.068359E-2,4.2277347E-2,-5.778836E-2,2.8665004E-2],"categories":[],"categories_nodes":[],"categories_segments":[],"categories_sizes":[],"default_left":[0,0,0,0,0,0,0,0,0,0,0,0,0,0,0],"id":79,"left_children":[1,3,5,7,9,-1,11,13,-1,-1,-1,-1,-1,-1,-1],"loss_changes":[1.725041E0,1.8062859E0,1.8864956E0,1.6604748E0,1.1910069E0,0E0,7.1967465E-1,1.0068806E0,0E0,0E0,0E0,0E0,0E0,0E0,0E0],"parents":[2147483647,0,0,1,1,2,2,3,3,4,4,6,6,7,7],"right_children":[2,4,6,8,10,-1,12,14,-1,-1,-1,-1,-1,-1,-1],"split_conditions":[9.07044E-1,7.905694E-2,1.0561643E0,9.5306623E-1,7.235448E-1,1.1167331E-1,1.3954065E0,6.8713504E-1,8.1853904E-2,-1.9968506E-3,-9.6425295E-2,-3.068359E-2,4.2277347E-2,-5.778836E-2,2.8665004E-2],"split_indices":[1,6,1,5,1,0,0,1,0,0,0,0,0,0,0],"split_type":[0,0,0,0,0,0,0,0,0,0,0,0,0,0,0],"sum_hessian":[4.2185883E1,2.6720123E1,1.5465759E1,1.52680855E1,1.1452037E1,5.2697725E0,1.0195987E1,1.0254435E1,5.013651E0,5.2117786E0,6.240258E0,5.080867E0,5.11512E0,5.1752453E0,5.0791893E0],"tree_param":{"num_deleted":"0","num_feature":"15","num_nodes":"15","size_leaf_vector":"1"}},{"base_weights":[7.6859996E-2,-4.522734E-2,8.220652E-2,9.1001615E-2,-7.240504E-2,2.6331967E-1,-4.6930447E-2,5.543268E-2,9.457636E-2,4.942385E-2,-3.8919065E-2],"categories":[],"categories_nodes":[],"categories_segments":[],"categories_sizes":[],"default_left":[0,0,0,0,0,0,0,0,0,0,0],"id":80,"left_children":[1,3,-1,5,-1,7,-1,9,-1,-1,-1],"loss_changes":[2.3239884E0,1.9907749E0,0E0,1.8745452E0,0E0,1.3843368E0,0E0,1.2046409E0,0E0,0E0,0E0],"parents":[2147483647,0,0,1,1,3,3,5,5,7,7],"right_children":[2,4,-1,6,-1,8,-1,10,-1,-1,-1],"split_conditions":[2.5660065E-1,4.3080352E-2,8.220652E-2,8.8388346E-2,-7.240504E-2,7.654656E-2,-4.6930447E-2,8.7E1,9.457636E-2,4.942385E-2,-3.8919065E-2],"split_indices":[8,4,0,6,0,6,0,11,0,0,0],"split_type":[0,0,0,0,0,0,0,0,0,0,0],"sum_hessian":[3.8968376E1,3.1667173E1,7.301201E0,2.4751535E1,6.915639E0,1.759315E1,7.1583853E0,1.1968219E1,5.6249313E0,6.3742127E0,5.594006E0],"tree_param":{"num_deleted":"0","num_feature":"15","num_nodes":"11","size_leaf_vector":"1"}},{"base_weights":[-8.082634E-2,6.125966E-2,-4.878894E-1,-4.0407747E-2,6.62719E-2,-4.1645397E-2,-9.285149E-2,1.5937363E-1,-5.864704E-2,-1.7333206E-2,6.823333E-2],"categories":[],"categories_nodes":[],"categories_segments":[],"categories_sizes":[],"default_left":[0,0,0,0,0,0,0,0,0,0,0],"id":81,"left_children":[1,3,5,7,-1,-1,-1,9,-1,-1,-1],"loss_changes":[2.4854622E0,1.269837E0,1.3405704E-1,1.9150447E0,0E0,0E0,0E0,1.4793197E0,0E0,0E0,0E0],"parents":[2147483647,0,0,1,1,2,2,3,3,7,7],"right_children":[2,4,6,8,-1,-1,-1,10,-1,-1,-1],"split_conditions":[1.118034E-1,2.0115268E-1,1.4864004E0,2.8819022E-1,6.62719E-2,-4.1645397E-2,-9.285149E-2,2.326356E-1,-5.864704E-2,-1.7333206E-2,6.823333E-2],"split_indices":[6,9,0,3,0,0,0,3,0,0,0],"split_type":[0,0,0,0,0,0,0,0,0,0,0],"sum_hessian":[4.1456097E1,3.1359516E1,1.00965805E1,2.5453306E1,5.906212E0,5.0754457E0,5.021135E0,1.6561031E1,8.892274E0,8.894829E0,7.6662025E0],"tree_param":{"num_deleted":"0","num_feature":"15","num_nodes":"11","size_leaf_vector":"1"}},{"base_weights":[4.268813E-2,3.1807935E-1,-1.5884744E-1,-5.913857E-2,1.2620202E-1,-1.0368384E-1,2.3132792E-2,5.3762022E-2,-6.8878725E-2,-2.4848953E-1,7.780233E-2,8.254912E-3,-6.9107E-2],"categories":[],"categories_nodes":[],"categories_segments":[],"categories_sizes":[],"default_left":[0,0,0,0,0,0,0,0,0,0,0,0,0],"id":82,"left_children":[1,3,5,7,-1,-1,9,-1,-1,11,-1,-1,-1],"loss_changes":[2.324278E0,3.5325954E0,2.372443E0,2.0333972E0,0E0,0E0,2.6990237E0,0E0,0E0,8.633848E-1,0E0,0E0,0E0],"parents":[2147483647,0,0,1,1,2,2,3,3,6,6,9,9],"right_children":[2,4,6,8,-1,-1,10,-1,-1,12,-1,-1,-1],"split_conditions":[5.0076237E0,1.5019462E0,8.578512E-2,1.0961739E-1,1.2620202E-1,-1.0368384E-1,3.9664367E-3,5.3762022E-2,-6.8878725E-2,1.892525E-1,7.780233E-2,8.254912E-3,-6.9107E-2],"split_indices":[7,0,8,8,0,0,4,0,0,8,0,0,0],"split_type":[0,0,0,0,0,0,0,0,0,0,0,0,0],"sum_hessian":[3.9967674E1,1.6644829E1,2.3322847E1,1.0187645E1,6.4571834E0,5.228541E0,1.8094305E1,